svm_type c_svc
kernel_type rbf
gamma 0.111111
nr_class 2
total_sv 488
rho 0.205279 
label 1 0 
nr_sv 239 249 
SV
1.000000 1:0.956953 2:1.566321 3:1.248995 4:1.135164 5:1.211881 6:0.459335 7:0.850684 8:1.179081 9:3.104467 
1.000000 1:0.128963 2:0.681805 3:0.910196 4:0.955495 5:0.928823 6:1.544029 7:2.731779 8:2.550129 9:0.888832 
1.000000 1:0.052923 2:-0.360348 3:-0.552421 4:-0.652071 5:-0.648214 6:-0.605990 7:0.494353 8:1.263155 9:1.286231 
1.000000 1:0.086719 2:0.821926 3:0.844089 4:0.738001 5:0.756967 6:0.769247 7:0.635228 8:-0.327777 9:-0.477568 
1.000000 1:3.162111 2:3.274050 3:2.273653 4:1.655259 5:0.918714 6:0.420596 7:1.140721 8:1.651187 9:1.237236 
1.000000 1:-0.082259 2:-0.824500 3:-0.849902 4:-0.879021 5:-1.133456 6:-0.615675 7:0.146309 8:0.215468 9:0.877944 
1.000000 1:-1.332693 2:-1.043440 3:-0.833375 4:-0.784459 5:-0.789743 6:-0.702838 7:-0.640933 8:-1.013301 9:-0.368691 
1.000000 1:0.103617 2:0.138835 3:-0.130989 4:-0.141432 5:-0.577449 6:-0.877163 7:-0.814955 8:-0.780482 9:0.023264 
1.000000 1:-0.099157 2:-0.045075 3:-0.081408 4:-0.018501 5:-0.102316 6:-0.373555 7:-0.732088 8:-0.677006 9:-0.363247 
0.023907 1:-0.487805 2:-0.097620 3:0.827563 4:1.645802 5:2.010509 6:0.672400 7:0.212603 8:0.053788 9:0.257348 
1.000000 1:1.894779 2:1.750230 3:1.108517 4:0.596157 5:-0.041661 6:-0.150806 7:-0.906110 8:-0.767547 9:-0.635438 
1.000000 1:0.880913 2:0.532926 3:0.290444 4:0.038237 5:-0.365156 6:-0.886848 7:-0.632646 8:-0.470056 9:-0.608219 
1.000000 1:-0.014668 2:0.436592 3:1.017620 4:1.362114 5:1.464612 6:1.389073 7:-0.077433 8:0.131394 9:0.159360 
1.000000 1:0.635896 2:0.664290 3:0.868880 4:1.201358 5:0.665984 6:0.110683 7:-0.599499 8:-0.696408 9:-1.212484 
1.000000 1:-0.589191 2:-0.579287 3:-0.593737 4:-0.803371 5:-1.274985 6:-1.516358 7:-0.806668 8:-0.942162 9:-0.450349 
1.000000 1:-0.276583 2:-0.080105 3:0.149966 4:0.473225 5:0.686202 6:0.720824 7:0.386625 8:-0.741678 9:0.175691 
1.000000 1:-1.417182 2:-1.008409 3:-0.635054 4:-0.235995 5:-0.092207 6:-0.877163 7:-1.171286 8:0.267206 9:0.975933 
1.000000 1:-0.166748 2:-0.018802 3:0.133439 4:0.643438 5:0.847950 6:1.398757 7:0.883831 8:0.681107 9:-0.014843 
1.000000 1:-1.645301 2:-0.868288 3:-0.147515 4:0.652894 5:0.817622 6:0.469020 7:0.270611 8:0.422418 9:0.769068 
1.000000 1:-1.442528 2:-1.384985 3:-1.006906 4:-1.068147 5:-0.921162 6:-1.312978 7:-1.229293 8:-1.013301 9:-0.069281 
1.000000 1:-1.552364 2:-1.166046 3:-0.849902 4:-0.604789 5:-0.435920 6:-0.218599 7:-0.127154 8:-1.304325 9:-0.597332 
1.000000 1:-0.437112 2:-0.579287 3:-0.387153 4:-0.340014 5:-0.739197 6:-0.557566 7:-0.624360 8:-0.288974 9:0.687410 
1.000000 1:-0.285032 2:-0.115135 3:0.207810 4:0.567788 5:0.655875 6:0.759563 7:0.684949 8:-0.761080 9:-1.256034 
1.000000 1:0.644345 2:0.602987 3:0.092123 4:0.246275 5:-0.132644 6:-0.267023 7:-0.972404 8:-0.224302 9:-0.406798 
1.000000 1:-2.118439 2:-1.516349 3:-1.155647 4:-0.992496 5:-1.244657 6:-1.642260 7:-1.825940 8:-1.808767 9:-1.511894 
0.473875 1:0.272594 2:0.856957 3:1.017620 4:0.350294 5:-0.274173 6:0.623976 7:1.082714 8:1.198483 9:0.126697 
1.000000 1:-0.673680 2:-0.220226 3:0.108649 4:0.104431 5:-0.162972 6:0.275324 7:-0.516632 8:0.506492 9:-0.330584 
1.000000 1:0.424674 2:0.200138 3:0.249127 4:0.425944 5:0.473909 6:0.294694 7:0.817537 8:2.614801 9:1.825169 
1.000000 1:0.390878 2:0.305229 3:0.116913 4:-0.103607 5:-0.142753 6:-0.625359 7:-0.251455 8:-0.579998 9:-0.395910 
1.000000 1:-0.107605 2:0.585471 3:1.381209 4:2.648167 5:2.920338 6:0.972628 7:0.146309 8:-0.767547 9:-0.934849 
1.000000 1:0.618998 2:0.173865 3:0.026016 4:0.113887 5:-0.233736 6:-0.460718 7:-0.309463 8:-0.353646 9:-0.401354 
1.000000 1:-0.504703 2:-0.833257 3:-0.659844 4:-0.519683 5:-0.537012 6:-0.528512 7:-0.947543 8:-1.349596 9:-1.833079 
1.000000 1:0.357083 2:0.497896 3:0.340024 4:0.605613 5:0.605329 6:0.643345 7:0.693236 8:0.111993 9:-0.978399 
1.000000 1:0.821771 2:0.532926 3:0.216073 4:0.293556 5:0.575001 6:1.127584 7:1.032993 8:-0.489457 9:-0.548337 
1.000000 1:0.205003 2:0.086289 3:0.034279 4:-0.302189 5:-0.506685 6:-0.334816 7:0.179456 8:0.008517 9:0.382556 
0.994630 1:-0.622987 2:-0.097620 3:0.315234 4:0.643438 5:0.382926 6:0.110683 7:-0.533205 8:-0.444187 9:-0.923961 
1.000000 1:0.331736 2:0.357774 3:0.092123 4:-0.131976 5:-0.142753 6:-0.731892 7:-1.138139 8:0.862188 9:1.171910 
1.000000 1:0.804874 2:0.489138 3:0.083859 4:-0.103607 5:-0.183190 6:0.013835 7:0.751243 8:-0.470056 9:-0.221708 
1.000000 1:0.534509 2:0.086289 3:-0.246676 4:-0.311645 5:-0.486466 6:-0.925587 7:-0.632646 8:-1.116776 9:-1.130826 
1.000000 1:1.210420 2:0.988320 3:0.273917 4:-0.113064 5:-0.334828 6:-0.722207 7:-0.781808 8:-1.763497 9:-1.680652 
1.000000 1:-0.960942 2:-0.745682 3:-0.717688 4:-0.548052 5:-0.162972 6:-0.044273 7:-0.748661 8:-0.651138 9:-0.858635 
1.000000 1:-0.775067 2:-0.553015 3:-0.263202 4:0.170625 5:0.575001 6:0.711139 7:0.394912 8:-0.230769 9:-0.472124 
1.000000 1:-0.817311 2:-0.588045 3:-0.560684 4:-0.661527 5:-0.537012 6:-0.509142 7:-0.326036 8:-1.136178 9:-0.722540 
1.000000 1:1.109033 2:1.697685 3:2.174493 4:2.477954 5:2.323895 6:1.786148 7:0.602081 8:0.247804 9:0.099478 
1.000000 1:-0.631436 2:-0.474196 3:-0.304519 4:-0.273820 5:-0.385374 6:-0.441349 7:-1.146426 8:-1.718226 9:-1.506450 
1.000000 1:-0.462458 2:-0.377863 3:-0.585474 4:-0.680440 5:-0.789743 6:-0.896533 7:-0.599499 8:0.506492 9:0.741849 
1.000000 1:-0.563845 2:-0.570530 3:-0.436733 4:-0.689896 5:-0.648214 6:0.004151 7:-0.218308 8:-1.071506 9:-1.359467 
1.000000 1:-0.023117 2:-0.062590 3:-0.238412 4:-0.160345 5:-0.274173 6:0.062259 7:0.469493 8:0.137861 9:0.317230 
1.000000 1:-1.400284 2:-1.376228 3:-1.296124 4:-1.418028 5:-1.547934 6:-1.874695 7:-2.198845 8:-2.306742 9:-1.947400 
1.000000 1:-0.944044 2:-0.447924 3:-0.304519 4:-0.207626 5:-0.132644 6:-0.392925 7:-0.524919 8:-0.146696 9:-0.308809 
1.000000 1:-0.893351 2:-0.596803 3:-0.494577 4:-0.330558 5:-0.688651 6:-0.780316 7:-0.715514 8:-1.213784 9:-1.201596 
1.000000 1:-0.099157 2:-0.001287 3:0.001225 4:-0.009045 5:0.211069 6:0.604606 7:0.958412 8:-0.398917 9:-0.488455 
1.000000 1:0.973851 2:0.497896 3:-0.064882 4:-0.425120 5:-0.799852 6:-0.954642 7:-0.790095 8:-0.955096 9:-0.205377 
1.000000 1:1.463886 2:1.198502 3:0.620978 4:0.047693 5:-0.162972 6:-0.102382 7:-0.947543 8:-0.288974 9:0.769068 
1.000000 1:-1.020084 2:-0.736924 3:-0.469787 4:-0.207626 5:0.433472 6:0.527128 7:0.030295 8:-1.330194 9:-1.620770 
1.000000 1:0.188105 2:0.217653 3:0.059069 4:0.312469 5:0.868168 6:1.640877 7:1.903103 8:0.099058 9:0.202910 
1.000000 1:0.272594 2:0.095047 3:-0.081408 4:-0.094151 5:-0.253954 6:-0.431664 7:-0.458624 8:0.674639 9:-0.085612 
1.000000 1:-0.006219 2:0.042501 3:-0.139252 4:-0.349470 5:-0.435920 6:-0.828740 7:-0.616073 8:-1.563013 9:-1.517338 
1.000000 1:-0.868004 2:-0.789470 3:-0.651581 4:-0.491314 5:-0.547122 6:-0.344501 7:-0.864676 8:-1.802300 9:-1.691540 
1.000000 1:0.179656 2:0.340259 3:0.306970 4:0.539419 5:0.827731 6:0.933888 7:2.002544 8:2.116826 9:1.324337 
1.000000 1:0.559856 2:-0.404136 3:-0.725951 4:-0.831740 5:-0.547122 6:-0.596305 7:-0.806668 8:-0.263105 9:-0.815085 
1.000000 1:-1.619955 2:-1.183561 3:-0.593737 4:0.019324 5:0.271725 6:0.594922 7:-0.342610 8:-0.909826 9:-0.417686 
1.000000 1:-0.285032 2:-0.281530 3:-0.197095 4:-0.302189 5:-0.941381 6:-1.797216 7:-1.469610 8:-0.101425 9:0.534983 
1.000000 1:0.526061 2:0.506653 3:0.331760 4:0.463769 5:0.615438 6:0.720824 7:0.154596 8:-0.599400 9:-0.564669 
1.000000 1:-0.868004 2:-0.272772 3:-0.254939 4:0.057149 5:0.544673 6:0.042890 7:0.245750 8:-0.179032 9:0.066815 
1.000000 1:0.179656 2:-0.228984 3:-0.304519 4:-0.160345 5:0.069540 6:0.323748 7:0.336905 8:-0.308376 9:-0.689877 
1.000000 1:-1.493221 2:-1.411258 3:-1.238280 4:-1.162709 5:-0.931272 6:-0.819055 7:0.071728 8:-0.961563 9:-0.499343 
1.000000 1:-0.884902 2:-1.034682 3:-0.973853 4:-1.181622 5:-1.173893 6:-0.654414 7:-0.947543 8:-0.120827 9:-0.330584 
1.000000 1:-0.099157 2:0.243926 3:-0.073145 4:-0.160345 5:-0.132644 6:0.188161 7:0.544074 8:0.500025 9:-0.809641 
1.000000 1:0.779527 2:0.068774 3:-0.296256 4:-0.538596 5:-0.668432 6:-0.654414 7:-0.466911 8:0.053788 9:-0.140051 
1.000000 1:-0.107605 2:-0.211469 3:-0.354100 4:-0.472402 5:-0.466248 6:-0.431664 7:0.038581 8:0.176665 9:0.257348 
1.000000 1:1.920126 2:2.074261 3:1.620847 4:1.381027 5:0.918714 6:0.091314 7:-0.284602 8:0.086124 9:0.404332 
0.140990 1:1.193522 2:2.223140 3:2.984303 4:1.664715 5:0.847950 6:0.197846 7:-1.063558 8:-0.903359 9:-0.923961 
1.000000 1:1.548375 2:1.180987 3:0.959777 4:0.719088 5:0.524455 6:0.439965 7:0.850684 8:0.752246 9:-0.118275 
1.000000 1:-1.535466 2:-1.384985 3:-1.180437 4:-1.276184 5:-1.285094 6:-1.584151 7:-1.602198 8:-0.909826 9:0.632972 
1.000000 1:-0.285032 2:0.121319 3:0.092123 4:0.340837 5:0.382926 6:-0.063643 7:-0.210022 8:0.047321 9:-0.248927 
1.000000 1:0.069821 2:-0.491712 3:-0.519367 4:-0.519683 5:-0.122535 6:-0.053958 7:0.809250 8:0.732844 9:1.405995 
1.000000 1:-1.011635 2:-0.920833 3:-0.775532 4:-0.935759 5:-1.376077 6:-1.826271 7:-1.850801 8:-1.511276 9:-0.983843 
1.000000 1:-1.248204 2:-1.008409 3:-0.759005 4:-0.670983 5:-0.456139 6:-1.032120 7:-1.295588 8:-1.213784 9:-1.354023 
1.000000 1:3.204355 2:4.605203 3:4.959249 4:5.598522 5:5.134256 6:3.219494 7:1.207015 8:1.069139 9:2.004815 
1.000000 1:1.937023 2:2.661019 3:2.653768 4:3.310105 5:2.536188 6:1.989528 7:2.002544 8:1.599450 9:1.547534 
1.000000 1:-1.045431 2:0.024986 3:0.563135 4:0.983864 5:1.666796 6:1.059790 7:0.361765 8:3.397333 9:5.597738 
1.000000 1:-0.783516 2:-0.535500 3:-0.849902 4:-1.257272 5:-1.527715 6:-1.865010 7:-1.718212 8:-0.877490 9:0.170247 
0.277006 1:0.416225 2:0.576714 3:0.571398 4:0.255731 5:-0.314610 6:-1.303293 7:-1.701639 8:-1.246120 9:-0.885854 
1.000000 1:-0.403316 2:-0.806985 3:-0.891219 4:-1.087059 5:-1.376077 6:-1.680999 7:-1.444749 8:-1.420735 9:-1.609883 
1.000000 1:-0.234339 2:-0.080105 3:-0.197095 4:-0.500770 5:-0.759415 6:-1.070859 7:-0.864676 8:0.597033 9:0.181135 
1.000000 1:-0.040014 2:0.086289 3:0.183020 4:0.189537 5:0.130196 6:-0.480088 7:0.212603 8:-0.968031 9:-0.472124 
1.000000 1:-0.048463 2:0.016228 3:0.042542 4:0.104431 5:-0.304500 6:0.023520 7:0.643515 8:-0.379515 9:-0.444905 
1.000000 1:3.162111 2:3.230262 3:1.744797 4:1.002776 5:0.271725 6:-0.063643 7:-0.342610 8:-0.088491 9:0.360781 
1.000000 1:-0.141401 2:0.095047 3:0.001225 4:-0.235995 5:-0.708869 6:-0.819055 7:-0.674080 8:-0.004417 9:-0.330584 
1.000000 1:0.585203 2:0.935775 3:0.761456 4:0.113887 5:-0.142753 6:0.333433 7:0.278898 8:0.267206 9:2.467540 
1.000000 1:-0.192094 2:-0.123893 3:0.075596 4:0.142256 5:-0.162972 6:-0.731892 7:-1.055271 8:-0.909826 9:-0.423129 
0.987860 1:0.686589 2:1.575079 3:2.595925 4:2.336110 5:2.283458 6:1.437496 7:0.858971 8:0.351279 9:-0.025730 
1.000000 1:1.176624 2:0.769381 3:0.662295 4:0.605613 5:0.635656 6:0.701454 7:0.303758 8:0.196066 9:0.284567 
1.000000 1:0.745731 2:0.594229 3:0.480501 4:0.425944 5:0.140305 6:0.013835 7:0.022008 8:0.105525 9:0.148472 
1.000000 1:1.438539 2:1.557563 3:1.191151 4:1.154076 5:1.373629 6:1.698985 7:0.850684 8:-0.573531 9:-0.466680 
1.000000 1:0.923158 2:0.734350 3:0.695349 4:0.927126 5:0.908605 6:0.924204 7:0.287184 8:0.584099 9:0.502320 
1.000000 1:-1.341142 2:-0.509227 3:0.257390 4:1.021689 5:1.262427 6:2.037952 7:2.599191 8:1.017401 9:1.460433 
1.000000 1:-0.149850 2:-0.369105 3:-0.436733 4:-0.689896 5:-1.032364 6:-1.206445 7:-1.627058 8:-1.155580 9:-0.504787 
1.000000 1:-0.377969 2:-0.535500 3:-0.610264 4:-0.661527 5:-0.486466 6:-0.267023 7:0.593795 8:0.331878 9:1.743512 
1.000000 1:-1.011635 2:-0.763197 3:-0.635054 4:-0.595333 5:-0.456139 6:-0.635044 7:-1.038698 8:-1.330194 9:-1.261478 
1.000000 1:-0.513152 2:-0.491712 3:-0.568947 4:-0.604789 5:-0.931272 6:-1.070859 7:-1.287301 8:-0.851621 9:-0.521118 
1.000000 1:-0.420214 2:0.024986 3:0.050806 4:-0.084695 5:0.120086 6:-0.431664 7:-0.698941 8:-0.896891 9:-0.673545 
1.000000 1:1.784943 2:0.997078 3:0.802773 4:1.059514 5:1.191663 6:1.786148 7:1.977684 8:-0.004417 9:0.181135 
1.000000 1:0.272594 2:0.077531 3:-0.197095 4:-0.264364 5:-0.456139 6:-0.993381 7:-0.417191 8:0.441820 9:0.415219 
0.935141 1:1.455437 2:2.240655 3:2.562871 4:1.664715 5:0.281834 6:-0.848109 7:-1.453036 8:-1.608284 9:-1.228815 
1.000000 1:0.720385 2:0.550441 3:0.811036 4:1.191901 5:1.019806 6:0.585237 7:0.129736 8:0.907459 9:0.660191 
1.000000 1:-1.053880 2:-0.885803 3:-0.585474 4:-0.434577 5:0.120086 6:0.904834 7:0.005434 8:-1.129711 9:-1.228815 
1.000000 1:0.678140 2:0.506653 3:0.034279 4:-0.311645 5:-0.516794 6:-0.673783 7:-0.466911 8:-1.045637 9:-0.983843 
1.000000 1:0.635896 2:0.208895 3:-0.015301 4:-0.453489 5:-0.435920 6:-0.460718 7:-0.011139 8:1.010934 9:0.436994 
1.000000 1:-1.239755 2:-1.087227 3:-0.816848 4:-0.727721 5:-0.779633 6:-0.673783 7:-0.326036 8:-0.004417 9:-0.025730 
1.000000 1:-0.217441 2:-0.167681 3:0.505291 4:1.097339 5:1.060243 6:1.476235 7:0.709809 8:0.403017 9:1.362444 
1.000000 1:0.036026 2:0.454108 3:-0.147515 4:-0.330558 5:-0.496576 6:-0.915902 7:-0.947543 8:-0.256638 9:0.954158 
1.000000 1:-0.834209 2:-0.325317 3:-0.147515 4:0.009868 5:0.484018 6:0.837041 7:1.057853 8:0.299542 9:0.556759 
1.000000 1:-0.800413 2:-0.736924 3:-0.759005 4:-0.737177 5:-1.002036 6:-1.264554 7:-1.361882 8:-0.735211 9:0.208354 
1.000000 1:-0.868004 2:-1.244864 3:-1.139120 4:-1.096515 5:-1.022255 6:-1.206445 7:-1.444749 8:-1.032703 9:-1.114495 
1.000000 1:-0.259685 2:0.060016 3:0.075596 4:0.161168 5:0.049322 6:0.343118 7:0.742956 8:-0.133761 9:-0.929405 
1.000000 1:-0.479356 2:-0.185196 3:0.067332 4:0.435400 5:0.473909 6:-0.170175 7:-0.309463 8:-0.385982 9:-0.368691 
1.000000 1:1.742699 2:1.067139 3:0.720139 4:0.548875 5:0.797404 6:1.098530 7:2.010831 8:1.929277 9:2.081029 
1.000000 1:-0.699027 2:-0.316560 3:-0.279729 4:-0.094151 5:-0.112425 6:0.004151 7:-0.002852 8:0.409484 9:0.834394 
1.000000 1:-0.665231 2:-0.710651 3:-0.717688 4:-0.784459 5:-0.678541 6:-1.264554 7:-1.370168 8:-1.006834 9:-0.918517 
1.000000 1:-1.045431 2:-0.789470 3:-0.618528 4:-0.500770 5:-0.486466 6:-0.315447 7:0.096589 8:0.247804 9:1.275343 
1.000000 1:0.500714 2:0.287713 3:0.001225 4:-0.141432 5:-0.203408 6:-0.421979 7:-0.234882 8:2.220301 9:1.825169 
1.000000 1:-0.690578 2:-0.596803 3:-0.568947 4:-0.510227 5:-0.496576 6:-0.160490 7:0.858971 8:0.681107 9:0.284567 
1.000000 1:-0.741271 2:-0.736924 3:-0.676371 4:-0.453489 5:-0.162972 6:-0.083012 7:0.403199 8:-0.825752 9:-0.885854 
1.000000 1:-1.214408 2:-1.008409 3:-0.891219 4:-0.765546 5:-0.395483 6:-0.489773 7:-0.118867 8:0.551763 9:0.219242 
1.000000 1:-0.006219 2:0.287713 3:0.340024 4:0.132799 5:0.332380 6:-0.179860 7:-0.036000 8:0.396550 9:1.329781 
1.000000 1:0.450021 2:0.918260 3:1.075464 4:0.180081 5:0.059431 6:0.217216 7:1.124147 8:1.657655 9:1.177354 
1.000000 1:-0.116054 2:0.086289 3:0.439184 4:1.191901 5:1.272537 6:0.827356 7:0.742956 8:1.295491 9:0.328118 
1.000000 1:-1.535466 2:-0.640591 3:0.116913 4:0.813651 5:0.291943 6:-0.121751 7:0.270611 8:2.711809 9:3.191568 
1.000000 1:1.016095 2:0.778138 3:1.108517 4:1.239183 5:1.323083 6:1.369703 7:1.231875 8:0.551763 9:1.215461 
1.000000 1:1.877881 2:1.224775 3:1.133308 4:1.513415 5:2.020618 6:2.154169 7:2.474890 8:1.909876 9:1.057590 
1.000000 1:-0.817311 2:-1.043440 3:-0.882955 4:-1.011409 5:-0.830180 6:-0.683468 7:-0.897823 8:-1.679423 9:-1.299585 
1.000000 1:-1.527017 2:-1.122258 3:-1.006906 4:-1.077603 5:-1.234548 6:-0.983696 7:-1.477896 8:-2.060988 9:-1.833079 
1.000000 1:-0.665231 2:-0.509227 3:-0.122725 4:0.350294 5:0.130196 6:-0.267023 7:-1.129852 8:-1.084440 9:-0.749759 
1.000000 1:-0.040014 2:0.173865 3:0.042542 4:0.028781 5:0.322271 6:0.604606 7:-0.342610 8:-0.864555 9:-0.853191 
1.000000 1:-0.479356 2:-0.482954 3:-0.329309 4:-0.396752 5:-0.496576 6:-0.567251 7:-0.243169 8:-0.489457 9:-1.359467 
1.000000 1:0.357083 2:0.524168 3:0.612715 4:0.624525 5:0.291943 6:0.565867 7:0.618655 8:-0.049687 9:-0.684433 
1.000000 1:-0.116054 2:-0.395378 3:-0.478050 4:-0.699352 5:-0.769524 6:-0.731892 7:-1.204433 8:-1.032703 9:-1.168933 
0.572577 1:-1.484773 2:-0.088863 3:2.290180 4:3.527600 5:4.163772 6:3.151701 7:0.875544 8:0.745779 9:0.028708 
1.000000 1:-0.023117 2:-0.071348 3:0.149966 4:0.321925 5:0.827731 6:1.592453 7:1.546772 8:0.014985 9:0.643860 
1.000000 1:-0.918698 2:-0.272772 3:-0.015301 4:0.123343 5:0.029104 6:-0.005534 7:0.842397 8:1.411901 9:2.189905 
1.000000 1:0.618998 2:0.638017 3:0.282180 4:-0.235995 5:-0.870616 6:-0.954642 7:-0.400617 8:0.021452 9:0.143028 
1.000000 1:-0.175196 2:0.191380 3:0.637505 4:0.681263 5:1.292755 6:0.323748 7:-0.582926 8:-0.586466 9:-0.591888 
1.000000 1:-0.259685 2:-0.228984 3:-0.502840 4:-0.803371 5:-0.789743 6:-1.128967 7:-0.616073 8:-0.360113 9:-0.178157 
1.000000 1:-0.386418 2:-0.264014 3:-0.337573 4:-0.254908 5:-0.092207 6:-0.363871 7:0.237464 8:-0.418318 9:0.502320 
1.000000 1:0.120514 2:0.156350 3:0.249127 4:0.577244 5:0.898496 6:1.098530 7:0.146309 8:-0.858088 9:-0.825972 
1.000000 1:1.092135 2:0.962048 3:0.794509 4:0.624525 5:0.777185 6:0.575552 7:0.113162 8:-0.133761 9:0.404332 
1.000000 1:-0.394867 2:-0.351590 3:-0.279729 4:-0.094151 5:0.413254 6:0.895149 7:1.439044 8:2.065089 9:1.237236 
1.000000 1:-0.952493 2:-0.684379 3:-0.610264 4:-0.415664 5:-0.132644 6:0.488389 7:1.323030 8:0.739312 9:0.355337 
1.000000 1:-0.293481 2:0.165107 3:0.430921 4:0.804194 5:1.221991 6:1.805518 7:0.950125 8:0.836320 9:0.115809 
1.000000 1:0.745731 2:0.743108 3:0.364814 4:0.359750 5:0.332380 6:1.108214 7:1.513625 8:1.618851 9:-0.129163 
1.000000 1:-0.369521 2:-0.176439 3:-0.197095 4:-0.217082 5:-0.597668 6:-0.702838 7:-0.657507 8:-1.006834 9:-0.221708 
1.000000 1:-0.132952 2:-0.351590 3:-0.436733 4:-0.349470 5:-0.051770 6:-0.383240 7:-0.110580 8:-0.702875 9:0.377112 
1.000000 1:-1.028533 2:-0.719409 3:-0.321046 4:0.113887 5:0.393035 6:-0.402610 7:0.278898 8:1.411901 9:1.367888 
1.000000 1:0.509163 2:0.016228 3:-0.180569 4:-0.358926 5:-0.698760 6:-0.576936 7:-1.179573 8:-0.942162 9:-0.635438 
1.000000 1:-0.470907 2:0.278956 3:0.934987 4:1.267552 5:2.253130 6:2.464082 7:1.057853 8:0.732844 9:0.104921 
1.000000 1:-0.132952 2:-0.763197 3:-0.982116 4:-1.266728 5:-1.456951 6:-1.254869 7:-1.146426 8:-1.039170 9:-0.945736 
1.000000 1:-0.825760 2:-1.034682 3:-0.998643 4:-0.869565 5:-1.022255 6:-1.322663 7:-1.386742 8:-0.599400 9:0.306343 
1.000000 1:1.675108 2:1.513775 3:1.323365 4:1.144620 5:0.949042 6:0.556182 7:-0.599499 8:-0.166097 9:0.583978 
1.000000 1:-1.003187 2:-0.815742 3:-0.709425 4:-0.897934 5:-1.042473 6:-1.177391 7:-1.428176 8:-1.207317 9:-1.794973 
1.000000 1:-0.217441 2:-0.623075 3:-0.825112 4:-1.115428 5:-1.507497 6:-1.990912 7:-1.569051 8:-0.664072 9:-0.591888 
1.000000 1:1.430091 2:1.408684 3:0.786246 4:0.681263 5:0.706421 6:0.314063 7:-0.027713 8:-0.515326 9:-0.597332 
1.000000 1:-0.141401 2:-0.377863 3:-0.734215 4:-0.831740 5:-0.567340 6:-0.034588 7:0.179456 8:-0.082024 9:-0.744315 
1.000000 1:0.145861 2:0.156350 3:0.133439 4:0.369206 5:1.060243 6:0.720824 7:0.684949 8:1.437770 9:0.562202 
1.000000 1:1.134380 2:1.391169 3:0.951513 4:0.860932 5:0.716530 6:0.740193 7:0.544074 8:0.002050 9:-0.488455 
1.000000 1:-0.352623 2:-0.509227 3:-0.593737 4:-0.869565 5:-0.820070 6:-0.567251 7:-0.301176 8:0.306009 9:-0.978399 
1.000000 1:-0.825760 2:-0.526742 3:-0.345836 4:-0.254908 5:-0.031552 6:0.720824 7:0.403199 8:0.532361 9:0.181135 
1.000000 1:-0.724374 2:-0.299045 3:0.331760 4:0.511050 5:0.969260 6:0.653030 7:0.825824 8:0.383615 9:0.687410 
1.000000 1:0.154310 2:0.191380 3:0.183020 4:0.369206 5:1.141117 6:1.611822 7:1.041280 8:0.034386 9:0.404332 
1.000000 1:-1.231306 2:-1.069712 3:-0.882955 4:-0.841196 5:-0.729087 6:-0.392925 7:-0.326036 8:-0.670539 9:-0.689877 
1.000000 1:-0.530049 2:-0.115135 3:0.340024 4:0.293556 5:0.029104 6:-0.170175 7:0.842397 8:0.364214 9:-0.014843 
0.132128 1:-0.073810 2:1.277321 3:3.223941 4:3.064242 5:2.475533 6:1.418127 7:0.245750 8:-1.394866 9:-1.305029 
0.878946 1:0.838669 2:0.944532 3:0.587925 4:0.397575 5:0.261615 6:-0.305762 7:-0.243169 8:0.267206 9:0.208354 
1.000000 1:0.830220 2:0.130077 3:-0.048355 4:-0.027957 5:0.403144 6:0.885465 7:0.742956 8:-0.256638 9:-0.472124 
1.000000 1:0.534509 2:0.795653 3:0.422657 4:0.633982 5:1.120899 6:1.466551 7:2.441743 8:1.198483 9:0.758180 
1.000000 1:-0.192094 2:-0.088863 3:-0.114462 4:-0.340014 5:-0.567340 6:-1.070859 7:-1.419889 8:-1.401333 9:-0.891298 
1.000000 1:0.999198 2:1.583836 3:1.761324 4:1.986228 5:1.727451 6:0.856410 7:0.560647 8:0.603500 9:0.257348 
1.000000 1:0.162759 2:0.392805 3:0.381341 4:0.511050 5:0.595219 6:0.682084 7:1.356177 8:-0.321310 9:-0.107388 
1.000000 1:0.492265 2:0.725593 3:0.505291 4:0.217906 5:0.069540 6:0.139737 7:-0.574639 8:-1.304325 9:-0.597332 
0.714581 1:-0.487805 2:0.060016 3:0.224337 4:0.104431 5:-0.294391 6:-0.412294 7:0.312045 8:0.616435 9:0.295455 
1.000000 1:0.365532 2:0.786896 3:0.620978 4:0.615069 5:0.413254 6:0.594922 7:-0.533205 8:-0.638203 9:-0.270702 
1.000000 1:-0.521600 2:-0.123893 3:0.083859 4:-0.094151 5:-0.264064 6:-0.702838 7:0.403199 8:-0.082024 9:-0.118275 
0.415109 1:-0.352623 2:2.074261 3:5.165834 4:4.813652 5:3.476345 6:1.999213 7:0.643515 8:0.732844 9:0.447882 
1.000000 1:-0.927147 2:-0.211469 3:-0.271466 4:-0.737177 5:-0.880726 6:-0.770631 7:-0.367470 8:1.082073 9:1.204573 
0.239855 1:0.458469 2:3.239020 3:5.025356 4:4.898758 5:4.194099 6:1.660246 7:0.535787 8:1.463638 9:1.721737 
1.000000 1:-0.386418 2:-0.228984 3:-0.139252 4:-0.340014 5:-0.537012 6:-0.024904 7:1.886530 8:2.660071 9:2.304225 
1.000000 1:-1.079226 2:-0.771954 3:-0.676371 4:-0.481858 5:-0.870616 6:-0.131436 7:0.229177 8:0.978598 9:0.867056 
1.000000 1:-1.121471 2:-0.719409 3:-0.387153 4:-0.283276 5:-0.253954 6:-0.654414 7:-1.320448 8:-1.110309 9:-1.256034 
1.000000 1:-0.901800 2:-0.736924 3:-0.560684 4:-0.150889 5:0.281834 6:1.573083 7:0.577221 8:0.512959 9:-0.216264 
1.000000 1:0.821771 2:2.599716 3:3.670163 4:2.600885 5:2.202584 6:1.098530 7:-0.210022 8:-0.612334 9:-0.248927 
1.000000 1:0.534509 2:0.305229 3:0.133439 4:0.085518 5:0.089759 6:-0.170175 7:-0.292889 8:3.041637 9:0.649304 
1.000000 1:-1.096124 2:-0.745682 3:-0.436733 4:-0.415664 5:-0.415702 6:-0.751261 7:-0.740374 8:0.196066 9:0.926938 
1.000000 1:1.007647 2:0.962048 3:0.992830 4:1.503958 5:1.221991 6:1.427812 7:0.734669 8:0.370681 9:0.045039 
1.000000 1:-0.791965 2:-0.439166 3:-0.337573 4:-0.340014 5:-0.355047 6:0.052574 7:0.560647 8:0.209001 9:-0.700764 
1.000000 1:0.213452 2:-0.062590 3:-0.081408 4:-0.056326 5:0.150414 6:0.265639 7:0.361765 8:0.267206 9:0.834394 
1.000000 1:1.218869 2:0.935775 3:0.579662 4:0.265187 5:-0.183190 6:-0.247653 7:-0.036000 8:-0.082024 9:-0.493899 
0.417681 1:1.827188 2:3.125171 3:3.207414 4:1.778190 5:-0.152862 6:-0.451034 7:-0.897823 8:-0.243704 9:0.480545 
1.000000 1:1.134380 2:1.715200 3:0.769719 4:0.577244 5:0.524455 6:0.711139 7:1.306456 8:1.023869 9:1.422326 
1.000000 1:-0.470907 2:-0.255257 3:-0.345836 4:-0.557508 5:-0.638105 6:-0.935272 7:-0.790095 8:-1.724694 9:-1.457456 
1.000000 1:-0.969391 2:-0.877045 3:-0.750741 4:-0.992496 5:-0.941381 6:-0.470403 7:-0.210022 8:0.183132 9:-1.196152 
1.000000 1:-0.800413 2:-0.693136 3:-0.593737 4:-0.529139 5:-0.344937 6:-0.392925 7:0.046868 8:-0.230769 9:0.388000 
1.000000 1:-0.563845 2:-0.535500 3:-0.453260 4:-0.803371 5:-1.204220 6:-1.390456 7:-1.883948 8:-1.524210 9:-1.735091 
1.000000 1:1.244215 2:1.189745 3:1.248995 4:1.295920 5:1.191663 6:0.323748 7:-0.632646 8:-1.207317 9:-1.675209 
1.000000 1:0.196554 2:-0.018802 3:0.009489 4:0.416487 5:0.807513 6:0.478704 7:1.115861 8:1.437770 9:1.264455 
1.000000 1:0.340185 2:0.270198 3:0.340024 4:-0.027957 5:-0.466248 6:-0.654414 7:-0.831529 8:-1.297858 9:-1.637102 
0.603278 1:0.973851 2:3.002565 3:4.380813 4:4.388120 5:3.304488 6:2.037952 7:1.720794 8:1.890474 9:3.039141 
1.000000 1:1.514579 2:1.145957 3:0.968040 4:0.983864 5:0.736748 6:0.904834 7:-0.549779 8:-1.278456 9:-1.060057 
1.000000 1:-0.538498 2:-0.894561 3:-0.734215 4:-0.472402 5:0.120086 6:0.701454 7:0.171170 8:-0.677006 9:-0.956624 
1.000000 1:-0.192094 2:-0.062590 3:0.141703 4:0.671807 5:1.151226 6:1.292225 7:0.660089 8:-0.043220 9:-0.423129 
1.000000 1:-1.011635 2:-0.955864 3:-0.833375 4:-0.661527 5:-0.304500 6:-0.179860 7:-0.259742 8:1.140278 9:2.761507 
0.442165 1:0.813322 2:1.338624 3:0.579662 4:-0.311645 5:-1.264876 6:-1.613206 7:-1.842514 8:-1.026235 9:-0.297921 
1.000000 1:-1.383386 2:-1.060955 3:-0.924272 4:-1.020865 5:-1.184002 6:-1.196761 7:-1.643632 8:-1.362530 9:-0.825972 
1.000000 1:-0.107605 2:0.305229 3:1.199415 4:2.184810 5:2.141929 6:1.146953 7:-0.831529 8:-1.019768 9:-1.691540 
1.000000 1:2.410160 2:2.153079 3:1.670427 4:1.333745 5:0.342489 6:-0.567251 7:-0.019426 8:-0.379515 9:-1.070944 
1.000000 1:-0.208992 2:-0.404136 3:-0.659844 4:-0.935759 5:-1.315422 6:-1.429195 7:-1.386742 8:-1.440137 9:-1.277809 
1.000000 1:-0.977840 2:-0.456681 3:-0.444997 4:-0.888477 5:-0.951490 6:-0.722207 7:-0.475198 8:-1.194383 9:-1.207040 
1.000000 1:-0.445561 2:-0.719409 3:-0.742478 4:-1.039778 5:-1.386186 6:-1.458249 7:-1.560764 8:-1.187916 9:-0.989287 
1.000000 1:0.399327 2:0.016228 3:-0.279729 4:-0.235995 5:-0.082098 6:-0.199230 7:-0.334323 8:0.131394 9:1.084809 
1.000000 1:-1.476324 2:-0.964621 3:-0.436733 4:-0.084695 5:0.120086 6:0.323748 7:1.356177 8:0.448287 9:1.101141 
1.000000 1:-0.868004 2:-0.824500 3:-0.577211 4:-0.585877 5:-0.597668 6:-0.857794 7:-1.262440 8:-1.453071 9:-0.526562 
0.038364 1:0.052923 2:0.261441 3:0.158230 4:-0.113064 5:-0.526903 6:-0.828740 7:-0.582926 8:-0.735211 9:-0.118275 
1.000000 1:2.536894 2:1.277321 3:0.662295 4:0.463769 5:0.352598 6:0.691769 7:0.038581 8:0.280140 9:0.638416 
1.000000 1:-1.349591 2:-0.903318 3:-0.932536 4:-1.323466 5:-1.810773 6:-2.126499 7:-2.049683 8:-0.638203 9:0.600309 
1.000000 1:-0.056912 2:-0.132651 3:0.290444 4:0.643438 5:0.706421 6:0.749878 7:0.278898 8:0.584099 9:0.594865 
0.197310 1:-0.538498 2:0.068774 3:0.315234 4:-0.330558 5:-1.052582 6:-0.722207 7:-0.582926 8:0.480623 9:0.785399 
1.000000 1:-0.513152 2:0.497896 3:1.381209 4:2.298285 5:2.091383 6:1.941104 7:1.513625 8:1.515376 9:1.405995 
1.000000 1:-1.324244 2:-1.052197 3:-1.023433 4:-1.172166 5:-1.497388 6:-1.787532 7:-1.842514 8:-2.009251 9:-1.615326 
1.000000 1:0.340185 2:0.471623 3:0.389604 4:0.435400 5:0.200960 6:0.459335 7:1.041280 8:1.036803 9:0.295455 
1.000000 1:-0.301930 2:-0.360348 3:-0.230149 4:-0.368383 5:-0.476357 6:-0.925587 7:-0.516632 8:-0.457121 9:0.442438 
1.000000 1:0.103617 2:-0.360348 3:-0.478050 4:-0.406208 5:-0.253954 6:0.410911 7:1.364464 8:1.062672 9:2.418546 
1.000000 1:0.762629 2:0.559199 3:0.224337 4:-0.009045 5:0.362708 6:0.798302 7:0.295471 8:0.545295 9:-0.118275 
1.000000 1:0.019128 2:-0.088863 3:-0.180569 4:-0.633158 5:-1.315422 6:-1.787532 7:-1.933668 8:-1.394866 9:-1.109051 
1.000000 1:-0.563845 2:0.436592 3:0.852353 4:0.974407 5:1.292755 6:1.272855 7:0.452920 8:0.998000 9:2.941153 
1.000000 1:-0.800413 2:-0.754439 3:-0.378890 4:-0.330558 5:-0.183190 6:-0.083012 7:-0.500058 8:-0.457121 9:0.317230 
1.000000 1:-1.079226 2:-1.253622 3:-1.246544 4:-1.408572 5:-1.830992 6:-2.068390 7:-1.660205 8:-0.476523 9:0.491433 
1.000000 1:-1.197511 2:-0.929591 3:-0.701161 4:-0.680440 5:-0.678541 6:-0.751261 7:-1.842514 8:-0.534728 9:-0.221708 
0.921349 1:1.717352 2:2.012958 3:1.959645 4:1.144620 5:0.544673 6:0.217216 7:0.220890 8:0.435353 9:0.055927 
1.000000 1:-0.555396 2:-0.395378 3:-0.444997 4:-0.614246 5:-0.698760 6:-0.693153 7:-0.674080 8:-0.903359 9:-0.994731 
-1.000000 1:-0.682129 2:-0.780712 3:-0.668108 4:-0.396752 5:-0.132644 6:0.023520 7:-0.558066 8:-1.174981 9:-0.831416 
-1.000000 1:-1.113022 2:-0.894561 3:-0.725951 4:-0.566964 5:-0.375265 6:-0.237969 7:-0.698941 8:-0.825752 9:-0.107388 
-1.000000 1:-0.868004 2:-0.421651 3:-0.106198 4:-0.046870 5:0.393035 6:0.914519 7:1.571633 8:1.146745 9:0.170247 
-1.000000 1:0.306390 2:-0.062590 3:-0.213622 4:-0.169801 5:-0.446029 6:-0.596305 7:0.428059 8:0.700508 9:-0.096500 
-1.000000 1:-0.268134 2:-0.614318 3:-0.841639 4:-1.039778 5:-1.325531 6:-1.438880 7:-1.453036 8:-1.362530 9:-0.787865 
-1.000000 1:0.720385 2:0.489138 3:0.612715 4:0.596157 5:0.949042 6:0.827356 7:-0.284602 8:-1.045637 9:-0.678989 
-1.000000 1:-1.036982 2:-1.008409 3:-0.676371 4:-0.396752 5:-0.274173 6:-0.141121 7:-0.334323 8:-0.282507 9:-0.352360 
-1.000000 1:0.568305 2:0.270198 3:0.430921 4:0.917670 5:0.989479 6:1.505290 7:1.331316 8:2.627735 9:1.825169 
-1.000000 1:1.582170 2:1.636382 3:1.976172 4:2.014597 5:2.202584 6:0.991997 7:0.544074 8:0.978598 9:0.649304 
-1.000000 1:0.627447 2:0.095047 3:-0.254939 4:-0.198170 5:-0.193299 6:-0.509142 7:-0.143727 8:0.338345 9:0.524096 
-1.000000 1:-0.251236 2:-0.220226 3:-0.263202 4:-0.084695 5:0.140305 6:-0.305762 7:0.196030 8:0.390082 9:1.280787 
-1.000000 1:0.357083 2:-0.062590 3:-0.238412 4:-0.302189 5:-0.435920 6:-0.586620 7:-0.897823 8:-1.220252 9:-0.809641 
-1.000000 1:2.807258 2:2.906232 3:2.009225 4:1.314833 5:0.524455 6:-0.083012 7:-0.864676 8:-0.980965 9:-0.532006 
-1.000000 1:-1.603057 2:-1.192318 3:-0.825112 4:-0.444033 5:-0.557231 6:-0.576936 7:-1.221007 8:-1.213784 9:-1.441124 
-0.352168 1:1.523028 2:1.373654 3:0.943250 4:0.974407 5:1.333192 6:1.602137 7:0.966699 8:0.985065 9:0.197466 
-1.000000 1:0.238799 2:0.375289 3:0.579662 4:1.087882 5:1.292755 6:1.902365 7:1.546772 8:0.823385 9:1.101141 
-1.000000 1:0.500714 2:0.427835 3:0.149966 4:0.397575 5:0.554783 6:-0.073328 7:-0.433764 8:-0.036753 9:-0.227152 
-1.000000 1:0.078270 2:-0.106378 3:-0.378890 4:-0.481858 5:-0.668432 6:-0.567251 7:-0.102294 8:-0.243704 9:0.594865 
-1.000000 1:-0.935595 2:-0.623075 3:-0.502840 4:-0.415664 5:-0.173081 6:-0.141121 7:0.916978 8:0.803984 9:1.825169 
-1.000000 1:1.658210 2:2.310716 3:1.381209 4:1.087882 5:0.736748 6:1.514975 7:1.414184 8:0.836320 9:-0.003955 
-0.298914 1:1.041442 2:0.427835 3:0.133439 4:-0.084695 5:-0.213518 6:0.042890 7:1.430758 8:1.838736 9:0.807174 
-1.000000 1:0.196554 2:0.287713 3:0.158230 4:0.435400 5:0.544673 6:-0.015219 7:-0.466911 8:-0.353646 9:-0.308809 
-1.000000 1:-0.361072 2:-0.018802 3:-0.321046 4:-0.576421 5:-0.890835 6:-1.371087 7:-1.328735 8:-1.356063 9:-1.277809 
-1.000000 1:-0.107605 2:-0.176439 3:-0.188832 4:0.038237 5:0.261615 6:0.643345 7:0.825824 8:-0.457121 9:-0.123719 
-1.000000 1:1.261113 2:0.751866 3:0.397867 4:0.416487 5:0.514346 6:0.623976 7:0.966699 8:1.373098 9:2.217124 
-0.991413 1:0.230350 2:0.138835 3:0.009489 4:-0.169801 5:-0.183190 6:0.546498 7:1.107574 8:2.226769 9:0.730961 
-1.000000 1:-0.825760 2:-0.693136 3:-0.651581 4:-0.727721 5:-1.032364 6:-1.671314 7:-2.074543 8:-1.621218 9:-0.597332 
-1.000000 1:-1.459426 2:-0.290287 3:0.422657 4:0.652894 5:1.353410 6:1.369703 7:-0.616073 8:-1.226719 9:-0.548337 
-0.853446 1:-0.631436 2:-0.710651 3:-0.296256 4:0.236818 5:0.928823 6:0.807986 7:0.585508 8:1.327827 9:0.594865 
-1.000000 1:-0.842658 2:-0.299045 3:0.306970 4:1.031145 5:1.737561 6:3.229179 7:2.590904 8:1.153213 9:0.899719 
-1.000000 1:-1.053880 2:-0.912076 3:-0.676371 4:-0.585877 5:-0.506685 6:-0.412294 7:-0.541492 8:-0.722277 9:-0.091056 
-1.000000 1:0.331736 2:-0.027560 3:-0.172305 4:0.142256 5:0.291943 6:0.023520 7:0.560647 8:-0.812818 9:-1.217927 
-1.000000 1:0.466918 2:0.454108 3:0.149966 4:0.009868 5:-0.446029 6:-0.460718 7:-0.118867 8:-0.263105 9:0.028708 
-0.458202 1:-1.172164 2:-1.420016 3:-1.403548 4:-1.588241 5:-1.790555 6:-1.981227 7:-2.082830 8:-1.291391 9:-0.635438 
-1.000000 1:-0.293481 2:0.051259 3:0.306970 4:1.068970 5:1.555595 6:1.544029 7:1.265022 8:0.829852 9:0.867056 
-1.000000 1:0.737282 2:0.524168 3:0.224337 4:0.217906 5:0.079650 6:-0.034588 7:0.229177 8:0.027919 9:0.045039 
-1.000000 1:-0.031565 2:-0.071348 3:-0.403680 4:-0.727721 5:-0.870616 6:-1.245185 7:-1.038698 8:-0.424785 9:0.382556 
-0.835895 1:1.692006 2:1.145957 3:0.612715 4:0.652894 5:0.908605 6:0.798302 7:0.527500 8:1.056205 9:0.556759 
-1.000000 1:-0.808862 2:-0.623075 3:-0.354100 4:-0.075238 5:0.221179 6:-0.276708 7:-0.143727 8:0.532361 9:1.629192 
-1.000000 1:1.092135 2:0.673047 3:0.282180 4:0.085518 5:-0.809961 6:-1.245185 7:-1.080132 8:-1.414268 9:-1.212484 
-1.000000 1:0.466918 2:-0.018802 3:-0.263202 4:-0.131976 5:-0.284282 6:-0.286392 7:-1.254154 8:-1.304325 9:-0.951180 
-0.430296 1:-1.324244 2:-1.209834 3:-0.916009 4:-0.453489 5:0.271725 6:1.766779 7:1.671074 8:0.021452 9:-1.098163 
-1.000000 1:-0.454009 2:-0.535500 3:-0.684635 4:-0.869565 5:-1.042473 6:-1.274239 7:-0.640933 8:-0.683474 9:0.295455 
-1.000000 1:-0.217441 2:-0.027560 3:0.306970 4:0.558332 5:1.424175 6:1.611822 7:0.278898 8:0.144329 9:-0.156382 
-1.000000 1:-0.496254 2:-0.658106 3:-0.759005 4:-1.162709 5:-1.527715 6:-1.855325 7:-1.303874 8:-0.793416 9:-0.488455 
-1.000000 1:0.466918 2:0.243926 3:0.141703 4:0.227362 5:0.372817 6:0.255955 7:0.519214 8:0.312476 9:0.088590 
-1.000000 1:0.112065 2:-0.123893 3:-0.436733 4:-0.623702 5:-0.607777 6:-0.489773 7:-0.483485 8:-0.470056 9:-0.063837 
-1.000000 1:0.238799 2:0.270198 3:-0.114462 4:-0.217082 5:-0.516794 6:-0.838424 7:-1.055271 8:-1.446604 9:-1.087276 
-1.000000 1:-1.248204 2:-1.166046 3:-0.982116 4:-0.765546 5:-0.557231 6:-0.237969 7:-0.640933 8:-0.385982 9:-1.185265 
-1.000000 1:-0.639885 2:-0.491712 3:-0.329309 4:-0.179257 5:0.069540 6:0.100998 7:0.916978 8:1.392499 9:2.467540 
-1.000000 1:0.948504 2:1.172230 3:0.934987 4:0.775826 5:1.040025 6:1.224431 7:1.911390 8:1.851671 9:2.467540 
-1.000000 1:-1.425630 2:-0.701894 3:-0.717688 4:-0.879021 5:-1.032364 6:-1.458249 7:-1.411602 8:-0.547662 9:0.306343 
-1.000000 1:0.500714 2:0.646775 3:0.480501 4:0.615069 5:0.858059 6:1.369703 7:0.270611 8:1.638253 9:0.600309 
-0.806063 1:4.015447 2:6.759569 3:7.363891 4:8.076064 5:7.691887 6:4.856220 7:0.693236 8:-0.340712 9:-1.207040 
-0.673633 1:0.441572 2:0.243926 3:0.067332 4:0.066606 5:0.443581 6:1.185692 7:0.626942 8:-0.470056 9:-0.107388 
-1.000000 1:0.145861 2:-0.132651 3:-0.345836 4:-0.548052 5:-0.648214 6:-0.363871 7:-0.152014 8:-0.476523 9:-0.308809 
-1.000000 1:-1.256653 2:-1.087227 3:-0.998643 4:-1.077603 5:-0.830180 6:-0.499457 7:0.403199 8:-0.373048 9:-1.332248 
-1.000000 1:-0.132952 2:-0.474196 3:-0.502840 4:-0.396752 5:-0.476357 6:-0.528512 7:0.030295 8:-0.159630 9:0.790843 
-1.000000 1:-1.831177 2:-1.157288 3:-0.635054 4:-0.254908 5:-0.233736 6:-0.877163 7:-1.353595 8:-1.808767 9:-1.522781 
-0.758479 1:1.539926 2:1.216018 3:1.323365 4:1.853840 5:2.788919 6:3.045168 7:2.624052 8:3.112776 9:1.199130 
-1.000000 1:2.731218 2:2.967535 3:2.058805 4:1.248639 5:0.665984 6:0.052574 7:-0.566352 8:-0.547662 9:-0.243483 
-1.000000 1:-0.411765 2:-0.553015 3:-0.701161 4:-0.916846 5:-0.951490 6:-0.780316 7:-0.997264 8:-1.155580 9:-1.375798 
-1.000000 1:1.514579 2:1.890352 3:1.720007 4:2.128072 5:2.222803 6:1.631192 7:1.811949 8:0.694041 9:0.475101 
-1.000000 1:0.880913 2:0.217653 3:0.133439 4:0.094974 5:0.200960 6:0.178476 7:-0.027713 8:0.862188 9:0.872500 
-1.000000 1:-1.104573 2:-0.771954 3:-0.659844 4:-0.689896 5:-0.415702 6:-0.451034 7:-0.773521 8:-0.625269 9:-1.266922 
-1.000000 1:2.013063 2:1.075896 3:0.389604 4:-0.122520 5:-0.324719 6:-0.412294 7:-0.052573 8:0.364214 9:0.741849 
-1.000000 1:1.463886 2:1.837806 3:1.579530 4:1.201358 5:0.200960 6:-0.315447 7:-0.964117 8:-0.677006 9:-0.308809 
-1.000000 1:0.754180 2:0.664290 3:0.720139 4:0.842020 5:1.009697 6:1.311594 7:1.182155 8:-0.366581 9:0.017820 
-1.000000 1:-0.986289 2:-0.868288 3:-0.833375 4:-0.888477 5:-1.072801 6:-1.274239 7:-1.353595 8:-1.032703 9:-1.348579 
-0.790545 1:5.105353 2:6.908448 3:5.901274 4:4.832565 5:3.344925 6:0.817671 7:-1.386742 8:-1.278456 9:-1.098163 
-1.000000 1:0.382430 2:0.384047 3:0.513555 4:1.172989 5:1.868980 6:1.718355 7:0.825824 8:0.215468 9:-0.711652 
-0.985913 1:-0.842658 2:-0.526742 3:-0.188832 4:0.463769 5:0.878277 6:1.650561 7:1.422471 8:0.409484 9:0.072258 
-1.000000 1:0.669691 2:0.786896 3:0.273917 4:0.019324 5:-0.011333 6:-0.286392 7:-0.624360 8:-0.638203 9:-1.005618 
-1.000000 1:0.205003 2:-0.010044 3:-0.023565 4:0.321925 5:0.686202 6:0.759563 7:0.867258 8:-0.062622 9:1.825169 
-1.000000 1:1.210420 2:0.532926 3:0.290444 4:0.416487 5:0.231288 6:0.362487 7:0.212603 8:1.858138 9:1.291675 
-1.000000 1:-0.259685 2:-0.010044 3:0.075596 4:0.265187 5:0.312161 6:0.488389 7:0.552361 8:0.913926 9:0.006933 
-0.640286 1:0.466918 2:-0.132651 3:-0.428470 4:-0.491314 5:-0.607777 6:-0.954642 7:-0.268029 8:0.150796 9:0.671079 
-1.000000 1:0.390878 2:0.077531 3:-0.147515 4:-0.094151 5:-0.061879 6:0.188161 7:-0.044286 8:0.829852 9:1.580197 
-1.000000 1:-0.031565 2:0.103804 3:0.133439 4:0.161168 5:0.342489 6:0.682084 7:1.273309 8:0.791049 9:0.703742 
-1.000000 1:0.314839 2:0.103804 3:0.158230 4:-0.075238 5:-0.516794 6:-1.138652 7:-1.850801 8:-1.297858 9:-1.479231 
-1.000000 1:-1.222857 2:-0.246499 3:-0.519367 4:-0.954671 5:-1.467060 6:-1.390456 7:-1.701639 8:-0.179032 9:0.257348 
-1.000000 1:0.813322 2:0.340259 3:0.059069 4:-0.198170 5:-0.395483 6:-0.431664 7:0.013721 8:2.297908 9:1.634635 
-1.000000 1:-1.527017 2:-1.227349 3:-0.990379 4:-1.039778 5:-1.143565 6:-1.380771 7:-0.997264 8:-1.763497 9:-1.299585 
-1.000000 1:-0.817311 2:-0.623075 3:-0.527630 4:-0.368383 5:-0.082098 6:-0.383240 7:0.278898 8:0.111993 9:-0.216264 
-1.000000 1:0.450021 2:0.103804 3:-0.370626 4:-0.689896 5:-0.981818 6:-1.245185 7:-0.773521 8:-0.702875 9:-1.343135 
-0.095836 1:-0.183645 2:-0.500469 3:-0.535894 4:-0.188714 5:0.797404 6:1.582768 7:3.295279 8:2.272039 9:0.077702 
-1.000000 1:-1.096124 2:-0.745682 3:-0.436733 4:-0.415664 5:-0.415702 6:-0.751261 7:-0.740374 8:0.196066 9:0.926938 
-1.000000 1:-1.484773 2:-1.087227 3:-0.982116 4:-1.049234 5:-1.497388 6:-1.855325 7:-1.941955 8:-1.103842 9:-1.190708 
-1.000000 1:-0.428663 2:-0.605560 3:-0.841639 4:-0.973584 5:-0.799852 6:-0.402610 7:-0.624360 8:-1.168514 9:-1.266922 
-0.487967 1:-2.498638 2:-2.111865 3:-1.866297 4:-2.108336 5:-2.508309 6:-2.852856 7:-2.853499 8:-2.306742 9:-1.947400 
-1.000000 1:-1.104573 2:-0.684379 3:-0.519367 4:-0.311645 5:-0.041661 6:0.110683 7:-0.317749 8:-0.883957 9:-0.259815 
-1.000000 1:1.311806 2:1.075896 3:0.893670 4:0.964951 5:0.767076 6:0.536813 7:0.113162 8:-0.036753 9:-0.080169 
-1.000000 1:3.314191 2:3.361626 3:2.678558 4:2.024053 5:1.090571 6:0.498074 7:0.792677 8:0.234870 9:0.317230 
-0.002166 1:3.280395 2:3.571808 3:2.794246 4:2.345566 5:1.484830 6:0.875780 7:0.809250 8:0.972131 9:0.431551 
-1.000000 1:0.441572 2:0.585471 3:0.521818 4:0.407031 5:0.109977 6:-0.092697 7:-0.442051 8:-0.618802 9:-1.060057 
-1.000000 1:0.373981 2:0.147592 3:0.141703 4:0.482681 5:0.484018 6:0.159107 7:-0.508345 8:-0.211368 9:0.317230 
-1.000000 1:-0.352623 2:-0.272772 3:-0.271466 4:-0.188714 5:-0.041661 6:0.352802 7:0.303758 8:-0.586466 9:0.077702 
-1.000000 1:1.261113 2:0.865714 3:0.216073 4:-0.122520 5:-0.456139 6:-1.070859 7:-1.287301 8:-1.200850 9:-1.419349 
-0.554309 1:1.159726 2:0.278956 3:-0.436733 4:-1.039778 5:-1.325531 6:-1.603521 7:-1.602198 8:-1.129711 9:-0.766090 
-1.000000 1:1.649761 2:1.732715 3:1.207678 4:1.362114 5:1.343301 6:1.214747 7:-0.168588 8:-1.271989 9:-1.207040 
-1.000000 1:1.387846 2:0.611744 3:-0.031828 4:-0.453489 5:-0.911053 6:-1.090228 7:-0.897823 8:0.183132 9:0.039595 
-0.613648 1:-0.462458 2:-0.658106 3:-0.742478 4:-0.661527 5:-0.799852 6:-1.109598 7:-0.806668 8:-0.250171 9:0.426107 
-1.000000 1:-0.454009 2:-0.535500 3:-0.453260 4:-0.368383 5:-0.405593 6:-0.286392 7:-0.027713 8:-0.314843 9:-0.091056 
-0.397049 1:-1.146817 2:-0.894561 3:-0.775532 4:-0.737177 5:-0.779633 6:-0.906218 7:-0.624360 8:1.010934 9:0.055927 
-1.000000 1:1.058340 2:1.329866 3:0.868880 4:0.709632 5:0.534564 6:0.478704 7:-0.094007 8:-0.541195 9:-0.052950 
-1.000000 1:1.278011 2:1.426200 3:1.571266 4:1.929490 5:1.838653 6:1.176008 7:0.386625 8:0.441820 9:-1.130826 
-0.098272 1:-0.631436 2:-0.938348 3:-0.899482 4:-0.841196 5:-0.961599 6:-1.003065 7:-0.765235 8:-1.097375 9:-0.776978 
-1.000000 1:-1.079226 2:-0.955864 3:-0.610264 4:-0.519683 5:-0.991927 6:-1.051489 7:-0.508345 8:1.916343 9:2.244343 
-1.000000 1:0.990749 2:0.532926 3:0.340024 4:0.331381 5:0.524455 6:0.730508 7:0.676662 8:0.454755 9:0.545871 
-1.000000 1:0.695038 2:1.505018 3:2.075332 4:2.771098 5:2.141929 6:1.021051 7:0.345192 8:-0.638203 9:-0.248927 
-1.000000 1:-0.927147 2:-0.920833 3:-0.825112 4:-0.756090 5:-0.698760 6:-0.392925 7:-0.218308 8:-1.291391 9:-1.005618 
-1.000000 1:-0.496254 2:0.165107 3:0.645769 4:0.775826 5:0.746858 6:0.469020 7:0.030295 8:-0.987432 9:-0.956624 
-1.000000 1:0.373981 2:-0.071348 3:-0.147515 4:-0.406208 5:-0.456139 6:-0.170175 7:0.527500 8:-0.502392 9:-0.776978 
-0.649729 1:0.728834 2:0.480380 3:0.406131 4:0.709632 5:1.029916 6:1.853941 7:1.397611 8:-0.360113 9:0.339006 
-1.000000 1:-0.724374 2:-0.833257 3:-0.775532 4:-0.803371 5:-1.103128 6:-1.196761 7:-1.411602 8:-1.368997 9:-1.392130 
-1.000000 1:0.618998 2:0.278956 3:-0.164042 4:-0.321101 5:-0.193299 6:-0.412294 7:-0.085720 8:0.137861 9:-0.134607 
-0.758974 1:-0.310378 2:-0.912076 3:-0.833375 4:-0.737177 5:-0.597668 6:-1.003065 7:-1.370168 8:-1.401333 9:-1.354023 
-1.000000 1:-0.715925 2:-0.500469 3:-0.205359 4:-0.245451 5:-0.961599 6:-1.128967 7:-0.491771 8:0.920393 9:1.825169 
-1.000000 1:-1.079226 2:-0.798227 3:-0.602001 4:-0.576421 5:-0.435920 6:-0.906218 7:-1.088418 8:-0.560597 9:-0.406798 
-1.000000 1:-0.910249 2:-0.964621 3:-1.039960 4:-1.219447 5:-1.477169 6:-1.719738 7:-1.784507 8:-1.737628 9:-1.147158 
-1.000000 1:0.272594 2:-0.106378 3:-0.436733 4:-0.595333 5:-0.607777 6:-0.712522 7:-0.732088 8:-0.185499 9:-0.140051 
-1.000000 1:0.365532 2:-0.088863 3:-0.354100 4:-0.623702 5:-0.911053 6:-0.935272 7:-0.715514 8:0.124927 9:1.215461 
-0.286134 1:2.013063 2:2.407049 3:1.422526 4:1.674171 5:2.121711 6:2.725571 7:3.295279 8:0.920393 9:1.101141 
-1.000000 1:-0.935595 2:-0.623075 3:-0.436733 4:-0.349470 5:-0.142753 6:0.207531 7:1.538486 8:1.392499 9:0.611197 
-1.000000 1:-0.969391 2:-0.649348 3:-0.370626 4:-0.169801 5:0.089759 6:0.381857 7:0.693236 8:1.683523 9:2.995591 
-1.000000 1:0.889362 2:0.883229 3:1.116781 4:1.418852 5:1.333192 6:1.011367 7:0.411486 8:0.280140 9:0.720073 
-0.139788 1:0.475367 2:0.138835 3:0.017752 4:-0.009045 5:0.514346 6:0.866095 7:0.950125 8:-0.832219 9:-0.891298 
-1.000000 1:-0.555396 2:-0.684379 3:-0.759005 4:-1.134340 5:-1.568152 6:-1.487304 7:-0.682367 8:-0.204900 9:0.175691 
-1.000000 1:0.787976 2:0.830684 3:0.670559 4:0.596157 5:0.453690 6:0.314063 7:-0.284602 8:0.209001 9:0.235573 
-1.000000 1:0.103617 2:0.051259 3:-0.056618 4:-0.150889 5:0.039213 6:0.246270 7:0.494353 8:-0.482990 9:-0.276146 
-1.000000 1:-0.504703 2:-0.115135 3:0.439184 4:1.163533 5:1.555595 6:1.466551 7:1.008133 8:0.131394 9:1.101141 
-1.000000 1:0.365532 2:0.287713 3:0.298707 4:0.274643 5:0.140305 6:0.749878 7:1.265022 8:0.797516 9:0.290011 
-1.000000 1:-0.766618 2:-0.465439 3:-0.164042 4:0.180081 5:0.463800 6:0.730508 7:0.958412 8:2.692407 9:2.402214 
-0.684630 1:1.134380 2:0.515411 3:0.273917 4:0.085518 5:0.484018 6:1.408442 7:2.416882 8:3.015768 9:1.335225 
-1.000000 1:2.342569 2:1.776503 3:1.273785 4:1.258095 5:0.999588 6:0.217216 7:-0.002852 8:0.648771 9:0.671079 
-1.000000 1:-0.910249 2:-0.290287 3:0.364814 4:1.116251 5:1.555595 6:0.633661 7:0.254037 8:-0.405384 9:-0.194489 
-1.000000 1:0.745731 2:0.401562 3:0.166493 4:0.094974 5:0.190851 6:0.236585 7:0.610368 8:0.978598 9:1.460433 
-1.000000 1:-0.470907 2:0.016228 3:0.207810 4:0.397575 5:0.261615 6:-0.131436 7:0.154596 8:-0.269572 9:-0.586444 
-1.000000 1:-1.028533 2:-0.815742 3:-0.635054 4:-0.519683 5:-0.243845 6:-0.218599 7:-0.301176 8:0.111993 9:-0.118275 
-0.805268 1:-0.462458 2:-0.920833 3:-1.081276 4:-1.172166 5:-1.194111 6:-1.003065 7:-0.980691 8:-1.039170 9:-1.865742 
-1.000000 1:0.880913 2:0.532926 3:0.381341 4:0.671807 5:1.120899 6:0.730508 7:-0.251455 8:0.124927 9:-0.221708 
-1.000000 1:0.044474 2:-0.456681 3:-0.436733 4:-0.557508 5:-1.012145 6:-0.857794 7:-0.334323 8:-1.045637 9:-1.283253 
-0.515750 1:-0.487805 2:-0.588045 3:-0.527630 4:-0.481858 5:-0.112425 6:-0.344501 7:0.345192 8:0.900992 9:2.625411 
-1.000000 1:0.297941 2:-0.150166 3:-0.246676 4:-0.094151 5:-0.284282 6:-0.770631 7:-0.939257 8:-1.394866 9:-1.675209 
-0.941712 1:-1.273551 2:-0.885803 3:-0.899482 4:-0.945215 5:-1.254767 6:-0.983696 7:-1.287301 8:-0.379515 9:0.339006 
-1.000000 1:0.145861 2:-0.334075 3:-0.684635 4:-1.011409 5:-1.264876 6:-1.264554 7:-1.071845 8:-1.181448 9:-1.539113 
-1.000000 1:-0.682129 2:-0.439166 3:-0.213622 4:0.132799 5:0.403144 6:-0.179860 7:-0.599499 8:-0.896891 9:-1.174377 
-0.655154 1:-0.352623 2:-0.544257 3:-0.577211 4:-0.784459 5:-1.052582 6:-0.983696 7:-0.533205 8:0.370681 9:0.877944 
-0.907916 1:-0.116054 2:-0.798227 3:-0.998643 4:-1.172166 5:-1.365968 6:-1.719738 7:-2.049683 8:-1.866972 9:-1.718759 
-1.000000 1:0.171208 2:0.795653 3:0.687085 4:0.435400 5:-0.031552 6:0.546498 7:1.207015 8:0.331878 9:-0.439461 
-1.000000 1:-0.487805 2:-0.220226 3:0.001225 4:0.293556 5:0.716530 6:0.933888 7:1.223589 8:0.014985 9:-0.069281 
-1.000000 1:-0.377969 2:0.585471 3:-0.048355 4:0.009868 5:-0.142753 6:0.033205 7:0.858971 8:1.541245 9:1.068478 
-1.000000 1:0.542958 2:1.715200 3:1.083727 4:1.239183 5:1.262427 6:0.885465 7:1.505338 8:1.023869 9:0.371669 
-1.000000 1:-0.732822 2:-0.579287 3:-0.494577 4:-0.585877 5:-0.567340 6:-0.354186 7:-0.094007 8:0.732844 9:0.888832 
-1.000000 1:-1.349591 2:-0.990894 3:-0.659844 4:-0.330558 5:0.008885 6:0.546498 7:1.041280 8:0.234870 9:0.856169 
-1.000000 1:0.652794 2:0.305229 3:-0.130989 4:-0.094151 5:-0.132644 6:0.033205 7:-0.508345 8:-1.000367 9:-1.430237 
-0.597677 1:-0.403316 2:-0.482954 3:-0.643318 4:-0.746633 5:-0.678541 6:-0.373555 7:1.654500 8:1.256688 9:2.418546 
-1.000000 1:1.607517 2:2.407049 3:1.686954 4:1.626890 5:1.302864 6:1.321279 7:-0.210022 8:-0.224302 9:-0.308809 
-1.000000 1:-0.910249 2:-0.728166 3:-0.684635 4:-0.670983 5:-0.506685 6:-0.441349 7:-0.500058 8:0.047321 9:-0.150938 
-1.000000 1:0.399327 2:-0.246499 3:-0.329309 4:-0.415664 5:-0.466248 6:-0.741577 7:-0.939257 8:-1.123244 9:-1.343135 
-1.000000 1:-0.217441 2:0.024986 3:0.149966 4:0.435400 5:0.625547 6:0.323748 7:0.643515 8:0.687574 9:-0.689877 
-1.000000 1:-1.586159 2:-1.244864 3:-1.147383 4:-1.332922 5:-1.487278 6:-1.380771 7:-1.046985 8:-1.556546 9:-1.234259 
-0.955941 1:2.579138 2:2.862444 3:2.827299 4:3.281737 5:3.648202 6:3.151701 7:1.985971 8:1.269622 9:0.257348 
-1.000000 1:-0.006219 2:0.690562 3:1.348155 4:1.787646 5:1.575813 6:1.495605 7:0.461206 8:-0.631736 9:-0.085612 
-1.000000 1:0.120514 2:-0.036317 3:0.108649 4:0.407031 5:0.544673 6:0.807986 7:1.182155 8:0.066722 9:-0.357804 
-1.000000 1:1.370948 2:1.224775 3:0.711876 4:0.331381 5:-0.284282 6:-0.741577 7:-0.384044 8:-0.851621 9:-0.853191 
-1.000000 1:0.399327 2:-0.062590 3:0.009489 4:0.265187 5:0.231288 6:-0.073328 7:-0.243169 8:-1.052104 9:-0.972955 
-1.000000 1:-1.096124 2:-0.719409 3:-0.734215 4:-0.756090 5:-1.032364 6:-1.584151 7:-1.411602 8:-1.123244 9:-0.771534 
-1.000000 1:0.297941 2:0.016228 3:0.108649 4:0.227362 5:0.807513 6:0.546498 7:-0.292889 8:-0.463589 9:-0.292478 
-1.000000 1:-1.070778 2:-0.710651 3:-0.370626 4:0.019324 5:-0.294391 6:-0.441349 7:-0.616073 8:-0.709342 9:-0.689877 
-1.000000 1:-1.341142 2:-1.078470 3:-0.750741 4:-0.462945 5:-0.456139 6:-1.090228 7:-2.016536 8:-1.951046 9:-1.729647 
-1.000000 1:0.644345 2:0.462865 3:0.158230 4:0.208450 5:0.433472 6:0.130053 7:-0.011139 8:0.377148 9:0.099478 
-1.000000 1:-0.437112 2:-0.526742 3:-0.461523 4:-0.349470 5:-0.223627 6:-0.712522 7:-1.171286 8:-1.453071 9:-0.836860 
-1.000000 1:-0.927147 2:-0.526742 3:-0.287993 4:0.009868 5:0.676093 6:1.069475 7:2.342302 8:5.040003 9:4.715839 
-1.000000 1:0.306390 2:0.243926 3:-0.031828 4:-0.264364 5:-0.001224 6:0.120368 7:-0.127154 8:-0.482990 9:-1.119939 
-1.000000 1:0.711936 2:0.690562 3:-0.064882 4:-0.462945 5:-0.597668 6:-0.683468 7:-1.179573 8:-0.799883 9:-1.098163 
-1.000000 1:-0.327276 2:-0.509227 3:-0.527630 4:-0.472402 5:-0.132644 6:-0.228284 7:0.071728 8:-0.541195 9:-0.003955 
-1.000000 1:2.334121 2:2.030473 3:1.422526 4:1.220270 5:1.050134 6:0.991997 7:0.933552 8:0.176665 9:0.638416 
-1.000000 1:-0.437112 2:-0.404136 3:-0.378890 4:-0.283276 5:-0.132644 6:-0.121751 7:-0.558066 8:-0.508859 9:-0.330584 
-1.000000 1:-0.986289 2:-0.771954 3:-0.684635 4:-0.661527 5:-0.921162 6:-0.557566 7:-0.516632 8:-0.657605 9:0.377112 
-1.000000 1:-0.361072 2:-0.658106 3:-0.734215 4:-0.841196 5:-0.971709 6:-0.741577 7:-0.118867 8:-1.000367 9:-1.092720 
-1.000000 1:-0.817311 2:-0.465439 3:-0.271466 4:-0.756090 5:-1.477169 6:-2.058705 7:-2.190558 8:-1.666489 9:-1.217927 
-0.196886 1:-0.884902 2:-0.693136 3:-0.519367 4:-0.368383 5:0.160523 6:0.546498 7:0.800964 8:0.086124 9:0.181135 
-1.000000 1:-0.344174 2:0.051259 3:0.315234 4:0.359750 5:-0.031552 6:-0.276708 7:-0.350897 8:-0.754613 9:-1.016506 
-1.000000 1:-1.282000 2:-1.095985 3:-0.742478 4:-0.775002 5:-0.799852 6:-0.664098 7:-0.715514 8:-0.825752 9:-0.167270 
-1.000000 1:-0.960942 2:-0.710651 3:-0.420207 4:-0.131976 5:0.433472 6:0.972628 7:0.809250 8:-0.347179 9:-0.183601 
-0.344775 1:-0.944044 2:-1.279894 3:-1.230017 4:-1.389660 5:-1.861319 6:-2.300824 7:-2.422587 8:-2.306742 9:-1.947400 
-1.000000 1:0.534509 2:-0.027560 3:-0.221886 4:-0.292733 5:-0.183190 6:-0.257338 7:-0.334323 8:-0.644670 9:0.208354 
-1.000000 1:-1.932563 2:-1.525107 3:-1.320914 4:-1.351835 5:-1.386186 6:-1.564782 7:-1.535904 8:-1.828169 9:-1.386686 
-1.000000 1:0.390878 2:0.226410 3:0.166493 4:0.624525 5:0.595219 6:1.040421 7:1.223589 8:0.396550 9:0.202910 
-0.442893 1:1.379397 2:0.410320 3:0.092123 4:-0.141432 5:-0.132644 6:-0.170175 7:-0.831529 8:-0.082024 9:-0.003955 
-1.000000 1:-0.614538 2:-0.412893 3:-0.568947 4:-0.623702 5:-0.820070 6:-0.848109 7:-0.723801 8:-0.366581 9:0.622084 
-1.000000 1:-0.546947 2:-0.885803 3:-1.064750 4:-1.370747 5:-1.517606 6:-1.816586 7:-1.991676 8:-1.821702 9:-1.266922 
-1.000000 1:-1.282000 2:-1.043440 3:-0.866429 4:-0.623702 5:-0.243845 6:-0.605990 7:-1.212720 8:-0.677006 9:-0.265259 
-1.000000 1:0.171208 2:-0.071348 3:-0.056618 4:0.028781 5:-0.071989 6:-0.276708 7:-0.350897 8:-0.664072 9:-0.744315 
-1.000000 1:-0.783516 2:-0.947106 3:-0.990379 4:-1.096515 5:-1.285094 6:-1.651945 7:-1.660205 8:-0.476523 9:0.551315 
-0.232487 1:-2.380354 2:-1.945471 3:-1.709293 4:-1.928667 5:-2.296015 6:-2.542944 7:-2.356293 8:-1.575948 9:-0.913073 
-1.000000 1:1.109033 2:1.382412 3:0.943250 4:0.785282 5:1.110789 6:1.224431 7:0.974986 8:1.269622 9:1.150135 
-1.000000 1:-0.386418 2:-0.360348 3:-0.453260 4:-0.548052 5:-0.627995 6:-0.509142 7:-0.036000 8:0.661705 9:0.894276 
-0.569736 1:3.398679 2:3.922112 3:2.802509 4:2.336110 5:2.283458 6:1.824887 7:2.226287 8:2.498391 9:0.965045 
-1.000000 1:-1.003187 2:-0.272772 3:0.240863 4:0.548875 5:0.959151 6:0.895149 7:1.969397 8:1.418368 9:1.939489 
-1.000000 1:0.120514 2:0.349017 3:0.017752 4:0.076062 5:0.281834 6:0.575552 7:1.356177 8:0.170197 9:0.436994 
-1.000000 1:0.500714 2:0.235168 3:0.290444 4:0.860932 5:1.029916 6:0.159107 7:-0.947543 8:-1.142645 9:-1.179821 
-1.000000 1:0.120514 2:0.007471 3:-0.097935 4:-0.198170 5:-0.294391 6:-0.005534 7:0.386625 8:0.506492 9:-0.662658 
-1.000000 1:2.232734 2:2.442080 3:2.546344 4:2.676535 5:1.828543 6:0.517443 7:-0.922683 8:-1.414268 9:-1.266922 
-1.000000 1:0.483816 2:-0.228984 3:-0.370626 4:-0.510227 5:-0.789743 6:-1.012750 7:-1.287301 8:0.196066 9:0.562202 
-0.134646 1:0.602100 2:0.024986 3:-0.205359 4:-0.415664 5:-0.708869 6:-0.383240 7:0.154596 8:-0.295441 9:-0.602776 
-1.000000 1:-0.893351 2:-0.351590 3:0.257390 4:0.766369 5:1.201772 6:1.301910 7:0.883831 8:-0.114360 9:-0.003955 
-0.705252 1:-1.476324 2:-1.017167 3:-0.717688 4:-0.548052 5:-0.051770 6:0.430280 7:1.231875 8:0.642303 9:0.583978 
-0.879070 1:-1.222857 2:-1.087227 3:-0.932536 4:-0.992496 5:-0.850398 6:-0.877163 7:-0.864676 8:-0.825752 9:-0.542893 
-1.000000 1:-1.070778 2:-0.728166 3:-0.709425 4:-0.387295 5:-0.708869 6:-0.954642 7:-1.030411 8:0.234870 9:0.932382 
-1.000000 1:-0.116054 2:-0.255257 3:-0.428470 4:-0.415664 5:-0.627995 6:-0.557566 7:-0.326036 8:1.450704 9:0.491433 
-0.883421 1:1.109033 2:0.795653 3:0.546608 4:0.662350 5:0.969260 6:1.669931 7:0.892118 8:-0.786949 9:-0.395910 
-1.000000 1:-0.969391 2:-0.588045 3:-0.577211 4:-0.633158 5:-0.567340 6:0.188161 7:0.718096 8:0.842787 9:-0.123719 
-1.000000 1:-0.969391 2:-0.868288 3:-0.659844 4:-0.746633 5:-0.779633 6:-0.644729 7:-0.823242 8:-0.153163 9:0.360781 
-1.000000 1:-0.682129 2:-0.386621 3:-0.147515 4:-0.113064 5:-0.082098 6:-0.296077 7:-0.964117 8:-0.592933 9:-0.983843 
-1.000000 1:0.171208 2:-0.010044 3:-0.089672 4:0.038237 5:-0.011333 6:0.033205 7:0.552361 8:-0.204900 9:-1.495562 
-0.934261 1:1.345602 2:0.716835 3:0.306970 4:0.076062 5:0.200960 6:0.159107 7:0.676662 8:0.487091 9:-0.325141 
-1.000000 1:-0.986289 2:-0.912076 3:-0.717688 4:-0.462945 5:-0.375265 6:-0.693153 7:-1.005551 8:-1.123244 9:-0.428573 
-1.000000 1:0.264145 2:-0.080105 3:-0.238412 4:-0.103607 5:-0.193299 6:-0.228284 7:-0.210022 8:0.215468 9:0.208354 
-1.000000 1:0.542958 2:0.182622 3:0.034279 4:-0.065782 5:0.059431 6:0.081629 7:-0.052573 8:0.014985 9:-1.060057 
-1.000000 1:-0.208992 2:-0.325317 3:-0.502840 4:-0.585877 5:-0.739197 6:-1.012750 7:-0.723801 8:0.370681 9:0.077702 
-0.247406 1:4.361851 2:4.202354 3:3.215678 4:3.518143 5:2.980994 6:2.386604 7:1.455618 8:1.282557 9:0.328118 
-1.000000 1:-1.096124 2:-0.754439 3:-0.403680 4:0.217906 5:0.514346 6:0.720824 7:0.038581 8:-0.230769 9:-0.031174 
-1.000000 1:0.078270 2:1.084654 3:0.579662 4:0.908213 5:1.282646 6:2.280071 7:2.077125 8:2.039220 9:0.600309 
-1.000000 1:-1.721341 2:-1.104743 3:-0.635054 4:-0.491314 5:-1.396295 6:-1.884379 7:-1.950242 8:-1.795833 9:-0.711652 
-1.000000 1:0.297941 2:0.060016 3:-0.097935 4:-0.188714 5:0.008885 6:-0.044273 7:0.403199 8:0.571164 9:-0.183601 
-1.000000 1:-0.555396 2:-0.517984 3:-0.428470 4:-0.529139 5:-0.729087 6:-0.974011 7:-1.444749 8:-1.491874 9:-1.076388 
-1.000000 1:-0.411765 2:-0.290287 3:-0.263202 4:-0.718265 5:-1.325531 6:-1.400141 7:-0.881249 8:-0.625269 9:-0.167270 
-1.000000 1:1.244215 2:1.075896 3:0.852353 4:0.879845 5:1.161335 6:0.662715 7:0.030295 8:-0.495925 9:-0.858635 
-1.000000 1:-0.597640 2:-0.351590 3:-0.139252 4:0.094974 5:0.089759 6:0.100998 7:-0.143727 8:-0.476523 9:-1.234259 
-0.461296 1:-2.135336 2:-1.647713 3:-1.378758 4:-1.342378 5:-1.133456 6:-1.022435 7:0.312045 8:2.614801 9:2.854052 
-1.000000 1:1.793392 2:1.084654 3:0.488764 4:0.331381 5:0.281834 6:0.130053 7:0.204317 8:-0.592933 9:-0.216264 
-1.000000 1:0.137412 2:0.270198 3:0.381341 4:0.624525 5:0.554783 6:0.420596 7:0.022008 8:1.683523 9:2.364108 
-1.000000 1:0.230350 2:0.287713 3:0.331760 4:0.605613 5:1.262427 6:1.524659 7:1.712508 8:1.153213 9:1.275343 
-1.000000 1:-1.163715 2:-1.043440 3:-0.874692 4:-0.689896 5:-0.658323 6:-0.489773 7:-0.715514 8:-0.780482 9:-0.706208 
-1.000000 1:-1.113022 2:-0.894561 3:-0.750741 4:-0.519683 5:-0.193299 6:-0.121751 7:-0.790095 8:-0.476523 9:0.442438 
-0.884964 1:2.139796 2:1.505018 3:1.298575 4:1.343202 5:1.201772 6:1.030736 7:0.038581 8:-0.793416 9:-0.461236 
-1.000000 1:0.179656 2:-0.080105 3:0.199546 4:0.529963 5:1.009697 6:1.253486 7:1.439044 8:-0.489457 9:-0.733427 
-1.000000 1:1.041442 2:0.813169 3:0.819299 4:1.031145 5:1.211881 6:0.749878 7:-0.408904 8:-0.146696 9:-0.276146 
-0.466486 1:1.801841 2:2.669777 3:1.910065 4:1.853840 5:2.465424 6:3.451928 7:2.781500 8:2.388449 9:2.228012 
-1.000000 1:-0.352623 2:-0.369105 3:-0.304519 4:0.076062 5:0.696312 6:2.096061 7:1.041280 8:-1.181448 9:-1.103607 
-1.000000 1:-0.639885 2:-0.106378 3:0.149966 4:0.482681 5:0.756967 6:0.711139 7:0.013721 8:0.209001 9:1.117472 
-1.000000 1:0.407776 2:0.366532 3:0.620978 4:0.652894 5:0.504237 6:0.410911 7:1.124147 8:1.127344 9:1.161023 
-1.000000 1:-0.107605 2:-0.080105 3:-0.114462 4:-0.094151 5:-0.314610 6:-0.179860 7:-0.541492 8:-0.567064 9:-0.733427 
-1.000000 1:-0.834209 2:-0.684379 3:-0.618528 4:-0.708808 5:-0.587558 6:-0.344501 7:0.411486 8:-0.010884 9:0.932382 
-1.000000 1:-1.138369 2:-1.052197 3:-0.825112 4:-0.841196 5:-0.900944 6:-0.780316 7:-0.011139 8:-0.166097 9:-0.629995 
-1.000000 1:-0.234339 2:-0.264014 3:-0.205359 4:-0.150889 5:-0.021443 6:0.285009 7:1.008133 8:1.534778 9:-0.014843 
-1.000000 1:-0.546947 2:-0.369105 3:-0.097935 4:0.189537 5:0.190851 6:0.343118 7:-0.375757 8:-0.457121 9:-1.348579 
