svm_type c_svc
kernel_type rbf
gamma 0.055556
nr_class 2
total_sv 493
rho 0.312483 
label 1 0 
nr_sv 239 254 
SV
1.000000 1:-0.298100 2:-0.251529 3:-0.210285 4:-0.177502 5:-0.187376 6:-0.185317 7:-0.150614 8:-0.137925 9:-0.050248 10:0.956953 11:1.566321 12:1.248995 13:1.135164 14:1.211881 15:0.459335 16:0.850684 17:1.179081 18:3.104467 
1.000000 1:-0.257907 2:-0.238398 3:-0.205889 4:-0.185801 5:-0.180885 6:-0.181048 7:-0.195446 8:-0.158456 9:-0.163033 10:0.128963 11:0.681805 12:0.910196 13:0.955495 14:0.928823 15:1.544029 16:2.731779 17:2.550129 18:0.888832 
1.000000 1:-0.203753 2:-0.167086 3:-0.240330 4:-0.261299 5:-0.301268 6:-0.346534 7:-0.348996 8:-0.369449 9:-0.358622 10:0.052923 11:-0.360348 12:-0.552421 13:-0.652071 14:-0.648214 15:-0.605990 16:0.494353 17:1.263155 18:1.286231 
1.000000 1:-0.279485 2:-0.266697 3:-0.241552 4:-0.221408 5:-0.215702 6:-0.211256 7:-0.212632 8:-0.192966 9:-0.160653 10:0.086719 11:0.821926 12:0.844089 13:0.738001 14:0.756967 15:0.769247 16:0.635228 17:-0.327777 18:-0.477568 
1.000000 1:-0.214118 2:-0.204440 3:-0.277703 4:-0.291820 5:-0.321036 6:-0.348833 7:-0.379257 8:-0.403086 9:-0.410494 10:3.162111 11:3.274050 12:2.273653 13:1.655259 14:0.918714 15:0.420596 16:1.140721 17:1.651187 18:1.237236 
1.000000 1:-0.277369 2:-0.266470 3:-0.293092 4:-0.283520 5:-0.268516 6:-0.279880 7:-0.299681 8:-0.307855 9:-0.294377 10:-0.082259 11:-0.824500 12:-0.849902 13:-0.879021 14:-1.133456 15:-0.615675 16:0.146309 17:0.215468 18:0.877944 
1.000000 1:-0.183233 2:-0.214175 3:-0.276482 4:-0.278434 5:-0.280909 6:-0.294984 7:-0.288473 8:-0.279024 9:-0.283908 10:-1.332693 11:-1.043440 12:-0.833375 13:-0.784459 14:-0.789743 15:-0.702838 16:-0.640933 17:-1.013301 18:-0.368691 
1.000000 1:-0.197830 2:-0.209194 3:-0.228605 4:-0.208558 5:-0.228979 6:-0.259523 7:-0.292582 8:-0.307418 9:-0.328641 10:0.103617 11:0.138835 12:-0.130989 13:-0.141432 14:-0.577449 15:-0.877163 16:-0.814955 17:-0.780482 18:0.023264 
1.000000 1:-0.280331 2:-0.281412 3:-0.291626 4:-0.301458 5:-0.318381 6:-0.333401 7:-0.310889 8:-0.322271 9:-0.314841 10:-0.099157 11:-0.045075 12:-0.081408 13:-0.018501 14:-0.102316 15:-0.373555 16:-0.732088 17:-0.677006 18:-0.363247 
1.000000 1:-0.317562 2:-0.257415 3:-0.177065 4:-0.150194 5:-0.217177 6:-0.278239 7:-0.323965 8:-0.342802 9:-0.330069 10:1.894779 11:1.750230 12:1.108517 13:0.596157 14:-0.041661 15:-0.150806 16:-0.906110 17:-0.767547 18:-0.635438 
1.000000 1:-0.247119 2:-0.277563 3:-0.320938 4:-0.327962 5:-0.311004 6:-0.308446 7:-0.297813 8:-0.254997 9:-0.341966 10:0.880913 11:0.532926 12:0.290444 13:0.038237 14:-0.365156 15:-0.886848 16:-0.632646 17:-0.470056 18:-0.608219 
1.000000 1:-0.245003 2:-0.204214 3:-0.205156 4:-0.220605 5:-0.228979 6:-0.229644 7:-0.211138 8:-0.157146 9:-0.127341 10:-0.014668 11:0.436592 12:1.017620 13:1.362114 14:1.464612 15:1.389073 16:-0.077433 17:0.131394 18:0.159360 
1.000000 1:-0.253042 2:-0.253114 3:-0.259139 4:-0.262102 5:-0.272057 6:-0.273313 7:-0.328074 8:-0.369449 9:-0.356243 10:0.635896 11:0.664290 12:0.868880 13:1.201358 14:0.665984 15:0.110683 16:-0.599499 17:-0.696408 18:-1.212484 
1.000000 1:-0.213695 2:-0.211232 3:-0.202469 4:-0.225960 5:-0.246387 6:-0.277254 7:-0.293329 8:-0.301302 9:-0.341014 10:-0.589191 11:-0.579287 12:-0.593737 13:-0.803371 14:-1.274985 15:-1.516358 16:-0.806668 17:-0.942162 18:-0.450349 
1.000000 1:-0.230830 2:-0.193347 3:-0.207354 4:-0.210432 5:-0.245502 6:-0.275283 7:-0.282869 8:-0.281208 9:-0.291522 10:-0.276583 11:-0.080105 12:0.149966 13:0.473225 14:0.686202 15:0.720824 16:0.386625 17:-0.741678 18:0.175691 
1.000000 1:-0.165464 2:-0.178858 3:-0.200515 4:-0.203739 5:-0.191802 6:-0.182362 7:-0.193205 8:-0.223108 9:-0.187779 10:-1.417182 11:-1.008409 12:-0.635054 13:-0.235995 14:-0.092207 15:-0.877163 16:-1.171286 17:0.267206 18:0.975933 
1.000000 1:-0.249657 2:-0.210779 3:-0.261581 4:-0.271205 5:-0.268221 6:-0.269045 7:-0.261200 8:-0.292129 9:-0.315316 10:-0.166748 11:-0.018802 12:0.133439 13:0.643438 14:0.847950 15:1.398757 16:0.883831 17:0.681107 18:-0.014843 
1.000000 1:-0.189368 2:-0.183160 3:-0.194408 4:-0.207755 5:-0.246977 6:-0.215853 7:-0.183118 8:-0.166756 9:-0.213477 10:-1.645301 11:-0.868288 12:-0.147515 13:0.652894 14:0.817622 15:0.469020 16:0.270611 17:0.422418 18:0.769068 
1.000000 1:-0.363467 2:-0.345254 3:-0.310923 4:-0.299584 5:-0.275598 6:-0.242777 7:-0.245882 8:-0.290381 9:-0.334352 10:-1.442528 11:-1.384985 12:-1.006906 13:-1.068147 14:-0.921162 15:-1.312978 16:-1.229293 17:-1.013301 18:-0.069281 
1.000000 1:3.535671 2:3.537759 3:3.541169 4:3.539037 5:3.537987 6:3.540741 7:3.540922 8:3.537201 9:3.533176 10:-1.552364 11:-1.166046 12:-0.849902 13:-0.604789 14:-0.435920 15:-0.218599 16:-0.127154 17:-1.304325 18:-0.597332 
1.000000 1:-0.357332 2:-0.330086 3:-0.284298 4:-0.227031 5:-0.083517 6:-0.119648 7:-0.233927 8:-0.248882 9:-0.222519 10:-0.437112 11:-0.579287 12:-0.387153 13:-0.340014 14:-0.739197 15:-0.557566 16:-0.624360 17:-0.288974 18:0.687410 
1.000000 1:-0.274408 2:-0.252434 3:-0.234956 4:-0.205613 5:-0.181770 6:-0.181048 7:-0.242146 8:-0.255434 9:-0.244409 10:-0.285032 11:-0.115135 12:0.207810 13:0.567788 14:0.655875 15:0.759563 16:0.684949 17:-0.761080 18:-1.256034 
1.000000 1:-0.192753 2:-0.185423 3:-0.212484 4:-0.207219 5:-0.223078 6:-0.245404 7:-0.282495 8:-0.312660 9:-0.331972 10:0.644345 11:0.602987 12:0.092123 13:0.246275 14:-0.132644 15:-0.267023 16:-0.972404 17:-0.224302 18:-0.406798 
1.000000 1:-0.244580 2:-0.254925 3:-0.236422 4:-0.247645 5:-0.270287 6:-0.277254 7:-0.273529 8:-0.253687 9:-0.260114 10:-2.118439 11:-1.516349 12:-1.155647 13:-0.992496 14:-1.244657 15:-1.642260 16:-1.825940 17:-1.808767 18:-1.511894 
1.000000 1:-0.410852 2:-0.419283 3:-0.355869 4:-0.323411 5:-0.289465 6:-0.322237 7:-0.349369 8:-0.326202 9:-0.283908 10:-0.673680 11:-0.220226 12:0.108649 13:0.104431 14:-0.162972 15:0.275324 16:-0.516632 17:0.506492 18:-0.330584 
1.000000 1:-0.257696 2:-0.258547 3:-0.262559 4:-0.255409 5:-0.258485 6:-0.261493 7:-0.263068 8:-0.233592 9:-0.142570 10:0.424674 11:0.200138 12:0.249127 13:0.425944 14:0.473909 15:0.294694 16:0.817537 17:2.614801 18:1.825169 
1.000000 1:-0.182810 2:-0.227532 3:-0.267200 4:-0.305206 5:-0.296252 6:-0.280865 7:-0.272034 8:-0.290381 9:-0.286763 10:0.390878 11:0.305229 12:0.116913 13:-0.103607 14:-0.142753 15:-0.625359 16:-0.251455 17:-0.579998 18:-0.395910 
1.000000 1:-0.425872 2:-0.376948 3:-0.331442 4:-0.327427 5:-0.297432 6:-0.240479 7:-0.170789 8:-0.115646 9:-0.153039 10:-0.107605 11:0.585471 12:1.381209 13:2.648167 14:2.920338 15:0.972628 16:0.146309 17:-0.767547 18:-0.934849 
1.000000 1:-0.212426 2:-0.215080 3:-0.238376 4:-0.228637 5:-0.221898 6:-0.222748 7:-0.239905 8:-0.223108 9:-0.217284 10:0.618998 11:0.173865 12:0.026016 13:0.113887 14:-0.233736 15:-0.460718 16:-0.309463 17:-0.353646 18:-0.401354 
1.000000 1:-0.208195 2:-0.190178 3:-0.223476 4:-0.218464 5:-0.249928 6:-0.290387 7:-0.294450 8:-0.327950 9:-0.319599 10:-0.504703 11:-0.833257 12:-0.659844 13:-0.519683 14:-0.537012 15:-0.528512 16:-0.947543 17:-1.349596 18:-1.833079 
1.000000 1:-0.208618 2:-0.189046 3:-0.243750 4:-0.268528 5:-0.337854 6:-0.353430 7:-0.366555 8:-0.401339 9:-0.414777 10:0.357083 11:0.497896 12:0.340024 13:0.605613 14:0.605329 15:0.643345 16:0.693236 17:0.111993 18:-0.978399 
1.000000 1:-0.181964 2:-0.191083 3:-0.189278 4:-0.161706 5:-0.188557 6:-0.250001 7:-0.263442 8:-0.238834 9:-0.299612 10:0.821771 11:0.532926 12:0.216073 13:0.293556 14:0.575001 15:1.127584 16:1.032993 17:-0.489457 18:-0.548337 
1.000000 1:-0.244369 2:-0.218250 3:-0.177065 4:-0.153942 5:-0.175574 6:-0.201406 7:-0.250739 8:-0.316592 9:-0.320075 10:0.205003 11:0.086289 12:0.034279 13:-0.302189 14:-0.506685 15:-0.334816 16:0.179456 17:0.008517 18:0.382556 
1.000000 1:-0.301908 2:-0.260132 3:-0.230560 4:-0.244165 5:-0.249338 6:-0.242449 7:-0.247377 8:-0.252376 9:-0.248692 10:0.331736 11:0.357774 12:0.092123 13:-0.131976 14:-0.142753 15:-0.731892 16:-1.138139 17:0.862188 18:1.171910 
1.000000 1:3.535671 2:3.537759 3:3.541169 4:3.539037 5:3.537987 6:3.540741 7:3.540922 8:3.537201 9:3.533176 10:0.804874 11:0.489138 12:0.083859 13:-0.103607 14:-0.183190 15:0.013835 16:0.751243 17:-0.470056 18:-0.221708 
1.000000 1:-0.178791 2:-0.262395 3:-0.273795 4:-0.234259 5:-0.193277 6:-0.195496 7:-0.222346 8:-0.272471 9:-0.280577 10:0.534509 11:0.086289 12:-0.246676 13:-0.311645 14:-0.486466 15:-0.925587 16:-0.632646 17:-1.116776 18:-1.130826 
1.000000 1:-0.274831 2:-0.317861 3:-0.366128 4:-0.380169 5:-0.393030 6:-0.373787 7:-0.353853 8:-0.328823 9:-0.342918 10:1.210420 11:0.988320 12:0.273917 13:-0.113064 14:-0.334828 15:-0.722207 16:-0.781808 17:-1.763497 18:-1.680652 
1.000000 1:-0.378063 2:-0.382608 3:-0.365639 4:-0.350451 5:-0.309824 6:-0.327162 7:-0.350490 8:-0.361149 9:-0.345297 10:-0.960942 11:-0.745682 12:-0.717688 13:-0.548052 14:-0.162972 15:-0.044273 16:-0.748661 17:-0.651138 18:-0.858635 
1.000000 1:-0.176041 2:-0.207836 3:-0.215415 4:-0.253268 5:-0.238421 6:-0.223077 7:-0.254475 8:-0.246698 9:-0.231560 10:-0.775067 11:-0.553015 12:-0.263202 13:0.170625 14:0.575001 15:0.711139 16:0.394912 17:-0.230769 18:-0.472124 
1.000000 1:-0.283081 2:-0.258094 3:-0.192942 4:-0.109232 5:-0.133086 6:-0.202063 7:-0.221598 8:-0.290818 9:-0.272011 10:-0.817311 11:-0.588045 12:-0.560684 13:-0.661527 14:-0.537012 15:-0.509142 16:-0.326036 17:-1.136178 18:-0.722540 
1.000000 1:-0.137752 2:-0.103471 3:-0.094991 4:-0.146981 5:-0.238716 6:-0.245076 7:-0.275397 8:-0.288634 9:-0.369092 10:1.109033 11:1.697685 12:2.174493 13:2.477954 14:2.323895 15:1.786148 16:0.602081 17:0.247804 18:0.099478 
1.000000 1:-0.261504 2:-0.275300 3:-0.310923 4:-0.340278 5:-0.374441 6:-0.371817 7:-0.382993 8:-0.395223 9:-0.404307 10:-0.631436 11:-0.474196 12:-0.304519 13:-0.273820 14:-0.385374 15:-0.441349 16:-1.146426 17:-1.718226 18:-1.506450 
1.000000 1:-0.188733 2:-0.237266 3:-0.260116 4:-0.245236 5:-0.228389 6:-0.226688 7:-0.236542 8:-0.208256 9:-0.224422 10:-0.462458 11:-0.377863 12:-0.585474 13:-0.680440 14:-0.789743 15:-0.896533 16:-0.599499 17:0.506492 18:0.741849 
1.000000 1:-0.157637 2:-0.210326 3:-0.254742 4:-0.276024 5:-0.276483 6:-0.260836 7:-0.265683 8:-0.258055 9:-0.258210 10:-0.563845 11:-0.570530 12:-0.436733 13:-0.689896 14:-0.648214 15:0.004151 16:-0.218308 17:-1.071506 18:-1.359467 
1.000000 1:-0.205657 2:-0.196064 3:-0.176088 4:-0.148588 5:-0.187671 6:-0.218480 7:-0.211885 8:-0.212624 9:-0.263445 10:-0.023117 11:-0.062590 12:-0.238412 13:-0.160345 14:-0.274173 15:0.062259 16:0.469493 17:0.137861 18:0.317230 
1.000000 1:-0.368332 2:-0.339820 3:-0.281123 4:-0.220873 5:-0.097090 6:-0.066128 7:-0.147999 8:-0.223108 9:-0.242506 10:-1.400284 11:-1.376228 12:-1.296124 13:-1.418028 14:-1.547934 15:-1.874695 16:-2.198845 17:-2.306742 18:-1.947400 
1.000000 1:-0.287946 2:-0.264659 3:-0.230560 4:-0.231314 5:-0.266156 6:-0.289402 7:-0.258211 8:-0.223108 9:-0.170171 10:-0.944044 11:-0.447924 12:-0.304519 13:-0.207626 14:-0.132644 15:-0.392925 16:-0.524919 17:-0.146696 18:-0.308809 
1.000000 1:-0.289216 2:-0.282091 3:-0.259627 4:-0.252197 5:-0.319266 6:-0.359011 7:-0.379631 8:-0.391728 9:-0.424770 10:-0.893351 11:-0.596803 12:-0.494577 13:-0.330558 14:-0.688651 15:-0.780316 16:-0.715514 17:-1.213784 18:-1.201596 
1.000000 1:-0.387159 2:-0.400719 3:-0.375898 4:-0.360892 5:-0.363819 6:-0.348176 7:-0.341150 8:-0.335813 9:-0.324358 10:-0.099157 11:-0.001287 12:0.001225 13:-0.009045 14:0.211069 15:0.604606 16:0.958412 17:-0.398917 18:-0.488455 
1.000000 1:-0.174137 2:-0.221646 3:-0.265001 4:-0.268260 5:-0.292711 6:-0.324864 7:-0.307900 8:-0.328386 9:-0.357194 10:0.973851 11:0.497896 12:-0.064882 13:-0.425120 14:-0.799852 15:-0.954642 16:-0.790095 17:-0.955096 18:-0.205377 
1.000000 1:-0.271869 2:-0.234776 3:-0.168271 4:-0.063987 5:-0.118924 6:-0.216181 7:-0.254102 8:-0.271597 9:-0.294853 10:1.463886 11:1.198502 12:0.620978 13:0.047693 14:-0.162972 15:-0.102382 16:-0.947543 17:-0.288974 18:0.769068 
1.000000 1:-0.195080 2:-0.175915 3:-0.194164 4:-0.206148 5:-0.270287 6:-0.297939 7:-0.305285 8:-0.351102 9:-0.368140 10:-1.020084 11:-0.736924 12:-0.469787 13:-0.207626 14:0.433472 15:0.527128 16:0.030295 17:-1.330194 18:-1.620770 
1.000000 1:-0.242465 2:-0.259905 3:-0.259383 4:-0.244700 5:-0.210391 6:-0.190242 7:-0.177887 8:-0.177677 9:-0.253451 10:0.188105 11:0.217653 12:0.059069 13:0.312469 14:0.868168 15:1.640877 16:1.903103 17:0.099058 18:0.202910 
1.000000 1:-0.218984 2:-0.237493 3:-0.239109 4:-0.213109 5:-0.220422 6:-0.259195 7:-0.280627 8:-0.279024 9:-0.239175 10:0.272594 11:0.095047 12:-0.081408 13:-0.094151 14:-0.253954 15:-0.431664 16:-0.458624 17:0.674639 18:-0.085612 
1.000000 1:-0.165675 2:-0.182254 3:-0.177798 4:-0.156619 5:-0.159936 6:-0.210600 7:-0.260826 8:-0.251066 9:-0.233464 10:-0.006219 11:0.042501 12:-0.139252 13:-0.349470 14:-0.435920 15:-0.828740 16:-0.616073 17:-1.563013 18:-1.517338 
1.000000 1:-0.257907 2:-0.298618 3:-0.300420 4:-0.293426 5:-0.279729 6:-0.270687 7:-0.240652 8:-0.223982 9:-0.229181 10:-0.868004 11:-0.789470 12:-0.651581 13:-0.491314 14:-0.547122 15:-0.344501 16:-0.864676 17:-1.802300 18:-1.691540 
1.000000 1:-0.234849 2:-0.205572 3:-0.266711 4:-0.280843 5:-0.321036 6:-0.334386 7:-0.334799 8:-0.358528 9:-0.355291 10:0.179656 11:0.340259 12:0.306970 13:0.539419 14:0.827731 15:0.933888 16:2.002544 17:2.116826 18:1.324337 
1.000000 1:-0.226811 2:-0.173651 3:-0.236178 4:-0.268260 5:-0.319856 6:-0.333401 7:-0.351237 8:-0.389107 9:-0.421439 10:0.559856 11:-0.404136 12:-0.725951 13:-0.831740 14:-0.547122 15:-0.596305 16:-0.806668 17:-0.263105 18:-0.815085 
1.000000 1:-0.234003 2:-0.259000 3:-0.257917 4:-0.250323 5:-0.228979 6:-0.212570 7:-0.240278 8:-0.249319 9:-0.266776 10:-1.619955 11:-1.183561 12:-0.593737 13:0.019324 14:0.271725 15:0.594922 16:-0.342610 17:-0.909826 18:-0.417686 
1.000000 1:-0.422064 2:-0.392342 3:-0.352449 4:-0.355003 5:-0.344641 6:-0.322565 7:-0.335546 8:-0.329697 9:-0.334828 10:-0.285032 11:-0.281530 12:-0.197095 13:-0.302189 14:-0.941381 15:-1.797216 16:-1.469610 17:-0.101425 18:0.534983 
1.000000 1:-0.258119 2:-0.311974 3:-0.288207 4:-0.262102 5:-0.210686 6:-0.205346 7:-0.210390 8:-0.171998 9:-0.217760 10:0.526061 11:0.506653 12:0.331760 13:0.463769 14:0.615438 15:0.720824 16:0.154596 17:-0.599400 18:-0.564669 
1.000000 1:-0.303177 2:-0.280054 3:-0.242284 4:-0.247913 5:-0.273827 6:-0.285462 7:-0.294824 8:-0.300429 9:-0.289619 10:-0.868004 11:-0.272772 12:-0.254939 13:0.057149 14:0.544673 15:0.042890 16:0.245750 17:-0.179032 18:0.066815 
1.000000 1:-0.213484 2:-0.208741 3:-0.186591 4:-0.214180 5:-0.233110 6:-0.236867 7:-0.222346 8:-0.193840 9:-0.184448 10:0.179656 11:-0.228984 12:-0.304519 13:-0.160345 14:0.069540 15:0.323748 16:0.336905 17:-0.308376 18:-0.689877 
1.000000 1:-0.233580 2:-0.176821 3:-0.246925 4:-0.247378 5:-0.300677 6:-0.328475 7:-0.323965 8:-0.323581 9:-0.290094 10:-1.493221 11:-1.411258 12:-1.238280 13:-1.162709 14:-0.931272 15:-0.819055 16:0.071728 17:-0.961563 18:-0.499343 
1.000000 1:-0.162714 2:-0.126110 3:-0.156547 4:-0.140824 5:-0.179705 6:-0.210271 7:-0.209270 8:-0.216556 9:-0.182068 10:-0.884902 11:-1.034682 12:-0.973853 13:-1.181622 14:-1.173893 15:-0.654414 16:-0.947543 17:-0.120827 18:-0.330584 
1.000000 1:-0.465853 2:-0.412944 3:-0.366128 4:-0.371601 5:-0.385948 6:-0.396114 7:-0.413628 8:-0.426238 9:-0.434288 10:-0.099157 11:0.243926 12:-0.073145 13:-0.160345 14:-0.132644 15:0.188161 16:0.544074 17:0.500025 18:-0.809641 
1.000000 1:-0.183022 2:-0.160294 3:-0.214194 4:-0.221944 5:-0.237536 6:-0.258866 7:-0.215621 8:-0.261550 9:-0.230133 10:0.779527 11:0.068774 12:-0.296256 13:-0.538596 14:-0.668432 15:-0.654414 16:-0.466911 17:0.053788 18:-0.140051 
1.000000 1:-0.273138 2:-0.236361 3:-0.221033 4:-0.232117 5:-0.205375 6:-0.161019 7:-0.258958 8:-0.348918 9:-0.365285 10:-0.107605 11:-0.211469 12:-0.354100 13:-0.472402 14:-0.466248 15:-0.431664 16:0.038581 17:0.176665 18:0.257348 
1.000000 1:-0.272504 2:-0.280507 3:-0.282344 4:-0.273347 5:-0.266746 6:-0.264776 7:-0.254475 8:-0.213498 9:-0.213001 10:1.920126 11:2.074261 12:1.620847 13:1.381027 14:0.918714 15:0.091314 16:-0.284602 17:0.086124 18:0.404332 
0.048639 1:-0.277369 2:-0.223909 3:-0.170226 4:-0.112177 5:-0.126005 6:-0.200421 7:-0.281748 8:-0.384302 9:-0.424294 10:1.193522 11:2.223140 12:2.984303 13:1.664715 14:0.847950 15:0.197846 16:-1.063558 17:-0.903359 18:-0.923961 
1.000000 1:-0.378698 2:-0.375816 3:-0.354892 4:-0.348309 5:-0.332838 6:-0.310416 7:-0.276144 8:-0.204761 9:-0.200628 10:-0.521600 11:-0.115135 12:0.174756 13:0.397575 14:0.342489 15:-0.267023 16:-0.574639 17:-0.256638 18:1.237236 
1.000000 1:-0.239292 2:-0.243152 3:-0.251322 4:-0.259157 5:-0.267041 6:-0.291701 7:-0.329569 8:-0.309602 9:-0.323882 10:1.548375 11:1.180987 12:0.959777 13:0.719088 14:0.524455 15:0.439965 16:0.850684 17:0.752246 18:-0.118275 
1.000000 1:-0.247542 2:-0.226852 3:-0.212972 4:-0.235598 5:-0.266746 6:-0.279224 7:-0.299681 8:-0.360276 9:-0.380513 10:-1.535466 11:-1.384985 12:-1.180437 13:-1.276184 14:-1.285094 15:-1.584151 16:-1.602198 17:-0.909826 18:0.632972 
1.000000 1:-0.361986 2:-0.336877 3:-0.264024 4:-0.198920 5:-0.175869 6:-0.149856 7:-0.273902 8:-0.362897 9:-0.394314 10:-0.285032 11:0.121319 12:0.092123 13:0.340837 14:0.382926 15:-0.063643 16:-0.210022 17:0.047321 18:-0.248927 
1.000000 1:-0.268908 2:-0.194479 3:-0.177798 4:-0.217660 5:-0.265861 6:-0.291044 7:-0.333305 8:-0.356344 9:-0.350532 10:0.069821 11:-0.491712 12:-0.519367 13:-0.519683 14:-0.122535 15:-0.053958 16:0.809250 17:0.732844 18:1.405995 
1.000000 1:-0.189368 2:-0.169803 3:-0.220789 4:-0.246307 5:-0.289465 6:-0.297939 7:-0.309021 8:-0.293876 9:-0.251548 10:-1.011635 11:-0.920833 12:-0.775532 13:-0.935759 14:-1.376077 15:-1.826271 16:-1.850801 17:-1.511276 18:-0.983843 
1.000000 1:-0.196772 2:-0.217344 3:-0.243261 4:-0.231314 5:-0.253174 6:-0.249673 7:-0.245135 8:-0.201703 9:-0.159226 10:-1.248204 11:-1.008409 12:-0.759005 13:-0.670983 14:-0.456139 15:-1.032120 16:-1.295588 17:-1.213784 18:-1.354023 
1.000000 1:-0.376159 2:-0.370609 3:-0.317274 4:-0.291017 5:-0.298612 6:-0.286119 7:-0.265683 8:-0.264171 9:-0.271059 10:3.204355 11:4.605203 12:4.959249 13:5.598522 14:5.134256 15:3.219494 16:1.207015 17:1.069139 18:2.004815 
1.000000 1:-0.359871 2:-0.358158 3:-0.331198 4:-0.324750 5:-0.351132 6:-0.318297 7:-0.317240 8:-0.356781 9:-0.378133 10:0.745731 11:1.075896 12:0.968040 13:0.208450 14:-0.001224 15:-0.208914 16:-0.533205 17:-0.230769 18:-0.744315 
1.000000 1:3.535671 2:3.537759 3:3.541169 4:3.539037 5:3.537987 6:3.540741 7:3.540922 8:3.537201 9:3.533176 10:1.937023 11:2.661019 12:2.653768 13:3.310105 14:2.536188 15:1.989528 16:2.002544 17:1.599450 18:1.547534 
1.000000 1:-0.309101 2:-0.294543 3:-0.268909 4:-0.224621 5:-0.215997 6:-0.250329 7:-0.288099 8:-0.304797 9:-0.318172 10:-1.045431 11:0.024986 12:0.563135 13:0.983864 14:1.666796 15:1.059790 16:0.361765 17:3.397333 18:5.597738 
1.000000 1:-0.231042 2:-0.224815 3:-0.206377 4:-0.154478 5:-0.120399 6:-0.176452 7:-0.251113 8:-0.304797 9:-0.273438 10:-0.783516 11:-0.535500 12:-0.849902 13:-1.257272 14:-1.527715 15:-1.865010 16:-1.718212 17:-0.877490 18:0.170247 
1.000000 1:-0.203541 2:-0.177047 3:-0.233491 4:-0.233456 5:-0.233110 6:-0.267732 7:-0.310889 8:-0.289945 9:-0.286287 10:-0.403316 11:-0.806985 12:-0.891219 13:-1.087059 14:-1.376077 15:-1.680999 16:-1.444749 17:-1.420735 18:-1.609883 
1.000000 1:-0.312062 2:-0.212137 3:-0.169249 4:-0.182321 5:-0.218357 6:-0.257225 7:-0.303043 8:-0.371633 9:-0.408114 10:-0.234339 11:-0.080105 12:-0.197095 13:-0.500770 14:-0.759415 15:-1.070859 16:-0.864676 17:0.597033 18:0.181135 
1.000000 1:-0.306350 2:-0.317408 3:-0.243506 4:-0.219802 5:-0.223078 6:-0.271015 7:-0.303417 8:-0.355907 9:-0.355767 10:-0.040014 11:0.086289 12:0.183020 13:0.189537 14:0.130196 15:-0.480088 16:0.212603 17:-0.968031 18:-0.472124 
1.000000 1:-0.296408 2:-0.298391 3:-0.266223 4:-0.255142 5:-0.255829 6:-0.269373 7:-0.308647 8:-0.308729 9:-0.332924 10:-0.048463 11:0.016228 12:0.042542 13:0.104431 14:-0.304500 15:0.023520 16:0.643515 17:-0.379515 18:-0.444905 
1.000000 1:-0.238022 2:-0.259452 3:-0.196606 4:-0.176431 5:-0.268811 6:-0.294984 7:-0.351611 8:-0.403086 9:-0.430005 10:3.162111 11:3.230262 12:1.744797 13:1.002776 14:0.271725 15:-0.063643 16:-0.342610 17:-0.088491 18:0.360781 
1.000000 1:-0.194233 2:-0.236814 3:-0.264757 4:-0.265315 5:-0.249633 6:-0.234569 7:-0.240652 8:-0.206945 9:-0.228229 10:-0.141401 11:0.095047 12:0.001225 13:-0.235995 14:-0.708869 15:-0.819055 16:-0.674080 17:-0.004417 18:-0.330584 
1.000000 1:-0.271023 2:-0.249039 3:-0.194164 4:-0.112713 5:-0.123349 6:-0.188272 7:-0.216368 8:-0.309602 9:-0.313889 10:0.585203 11:0.935775 12:0.761456 13:0.113887 14:-0.142753 15:0.333433 16:0.278898 17:0.267206 18:2.467540 
1.000000 1:-0.153194 2:-0.161653 3:-0.209064 4:-0.228637 5:-0.237241 6:-0.223405 7:-0.201050 8:-0.175056 9:-0.226802 10:-0.192094 11:-0.123893 12:0.075596 13:0.142256 14:-0.162972 15:-0.731892 16:-1.055271 17:-0.909826 18:-0.423129 
1.000000 1:-0.213061 2:-0.200139 3:-0.169737 4:-0.092366 5:-0.066699 6:-0.186959 7:-0.276891 8:-0.361586 9:-0.380037 10:0.686589 11:1.575079 12:2.595925 13:2.336110 14:2.283458 15:1.437496 16:0.858971 17:0.351279 18:-0.025730 
1.000000 1:-0.315658 2:-0.303598 3:-0.282344 4:-0.264512 5:-0.217472 6:-0.161676 7:-0.148373 8:-0.216119 9:-0.309606 10:1.176624 11:0.769381 12:0.662295 13:0.605613 14:0.635656 15:0.701454 16:0.303758 17:0.196066 18:0.284567 
1.000000 1:-0.270177 2:-0.234323 3:-0.213705 4:-0.225424 5:-0.285630 6:-0.276925 7:-0.264936 8:-0.287760 9:-0.267252 10:0.745731 11:0.594229 12:0.480501 13:0.425944 14:0.140305 15:0.013835 16:0.022008 17:0.105525 18:0.148472 
1.000000 1:-0.215811 2:-0.211911 3:-0.196606 4:-0.194636 5:-0.193277 6:-0.150184 7:-0.093080 8:-0.090746 9:-0.124962 10:1.438539 11:1.557563 12:1.191151 13:1.154076 14:1.373629 15:1.698985 16:0.850684 17:-0.573531 18:-0.466680 
1.000000 1:-0.166521 2:-0.185876 3:-0.259139 4:-0.261299 5:-0.265566 6:-0.292357 7:-0.304911 8:-0.301739 9:-0.311033 10:0.923158 11:0.734350 12:0.695349 13:0.927126 14:0.908605 15:0.924204 16:0.287184 17:0.584099 18:0.502320 
1.000000 1:-0.353524 2:-0.308126 3:-0.239597 4:-0.193565 5:-0.140463 6:-0.084515 7:-0.037414 8:-0.102104 9:-0.062145 10:-1.341142 11:-0.509227 12:0.257390 13:1.021689 14:1.262427 15:2.037952 16:2.599191 17:1.017401 18:1.460433 
1.000000 1:-0.298312 2:-0.296127 3:-0.289916 4:-0.308686 5:-0.347591 6:-0.330445 7:-0.335546 8:-0.366828 9:-0.387651 10:-0.149850 11:-0.369105 12:-0.436733 13:-0.689896 14:-1.032364 15:-1.206445 16:-1.627058 17:-1.155580 18:-0.504787 
1.000000 1:3.535671 2:3.537759 3:3.541169 4:3.539037 5:3.537987 6:3.540741 7:3.540922 8:3.537201 9:3.533176 10:-0.377969 11:-0.535500 12:-0.610264 13:-0.661527 14:-0.486466 15:-0.267023 16:0.593795 17:0.331878 18:1.743512 
1.000000 1:-0.322639 2:-0.324652 3:-0.254742 4:-0.195975 5:-0.211571 6:-0.245076 7:-0.278759 8:-0.282955 9:-0.273438 10:-1.011635 11:-0.763197 12:-0.635054 13:-0.595333 14:-0.456139 15:-0.635044 16:-1.038698 17:-1.330194 18:-1.261478 
1.000000 1:-0.221734 2:-0.190404 3:-0.150928 4:-0.141895 5:-0.122169 6:-0.065799 7:-0.027327 8:0.070448 9:0.231953 10:-0.513152 11:-0.491712 12:-0.568947 13:-0.604789 14:-0.931272 15:-1.070859 16:-1.287301 17:-0.851621 18:-0.521118 
1.000000 1:-0.186195 2:-0.154861 3:-0.179263 4:-0.186872 5:-0.248748 6:-0.279880 7:-0.296318 8:-0.313097 9:-0.378133 10:-0.420214 11:0.024986 12:0.050806 13:-0.084695 14:0.120086 15:-0.431664 16:-0.698941 17:-0.896891 18:-0.673545 
1.000000 1:-0.221522 2:-0.143542 3:-0.174867 4:-0.205881 5:-0.275893 6:-0.299581 7:-0.320602 8:-0.331007 9:-0.371471 10:1.784943 11:0.997078 12:0.802773 13:1.059514 14:1.191663 15:1.786148 16:1.977684 17:-0.004417 18:0.181135 
1.000000 1:-0.200368 2:-0.208968 3:-0.255963 4:-0.269866 5:-0.281204 6:-0.317640 7:-0.338909 8:-0.317902 9:-0.291998 10:0.272594 11:0.077531 12:-0.197095 13:-0.264364 14:-0.456139 15:-0.993381 16:-0.417191 17:0.441820 18:0.415219 
1.000000 1:-0.327293 2:-0.328501 3:-0.273062 4:-0.129579 5:-0.164952 6:-0.250001 7:-0.322470 8:-0.412259 9:-0.462841 10:1.455437 11:2.240655 12:2.562871 13:1.664715 14:0.281834 15:-0.848109 16:-1.453036 17:-1.608284 18:-1.228815 
1.000000 1:-0.377852 2:-0.385098 3:-0.369303 4:-0.361696 5:-0.332248 6:-0.307133 7:-0.283242 8:-0.250192 9:-0.266776 10:0.720385 11:0.550441 12:0.811036 13:1.191901 14:1.019806 15:0.585237 16:0.129736 17:0.907459 18:0.660191 
1.000000 1:-0.168425 2:-0.209647 3:-0.233979 4:-0.302796 5:-0.321921 6:-0.320595 7:-0.302669 8:-0.311350 9:-0.311985 10:-1.053880 11:-0.885803 12:-0.585474 13:-0.434577 14:0.120086 15:0.904834 16:0.005434 17:-1.129711 18:-1.228815 
1.000000 1:-0.256004 2:-0.203534 3:-0.203202 4:-0.233724 5:-0.256714 6:-0.286776 7:-0.289593 8:-0.291692 9:-0.277721 10:0.678140 11:0.506653 12:0.034279 13:-0.311645 14:-0.516794 15:-0.673783 16:-0.466911 17:-1.045637 18:-0.983843 
1.000000 1:-0.256427 2:-0.269413 3:-0.268177 4:-0.266386 5:-0.286220 6:-0.295641 7:-0.319855 8:-0.313097 9:-0.319124 10:0.635896 11:0.208895 12:-0.015301 13:-0.453489 14:-0.435920 15:-0.460718 16:-0.011139 17:1.010934 18:0.436994 
1.000000 1:-0.403871 2:-0.388041 3:-0.355869 4:-0.334923 5:-0.303628 6:-0.289402 7:-0.291088 8:-0.266792 9:-0.261541 10:-1.239755 11:-1.087227 12:-0.816848 13:-0.727721 14:-0.779633 15:-0.673783 16:-0.326036 17:-0.004417 18:-0.025730 
1.000000 1:-0.208407 2:-0.163464 3:-0.199293 4:-0.202400 5:-0.219242 6:-0.265433 7:-0.319108 8:-0.322707 9:-0.335780 10:-0.217441 11:-0.167681 12:0.505291 13:1.097339 14:1.060243 15:1.476235 16:0.709809 17:0.403017 18:1.362444 
1.000000 1:-0.242042 2:-0.242020 3:-0.218835 4:-0.227834 5:-0.270287 6:-0.278567 7:-0.280627 8:-0.328386 9:-0.301992 10:0.036026 11:0.454108 12:-0.147515 13:-0.330558 14:-0.496576 15:-0.915902 16:-0.947543 17:-0.256638 18:0.954158 
1.000000 1:-0.169695 2:-0.156898 3:-0.194408 4:-0.210432 5:-0.261730 6:-0.287761 7:-0.284363 8:-0.267666 9:-0.267252 10:-0.834209 11:-0.325317 12:-0.147515 13:0.009868 14:0.484018 15:0.837041 16:1.057853 17:0.299542 18:0.556759 
1.000000 1:-0.179637 2:-0.223230 3:-0.262314 4:-0.247913 5:-0.252288 6:-0.277254 7:-0.256717 8:-0.230098 9:-0.248692 10:-0.800413 11:-0.736924 12:-0.759005 13:-0.737177 14:-1.002036 15:-1.264554 16:-1.361882 17:-0.735211 18:0.208354 
1.000000 1:-0.165464 2:-0.205346 3:-0.265001 4:-0.275489 5:-0.267926 6:-0.253613 7:-0.261200 8:-0.260240 9:-0.280101 10:-0.868004 11:-1.244864 12:-1.139120 13:-1.096515 14:-1.022255 15:-1.206445 16:-1.444749 17:-1.032703 18:-1.114495 
1.000000 1:-0.319043 2:-0.263980 3:-0.222010 4:-0.256748 5:-0.274122 6:-0.265105 7:-0.267178 8:-0.285576 9:-0.345773 10:-0.259685 11:0.060016 12:0.075596 13:0.161168 14:0.049322 15:0.343118 16:0.742956 17:-0.133761 18:-0.929405 
1.000000 1:-0.465853 2:-0.443053 3:-0.412539 4:-0.420863 5:-0.412798 6:-0.392174 7:-0.379257 8:-0.376439 9:-0.357670 10:-0.479356 11:-0.185196 12:0.067332 13:0.435400 14:0.473909 15:-0.170175 16:-0.309463 17:-0.385982 18:-0.368691 
1.000000 1:-0.141983 2:-0.194479 3:-0.214194 4:-0.190085 5:-0.158756 6:-0.170870 7:-0.205534 8:-0.211750 9:-0.159702 10:1.742699 11:1.067139 12:0.720139 13:0.548875 14:0.797404 15:1.098530 16:2.010831 17:1.929277 18:2.081029 
1.000000 1:-0.279062 2:-0.289109 3:-0.288451 4:-0.298245 5:-0.290055 6:-0.274955 7:-0.286231 8:-0.270724 9:-0.256782 10:-0.699027 11:-0.316560 12:-0.279729 13:-0.094151 14:-0.112425 15:0.004151 16:-0.002852 17:0.409484 18:0.834394 
1.000000 1:-0.252196 2:-0.206704 3:-0.194164 4:-0.223550 5:-0.257894 6:-0.256896 7:-0.292956 8:-0.320523 9:-0.339111 10:-0.665231 11:-0.710651 12:-0.717688 13:-0.784459 14:-0.678541 15:-1.264554 16:-1.370168 17:-1.006834 18:-0.918517 
1.000000 1:-0.175618 2:-0.161426 3:-0.176088 4:-0.156619 5:-0.182065 6:-0.215196 7:-0.215247 8:-0.237961 9:-0.193490 10:-1.045431 11:-0.789470 12:-0.618528 13:-0.500770 14:-0.486466 15:-0.315447 16:0.096589 17:0.247804 18:1.275343 
1.000000 1:-0.275042 2:-0.235682 3:-0.248880 4:-0.254071 5:-0.271762 6:-0.270358 7:-0.259332 8:-0.317902 9:-0.305799 10:0.500714 11:0.287713 12:0.001225 13:-0.141432 14:-0.203408 15:-0.421979 16:-0.234882 17:2.220301 18:1.825169 
1.000000 1:-0.209887 2:-0.207383 3:-0.210530 4:-0.169470 5:-0.136627 6:-0.185317 7:-0.215247 8:-0.233156 9:-0.209194 10:-0.690578 11:-0.596803 12:-0.568947 13:-0.510227 14:-0.496576 15:-0.160490 16:0.858971 17:0.681107 18:0.284567 
1.000000 1:-0.359659 2:-0.352951 3:-0.304817 4:-0.283788 5:-0.240781 6:-0.200749 7:-0.198062 8:-0.208256 9:-0.247741 10:-0.741271 11:-0.736924 12:-0.676371 13:-0.453489 14:-0.162972 15:-0.083012 16:0.403199 17:-0.825752 18:-0.885854 
1.000000 1:-0.395410 2:-0.383740 3:-0.346342 4:-0.332781 5:-0.305988 6:-0.286447 7:-0.254849 8:-0.207819 9:-0.183972 10:-1.214408 11:-1.008409 12:-0.891219 13:-0.765546 14:-0.395483 15:-0.489773 16:-0.118867 17:0.551763 18:0.219242 
1.000000 1:-0.177945 2:-0.224362 3:-0.275260 4:-0.300655 5:-0.309529 6:-0.304506 7:-0.319855 8:-0.314844 9:-0.353387 10:-0.006219 11:0.287713 12:0.340024 13:0.132799 14:0.332380 15:-0.179860 16:-0.036000 17:0.396550 18:1.329781 
0.073813 1:-0.323697 2:-0.289336 3:-0.195629 4:-0.082995 5:-0.114793 6:-0.228002 7:-0.275023 8:-0.358528 9:-0.387175 10:0.450021 11:0.918260 12:1.075464 13:0.180081 14:0.059431 15:0.217216 16:1.124147 17:1.657655 18:1.177354 
1.000000 1:-0.164829 2:-0.203308 3:-0.232758 4:-0.234259 5:-0.249338 6:-0.250329 7:-0.258958 8:-0.246698 9:-0.267252 10:-0.116054 11:0.086289 12:0.439184 13:1.191901 14:1.272537 15:0.827356 16:0.742956 17:1.295491 18:0.328118 
1.000000 1:-0.513027 2:-0.480634 3:-0.455285 4:-0.467982 5:-0.465613 6:-0.451933 7:-0.457340 8:-0.490454 9:-0.520423 10:-1.535466 11:-0.640591 12:0.116913 13:0.813651 14:0.291943 15:-0.121751 16:0.270611 17:2.711809 18:3.191568 
1.000000 1:-0.325812 2:-0.265565 3:-0.186591 4:-0.140824 5:-0.120989 6:-0.159706 7:-0.213753 8:-0.210877 9:-0.176834 10:1.016095 11:0.778138 12:1.108517 13:1.239183 14:1.323083 15:1.369703 16:1.231875 17:0.551763 18:1.215461 
1.000000 1:-0.221311 2:-0.262848 3:-0.307504 4:-0.306545 5:-0.293006 6:-0.261493 7:-0.279506 8:-0.289071 9:-0.308654 10:1.877881 11:1.224775 12:1.133308 13:1.513415 14:2.020618 15:2.154169 16:2.474890 17:1.909876 18:1.057590 
0.427712 1:-0.386525 2:-0.368345 3:-0.319229 4:-0.243630 5:-0.181475 6:-0.245076 7:-0.295197 8:-0.344986 9:-0.373850 10:1.303357 11:1.785261 12:1.943118 13:1.135164 14:0.362708 15:0.788617 16:0.784390 17:0.390082 18:0.638416 
1.000000 1:-0.255157 2:-0.206251 3:-0.224941 4:-0.257283 5:-0.302743 6:-0.283164 7:-0.277265 8:-0.289508 9:-0.331497 10:-0.817311 11:-1.043440 12:-0.882955 13:-1.011409 14:-0.830180 15:-0.683468 16:-0.897823 17:-1.679423 18:-1.299585 
1.000000 1:-0.146425 2:-0.159842 3:-0.194897 4:-0.242023 5:-0.267631 6:-0.283492 7:-0.281748 8:-0.304360 9:-0.297709 10:-1.527017 11:-1.122258 12:-1.006906 13:-1.077603 14:-1.234548 15:-0.983696 16:-1.477896 17:-2.060988 18:-1.833079 
1.000000 1:-0.185137 2:-0.223004 3:-0.244971 4:-0.272811 5:-0.247863 6:-0.197137 7:-0.167053 8:-0.186851 9:-0.241078 10:-0.665231 11:-0.509227 12:-0.122725 13:0.350294 14:0.130196 15:-0.267023 16:-1.129852 17:-1.084440 18:-0.749759 
1.000000 1:-0.314389 2:-0.247680 3:-0.181706 4:-0.202668 5:-0.262320 6:-0.283164 7:-0.285484 8:-0.276839 9:-0.295805 10:-0.040014 11:0.173865 12:0.042542 13:0.028781 14:0.322271 15:0.604606 16:-0.342610 17:-0.864555 18:-0.853191 
1.000000 1:-0.151502 2:-0.163690 3:-0.200515 4:-0.244433 5:-0.284744 6:-0.306476 7:-0.309768 8:-0.329260 9:-0.355767 10:-0.479356 11:-0.482954 12:-0.329309 13:-0.396752 14:-0.496576 15:-0.567251 16:-0.243169 17:-0.489457 18:-1.359467 
1.000000 1:-0.347813 2:-0.313786 3:-0.261581 4:-0.174021 5:-0.156986 6:-0.188929 7:-0.236542 8:-0.327076 9:-0.310082 10:0.357083 11:0.524168 12:0.612715 13:0.624525 14:0.291943 15:0.565867 16:0.618655 17:-0.049687 18:-0.684433 
1.000000 1:-0.148540 2:-0.182254 3:-0.225674 4:-0.248716 5:-0.264976 6:-0.287761 7:-0.309768 8:-0.341055 9:-0.379561 10:-0.116054 11:-0.395378 12:-0.478050 13:-0.699352 14:-0.769524 15:-0.731892 16:-1.204433 17:-1.032703 18:-1.168933 
0.513540 1:-0.209676 2:-0.205119 3:-0.202469 4:-0.153674 5:-0.156691 6:-0.243434 7:-0.316866 8:-0.377749 9:-0.401452 10:-1.484773 11:-0.088863 12:2.290180 13:3.527600 14:4.163772 15:3.151701 16:0.875544 17:0.745779 18:0.028708 
1.000000 1:-0.284773 2:-0.265791 3:-0.265490 4:-0.263709 5:-0.236946 6:-0.182690 7:-0.063566 8:0.002301 9:0.078717 10:-0.023117 11:-0.071348 12:0.149966 13:0.321925 14:0.827731 15:1.592453 16:1.546772 17:0.014985 18:0.643860 
1.000000 1:-0.478334 2:-0.429470 3:-0.361975 4:-0.258622 5:-0.201539 6:-0.236539 7:-0.304911 8:-0.354597 9:-0.412873 10:-0.090708 11:0.532926 12:0.257390 13:-0.292733 14:-0.961599 15:-1.138652 16:-1.535904 17:0.002050 18:-0.199933 
1.000000 1:-0.201214 2:-0.227079 3:-0.236178 4:-0.247913 5:-0.289760 6:-0.302864 7:-0.304537 8:-0.276839 9:-0.284860 10:-0.918698 11:-0.272772 12:-0.015301 13:0.123343 14:0.029104 15:-0.005534 16:0.842397 17:1.411901 18:2.189905 
1.000000 1:-0.338082 2:-0.291373 3:-0.220545 4:-0.159297 5:-0.194163 6:-0.269373 7:-0.314251 8:-0.374254 9:-0.340538 10:0.618998 11:0.638017 12:0.282180 13:-0.235995 14:-0.870616 15:-0.954642 16:-0.400617 17:0.021452 18:0.143028 
0.047686 1:-0.207560 2:-0.225947 3:-0.204912 4:-0.151800 5:-0.121284 6:-0.186630 7:-0.243267 8:-0.289945 9:-0.318648 10:-0.175196 11:0.191380 12:0.637505 13:0.681263 14:1.292755 15:0.323748 16:-0.582926 17:-0.586466 18:-0.591888 
1.000000 1:-0.189579 2:-0.194479 3:-0.202225 4:-0.243362 5:-0.285335 6:-0.298268 7:-0.291461 8:-0.268103 9:-0.208242 10:-0.259685 11:-0.228984 12:-0.502840 13:-0.803371 14:-0.789743 15:-1.128967 16:-0.616073 17:-0.360113 18:-0.178157 
1.000000 1:-0.412121 2:-0.392116 3:-0.357823 4:-0.373475 5:-0.380932 6:-0.366563 7:-0.363193 8:-0.341055 9:-0.331972 10:-0.386418 11:-0.264014 12:-0.337573 13:-0.254908 14:-0.092207 15:-0.363871 16:0.237464 17:-0.418318 18:0.502320 
1.000000 1:-0.195714 2:-0.233418 3:-0.254009 4:-0.236669 5:-0.207735 6:-0.195167 7:-0.181997 8:-0.169814 9:-0.183496 10:0.120514 11:0.156350 12:0.249127 13:0.577244 14:0.898496 15:1.098530 16:0.146309 17:-0.858088 18:-0.825972 
1.000000 1:-0.181964 2:-0.216439 3:-0.233735 4:-0.209629 5:-0.172329 6:-0.193197 7:-0.230565 8:-0.269850 9:-0.285812 10:1.092135 11:0.962048 12:0.794509 13:0.624525 14:0.777185 15:0.575552 16:0.113162 17:-0.133761 18:0.404332 
1.000000 1:-0.217926 2:-0.189272 3:-0.249368 4:-0.274953 5:-0.295366 6:-0.266090 7:-0.246256 8:-0.206508 9:-0.208242 10:-0.394867 11:-0.351590 12:-0.279729 13:-0.094151 14:0.413254 15:0.895149 16:1.439044 17:2.065089 18:1.237236 
1.000000 1:-0.234426 2:-0.273262 3:-0.299443 4:-0.315112 5:-0.334314 6:-0.320267 7:-0.276144 8:-0.209566 9:-0.139714 10:-0.952493 11:-0.684379 12:-0.610264 13:-0.415664 14:-0.132644 15:0.488389 16:1.323030 17:0.739312 18:0.355337 
1.000000 1:-0.257484 2:-0.269413 3:-0.248880 4:-0.195172 5:-0.228684 6:-0.276925 7:-0.295197 8:-0.276403 9:-0.229657 10:-0.293481 11:0.165107 12:0.430921 13:0.804194 14:1.221991 15:1.805518 16:0.950125 17:0.836320 18:0.115809 
1.000000 1:-0.223003 2:-0.220514 3:-0.238865 4:-0.232117 5:-0.241666 6:-0.227673 7:-0.193578 8:-0.125256 9:-0.071663 10:0.745731 11:0.743108 12:0.364814 13:0.359750 14:0.332380 15:1.108214 16:1.513625 17:1.618851 18:-0.129163 
1.000000 1:-0.223003 2:-0.236134 3:-0.219323 4:-0.232117 5:-0.257599 6:-0.287432 7:-0.306405 8:-0.300866 9:-0.299612 10:-0.369521 11:-0.176439 12:-0.197095 13:-0.217082 14:-0.597668 15:-0.702838 16:-0.657507 17:-1.006834 18:-0.221708 
1.000000 1:-0.487007 2:-0.449845 3:-0.420599 4:-0.440139 5:-0.436108 6:-0.410562 7:-0.393081 8:-0.405707 9:-0.406687 10:-0.132952 11:-0.351590 12:-0.436733 13:-0.349470 14:-0.051770 15:-0.383240 16:-0.110580 17:-0.702875 18:0.377112 
1.000000 1:-0.408102 2:-0.335972 3:-0.247903 4:-0.195975 5:-0.235470 6:-0.239494 7:-0.251860 8:-0.260676 9:-0.259162 10:-1.028533 11:-0.719409 12:-0.321046 13:0.113887 14:0.393035 15:-0.402610 16:0.278898 17:1.411901 18:1.367888 
1.000000 1:-0.338716 2:-0.275752 3:-0.258406 4:-0.240952 5:-0.233405 6:-0.225375 7:-0.202171 8:-0.206945 9:-0.203483 10:0.509163 11:0.016228 12:-0.180569 13:-0.358926 14:-0.698760 15:-0.576936 16:-1.179573 17:-0.942162 18:-0.635438 
1.000000 1:-0.133309 2:-0.156219 3:-0.189523 4:-0.179911 5:-0.159051 6:-0.170213 7:-0.194326 8:-0.197772 9:-0.200628 10:-0.470907 11:0.278956 12:0.934987 13:1.267552 14:2.253130 15:2.464082 16:1.057853 17:0.732844 18:0.104921 
1.000000 1:-0.214964 2:-0.151918 3:-0.199538 4:-0.199455 5:-0.256714 6:-0.283164 7:-0.284737 8:-0.272908 9:-0.236795 10:-0.132952 11:-0.763197 12:-0.982116 13:-1.266728 14:-1.456951 15:-1.254869 16:-1.146426 17:-1.039170 18:-0.945736 
1.000000 1:3.535671 2:3.537759 3:3.541169 4:3.539037 5:3.537987 6:3.540741 7:3.540922 8:3.537201 9:3.533176 10:0.213452 11:0.375289 12:0.530081 13:0.435400 14:0.008885 15:0.023520 16:-0.466911 17:-0.922760 18:-0.624551 
1.000000 1:-0.229561 2:-0.147164 3:-0.149707 4:-0.181518 5:-0.200949 6:-0.262806 7:-0.305658 8:-0.333192 9:-0.335304 10:-0.825760 11:-1.034682 12:-0.998643 13:-0.869565 14:-1.022255 15:-1.322663 16:-1.386742 17:-0.599400 18:0.306343 
1.000000 1:-0.318831 2:-0.307899 3:-0.262559 4:-0.167061 5:-0.161412 6:-0.213883 7:-0.293703 8:-0.384739 9:-0.404307 10:1.675108 11:1.513775 12:1.323365 13:1.144620 14:0.949042 15:0.556182 16:-0.599499 17:-0.166097 18:0.583978 
1.000000 1:-0.281177 2:-0.281186 3:-0.265245 4:-0.251394 5:-0.255239 6:-0.303193 7:-0.337041 8:-0.340181 9:-0.367664 10:-1.003187 11:-0.815742 12:-0.709425 13:-0.897934 14:-1.042473 15:-1.177391 16:-1.428176 17:-1.207317 18:-1.794973 
1.000000 1:-0.348447 2:-0.328274 3:-0.284543 4:-0.276560 5:-0.251403 6:-0.251314 7:-0.305658 8:-0.327950 9:-0.339587 10:-0.217441 11:-0.623075 12:-0.825112 13:-1.115428 14:-1.507497 15:-1.990912 16:-1.569051 17:-0.664072 18:-0.591888 
1.000000 1:-0.275254 2:-0.243605 3:-0.215659 4:-0.222212 5:-0.251698 6:-0.275612 7:-0.249618 8:-0.239271 9:-0.242030 10:1.430091 11:1.408684 12:0.786246 13:0.681263 14:0.706421 15:0.314063 16:-0.027713 17:-0.515326 18:-0.597332 
1.000000 1:-0.205234 2:-0.134033 3:-0.163875 4:-0.205077 5:-0.235175 6:-0.261821 7:-0.264936 8:-0.270724 9:-0.314365 10:-0.141401 11:-0.377863 12:-0.734215 13:-0.831740 14:-0.567340 15:-0.034588 16:0.179456 17:-0.082024 18:-0.744315 
1.000000 1:-0.293870 2:-0.307447 3:-0.313122 4:-0.311899 5:-0.306283 6:-0.300894 7:-0.284737 8:-0.294313 9:-0.290570 10:0.145861 11:0.156350 12:0.133439 13:0.369206 14:1.060243 15:0.720824 16:0.684949 17:1.437770 18:0.562202 
1.000000 1:-0.396044 2:-0.363365 3:-0.327289 4:-0.329033 5:-0.308644 6:-0.306148 7:-0.295945 8:-0.241892 9:-0.240602 10:1.134380 11:1.391169 12:0.951513 13:0.860932 14:0.716530 15:0.740193 16:0.544074 17:0.002050 18:-0.488455 
1.000000 1:-0.272292 2:-0.259905 3:-0.261581 4:-0.284324 5:-0.291531 6:-0.297939 7:-0.285110 8:-0.303923 9:-0.283908 10:-0.352623 11:-0.509227 12:-0.593737 13:-0.869565 14:-0.820070 15:-0.567251 16:-0.301176 17:0.306009 18:-0.978399 
1.000000 1:-0.507527 2:-0.478370 3:-0.451377 4:-0.464234 5:-0.462072 6:-0.445695 7:-0.446132 8:-0.473417 9:-0.496629 10:-0.825760 11:-0.526742 12:-0.345836 13:-0.254908 14:-0.031552 15:0.720824 16:0.403199 17:0.532361 18:0.181135 
1.000000 1:-0.218561 2:-0.197422 3:-0.195629 4:-0.157690 5:-0.172624 6:-0.242449 7:-0.264936 8:-0.242766 9:-0.199676 10:-0.724374 11:-0.299045 12:0.331760 13:0.511050 14:0.969260 15:0.653030 16:0.825824 17:0.383615 18:0.687410 
1.000000 1:-0.328351 2:-0.290015 3:-0.262070 4:-0.282449 5:-0.304808 6:-0.313372 7:-0.298186 8:-0.289945 9:-0.282004 10:0.154310 11:0.191380 12:0.183020 13:0.369206 14:1.141117 15:1.611822 16:1.041280 17:0.034386 18:0.404332 
1.000000 1:-0.293870 2:-0.258547 3:-0.216636 4:-0.181785 5:-0.155510 6:-0.124902 7:-0.134176 8:-0.110404 9:-0.108782 10:-1.231306 11:-1.069712 12:-0.882955 13:-0.841196 14:-0.729087 15:-0.392925 16:-0.326036 17:-0.670539 18:-0.689877 
1.000000 1:-0.243099 2:-0.244511 3:-0.228850 4:-0.176966 5:-0.167018 6:-0.243106 7:-0.287725 8:-0.301739 9:-0.337207 10:-0.530049 11:-0.115135 12:0.340024 13:0.293556 14:0.029104 15:-0.170175 16:0.842397 17:0.364214 18:-0.014843 
1.000000 1:3.535671 2:3.537759 3:3.541169 4:3.539037 5:3.537987 6:3.540741 7:3.540922 8:3.537201 9:3.533176 10:-0.073810 11:1.277321 12:3.223941 13:3.064242 14:2.475533 15:1.418127 16:0.245750 17:-1.394866 18:-1.305029 
1.000000 1:-0.359659 2:-0.321030 3:-0.283077 4:-0.275221 5:-0.287105 6:-0.289731 7:-0.310141 8:-0.358965 9:-0.405259 10:0.838669 11:0.944532 12:0.587925 13:0.397575 14:0.261615 15:-0.305762 16:-0.243169 17:0.267206 18:0.208354 
1.000000 1:-0.214541 2:-0.130411 3:-0.181706 4:-0.206951 5:-0.246092 6:-0.275612 7:-0.320229 8:-0.345860 9:-0.361002 10:0.830220 11:0.130077 12:-0.048355 13:-0.027957 14:0.403144 15:0.885465 16:0.742956 17:-0.256638 18:-0.472124 
1.000000 1:-0.179637 2:-0.209421 3:-0.264513 4:-0.294229 5:-0.310119 6:-0.327162 7:-0.317240 8:-0.290381 9:-0.278197 10:0.534509 11:0.795653 12:0.422657 13:0.633982 14:1.120899 15:1.466551 16:2.441743 17:1.198483 18:0.758180 
1.000000 1:-0.246907 2:-0.212816 3:-0.199293 4:-0.168667 5:-0.213931 6:-0.235225 7:-0.213006 8:-0.186414 9:-0.172075 10:-0.192094 11:-0.088863 12:-0.114462 13:-0.340014 14:-0.567340 15:-1.070859 16:-1.419889 17:-1.401333 18:-0.891298 
1.000000 1:-0.429891 2:-0.380344 3:-0.252299 4:-0.122886 5:-0.155215 6:-0.264776 7:-0.317613 8:-0.353723 9:-0.359574 10:0.999198 11:1.583836 12:1.761324 13:1.986228 14:1.727451 15:0.856410 16:0.560647 17:0.603500 18:0.257348 
1.000000 1:-0.247965 2:-0.255604 3:-0.240330 4:-0.234795 5:-0.229864 6:-0.254598 7:-0.285857 8:-0.260240 9:-0.229657 10:0.162759 11:0.392805 12:0.381341 13:0.511050 14:0.595219 15:0.682084 16:1.356177 17:-0.321310 18:-0.107388 
1.000000 1:-0.443853 2:-0.411585 3:-0.331930 4:-0.265583 5:-0.250813 6:-0.275940 7:-0.291835 8:-0.300866 9:-0.301516 10:0.492265 11:0.725593 12:0.505291 13:0.217906 14:0.069540 15:0.139737 16:-0.574639 17:-1.304325 18:-0.597332 
1.000000 1:-0.197195 2:-0.173425 3:-0.209553 4:-0.234795 5:-0.277663 6:-0.294327 7:-0.323217 8:-0.346297 9:-0.322455 10:-0.487805 11:0.060016 12:0.224337 13:0.104431 14:-0.294391 15:-0.412294 16:0.312045 17:0.616435 18:0.295455 
1.000000 1:-0.377852 2:-0.334387 3:-0.262070 4:-0.208022 5:-0.146364 6:-0.142632 7:-0.253728 8:-0.255871 9:-0.252024 10:0.365532 11:0.786896 12:0.620978 13:0.615069 14:0.413254 15:0.594922 16:-0.533205 17:-0.638203 18:-0.270702 
1.000000 1:-0.246696 2:-0.218929 3:-0.229094 4:-0.234259 5:-0.242257 6:-0.272000 7:-0.319481 8:-0.298245 9:-0.272011 10:-0.521600 11:-0.123893 12:0.083859 13:-0.094151 14:-0.264064 15:-0.702838 16:0.403199 17:-0.082024 18:-0.118275 
0.434747 1:-0.237176 2:-0.224589 3:-0.172180 4:-0.142965 5:-0.123054 6:-0.170541 7:-0.226455 8:-0.277276 9:-0.331021 10:-0.352623 11:2.074261 12:5.165834 13:4.813652 14:3.476345 15:1.999213 16:0.643515 17:0.732844 18:0.447882 
1.000000 1:-0.426929 2:-0.394606 3:-0.346831 4:-0.314844 5:-0.317496 6:-0.333072 7:-0.353479 8:-0.303487 9:-0.263445 10:-0.927147 11:-0.211469 12:-0.271466 13:-0.737177 14:-0.880726 15:-0.770631 16:-0.367470 17:1.082073 18:1.204573 
0.018371 1:-0.347813 2:-0.300429 3:-0.207110 4:-0.070948 5:-0.084697 6:-0.183347 7:-0.248498 8:-0.311787 9:-0.324834 10:0.458469 11:3.239020 12:5.025356 13:4.898758 14:4.194099 15:1.660246 16:0.535787 17:1.463638 18:1.721737 
1.000000 1:-0.438987 2:-0.391437 3:-0.327778 4:-0.279504 5:-0.263501 6:-0.267732 7:-0.274276 8:-0.276839 9:-0.255831 10:-0.386418 11:-0.228984 12:-0.139252 13:-0.340014 14:-0.537012 15:-0.024904 16:1.886530 17:2.660071 18:2.304225 
1.000000 1:-0.319043 2:-0.330086 3:-0.283077 4:-0.280308 5:-0.275008 6:-0.242449 7:-0.223093 8:-0.230098 9:-0.204435 10:-1.079226 11:-0.771954 12:-0.676371 13:-0.481858 14:-0.870616 15:-0.131436 16:0.229177 17:0.978598 18:0.867056 
1.000000 1:-0.191906 2:-0.229569 3:-0.249612 4:-0.271741 5:-0.288285 6:-0.295641 7:-0.236169 8:-0.179861 9:-0.180165 10:-1.121471 11:-0.719409 12:-0.387153 13:-0.283276 14:-0.253954 15:-0.654414 16:-1.320448 17:-1.110309 18:-1.256034 
1.000000 1:-0.300427 2:-0.302240 3:-0.274528 4:-0.233724 5:-0.186491 6:-0.201078 7:-0.216368 8:-0.261113 9:-0.226802 10:-0.901800 11:-0.736924 12:-0.560684 13:-0.150889 14:0.281834 15:1.573083 16:0.577221 17:0.512959 18:-0.216264 
0.580191 1:3.535671 2:3.537759 3:3.541169 4:3.539037 5:3.537987 6:3.540741 7:3.540922 8:3.537201 9:3.533176 10:0.821771 11:2.599716 12:3.670163 13:2.600885 14:2.202584 15:1.098530 16:-0.210022 17:-0.612334 18:-0.248927 
1.000000 1:-0.319255 2:-0.302240 3:-0.257673 4:-0.214983 5:-0.187376 6:-0.183019 7:-0.214126 8:-0.190782 9:-0.183496 10:0.534509 11:0.305229 12:0.133439 13:0.085518 14:0.089759 15:-0.170175 16:-0.292889 17:3.041637 18:0.649304 
1.000000 1:-0.325389 2:-0.325784 3:-0.328755 4:-0.325821 5:-0.309234 6:-0.289074 7:-0.292956 8:-0.298245 9:-0.327214 10:-1.096124 11:-0.745682 12:-0.436733 13:-0.415664 14:-0.415702 15:-0.751261 16:-0.740374 17:0.196066 18:0.926938 
1.000000 1:-0.234215 2:-0.211005 3:-0.202713 4:-0.188478 5:-0.220127 6:-0.234240 7:-0.230191 8:-0.243203 9:-0.191110 10:1.007647 11:0.962048 12:0.992830 13:1.503958 14:1.221991 15:1.427812 16:0.734669 17:0.370681 18:0.045039 
1.000000 1:-0.449141 2:-0.432866 3:-0.416203 4:-0.433178 5:-0.432567 6:-0.416143 7:-0.403541 8:-0.419686 9:-0.442854 10:-0.791965 11:-0.439166 12:-0.337573 13:-0.340014 14:-0.355047 15:0.052574 16:0.560647 17:0.209001 18:-0.700764 
1.000000 1:-0.286254 2:-0.182480 3:-0.169004 4:-0.234259 5:-0.302743 6:-0.320595 7:-0.327327 8:-0.271160 9:-0.237747 10:0.213452 11:-0.062590 12:-0.081408 13:-0.056326 14:0.150414 15:0.265639 16:0.361765 17:0.267206 18:0.834394 
1.000000 1:-0.255792 2:-0.201950 3:-0.195874 4:-0.200526 5:-0.187376 6:-0.217166 7:-0.261947 8:-0.320960 9:-0.314365 10:1.218869 11:0.935775 12:0.579662 13:0.265187 14:-0.183190 15:-0.247653 16:-0.036000 17:-0.082024 18:-0.493899 
1.000000 1:-0.253042 2:-0.302013 3:-0.332419 4:-0.335726 5:-0.326347 6:-0.311073 7:-0.276517 8:-0.237087 9:-0.224422 10:1.134380 11:1.715200 12:0.769719 13:0.577244 14:0.524455 15:0.711139 16:1.306456 17:1.023869 18:1.422326 
1.000000 1:-0.177522 2:-0.174104 3:-0.172180 4:-0.212038 5:-0.222488 6:-0.214540 7:-0.219357 8:-0.193840 9:-0.177309 10:-0.470907 11:-0.255257 12:-0.345836 13:-0.557508 14:-0.638105 15:-0.935272 16:-0.790095 17:-1.724694 18:-1.457456 
1.000000 1:-0.342736 2:-0.345706 3:-0.290405 4:-0.219534 5:-0.209505 6:-0.251971 7:-0.263068 8:-0.264171 9:-0.237747 10:-0.969391 11:-0.877045 12:-0.750741 13:-0.992496 14:-0.941381 15:-0.470403 16:-0.210022 17:0.183132 18:-1.196152 
1.000000 1:-0.214330 2:-0.202176 3:-0.214438 4:-0.184463 5:-0.208620 6:-0.242777 7:-0.267925 8:-0.277276 9:-0.320551 10:-0.800413 11:-0.693136 12:-0.593737 13:-0.529139 14:-0.344937 15:-0.392925 16:0.046868 17:-0.230769 18:0.388000 
1.000000 1:3.535671 2:3.537759 3:3.541169 4:3.539037 5:3.537987 6:3.540741 7:3.540922 8:3.537201 9:3.533176 10:-0.065361 11:1.242290 12:1.720007 13:1.475589 14:0.393035 15:-1.003065 16:-1.270727 17:-0.463589 18:-0.678989 
1.000000 1:-0.361351 2:-0.347291 3:-0.298954 4:-0.198384 5:-0.072895 6:-0.093709 7:-0.238784 8:-0.270724 9:-0.342918 10:-0.563845 11:-0.535500 12:-0.453260 13:-0.803371 14:-1.204220 15:-1.390456 16:-1.883948 17:-1.524210 18:-1.735091 
1.000000 1:-0.401967 2:-0.330086 3:-0.243506 4:-0.129044 5:-0.083222 6:-0.168900 7:-0.243267 8:-0.289508 9:-0.304847 10:1.244215 11:1.189745 12:1.248995 13:1.295920 14:1.191663 15:0.323748 16:-0.632646 17:-1.207317 18:-1.675209 
1.000000 1:-0.181541 2:-0.212816 3:-0.240330 4:-0.213912 5:-0.166132 6:-0.191556 7:-0.213006 8:-0.187724 9:-0.122107 10:0.196554 11:-0.018802 12:0.009489 13:0.416487 14:0.807513 15:0.478704 16:1.115861 17:1.437770 18:1.264455 
1.000000 1:-0.371082 2:-0.343216 3:-0.273795 4:-0.204542 5:-0.103286 6:-0.184004 7:-0.215621 8:-0.228787 9:-0.217284 10:0.340185 11:0.270198 12:0.340024 13:-0.027957 14:-0.466248 15:-0.654414 16:-0.831529 17:-1.297858 18:-1.637102 
1.000000 1:-0.311639 2:-0.267602 3:-0.188790 4:-0.134666 5:-0.163772 6:-0.231942 7:-0.248124 8:-0.272471 9:-0.233464 10:0.973851 11:3.002565 12:4.380813 13:4.388120 14:3.304488 15:2.037952 16:1.720794 17:1.890474 18:3.039141 
1.000000 1:-0.225965 2:-0.231380 3:-0.255231 4:-0.258354 5:-0.250518 6:-0.270358 7:-0.289967 8:-0.306108 9:-0.293426 10:1.514579 11:1.145957 12:0.968040 13:0.983864 14:0.736748 15:0.904834 16:-0.549779 17:-1.278456 18:-1.060057 
1.000000 1:3.535671 2:3.537759 3:3.541169 4:3.539037 5:3.537987 6:3.540741 7:3.540922 8:3.537201 9:3.533176 10:-0.538498 11:-0.894561 12:-0.734215 13:-0.472402 14:0.120086 15:0.701454 16:0.171170 17:-0.677006 18:-0.956624 
1.000000 1:-0.321582 2:-0.337783 3:-0.274772 4:-0.233991 5:-0.221898 6:-0.216181 7:-0.215247 8:-0.234029 9:-0.264397 10:-0.192094 11:-0.062590 12:0.141703 13:0.671807 14:1.151226 15:1.292225 16:0.660089 17:-0.043220 18:-0.423129 
1.000000 1:-0.331947 2:-0.340952 3:-0.326068 4:-0.310025 5:-0.297432 6:-0.287104 7:-0.263068 8:-0.205198 9:-0.186827 10:-1.011635 11:-0.955864 12:-0.833375 13:-0.661527 14:-0.304500 15:-0.179860 16:-0.259742 17:1.140278 18:2.761507 
0.458440 1:-0.239503 2:-0.193800 3:-0.220300 4:-0.222747 5:-0.250813 6:-0.287761 7:-0.336293 8:-0.390418 9:-0.393362 10:0.813322 11:1.338624 12:0.579662 13:-0.311645 14:-1.264876 15:-1.613206 16:-1.842514 17:-1.026235 18:-0.297921 
1.000000 1:-0.249446 2:-0.224136 3:-0.213217 4:-0.225692 5:-0.293006 6:-0.332744 7:-0.346007 8:-0.376002 9:-0.376230 10:-1.383386 11:-1.060955 12:-0.924272 13:-1.020865 14:-1.184002 15:-1.196761 16:-1.643632 17:-1.362530 18:-0.825972 
1.000000 1:-0.365582 2:-0.330086 3:-0.246193 4:-0.143233 5:-0.103581 6:-0.200421 7:-0.287352 8:-0.372507 9:-0.396217 10:-0.107605 11:0.305229 12:1.199415 13:2.184810 14:2.141929 15:1.146953 16:-0.831529 17:-1.019768 18:-1.691540 
1.000000 1:-0.307408 2:-0.321483 3:-0.330221 4:-0.320198 5:-0.303628 6:-0.296298 7:-0.312383 8:-0.317902 9:-0.291998 10:2.410160 11:2.153079 12:1.670427 13:1.333745 14:0.342489 15:-0.567251 16:-0.019426 17:-0.379515 18:-1.070944 
1.000000 1:-0.214118 2:-0.159389 3:-0.195385 4:-0.240149 5:-0.319266 6:-0.318625 7:-0.320229 8:-0.332755 9:-0.347677 10:-0.208992 11:-0.404136 12:-0.659844 13:-0.935759 14:-1.315422 15:-1.429195 16:-1.386742 17:-1.440137 18:-1.277809 
1.000000 1:-0.394352 2:-0.346159 3:-0.258650 4:-0.139485 5:-0.115088 6:-0.212570 7:-0.324712 8:-0.365081 9:-0.348153 10:-0.977840 11:-0.456681 12:-0.444997 13:-0.888477 14:-0.951490 15:-0.722207 16:-0.475198 17:-1.194383 18:-1.207040 
1.000000 1:3.535671 2:3.537759 3:3.541169 4:3.539037 5:3.537987 6:3.540741 7:3.540922 8:3.537201 9:3.533176 10:-0.394867 11:0.489138 12:0.910196 13:0.492138 14:-0.082098 15:0.100998 16:0.535787 17:0.849254 18:-0.036618 
1.000000 1:-0.167791 2:-0.193121 3:-0.238376 4:-0.214448 5:-0.210686 6:-0.272328 7:-0.282869 8:-0.299992 9:-0.277721 10:-0.445561 11:-0.719409 12:-0.742478 13:-1.039778 14:-1.386186 15:-1.458249 16:-1.560764 17:-1.187916 18:-0.989287 
1.000000 1:-0.196560 2:-0.197875 3:-0.252299 4:-0.282182 5:-0.323397 6:-0.345549 7:-0.334425 8:-0.359402 9:-0.372899 10:0.399327 11:0.016228 12:-0.279729 13:-0.235995 14:-0.082098 15:-0.199230 16:-0.334323 17:0.131394 18:1.084809 
1.000000 1:-0.235907 2:-0.254019 3:-0.190255 4:-0.164383 5:-0.176459 6:-0.194182 7:-0.199182 8:-0.168503 9:-0.215856 10:-1.476324 11:-0.964621 12:-0.436733 13:-0.084695 14:0.120086 15:0.323748 16:1.356177 17:0.448287 18:1.101141 
1.000000 1:-0.213272 2:-0.174330 3:-0.235689 4:-0.250323 5:-0.282679 6:-0.308446 7:-0.303417 8:-0.330134 9:-0.328165 10:-0.868004 11:-0.824500 12:-0.577211 13:-0.585877 14:-0.597668 15:-0.857794 16:-1.262440 17:-1.453071 18:-0.526562 
1.000000 1:-0.502450 2:-0.472937 3:-0.442583 4:-0.454596 5:-0.452631 6:-0.435844 7:-0.428946 8:-0.432791 9:-0.417632 10:0.052923 11:0.261441 12:0.158230 13:-0.113064 14:-0.526903 15:-0.828740 16:-0.582926 17:-0.735211 18:-0.118275 
1.000000 1:-0.240773 2:-0.181348 3:-0.235445 4:-0.256213 5:-0.310414 6:-0.323222 7:-0.315745 8:-0.308729 9:-0.308654 10:2.536894 11:1.277321 12:0.662295 13:0.463769 14:0.352598 15:0.691769 16:0.038581 17:0.280140 18:0.638416 
1.000000 1:-0.235061 2:-0.209421 3:-0.139936 4:-0.148855 5:-0.193572 6:-0.256239 7:-0.301175 8:-0.299992 9:-0.292950 10:-1.349591 11:-0.903318 12:-0.932536 13:-1.323466 14:-1.810773 15:-2.126499 16:-2.049683 17:-0.638203 18:0.600309 
1.000000 1:-0.250715 2:-0.234776 3:-0.255231 4:-0.237472 5:-0.186196 6:-0.228987 7:-0.295945 8:-0.296934 9:-0.328165 10:-0.056912 11:-0.132651 12:0.290444 13:0.643438 14:0.706421 15:0.749878 16:0.278898 17:0.584099 18:0.594865 
1.000000 1:-0.248811 2:-0.253566 3:-0.241552 4:-0.232117 5:-0.185311 6:-0.058576 7:0.008539 8:-0.154961 9:-0.293902 10:-1.324244 11:-1.052197 12:-1.023433 13:-1.172166 14:-1.497388 15:-1.787532 16:-1.842514 17:-2.009251 18:-1.615326 
1.000000 1:-0.186618 2:-0.131543 3:-0.198561 4:-0.215519 5:-0.278253 6:-0.321908 7:-0.336667 8:-0.392602 9:-0.405735 10:0.340185 11:0.471623 12:0.389604 13:0.435400 14:0.200960 15:0.459335 16:1.041280 17:1.036803 18:0.295455 
1.000000 1:-0.341890 2:-0.311295 3:-0.251322 4:-0.202936 5:-0.222488 6:-0.266090 7:-0.313504 8:-0.323144 9:-0.296757 10:-0.301930 11:-0.360348 12:-0.230149 13:-0.368383 14:-0.476357 15:-0.925587 16:-0.516632 17:-0.457121 18:0.442438 
1.000000 1:3.535671 2:3.537759 3:3.541169 4:3.539037 5:3.537987 6:3.540741 7:3.540922 8:3.537201 9:3.533176 10:0.103617 11:-0.360348 12:-0.478050 13:-0.406208 14:-0.253954 15:0.410911 16:1.364464 17:1.062672 18:2.418546 
1.000000 1:-0.178156 2:-0.187008 3:-0.224209 4:-0.217928 5:-0.210686 6:-0.222420 7:-0.184612 8:-0.209129 9:-0.200628 10:0.762629 11:0.559199 12:0.224337 13:-0.009045 14:0.362708 15:0.798302 16:0.295471 17:0.545295 18:-0.118275 
1.000000 1:-0.320524 2:-0.235682 3:-0.164119 4:-0.123689 5:-0.106826 6:-0.182690 7:-0.232806 8:-0.254997 9:-0.254403 10:0.019128 11:-0.088863 12:-0.180569 13:-0.633158 14:-1.315422 15:-1.787532 16:-1.933668 17:-1.394866 18:-1.109051 
0.852939 1:-0.266581 2:-0.232739 3:-0.202225 4:-0.178573 5:-0.183541 6:-0.166601 7:-0.133055 8:-0.114335 9:-0.040730 10:-0.563845 11:0.436592 12:0.852353 13:0.974407 14:1.292755 15:1.272855 16:0.452920 17:0.998000 18:2.941153 
1.000000 1:-0.257273 2:-0.253340 3:-0.208331 4:-0.147517 5:-0.072305 6:-0.124573 7:-0.181997 8:-0.215682 9:-0.210146 10:-0.800413 11:-0.754439 12:-0.378890 13:-0.330558 14:-0.183190 15:-0.083012 16:-0.500058 17:-0.457121 18:0.317230 
1.000000 1:-0.313966 2:-0.245643 3:-0.286008 4:-0.298781 5:-0.295957 6:-0.294984 7:-0.292209 8:-0.305671 9:-0.252024 10:-1.079226 11:-1.253622 12:-1.246544 13:-1.408572 14:-1.830992 15:-2.068390 16:-1.660205 17:-0.476523 18:0.491433 
1.000000 1:-0.150021 2:-0.202855 3:-0.268421 4:-0.263173 5:-0.264091 6:-0.271672 7:-0.273529 8:-0.250192 9:-0.284384 10:-1.197511 11:-0.929591 12:-0.701161 13:-0.680440 14:-0.678541 15:-0.751261 16:-1.842514 17:-0.534728 18:-0.221708 
1.000000 1:3.535671 2:3.537759 3:3.541169 4:3.539037 5:3.537987 6:3.540741 7:3.540922 8:3.537201 9:3.533176 10:1.717352 11:2.012958 12:1.959645 13:1.144620 14:0.544673 15:0.217216 16:0.220890 17:0.435353 18:0.055927 
1.000000 1:3.535671 2:3.537759 3:3.541169 4:3.539037 5:3.537987 6:3.540741 7:3.540922 8:3.537201 9:3.533176 10:-0.555396 11:-0.395378 12:-0.444997 13:-0.614246 14:-0.698760 15:-0.693153 16:-0.674080 17:-0.903359 18:-0.994731 
-1.000000 1:-0.208618 2:-0.192668 3:-0.256696 4:-0.275221 5:-0.299497 6:-0.311401 7:-0.311262 8:-0.281645 9:-0.271059 10:-0.682129 11:-0.780712 12:-0.668108 13:-0.396752 14:-0.132644 15:0.023520 16:-0.558066 17:-1.174981 18:-0.831416 
-1.000000 1:-0.231042 2:-0.267602 3:-0.318007 4:-0.328498 5:-0.322216 6:-0.321908 7:-0.328448 8:-0.316592 9:-0.316268 10:0.112065 11:-0.115135 12:-0.263202 13:-0.340014 14:-0.385374 15:0.052574 16:-0.002852 17:0.862188 18:0.513208 
-1.000000 1:-0.421006 2:-0.390531 3:-0.355136 4:-0.357144 5:-0.349066 6:-0.333729 7:-0.337414 8:-0.327950 9:-0.346725 10:-1.113022 11:-0.894561 12:-0.725951 13:-0.566964 14:-0.375265 15:-0.237969 16:-0.698941 17:-0.825752 18:-0.107388 
-1.000000 1:-0.487642 2:-0.457316 3:-0.418157 4:-0.423540 5:-0.424305 6:-0.418442 7:-0.418485 8:-0.454196 9:-0.446661 10:-0.868004 11:-0.421651 12:-0.106198 13:-0.046870 14:0.393035 15:0.914519 16:1.571633 17:1.146745 18:0.170247 
-1.000000 1:-0.222791 2:-0.304051 3:-0.320938 4:-0.318860 5:-0.318381 6:-0.327819 7:-0.319481 8:-0.332318 9:-0.356243 10:0.306390 11:-0.062590 12:-0.213622 13:-0.169801 14:-0.446029 15:-0.596305 16:0.428059 17:0.700508 18:-0.096500 
-1.000000 1:-0.200791 2:-0.226400 3:-0.229582 4:-0.260764 5:-0.267041 6:-0.229315 7:-0.208522 8:-0.155398 9:-0.090222 10:-0.268134 11:-0.614318 12:-0.841639 13:-1.039778 14:-1.325531 15:-1.438880 16:-1.453036 17:-1.362530 18:-0.787865 
-1.000000 1:-0.393929 2:-0.375137 3:-0.342922 4:-0.346168 5:-0.350837 6:-0.330445 7:-0.327327 8:-0.337997 9:-0.354815 10:0.720385 11:0.489138 12:0.612715 13:0.596157 14:0.949042 15:0.827356 16:-0.284602 17:-1.045637 18:-0.678989 
-1.000000 1:-0.284350 2:-0.292958 3:-0.284298 4:-0.273079 5:-0.245797 6:-0.211256 7:-0.193205 8:-0.178551 9:-0.161605 10:-1.036982 11:-1.008409 12:-0.676371 13:-0.396752 14:-0.274173 15:-0.141121 16:-0.334323 17:-0.282507 18:-0.352360 
-1.000000 1:-0.336389 2:-0.332123 3:-0.298954 4:-0.299851 5:-0.293301 6:-0.293342 7:-0.243641 8:-0.167630 9:-0.167316 10:0.568305 11:0.270198 12:0.430921 13:0.917670 14:0.989479 15:1.505290 16:1.331316 17:2.627735 18:1.825169 
-1.000000 1:-0.141559 2:-0.191310 3:-0.222499 4:-0.210164 5:-0.191802 6:-0.193854 7:-0.199556 8:-0.179861 9:-0.194917 10:1.582170 11:1.636382 12:1.976172 13:2.014597 14:2.202584 15:0.991997 16:0.544074 17:0.978598 18:0.649304 
-1.000000 1:-0.198041 2:-0.273488 3:-0.302130 4:-0.308686 5:-0.298022 6:-0.268717 7:-0.199182 8:-0.151903 9:-0.131624 10:0.627447 11:0.095047 12:-0.254939 13:-0.198170 14:-0.193299 15:-0.509142 16:-0.143727 17:0.338345 18:0.524096 
-0.104710 1:-0.186195 2:-0.239530 3:-0.270131 4:-0.282182 5:-0.284449 6:-0.280209 7:-0.266057 8:-0.320086 9:-0.358622 10:0.221901 11:-0.018802 12:-0.180569 13:-0.075238 14:0.393035 15:0.633661 16:0.726383 17:0.060255 18:-0.689877 
-1.000000 1:-0.209041 2:-0.227305 3:-0.258406 4:-0.264780 5:-0.260255 6:-0.245732 7:-0.260453 8:-0.233592 9:-0.279149 10:-0.251236 11:-0.220226 12:-0.263202 13:-0.084695 14:0.140305 15:-0.305762 16:0.196030 17:0.390082 18:1.280787 
-1.000000 1:-0.149175 2:-0.194932 3:-0.242529 4:-0.263977 5:-0.297137 6:-0.317312 7:-0.322844 8:-0.347607 9:-0.343870 10:-0.707476 11:-0.745682 12:-0.957326 13:-1.257272 14:-1.477169 15:-1.225815 16:-0.872963 17:-0.457121 18:-0.804197 
-1.000000 1:-0.178791 2:-0.167312 3:-0.160943 4:-0.186069 5:-0.203309 6:-0.214211 7:-0.224214 8:-0.185540 9:-0.167792 10:0.357083 11:-0.062590 12:-0.238412 13:-0.302189 14:-0.435920 15:-0.586620 16:-0.897823 17:-1.220252 18:-0.809641 
-1.000000 1:-0.348870 2:-0.370383 3:-0.377853 4:-0.388200 5:-0.380932 6:-0.366892 7:-0.354600 8:-0.327076 9:-0.330069 10:2.807258 11:2.906232 12:2.009225 13:1.314833 14:0.524455 15:-0.083012 16:-0.864676 17:-0.980965 18:-0.532006 
-1.000000 1:-0.268696 2:-0.242247 3:-0.267200 4:-0.286733 5:-0.340510 6:-0.351131 7:-0.342645 8:-0.350665 9:-0.311033 10:-1.603057 11:-1.192318 12:-0.825112 13:-0.444033 14:-0.557231 15:-0.576936 16:-1.221007 17:-1.213784 18:-1.441124 
-0.422159 1:-0.374678 2:-0.390305 3:-0.344144 4:-0.329837 5:-0.310709 6:-0.284477 7:-0.255222 8:-0.195587 9:-0.212049 10:1.523028 11:1.373654 12:0.943250 13:0.974407 14:1.333192 15:1.602137 16:0.966699 17:0.985065 18:0.197466 
-1.000000 1:-0.489123 2:-0.455278 3:-0.424752 4:-0.432642 5:-0.426076 6:-0.412203 7:-0.406157 8:-0.456817 9:-0.485684 10:0.238799 11:0.375289 12:0.579662 13:1.087882 14:1.292755 15:1.902365 16:1.546772 17:0.823385 18:1.101141 
-1.000000 1:-0.272504 2:-0.322841 3:-0.316297 4:-0.306277 5:-0.260550 6:-0.183019 7:-0.131561 8:-0.044004 9:-0.070235 10:0.500714 11:0.427835 12:0.149966 13:0.397575 14:0.554783 15:-0.073328 16:-0.433764 17:-0.036753 18:-0.227152 
-1.000000 1:-0.181752 2:-0.252887 3:-0.306282 4:-0.329569 5:-0.350542 6:-0.369190 7:-0.371785 8:-0.394786 9:-0.400500 10:0.078270 11:-0.106378 12:-0.378890 13:-0.481858 14:-0.668432 15:-0.567251 16:-0.102294 17:-0.243704 18:0.594865 
-1.000000 1:-0.211791 2:-0.218702 3:-0.236910 4:-0.265047 5:-0.286810 6:-0.277254 7:-0.287352 8:-0.273345 9:-0.212525 10:-0.935595 11:-0.623075 12:-0.502840 13:-0.415664 14:-0.173081 15:-0.141121 16:0.916978 17:0.803984 18:1.825169 
-1.000000 1:-0.161021 2:-0.189725 3:-0.217125 4:-0.240149 5:-0.280319 6:-0.308118 7:-0.346381 8:-0.382118 9:-0.400024 10:-0.715925 11:-0.877045 12:-0.800322 13:-0.822284 14:-0.991927 15:-1.090228 16:-0.732088 17:-0.657605 18:-0.559225 
-1.000000 1:-0.160598 2:-0.217344 3:-0.274772 4:-0.292087 5:-0.311299 6:-0.321252 7:-0.322844 8:-0.322271 9:-0.301992 10:1.658210 11:2.310716 12:1.381209 13:1.087882 14:0.736748 15:1.514975 16:1.414184 17:0.836320 18:-0.003955 
-0.859398 1:-0.221522 2:-0.268734 3:-0.316542 4:-0.331443 5:-0.345231 6:-0.345878 7:-0.343018 8:-0.350228 9:-0.374326 10:1.041442 11:0.427835 12:0.133439 13:-0.084695 14:-0.213518 15:0.042890 16:1.430758 17:1.838736 18:0.807174 
-1.000000 1:-0.237599 2:-0.255151 3:-0.260116 4:-0.261835 5:-0.272057 6:-0.270030 7:-0.280253 8:-0.278150 9:-0.243458 10:0.196554 11:0.287713 12:0.158230 13:0.435400 14:0.544673 15:-0.015219 16:-0.466911 17:-0.353646 18:-0.308809 
-1.000000 1:-0.224695 2:-0.268282 3:-0.325579 4:-0.340278 5:-0.343165 6:-0.320595 7:-0.303790 8:-0.267666 9:-0.237747 10:-0.361072 11:-0.018802 12:-0.321046 13:-0.576421 14:-0.890835 15:-1.371087 16:-1.328735 17:-1.356063 18:-1.277809 
-1.000000 1:-0.261292 2:-0.256283 3:-0.295046 4:-0.314844 5:-0.309529 6:-0.273970 7:-0.254475 8:-0.272471 9:-0.281053 10:1.261113 11:0.751866 12:0.397867 13:0.416487 14:0.514346 15:0.623976 16:0.966699 17:1.373098 18:2.217124 
-1.000000 1:-0.174772 2:-0.201044 3:-0.243261 4:-0.255677 5:-0.238421 6:-0.224390 7:-0.251113 8:-0.273345 9:-0.248216 10:-0.825760 11:-0.693136 12:-0.651581 13:-0.727721 14:-1.032364 15:-1.671314 16:-2.074543 17:-1.621218 18:-0.597332 
-1.000000 1:-0.162925 2:-0.142183 3:-0.150928 4:-0.146981 5:-0.139872 6:-0.157408 7:-0.173778 8:-0.202577 9:-0.156370 10:-1.459426 11:-0.290287 12:0.422657 13:0.652894 14:1.353410 15:1.369703 16:-0.616073 17:-1.226719 18:-0.548337 
-1.000000 1:-0.265311 2:-0.145353 3:-0.190255 4:-0.293426 5:-0.318676 6:-0.325192 7:-0.307526 8:-0.310913 9:-0.312461 10:-0.631436 11:-0.710651 12:-0.296256 13:0.236818 14:0.928823 15:0.807986 16:0.585508 17:1.327827 18:0.594865 
-0.047231 1:3.535671 2:3.537759 3:3.541169 4:3.539037 5:3.537987 6:3.540741 7:3.540922 8:3.537201 9:3.533176 10:-0.842658 11:-0.299045 12:0.306970 13:1.031145 14:1.737561 15:3.229179 16:2.590904 17:1.153213 18:0.899719 
-1.000000 1:-0.336601 2:-0.347065 3:-0.342922 4:-0.358751 5:-0.357328 6:-0.350474 7:-0.348249 8:-0.357218 9:-0.350532 10:-1.053880 11:-0.912076 12:-0.676371 13:-0.585877 14:-0.506685 15:-0.412294 16:-0.541492 17:-0.722277 18:-0.091056 
-1.000000 1:-0.143463 2:-0.190857 3:-0.218102 4:-0.209093 5:-0.229274 6:-0.242777 7:-0.235795 8:-0.176803 9:-0.209670 10:0.331736 11:-0.027560 12:-0.172305 13:0.142256 14:0.291943 15:0.023520 16:0.560647 17:-0.812818 18:-1.217927 
-1.000000 1:-0.201426 2:-0.232739 3:-0.231537 4:-0.216322 5:-0.203604 6:-0.208301 7:-0.187227 8:-0.203450 9:-0.173502 10:0.010679 11:-0.036317 12:-0.197095 13:-0.179257 14:0.059431 15:0.730508 16:0.726383 17:0.157263 18:-0.559225 
-1.000000 1:-0.312908 2:-0.346612 3:-0.338770 4:-0.328230 5:-0.309529 6:-0.272000 7:-0.223840 8:-0.155398 9:-0.154467 10:0.466918 11:0.454108 12:0.149966 13:0.009868 14:-0.446029 15:-0.460718 16:-0.118867 17:-0.263105 18:0.028708 
-1.000000 1:-0.310370 2:-0.290241 3:-0.289672 4:-0.308419 5:-0.305693 6:-0.285462 7:-0.256343 8:-0.261550 9:-0.225850 10:-0.293481 11:0.051259 12:0.306970 13:1.068970 14:1.555595 15:1.544029 16:1.265022 17:0.829852 18:0.867056 
-1.000000 1:-0.279908 2:-0.287751 3:-0.317030 4:-0.318324 5:-0.312775 6:-0.288089 7:-0.277265 8:-0.316592 9:-0.265348 10:0.737282 11:0.524168 12:0.224337 13:0.217906 14:0.079650 15:-0.034588 16:0.229177 17:0.027919 18:0.045039 
-1.000000 1:-0.228080 2:-0.272357 3:-0.307992 4:-0.335994 5:-0.339330 6:-0.337012 7:-0.324338 8:-0.354160 9:-0.342442 10:-0.031565 11:-0.071348 12:-0.403680 13:-0.727721 14:-0.870616 15:-1.245185 16:-1.038698 17:-0.424785 18:0.382556 
-1.000000 1:-0.272292 2:-0.242247 3:-0.224209 4:-0.225424 5:-0.240781 6:-0.258538 7:-0.259332 8:-0.261987 9:-0.211573 10:1.692006 11:1.145957 12:0.612715 13:0.652894 14:0.908605 15:0.798302 16:0.527500 17:1.056205 18:0.556759 
-1.000000 1:-0.203753 2:-0.202855 3:-0.223476 4:-0.234259 5:-0.227799 6:-0.248031 7:-0.264936 8:-0.205635 9:-0.221567 10:-0.808862 11:-0.623075 12:-0.354100 13:-0.075238 14:0.221179 15:-0.276708 16:-0.143727 17:0.532361 18:1.629192 
-1.000000 1:-0.262561 2:-0.246548 3:-0.238865 4:-0.227566 5:-0.233110 6:-0.241792 7:-0.260079 8:-0.289508 9:-0.276294 10:1.092135 11:0.673047 12:0.282180 13:0.085518 14:-0.809961 15:-1.245185 16:-1.080132 17:-1.414268 18:-1.212484 
-1.000000 1:-0.237599 2:-0.252208 3:-0.270619 4:-0.304403 5:-0.349361 6:-0.361638 7:-0.363940 8:-0.376002 9:-0.369568 10:0.466918 11:-0.018802 12:-0.263202 13:-0.131976 14:-0.284282 15:-0.286392 16:-1.254154 17:-1.304325 18:-0.951180 
-1.000000 1:-0.221099 2:-0.277111 3:-0.298954 4:-0.310828 5:-0.302153 6:-0.264776 7:-0.229444 8:-0.131372 9:-0.154467 10:0.568305 11:0.077531 12:-0.197095 13:-0.198170 14:-0.061879 15:-0.344501 16:0.477780 17:1.010934 18:1.727180 
-1.000000 1:-0.395621 2:-0.355215 3:-0.326068 4:-0.343490 5:-0.344936 6:-0.322894 7:-0.310889 8:-0.316155 9:-0.318648 10:-0.454009 11:-0.535500 12:-0.684635 13:-0.869565 14:-1.042473 15:-1.274239 16:-0.640933 17:-0.683474 18:0.295455 
-1.000000 1:-0.506046 2:-0.474521 3:-0.449423 4:-0.462360 5:-0.459712 6:-0.446023 7:-0.443516 8:-0.467301 9:-0.492346 10:-0.217441 11:-0.027560 12:0.306970 13:0.558332 14:1.424175 15:1.611822 16:0.278898 17:0.144329 18:-0.156382 
-1.000000 1:-0.435391 2:-0.419056 3:-0.393486 4:-0.403193 5:-0.391259 6:-0.368205 7:-0.344886 8:-0.345860 9:-0.322931 10:-0.496254 11:-0.658106 12:-0.759005 13:-1.162709 14:-1.527715 15:-1.855325 16:-1.303874 17:-0.793416 18:-0.488455 
-1.000000 1:-0.356063 2:-0.386003 3:-0.369548 4:-0.379365 5:-0.375031 6:-0.333729 7:-0.302296 8:-0.191219 9:-0.327690 10:0.238799 11:0.270198 12:-0.114462 13:-0.217082 14:-0.516794 15:-0.838424 16:-1.055271 17:-1.446604 18:-1.087276 
-0.726482 1:-0.382717 2:-0.356799 3:-0.294313 4:-0.272008 5:-0.255829 6:-0.201734 7:-0.145010 8:-0.039199 9:-0.011225 10:-1.248204 11:-1.166046 12:-0.982116 13:-0.765546 14:-0.557231 15:-0.237969 16:-0.640933 17:-0.385982 18:-1.185265 
-1.000000 1:-0.461622 2:-0.429696 3:-0.397638 4:-0.402657 5:-0.395095 6:-0.369847 7:-0.359457 8:-0.334939 9:-0.324834 10:-0.639885 11:-0.491712 12:-0.329309 13:-0.179257 14:0.069540 15:0.100998 16:0.916978 17:1.392499 18:2.467540 
-1.000000 1:-0.275465 2:-0.250170 3:-0.312389 4:-0.373475 5:-0.384178 6:-0.376085 7:-0.367302 8:-0.374691 9:-0.364809 10:0.948504 11:1.172230 12:0.934987 13:0.775826 14:1.040025 15:1.224431 16:1.911390 17:1.851671 18:2.467540 
-1.000000 1:-0.260657 2:-0.288204 3:-0.303840 4:-0.311899 5:-0.344936 6:-0.346863 7:-0.335546 8:-0.351976 9:-0.352911 10:-0.699027 11:-0.719409 12:-0.717688 13:-0.680440 14:-0.446029 15:-0.635044 16:-0.765235 17:-0.321310 18:0.442438 
-1.000000 1:-0.333639 2:-0.326011 3:-0.335594 4:-0.348845 5:-0.333133 6:-0.303193 7:-0.292582 8:-0.257618 9:-0.211573 10:-1.425630 11:-0.701894 12:-0.717688 13:-0.879021 14:-1.032364 15:-1.458249 16:-1.411602 17:-0.547662 18:0.306343 
-1.000000 1:-0.299370 2:-0.276432 3:-0.282588 4:-0.258622 5:-0.243437 6:-0.233255 7:-0.241399 8:-0.238834 9:-0.228229 10:0.500714 11:0.646775 12:0.480501 13:0.615069 14:0.858059 15:1.369703 16:0.270611 17:1.638253 18:0.600309 
-0.772373 1:-0.367909 2:-0.276205 3:-0.178775 4:-0.163580 5:-0.097680 6:-0.193854 7:-0.256717 8:-0.335376 9:-0.345773 10:4.015447 11:6.759569 12:7.363891 13:8.076064 14:7.691887 15:4.856220 16:0.693236 17:-0.340712 18:-1.207040 
-0.893002 1:-0.272927 2:-0.282997 3:-0.296023 4:-0.318057 5:-0.322511 6:-0.306476 7:-0.280627 8:-0.252376 9:-0.254403 10:0.441572 11:0.243926 12:0.067332 13:0.066606 14:0.443581 15:1.185692 16:0.626942 17:-0.470056 18:-0.107388 
-1.000000 1:3.535671 2:3.537759 3:3.541169 4:3.539037 5:3.537987 6:3.540741 7:3.540922 8:3.537201 9:3.533176 10:0.145861 11:-0.132651 12:-0.345836 13:-0.548052 14:-0.648214 15:-0.363871 16:-0.152014 17:-0.476523 18:-0.308809 
-1.000000 1:-0.231253 2:-0.274620 3:-0.299199 4:-0.338404 5:-0.350542 6:-0.337012 7:-0.300428 8:-0.251066 9:-0.243458 10:-1.256653 11:-1.087227 12:-0.998643 13:-1.077603 14:-0.830180 15:-0.499457 16:0.403199 17:-0.373048 18:-1.332248 
-1.000000 1:-0.401121 2:-0.400945 3:-0.392020 4:-0.396232 5:-0.374146 6:-0.340952 7:-0.307153 8:-0.271597 9:-0.315316 10:-1.831177 11:-1.157288 12:-0.635054 13:-0.254908 14:-0.233736 15:-0.877163 16:-1.353595 17:-1.808767 18:-1.522781 
-0.627274 1:-0.227234 2:-0.227305 3:-0.253521 4:-0.265315 5:-0.257894 6:-0.229972 7:-0.232433 8:-0.213498 9:-0.260114 10:1.539926 11:1.216018 12:1.323365 13:1.853840 14:2.788919 15:3.045168 16:2.624052 17:3.112776 18:1.199130 
-1.000000 1:-0.325812 2:-0.301561 3:-0.279902 4:-0.300387 5:-0.304808 6:-0.280209 7:-0.241399 8:-0.214808 9:-0.195393 10:2.731218 11:2.967535 12:2.058805 13:1.248639 14:0.665984 15:0.052574 16:-0.566352 17:-0.547662 18:-0.243483 
-1.000000 1:-0.317774 2:-0.362459 3:-0.335350 4:-0.349113 5:-0.357623 6:-0.359340 7:-0.356094 8:-0.308729 9:-0.294377 10:-0.411765 11:-0.553015 12:-0.701161 13:-0.916846 14:-0.951490 15:-0.780316 16:-0.997264 17:-1.155580 18:-1.375798 
-1.000000 1:-0.193599 2:-0.241115 3:-0.267200 4:-0.266118 5:-0.241076 6:-0.224062 7:-0.170042 8:-0.104725 9:-0.163985 10:1.514579 11:1.890352 12:1.720007 13:2.128072 14:2.222803 15:1.631192 16:1.811949 17:0.694041 18:0.475101 
-0.302255 1:3.535671 2:3.537759 3:3.541169 4:3.539037 5:3.537987 6:3.540741 7:3.540922 8:3.537201 9:3.533176 10:-1.036982 11:-1.008409 12:-0.949062 13:-0.897934 14:-0.729087 15:-0.605990 16:-0.458624 17:-0.883957 18:-0.238039 
-1.000000 1:-0.179849 2:-0.219382 3:-0.228117 4:-0.239078 5:-0.267336 6:-0.280865 7:-0.327701 8:-0.358528 9:-0.367664 10:-1.636852 11:-1.420016 12:-1.254807 13:-1.191078 14:-1.204220 15:-1.526043 16:-1.221007 17:-1.323727 18:-1.179821 
-0.740453 1:-0.349717 2:-0.341179 3:-0.356357 4:-0.391413 5:-0.403061 6:-0.398741 7:-0.398311 8:-0.407454 9:-0.399072 10:0.880913 11:0.217653 12:0.133439 13:0.094974 14:0.200960 15:0.178476 16:-0.027713 17:0.862188 18:0.872500 
-1.000000 1:-0.273773 2:-0.303372 3:-0.315320 4:-0.337065 5:-0.314840 6:-0.286119 7:-0.254475 8:-0.206508 9:-0.150184 10:-1.104573 11:-0.771954 12:-0.659844 13:-0.689896 14:-0.415702 15:-0.451034 16:-0.773521 17:-0.625269 18:-1.266922 
-1.000000 1:-0.261715 2:-0.212137 3:-0.227873 4:-0.247110 5:-0.265271 6:-0.273642 7:-0.263815 8:-0.265482 9:-0.299136 10:2.013063 11:1.075896 12:0.389604 13:-0.122520 14:-0.324719 15:-0.412294 16:-0.052573 17:0.364214 18:0.741849 
-1.000000 1:-0.286889 2:-0.268508 3:-0.214194 4:-0.179376 5:-0.178525 6:-0.180063 7:-0.189842 8:-0.198645 9:-0.209194 10:1.463886 11:1.837806 12:1.579530 13:1.201358 14:0.200960 15:-0.315447 16:-0.964117 17:-0.677006 18:-0.308809 
-1.000000 1:-0.148329 2:-0.182933 3:-0.211751 4:-0.218464 5:-0.210981 6:-0.205346 7:-0.227202 8:-0.210440 9:-0.232512 10:0.754180 11:0.664290 12:0.720139 13:0.842020 14:1.009697 15:1.311594 16:1.182155 17:-0.366581 18:0.017820 
-1.000000 1:-0.242253 2:-0.319672 3:-0.333640 4:-0.337333 5:-0.328413 6:-0.298924 7:-0.248124 8:-0.203887 9:-0.209194 10:-0.986289 11:-0.868288 12:-0.833375 13:-0.888477 14:-1.072801 15:-1.274239 16:-1.353595 17:-1.032703 18:-1.348579 
-0.597325 1:-0.219407 2:-0.275752 3:-0.284543 4:-0.296907 5:-0.288580 6:-0.258210 7:-0.267925 8:-0.268976 9:-0.342918 10:5.105353 11:6.908448 12:5.901274 13:4.832565 14:3.344925 15:0.817671 16:-1.386742 17:-1.278456 18:-1.098163 
-1.000000 1:-0.169060 2:-0.190178 3:-0.189767 4:-0.182321 5:-0.169968 6:-0.156423 7:-0.135670 8:-0.064973 9:0.025418 10:0.382430 11:0.384047 12:0.513555 13:1.172989 14:1.868980 15:1.718355 16:0.825824 17:0.215468 18:-0.711652 
-1.000000 1:-0.171810 2:-0.179990 3:-0.176577 4:-0.196242 5:-0.172919 6:-0.170213 7:-0.176019 8:-0.116083 9:-0.183972 10:-0.842658 11:-0.526742 12:-0.188832 13:0.463769 14:0.878277 15:1.650561 16:1.422471 17:0.409484 18:0.072258 
-1.000000 1:-0.199522 2:-0.209421 3:-0.295779 4:-0.317254 5:-0.334314 6:-0.353101 7:-0.341897 8:-0.332755 9:-0.310558 10:0.669691 11:0.786896 12:0.273917 13:0.019324 14:-0.011333 15:-0.286392 16:-0.624360 17:-0.638203 18:-1.005618 
-1.000000 1:-0.321158 2:-0.340047 3:-0.343167 4:-0.363034 5:-0.372376 6:-0.369518 7:-0.361698 8:-0.348044 9:-0.309606 10:0.205003 11:-0.010044 12:-0.023565 13:0.321925 14:0.686202 15:0.759563 16:0.867258 17:-0.062622 18:1.825169 
-0.166977 1:3.535671 2:3.537759 3:3.541169 4:3.539037 5:3.537987 6:3.540741 7:3.540922 8:3.537201 9:3.533176 10:1.210420 11:0.532926 12:0.290444 13:0.416487 14:0.231288 15:0.362487 16:0.212603 17:1.858138 18:1.291675 
-1.000000 1:-0.161021 2:-0.183612 3:-0.222499 4:-0.273347 5:-0.275303 6:-0.241464 7:-0.184986 8:-0.115209 9:-0.085939 10:-0.259685 11:-0.010044 12:0.075596 13:0.265187 14:0.312161 15:0.488389 16:0.552361 17:0.913926 18:0.006933 
-0.052671 1:3.535671 2:3.537759 3:3.541169 4:3.539037 5:3.537987 6:3.540741 7:3.540922 8:3.537201 9:3.533176 10:0.864016 11:-0.045075 12:-0.593737 13:-0.907390 14:-0.678541 15:-0.131436 16:0.022008 17:-0.314843 18:0.213798 
-1.000000 1:-0.279908 2:-0.278243 3:-0.275260 4:-0.273882 5:-0.269402 6:-0.249016 7:-0.254475 8:-0.239271 9:-0.267728 10:0.466918 11:-0.132651 12:-0.428470 13:-0.491314 14:-0.607777 15:-0.954642 16:-0.268029 17:0.150796 18:0.671079 
-1.000000 1:-0.185560 2:-0.152144 3:-0.189034 4:-0.221408 5:-0.206850 6:-0.214211 7:-0.250739 8:-0.299992 9:-0.319124 10:1.193522 11:0.655532 12:0.348287 13:0.615069 14:0.726639 15:1.195377 16:1.538486 17:0.758713 18:0.344450 
-1.000000 1:-0.212214 2:-0.227079 3:-0.252299 4:-0.256748 5:-0.250223 6:-0.239494 7:-0.243267 8:-0.231845 9:-0.247265 10:0.390878 11:0.077531 12:-0.147515 13:-0.094151 14:-0.061879 15:0.188161 16:-0.044286 17:0.829852 18:1.580197 
-1.000000 1:-0.244580 2:-0.293637 3:-0.293825 4:-0.316718 5:-0.294481 6:-0.292686 7:-0.284363 8:-0.272471 9:-0.281053 10:-0.031565 11:0.103804 12:0.133439 13:0.161168 14:0.342489 15:0.682084 16:1.273309 17:0.791049 18:0.703742 
-1.000000 1:-0.296831 2:-0.232739 3:-0.255719 4:-0.267992 5:-0.263796 6:-0.243106 7:-0.229070 8:-0.263734 9:-0.245361 10:0.314839 11:0.103804 12:0.158230 13:-0.075238 14:-0.516794 15:-1.138652 16:-1.850801 17:-1.297858 18:-1.479231 
-1.000000 1:-0.205868 2:-0.109583 3:-0.149951 4:-0.234527 5:-0.296252 6:-0.307461 7:-0.323591 8:-0.343239 9:-0.372899 10:-1.222857 11:-0.246499 12:-0.519367 13:-0.954671 14:-1.467060 15:-1.390456 16:-1.701639 17:-0.179032 18:0.257348 
-1.000000 1:-0.157848 2:-0.192441 3:-0.209553 4:-0.261032 5:-0.286515 6:-0.294984 7:-0.312757 8:-0.283392 9:-0.253451 10:0.813322 11:0.340259 12:0.059069 13:-0.198170 14:-0.395483 15:-0.431664 16:0.013721 17:2.297908 18:1.634635 
-0.489196 1:3.535671 2:3.537759 3:3.541169 4:3.539037 5:3.537987 6:3.540741 7:3.540922 8:3.537201 9:3.533176 10:-1.527017 11:-1.227349 12:-0.990379 13:-1.039778 14:-1.143565 15:-1.380771 16:-0.997264 17:-1.763497 18:-1.299585 
-1.000000 1:-0.207772 2:-0.209421 3:-0.200270 4:-0.212038 5:-0.227504 6:-0.236867 7:-0.232806 8:-0.195587 9:-0.200628 10:-0.817311 11:-0.623075 12:-0.527630 13:-0.368383 14:-0.082098 15:-0.383240 16:0.278898 17:0.111993 18:-0.216264 
-1.000000 1:-0.169695 2:-0.193121 3:-0.217858 4:-0.212841 5:-0.218357 6:-0.217823 7:-0.232433 8:-0.222235 9:-0.153991 10:0.061372 11:-0.386621 12:-0.568947 13:-0.708808 14:-0.931272 15:-0.993381 16:-0.624360 17:-0.250171 18:0.333562 
-0.043825 1:-0.335332 2:-0.350460 3:-0.359288 4:-0.368924 5:-0.361164 6:-0.347191 7:-0.326953 8:-0.309165 9:-0.320551 10:-1.239755 11:-1.025924 12:-0.907746 13:-0.775002 14:-0.840289 15:-0.819055 16:-0.077433 17:1.819335 18:3.039141 
-1.000000 1:-0.343159 2:-0.287977 3:-0.206133 4:-0.149123 5:-0.093254 6:-0.063829 7:-0.046007 8:-0.091620 9:-0.100216 10:0.450021 11:0.103804 12:-0.370626 13:-0.689896 14:-0.981818 15:-1.245185 16:-0.773521 17:-0.702875 18:-1.343135 
-0.170657 1:-0.293870 2:-0.337104 3:-0.343899 4:-0.362499 5:-0.354377 6:-0.335042 7:-0.313504 8:-0.278587 9:-0.297709 10:-0.225890 11:-0.325317 12:-0.263202 13:0.161168 14:0.999588 15:1.137269 16:0.187743 17:-1.019768 18:-0.504787 
-1.000000 1:-0.325389 2:-0.325784 3:-0.328755 4:-0.325821 5:-0.309234 6:-0.289074 7:-0.292956 8:-0.298245 9:-0.327214 10:-1.096124 11:-0.745682 12:-0.436733 13:-0.415664 14:-0.415702 15:-0.751261 16:-0.740374 17:0.196066 18:0.926938 
-1.000000 1:-0.235061 2:-0.235908 3:-0.230315 4:-0.270134 5:-0.295366 6:-0.286447 7:-0.315745 8:-0.323581 9:-0.328165 10:-1.484773 11:-1.087227 12:-0.982116 13:-1.049234 14:-1.497388 15:-1.855325 16:-1.941955 17:-1.103842 18:-1.190708 
-0.402710 1:3.535671 2:3.537759 3:3.541169 4:3.539037 5:3.537987 6:3.540741 7:3.540922 8:3.537201 9:3.533176 10:-2.498638 11:-2.111865 12:-1.866297 13:-2.108336 14:-2.508309 15:-2.852856 16:-2.853499 17:-2.306742 18:-1.947400 
-1.000000 1:-0.159117 2:-0.185650 3:-0.243506 4:-0.269866 5:-0.286515 6:-0.274298 7:-0.248124 8:-0.169814 9:-0.195869 10:-1.104573 11:-0.684379 12:-0.519367 13:-0.311645 14:-0.041661 15:0.110683 16:-0.317749 17:-0.883957 18:-0.259815 
-1.000000 1:-0.365371 2:-0.381023 3:-0.349273 4:-0.345097 5:-0.336674 6:-0.306805 7:-0.313130 8:-0.313971 9:-0.310082 10:1.311806 11:1.075896 12:0.893670 13:0.964951 14:0.767076 15:0.536813 16:0.113162 17:-0.036753 18:-0.080169 
-0.801470 1:-0.419525 2:-0.415434 3:-0.406432 4:-0.418453 5:-0.419585 6:-0.407278 7:-0.395696 8:-0.394349 9:-0.391934 10:3.314191 11:3.361626 12:2.678558 13:2.024053 14:1.090571 15:0.498074 16:0.792677 17:0.234870 18:0.317230 
-1.000000 1:-0.248600 2:-0.217118 3:-0.261826 4:-0.330372 5:-0.328118 6:-0.339639 7:-0.328448 8:-0.334065 9:-0.372423 10:0.441572 11:0.585471 12:0.521818 13:0.407031 14:0.109977 15:-0.092697 16:-0.442051 17:-0.618802 18:-1.060057 
-1.000000 1:-0.452314 2:-0.445544 3:-0.411073 4:-0.415508 5:-0.399816 6:-0.358683 7:-0.331437 8:-0.328823 9:-0.352436 10:0.373981 11:0.147592 12:0.141703 13:0.482681 14:0.484018 15:0.159107 16:-0.508345 17:-0.211368 18:0.317230 
-0.203078 1:-0.416352 2:-0.404567 3:-0.376143 4:-0.377759 5:-0.370310 6:-0.336684 7:-0.305658 8:-0.242766 9:-0.220615 10:-0.606089 11:-0.290287 12:-0.312783 13:-0.122520 14:-0.051770 15:0.749878 16:1.762228 17:1.838736 18:0.377112 
-1.000000 1:-0.222157 2:-0.230927 3:-0.247170 4:-0.283520 5:-0.320741 6:-0.335042 7:-0.369917 8:-0.411386 9:-0.436667 10:1.227317 11:0.550441 12:0.083859 13:0.113887 14:0.231288 15:-0.189545 16:-0.491771 17:-0.715810 18:-1.163489 
-0.396117 1:3.535671 2:3.537759 3:3.541169 4:3.539037 5:3.537987 6:3.540741 7:3.540922 8:3.537201 9:3.533176 10:2.131347 11:1.417442 12:1.058937 13:1.201358 14:1.323083 15:1.708670 16:1.165581 17:0.875123 18:-0.760646 
-1.000000 1:-0.259600 2:-0.256962 3:-0.249124 4:-0.258890 5:-0.265566 6:-0.266747 7:-0.236916 8:-0.195587 9:-0.177785 10:-0.352623 11:-0.272772 12:-0.271466 13:-0.188714 14:-0.041661 15:0.352802 16:0.303758 17:-0.586466 18:0.077702 
-1.000000 1:-0.245215 2:-0.276432 3:-0.274283 4:-0.257819 5:-0.257599 6:-0.272328 7:-0.292209 8:-0.289508 9:-0.289143 10:1.261113 11:0.865714 12:0.216073 13:-0.122520 14:-0.456139 15:-1.070859 16:-1.287301 17:-1.200850 18:-1.419349 
-1.000000 1:-0.244157 2:-0.163011 3:-0.169493 4:-0.196510 5:-0.163477 6:-0.131468 7:-0.124089 8:-0.220050 9:-0.272011 10:1.159726 11:0.278956 12:-0.436733 13:-1.039778 14:-1.325531 15:-1.603521 16:-1.602198 17:-1.129711 18:-0.766090 
-1.000000 1:-0.259388 2:-0.302919 3:-0.333396 4:-0.346971 5:-0.348476 6:-0.352116 7:-0.376269 8:-0.422744 9:-0.479021 10:1.649761 11:1.732715 12:1.207678 13:1.362114 14:1.343301 15:1.214747 16:-0.168588 17:-1.271989 18:-1.207040 
-1.000000 1:-0.187252 2:-0.175915 3:-0.218346 4:-0.231314 5:-0.241371 6:-0.247374 7:-0.288099 8:-0.310039 9:-0.314365 10:1.235766 11:0.375289 12:0.067332 13:-0.131976 14:0.039213 15:0.314063 16:-0.309463 17:-0.457121 18:0.322674 
-1.000000 1:-0.224484 2:-0.155087 3:-0.204912 4:-0.268260 5:-0.297137 6:-0.291701 7:-0.292209 8:-0.309165 9:-0.284384 10:1.387846 11:0.611744 12:-0.031828 13:-0.453489 14:-0.911053 15:-1.090228 16:-0.897823 17:0.183132 18:0.039595 
-1.000000 1:-0.224272 2:-0.261716 3:-0.289916 4:-0.293962 5:-0.278253 6:-0.252956 7:-0.240278 8:-0.220050 9:-0.243458 10:-0.462458 11:-0.658106 12:-0.742478 13:-0.661527 14:-0.799852 15:-1.109598 16:-0.806668 17:-0.250171 18:0.426107 
-1.000000 1:-0.194445 2:-0.213043 3:-0.260116 4:-0.276024 5:-0.280614 6:-0.236539 7:-0.235048 8:-0.267666 9:-0.296281 10:-0.454009 11:-0.535500 12:-0.453260 13:-0.368383 14:-0.405593 15:-0.286392 16:-0.027713 17:-0.314843 18:-0.091056 
-1.000000 1:-0.258542 2:-0.278469 3:-0.293092 4:-0.294765 5:-0.281499 6:-0.264120 7:-0.253728 8:-0.296934 9:-0.323407 10:-1.146817 11:-0.894561 12:-0.775532 13:-0.737177 14:-0.779633 15:-0.906218 16:-0.624360 17:1.010934 18:0.055927 
-1.000000 1:-0.319678 2:-0.317408 3:-0.315076 4:-0.338671 5:-0.343755 6:-0.334057 7:-0.328074 8:-0.352849 9:-0.346725 10:1.058340 11:1.329866 12:0.868880 13:0.709632 14:0.534564 15:0.478704 16:-0.094007 17:-0.541195 18:-0.052950 
-1.000000 1:-0.338293 2:-0.326916 3:-0.294313 4:-0.285394 5:-0.261730 6:-0.238837 7:-0.195820 8:-0.172435 9:-0.173978 10:1.278011 11:1.426200 12:1.571266 13:1.929490 14:1.838653 15:1.176008 16:0.386625 17:0.441820 18:-1.130826 
-1.000000 1:-0.409583 2:-0.394833 3:-0.360021 4:-0.356877 5:-0.332248 6:-0.298924 7:-0.244014 8:-0.189472 9:-0.142094 10:-1.079226 11:-0.955864 12:-0.610264 13:-0.519683 14:-0.991927 15:-1.051489 16:-0.508345 17:1.916343 18:2.244343 
-1.000000 1:-0.268061 2:-0.302240 3:-0.322648 4:-0.313505 5:-0.331953 6:-0.336684 7:-0.355721 8:-0.345860 9:-0.349580 10:0.990749 11:0.532926 12:0.340024 13:0.331381 14:0.524455 15:0.730508 16:0.676662 17:0.454755 18:0.545871 
-1.000000 1:-0.315235 2:-0.284355 3:-0.253032 4:-0.261567 5:-0.264976 6:-0.268060 7:-0.251113 8:-0.241019 9:-0.229181 10:0.695038 11:1.505018 12:2.075332 13:2.771098 14:2.141929 15:1.021051 16:0.345192 17:-0.638203 18:-0.248927 
-1.000000 1:-0.255157 2:-0.273941 3:-0.275260 4:-0.285930 5:-0.272647 6:-0.252299 7:-0.239905 8:-0.215245 9:-0.157798 10:-0.927147 11:-0.920833 12:-0.825112 13:-0.756090 14:-0.698760 15:-0.392925 16:-0.218308 17:-1.291391 18:-1.005618 
-1.000000 1:-0.283504 2:-0.271451 3:-0.235933 4:-0.179911 5:-0.106236 6:-0.122275 7:-0.132308 8:-0.143604 9:-0.078325 10:-0.496254 11:0.165107 12:0.645769 13:0.775826 14:0.746858 15:0.469020 16:0.030295 17:-0.987432 18:-0.956624 
-1.000000 1:-0.185983 2:-0.195837 3:-0.204423 4:-0.253803 5:-0.260845 6:-0.258538 7:-0.261947 8:-0.237961 9:-0.229657 10:0.019128 11:-0.404136 12:-0.610264 13:-0.652071 14:-0.506685 15:-0.654414 16:-0.756948 17:-1.129711 18:-0.923961 
-1.000000 1:-0.303389 2:-0.353404 3:-0.304084 4:-0.317521 5:-0.309529 6:-0.317312 7:-0.337414 8:-0.372070 9:-0.375754 10:0.373981 11:-0.071348 12:-0.147515 13:-0.406208 14:-0.456139 15:-0.170175 16:0.527500 17:-0.502392 18:-0.776978 
-1.000000 1:-0.174983 2:-0.233191 3:-0.277459 4:-0.288875 5:-0.279729 6:-0.267732 7:-0.246630 8:-0.199082 9:-0.213477 10:-0.327276 11:-0.062590 12:0.050806 13:0.548875 14:1.201772 15:1.757094 16:1.613066 17:0.694041 18:0.431551 
-0.209768 1:-0.352255 2:-0.373552 3:-0.358311 4:-0.349648 5:-0.322807 6:-0.290387 7:-0.278012 8:-0.345860 9:-0.371471 10:0.728834 11:0.480380 12:0.406131 13:0.709632 14:1.029916 15:1.853941 16:1.397611 17:-0.360113 18:0.339006 
-0.086177 1:-0.180483 2:-0.201044 3:-0.218835 4:-0.235598 5:-0.246977 6:-0.239494 7:-0.228697 8:-0.195587 9:-0.202531 10:-0.631436 11:-0.780712 12:-0.874692 13:-1.068147 14:-0.911053 15:-0.596305 16:-0.342610 17:-0.612334 18:0.121253 
-1.000000 1:-0.270811 2:-0.254472 3:-0.264024 4:-0.284324 5:-0.290941 6:-0.287104 7:-0.280253 8:-0.262861 9:-0.302943 10:-0.724374 11:-0.833257 12:-0.775532 13:-0.803371 14:-1.103128 15:-1.196761 16:-1.411602 17:-1.368997 18:-1.392130 
-1.000000 1:-0.209041 2:-0.210779 3:-0.214438 4:-0.229440 5:-0.238716 6:-0.237852 7:-0.226829 8:-0.144914 9:-0.144949 10:0.618998 11:0.278956 12:-0.164042 13:-0.321101 14:-0.193299 15:-0.412294 16:-0.085720 17:0.137861 18:-0.134607 
-1.000000 1:-0.366640 2:-0.365629 3:-0.355380 4:-0.358751 5:-0.364999 6:-0.375429 7:-0.396817 8:-0.414007 9:-0.414777 10:1.058340 11:0.638017 12:0.406131 13:0.444856 14:0.817622 15:0.875780 16:0.411486 17:0.791049 18:0.290011 
-0.435781 1:-0.218561 2:-0.231380 3:-0.290649 4:-0.301190 5:-0.303333 6:-0.276269 7:-0.195073 8:-0.191219 9:-0.181117 10:-0.310378 11:-0.912076 12:-0.833375 13:-0.737177 14:-0.597668 15:-1.003065 16:-1.370168 17:-1.401333 18:-1.354023 
-1.000000 1:-0.497161 2:-0.469767 3:-0.443560 4:-0.453525 5:-0.448205 6:-0.431247 7:-0.428946 8:-0.449828 9:-0.455703 10:-0.715925 11:-0.500469 12:-0.205359 13:-0.245451 14:-0.961599 15:-1.128967 16:-0.491771 17:0.920393 18:1.825169 
-1.000000 1:-0.155310 2:-0.192215 3:-0.231537 4:-0.238007 5:-0.239011 6:-0.222748 7:-0.236916 8:-0.236213 9:-0.185875 10:-1.079226 11:-0.798227 12:-0.602001 13:-0.576421 14:-0.435920 15:-0.906218 16:-1.088418 17:-0.560597 18:-0.406798 
-1.000000 1:-0.326235 2:-0.379438 3:-0.382982 4:-0.384988 5:-0.374441 6:-0.343251 7:-0.302296 8:-0.322707 9:-0.320551 10:-0.910249 11:-0.964621 12:-1.039960 13:-1.219447 14:-1.477169 15:-1.719738 16:-1.784507 17:-1.737628 18:-1.147158 
-1.000000 1:-0.167156 2:-0.164596 3:-0.161432 4:-0.234795 5:-0.293006 6:-0.317640 7:-0.323217 8:-0.327950 9:-0.319599 10:0.272594 11:-0.106378 12:-0.436733 13:-0.595333 14:-0.607777 15:-0.712522 16:-0.732088 17:-0.185499 18:-0.140051 
-1.000000 1:-0.341678 2:-0.328727 3:-0.349029 4:-0.381239 5:-0.392440 6:-0.387249 7:-0.375521 8:-0.379497 9:-0.422867 10:0.365532 11:-0.088863 12:-0.354100 13:-0.623702 14:-0.911053 15:-0.935272 16:-0.715514 17:0.124927 18:1.215461 
-1.000000 1:-0.176252 2:-0.155767 3:-0.226651 4:-0.252464 5:-0.298612 6:-0.316983 7:-0.321723 8:-0.318339 9:-0.300564 10:-0.935595 11:-0.623075 12:-0.436733 13:-0.349470 14:-0.142753 15:0.207531 16:1.538486 17:1.392499 18:0.611197 
-1.000000 1:-0.406198 2:-0.386230 3:-0.356357 4:-0.371334 5:-0.385063 6:-0.381011 7:-0.369917 8:-0.344113 9:-0.371471 10:-0.969391 11:-0.649348 12:-0.370626 13:-0.169801 14:0.089759 15:0.381857 16:0.693236 17:1.683523 18:2.995591 
-1.000000 1:-0.203753 2:-0.226626 3:-0.214682 4:-0.199723 5:-0.204490 6:-0.202719 7:-0.175272 8:-0.157582 9:-0.108782 10:0.889362 11:0.883229 12:1.116781 13:1.418852 14:1.333192 15:1.011367 16:0.411486 17:0.280140 18:0.720073 
-1.000000 1:-0.195291 2:-0.226400 3:-0.268909 4:-0.284591 5:-0.277663 6:-0.280209 7:-0.282495 8:-0.234466 9:-0.217760 10:0.475367 11:0.138835 12:0.017752 13:-0.009045 14:0.514346 15:0.866095 16:0.950125 17:-0.832219 18:-0.891298 
-1.000000 1:-0.215176 2:-0.238172 3:-0.288207 4:-0.290481 5:-0.292416 6:-0.300566 7:-0.319481 8:-0.350228 9:-0.372423 10:0.787976 11:0.830684 12:0.670559 13:0.596157 14:0.453690 15:0.314063 16:-0.284602 17:0.209001 18:0.235573 
-1.000000 1:-0.426718 2:-0.410227 3:-0.379562 4:-0.386594 5:-0.378572 6:-0.369190 7:-0.381873 8:-0.419249 9:-0.410018 10:0.103617 11:0.051259 12:-0.056618 13:-0.150889 14:0.039213 15:0.246270 16:0.494353 17:-0.482990 18:-0.276146 
-1.000000 1:-0.361351 2:-0.335972 3:-0.328755 4:-0.323411 5:-0.301858 6:-0.265433 7:-0.266804 8:-0.273345 9:-0.252975 10:-0.504703 11:-0.115135 12:0.439184 13:1.163533 14:1.555595 15:1.466551 16:1.008133 17:0.131394 18:1.101141 
-1.000000 1:-0.304870 2:-0.325331 3:-0.324847 4:-0.316986 5:-0.291236 6:-0.256568 7:-0.208896 8:-0.144477 9:-0.142094 10:0.365532 11:0.287713 12:0.298707 13:0.274643 14:0.140305 15:0.749878 16:1.265022 17:0.797516 18:0.290011 
-1.000000 1:-0.195503 2:-0.209421 3:-0.220789 4:-0.256480 5:-0.271762 6:-0.254269 7:-0.213753 8:-0.222671 9:-0.199200 10:-0.766618 11:-0.465439 12:-0.164042 13:0.180081 14:0.463800 15:0.730508 16:0.958412 17:2.692407 18:2.402214 
-1.000000 1:-0.215599 2:-0.184518 3:-0.231781 4:-0.258087 5:-0.299497 6:-0.309431 7:-0.334052 8:-0.337997 9:-0.309130 10:-2.059296 11:-1.446288 12:-1.056486 13:-1.105972 14:-1.224439 15:-1.254869 16:-0.566352 17:-0.418318 18:0.257348 
-1.000000 1:-0.266792 2:-0.287977 3:-0.292848 4:-0.307883 5:-0.306579 6:-0.300238 7:-0.282121 8:-0.280771 9:-0.255355 10:2.342569 11:1.776503 12:1.273785 13:1.258095 14:0.999588 15:0.217216 16:-0.002852 17:0.648771 18:0.671079 
-1.000000 1:3.535671 2:3.537759 3:3.541169 4:3.539037 5:3.537987 6:3.540741 7:3.540922 8:3.537201 9:3.533176 10:-0.910249 11:-0.290287 12:0.364814 13:1.116251 14:1.555595 15:0.633661 16:0.254037 17:-0.405384 18:-0.194489 
-1.000000 1:-0.359871 2:-0.371062 3:-0.336571 4:-0.315379 5:-0.323987 6:-0.307133 7:-0.255970 8:-0.207819 9:-0.178737 10:0.745731 11:0.401562 12:0.166493 13:0.094974 14:0.190851 15:0.236585 16:0.610368 17:0.978598 18:1.460433 
-1.000000 1:3.535671 2:3.537759 3:3.541169 4:3.539037 5:3.537987 6:3.540741 7:3.540922 8:3.537201 9:3.533176 10:-1.079226 11:-1.174803 12:-1.039960 13:-0.935759 14:-0.870616 15:-0.644729 16:0.701522 17:1.489507 18:1.269899 
-0.351470 1:-0.157214 2:-0.192441 3:-0.258650 4:-0.278434 5:-0.295071 6:-0.306476 7:-0.317613 8:-0.304360 9:-0.300564 10:-0.960942 11:-0.894561 12:-0.841639 13:-0.822284 14:-0.718978 15:-0.596305 16:0.237464 17:0.047321 18:-0.052950 
-1.000000 1:-0.334909 2:-0.316049 3:-0.268665 4:-0.276560 5:-0.282384 6:-0.270030 7:-0.262694 8:-0.256745 9:-0.226326 10:-0.470907 11:0.016228 12:0.207810 13:0.397575 14:0.261615 15:-0.131436 16:0.154596 17:-0.269572 18:-0.586444 
-1.000000 1:-0.418256 2:-0.384872 3:-0.346831 4:-0.334120 5:-0.305398 6:-0.267403 7:-0.229070 8:-0.149719 9:-0.147329 10:-1.028533 11:-0.815742 12:-0.635054 13:-0.519683 14:-0.243845 15:-0.218599 16:-0.301176 17:0.111993 18:-0.118275 
-1.000000 1:-0.326870 2:-0.288656 3:-0.263780 4:-0.277095 5:-0.278253 6:-0.250001 7:-0.237290 8:-0.253250 9:-0.291522 10:0.880913 11:0.532926 12:0.381341 13:0.671807 14:1.120899 15:0.730508 16:-0.251455 17:0.124927 18:-0.221708 
-1.000000 1:-0.213061 2:-0.210326 3:-0.219323 4:-0.210164 5:-0.195933 6:-0.180392 7:-0.160328 8:-0.199519 9:-0.225850 10:0.044474 11:-0.456681 12:-0.436733 13:-0.557508 14:-1.012145 15:-0.857794 16:-0.334323 17:-1.045637 18:-1.283253 
-1.000000 1:-0.255369 2:-0.252887 3:-0.265734 4:-0.310293 5:-0.326642 6:-0.314357 7:-0.321349 8:-0.341492 9:-0.356719 10:0.297941 11:-0.150166 12:-0.246676 13:-0.094151 14:-0.284282 15:-0.770631 16:-0.939257 17:-1.394866 18:-1.675209 
-1.000000 1:-0.158060 2:-0.174557 3:-0.211018 4:-0.237740 5:-0.250223 6:-0.259523 7:-0.237663 8:-0.190782 9:-0.144949 10:-1.273551 11:-0.885803 12:-0.899482 13:-0.945215 14:-1.254767 15:-0.983696 16:-1.287301 17:-0.379515 18:0.339006 
-1.000000 1:-0.226599 2:-0.257868 3:-0.269887 4:-0.304403 5:-0.334314 6:-0.330774 7:-0.344513 8:-0.366391 9:-0.381465 10:0.145861 11:-0.334075 12:-0.684635 13:-1.011409 14:-1.264876 15:-1.264554 16:-1.071845 17:-1.181448 18:-1.539113 
-1.000000 1:-0.323062 2:-0.323973 3:-0.297733 4:-0.273079 5:-0.237831 6:-0.188929 7:-0.143890 8:-0.120888 9:-0.097836 10:-0.682129 11:-0.439166 12:-0.213622 13:0.132799 14:0.403144 15:-0.179860 16:-0.599499 17:-0.896891 18:-1.174377 
-1.000000 1:-0.305504 2:-0.331444 3:-0.322160 4:-0.322608 5:-0.313660 6:-0.286447 7:-0.276891 8:-0.192093 9:-0.210621 10:-0.352623 11:-0.544257 12:-0.577211 13:-0.784459 14:-1.052582 15:-0.983696 16:-0.533205 17:0.370681 18:0.877944 
-1.000000 1:-0.235484 2:-0.228211 3:-0.251078 4:-0.243362 5:-0.246682 6:-0.266090 7:-0.276891 8:-0.201703 9:-0.184448 10:0.171208 11:0.795653 12:0.687085 13:0.435400 14:-0.031552 15:0.546498 16:1.207015 17:0.331878 18:-0.439461 
-1.000000 1:-0.146425 2:-0.181348 3:-0.212484 4:-0.234259 5:-0.230159 6:-0.217495 7:-0.224961 8:-0.192529 9:-0.133528 10:-0.487805 11:-0.220226 12:0.001225 13:0.293556 14:0.716530 15:0.933888 16:1.223589 17:0.014985 18:-0.069281 
-1.000000 1:-0.173291 2:-0.227532 3:-0.289916 4:-0.299048 5:-0.301858 6:-0.309431 7:-0.331063 8:-0.333192 9:-0.316268 10:-1.222857 11:-1.174803 12:-0.965589 13:-0.850652 14:-0.830180 15:-1.225815 16:-1.519330 17:-0.728744 18:-1.114495 
-1.000000 1:-0.294081 2:-0.338236 3:-0.336571 4:-0.321537 5:-0.301563 6:-0.283492 7:-0.244388 8:-0.207382 9:-0.223946 10:-0.377969 11:0.585471 12:-0.048355 13:0.009868 14:-0.142753 15:0.033205 16:0.858971 17:1.541245 18:1.068478 
-1.000000 1:3.535671 2:3.537759 3:3.541169 4:3.539037 5:3.537987 6:3.540741 7:3.540922 8:3.537201 9:3.533176 10:0.542958 11:1.715200 12:1.083727 13:1.239183 14:1.262427 15:0.885465 16:1.505338 17:1.023869 18:0.371669 
-1.000000 1:-0.292812 2:-0.293411 3:-0.283077 4:-0.291552 5:-0.298907 6:-0.265761 7:-0.255222 8:-0.181609 9:-0.166364 10:-0.732822 11:-0.579287 12:-0.494577 13:-0.585877 14:-0.567340 15:-0.354186 16:-0.094007 17:0.732844 18:0.888832 
-1.000000 1:-0.160387 2:-0.185197 3:-0.249612 4:-0.259157 5:-0.255829 6:-0.244419 7:-0.215994 8:-0.203450 9:-0.165888 10:-1.349591 11:-0.990894 12:-0.659844 13:-0.330558 14:0.008885 15:0.546498 16:1.041280 17:0.234870 18:0.856169 
-1.000000 1:-0.434122 2:-0.394833 3:-0.368082 4:-0.394090 5:-0.394800 6:-0.384294 7:-0.391213 8:-0.415317 9:-0.441426 10:0.652794 11:0.305229 12:-0.130989 13:-0.094151 14:-0.132644 15:0.033205 16:-0.508345 17:-1.000367 18:-1.430237 
-1.000000 1:-0.150233 2:-0.182707 3:-0.234224 4:-0.278969 5:-0.303038 6:-0.282835 7:-0.283989 8:-0.223545 9:-0.280577 10:1.607517 11:2.407049 12:1.686954 13:1.626890 14:1.302864 15:1.321279 16:-0.210022 17:-0.224302 18:-0.308809 
-1.000000 1:-0.234849 2:-0.269866 3:-0.246193 4:-0.238007 5:-0.199179 6:-0.141975 7:-0.125583 8:-0.156272 9:-0.121155 10:0.399327 11:-0.246499 12:-0.329309 13:-0.415664 14:-0.466248 15:-0.741577 16:-0.939257 17:-1.123244 18:-1.343135 
-1.000000 1:-0.206080 2:-0.233644 3:-0.251567 4:-0.220873 5:-0.201539 6:-0.202391 7:-0.147252 8:-0.116520 9:-0.082132 10:-0.217441 11:0.024986 12:0.149966 13:0.435400 14:0.625547 15:0.323748 16:0.643515 17:0.687574 18:-0.689877 
-1.000000 1:-0.133521 2:-0.147843 3:-0.202469 4:-0.256748 5:-0.290055 6:-0.299909 7:-0.306779 8:-0.319213 9:-0.311509 10:-1.586159 11:-1.244864 12:-1.147383 13:-1.332922 14:-1.487278 15:-1.380771 16:-1.046985 17:-1.556546 18:-1.234259 
-0.858260 1:-0.158483 2:-0.197422 3:-0.236422 4:-0.244165 5:-0.218652 6:-0.190571 7:-0.143142 8:-0.143167 9:-0.034068 10:2.579138 11:2.862444 12:2.827299 13:3.281737 14:3.648202 15:3.151701 16:1.985971 17:1.269622 18:0.257348 
-1.000000 1:-0.169060 2:-0.163464 3:-0.197095 4:-0.214983 5:-0.244617 6:-0.264120 7:-0.284737 8:-0.285139 9:-0.289143 10:-0.006219 11:0.690562 12:1.348155 13:1.787646 14:1.575813 15:1.495605 16:0.461206 17:-0.631736 18:-0.085612 
-0.131685 1:3.535671 2:3.537759 3:3.541169 4:3.539037 5:3.537987 6:3.540741 7:3.540922 8:3.537201 9:3.533176 10:-0.969391 11:-0.842015 12:-0.618528 13:-0.557508 14:-0.365156 15:-0.247653 16:0.212603 17:1.470106 18:0.785399 
-1.000000 1:-0.297254 2:-0.329406 3:-0.302130 4:-0.307883 5:-0.303628 6:-0.284149 7:-0.265310 8:-0.293876 9:-0.187303 10:0.120514 11:-0.036317 12:0.108649 13:0.407031 14:0.544673 15:0.807986 16:1.182155 17:0.066722 18:-0.357804 
-1.000000 1:-0.312274 2:-0.241341 3:-0.267688 4:-0.309490 5:-0.321626 6:-0.306476 7:-0.289967 8:-0.324455 9:-0.353387 10:1.370948 11:1.224775 12:0.711876 13:0.331381 14:-0.284282 15:-0.741577 16:-0.384044 17:-0.851621 18:-0.853191 
-1.000000 1:-0.297254 2:-0.293184 3:-0.288939 4:-0.286733 5:-0.302153 6:-0.308446 7:-0.270540 8:-0.271597 9:-0.229657 10:0.399327 11:-0.062590 12:0.009489 13:0.265187 14:0.231288 15:-0.073328 16:-0.243169 17:-1.052104 18:-0.972955 
-0.866180 1:3.535671 2:3.537759 3:3.541169 4:3.539037 5:3.537987 6:3.540741 7:3.540922 8:3.537201 9:3.533176 10:0.880913 11:0.287713 12:-0.089672 13:0.019324 14:0.089759 15:0.778932 16:1.712508 17:0.868656 18:1.934046 
-1.000000 1:-0.171810 2:-0.165728 3:-0.167783 4:-0.151800 5:-0.241666 6:-0.305163 7:-0.331810 8:-0.379933 9:-0.418584 10:-1.096124 11:-0.719409 12:-0.734215 13:-0.756090 14:-1.032364 15:-1.584151 16:-1.411602 17:-1.123244 18:-0.771534 
-1.000000 1:-0.182599 2:-0.196743 3:-0.218590 4:-0.224621 5:-0.200359 6:-0.209615 7:-0.223093 8:-0.237961 9:-0.288667 10:0.297941 11:0.016228 12:0.108649 13:0.227362 14:0.807513 15:0.546498 16:-0.292889 17:-0.463589 18:-0.292478 
-1.000000 1:-0.205445 2:-0.175236 3:-0.270864 4:-0.287804 5:-0.301268 6:-0.298596 7:-0.274276 8:-0.267229 9:-0.260590 10:-1.070778 11:-0.710651 12:-0.370626 13:0.019324 14:-0.294391 15:-0.441349 16:-0.616073 17:-0.709342 18:-0.689877 
-1.000000 1:-0.278850 2:-0.291373 3:-0.265734 4:-0.257551 5:-0.238126 6:-0.228330 7:-0.192084 8:-0.198208 9:-0.219663 10:-1.341142 11:-1.078470 12:-0.750741 13:-0.462945 14:-0.456139 15:-1.090228 16:-2.016536 17:-1.951046 18:-1.729647 
-1.000000 1:-0.191695 2:-0.193573 3:-0.201736 4:-0.237740 5:-0.244322 6:-0.255583 7:-0.273155 8:-0.275092 9:-0.266300 10:0.644345 11:0.462865 12:0.158230 13:0.208450 14:0.433472 15:0.130053 16:-0.011139 17:0.377148 18:0.099478 
-1.000000 1:-0.185349 2:-0.204666 3:-0.242284 4:-0.293158 5:-0.321921 6:-0.320267 7:-0.304537 8:-0.338434 9:-0.314841 10:-0.437112 11:-0.526742 12:-0.461523 13:-0.349470 14:-0.223627 15:-0.712522 16:-1.171286 17:-1.453071 18:-0.836860 
-1.000000 1:-0.315235 2:-0.280733 3:-0.251322 4:-0.252197 5:-0.226324 6:-0.191884 7:-0.106530 8:-0.093367 9:-0.133052 10:-0.927147 11:-0.526742 12:-0.287993 13:0.009868 14:0.676093 15:1.069475 16:2.342302 17:5.040003 18:4.715839 
-1.000000 1:-0.184714 2:-0.197648 3:-0.204912 4:-0.185534 5:-0.190622 6:-0.242121 7:-0.238037 8:-0.217866 9:-0.181117 10:0.306390 11:0.243926 12:-0.031828 13:-0.264364 14:-0.001224 15:0.120368 16:-0.127154 17:-0.482990 18:-1.119939 
-1.000000 1:-0.296831 2:-0.206478 3:-0.208087 4:-0.217660 5:-0.225143 6:-0.232927 7:-0.214874 8:-0.226603 9:-0.248692 10:0.711936 11:0.690562 12:-0.064882 13:-0.462945 14:-0.597668 15:-0.683468 16:-1.179573 17:-0.799883 18:-1.098163 
-1.000000 1:-0.181118 2:-0.230927 3:-0.251567 4:-0.237204 5:-0.219832 6:-0.231285 7:-0.236542 8:-0.231845 9:-0.263445 10:-0.327276 11:-0.509227 12:-0.527630 13:-0.472402 14:-0.132644 15:-0.228284 16:0.071728 17:-0.541195 18:-0.003955 
-1.000000 1:-0.331736 2:-0.280054 3:-0.292848 4:-0.306277 5:-0.329593 6:-0.318297 7:-0.340029 8:-0.340181 9:-0.338635 10:2.334121 11:2.030473 12:1.422526 13:1.220270 14:1.050134 15:0.991997 16:0.933552 17:0.176665 18:0.638416 
-1.000000 1:-0.357332 2:-0.369024 3:-0.345609 4:-0.335726 5:-0.318381 6:-0.305491 7:-0.307900 8:-0.296060 9:-0.335780 10:-0.437112 11:-0.404136 12:-0.378890 13:-0.283276 14:-0.132644 15:-0.121751 16:-0.558066 17:-0.508859 18:-0.330584 
-1.000000 1:-0.286889 2:-0.331217 3:-0.359777 4:-0.377759 5:-0.375326 6:-0.354743 7:-0.314625 8:-0.289071 9:-0.273914 10:-0.986289 11:-0.771954 12:-0.684635 13:-0.661527 14:-0.921162 15:-0.557566 16:-0.516632 17:-0.657605 18:0.377112 
-1.000000 1:-0.336389 2:-0.358158 3:-0.344388 4:-0.345097 5:-0.332248 6:-0.295641 7:-0.260453 8:-0.268539 9:-0.245361 10:-0.656782 11:-0.447924 12:-0.081408 13:0.388119 14:0.999588 15:1.611822 16:1.132434 17:0.351279 18:0.513208 
-1.000000 1:-0.472834 2:-0.455731 3:-0.433301 4:-0.444422 5:-0.442304 6:-0.420412 7:-0.408025 8:-0.414444 9:-0.419536 10:-0.817311 11:-0.465439 12:-0.271466 13:-0.756090 14:-1.477169 15:-2.058705 16:-2.190558 17:-1.666489 18:-1.217927 
