svm_type c_svc
kernel_type rbf
gamma 0.000001
nr_class 2
total_sv 206
rho 203689734.040011 
probA -0.000005
probB 0.084604
label 1 0 
nr_sv 103 103 
SV
874466266007.467770 1:0.323496 2:0.562911 3:1.089742 4:1.193332 5:1.209221 6:1.412152 7:1.274075 8:1.430178 9:1.264225 10:0.154178 11:0.743116 12:0.936586 13:0.965728 14:1.006289 15:1.585822 16:2.616213 17:2.516091 18:1.346142 
1099511627776.000000 1:0.891638 2:1.381922 3:0.620636 4:0.289922 5:-0.181863 6:-0.767949 7:-0.881965 8:-0.853926 9:-0.614853 10:0.075870 11:-0.360390 12:-0.574634 13:-0.679980 14:-0.637875 15:-0.497847 16:0.190933 17:0.239657 18:0.949916 
1099511627776.000000 1:0.119320 2:0.236872 3:-0.106477 4:0.012446 5:0.173599 6:0.102315 7:-0.182288 8:-0.136354 9:-0.284097 10:-0.072045 11:-0.851867 12:-0.873463 13:-0.856306 14:-1.109132 15:-0.547458 16:0.376843 17:0.608620 18:1.295016 
1099511627776.000000 1:1.106911 2:0.839393 3:0.128076 4:0.080202 5:0.064226 6:-0.084170 7:-0.011256 8:0.121366 9:0.046659 10:-1.351072 11:-1.092969 12:-0.873463 13:-0.836714 14:-0.868267 15:-0.825281 16:-0.848473 17:-1.152657 18:-0.781976 
1099511627776.000000 1:0.081592 2:0.056898 3:-0.096425 4:-0.206953 5:-0.383519 6:-0.639185 7:-0.322223 8:-0.338487 9:-0.173845 10:-0.080746 11:-0.045103 12:-0.096508 13:-0.023656 14:-0.082839 15:-0.160491 16:-0.383698 17:-0.470423 18:0.278888 
838153357809.349610 1:0.862787 2:1.115874 3:0.332471 4:0.180222 5:-0.041729 6:-0.212933 7:-0.280761 8:-0.515353 9:-0.360794 10:-0.480985 11:-0.100742 12:0.842668 13:1.661236 14:2.053527 15:0.553909 16:0.266987 17:-0.073614 18:-0.398531 
1099511627776.000000 1:0.436681 2:0.109065 3:-0.481761 4:-0.516694 5:-0.291236 6:-0.283975 7:-0.094181 8:0.434672 9:-0.384762 10:0.928555 11:0.585472 12:0.279162 13:0.005732 14:-0.334176 15:-0.755825 16:-0.890725 17:-0.505231 18:-0.788366 
1099511627776.000000 1:0.461093 2:0.954158 3:1.106495 4:0.777118 5:0.658940 6:0.755013 7:1.040850 8:1.480711 9:1.547045 10:0.006263 11:0.483467 12:1.064655 13:1.445727 14:1.550853 15:1.526288 16:0.131780 17:0.232695 18:0.067993 
1099511627776.000000 1:0.374540 2:0.393371 3:0.362628 4:0.277016 5:0.170181 6:0.204438 7:-0.482890 8:-0.778126 9:-0.432697 10:0.667529 11:0.706023 12:0.919510 13:1.259605 14:0.828258 15:0.137176 16:-0.307644 17:-0.449539 18:-0.820320 
1099511627776.000000 1:0.410049 2:0.878517 3:0.329121 4:0.160864 5:0.177016 6:0.177797 7:0.304894 8:0.010193 9:-0.130703 10:-0.141652 11:0.001263 12:0.134017 13:0.662056 14:0.807314 15:1.387377 16:0.985276 17:0.949737 18:0.195808 
1099511627776.000000 1:-2.335231 2:-2.201902 3:-2.254310 4:-2.065396 5:-1.860050 6:-2.188788 7:-2.317597 8:-2.278965 9:-2.211110 10:-1.577294 11:-1.222794 12:-0.890539 13:-0.650592 14:-0.512206 15:-0.398625 16:-0.358346 17:-1.194427 18:-0.398531 
1099511627776.000000 1:1.004823 2:1.168040 3:0.999271 4:0.931989 5:0.734134 6:0.564088 7:0.133862 8:-0.287954 9:-0.341619 10:0.684931 11:0.650384 12:0.082789 13:0.221241 14:-0.093311 15:-0.110880 16:-0.594959 17:-0.630539 18:-0.641379 
1099511627776.000000 1:1.111350 2:0.688110 3:0.252053 4:-0.239218 5:-0.123759 6:0.088995 7:0.221969 8:0.055673 9:0.065834 10:0.423905 11:0.335097 12:0.125479 13:-0.111819 14:-0.239925 15:-0.825281 16:-0.594959 17:-0.936849 18:-1.024824 
1099511627776.000000 1:-1.438632 2:-1.035985 3:-0.625844 4:-0.513467 5:-0.140848 6:0.630690 7:1.600591 8:2.001204 9:1.499110 10:-0.098147 11:0.622565 12:1.397636 13:2.670212 14:2.933207 15:1.030177 16:0.334591 17:-0.679270 18:-1.012042 
1099511627776.000000 1:0.800647 2:0.828959 3:0.647442 4:0.673871 5:0.734134 6:0.852696 7:0.646958 8:0.803565 9:0.660236 10:0.658828 11:0.205273 12:0.040099 13:0.133078 14:-0.145673 15:-0.339092 16:-0.197788 17:-0.379923 18:-0.897009 
1099511627776.000000 1:-0.140338 2:0.309905 3:0.758017 4:0.493189 5:0.409433 6:0.581849 7:0.543302 8:0.444779 9:0.463700 10:0.362998 11:0.400009 12:0.082789 13:-0.151002 14:-0.145673 15:-0.894737 16:-1.423103 17:-0.219807 18:0.528127 
325107017032.463810 1:1.153516 2:0.281213 3:0.164934 4:0.609342 5:1.058834 6:1.216786 7:1.004570 8:0.232539 9:0.200053 10:0.571819 11:0.103268 12:-0.275805 13:-0.337124 14:-0.397010 15:-0.884814 16:-0.299193 17:-0.748886 18:-0.666942 
1099511627776.000000 1:0.145952 2:-0.355215 3:-1.108352 4:-1.158760 5:-1.251665 6:-1.163120 7:-0.913061 8:-0.479980 9:-0.705930 10:1.259188 11:1.058403 12:0.279162 13:-0.102023 14:-0.334176 15:-0.745903 16:-0.806220 17:-1.452005 18:-1.612772 
1099511627776.000000 1:-0.937069 2:-1.101193 3:-1.101651 4:-0.797396 5:-0.311743 6:-0.585904 7:-0.938975 8:-0.924673 9:-0.480633 10:-0.968234 11:-0.777682 12:-0.753931 13:-0.591817 14:-0.239925 15:-0.100958 16:-0.527355 17:-1.006464 18:-1.024824 
1099511627776.000000 1:1.182367 2:0.912425 3:0.959062 4:0.380263 5:0.539314 6:0.839376 7:0.450012 8:0.464992 9:0.535603 10:-0.785516 11:-0.582946 12:-0.284343 13:0.142874 14:0.650228 15:0.821810 16:0.486699 17:0.351042 18:0.413093 
1099511627776.000000 1:0.287987 2:0.135148 3:-0.347731 4:-0.665111 5:-1.032919 6:-1.158680 7:-1.327684 8:-1.207659 9:-1.142145 10:-0.628900 11:-0.499487 12:-0.327033 13:-0.307736 14:-0.459845 15:-0.597070 16:-1.262545 17:-1.507697 18:-1.254890 
1099511627776.000000 1:1.049209 2:0.573345 3:0.352576 4:0.473831 5:0.635015 6:0.803855 7:0.735065 8:0.945058 9:0.688997 10:-0.454883 11:-0.388209 12:-0.617324 13:-0.719163 14:-0.826378 15:-0.815359 16:-0.442851 17:-0.017921 18:0.866836 
1099511627776.000000 1:1.375447 2:0.883734 3:0.422942 4:0.109240 5:0.108658 6:0.382043 7:0.351539 8:0.414459 9:0.219228 10:-0.559293 11:-0.582946 12:-0.438027 13:-0.699572 14:-0.711182 15:-0.031502 16:-0.214689 17:-0.936849 18:-1.491348 
1099511627776.000000 1:0.867226 2:1.040233 3:1.488481 4:1.632131 5:1.123774 6:0.897097 7:1.061581 8:0.934952 9:0.497254 10:-0.002438 11:-0.054376 12:-0.250191 13:-0.180390 14:-0.239925 15:0.137176 16:0.689510 17:1.033276 18:0.809319 
1099511627776.000000 1:0.010574 2:0.257739 3:0.747965 4:0.641607 5:0.228285 6:-0.017568 7:0.481109 8:0.838939 9:0.880740 10:-0.950832 11:-0.462395 12:-0.327033 13:-0.239165 14:-0.218980 15:-0.547458 16:-0.890725 17:-0.414731 18:0.432265 
1099511627776.000000 1:-1.034718 2:-1.309858 3:-1.239032 4:-0.907096 5:-0.909875 6:-0.799030 7:-0.736847 8:-0.373860 9:-0.336826 10:-0.089447 11:0.001263 12:-0.002590 13:-0.004064 14:0.147554 15:0.514221 16:0.765564 17:-0.233730 18:-0.015087 
1099511627776.000000 1:1.202341 2:0.753318 3:0.282210 4:0.202808 5:-0.089580 6:-0.528182 7:-0.379234 8:-0.586100 9:-0.681963 10:1.015563 11:0.529833 12:-0.079432 13:-0.405695 14:-0.753071 15:-0.835203 16:-0.814671 17:-1.020387 18:-0.730850 
1099511627776.000000 1:0.487725 2:0.312513 3:0.359277 4:0.480284 5:0.864014 6:1.287828 7:1.595408 8:1.061285 9:0.262370 10:0.215084 11:0.233092 12:0.040099 13:0.280017 14:0.807314 15:1.466755 16:1.796519 17:-0.226768 18:-0.034259 
1099511627776.000000 1:0.319058 2:-0.138725 3:-0.210351 4:-0.100480 5:0.074479 6:0.231079 7:0.605496 8:0.495312 9:0.434938 10:-0.872524 11:-0.824048 12:-0.685628 13:-0.533042 14:-0.627403 15:-0.497847 16:-1.135788 17:-1.521620 18:-1.414659 
1099511627776.000000 1:0.649734 2:1.308889 3:0.677599 4:0.196355 5:-0.410862 6:-0.648066 7:-0.902696 8:-1.197553 9:-1.353062 10:0.606623 11:-0.416029 12:-0.762469 13:-0.885693 14:-0.627403 15:-0.587147 16:-0.738617 17:-0.184999 18:-0.507174 
1099511627776.000000 1:0.574278 2:0.322946 3:0.379382 4:0.418981 5:0.655522 6:1.012541 7:0.740248 8:0.515526 9:0.540397 10:-1.646901 11:-1.241340 12:-0.617324 13:0.015528 14:0.220860 15:0.325698 16:-0.451301 17:-0.895079 18:-0.654161 
1099511627776.000000 1:0.789550 2:0.901992 3:1.361153 4:0.857780 5:0.614507 6:0.666211 7:0.880183 8:1.091605 9:1.067689 10:0.206383 11:-0.230566 12:-0.327033 13:-0.170594 14:0.220860 15:0.504298 16:0.326140 17:-0.233730 18:-1.139857 
1099511627776.000000 1:-1.858081 2:-1.450707 3:-1.105002 4:-1.042607 5:-1.166217 6:-1.491689 7:-1.763039 8:-1.586659 9:-1.453727 10:-0.072045 11:0.260912 12:-0.087970 13:-0.190186 14:-0.198035 15:0.028031 16:0.114879 17:-0.386884 18:-1.433831 
1099511627776.000000 1:1.109130 2:1.460171 3:0.979167 4:0.757760 5:0.552985 6:0.368723 7:0.932011 8:0.404352 9:0.712965 10:0.824144 11:0.084722 12:-0.318495 13:-0.542837 14:-0.637875 15:-0.606992 16:-0.535806 17:-0.157153 18:-0.475220 
1099511627776.000000 1:0.170364 2:0.072548 3:0.040956 4:0.131826 5:0.214613 6:0.319881 7:0.486292 8:1.061285 9:0.919088 10:2.007462 11:2.217548 12:1.687927 13:1.465318 14:1.111013 15:0.206631 16:0.131780 17:0.636466 18:0.080775 
1099511627776.000000 1:0.434462 2:0.695935 3:0.999271 4:0.593210 5:0.218031 6:0.097875 7:-0.171923 8:-0.823606 9:-0.907260 10:-1.559893 11:-1.463896 12:-1.232057 13:-1.336304 14:-1.360469 15:-1.688515 16:-1.769572 17:-1.368466 18:-0.379359 
1099511627776.000000 1:0.208092 2:1.066316 3:1.485130 4:0.815836 5:0.228285 6:-0.061969 7:-0.581363 8:-0.672007 9:-0.547743 10:0.101973 11:-0.508760 12:-0.549020 13:-0.552633 14:-0.166618 15:-0.001736 16:0.959924 17:0.852275 18:1.243890 
1099511627776.000000 1:0.964876 2:0.802876 3:0.583778 4:0.644833 5:0.375254 6:0.515247 7:0.631410 8:0.975378 9:1.211496 10:-1.264063 11:-1.055877 12:-0.788083 13:-0.679980 14:-0.501734 15:-1.073337 16:-1.507608 17:-1.535544 18:-1.695852 
175211453758.033540 1:0.310181 2:0.080373 3:0.027553 4:0.280243 5:0.631597 6:0.648450 7:0.201238 8:-0.237420 9:-0.471046 10:2.024864 11:2.829576 12:2.755172 13:3.424495 14:2.681870 15:2.111700 16:1.864123 17:1.785126 18:1.473956 
1099511627776.000000 1:0.991507 2:0.581170 3:0.288912 4:0.241525 5:0.419687 6:0.746133 7:0.657324 8:0.717659 9:0.377415 10:-0.124250 11:0.103268 12:-0.011128 13:-0.229369 14:-0.732126 15:-0.874892 16:-0.645662 17:-0.581808 18:-0.692505 
1099511627776.000000 1:1.422052 2:1.444522 3:1.052883 4:0.680324 5:0.552985 6:0.866016 7:1.274075 8:1.379645 9:0.712965 10:-0.176455 11:-0.119288 12:0.091327 13:0.123283 14:-0.166618 15:-0.626836 16:-0.755518 17:-0.630539 18:-0.289888 
1099511627776.000000 1:0.765138 2:0.868084 3:1.220421 4:1.090085 5:1.062252 6:1.851724 7:2.699342 8:2.299350 9:1.940118 10:1.494111 11:1.651885 12:1.209801 13:1.171442 14:1.299516 15:1.516366 16:0.723312 17:-0.428654 18:-0.085385 
1099511627776.000000 1:1.282236 2:1.165432 3:0.365979 4:0.283469 5:0.224867 6:-0.084170 7:-0.239299 8:-0.070661 9:-0.077973 10:0.972059 11:0.798755 12:0.723137 13:0.965728 14:1.006289 15:1.059943 16:0.495149 17:0.392811 18:0.393921 
1099511627776.000000 1:-0.100391 2:-0.104817 3:-0.059567 4:-0.287615 5:-0.725309 6:-0.608104 7:-0.685019 8:-0.803393 9:-0.825770 10:-0.141652 11:-0.388209 12:-0.455103 13:-0.728959 14:-1.098660 15:-1.251937 16:-1.676617 17:-1.333658 18:-0.986479 
1099511627776.000000 1:-2.364082 2:-2.243635 3:-2.321325 4:-2.207361 5:-2.092467 6:-2.250950 7:-2.312414 8:-2.213272 9:-2.167968 10:-0.367874 11:-0.555126 12:-0.625862 13:-0.679980 14:-0.449372 15:-0.339092 16:0.596555 17:-0.310307 18:0.445047 
1099511627776.000000 1:0.702998 2:1.113266 3:1.847012 4:1.722472 5:1.885965 6:2.983955 7:3.632244 8:4.169082 9:5.319581 10:-0.507088 11:-0.499487 12:-0.591710 13:-0.650592 14:-1.014881 15:-1.043570 16:-1.076635 17:-0.595732 18:-0.309061 
1099511627776.000000 1:0.705217 2:1.655795 3:1.518638 4:0.954574 5:0.112076 6:-0.181853 7:-0.431062 8:-0.515353 9:-0.864118 10:1.868248 11:1.067676 12:0.834130 13:1.112667 14:1.247154 15:1.933100 16:1.619060 17:-0.178037 18:-0.398531 
1099511627776.000000 1:-0.934850 2:-1.129885 3:-1.155263 4:-0.939361 5:-0.585175 6:-0.399419 7:-0.197837 8:0.298232 9:0.291131 10:0.763238 11:0.585472 12:0.834130 13:1.200830 14:1.048178 15:0.653132 16:0.334591 17:1.047199 18:0.592034 
1099511627776.000000 1:1.262262 2:0.894167 3:0.707756 4:-0.213406 5:-0.427951 6:-0.466020 7:-0.218568 8:-0.247527 9:-0.207400 10:-1.072644 11:-0.926053 12:-0.617324 13:-0.474266 14:0.053302 15:0.752354 16:-0.087932 17:-0.672309 18:-1.005652 
1099511627776.000000 1:0.343470 2:0.961983 3:1.129951 4:0.622248 5:0.341075 6:0.000192 7:-0.099364 8:-0.267740 9:-0.087560 10:0.728435 11:0.539106 12:0.031561 13:-0.337124 14:-0.543624 15:-0.666525 16:-0.493554 17:-0.797617 18:-0.756413 
1099511627776.000000 1:-1.205605 2:-1.163793 3:-0.964270 4:-0.610261 5:-0.229713 6:-0.053089 7:-0.026804 8:0.262859 9:0.267163 10:-1.255362 11:-1.139335 12:-0.847849 13:-0.728959 14:-0.732126 15:-0.597070 16:-0.206238 17:-0.505231 18:-0.781976 
1099511627776.000000 1:-0.038250 2:0.056898 3:-0.079671 4:-0.232765 5:-0.451877 6:-0.394979 7:-0.192654 8:0.222432 9:0.511635 10:-0.820319 11:-0.091468 12:0.569453 13:0.720831 14:0.220860 15:0.057798 16:-0.020328 17:1.151623 18:0.432265 
1099511627776.000000 1:0.489944 2:0.518570 3:0.915502 4:0.696457 5:0.173599 6:0.120076 7:0.118314 8:-0.429447 9:-0.130703 10:0.058468 11:0.483467 12:-0.156274 13:-0.346920 14:-0.449372 15:-0.864970 16:-1.169590 17:-0.435615 18:0.445047 
1099511627776.000000 1:1.144639 2:0.732452 3:0.319068 4:0.438340 5:0.365001 6:0.111196 7:0.450012 8:0.783352 9:0.727346 10:-0.802917 11:-0.759136 12:-0.788083 13:-0.768143 14:-0.962519 15:-1.182481 16:-1.228743 17:-0.665347 18:0.163854 
1099511627776.000000 1:1.293333 2:0.941117 3:0.282210 4:0.109240 5:0.194106 6:0.461965 7:0.351539 8:0.288126 9:0.300718 10:-0.872524 11:-1.306252 12:-1.180830 13:-1.150182 14:-1.098660 15:-1.321393 16:-1.642815 17:-1.340620 18:-1.012042 
1099511627776.000000 1:-1.860300 2:-1.797613 3:-1.744995 4:-1.645956 5:-1.494335 6:-1.469488 7:-1.369147 8:-1.232926 9:-1.051067 10:-0.463584 11:-0.184200 12:0.074251 13:0.436751 14:0.430308 15:-0.319247 16:-0.611860 17:-0.867233 18:-0.718068 
1099511627776.000000 1:1.539676 2:1.066316 3:0.979167 4:1.141709 5:1.465564 6:1.589757 7:1.108226 8:0.899578 9:1.211496 10:1.807342 11:1.141862 12:0.757288 13:0.593485 14:0.775896 15:0.990488 16:1.390898 17:1.276931 18:1.525082 
1099511627776.000000 1:-1.119052 2:-1.114235 3:-0.830240 4:-0.568317 5:-0.239967 6:0.000192 7:0.465560 8:0.985485 9:1.096450 10:-1.229260 11:-1.046604 12:-0.924691 13:-0.807326 14:-0.470317 15:-0.587147 16:0.038825 17:0.525081 18:-0.257935 
1099511627776.000000 1:1.162394 2:0.722019 3:0.141479 4:-0.194047 5:-0.304907 6:-0.297296 7:-0.508804 8:-0.313220 9:-0.538156 10:0.014964 11:0.325824 12:0.347466 13:0.123283 14:0.220860 15:-0.259714 16:-0.594959 17:-0.129306 18:0.451438 
1099511627776.000000 1:1.299991 2:0.961983 3:0.717808 4:0.599663 5:0.402598 6:0.475286 7:0.356722 8:0.566059 9:0.372622 10:-0.098147 11:0.093995 12:0.441384 13:1.191034 14:1.236681 15:0.762276 16:0.799366 17:1.478817 18:0.834882 
1099511627776.000000 1:-2.352986 2:-2.230593 3:-2.328026 4:-2.207361 5:-2.092467 6:-2.250950 7:-2.374608 8:-2.359818 9:-2.354917 10:-1.568594 11:-0.666404 12:0.108403 13:0.867770 14:0.283695 15:-0.349014 16:-0.206238 17:0.907968 18:1.620943 
1099511627776.000000 1:0.707436 2:0.278605 3:-0.300821 4:-0.261803 5:-0.092997 6:0.333202 7:0.102765 8:-0.010021 9:-0.202606 10:1.963958 11:1.308778 12:1.158573 13:1.582869 14:2.095417 15:2.240689 16:2.438754 17:2.390782 18:2.157766 
1099511627776.000000 1:0.350128 2:0.930684 3:0.831734 4:0.335093 5:-0.212624 6:0.026833 7:0.128679 8:0.096099 9:-0.279303 10:-0.820319 11:-1.083696 12:-0.924691 13:-1.062019 14:-0.899685 15:-0.567303 16:-0.687914 17:-1.716544 18:-1.695852 
1099511627776.000000 1:1.493070 2:1.462780 3:1.247227 4:0.515775 5:0.214613 6:0.057914 7:0.061303 8:-0.166674 9:-0.001276 10:-1.551192 11:-1.176428 12:-1.035684 13:-1.091407 14:-1.234801 15:-1.103104 16:-1.059734 17:-1.988046 18:-2.136813 
1099511627776.000000 1:1.086937 2:0.735060 3:0.556972 4:0.144731 5:0.433359 6:1.221226 7:1.590226 8:1.207831 9:0.780075 10:-0.663704 11:-0.527307 12:-0.139198 13:0.338792 14:0.105664 15:-0.309325 16:-1.161139 17:-0.839387 18:-0.488001 
1099511627776.000000 1:1.470877 2:1.209773 3:0.825032 4:0.441566 5:0.235121 6:0.000192 7:-0.254847 8:-0.520407 9:-0.763453 10:-0.098147 11:-0.397483 12:-0.489254 13:-0.719163 14:-0.763544 15:-0.745903 16:-1.076635 17:-0.825463 18:-0.999261 
1099511627776.000000 1:0.041645 2:0.242089 3:0.272158 4:0.254431 5:0.566657 6:1.403271 7:3.145062 8:3.496989 9:3.545962 10:0.006263 11:-0.054376 12:0.142555 13:0.338792 14:0.807314 15:1.724733 16:1.619060 17:0.469389 18:0.828491 
1099511627776.000000 1:0.918270 2:0.690719 3:0.677599 4:0.451245 5:-0.045147 6:-0.235134 7:-0.239299 8:0.207273 9:-0.087560 10:-0.924730 11:-0.276932 12:-0.011128 13:0.152670 14:0.032357 15:0.037953 16:0.554303 17:0.796583 18:1.716805 
1099511627776.000000 1:1.040332 2:1.061099 3:1.140003 4:0.506095 5:0.002704 6:-0.150772 7:-0.073450 8:0.040513 9:0.478080 10:-0.254763 11:-0.239839 12:-0.523406 13:-0.807326 14:-0.658820 15:-1.043570 16:-0.485103 17:-0.191960 18:0.074384 
1099511627776.000000 1:-1.294377 2:-1.210742 3:-0.994427 4:-1.071646 5:-1.104695 6:-1.056557 7:-1.078911 8:-0.752860 9:-0.763453 10:-0.385276 11:-0.267658 12:-0.352647 13:-0.258757 14:-0.093311 15:-0.249791 16:0.343041 17:0.316234 18:0.802928 
1099511627776.000000 1:0.975972 2:0.620294 3:0.436345 4:0.583530 5:0.901611 6:1.261187 7:1.455473 8:1.450391 9:1.134799 10:0.154178 11:0.186726 12:0.262086 13:0.583689 14:0.974872 15:1.159166 16:0.224735 17:-0.832425 18:-0.341014 
1099511627776.000000 1:0.742945 2:1.128916 3:0.496658 4:0.125373 5:-0.113505 6:0.271040 7:0.439646 8:0.859152 9:0.655442 10:-0.393977 11:-0.360390 12:-0.301419 13:-0.121615 14:0.357001 15:0.821810 16:1.357096 17:1.868664 18:2.023560 
1099511627776.000000 1:0.567620 2:0.153406 3:-0.200298 4:-0.381182 5:-0.592011 6:-0.523742 7:0.030206 8:0.576165 9:1.091657 10:-0.959533 11:-0.722043 12:-0.642938 13:-0.454675 14:-0.208507 15:0.305854 16:0.993726 17:0.406735 18:-0.296279 
671851158113.675050 1:0.689682 2:0.766360 3:0.640741 4:0.631927 5:0.511970 6:0.781654 7:1.299989 8:1.940564 9:2.218144 10:0.798042 11:0.808028 12:0.373080 13:0.348588 14:0.283695 15:0.921032 16:1.162735 17:1.158584 18:-0.155683 
1099511627776.000000 1:-2.080011 2:-1.875862 3:-1.852219 4:-1.871809 5:-1.750678 6:-1.682614 7:-1.483168 8:-1.354206 9:-1.170906 10:-0.124250 11:-0.360390 12:-0.446565 13:-0.337124 14:-0.061894 15:-0.497847 16:0.064176 17:-0.178037 18:0.234152 
66803186485.757584 1:0.620883 2:1.611454 3:1.867116 4:1.241729 5:0.969969 6:0.293241 7:-0.275578 8:-0.444607 9:-0.495014 10:-0.829020 11:-1.083696 12:-1.018608 13:-0.875897 14:-1.025353 15:-1.251937 16:-1.245644 17:-0.734963 18:-0.155683 
1099511627776.000000 1:0.141513 2:0.500312 3:0.962413 4:0.757760 5:0.388926 6:0.142276 7:0.527754 8:0.692392 9:0.597919 10:1.485410 11:1.494242 12:0.817054 13:0.730627 14:0.817786 15:0.444765 16:0.283888 17:-0.184999 18:-0.628598 
1099511627776.000000 1:-0.053786 2:-0.235233 3:-0.374537 4:-0.323106 5:-0.239967 6:-0.168532 7:0.076851 8:-0.035287 9:0.300718 10:0.171579 11:0.186726 12:0.159631 13:0.358384 14:1.048178 15:0.901188 16:0.926123 17:1.590202 18:1.122466 
1099511627776.000000 1:0.172584 2:0.312513 3:0.329121 4:-0.003686 5:-0.089580 6:-0.150772 7:0.040572 8:-0.217207 9:-0.025244 10:-0.341772 11:-0.527307 12:-0.617324 13:-0.915081 14:-0.889212 15:-0.696292 16:-0.417499 17:0.358004 18:-0.481611 
1099511627776.000000 1:-2.295284 2:-2.204510 3:-2.271064 4:-2.162190 5:-2.051453 6:-2.153267 7:-2.188027 8:-2.102098 9:-2.048129 10:-0.829020 11:-0.545853 12:-0.369723 13:-0.288145 14:-0.093311 15:0.504298 16:0.081077 17:0.622543 18:0.464219 
1099511627776.000000 1:-0.417752 2:-0.037001 3:0.325770 4:0.035032 5:-0.219460 6:-0.341697 7:-0.109729 8:0.040513 9:0.128150 10:0.180280 11:0.223819 12:0.176707 13:0.358384 14:1.215736 15:1.694966 16:1.044429 17:0.378888 18:0.636769 
1099511627776.000000 1:-0.743989 2:-0.394340 3:0.030904 4:0.122146 5:-0.014386 6:-0.030888 7:-0.301492 8:-0.656847 9:-0.974370 10:0.885050 11:1.021311 12:0.612143 13:0.407363 14:0.210388 15:-0.368858 16:-0.282292 17:0.177003 18:0.406702 
1099511627776.000000 1:0.778454 2:1.807077 3:1.428168 4:0.941668 5:0.453866 6:0.124516 7:-0.462159 8:-0.798340 9:-0.945609 10:0.876350 11:0.149634 12:-0.062356 13:-0.043247 14:0.419836 15:0.861499 16:0.435996 17:-0.164114 18:-0.481611 
1099511627776.000000 1:1.144639 2:0.894167 3:0.292262 4:-0.113386 5:-0.301489 6:-0.568143 7:-0.467342 8:-0.207100 9:-0.125909 10:0.571819 11:0.854394 12:0.415770 13:0.613077 14:1.048178 15:1.278233 16:2.100736 17:1.527548 18:1.442003 
1099511627776.000000 1:-0.315664 2:-0.496064 3:0.037605 4:0.057617 5:0.122330 6:0.595169 7:0.911280 8:0.823779 9:0.990992 10:-1.090046 11:-0.805501 12:-0.711242 13:-0.523246 14:-0.910157 15:-0.120802 16:0.579654 17:0.984545 18:1.020214 
1099511627776.000000 1:1.015920 2:0.664636 3:0.493308 4:0.164090 5:-0.031475 6:-0.119691 7:0.548485 8:1.046125 9:1.034134 10:-1.133550 11:-0.749863 12:-0.412413 13:-0.317532 14:-0.344648 15:-0.775670 16:-1.440004 17:-1.396312 18:-1.542474 
1099511627776.000000 1:-1.682755 2:-1.680239 3:-1.791906 4:-1.787921 5:-1.713081 6:-1.762536 7:-1.623103 8:-1.510859 9:-1.563979 10:-0.794217 11:-0.443848 12:-0.335571 13:-0.337124 14:-0.376065 15:-0.081113 16:0.157131 17:-0.073614 18:-0.519955 
1099511627776.000000 1:0.023890 2:1.204557 3:1.599056 4:0.609342 5:-0.198952 6:-0.497101 7:-0.519169 8:0.333606 9:0.693791 10:0.241186 11:-0.045103 12:-0.070894 13:-0.033452 14:0.241805 15:0.424920 16:0.385294 17:0.093464 18:0.617597 
1099511627776.000000 1:0.347909 2:0.980242 3:1.227122 4:1.012650 5:1.116938 6:0.923738 7:0.356722 8:-0.293007 9:-0.063593 10:1.267888 11:1.002764 12:0.577991 13:0.250629 14:-0.166618 15:-0.100958 16:0.478249 17:0.170041 18:-0.213200 
647375216783.245000 1:1.126885 2:0.855043 3:0.617285 4:0.848101 5:1.349355 6:1.243427 7:1.030484 8:0.899578 9:1.523077 10:0.223785 11:-0.017283 12:-0.002590 13:0.407363 14:0.817786 15:0.573754 16:1.069780 17:1.423124 18:1.486738 
1099511627776.000000 1:1.415394 2:1.196732 3:0.928905 4:0.580304 5:0.566657 6:0.959259 7:1.191151 8:1.374591 9:1.374477 10:-0.533191 11:-0.935326 12:-0.771007 13:-0.513450 14:0.042830 15:0.514221 16:-0.206238 17:-0.964695 18:-1.325189 
1099511627776.000000 1:-0.453260 2:-0.621263 3:-0.548777 4:-0.300521 5:-0.137430 6:0.004633 7:0.481109 8:1.394805 9:1.403238 10:-1.020439 11:-1.009511 12:-0.847849 13:-0.660388 14:-0.281814 15:-0.110880 16:-0.096382 17:0.267503 18:1.525082 
1099511627776.000000 1:-0.195821 2:-0.396948 3:-0.612441 4:-0.423126 5:-0.202370 6:-0.124131 7:-0.327406 8:-0.252580 9:-0.006070 10:2.512112 11:2.301006 12:1.747692 13:1.416339 14:0.315112 15:-0.478003 16:-0.324545 17:-0.553962 18:-1.248500 
1099511627776.000000 1:0.782893 2:1.470605 3:1.240525 4:0.548039 5:-0.390355 6:-0.421619 7:-0.420696 8:-0.505247 9:-0.562123 10:-0.202558 11:-0.416029 12:-0.685628 13:-0.973856 14:-1.329052 15:-1.400771 16:-1.203392 17:-1.110888 18:-0.973698 
1099511627776.000000 1:0.793989 2:1.298456 3:0.680950 4:0.409301 5:0.033465 6:-0.301736 7:-0.192654 8:-0.373860 9:-0.240955 10:-0.872524 11:-0.861140 12:-0.583172 13:-0.582021 14:-0.595985 15:-0.884814 16:-1.135788 17:-0.860271 18:-0.168464 
1099511627776.000000 1:-2.242020 2:-2.141910 3:-2.157138 4:-2.049264 5:-1.945498 6:-2.042264 7:-2.011812 8:-1.783739 9:-1.525630 10:0.075870 11:0.279458 12:0.151093 13:-0.121615 14:-0.480789 15:-0.676448 16:-0.485103 17:-0.721040 18:-0.066212 
1099511627776.000000 1:0.503260 2:1.217598 3:0.687651 4:0.347999 5:-0.287818 6:-0.479341 7:-0.327406 8:-0.191940 9:-0.135496 10:2.642625 11:1.364417 12:0.663371 13:0.485730 14:0.409363 15:0.940877 16:0.292339 17:0.608620 18:1.109684 
762481424277.468630 1:0.418926 2:0.385546 3:0.603882 4:0.638380 5:1.168207 6:3.112719 7:4.093512 8:1.667684 9:0.013104 10:-1.342371 11:-1.102243 12:-1.069836 13:-1.228549 14:-1.590862 15:-1.877038 16:-2.006185 17:-2.203854 18:-1.925918 
1099511627776.000000 1:-2.002335 2:-1.870646 3:-1.554002 4:-1.429783 5:-1.244829 6:-0.967754 7:-0.726481 8:-0.778126 9:-0.753866 10:0.128075 11:-0.378936 12:-0.480717 13:-0.366512 14:-0.135201 15:0.325698 16:1.382447 17:0.448504 18:2.093858 
1099511627776.000000 1:1.162394 2:1.149782 3:0.845137 4:0.809383 5:0.870850 6:0.910418 7:1.439925 8:0.929898 9:0.760901 10:0.815443 11:0.613292 12:0.245011 13:-0.033452 14:0.304639 15:0.950799 16:0.005023 17:0.030810 18:-0.206809 
1099511627776.000000 1:1.455342 2:0.969808 3:0.238650 4:0.264111 5:0.262464 6:0.239959 7:0.294528 8:0.535739 9:0.123356 10:-1.211858 11:-0.963145 12:-0.728318 13:-0.719163 14:-0.711182 15:-0.666525 16:-1.693518 17:-1.138734 18:-0.660551 
1099511627776.000000 1:-0.428848 2:-0.464764 3:0.014150 4:-0.516694 5:-0.704801 6:-0.434940 7:-0.441428 8:-0.318274 9:-0.308064 10:0.371699 11:1.373690 12:0.859744 13:0.573893 14:0.053302 15:-0.021580 16:0.292339 17:0.358004 18:1.243890 
1099511627776.000000 1:-2.075572 2:-1.982803 3:-2.023108 4:-2.013773 5:-1.883976 6:-1.949022 7:-1.965167 8:-1.869645 9:-1.808450 10:-0.550592 11:-0.406756 12:-0.455103 13:-0.611409 14:-0.658820 15:-0.745903 16:-0.831572 17:-1.027349 18:-1.529692 
-1099511627776.000000 1:-1.387588 2:-1.192484 3:-0.950867 4:-0.865152 5:-0.732144 6:-0.621425 7:-0.653922 8:-0.399127 9:-0.346413 10:-1.124849 11:-0.935326 12:-0.745393 13:-0.572225 14:-0.397010 15:-0.339092 16:-0.637211 17:-0.491308 18:-0.277107 
-1099511627776.000000 1:-1.103517 2:-1.015119 3:-0.783329 4:-0.736093 5:-0.756070 6:-0.590344 7:-0.524352 8:-0.459767 9:-0.509394 10:0.763238 11:0.529833 12:0.646295 13:0.632668 14:1.016761 15:0.772199 16:-0.400599 17:-1.055195 18:-0.884227 
-1099511627776.000000 1:1.544114 2:1.102832 3:0.865241 4:0.893271 5:1.093013 6:1.238987 7:1.305172 8:1.228045 9:1.024547 10:1.650727 11:1.744617 12:2.020907 13:2.082459 14:2.304864 15:1.198855 16:0.740213 17:0.664313 18:0.413093 
-870494331079.570310 1:0.833937 2:0.682894 3:0.362628 4:0.225393 5:0.259046 6:0.515247 7:0.372270 8:0.687339 9:0.257576 10:-0.246062 11:-0.221293 12:-0.275805 13:-0.102023 14:0.116136 15:-0.239869 16:0.241636 17:0.100426 18:0.841273 
-1099511627776.000000 1:1.464219 2:1.061099 3:0.590479 4:0.251205 5:-0.140848 6:-0.430500 7:-0.503621 8:-0.692220 9:-0.562123 10:-0.715909 11:-0.786955 12:-1.001532 13:-1.316712 14:-1.559445 15:-1.341237 16:-1.068184 17:-0.783694 18:-1.389096 
-1099511627776.000000 1:1.151297 2:1.376705 3:1.706280 4:1.190106 5:0.949461 6:0.919298 7:0.880183 8:1.147192 9:1.230670 10:0.397802 11:-0.035829 12:-0.241653 13:-0.258757 14:-0.428427 15:-0.557381 16:-0.671013 17:-0.721040 18:-0.168464 
-1030995110039.776400 1:-0.630805 2:-0.957736 3:-1.265838 4:-1.242648 5:-1.094441 6:-1.069877 7:-0.902696 8:-0.348594 9:-0.322445 10:2.921053 11:3.089225 12:2.072135 13:1.367360 14:0.597866 15:0.147098 16:-0.561157 17:-0.567885 18:-0.801148 
-1099511627776.000000 1:-2.102204 2:-1.938462 3:-1.912533 4:-1.781468 5:-1.637887 6:-1.713695 7:-1.654200 8:-1.955552 9:-1.981019 10:0.267289 11:0.400009 12:0.577991 13:1.093075 14:1.320460 15:1.853722 16:1.610609 17:0.887083 18:0.662332 
-1099511627776.000000 1:0.536550 2:0.367288 3:0.352576 4:0.283469 5:0.166763 6:0.231079 7:0.164959 8:0.247699 9:0.708171 10:0.223785 11:0.325824 12:0.168169 13:0.436751 14:0.555976 15:-0.021580 16:-0.518905 17:-0.728001 18:-0.622207 
-1099511627776.000000 1:-1.172315 2:-1.262909 3:-1.490338 4:-1.387839 5:-1.320023 6:-1.460608 7:-1.477985 8:-1.460326 9:-1.477694 10:-1.786115 11:-1.649359 12:-1.385741 13:-1.395079 14:-1.360469 15:-1.470226 16:-1.380851 17:-1.034311 18:-0.539127 
-1099511627776.000000 1:1.319964 2:1.668837 3:1.847012 4:1.664396 5:1.677473 6:1.731841 7:1.585043 8:0.803565 9:1.110831 10:-1.481585 11:-0.295478 12:0.424308 13:0.671852 14:1.435656 15:1.446910 16:-0.299193 17:-1.584275 18:-1.146248 
-4342556684.594241 1:0.243601 2:1.629712 3:1.307541 4:-0.110159 5:-0.407444 6:-0.581464 7:-0.399965 8:-0.485033 9:-0.552536 10:-0.628900 11:-0.731316 12:-0.327033 13:0.211445 14:0.891093 15:0.861499 16:0.486699 17:0.810506 18:0.061602 
-1099511627776.000000 1:0.092689 2:-0.005701 3:-0.431500 4:-0.400541 5:-0.308325 6:-0.013128 7:-0.016439 8:-0.479980 9:-0.332032 10:0.771939 11:0.557653 12:0.219397 13:0.211445 14:0.147554 15:0.067720 16:0.393744 17:0.058656 18:0.496173 
-1099511627776.000000 1:0.172584 2:0.515962 3:0.848487 4:0.715816 5:0.511970 6:0.355402 7:0.398184 8:0.298232 9:0.712965 10:1.763838 11:1.225320 12:0.646295 13:0.720831 14:0.943455 15:0.930954 16:0.613456 17:1.444009 18:1.109684 
-1099511627776.000000 1:0.891638 2:0.969808 3:0.855189 4:0.609342 5:0.662358 6:0.537447 7:0.382636 8:1.000645 9:0.914295 10:-0.811618 11:-0.647858 12:-0.361185 13:-0.043247 14:0.315112 15:-0.110880 16:0.148681 17:0.901006 18:1.461175 
-1099511627776.000000 1:-1.813694 2:-1.643722 3:-1.540599 4:-1.429783 5:-1.292679 6:-1.185320 7:-1.094459 8:-0.904460 9:-0.936022 10:-0.646302 11:-0.508760 12:-0.352647 13:-0.219573 14:-0.020005 15:0.037953 16:0.689510 17:0.448504 18:1.039386 
-1099511627776.000000 1:-0.111487 2:0.122106 3:0.040956 4:0.315734 5:0.484627 6:0.710612 7:0.636592 8:0.626699 9:0.794456 10:0.545717 11:0.706023 12:0.501149 13:0.642464 14:0.891093 15:1.565977 16:0.588104 17:1.583240 18:0.700677 
-1099511627776.000000 1:-0.111487 2:-0.185675 3:0.030904 4:0.206034 5:-0.041729 6:-0.066409 7:-0.467342 8:-1.005526 9:-0.959989 10:0.162879 11:-0.128561 12:-0.369723 13:-0.572225 14:-0.711182 15:-0.418469 16:-0.248490 17:-0.268538 18:-0.085385 
-1099511627776.000000 1:-0.388901 2:-0.164808 3:0.074463 4:-0.194047 5:-0.226295 6:0.066794 7:0.507023 8:0.520579 9:0.674616 10:2.834044 11:3.154137 12:2.131901 13:1.298788 14:0.650228 15:0.057798 16:-0.349896 17:0.023848 18:-0.053431 
-1099511627776.000000 1:-0.302348 2:-0.869053 3:-0.679456 4:-0.774811 5:-0.838099 6:-0.998835 7:-1.021900 8:-0.424394 9:-0.274510 10:-0.402678 11:-0.573673 12:-0.736855 13:-0.944469 14:-0.878740 15:-0.676448 16:-0.662563 17:-1.173542 18:-1.561646 
-1099511627776.000000 1:0.998165 2:0.529003 3:0.252053 4:0.225393 5:0.511970 6:0.830496 7:1.693881 8:2.193230 9:1.614155 10:1.581120 11:2.013538 12:1.781844 13:2.229397 14:2.336281 15:1.814033 16:2.109186 17:1.019353 18:0.911571 
-1099511627776.000000 1:1.481974 2:1.616670 3:1.150055 4:0.644833 5:0.481209 6:0.559648 7:0.543302 8:0.490259 9:0.727346 10:-0.811618 11:-0.879687 12:-0.830773 13:-0.699572 14:-0.459845 15:-0.140647 16:-0.020328 17:0.615582 18:0.579253 
-1099511627776.000000 1:1.142420 2:0.779401 3:0.791525 4:0.554492 5:0.194106 6:0.035713 7:-0.539901 8:-0.581047 9:-0.480633 10:-1.664303 11:-1.491715 12:-1.300361 13:-1.238345 14:-1.276690 15:-1.619060 16:-1.279446 17:-0.400808 18:-0.078994 
-1099511627776.000000 1:0.865007 2:0.526395 3:0.402837 4:0.273790 5:0.067644 6:0.106755 7:0.615861 8:0.732819 9:0.928675 10:-1.551192 11:-1.380437 12:-1.103988 13:-0.993448 14:-0.857795 15:-0.478003 16:-0.721716 17:-0.491308 18:-0.053431 
-1099511627776.000000 1:-0.020496 2:-0.490848 3:-0.917359 4:-1.097457 5:-1.114949 6:-1.207521 7:-1.322502 8:-1.288513 9:-1.468107 10:0.493511 11:0.010536 12:-0.284343 13:-0.376307 14:-0.376065 15:-0.249791 16:-0.738617 17:-0.595732 18:-0.960916 
-1099511627776.000000 1:1.712781 2:1.188907 3:0.556972 4:0.502869 5:0.282971 6:0.306561 7:0.828356 8:1.430178 9:2.069544 10:-1.690406 11:-1.547354 12:-1.308899 13:-1.287325 14:-1.088187 15:-0.974115 16:-1.169590 17:-0.581808 18:0.253325 
-1099511627776.000000 1:1.226754 2:1.230640 3:1.495183 4:1.067500 5:1.294669 6:1.563116 7:1.512484 8:1.556511 9:0.684204 10:-0.837721 11:-0.536580 12:-0.190426 13:0.475934 14:0.953927 15:1.615588 16:1.128933 17:0.671274 18:-0.162074 
-1099511627776.000000 1:-0.337857 2:-0.610830 3:-0.786680 4:-0.939361 5:-1.008994 6:-1.118719 7:-1.001169 8:-0.495140 9:-0.020451 10:0.223785 11:-0.008010 12:-0.045280 13:0.280017 14:0.744479 15:0.871421 16:0.757114 17:-0.728001 18:0.291669 
-1099511627776.000000 1:1.242289 2:0.651594 3:0.312367 4:0.302828 5:0.279553 6:0.133396 7:0.061303 8:0.576165 9:0.597919 10:1.041666 11:0.307277 12:0.091327 13:0.162466 14:0.273222 15:0.385231 16:0.343041 17:0.587735 18:0.592034 
-1099511627776.000000 1:0.094908 2:0.101240 3:0.144829 4:0.131826 5:0.166763 6:0.524127 7:0.569216 8:0.672179 9:0.401383 10:0.502212 11:-0.119288 12:-0.455103 13:-0.474266 14:-0.554096 15:-0.775670 16:-0.223139 17:0.330157 18:0.866836 
-1099511627776.000000 1:1.082499 2:1.554071 3:1.327645 4:0.767439 5:0.898193 6:0.941499 7:0.444829 8:-0.050447 9:-0.178638 10:1.250487 11:0.696750 12:0.338928 13:0.593485 14:0.639756 15:1.258388 16:1.737366 17:0.949737 18:0.783756 
-1099511627776.000000 1:0.802866 2:0.693327 3:0.453099 4:0.328640 5:0.399180 6:0.626250 7:0.621044 8:0.641859 9:0.511635 10:0.423905 11:0.084722 12:-0.173350 13:-0.121615 14:-0.114256 15:0.137176 16:0.038825 17:0.845314 18:1.966044 
-1099511627776.000000 1:-0.084856 2:0.622903 3:0.412890 4:0.209261 5:0.252210 6:0.559648 7:0.843904 8:0.439726 9:0.588332 10:0.345597 11:0.121814 12:0.151093 13:-0.102023 14:-0.543624 15:-1.122948 16:-1.794923 17:-1.674775 18:-1.440222 
-1099511627776.000000 1:0.869445 2:2.041825 3:1.857064 4:0.596436 5:-0.147684 6:-0.297296 7:-0.539901 8:-0.687167 9:-0.974370 10:-1.237961 11:-0.258385 12:-0.557558 13:-1.013040 14:-1.569917 15:-1.509915 16:-1.896329 17:-0.748886 18:-0.666942 
-1099511627776.000000 1:-0.568664 2:-0.751679 3:-1.017882 4:-1.068419 5:-1.255083 6:-1.540530 7:-1.503899 8:-1.450219 9:-1.616708 10:-1.551192 11:-1.287706 12:-1.027146 13:-1.091407 14:-1.119605 15:-1.301548 16:-1.228743 17:-1.612121 18:-1.631944 
-1099511627776.000000 1:-0.570884 2:-0.010918 3:1.093092 4:1.641811 5:2.220919 6:3.037237 7:3.300546 8:2.162910 9:2.079131 10:0.493511 11:0.131087 12:-0.386799 13:-0.709367 14:-0.952046 15:-1.182481 16:-0.645662 17:-0.400808 18:-1.037605 
-1099511627776.000000 1:0.560962 2:0.583778 3:0.747965 4:0.164090 5:-0.130594 6:-0.035329 7:-0.472524 8:-0.525460 9:-0.547743 10:-1.507688 11:-1.139335 12:-1.027146 13:-1.101203 14:-1.580389 15:-1.946493 16:-2.073788 17:-1.076080 18:-0.922572 
-1099511627776.000000 1:0.685243 2:0.930684 3:0.489957 4:0.135052 5:-0.260474 6:-0.443820 7:-0.311858 8:0.171899 9:0.219228 10:-0.306968 11:-1.065150 12:-1.103988 13:-1.189366 14:-1.130077 15:-0.577225 16:-0.071031 17:-0.386884 18:-1.651116 
-448922647999.320310 1:1.382105 2:0.844609 3:0.399487 4:0.473831 5:0.067644 6:-0.106371 7:-0.171923 8:-0.116140 9:-0.336826 10:1.937855 11:1.698251 12:0.407232 13:0.240833 14:0.440780 15:1.258388 16:1.619060 17:1.144661 18:0.809319 
-118110584315.433090 1:1.564088 2:1.632320 3:1.682825 4:0.902950 5:0.453866 6:0.639570 7:1.201516 8:1.162352 9:1.197115 10:0.493511 11:-0.360390 12:-0.668552 13:-0.679980 14:-0.533151 15:-0.071191 16:0.182483 17:-0.929887 18:-1.043996 
-1099511627776.000000 1:0.467751 2:1.426263 3:1.592355 4:1.067500 5:1.410877 6:2.104811 7:2.238074 8:0.929898 9:0.233608 10:1.224384 11:0.307277 12:-0.455103 13:-1.081611 14:-1.381414 15:-1.648826 16:-1.609013 17:-0.895079 18:-0.449657 
-1099511627776.000000 1:0.316838 2:0.098631 3:-0.106477 4:-0.123065 5:0.033465 6:0.297681 7:0.439646 8:-0.085821 9:-0.288890 10:-1.159653 11:-0.935326 12:-0.805159 13:-0.768143 14:-0.763544 15:-0.864970 16:-0.780869 17:-0.038806 18:-0.737240 
-1099511627776.000000 1:-0.324541 2:-0.349999 3:-0.404694 4:-0.648979 5:-0.667204 6:-0.634745 7:-0.591728 8:-0.788233 9:-0.399142 10:1.111273 11:1.420056 12:0.893896 13:0.711035 14:0.503615 15:0.603521 16:0.089528 17:-0.602693 18:-0.436875 
-1099511627776.000000 1:-0.171409 2:-0.271749 3:-0.431500 4:-0.561864 5:-0.564667 6:-0.594784 7:-0.555449 8:0.020299 9:0.128150 10:-0.637601 11:-0.990965 12:-0.941767 13:-0.885693 14:-0.952046 15:-0.914581 16:-0.569608 17:-0.623578 18:-0.973698 
-1099511627776.000000 1:0.216970 2:-0.172633 3:-0.508568 4:-0.345691 5:-0.540742 6:-0.670266 7:-0.938975 8:-0.697273 9:-0.538156 10:1.041666 11:0.585472 12:0.347466 13:0.328996 14:0.555976 15:0.811888 16:0.782465 17:0.002964 18:-0.078994 
-1099511627776.000000 1:-0.277935 2:0.030815 3:0.449748 4:0.283469 5:0.238539 6:0.271040 7:0.548485 8:0.813672 9:0.780075 10:0.728435 11:1.596246 12:2.106287 13:2.797558 14:2.189668 15:1.109555 16:0.250086 17:-0.665347 18:-0.270716 
-1099511627776.000000 1:0.800647 2:0.865476 3:0.530166 4:0.154411 5:-0.304907 6:-0.417179 7:-0.270396 8:0.070833 9:0.046659 10:0.180280 11:-0.128561 12:-0.198964 13:-0.170594 14:0.357001 15:0.782121 16:0.613456 17:0.204849 18:0.681504 
-1099511627776.000000 1:0.183680 2:0.364679 3:0.292262 4:0.009220 5:-0.062236 6:0.000192 7:0.107948 8:0.293179 9:-0.077973 10:-0.724610 11:-0.870414 12:-0.788083 13:-0.807326 14:-1.067243 15:-1.093181 16:-1.270995 17:-0.936849 18:-1.101513 
-1099511627776.000000 1:1.275578 2:1.410613 3:1.706280 4:0.606116 5:-0.092997 6:-0.430500 7:-0.570997 8:-0.535567 9:-0.351207 10:0.310793 11:-0.100742 12:-0.446565 13:-0.631000 14:-0.669292 15:-0.855048 16:-0.561157 17:-0.003998 18:0.087165 
-1099511627776.000000 1:1.180148 2:1.512338 3:0.804928 4:0.386716 5:-0.147684 6:-0.452700 7:-0.513987 8:-0.348594 9:-0.154670 10:-0.942131 11:-0.647858 12:-0.455103 13:-0.366512 14:-0.177090 15:0.246320 16:1.669763 17:1.764241 18:1.154419 
-1099511627776.000000 1:0.891638 2:0.695935 3:0.975816 4:1.035235 5:0.935790 6:1.123544 7:1.579860 8:1.485765 9:1.599774 10:0.928555 11:0.937852 12:1.141497 13:1.455523 14:1.372822 15:0.811888 16:-0.020328 17:0.239657 18:0.349186 
-1099511627776.000000 1:0.980411 2:0.695935 3:0.228598 4:-0.006912 5:0.077897 6:0.035713 7:-0.037170 8:0.475099 9:0.521222 10:0.502212 11:0.149634 12:0.005947 13:-0.033452 14:0.461725 15:0.762276 16:0.943024 17:-0.421692 18:-0.379359 
-1099511627776.000000 1:-2.037844 2:-1.951504 3:-1.996302 4:-1.884714 5:-1.716499 6:-1.766977 7:-1.778587 8:-1.520966 9:-1.405791 10:-0.550592 11:-0.712770 12:-0.788083 13:-1.189366 14:-1.653696 15:-1.589293 16:-0.958329 17:0.044733 18:0.451438 
-1099511627776.000000 1:-0.761744 2:-0.561272 3:-0.588986 4:-0.458617 5:-0.185281 6:0.284360 7:0.356722 8:0.096099 9:-0.125909 10:-0.507088 11:-0.091468 12:0.458460 13:1.220421 14:1.529908 15:1.307999 16:0.605005 17:-0.247653 18:0.636769 
-1099511627776.000000 1:0.767357 2:1.181082 3:0.744614 4:0.335093 5:-0.164773 6:-0.350577 7:-0.726481 8:-0.651793 9:-0.279303 10:-2.099346 11:-1.519535 12:-1.103988 13:-1.169774 14:-1.318580 15:-1.390848 16:-0.831572 17:-0.150191 18:0.905180 
-1099511627776.000000 1:1.098034 2:1.259331 3:1.307541 4:0.748080 5:0.484627 6:0.453085 7:0.216787 8:-0.111087 9:-0.212193 10:0.249887 11:-0.314024 12:-0.736855 13:-0.866102 14:-0.595985 15:-0.100958 16:1.112033 17:0.330157 18:-0.519955 
-1099511627776.000000 1:-0.746209 2:-0.968169 3:-0.696210 4:-0.355371 5:-0.438205 6:-0.275095 7:0.465560 8:0.919792 9:1.024547 10:0.798042 11:0.437102 12:0.176707 13:0.123283 14:0.241805 15:0.256242 16:0.782465 17:0.726967 18:1.838229 
-1099511627776.000000 1:1.379886 2:1.092399 3:0.369330 4:0.076976 5:-0.113505 6:-0.266215 7:-0.441428 8:-0.237420 9:-0.221780 10:-0.959533 11:-0.926053 12:-0.856387 13:-0.866102 14:-0.774016 15:-0.487925 16:0.300789 17:0.156118 18:-0.488001 
-1099511627776.000000 1:-0.486550 2:-0.334349 3:0.231949 4:0.106014 5:0.030047 6:0.186678 7:0.170141 8:0.212326 9:0.334273 10:-0.454883 11:0.019810 12:0.202321 13:0.348588 14:0.168498 15:-0.259714 16:0.233185 17:0.093464 18:-0.398531 
-1099511627776.000000 1:-2.106643 2:-1.993237 3:-2.026459 4:-1.994414 5:-1.883976 6:-1.993423 7:-1.954802 8:-1.864592 9:-1.837212 10:0.354298 11:-0.258385 12:-0.258729 13:-0.043247 14:0.545504 15:1.109555 16:0.799366 17:-0.038806 18:0.515345 
-1099511627776.000000 1:-0.360050 2:-0.428248 3:-0.173492 4:0.131826 5:0.515388 6:1.238987 7:1.906376 8:2.001204 9:1.944911 10:-0.681105 11:-0.462395 12:-0.233116 13:0.103691 14:0.336056 15:-0.091036 16:-0.417499 17:-0.484346 18:-0.781976 
-1099511627776.000000 1:-0.639682 2:-0.981211 3:-0.649299 4:-0.429579 5:-0.188699 6:0.026833 7:-0.301492 8:-0.596207 9:-0.571711 10:-0.968234 11:-1.018784 12:-0.924691 13:-0.856306 14:-0.889212 15:-1.013803 16:-0.332995 17:-0.407769 18:-0.456048 
-1099511627776.000000 1:1.211218 2:0.685502 3:-0.059567 4:-0.168236 5:-0.175027 6:-0.323937 7:-0.586546 8:-0.641687 9:-0.475839 10:-1.237961 11:-1.232067 12:-1.001532 13:-0.895489 14:-0.899685 15:-1.311470 16:-1.651266 17:-0.748886 18:-1.235718 
-1099511627776.000000 1:1.346596 2:1.173257 3:0.496658 4:0.312508 5:0.347911 6:0.612929 7:0.911280 8:1.106765 9:1.235464 10:-1.368474 11:-1.046604 12:-0.685628 13:-0.356716 14:0.074247 15:0.712665 16:1.281042 17:0.545966 18:1.742368 
-1099511627776.000000 1:1.453123 2:1.201948 3:0.704405 4:0.073749 5:-0.209206 6:0.040154 7:0.149410 8:0.651965 9:0.065834 10:1.685530 11:2.569928 12:1.747692 13:1.680828 14:1.372822 15:1.307999 16:-0.256941 17:-0.533077 18:-0.986479 
-1099511627776.000000 1:1.626228 2:1.606237 3:1.143354 4:0.341546 5:-0.058819 6:-0.186293 7:-0.260030 8:-0.373860 9:-0.231367 10:-1.612098 11:-1.306252 12:-1.189368 13:-1.375487 14:-1.548972 15:-1.311470 16:-0.890725 17:-1.584275 18:-1.497739 
-1099511627776.000000 1:1.255604 2:1.423655 3:1.213719 4:0.838421 5:0.470956 6:0.302121 7:0.035389 8:0.075886 9:0.008311 10:0.014964 11:0.752389 12:1.397636 13:1.857154 14:1.770773 15:1.427066 16:0.385294 17:-0.484346 18:-0.379359 
-1099511627776.000000 1:-0.091514 2:-0.076126 3:-0.049514 4:-0.035951 5:-0.205788 6:-0.319496 7:0.180507 8:0.121366 9:0.492461 10:0.432605 11:-0.045103 12:0.005947 13:0.299608 14:0.273222 15:-0.061269 16:-0.375247 17:-1.159619 18:-1.222937 
-12634899124.521700 1:1.268920 2:0.894167 3:0.272158 4:-0.032724 5:0.019793 6:0.155597 7:0.040572 8:0.237592 9:0.046659 10:0.145477 11:-0.573673 12:-0.719780 13:-0.993448 14:-0.962519 15:-0.656603 16:0.359942 17:1.785126 18:1.908527 
-1099511627776.000000 1:0.063838 2:0.145581 3:-0.133283 4:-0.181141 5:-0.171609 6:-0.146332 7:0.237518 8:-0.287954 9:-0.073180 10:1.206982 11:0.084722 12:-0.164812 13:-0.121615 14:-0.072366 15:0.444765 16:0.444447 17:-0.372961 18:-0.654161 
-1099511627776.000000 1:1.226754 2:1.397572 3:1.619161 4:1.606320 5:0.505135 6:-0.239574 7:-0.576180 8:-0.949940 9:-1.190080 10:-1.107448 11:-0.759136 12:-0.762469 13:-0.777939 14:-1.098660 15:-1.499993 16:-1.304797 17:-1.319735 18:-1.267672 
-1099511627776.000000 1:0.873884 2:1.288023 3:0.205143 4:-0.026271 5:-0.178445 6:-0.133011 7:0.221969 8:0.166846 9:0.180879 10:-1.081345 11:-0.740589 12:-0.386799 13:0.044915 14:-0.260869 15:-0.577225 16:-0.594959 17:-0.519154 18:-0.315451 
-1099511627776.000000 1:0.103785 2:-0.047434 3:0.268807 4:0.331866 5:0.549567 6:0.812735 7:1.310355 8:1.147192 9:0.871153 10:-1.359773 11:-1.130062 12:-0.779545 13:-0.493858 14:-0.522679 15:-1.212248 16:-1.820275 17:-1.751352 18:-1.542474 
-1099511627776.000000 1:1.086937 2:0.948942 3:0.593830 4:-0.100480 5:-0.421116 6:-0.492661 7:-0.301492 8:-0.505247 9:-0.231367 10:-0.420079 11:-0.536580 12:-0.472179 13:-0.366512 14:-0.292286 15:-0.815359 16:-1.279446 17:-1.528582 18:-1.459394 
-1099511627776.000000 1:-0.280155 2:0.069940 3:0.463151 4:0.377037 5:0.655522 6:1.172385 7:2.346913 8:2.289244 9:1.307367 10:-0.933430 11:-0.555126 12:-0.309957 13:-0.023656 14:0.639756 15:1.119477 16:2.607763 17:5.864606 18:5.321183 
-1099511627776.000000 1:1.093595 2:1.029800 3:1.103145 4:1.183653 5:1.072506 6:0.541887 7:0.678055 8:0.783352 9:1.269018 10:0.336896 11:0.260912 12:-0.036742 13:-0.288145 14:-0.030477 15:0.067720 16:0.013474 17:-0.038806 18:-0.341014 
-1099511627776.000000 1:-0.082636 2:0.930684 3:1.069637 4:0.806156 5:0.686283 6:0.715052 7:1.030484 8:0.904632 9:0.583539 10:0.754537 11:0.733843 12:-0.087970 13:-0.484062 14:-0.637875 15:-0.537536 16:-1.009031 17:-0.832425 18:-1.107903 
-1099511627776.000000 1:1.129104 2:0.646377 3:0.469852 4:0.577078 5:0.761477 6:0.746133 7:0.740248 8:0.753032 9:0.526016 10:-0.324370 11:-0.527307 12:-0.557558 13:-0.474266 14:-0.093311 15:-0.160491 16:0.266987 17:0.002964 18:0.790147 
-1099511627776.000000 1:-0.448822 2:0.082982 3:-0.093074 4:-0.255350 5:-0.516817 6:-0.426059 7:-0.778309 8:-0.722540 9:-0.696343 10:2.425104 11:2.152636 12:1.457402 13:1.240013 14:1.121485 15:1.218699 16:1.002177 17:0.163080 18:0.745412 
-1099511627776.000000 1:-1.931318 2:-1.943679 3:-2.026459 4:-1.923432 5:-1.819036 6:-1.815818 7:-1.695662 8:-1.485592 9:-1.357855 10:-0.820319 11:-0.480941 12:-0.292881 13:-0.787735 14:-1.538500 15:-2.125094 16:-2.242797 17:-1.918430 18:-1.593600 
-1099511627776.000000 1:-0.579761 2:-0.509106 3:0.037605 4:0.225393 5:0.532478 6:0.737253 7:0.963108 8:1.369538 9:1.269018 10:-0.889926 11:-0.712770 12:-0.540482 13:-0.395899 14:0.095192 15:0.305854 16:0.790915 17:0.970622 18:0.419484 
-1099511627776.000000 1:1.211218 2:0.529003 3:-0.036111 4:-0.206953 5:-0.301489 6:-0.244014 7:0.118314 8:0.399299 9:0.588332 10:0.502212 11:-0.128561 12:-0.455103 13:-0.454675 14:-0.397010 15:0.345543 16:1.145834 17:-0.094498 18:-0.270716 
-1099511627776.000000 1:0.616445 2:0.422062 3:0.463151 4:0.144731 5:0.036883 6:0.239959 7:0.481109 8:1.298791 9:1.316954 10:-1.960133 11:-1.593720 12:-1.360127 13:-1.375487 14:-1.444248 15:-1.638904 16:-1.600563 17:-1.577313 18:-1.344361 
-1099511627776.000000 1:0.705217 2:1.392355 3:0.647442 4:0.457698 5:-0.188699 6:-0.461580 7:-0.260030 8:0.262859 9:0.353448 10:0.423905 11:0.260912 12:0.168169 13:0.613077 14:0.629283 15:1.307999 16:1.483853 17:0.761775 18:0.534517 
-1099511627776.000000 1:0.447777 2:0.787226 3:0.583778 4:0.515775 5:0.200942 6:0.479726 7:0.833538 8:1.116872 9:0.794456 10:-0.611498 11:-0.425302 12:-0.600248 13:-0.670184 14:-0.899685 15:-0.785592 16:-0.569608 17:-0.261576 18:0.355577 
-1099511627776.000000 1:0.760699 2:1.710570 3:1.542093 4:1.054594 5:0.891357 6:0.794975 7:0.776528 8:0.485206 9:0.204847 10:-2.429979 11:-2.048105 12:-1.769949 13:-2.002424 14:-2.386763 15:-2.631128 16:-2.479410 17:-1.925392 18:-1.453003 
-1099511627776.000000 1:0.640857 2:0.268172 3:0.114673 4:0.118920 5:0.248792 6:0.564088 7:0.429281 8:0.717659 9:0.890327 10:-0.559293 11:-0.675677 12:-0.728318 13:-0.817122 14:-0.952046 15:-1.103104 16:-0.552707 17:0.358004 18:0.464219 
-1099511627776.000000 1:-0.140338 2:-0.347390 3:0.027553 4:-0.106933 5:-0.192117 6:-0.208493 7:-0.327406 8:-0.474927 9:-0.993544 10:0.841546 11:0.066175 12:-0.190426 13:-0.141206 14:-0.281814 15:-0.329169 16:-0.645662 17:-1.124811 18:-0.769194 
-1099511627776.000000 1:0.853910 2:1.152390 3:0.476554 4:0.199581 5:-0.028057 6:0.342082 7:1.388097 8:0.550899 9:-0.423110 10:2.320693 11:2.597747 12:2.635641 13:2.797558 14:1.906914 15:0.395154 16:-1.093536 17:-1.793122 18:-1.862011 
-1099511627776.000000 1:-0.178067 2:-0.224800 3:-0.079671 4:-0.316653 5:-0.520235 6:-0.679146 7:-1.027083 8:-0.919620 9:-1.007925 10:-0.898627 11:-0.369663 12:0.245011 13:0.750219 14:1.163375 15:1.407222 16:0.976825 17:0.156118 18:0.298060 
-1099511627776.000000 1:-1.973484 2:-1.914987 3:-1.976197 4:-1.816959 5:-1.631051 6:-1.531650 7:-1.353598 8:-1.339046 9:-1.252397 10:-1.498987 11:-1.065150 12:-0.753931 13:-0.591817 14:-0.093311 15:0.434843 16:1.213438 17:1.068084 18:0.822101 
-1099511627776.000000 1:-0.446603 2:-0.673430 3:-0.659351 4:-0.461844 5:-0.246803 6:-0.155212 7:0.087217 8:0.091046 9:-0.001276 10:0.858948 11:0.149634 12:0.023023 13:0.289813 14:0.524559 15:0.315776 16:-0.231590 17:-1.340620 18:-1.363533 
-1099511627776.000000 1:1.315526 2:1.076749 3:0.285561 4:0.367357 5:0.238539 6:0.164477 7:0.393001 8:0.197166 9:0.780075 10:0.084571 11:-0.341844 12:-0.275805 13:0.074303 14:0.398891 15:1.486599 16:1.821871 17:1.130738 18:1.084121 
-1099511627776.000000 1:0.616445 2:1.441913 3:1.220421 4:0.677098 5:0.156509 6:-0.181853 7:-0.648739 8:-0.520407 9:-0.384762 10:-0.681105 11:-0.406756 12:-0.164812 13:-0.151002 14:-0.103784 15:-0.448236 16:-1.127338 17:-0.957733 18:-1.369924 
-981317022182.299190 1:0.374540 2:0.977633 3:0.044307 4:-0.252124 5:-0.195534 6:0.324321 7:0.729883 8:0.889472 9:0.468493 10:1.032965 11:0.381463 12:0.014485 13:-0.004064 14:0.409363 15:0.821810 16:1.762717 17:0.462427 18:0.298060 
-1099511627776.000000 1:-1.028060 2:-0.279574 3:0.650793 4:0.015673 5:-1.043173 6:-1.305204 7:-1.954802 8:-2.294125 9:-2.297394 10:4.513311 11:4.470925 12:3.335754 13:3.610617 14:3.037931 15:2.419289 16:1.281042 17:0.754813 18:-0.168464 
-1099511627776.000000 1:-0.684068 2:-0.722988 3:-0.458306 4:-0.165009 5:0.163345 6:0.728373 7:1.160054 8:0.818725 9:1.014960 10:-1.116149 11:-0.786955 12:-0.429489 13:0.191854 14:0.419836 15:0.682898 16:0.106429 17:-0.769771 18:-0.730850 
-1099511627776.000000 1:-0.391120 2:-0.801237 3:-0.766575 4:-0.626394 5:-0.342504 6:-0.688027 7:-0.990803 8:-0.894353 9:-0.820976 10:0.154178 11:0.288731 12:0.390156 13:0.632668 14:0.535032 15:0.375309 16:0.207834 17:1.353508 18:2.093858 
-894631928841.948970 1:-0.808349 2:-0.670821 3:-0.307522 4:-0.074668 5:0.347911 6:0.932618 7:2.010031 8:2.824896 9:1.834659 10:1.093871 11:0.872940 12:0.859744 13:1.102871 14:1.309988 15:0.801965 16:-0.197788 17:0.260542 18:0.112728 
-1099511627776.000000 1:-1.700510 2:-1.789788 3:-1.929287 4:-1.875035 5:-1.760931 6:-1.793617 7:-1.845963 8:-1.960605 9:-1.928289 10:-0.637601 11:-0.100742 12:0.142555 13:0.466138 14:0.671173 15:0.752354 16:0.148681 17:-0.164114 18:0.540908 
-1099511627776.000000 1:1.069183 2:1.522771 3:1.133301 4:0.489963 5:0.088151 6:-0.177412 7:-0.197837 8:0.141579 9:0.597919 10:0.450007 11:0.400009 12:0.646295 13:0.701240 14:0.566449 15:0.484454 16:0.976825 17:0.462427 18:0.719849 
-1099511627776.000000 1:-0.990332 2:-1.304642 3:-1.651174 4:-1.578200 5:-1.463574 6:-1.389566 7:-1.472802 8:-1.187446 9:-0.974370 10:-0.837721 11:-0.703497 12:-0.634400 13:-0.719163 14:-0.575041 15:-0.249791 16:0.638807 17:0.246618 18:1.435612 
-1099511627776.000000 1:-0.786156 2:-0.618655 3:-0.223754 4:-0.100480 5:0.245374 6:0.905978 7:1.771623 8:2.238710 9:1.695646 10:-0.541892 11:-0.369663 12:-0.096508 13:0.221241 14:0.147554 15:0.147098 16:-0.510454 17:-0.540039 18:-0.986479 
