svm_type c_svc
kernel_type rbf
gamma 0.000031
nr_class 2
total_sv 143
rho 65.731187 
probA -1.390962
probB 0.253758
label 1 0 
nr_sv 70 73 
SV
32768.000000 1:0.955998 2:0.899384 3:0.781472 4:0.925536 5:0.655522 6:0.319881 7:-0.130460 8:-0.389020 9:-0.576504 10:0.119374 11:0.158907 12:-0.147736 13:-0.141206 14:-0.637875 15:-1.013803 16:-1.101986 17:-1.222273 18:-0.794757 19:-1.414761 20:0.372747 21:0.000000 22:0.000000 23:0.233592 24:-0.000000 25:-0.467160 
32768.000000 1:0.436681 2:0.109065 3:-0.481761 4:-0.516694 5:-0.291236 6:-0.283975 7:-0.094181 8:0.434672 9:-0.384762 10:0.928555 11:0.585472 12:0.279162 13:0.005732 14:-0.334176 15:-0.755825 16:-0.890725 17:-0.505231 18:-0.788366 19:0.705739 20:0.592919 21:-0.654343 22:1.259349 23:-0.962716 24:-1.297125 25:-0.364822 
32768.000000 1:0.461093 2:0.954158 3:1.106495 4:0.777118 5:0.658940 6:0.755013 7:1.040850 8:1.480711 9:1.547045 10:0.006263 11:0.483467 12:1.064655 13:1.445727 14:1.550853 15:1.526288 16:0.131780 17:0.232695 18:0.067993 19:0.705739 20:-0.728112 21:0.691825 22:0.466323 23:0.155329 24:-0.035963 25:-0.269470 
1609.451276 1:-2.335231 2:-2.201902 3:-2.254310 4:-2.065396 5:-1.860050 6:-2.188788 7:-2.317597 8:-2.278965 9:-2.211110 10:-1.577294 11:-1.222794 12:-0.890539 13:-0.650592 14:-0.512206 15:-0.398625 16:-0.358346 17:-1.194427 18:-0.398531 19:-1.414761 20:1.400215 21:0.691825 22:-1.384072 23:0.514701 24:1.210028 25:0.239773 
32768.000000 1:1.111350 2:0.688110 3:0.252053 4:-0.239218 5:-0.123759 6:0.088995 7:0.221969 8:0.055673 9:0.065834 10:0.423905 11:0.335097 12:0.125479 13:-0.111819 14:-0.239925 15:-0.825281 16:-0.594959 17:-0.936849 18:-1.024824 19:-1.414761 20:0.225966 21:-0.654343 22:-0.062361 23:0.487549 24:0.500039 25:-0.256547 
26842.895560 1:-1.438632 2:-1.035985 3:-0.625844 4:-0.513467 5:-0.140848 6:0.630690 7:1.600591 8:2.001204 9:1.499110 10:-0.098147 11:0.622565 12:1.397636 13:2.670212 14:2.933207 15:1.030177 16:0.334591 17:-0.679270 18:-1.012042 19:-1.414761 20:-0.140987 21:-0.385109 22:-0.855387 23:1.209487 24:1.688686 25:-0.090641 
32768.000000 1:0.800647 2:0.828959 3:0.647442 4:0.673871 5:0.734134 6:0.852696 7:0.646958 8:0.803565 9:0.660236 10:0.658828 11:0.205273 12:0.040099 13:0.133078 14:-0.145673 15:-0.339092 16:-0.197788 17:-0.379923 18:-0.897009 19:0.705739 20:-1.975752 21:0.691825 22:2.316718 23:0.730324 24:-0.193133 25:-0.422452 
32768.000000 1:0.145952 2:-0.355215 3:-1.108352 4:-1.158760 5:-1.251665 6:-1.163120 7:-0.913061 8:-0.479980 9:-0.705930 10:1.259188 11:1.058403 12:0.279162 13:-0.102023 14:-0.334176 15:-0.745903 16:-0.806220 17:-1.452005 18:-1.612772 19:-1.414761 20:-1.755580 21:-1.731277 22:-1.384072 23:-1.210284 24:-0.816889 25:-0.474494 
29616.174697 1:-0.652998 2:-0.336957 3:0.774771 4:1.645037 5:1.397206 6:0.586289 7:0.465560 8:0.464992 9:0.046659 10:-0.420079 11:0.539106 12:1.406174 13:1.377155 14:0.796841 15:0.414998 16:-0.113283 17:0.956699 18:2.208892 19:0.705739 20:-0.434549 21:4.730327 22:0.201981 23:1.608789 24:1.347711 25:-0.767536 
7969.610714 1:-0.937069 2:-1.101193 3:-1.101651 4:-0.797396 5:-0.311743 6:-0.585904 7:-0.938975 8:-0.924673 9:-0.480633 10:-0.968234 11:-0.777682 12:-0.753931 13:-0.591817 14:-0.239925 15:-0.100958 16:-0.527355 17:-1.006464 18:-1.024824 19:0.705739 20:0.813090 21:1.230292 22:-0.326703 23:1.257403 24:1.430519 25:0.147564 
32768.000000 1:1.182367 2:0.912425 3:0.959062 4:0.380263 5:0.539314 6:0.839376 7:0.450012 8:0.464992 9:0.535603 10:-0.785516 11:-0.582946 12:-0.284343 13:0.142874 14:0.650228 15:0.821810 16:0.486699 17:0.351042 18:0.413093 19:0.705739 20:1.767168 21:-0.115876 22:-0.591045 23:0.107413 24:0.351287 25:-0.444457 
32768.000000 1:0.287987 2:0.135148 3:-0.347731 4:-0.665111 5:-1.032919 6:-1.158680 7:-1.327684 8:-1.207659 9:-1.142145 10:-0.628900 11:-0.499487 12:-0.327033 13:-0.307736 14:-0.459845 15:-0.597070 16:-1.262545 17:-1.507697 18:-1.254890 19:0.705739 20:0.005794 21:2.037992 22:0.201981 23:0.714352 24:0.614161 25:-0.112296 
32768.000000 1:1.049209 2:0.573345 3:0.352576 4:0.473831 5:0.635015 6:0.803855 7:0.735065 8:0.945058 9:0.688997 10:-0.454883 11:-0.388209 12:-0.617324 13:-0.719163 14:-0.826378 15:-0.815359 16:-0.442851 17:-0.017921 18:0.866836 19:0.705739 20:-0.654721 21:-0.385109 22:-0.326703 23:0.514701 24:0.658911 25:-0.601630 
32768.000000 1:1.202341 2:0.753318 3:0.282210 4:0.202808 5:-0.089580 6:-0.528182 7:-0.379234 8:-0.586100 9:-0.681963 10:1.015563 11:0.529833 12:-0.079432 13:-0.405695 14:-0.753071 15:-0.835203 16:-0.814671 17:-1.020387 18:-0.730850 19:0.705739 20:1.033262 21:-0.654343 22:0.201981 23:-0.627303 24:-0.700078 25:-0.321861 
32768.000000 1:0.487725 2:0.312513 3:0.359277 4:0.480284 5:0.864014 6:1.287828 7:1.595408 8:1.061285 9:0.262370 10:0.215084 11:0.233092 12:0.040099 13:0.280017 14:0.807314 15:1.466755 16:1.796519 17:-0.226768 18:-0.034259 19:0.705739 20:0.666309 21:1.230292 22:1.259349 23:1.219070 24:0.612281 25:-0.734704 
32768.000000 1:0.319058 2:-0.138725 3:-0.210351 4:-0.100480 5:0.074479 6:0.231079 7:0.605496 8:0.495312 9:0.434938 10:-0.872524 11:-0.824048 12:-0.685628 13:-0.533042 14:-0.627403 15:-0.497847 16:-1.135788 17:-1.521620 18:-1.414659 19:-1.414761 20:0.079185 21:-0.115876 22:-1.119729 23:0.936364 24:1.542620 25:0.106001 
32768.000000 1:0.649734 2:1.308889 3:0.677599 4:0.196355 5:-0.410862 6:-0.648066 7:-0.902696 8:-1.197553 9:-1.353062 10:0.606623 11:-0.416029 12:-0.762469 13:-0.885693 14:-0.627403 15:-0.587147 16:-0.738617 17:-0.184999 18:-0.507174 19:0.705739 20:-0.214378 21:0.422591 22:0.281284 23:0.198454 24:0.077216 25:-0.268422 
32768.000000 1:0.321277 2:-0.284791 3:-0.036111 4:0.280243 5:0.867432 6:1.119104 7:1.134140 8:1.475658 9:0.866359 10:0.563118 11:0.557653 12:0.347466 13:0.466138 14:0.692117 15:0.792043 16:0.469798 17:-0.310307 18:0.170245 19:0.705739 20:1.106653 21:0.153358 22:0.466323 23:-0.541053 24:-0.698765 25:-0.371458 
16197.639846 1:1.109130 2:1.460171 3:0.979167 4:0.757760 5:0.552985 6:0.368723 7:0.932011 8:0.404352 9:0.712965 10:0.824144 11:0.084722 12:-0.318495 13:-0.542837 14:-0.637875 15:-0.606992 16:-0.535806 17:-0.157153 18:-0.475220 19:0.705739 20:1.106653 21:-0.115876 22:1.259349 23:-0.154529 24:-0.589834 25:-0.229653 
20740.586897 1:0.163706 2:0.586386 3:0.881995 4:0.625475 5:0.908446 6:1.656358 7:0.304894 8:-0.828660 9:-0.936022 10:-0.080746 11:-0.202746 12:-0.369723 13:-0.523246 14:-0.491262 15:-0.438314 16:-0.045680 17:0.100426 18:-0.187637 19:-1.414761 20:2.207511 21:0.000000 22:0.000000 23:-1.393963 24:-0.000000 25:0.000000 
32768.000000 1:0.170364 2:0.072548 3:0.040956 4:0.131826 5:0.214613 6:0.319881 7:0.486292 8:1.061285 9:0.919088 10:2.007462 11:2.217548 12:1.687927 13:1.465318 14:1.111013 15:0.206631 16:0.131780 17:0.636466 18:0.080775 19:0.705739 20:-1.902361 21:-0.385109 22:0.201981 23:-0.012378 24:-0.097719 25:-0.413721 
32768.000000 1:0.434462 2:0.695935 3:0.999271 4:0.593210 5:0.218031 6:0.097875 7:-0.171923 8:-0.823606 9:-0.907260 10:-1.559893 11:-1.463896 12:-1.232057 13:-1.336304 14:-1.360469 15:-1.688515 16:-1.769572 17:-1.368466 18:-0.379359 19:-1.414761 20:-0.581331 21:0.691825 22:-0.855387 23:2.407393 24:3.010980 25:0.041035 
13966.868954 1:1.042551 2:1.350622 3:0.888696 4:0.464151 5:-0.065654 6:-0.168532 7:-0.348137 8:-0.298060 9:-0.351207 10:-1.020439 11:-0.963145 12:-0.805159 13:-0.973856 14:-1.444248 15:-1.867116 16:-1.913230 17:-1.591236 18:-1.190983 19:-1.414761 20:0.079185 21:1.230292 22:0.730665 23:2.279616 24:1.835123 25:-0.081909 
32768.000000 1:-0.919314 2:-0.968169 3:-0.441552 4:-0.087574 5:-0.195534 6:-0.084170 7:0.289346 8:0.459939 9:0.621887 10:3.312592 11:4.888217 12:5.120189 13:5.834282 14:5.383744 15:3.322213 16:1.221888 17:0.914929 18:0.969088 19:0.705739 20:1.033262 21:-0.385109 22:-1.119729 23:-1.681460 24:-1.438039 25:-0.493704 
18382.728134 1:-0.084856 2:-0.138725 3:0.265456 4:0.360904 5:0.351329 6:0.248839 7:-0.270396 8:-0.207100 9:-0.279303 10:-0.028540 11:0.019810 12:0.031561 13:0.074303 14:-0.355121 15:-0.011658 16:0.681059 17:-0.442577 18:-0.507174 19:0.705739 20:0.299356 21:0.153358 22:0.000000 23:-0.365361 24:-0.000000 25:-0.234542 
32768.000000 1:1.422052 2:1.444522 3:1.052883 4:0.680324 5:0.552985 6:0.866016 7:1.274075 8:1.379645 9:0.712965 10:-0.176455 11:-0.119288 12:0.091327 13:0.123283 14:-0.166618 15:-0.626836 16:-0.755518 17:-0.630539 18:-0.289888 19:-1.414761 20:-0.361159 21:-0.385109 22:-1.119729 23:-0.739107 24:-0.365075 25:-0.422452 
28658.583405 1:0.756261 2:1.045449 3:0.268807 4:0.186675 5:0.129166 6:-0.097490 7:-0.166740 8:-0.338487 9:-0.255335 10:0.458708 11:1.067676 12:0.970738 13:0.936341 14:0.964399 15:0.266165 16:-0.155535 17:0.344080 18:1.026604 19:0.705739 20:0.372747 21:0.153358 22:0.000000 23:0.000000 24:-0.000000 25:-0.374252 
32768.000000 1:-0.284593 2:-0.193500 3:0.044307 4:0.247978 5:0.799074 6:1.740721 7:1.994483 8:0.995592 9:-0.073180 10:1.224384 11:0.835847 12:0.680447 13:0.642464 14:0.734007 15:0.752354 16:0.469798 17:0.197887 18:0.099947 19:0.705739 20:0.739700 21:-1.192810 22:0.995007 23:-0.994661 24:-1.258882 25:-0.474844 
1528.006549 1:-0.100391 2:-0.104817 3:-0.059567 4:-0.287615 5:-0.725309 6:-0.608104 7:-0.685019 8:-0.803393 9:-0.825770 10:-0.141652 11:-0.388209 12:-0.455103 13:-0.728959 14:-1.098660 15:-1.251937 16:-1.676617 17:-1.333658 18:-0.986479 19:0.705739 20:0.079185 21:2.845693 22:-0.141664 23:11.255925 24:11.502074 25:0.422444 
32768.000000 1:-2.364082 2:-2.243635 3:-2.321325 4:-2.207361 5:-2.092467 6:-2.250950 7:-2.312414 8:-2.213272 9:-2.167968 10:-0.367874 11:-0.555126 12:-0.625862 13:-0.679980 14:-0.449372 15:-0.339092 16:0.596555 17:-0.310307 18:0.445047 19:0.705739 20:-0.728112 21:0.691825 22:0.466323 23:0.378938 24:0.176863 25:-0.121727 
32768.000000 1:1.262262 2:0.894167 3:0.707756 4:-0.213406 5:-0.427951 6:-0.466020 7:-0.218568 8:-0.247527 9:-0.207400 10:-1.072644 11:-0.926053 12:-0.617324 13:-0.474266 14:0.053302 15:0.752354 16:-0.087932 17:-0.672309 18:-1.005652 19:-1.414761 20:-0.948284 21:-0.115876 22:-0.458874 23:2.861000 24:3.196816 25:0.289719 
32768.000000 1:-0.038250 2:0.056898 3:-0.079671 4:-0.232765 5:-0.451877 6:-0.394979 7:-0.192654 8:0.222432 9:0.511635 10:-0.820319 11:-0.091468 12:0.569453 13:0.720831 14:0.220860 15:0.057798 16:-0.020328 17:1.151623 18:0.432265 19:-1.414761 20:-0.361159 21:1.499525 22:-0.009493 23:2.276422 24:2.280151 25:-0.081909 
2396.171788 1:0.489944 2:0.518570 3:0.915502 4:0.696457 5:0.173599 6:0.120076 7:0.118314 8:-0.429447 9:-0.130703 10:0.058468 11:0.483467 12:-0.156274 13:-0.346920 14:-0.449372 15:-0.864970 16:-1.169590 17:-0.435615 18:0.445047 19:-1.414761 20:-0.874893 21:0.153358 22:-1.119729 23:2.028854 24:2.786532 25:0.000000 
32768.000000 1:1.144639 2:0.732452 3:0.319068 4:0.438340 5:0.365001 6:0.111196 7:0.450012 8:0.783352 9:0.727346 10:-0.802917 11:-0.759136 12:-0.788083 13:-0.768143 14:-0.962519 15:-1.182481 16:-1.228743 17:-0.665347 18:0.163854 19:0.705739 20:1.913949 21:0.422591 22:-0.062361 23:0.267134 24:0.286406 25:-0.369363 
32768.000000 1:1.293333 2:0.941117 3:0.282210 4:0.109240 5:0.194106 6:0.461965 7:0.351539 8:0.288126 9:0.300718 10:-0.872524 11:-1.306252 12:-1.180830 13:-1.150182 14:-1.098660 15:-1.321393 16:-1.642815 17:-1.340620 18:-1.012042 19:0.705739 20:0.959872 21:0.153358 22:0.704231 23:-0.189668 24:-0.444627 25:-0.183898 
32768.000000 1:-1.860300 2:-1.797613 3:-1.744995 4:-1.645956 5:-1.494335 6:-1.469488 7:-1.369147 8:-1.232926 9:-1.051067 10:-0.463584 11:-0.184200 12:0.074251 13:0.436751 14:0.430308 15:-0.319247 16:-0.611860 17:-0.867233 18:-0.718068 19:0.705739 20:0.886481 21:0.422591 22:-0.062361 23:-0.116196 24:-0.100216 25:-0.011705 
32768.000000 1:0.101566 2:-0.023959 3:-0.039462 4:-0.158556 5:-0.079326 6:0.120076 7:-0.047536 8:-0.010021 9:-0.039625 10:-0.698507 11:-0.323297 12:-0.301419 13:-0.151002 14:-0.218980 15:-0.249791 16:-0.442851 17:-0.087537 18:0.016867 19:-1.414761 20:0.739700 21:-1.462043 22:-1.384072 23:-0.929175 24:-0.486577 25:-0.098675 
32768.000000 1:0.145952 2:0.591603 3:0.503360 4:0.377037 5:0.159927 6:0.208878 7:0.413733 8:-0.217207 9:-0.044418 10:0.537016 11:0.316551 12:-0.002590 13:-0.111819 14:-0.145673 15:-0.220025 16:-0.417499 17:1.583240 18:1.448393 19:0.705739 20:-0.067597 21:0.961058 22:1.259349 23:0.123385 24:-0.346616 25:-0.313129 
32768.000000 1:1.299991 2:0.961983 3:0.717808 4:0.599663 5:0.402598 6:0.475286 7:0.356722 8:0.566059 9:0.372622 10:-0.098147 11:0.093995 12:0.441384 13:1.191034 14:1.236681 15:0.762276 16:0.799366 17:1.478817 18:0.834882 19:0.705739 20:-1.241846 21:0.422591 22:-0.591045 23:0.554631 24:0.830098 25:-0.392065 
32768.000000 1:-2.352986 2:-2.230593 3:-2.328026 4:-2.207361 5:-2.092467 6:-2.250950 7:-2.374608 8:-2.359818 9:-2.354917 10:-1.568594 11:-0.666404 12:0.108403 13:0.867770 14:0.283695 15:-0.349014 16:-0.206238 17:0.907968 18:1.620943 19:0.705739 20:1.106653 21:1.230292 22:-0.062361 23:0.409285 24:0.429779 25:-0.286934 
32768.000000 1:0.707436 2:0.278605 3:-0.300821 4:-0.261803 5:-0.092997 6:0.333202 7:0.102765 8:-0.010021 9:-0.202606 10:1.963958 11:1.308778 12:1.158573 13:1.582869 14:2.095417 15:2.240689 16:2.438754 17:2.390782 18:2.157766 19:0.705739 20:1.546996 21:0.099511 22:0.175547 23:-0.411680 24:-0.368826 25:-0.444457 
32768.000000 1:1.493070 2:1.462780 3:1.247227 4:0.515775 5:0.214613 6:0.057914 7:0.061303 8:-0.166674 9:-0.001276 10:-1.551192 11:-1.176428 12:-1.035684 13:-1.091407 14:-1.234801 15:-1.103104 16:-1.059734 17:-1.988046 18:-2.136813 19:0.705739 20:-1.168455 21:1.768759 22:1.523691 23:0.902823 24:0.231275 25:0.064437 
32768.000000 1:0.041645 2:0.242089 3:0.272158 4:0.254431 5:0.566657 6:1.403271 7:3.145062 8:3.496989 9:3.545962 10:0.006263 11:-0.054376 12:0.142555 13:0.338792 14:0.807314 15:1.724733 16:1.619060 17:0.469389 18:0.828491 19:0.705739 20:-0.801502 21:0.691825 22:0.730665 23:0.506715 24:0.190901 25:-0.326402 
32768.000000 1:-1.294377 2:-1.210742 3:-0.994427 4:-1.071646 5:-1.104695 6:-1.056557 7:-1.078911 8:-0.752860 9:-0.763453 10:-0.385276 11:-0.267658 12:-0.352647 13:-0.258757 14:-0.093311 15:-0.249791 16:0.343041 17:0.316234 18:0.802928 19:0.705739 20:0.666309 21:1.768759 22:0.466323 23:0.490743 24:0.283277 25:-0.063048 
32768.000000 1:1.120227 2:0.815918 3:0.717808 4:0.912630 5:1.315176 6:1.278948 7:0.755797 8:0.262859 9:0.137737 10:1.146076 11:1.039857 12:0.834130 13:0.662056 14:0.796841 15:0.702743 16:0.241636 17:-0.052729 18:0.061602 19:0.705739 20:0.225966 21:-0.115876 22:-0.062361 23:-0.435638 24:-0.422401 25:-0.308938 
32768.000000 1:0.742945 2:1.128916 3:0.496658 4:0.125373 5:-0.113505 6:0.271040 7:0.439646 8:0.859152 9:0.655442 10:-0.393977 11:-0.360390 12:-0.301419 13:-0.121615 14:0.357001 15:0.821810 16:1.357096 17:1.868664 18:2.023560 19:0.705739 20:1.546996 21:-0.385109 22:0.466323 23:-0.365361 24:-0.531544 25:-0.395558 
32768.000000 1:0.567620 2:0.153406 3:-0.200298 4:-0.381182 5:-0.592011 6:-0.523742 7:0.030206 8:0.576165 9:1.091657 10:-0.959533 11:-0.722043 12:-0.642938 13:-0.454675 14:-0.208507 15:0.305854 16:0.993726 17:0.406735 18:-0.296279 19:0.705739 20:-0.581331 21:0.153358 22:0.000000 23:0.303870 24:-0.000000 25:-0.205902 
32768.000000 1:0.689682 2:0.766360 3:0.640741 4:0.631927 5:0.511970 6:0.781654 7:1.299989 8:1.940564 9:2.218144 10:0.798042 11:0.808028 12:0.373080 13:0.348588 14:0.283695 15:0.921032 16:1.162735 17:1.158584 18:-0.155683 19:0.705739 20:-0.214378 21:-0.385109 22:-0.353137 23:-0.541053 24:-0.428630 25:-0.223366 
32768.000000 1:-0.522059 2:0.129931 3:0.376031 4:0.535134 5:0.611089 6:0.799415 7:1.217065 8:1.157298 9:1.106037 10:0.545717 11:0.029083 12:-0.190426 13:-0.376307 14:-0.679765 15:-0.507770 16:-0.831572 17:-0.936849 18:-0.494392 19:-1.414761 20:1.546996 21:-2.000510 22:-1.119729 23:-1.421115 24:-1.141610 25:-0.539809 
32768.000000 1:0.774015 2:1.556679 3:1.183563 4:1.028783 5:0.341075 6:0.049034 7:-0.016439 8:-0.035287 9:0.085008 10:-0.124250 11:-0.805501 12:-1.027146 13:-1.326508 14:-1.548972 15:-1.371004 16:-1.211842 17:-0.957733 18:-1.063168 19:0.705739 20:-0.214378 21:0.691825 22:0.466323 23:0.602548 24:0.389690 25:-0.316622 
32768.000000 1:0.876103 2:1.762736 3:1.669422 4:0.957800 5:0.563239 6:0.315441 7:0.304894 8:0.247699 9:-0.164258 10:-0.124250 11:-0.388209 12:-0.753931 13:-0.866102 14:-0.522679 15:-0.021580 16:0.605005 17:-0.226768 18:-0.622207 19:0.705739 20:-0.214378 21:-0.385109 22:0.466323 23:-0.691191 24:-0.841662 25:-0.444457 
32768.000000 1:-0.056005 2:0.328163 3:0.945659 4:1.241729 5:1.506578 6:2.189173 7:2.118870 8:1.970884 9:1.523077 10:-1.246662 11:-1.130062 12:-0.924691 13:-0.885693 14:-0.690237 15:-0.220025 16:-0.332995 17:-0.407769 18:-0.270716 19:0.705739 20:0.519528 21:-0.385109 22:0.175547 23:-0.576192 24:-0.641595 25:-0.558320 
18085.832649 1:0.778454 2:1.807077 3:1.428168 4:0.941668 5:0.453866 6:0.124516 7:-0.462159 8:-0.798340 9:-0.945609 10:0.876350 11:0.149634 12:-0.062356 13:-0.043247 14:0.419836 15:0.861499 16:0.435996 17:-0.164114 18:-0.481611 19:0.705739 20:0.519528 21:0.422591 22:0.201981 23:0.233592 24:0.143225 25:-0.074924 
32768.000000 1:1.144639 2:0.894167 3:0.292262 4:-0.113386 5:-0.301489 6:-0.568143 7:-0.467342 8:-0.207100 9:-0.125909 10:0.571819 11:0.854394 12:0.415770 13:0.613077 14:1.048178 15:1.278233 16:2.100736 17:1.527548 18:1.442003 19:0.705739 20:0.079185 21:0.422591 22:0.730665 23:0.043525 24:-0.237622 25:-0.116488 
5043.800145 1:0.430023 2:0.364679 3:0.620636 4:0.593210 5:0.621343 6:0.399804 7:-0.094181 8:0.101153 9:0.363035 10:0.188981 11:0.427828 12:0.390156 13:0.534710 14:0.639756 15:0.752354 16:1.281042 17:0.170041 18:0.623988 19:0.705739 20:0.519528 21:-0.115876 22:1.523691 23:0.123385 24:-0.432544 25:-0.290077 
32768.000000 1:-0.315664 2:-0.496064 3:0.037605 4:0.057617 5:0.122330 6:0.595169 7:0.911280 8:0.823779 9:0.990992 10:-1.090046 11:-0.805501 12:-0.711242 13:-0.523246 14:-0.910157 15:-0.120802 16:0.579654 17:0.984545 18:1.020214 19:-1.414761 20:-0.801502 21:-0.115876 22:-1.384072 23:1.993716 24:2.809946 25:0.000000 
32768.000000 1:1.015920 2:0.664636 3:0.493308 4:0.164090 5:-0.031475 6:-0.119691 7:0.548485 8:1.046125 9:1.034134 10:-1.133550 11:-0.749863 12:-0.412413 13:-0.317532 14:-0.344648 15:-0.775670 16:-1.440004 17:-1.396312 18:-1.542474 19:-1.414761 20:0.739700 21:1.230292 22:-1.912756 23:0.714352 24:1.777350 25:-0.163989 
16751.448323 1:-0.320102 2:-0.172633 3:0.386083 4:0.848101 5:1.144281 6:1.358870 7:0.916463 8:1.126978 9:1.292986 10:0.571819 11:0.335097 12:0.125479 13:0.054711 14:0.042830 15:-0.319247 16:-0.476653 17:1.520586 18:-0.027868 19:0.705739 20:1.326824 21:-0.385109 22:0.466323 23:-0.788621 24:-0.934394 25:-0.357138 
32768.000000 1:-0.388901 2:-0.449115 3:-0.592336 4:-0.487656 5:-0.263892 6:-0.008688 7:-0.068267 8:-0.131300 9:-0.384762 10:-1.107448 11:-0.777682 12:-0.463641 13:-0.454675 14:-0.501734 15:-0.914581 16:-0.975229 17:-0.331192 18:0.055212 19:0.705739 20:-0.067597 21:0.153358 22:0.598494 23:-0.224806 24:-0.442288 25:-0.228954 
32768.000000 1:-1.682755 2:-1.680239 3:-1.791906 4:-1.787921 5:-1.713081 6:-1.762536 7:-1.623103 8:-1.510859 9:-1.563979 10:-0.794217 11:-0.443848 12:-0.335571 13:-0.337124 14:-0.376065 15:-0.081113 16:0.157131 17:-0.073614 18:-0.519955 19:0.705739 20:-0.948284 21:-0.385109 22:0.995007 23:-0.197654 24:-0.479023 25:0.005759 
32768.000000 1:0.023890 2:1.204557 3:1.599056 4:0.609342 5:-0.198952 6:-0.497101 7:-0.519169 8:0.333606 9:0.693791 10:0.241186 11:-0.045103 12:-0.070894 13:-0.033452 14:0.241805 15:0.424920 16:0.385294 17:0.093464 18:0.617597 19:0.705739 20:-0.287768 21:0.422591 22:0.466323 23:0.123385 24:-0.066367 25:-0.275408 
32768.000000 1:0.347909 2:0.980242 3:1.227122 4:1.012650 5:1.116938 6:0.923738 7:0.356722 8:-0.293007 9:-0.063593 10:1.267888 11:1.002764 12:0.577991 13:0.250629 14:-0.166618 15:-0.100958 16:0.478249 17:0.170041 18:-0.213200 19:0.705739 20:1.033262 21:-0.385109 22:0.995007 23:-0.611331 24:-0.918059 25:-0.406036 
32768.000000 1:0.374540 2:-0.172633 3:-0.642598 4:-0.610261 5:-0.472384 6:-0.346137 7:0.149410 8:0.651965 9:0.760901 10:1.189581 11:1.828075 12:0.782902 13:0.603281 14:0.503615 15:0.543987 16:1.188087 17:1.311739 18:0.866836 19:-1.414761 20:-0.287768 21:0.422591 22:-1.119729 23:-0.180084 24:0.271430 25:-0.457380 
32768.000000 1:1.166832 2:1.301064 3:1.552146 4:0.877139 5:0.720462 6:0.972579 7:0.885366 8:0.950112 9:1.053308 10:-0.454883 11:-0.249112 12:-0.369723 13:-0.591817 14:-0.690237 15:-0.934426 16:-0.721716 17:-1.438082 18:-1.171811 19:-1.414761 20:2.207511 21:-1.192810 22:-0.591045 23:-0.850912 24:-0.674735 25:-0.124870 
32768.000000 1:1.415394 2:1.196732 3:0.928905 4:0.580304 5:0.566657 6:0.959259 7:1.191151 8:1.374591 9:1.374477 10:-0.533191 11:-0.935326 12:-0.771007 13:-0.513450 14:0.042830 15:0.514221 16:-0.206238 17:-0.964695 18:-1.325189 19:0.705739 20:1.326824 21:0.287975 22:-0.855387 23:-0.470776 24:-0.166051 25:-0.245021 
32768.000000 1:-0.453260 2:-0.621263 3:-0.548777 4:-0.300521 5:-0.137430 6:0.004633 7:0.481109 8:1.394805 9:1.403238 10:-1.020439 11:-1.009511 12:-0.847849 13:-0.660388 14:-0.281814 15:-0.110880 16:-0.096382 17:0.267503 18:1.525082 19:0.705739 20:0.079185 21:-0.115876 22:0.201981 23:-0.005989 24:-0.091460 25:-0.269470 
32768.000000 1:0.782893 2:1.470605 3:1.240525 4:0.548039 5:-0.390355 6:-0.421619 7:-0.420696 8:-0.505247 9:-0.562123 10:-0.202558 11:-0.416029 12:-0.685628 13:-0.973856 14:-1.329052 15:-1.400771 16:-1.203392 17:-1.110888 18:-0.973698 19:0.705739 20:1.033262 21:-0.115876 22:-0.591045 23:-0.739107 24:-0.555032 25:-0.601630 
32768.000000 1:0.967095 2:1.027191 3:0.456449 4:0.038258 5:-0.434787 6:-0.794590 7:-0.679836 8:-0.818553 9:-0.864118 10:0.432605 11:0.029083 12:-0.292881 13:-0.248961 14:-0.072366 15:-0.021580 16:-0.248490 17:0.253580 18:0.419484 19:0.705739 20:-1.975752 21:-0.385109 22:1.259349 23:-0.563414 24:-0.947673 25:-0.655070 
16374.174568 1:0.503260 2:1.217598 3:0.687651 4:0.347999 5:-0.287818 6:-0.479341 7:-0.327406 8:-0.191940 9:-0.135496 10:2.642625 11:1.364417 12:0.663371 13:0.485730 14:0.409363 15:0.940877 16:0.292339 17:0.608620 18:1.109684 19:0.705739 20:-0.214378 21:-1.192810 22:-0.670348 23:-0.894036 24:-0.695032 25:-0.159099 
32768.000000 1:-0.262400 2:0.479445 3:-0.005955 4:-0.165009 5:-0.137430 6:-0.164092 7:-0.114912 8:-0.212154 9:0.166498 10:-1.090046 11:-1.324798 12:-1.291823 13:-1.483242 14:-1.936450 15:-2.174705 16:-1.854077 17:-0.748886 18:0.106338 19:-1.414761 20:1.767168 21:-0.923576 22:-0.855387 23:-0.627303 24:-0.338831 25:-0.530378 
-32768.000000 1:1.544114 2:1.102832 3:0.865241 4:0.893271 5:1.093013 6:1.238987 7:1.305172 8:1.228045 9:1.024547 10:1.650727 11:1.744617 12:2.020907 13:2.082459 14:2.304864 15:1.198855 16:0.740213 17:0.664313 18:0.413093 19:0.705739 20:0.299356 21:0.961058 22:0.995007 23:0.714352 24:0.274573 25:-0.470652 
-32768.000000 1:0.833937 2:0.682894 3:0.362628 4:0.225393 5:0.259046 6:0.515247 7:0.372270 8:0.687339 9:0.257576 10:-0.246062 11:-0.221293 12:-0.275805 13:-0.102023 14:0.116136 15:-0.239869 16:0.241636 17:0.100426 18:0.841273 19:0.705739 20:-0.948284 21:-0.385109 22:-0.062361 23:-0.627303 24:-0.615712 25:-0.578928 
-32768.000000 1:1.195683 2:0.990675 3:0.580427 4:0.351225 5:0.546149 6:0.852696 7:0.496657 8:0.247699 9:0.487667 10:-0.829020 11:-0.731316 12:-0.685628 13:-0.699572 14:-0.983464 15:-1.529760 16:-1.828725 17:-1.605159 18:-0.833101 19:0.705739 20:1.180043 21:0.691825 22:0.466323 23:2.087951 24:1.803465 25:-0.431184 
-32768.000000 1:1.319964 2:1.668837 3:1.847012 4:1.664396 5:1.677473 6:1.731841 7:1.585043 8:0.803565 9:1.110831 10:-1.481585 11:-0.295478 12:0.424308 13:0.671852 14:1.435656 15:1.446910 16:-0.299193 17:-1.584275 18:-1.146248 19:0.705739 20:0.079185 21:0.691825 22:0.000000 23:-0.291889 24:-0.000000 25:-0.438170 
-32768.000000 1:1.102472 2:0.761143 3:0.878644 4:0.560945 5:0.518806 6:0.173357 7:-0.016439 8:-0.348594 9:-0.720311 10:-0.846422 11:-0.304751 12:0.321852 13:1.102871 14:1.854552 15:3.401590 16:2.548610 17:1.388316 18:1.116075 19:0.705739 20:1.400215 21:1.768759 22:-0.485308 23:0.268731 24:0.478847 25:-0.081909 
-32768.000000 1:0.092689 2:-0.005701 3:-0.431500 4:-0.400541 5:-0.308325 6:-0.013128 7:-0.016439 8:-0.479980 9:-0.332032 10:0.771939 11:0.557653 12:0.219397 13:0.211445 14:0.147554 15:0.067720 16:0.393744 17:0.058656 18:0.496173 19:-1.414761 20:-0.654721 21:-0.923576 22:-1.119729 23:0.219218 24:0.726076 25:-0.352597 
-32768.000000 1:-2.279749 2:-2.160169 3:-2.247608 4:-2.139605 5:-2.017274 6:-2.139947 7:-2.141382 8:-2.086938 9:-2.014574 10:-0.185156 11:-0.017283 12:0.313314 13:0.573893 14:1.498491 15:1.665200 16:0.630357 17:0.302311 18:-0.558300 19:0.705739 20:-0.874893 21:-0.115876 22:1.523691 23:-0.371749 24:-0.854233 25:-0.048030 
-6921.461995 1:-0.706261 2:-1.137710 3:-1.148561 4:-1.129722 5:-1.032919 6:-0.630305 7:-0.187471 8:1.142138 9:0.051453 10:0.275990 11:0.316551 12:-0.105046 13:-0.229369 14:-0.533151 15:-0.745903 16:-0.713265 17:-1.145696 18:-0.564690 19:0.705739 20:-1.608799 21:0.691825 22:0.466323 23:1.161570 24:0.921756 25:-0.577181 
-3024.296931 1:1.153516 2:0.789835 3:-0.026059 4:-0.313427 5:-0.557832 6:-0.736868 7:-0.695384 8:-0.474927 9:-0.183432 10:0.702332 11:0.093995 12:-0.335571 13:-0.562429 14:-0.459845 15:0.196709 16:0.123330 17:0.149157 18:0.349186 19:0.705739 20:-0.581331 21:0.000000 22:0.000000 23:1.337263 24:-0.000000 25:-0.347009 
-32768.000000 1:-0.111487 2:-0.185675 3:0.030904 4:0.206034 5:-0.041729 6:-0.066409 7:-0.467342 8:-1.005526 9:-0.959989 10:0.162879 11:-0.128561 12:-0.369723 13:-0.572225 14:-0.711182 15:-0.418469 16:-0.248490 17:-0.268538 18:-0.085385 19:0.705739 20:-0.140987 21:0.153358 22:1.523691 23:-0.403694 24:-0.881438 25:-0.483576 
-32768.000000 1:0.998165 2:0.529003 3:0.252053 4:0.225393 5:0.511970 6:0.830496 7:1.693881 8:2.193230 9:1.614155 10:1.581120 11:2.013538 12:1.781844 13:2.229397 14:2.336281 15:1.814033 16:2.109186 17:1.019353 18:0.911571 19:0.705739 20:1.400215 21:0.000000 22:0.466323 23:-0.949939 24:-1.087933 25:-0.677074 
-32768.000000 1:1.142420 2:0.779401 3:0.791525 4:0.554492 5:0.194106 6:0.035713 7:-0.539901 8:-0.581047 9:-0.480633 10:-1.664303 11:-1.491715 12:-1.300361 13:-1.238345 14:-1.276690 15:-1.619060 16:-1.279446 17:-0.400808 18:-0.078994 19:-1.414761 20:2.134121 21:0.000000 22:-1.912756 23:-0.734316 24:-0.038336 25:-0.313479 
-32768.000000 1:1.226754 2:1.230640 3:1.495183 4:1.067500 5:1.294669 6:1.563116 7:1.512484 8:1.556511 9:0.684204 10:-0.837721 11:-0.536580 12:-0.190426 13:0.475934 14:0.953927 15:1.615588 16:1.128933 17:0.671274 18:-0.162074 19:0.705739 20:-0.361159 21:-0.115876 22:0.730665 23:-0.771051 24:-0.991233 25:-0.266676 
-1213.690456 1:1.078060 2:0.667244 3:0.051008 4:-0.165009 5:-0.127176 6:-0.119691 7:0.087217 8:0.020299 9:-0.116322 10:1.267888 11:0.585472 12:0.313314 13:0.426955 14:0.294167 15:0.474532 16:0.351492 17:1.457932 18:1.684851 19:0.705739 20:1.840559 21:1.230292 22:-0.062361 23:0.602548 24:0.624701 25:-0.439916 
-32768.000000 1:0.094908 2:0.101240 3:0.144829 4:0.131826 5:0.166763 6:0.524127 7:0.569216 8:0.672179 9:0.401383 10:0.502212 11:-0.119288 12:-0.455103 13:-0.474266 14:-0.554096 15:-0.775670 16:-0.223139 17:0.330157 18:0.866836 19:0.705739 20:0.446137 21:-0.654343 22:-1.384072 23:-0.702371 24:-0.220074 25:-0.571942 
-32768.000000 1:0.802866 2:0.693327 3:0.453099 4:0.328640 5:0.399180 6:0.626250 7:0.621044 8:0.641859 9:0.511635 10:0.423905 11:0.084722 12:-0.173350 13:-0.121615 14:-0.114256 15:0.137176 16:0.038825 17:0.845314 18:1.966044 19:0.705739 20:0.372747 21:-0.115876 22:0.201981 23:-0.802996 24:-0.872181 25:-0.486370 
-32768.000000 1:-0.084856 2:0.622903 3:0.412890 4:0.209261 5:0.252210 6:0.559648 7:0.843904 8:0.439726 9:0.588332 10:0.345597 11:0.121814 12:0.151093 13:-0.102023 14:-0.543624 15:-1.122948 16:-1.794923 17:-1.674775 18:-1.440222 19:0.705739 20:0.225966 21:1.499525 22:1.259349 23:0.620117 24:0.088103 25:-0.399051 
-32768.000000 1:0.088250 2:0.515962 3:0.309016 4:-0.216633 5:-0.198952 6:-0.075290 7:0.050937 8:0.318446 9:0.535603 10:0.919854 11:-0.063649 12:-0.292881 13:-0.346920 14:-0.480789 15:-0.626836 16:-0.763968 17:-1.319735 18:-1.453003 19:0.705739 20:0.152575 21:-0.385109 22:0.730665 23:-0.467582 24:-0.710476 25:-0.348057 
-22323.782467 1:1.248947 2:1.081966 3:0.922204 4:0.861006 5:0.771731 6:0.932618 7:0.781711 8:0.783352 9:1.321748 10:0.084571 11:-0.406756 12:-0.591710 13:-0.748551 14:-0.983464 15:-0.864970 16:-0.527355 17:0.260542 18:0.304451 19:0.705739 20:1.400215 21:0.422591 22:0.000000 23:-0.371749 24:-0.000000 25:-0.616999 
-32768.000000 1:-0.570884 2:-0.010918 3:1.093092 4:1.641811 5:2.220919 6:3.037237 7:3.300546 8:2.162910 9:2.079131 10:0.493511 11:0.131087 12:-0.386799 13:-0.709367 14:-0.952046 15:-1.182481 16:-0.645662 17:-0.400808 18:-1.037605 19:0.705739 20:0.446137 21:-0.654343 22:0.730665 23:-0.579386 24:-0.813912 25:-0.601281 
-10745.764384 1:-1.054692 2:-1.077718 3:-0.806785 4:-0.678017 5:-0.404026 6:-0.141891 7:0.247883 8:0.702499 9:0.502048 10:-0.019840 11:-0.267658 12:-0.301419 13:-0.219573 14:-0.040949 15:0.246320 16:0.605005 17:1.450970 18:1.620943 19:-1.414761 20:-0.507940 21:-0.923576 22:-1.912756 23:0.937961 24:2.057611 25:-0.379841 
-23158.885197 1:0.911612 2:1.235856 3:0.570375 4:0.309281 5:0.101823 6:0.164477 7:0.543302 8:0.555952 9:0.372622 10:-0.167754 11:-0.527307 12:-0.566096 13:-0.199982 14:0.786369 15:1.665200 16:3.216195 17:2.411667 18:0.176636 19:0.705739 20:-1.608799 21:-0.654343 22:0.995007 23:-0.365361 24:-0.696775 25:-0.380889 
-32768.000000 1:0.560962 2:0.583778 3:0.747965 4:0.164090 5:-0.130594 6:-0.035329 7:-0.472524 8:-0.525460 9:-0.547743 10:-1.507688 11:-1.139335 12:-1.027146 13:-1.101203 14:-1.580389 15:-1.946493 16:-2.073788 17:-1.076080 18:-0.922572 19:0.705739 20:0.152575 21:2.307226 22:0.995007 23:2.662946 24:2.027598 25:0.244663 
-5408.378382 1:-1.372053 2:-1.479399 3:-1.654525 4:-1.607239 5:-1.559275 6:-1.651533 7:-1.524630 8:-1.136913 9:-0.912054 10:3.434404 11:3.580702 12:2.772248 13:2.121643 14:1.163375 15:0.563832 16:0.959924 17:0.594697 18:0.553690 19:0.705739 20:-0.214378 21:-0.654343 22:1.206481 23:-0.646469 24:-1.006454 25:-0.735752 
-32768.000000 1:0.691901 2:0.547261 3:-0.119880 4:-0.610261 5:-0.988487 6:-1.211961 7:-1.073728 8:-0.965100 9:-0.653201 10:3.399600 11:3.793985 12:2.891780 13:2.405723 14:1.435656 15:0.762276 16:0.512050 17:0.692159 18:0.477001 19:0.705739 20:-1.168455 21:0.691825 22:0.466323 23:0.602548 24:0.389690 25:-0.011705 
-23006.905660 1:0.421146 2:0.808093 3:0.325770 4:-0.548958 5:-0.496309 6:-0.696907 7:-0.596911 8:-0.570940 9:-0.883292 10:0.476110 11:0.631838 12:0.552377 13:0.436751 14:0.053302 15:-0.190258 16:-0.704815 17:-0.818502 18:-1.222937 19:-1.414761 20:2.280902 21:0.000000 22:0.000000 23:-0.451610 24:-0.000000 25:-0.374602 
-32768.000000 1:0.698559 2:0.646377 3:0.526815 4:0.009220 5:-0.434787 6:-0.701347 7:-1.198115 8:-1.495699 9:-1.520836 10:1.293991 11:0.594745 12:0.108403 13:0.133078 14:0.262750 15:-0.279558 16:-0.332995 17:-0.679270 18:-0.309061 19:-1.414761 20:0.372747 21:0.287975 22:-2.705782 23:-0.627303 24:0.482438 25:0.359225 
-32768.000000 1:1.382105 2:0.844609 3:0.399487 4:0.473831 5:0.067644 6:-0.106371 7:-0.171923 8:-0.116140 9:-0.336826 10:1.937855 11:1.698251 12:0.407232 13:0.240833 14:0.440780 15:1.258388 16:1.619060 17:1.144661 18:0.809319 19:0.705739 20:0.666309 21:-0.115876 22:1.417955 23:-0.579386 24:-1.003642 25:-0.495451 
-32768.000000 1:0.467751 2:1.426263 3:1.592355 4:1.067500 5:1.410877 6:2.104811 7:2.238074 8:0.929898 9:0.233608 10:1.224384 11:0.307277 12:-0.455103 13:-1.081611 14:-1.381414 15:-1.648826 16:-1.609013 17:-0.895079 18:-0.449657 19:0.705739 20:-0.654721 21:-1.462043 22:-0.591045 23:-1.104868 24:-0.946631 25:-0.701872 
-32768.000000 1:0.307961 2:-0.180458 3:-0.652650 4:-0.742546 5:-0.725309 6:-0.905593 7:-1.255125 8:-1.616979 9:-1.899528 10:1.720333 11:1.865168 12:1.261028 13:1.426135 14:1.362350 15:1.099632 16:-0.071031 17:-1.507697 18:-1.357142 19:-1.414761 20:2.134121 21:0.000000 22:0.000000 23:0.000000 24:-0.000000 25:0.100761 
-32768.000000 1:0.316838 2:0.098631 3:-0.106477 4:-0.123065 5:0.033465 6:0.297681 7:0.439646 8:-0.085821 9:-0.288890 10:-1.159653 11:-0.935326 12:-0.805159 13:-0.768143 14:-0.763544 15:-0.864970 16:-0.780869 17:-0.038806 18:-0.737240 19:-1.414761 20:-0.434549 21:0.961058 22:-0.855387 23:1.512956 24:2.023667 25:-0.125918 
-32768.000000 1:-0.519840 2:-0.459548 3:-0.119880 4:-0.003686 5:0.265882 6:0.639570 7:1.279258 8:1.485765 9:1.408032 10:1.328795 11:1.512788 12:1.619623 13:1.974704 14:1.917386 15:1.268310 16:0.630357 17:0.218772 18:-0.686114 19:0.705739 20:1.546996 21:-0.654343 22:-1.119729 23:-1.298130 24:-1.001579 25:-0.432581 
-32768.000000 1:-1.267745 2:-1.239434 3:-1.014531 4:-0.861925 5:-0.530488 6:-0.133011 7:0.543302 8:0.869258 9:1.259431 10:-1.098747 11:-1.000238 12:-0.642938 13:-0.552633 14:-1.035826 15:-1.083259 16:-0.628761 17:0.768736 18:1.467566 19:0.705739 20:1.326824 21:-0.115876 22:0.995007 23:-0.371749 24:-0.702523 25:-0.601630 
-32768.000000 1:-0.277935 2:0.030815 3:0.449748 4:0.283469 5:0.238539 6:0.271040 7:0.548485 8:0.813672 9:0.780075 10:0.728435 11:1.596246 12:2.106287 13:2.797558 14:2.189668 15:1.109555 16:0.250086 17:-0.665347 18:-0.270716 19:0.705739 20:-1.241846 21:0.691825 22:0.995007 23:0.514701 24:0.094960 25:-0.460174 
-32768.000000 1:0.800647 2:0.865476 3:0.530166 4:0.154411 5:-0.304907 6:-0.417179 7:-0.270396 8:0.070833 9:0.046659 10:0.180280 11:-0.128561 12:-0.198964 13:-0.170594 14:0.357001 15:0.782121 16:0.613456 17:0.204849 18:0.681504 19:0.705739 20:-1.095065 21:0.961058 22:1.259349 23:1.241431 24:0.631850 25:-0.387525 
-32768.000000 1:-0.881586 2:-1.038594 3:-0.766575 4:-0.555411 5:-0.468966 6:-0.625865 7:-0.861233 8:-0.545673 9:-0.063593 10:-0.063344 11:-0.453121 12:-0.480717 13:-0.366512 14:0.021885 15:-0.051347 16:-0.290743 17:-0.073614 18:-0.072603 19:0.705739 20:0.372747 21:0.530285 22:0.175547 23:0.409285 24:0.326549 25:-0.367966 
-32768.000000 1:1.275578 2:1.410613 3:1.706280 4:0.606116 5:-0.092997 6:-0.430500 7:-0.570997 8:-0.535567 9:-0.351207 10:0.310793 11:-0.100742 12:-0.446565 13:-0.631000 14:-0.669292 15:-0.855048 16:-0.561157 17:-0.003998 18:0.087165 19:-1.414761 20:-0.874893 21:0.691825 22:-1.119729 23:1.385179 24:2.053642 25:-0.072828 
-1625.227111 1:1.180148 2:1.512338 3:0.804928 4:0.386716 5:-0.147684 6:-0.452700 7:-0.513987 8:-0.348594 9:-0.154670 10:-0.942131 11:-0.647858 12:-0.455103 13:-0.366512 14:-0.177090 15:0.246320 16:1.669763 17:1.764241 18:1.154419 19:-1.414761 20:0.152575 21:-0.654343 22:-1.066861 23:1.359624 24:1.989882 25:-0.469255 
-32768.000000 1:0.980411 2:0.695935 3:0.228598 4:-0.006912 5:0.077897 6:0.035713 7:-0.037170 8:0.475099 9:0.521222 10:0.502212 11:0.149634 12:0.005947 13:-0.033452 14:0.461725 15:0.762276 16:0.943024 17:-0.421692 18:-0.379359 19:-1.414761 20:0.372747 21:0.000000 22:-1.331203 23:0.691991 24:1.390095 25:-0.045934 
-14015.664148 1:-0.761744 2:-0.561272 3:-0.588986 4:-0.458617 5:-0.185281 6:0.284360 7:0.356722 8:0.096099 9:-0.125909 10:-0.507088 11:-0.091468 12:0.458460 13:1.220421 14:1.529908 15:1.307999 16:0.605005 17:-0.247653 18:0.636769 19:0.705739 20:0.372747 21:-0.923576 22:0.175547 23:-1.140006 24:-1.195493 25:-0.597090 
-32768.000000 1:0.767357 2:1.181082 3:0.744614 4:0.335093 5:-0.164773 6:-0.350577 7:-0.726481 8:-0.651793 9:-0.279303 10:-2.099346 11:-1.519535 12:-1.103988 13:-1.169774 14:-1.318580 15:-1.390848 16:-0.831572 17:-0.150191 18:0.905180 19:-1.414761 20:1.033262 21:0.000000 22:-1.648414 23:0.043525 24:0.793085 25:-0.290776 
-32768.000000 1:-0.746209 2:-0.968169 3:-0.696210 4:-0.355371 5:-0.438205 6:-0.275095 7:0.465560 8:0.919792 9:1.024547 10:0.798042 11:0.437102 12:0.176707 13:0.123283 14:0.241805 15:0.256242 16:0.782465 17:0.726967 18:1.838229 19:0.705739 20:1.326824 21:0.427976 22:0.201981 23:-0.355777 24:-0.434101 25:-0.523044 
-32768.000000 1:1.233411 2:1.199340 3:0.419591 4:0.231846 5:0.033465 6:-0.088610 7:0.242701 8:0.480152 9:0.080214 10:-0.550592 11:-0.610765 12:-0.668552 13:-0.631000 14:-0.292286 15:0.107409 16:0.292339 17:-0.059691 18:-0.219590 19:0.705739 20:1.033262 21:0.422591 22:-0.062361 23:0.011581 24:0.028658 25:-0.384032 
-26046.378651 1:-0.335637 2:-0.509106 3:-0.404694 4:-0.455391 5:-0.574921 6:-0.723548 7:-0.342955 8:0.020299 9:0.358241 10:0.406503 11:-0.063649 12:-0.250191 13:-0.288145 14:-0.281814 15:0.246320 16:1.213438 17:1.082007 18:1.103293 19:0.705739 20:-0.507940 21:-1.192810 22:0.000000 23:-1.138409 24:-0.000000 25:-0.504532 
-32768.000000 1:1.371008 2:1.298456 3:1.026077 4:0.573851 5:0.395762 6:0.377603 7:0.714334 8:1.025912 9:1.455967 10:-1.298867 11:-0.935326 12:-0.941767 13:-0.993448 14:-1.308107 15:-0.993959 16:-1.372401 17:-0.491308 18:-0.213200 19:0.705739 20:-0.140987 21:-0.385109 22:-0.035927 23:1.394763 24:1.409131 25:0.043830 
-32768.000000 1:-0.175847 2:-0.514322 3:-0.508568 4:-0.465070 5:-0.356176 6:-0.053089 7:0.019841 8:1.056232 9:0.641061 10:-0.341772 11:-0.564399 12:-0.591710 13:-0.836714 14:-1.140549 15:-1.132870 16:-0.628761 17:0.281426 18:0.962697 19:-1.414761 20:-0.214378 21:-0.923576 22:-1.119729 23:-0.323833 24:0.107757 25:-0.539110 
-32768.000000 1:-0.639682 2:-0.981211 3:-0.649299 4:-0.429579 5:-0.188699 6:0.026833 7:-0.301492 8:-0.596207 9:-0.571711 10:-0.968234 11:-1.018784 12:-0.924691 13:-0.856306 14:-0.889212 15:-1.013803 16:-0.332995 17:-0.407769 18:-0.456048 19:-1.414761 20:0.519528 21:-1.462043 22:-1.410506 23:-0.892439 24:-0.442997 25:0.035796 
-32768.000000 1:1.493070 2:1.220207 3:0.999271 4:0.602889 5:0.611089 6:0.928178 7:0.812807 8:1.025912 9:1.537458 10:-0.480985 11:-0.230566 12:-0.011128 13:0.280017 14:0.671173 15:0.970643 16:1.120483 17:0.204849 18:0.234152 19:-1.414761 20:-0.214378 21:-0.385109 22:-0.062361 23:0.479562 24:0.500660 25:-0.195074 
-32768.000000 1:1.255604 2:1.423655 3:1.213719 4:0.838421 5:0.470956 6:0.302121 7:0.035389 8:0.075886 9:0.008311 10:0.014964 11:0.752389 12:1.397636 13:1.857154 14:1.770773 15:1.427066 16:0.385294 17:-0.484346 18:-0.379359 19:-1.414761 20:0.592919 21:0.153358 22:-1.384072 23:0.794212 24:1.538464 25:-0.261786 
-32768.000000 1:1.226754 2:1.397572 3:1.619161 4:1.606320 5:0.505135 6:-0.239574 7:-0.576180 8:-0.949940 9:-1.190080 10:-1.107448 11:-0.759136 12:-0.762469 13:-0.777939 14:-1.098660 15:-1.499993 16:-1.304797 17:-1.319735 18:-1.267672 19:0.705739 20:1.033262 21:1.768759 22:0.201981 23:0.602548 24:0.504641 25:-0.028470 
-32768.000000 1:0.873884 2:1.288023 3:0.205143 4:-0.026271 5:-0.178445 6:-0.133011 7:0.221969 8:0.166846 9:0.180879 10:-1.081345 11:-0.740589 12:-0.386799 13:0.044915 14:-0.260869 15:-0.577225 16:-0.594959 17:-0.519154 18:-0.315451 19:0.705739 20:-0.067597 21:2.576459 22:0.492757 23:4.212238 24:3.804294 25:-0.486719 
-8413.152247 1:-0.280155 2:0.069940 3:0.463151 4:0.377037 5:0.655522 6:1.172385 7:2.346913 8:2.289244 9:1.307367 10:-0.933430 11:-0.555126 12:-0.309957 13:-0.023656 14:0.639756 15:1.119477 16:2.607763 17:5.864606 18:5.321183 19:-1.414761 20:0.813090 21:-3.077444 22:-2.441440 23:-2.352287 24:-1.964086 25:-0.666945 
-32768.000000 1:-0.082636 2:0.930684 3:1.069637 4:0.806156 5:0.686283 6:0.715052 7:1.030484 8:0.904632 9:0.583539 10:0.754537 11:0.733843 12:-0.087970 13:-0.484062 14:-0.637875 15:-0.537536 16:-1.009031 17:-0.832425 18:-1.107903 19:0.705739 20:0.299356 21:-0.115876 22:-0.326703 23:-0.882856 24:-0.898621 25:-0.486020 
-1520.282240 1:-1.931318 2:-1.943679 3:-2.026459 4:-1.923432 5:-1.819036 6:-1.815818 7:-1.695662 8:-1.485592 9:-1.357855 10:-0.820319 11:-0.480941 12:-0.292881 13:-0.787735 14:-1.538500 15:-2.125094 16:-2.242797 17:-1.918430 18:-1.593600 19:0.705739 20:1.180043 21:0.153358 22:0.995007 23:0.339008 24:-0.063100 25:-0.594645 
-32768.000000 1:-0.579761 2:-0.509106 3:0.037605 4:0.225393 5:0.532478 6:0.737253 7:0.963108 8:1.369538 9:1.269018 10:-0.889926 11:-0.712770 12:-0.540482 13:-0.395899 14:0.095192 15:0.305854 16:0.790915 17:0.970622 18:0.419484 19:-1.414761 20:0.152575 21:-0.385109 22:-0.353137 23:-0.065085 24:-0.495976 25:-0.263882 
-858.037310 1:0.521015 2:0.437712 3:-0.207000 4:-0.245671 5:-0.226295 6:0.262160 7:0.792076 8:0.717659 9:1.010166 10:-1.298867 11:-1.148608 12:-0.779545 13:-0.826918 14:-0.889212 15:-0.755825 16:-0.502004 17:-0.560924 18:0.048821 19:-1.414761 20:-0.434549 21:2.845693 22:-0.881822 23:0.584978 24:1.008642 25:-0.286584 
-32768.000000 1:0.705217 2:1.392355 3:0.647442 4:0.457698 5:-0.188699 6:-0.461580 7:-0.260030 8:0.262859 9:0.353448 10:0.423905 11:0.260912 12:0.168169 13:0.613077 14:0.629283 15:1.307999 16:1.483853 17:0.761775 18:0.534517 19:0.705739 20:-0.948284 21:-0.385109 22:0.201981 23:-0.595359 24:-0.668787 25:-0.197170 
-32768.000000 1:0.447777 2:0.787226 3:0.583778 4:0.515775 5:0.200942 6:0.479726 7:0.833538 8:1.116872 9:0.794456 10:-0.611498 11:-0.425302 12:-0.600248 13:-0.670184 14:-0.899685 15:-0.785592 16:-0.569608 17:-0.261576 18:0.355577 19:-1.414761 20:0.519528 21:-0.923576 22:-1.119729 23:0.011581 24:0.489660 25:-0.411625 
-22753.221289 1:0.760699 2:1.710570 3:1.542093 4:1.054594 5:0.891357 6:0.794975 7:0.776528 8:0.485206 9:0.204847 10:-2.429979 11:-2.048105 12:-1.769949 13:-2.002424 14:-2.386763 15:-2.631128 16:-2.479410 17:-1.925392 18:-1.453003 19:-1.414761 20:-0.287768 21:-1.731277 22:-0.591045 23:-1.010633 24:-0.845739 25:-0.750072 
-32768.000000 1:-0.140338 2:-0.347390 3:0.027553 4:-0.106933 5:-0.192117 6:-0.208493 7:-0.327406 8:-0.474927 9:-0.993544 10:0.841546 11:0.066175 12:-0.190426 13:-0.141206 14:-0.281814 15:-0.329169 16:-0.645662 17:-1.124811 18:-0.769194 19:0.705739 20:-0.654721 21:3.922627 22:-0.591045 23:2.966415 24:3.412253 25:0.013792 
-32768.000000 1:0.718533 2:0.497703 3:-0.106477 4:-0.287615 5:-0.509981 6:-0.408299 7:-0.420696 8:0.060726 9:-0.039625 10:3.521413 11:4.174184 12:2.900318 13:2.464498 14:2.472422 15:2.012478 16:1.957078 17:2.063588 18:0.636769 19:0.705739 20:-0.948284 21:0.153358 22:0.704231 23:-0.189668 24:-0.444627 25:-0.452839 
-32768.000000 1:-0.803911 2:-0.652563 3:-1.074845 4:-1.145854 5:-1.060262 6:-1.140919 7:-0.638374 8:0.030406 9:-0.001276 10:-0.976935 11:-0.907506 12:-0.685628 13:-0.738755 14:-0.732126 15:-0.507770 16:-0.704815 17:0.002964 18:0.592034 19:0.705739 20:-1.682189 21:-0.115876 22:0.995007 23:-0.180084 24:-0.530094 25:-0.526187 
-32768.000000 1:0.616445 2:1.441913 3:1.220421 4:0.677098 5:0.156509 6:-0.181853 7:-0.648739 8:-0.520407 9:-0.384762 10:-0.681105 11:-0.406756 12:-0.164812 13:-0.151002 14:-0.103784 15:-0.448236 16:-1.127338 17:-0.957733 18:-1.369924 19:0.705739 20:0.592919 21:1.230292 22:2.052376 23:1.391568 24:0.429632 25:-0.218476 
-12245.997612 1:-1.294377 2:-1.229000 3:-0.890553 4:-0.607035 5:-0.270728 6:-0.133011 7:0.232335 8:0.384139 9:-0.403936 10:0.293392 11:-0.072922 12:-0.250191 13:-0.111819 14:-0.135201 15:-0.180336 16:0.148681 17:1.061122 18:0.470610 19:0.705739 20:-0.434549 21:0.099511 22:1.735165 23:0.093038 24:-0.524116 25:-0.671485 
-8114.847423 1:-0.133680 2:-0.052651 3:-0.119880 4:-0.216633 5:-0.318579 6:0.115636 7:0.838721 8:1.162352 9:1.010166 10:-0.159053 11:-0.518034 12:-0.711242 13:-0.777939 14:-0.648347 15:-0.438314 16:-0.358346 17:-0.331192 18:-0.296279 19:0.705739 20:-0.728112 21:0.153358 22:-0.062361 23:-0.365361 24:-0.351520 25:-0.480083 
-32768.000000 1:-0.684068 2:-0.722988 3:-0.458306 4:-0.165009 5:0.163345 6:0.728373 7:1.160054 8:0.818725 9:1.014960 10:-1.116149 11:-0.786955 12:-0.429489 13:0.191854 14:0.419836 15:0.682898 16:0.106429 17:-0.769771 18:-0.730850 19:-1.414761 20:0.372747 21:0.000000 22:0.000000 23:0.000000 24:-0.000000 25:-0.162243 
-32768.000000 1:0.762919 2:0.270780 3:-0.056216 4:0.057617 5:0.443612 6:1.052502 7:1.071947 8:0.338659 9:0.037072 10:-0.559293 11:-0.545853 12:-0.455103 13:-0.572225 14:-0.815906 15:-1.093181 16:-1.609013 17:-1.779199 18:-1.657507 19:0.705739 20:0.666309 21:-0.654343 22:0.466323 23:-0.627303 24:-0.780855 25:-0.255848 
-32768.000000 1:-1.682755 2:-1.575906 3:-1.587510 4:-1.533030 5:-1.374709 6:-1.216401 7:-0.861233 8:-0.611367 9:-0.897673 10:-0.594097 11:-0.351117 12:-0.139198 13:0.084099 14:0.074247 15:-0.001736 16:-0.349896 17:0.086502 18:-0.098166 19:0.705739 20:1.253434 21:1.230292 22:2.369586 23:1.394763 24:0.309312 25:-0.164687 
-32768.000000 1:-0.391120 2:-0.801237 3:-0.766575 4:-0.626394 5:-0.342504 6:-0.688027 7:-0.990803 8:-0.894353 9:-0.820976 10:0.154178 11:0.288731 12:0.390156 13:0.632668 14:0.535032 15:0.375309 16:0.207834 17:1.353508 18:2.093858 19:0.705739 20:1.620387 21:0.422591 22:0.201981 23:-0.259945 24:-0.340227 25:-0.128363 
-32768.000000 1:0.403391 2:-0.227408 3:-0.686157 4:-0.849020 5:-0.926964 6:-1.038796 7:-0.793857 8:-0.429447 9:-0.173845 10:-0.011139 11:-0.527307 12:-0.685628 13:-0.787735 14:-0.920629 15:-1.172559 16:-1.211842 17:-0.755848 18:-0.673333 19:0.705739 20:-0.728112 21:-0.385109 22:-0.062361 23:-0.857301 24:-0.847685 25:0.000000 
-32768.000000 1:1.069183 2:1.522771 3:1.133301 4:0.489963 5:0.088151 6:-0.177412 7:-0.197837 8:0.141579 9:0.597919 10:0.450007 11:0.400009 12:0.646295 13:0.701240 14:0.566449 15:0.484454 16:0.976825 17:0.462427 18:0.719849 19:0.705739 20:0.592919 21:-0.654343 22:0.730665 23:-0.894036 24:-1.105013 25:-0.443060 
-32768.000000 1:-0.002741 2:0.002124 3:-0.072970 4:-0.365050 5:-0.393772 6:-0.381658 7:-0.042353 8:0.712605 9:0.650649 10:-2.342971 11:-1.927554 12:-1.556500 13:-1.620385 14:-2.177315 15:-2.551750 16:-2.386455 17:-1.995007 18:-1.721415 19:0.705739 20:-1.755580 21:0.099511 22:0.000000 23:0.000000 24:-0.000000 25:-0.525838 
-32768.000000 1:-0.786156 2:-0.618655 3:-0.223754 4:-0.100480 5:0.245374 6:0.905978 7:1.771623 8:2.238710 9:1.695646 10:-0.541892 11:-0.369663 12:-0.096508 13:0.221241 14:0.147554 15:0.147098 16:-0.510454 17:-0.540039 18:-0.986479 19:0.705739 20:0.299356 21:-0.255877 22:-0.591045 23:-0.646469 24:-0.455850 25:-0.562162 
