svm_type c_svc
kernel_type rbf
gamma 0.000001
nr_class 2
total_sv 262
rho 506.446343 
probA -1.036977
probB 0.093548
label 1 0 
nr_sv 131 131 
SV
1048576.000000 1:0.891638 2:1.381922 3:0.620636 4:0.289922 5:-0.181863 6:-0.767949 7:-0.881965 8:-0.853926 9:-0.614853 10:0.075870 11:-0.360390 12:-0.574634 13:-0.679980 14:-0.637875 15:-0.497847 16:0.190933 17:0.239657 18:0.949916 19:-1.414761 20:-0.654721 21:0.961058 22:0.466323 23:2.032049 24:1.750355 
1048576.000000 1:0.782893 2:0.951550 3:0.111322 4:-0.084348 5:-0.424534 6:-0.861191 7:-1.275857 8:-1.298619 9:-1.228429 10:3.277788 11:3.497244 12:2.345350 13:1.690624 14:0.932982 15:0.395154 16:1.019078 17:1.360470 18:1.953262 19:-1.414761 20:0.446137 21:1.768759 22:0.000000 23:0.000000 24:-0.000000 
1048576.000000 1:0.119320 2:0.236872 3:-0.106477 4:0.012446 5:0.173599 6:0.102315 7:-0.182288 8:-0.136354 9:-0.284097 10:-0.072045 11:-0.851867 12:-0.873463 13:-0.856306 14:-1.109132 15:-0.547458 16:0.376843 17:0.608620 18:1.295016 19:0.705739 20:0.225966 21:2.037992 22:0.704231 23:1.219070 24:0.862355 
1048576.000000 1:1.106911 2:0.839393 3:0.128076 4:0.080202 5:0.064226 6:-0.084170 7:-0.011256 8:0.121366 9:0.046659 10:-1.351072 11:-1.092969 12:-0.873463 13:-0.836714 14:-0.868267 15:-0.825281 16:-0.848473 17:-1.152657 18:-0.781976 19:0.705739 20:0.299356 21:-0.654343 22:0.466323 23:0.043525 24:-0.142376 
1048576.000000 1:0.081592 2:0.056898 3:-0.096425 4:-0.206953 5:-0.383519 6:-0.639185 7:-0.322223 8:-0.338487 9:-0.173845 10:-0.080746 11:-0.045103 12:-0.096508 13:-0.023656 14:-0.082839 15:-0.160491 16:-0.383698 17:-0.470423 18:0.278888 19:0.705739 20:0.592919 21:0.691825 22:-1.119729 23:0.378938 24:0.907934 
516664.922693 1:0.862787 2:1.115874 3:0.332471 4:0.180222 5:-0.041729 6:-0.212933 7:-0.280761 8:-0.515353 9:-0.360794 10:-0.480985 11:-0.100742 12:0.842668 13:1.661236 14:2.053527 15:0.553909 16:0.266987 17:-0.073614 18:-0.398531 19:0.705739 20:-0.214378 21:1.499525 22:0.995007 23:0.538659 24:0.107990 
1048576.000000 1:0.436681 2:0.109065 3:-0.481761 4:-0.516694 5:-0.291236 6:-0.283975 7:-0.094181 8:0.434672 9:-0.384762 10:0.928555 11:0.585472 12:0.279162 13:0.005732 14:-0.334176 15:-0.755825 16:-0.890725 17:-0.505231 18:-0.788366 19:0.705739 20:0.592919 21:-0.654343 22:1.259349 23:-0.962716 24:-1.297125 
1048576.000000 1:0.374540 2:0.393371 3:0.362628 4:0.277016 5:0.170181 6:0.204438 7:-0.482890 8:-0.778126 9:-0.432697 10:0.667529 11:0.706023 12:0.919510 13:1.259605 14:0.828258 15:0.137176 16:-0.307644 17:-0.449539 18:-0.820320 19:0.705739 20:0.372747 21:0.691825 22:0.466323 23:0.057900 24:-0.128694 
1048576.000000 1:0.787331 2:0.873301 3:1.143354 4:0.709363 5:0.450448 6:0.142276 7:-0.006073 8:-0.075714 9:-0.471046 10:-0.576695 11:-0.601492 12:-0.608786 13:-0.836714 14:-1.318580 15:-1.430537 16:-0.611860 17:-0.268538 18:0.470610 19:0.705739 20:-1.315236 21:-0.546649 22:-0.062361 23:-0.180084 24:-0.368826 
1048576.000000 1:1.293333 2:1.243681 3:1.160107 4:0.970706 5:1.072506 6:1.367750 7:1.253344 8:0.591325 9:0.890327 10:-1.429380 11:-1.055877 12:-0.660014 13:-0.248961 14:-0.103784 15:-0.855048 16:-1.118887 17:-0.143229 18:0.355577 19:0.705739 20:-0.948284 21:0.153358 22:-1.912756 23:-0.576192 24:0.159848 
1048576.000000 1:0.410049 2:0.878517 3:0.329121 4:0.160864 5:0.177016 6:0.177797 7:0.304894 8:0.010193 9:-0.130703 10:-0.141652 11:0.001263 12:0.134017 13:0.662056 14:0.807314 15:1.387377 16:0.985276 17:0.949737 18:0.195808 19:-1.414761 20:-0.214378 21:0.422591 22:0.000000 23:1.148793 24:-0.000000 
1048576.000000 1:1.042551 2:1.196732 3:1.250578 4:0.925536 5:0.453866 6:0.981460 7:1.486570 8:1.374591 9:0.928675 10:-1.673004 11:-0.907506 12:-0.164812 13:0.652260 14:0.912037 15:0.623365 16:0.402194 17:0.218772 18:1.039386 19:0.705739 20:1.106653 21:2.576459 22:-1.119729 23:0.826157 24:1.994061 
1048576.000000 1:-0.788375 2:-0.673430 3:-0.347731 4:-0.187594 5:0.091569 6:0.422004 7:0.429281 8:-0.040341 9:-0.523775 10:-1.464183 11:-1.454622 12:-1.052760 13:-1.120795 14:-1.004408 15:-1.400771 16:-1.321698 17:-0.964695 18:-0.379359 19:-1.414761 20:0.152575 21:-0.923576 22:-2.177098 23:-1.381185 24:-0.758390 
1048576.000000 1:-2.335231 2:-2.201902 3:-2.254310 4:-2.065396 5:-1.860050 6:-2.188788 7:-2.317597 8:-2.278965 9:-2.211110 10:-1.577294 11:-1.222794 12:-0.890539 13:-0.650592 14:-0.512206 15:-0.398625 16:-0.358346 17:-1.194427 18:-0.398531 19:-1.414761 20:1.400215 21:0.691825 22:-1.384072 23:0.514701 24:1.210028 
1048576.000000 1:0.461093 2:0.367288 3:0.674248 4:0.448019 5:0.173599 6:0.120076 7:0.201238 8:0.459939 9:0.377415 10:-2.160252 11:-1.593720 12:-1.189368 13:-1.003244 14:-1.224328 15:-1.549604 16:-1.659716 17:-1.612121 18:-1.280453 19:-1.414761 20:-0.581331 21:0.961058 22:-1.648414 23:0.874073 24:1.800744 
1048576.000000 1:0.327935 2:0.328163 3:0.315718 4:0.357678 5:0.317150 6:0.284360 7:0.351539 8:0.414459 9:1.053308 10:0.467409 11:0.223819 12:0.253548 13:0.417159 14:0.440780 15:0.375309 16:0.883870 17:1.457932 18:1.480347 19:0.705739 20:-0.361159 21:0.422591 22:-0.326703 23:0.394910 24:0.534458 
1048576.000000 1:1.111350 2:0.688110 3:0.252053 4:-0.239218 5:-0.123759 6:0.088995 7:0.221969 8:0.055673 9:0.065834 10:0.423905 11:0.335097 12:0.125479 13:-0.111819 14:-0.239925 15:-0.825281 16:-0.594959 17:-0.936849 18:-1.024824 19:-1.414761 20:0.225966 21:-0.654343 22:-0.062361 23:0.487549 24:0.500039 
1048576.000000 1:-1.438632 2:-1.035985 3:-0.625844 4:-0.513467 5:-0.140848 6:0.630690 7:1.600591 8:2.001204 9:1.499110 10:-0.098147 11:0.622565 12:1.397636 13:2.670212 14:2.933207 15:1.030177 16:0.334591 17:-0.679270 18:-1.012042 19:-1.414761 20:-0.140987 21:-0.385109 22:-0.855387 23:1.209487 24:1.688686 
1048576.000000 1:0.800647 2:0.828959 3:0.647442 4:0.673871 5:0.734134 6:0.852696 7:0.646958 8:0.803565 9:0.660236 10:0.658828 11:0.205273 12:0.040099 13:0.133078 14:-0.145673 15:-0.339092 16:-0.197788 17:-0.379923 18:-0.897009 19:0.705739 20:-1.975752 21:0.691825 22:2.316718 23:0.730324 24:-0.193133 
748441.545401 1:0.842814 2:1.131524 3:0.573726 4:0.199581 5:-0.598846 6:-0.905593 7:-1.130738 8:-1.323886 9:-1.271571 10:0.389101 11:0.539106 12:0.347466 13:0.622873 14:0.671173 15:0.702743 16:0.790915 17:-0.184999 18:-0.890618 19:0.705739 20:-0.214378 21:1.230292 22:1.788033 23:1.017822 24:0.226523 
1048576.000000 1:-0.140338 2:0.309905 3:0.758017 4:0.493189 5:0.409433 6:0.581849 7:0.543302 8:0.444779 9:0.463700 10:0.362998 11:0.400009 12:0.082789 13:-0.151002 14:-0.145673 15:-0.894737 16:-1.423103 17:-0.219807 18:0.528127 19:-1.414761 20:0.666309 21:-1.462043 22:-1.912756 23:-1.298130 24:-0.744993 
1048576.000000 1:1.153516 2:0.281213 3:0.164934 4:0.609342 5:1.058834 6:1.216786 7:1.004570 8:0.232539 9:0.200053 10:0.571819 11:0.103268 12:-0.275805 13:-0.337124 14:-0.397010 15:-0.884814 16:-0.299193 17:-0.748886 18:-0.666942 19:0.705739 20:-0.287768 21:0.422591 22:0.201981 23:0.043525 24:-0.042959 
1048576.000000 1:0.145952 2:-0.355215 3:-1.108352 4:-1.158760 5:-1.251665 6:-1.163120 7:-0.913061 8:-0.479980 9:-0.705930 10:1.259188 11:1.058403 12:0.279162 13:-0.102023 14:-0.334176 15:-0.745903 16:-0.806220 17:-1.452005 18:-1.612772 19:-1.414761 20:-1.755580 21:-1.731277 22:-1.384072 23:-1.210284 24:-0.816889 
112984.342822 1:-0.937069 2:-1.101193 3:-1.101651 4:-0.797396 5:-0.311743 6:-0.585904 7:-0.938975 8:-0.924673 9:-0.480633 10:-0.968234 11:-0.777682 12:-0.753931 13:-0.591817 14:-0.239925 15:-0.100958 16:-0.527355 17:-1.006464 18:-1.024824 19:0.705739 20:0.813090 21:1.230292 22:-0.326703 23:1.257403 24:1.430519 
1048576.000000 1:1.182367 2:0.912425 3:0.959062 4:0.380263 5:0.539314 6:0.839376 7:0.450012 8:0.464992 9:0.535603 10:-0.785516 11:-0.582946 12:-0.284343 13:0.142874 14:0.650228 15:0.821810 16:0.486699 17:0.351042 18:0.413093 19:0.705739 20:1.767168 21:-0.115876 22:-0.591045 23:0.107413 24:0.351287 
1048576.000000 1:0.287987 2:0.135148 3:-0.347731 4:-0.665111 5:-1.032919 6:-1.158680 7:-1.327684 8:-1.207659 9:-1.142145 10:-0.628900 11:-0.499487 12:-0.327033 13:-0.307736 14:-0.459845 15:-0.597070 16:-1.262545 17:-1.507697 18:-1.254890 19:0.705739 20:0.005794 21:2.037992 22:0.201981 23:0.714352 24:0.614161 
1048576.000000 1:1.049209 2:0.573345 3:0.352576 4:0.473831 5:0.635015 6:0.803855 7:0.735065 8:0.945058 9:0.688997 10:-0.454883 11:-0.388209 12:-0.617324 13:-0.719163 14:-0.826378 15:-0.815359 16:-0.442851 17:-0.017921 18:0.866836 19:0.705739 20:-0.654721 21:-0.385109 22:-0.326703 23:0.514701 24:0.658911 
1048576.000000 1:1.375447 2:0.883734 3:0.422942 4:0.109240 5:0.108658 6:0.382043 7:0.351539 8:0.414459 9:0.219228 10:-0.559293 11:-0.582946 12:-0.438027 13:-0.699572 14:-0.711182 15:-0.031502 16:-0.214689 17:-0.936849 18:-1.491348 19:0.705739 20:0.299356 21:-0.115876 22:1.259349 23:0.490743 24:-0.025120 
1048576.000000 1:-1.034718 2:-1.309858 3:-1.239032 4:-0.907096 5:-0.909875 6:-0.799030 7:-0.736847 8:-0.373860 9:-0.336826 10:-0.089447 11:0.001263 12:-0.002590 13:-0.004064 14:0.147554 15:0.514221 16:0.765564 17:-0.233730 18:-0.015087 19:0.705739 20:-0.287768 21:-0.385109 22:1.391520 23:0.022761 24:-0.474785 
1048576.000000 1:1.202341 2:0.753318 3:0.282210 4:0.202808 5:-0.089580 6:-0.528182 7:-0.379234 8:-0.586100 9:-0.681963 10:1.015563 11:0.529833 12:-0.079432 13:-0.405695 14:-0.753071 15:-0.835203 16:-0.814671 17:-1.020387 18:-0.730850 19:0.705739 20:1.033262 21:-0.654343 22:0.201981 23:-0.627303 24:-0.700078 
1048576.000000 1:0.487725 2:0.312513 3:0.359277 4:0.480284 5:0.864014 6:1.287828 7:1.595408 8:1.061285 9:0.262370 10:0.215084 11:0.233092 12:0.040099 13:0.280017 14:0.807314 15:1.466755 16:1.796519 17:-0.226768 18:-0.034259 19:0.705739 20:0.666309 21:1.230292 22:1.259349 23:1.219070 24:0.612281 
167760.874829 1:0.731848 2:0.568128 3:0.640741 4:0.867459 5:0.751223 6:0.364283 7:0.133862 8:0.227486 9:0.363035 10:0.302092 11:0.112541 12:-0.087970 13:-0.062839 14:-0.187563 15:-0.259714 16:-0.231590 17:1.360470 18:0.866836 19:0.705739 20:0.813090 21:-2.538977 22:0.995007 23:1.385179 24:0.878074 
1048576.000000 1:0.319058 2:-0.138725 3:-0.210351 4:-0.100480 5:0.074479 6:0.231079 7:0.605496 8:0.495312 9:0.434938 10:-0.872524 11:-0.824048 12:-0.685628 13:-0.533042 14:-0.627403 15:-0.497847 16:-1.135788 17:-1.521620 18:-1.414659 19:-1.414761 20:0.079185 21:-0.115876 22:-1.119729 23:0.936364 24:1.542620 
1048576.000000 1:0.565401 2:0.941117 3:0.258755 4:0.044711 5:-0.410862 6:-0.696907 7:-0.664287 8:-0.818553 9:-0.672375 10:0.206383 11:0.381463 12:0.321852 13:0.573893 14:0.953927 15:1.129399 16:1.788069 17:1.144661 18:1.550645 19:0.705739 20:-0.581331 21:0.422591 22:0.201981 23:0.057900 24:-0.028878 
1048576.000000 1:0.649734 2:1.308889 3:0.677599 4:0.196355 5:-0.410862 6:-0.648066 7:-0.902696 8:-1.197553 9:-1.353062 10:0.606623 11:-0.416029 12:-0.762469 13:-0.885693 14:-0.627403 15:-0.587147 16:-0.738617 17:-0.184999 18:-0.507174 19:0.705739 20:-0.214378 21:0.422591 22:0.281284 23:0.198454 24:0.077216 
1048576.000000 1:0.574278 2:0.322946 3:0.379382 4:0.418981 5:0.655522 6:1.012541 7:0.740248 8:0.515526 9:0.540397 10:-1.646901 11:-1.241340 12:-0.617324 13:0.015528 14:0.220860 15:0.325698 16:-0.451301 17:-0.895079 18:-0.654161 19:0.705739 20:0.519528 21:-0.115876 22:0.201981 23:-0.627303 24:-0.700078 
1048576.000000 1:-1.400904 2:-1.218567 3:-0.924061 4:-0.861925 5:-0.721891 6:-0.559263 7:-0.778309 8:-0.682113 9:-0.696343 10:-0.272165 11:-0.286205 12:-0.198964 13:-0.317532 14:-0.899685 15:-1.638904 16:-1.296347 17:-0.087537 18:0.214980 19:-1.414761 20:1.106653 21:-0.923576 22:-1.912756 23:-0.612928 24:0.113805 
1048576.000000 1:0.321277 2:-0.284791 3:-0.036111 4:0.280243 5:0.867432 6:1.119104 7:1.134140 8:1.475658 9:0.866359 10:0.563118 11:0.557653 12:0.347466 13:0.466138 14:0.692117 15:0.792043 16:0.469798 17:-0.310307 18:0.170245 19:0.705739 20:1.106653 21:0.153358 22:0.466323 23:-0.541053 24:-0.698765 
1048576.000000 1:0.789550 2:0.901992 3:1.361153 4:0.857780 5:0.614507 6:0.666211 7:0.880183 8:1.091605 9:1.067689 10:0.206383 11:-0.230566 12:-0.327033 13:-0.170594 14:0.220860 15:0.504298 16:0.326140 17:-0.233730 18:-1.139857 19:0.705739 20:-1.315236 21:0.422591 22:0.889270 23:0.474771 24:0.099447 
46954.257463 1:0.578716 2:1.267156 3:0.526815 4:0.444793 5:-0.205788 6:-0.608104 7:-0.576180 8:-0.530513 9:-0.116322 10:-1.516388 11:-1.482442 12:-1.274747 13:-1.208957 14:-0.972991 15:-0.864970 16:0.309240 17:-0.184999 18:-0.155683 19:0.705739 20:0.152575 21:0.153358 22:0.466323 23:0.163315 24:-0.028362 
1048576.000000 1:-1.858081 2:-1.450707 3:-1.105002 4:-1.042607 5:-1.166217 6:-1.491689 7:-1.763039 8:-1.586659 9:-1.453727 10:-0.072045 11:0.260912 12:-0.087970 13:-0.190186 14:-0.198035 15:0.028031 16:0.114879 17:-0.386884 18:-1.433831 19:0.705739 20:1.180043 21:0.961058 22:0.201981 23:1.219070 24:1.108565 
1048576.000000 1:1.109130 2:1.460171 3:0.979167 4:0.757760 5:0.552985 6:0.368723 7:0.932011 8:0.404352 9:0.712965 10:0.824144 11:0.084722 12:-0.318495 13:-0.542837 14:-0.637875 15:-0.606992 16:-0.535806 17:-0.157153 18:-0.475220 19:0.705739 20:1.106653 21:-0.115876 22:1.259349 23:-0.154529 24:-0.589834 
1048576.000000 1:0.163706 2:0.586386 3:0.881995 4:0.625475 5:0.908446 6:1.656358 7:0.304894 8:-0.828660 9:-0.936022 10:-0.080746 11:-0.202746 12:-0.369723 13:-0.523246 14:-0.491262 15:-0.438314 16:-0.045680 17:0.100426 18:-0.187637 19:-1.414761 20:2.207511 21:0.000000 22:0.000000 23:-1.393963 24:-0.000000 
1048576.000000 1:0.170364 2:0.072548 3:0.040956 4:0.131826 5:0.214613 6:0.319881 7:0.486292 8:1.061285 9:0.919088 10:2.007462 11:2.217548 12:1.687927 13:1.465318 14:1.111013 15:0.206631 16:0.131780 17:0.636466 18:0.080775 19:0.705739 20:-1.902361 21:-0.385109 22:0.201981 23:-0.012378 24:-0.097719 
1048576.000000 1:-0.941508 2:-1.020335 3:-0.950867 4:-0.761905 5:-0.540742 6:-0.310616 7:0.258249 8:1.041072 9:1.115624 10:-0.515789 11:-0.110015 12:0.168169 13:0.436751 14:0.409363 15:0.018109 16:-0.763968 17:-0.741925 18:-0.162074 19:0.705739 20:0.666309 21:0.153358 22:0.466323 23:-0.373347 24:-0.539145 
1048576.000000 1:0.518795 2:0.505528 3:0.466502 4:0.299602 5:0.177016 6:-0.159652 7:-0.685019 8:-0.444607 9:-0.653201 10:1.624624 11:1.262413 12:0.996351 13:0.740423 14:0.535032 15:0.454687 16:0.833168 17:1.082007 18:0.387530 19:0.705739 20:0.519528 21:0.422591 22:0.995007 23:0.268731 24:-0.126324 
1048576.000000 1:1.042551 2:1.350622 3:0.888696 4:0.464151 5:-0.065654 6:-0.168532 7:-0.348137 8:-0.298060 9:-0.351207 10:-1.020439 11:-0.963145 12:-0.805159 13:-0.973856 14:-1.444248 15:-1.867116 16:-1.913230 17:-1.591236 18:-1.190983 19:-1.414761 20:0.079185 21:1.230292 22:0.730665 23:2.279616 24:1.835123 
1048576.000000 1:0.964876 2:0.802876 3:0.583778 4:0.644833 5:0.375254 6:0.515247 7:0.631410 8:0.975378 9:1.211496 10:-1.264063 11:-1.055877 12:-0.788083 13:-0.679980 14:-0.501734 15:-1.073337 16:-1.507608 17:-1.535544 18:-1.695852 19:0.705739 20:0.592919 21:0.422591 22:1.523691 23:0.442827 24:-0.160487 
28830.461166 1:-1.986800 2:-1.828913 3:-1.738294 4:-1.610465 5:-1.425977 6:-1.274123 7:-1.488351 8:-1.667512 9:-1.688611 10:-0.089447 11:0.752389 12:1.551319 13:1.690624 14:1.529908 15:0.980565 16:1.162735 17:-0.087537 18:0.214980 19:0.705739 20:-0.654721 21:0.153358 22:-0.855387 23:0.043525 24:0.401653 
1048576.000000 1:-0.743989 2:-0.819495 3:-0.622493 4:-0.468297 5:-0.762905 6:-0.421619 7:-0.374051 8:-0.656847 9:-0.753866 10:0.789341 11:1.160408 12:1.004889 13:0.250629 14:0.063775 15:-0.081113 16:-0.332995 17:-0.143229 18:-0.110948 19:0.705739 20:-0.361159 21:0.000000 22:0.000000 23:0.000000 24:-0.000000 
716478.284730 1:0.893858 2:1.267156 3:0.717808 4:0.628701 5:0.614507 6:0.279920 7:-0.332589 8:-0.202047 9:-0.370381 10:-0.385276 11:-0.833321 12:-0.916153 13:-1.081611 14:-1.370942 15:-1.628982 16:-1.406203 17:-1.243158 18:-1.715024 19:-1.414761 20:0.886481 21:-0.385109 22:-1.648414 23:0.458799 24:1.296915 
1048576.000000 1:1.422052 2:1.444522 3:1.052883 4:0.680324 5:0.552985 6:0.866016 7:1.274075 8:1.379645 9:0.712965 10:-0.176455 11:-0.119288 12:0.091327 13:0.123283 14:-0.166618 15:-0.626836 16:-0.755518 17:-0.630539 18:-0.289888 19:-1.414761 20:-0.361159 21:-0.385109 22:-1.119729 23:-0.739107 24:-0.365075 
1048576.000000 1:-0.284593 2:-0.193500 3:0.044307 4:0.247978 5:0.799074 6:1.740721 7:1.994483 8:0.995592 9:-0.073180 10:1.224384 11:0.835847 12:0.680447 13:0.642464 14:0.734007 15:0.752354 16:0.469798 17:0.197887 18:0.099947 19:0.705739 20:0.739700 21:-1.192810 22:0.995007 23:-0.994661 24:-1.258882 
1048576.000000 1:0.190338 2:0.604644 3:0.992570 4:0.719042 5:0.009539 6:0.137836 7:0.273797 8:-0.010021 9:0.271957 10:0.789341 11:0.641111 12:0.501149 13:0.475934 14:0.158026 15:-0.110880 16:-0.180887 17:-0.031844 18:0.278888 19:0.705739 20:-1.095065 21:0.961058 22:0.000000 23:0.762268 24:-0.000000 
945250.667499 1:0.765138 2:0.868084 3:1.220421 4:1.090085 5:1.062252 6:1.851724 7:2.699342 8:2.299350 9:1.940118 10:1.494111 11:1.651885 12:1.209801 13:1.171442 14:1.299516 15:1.516366 16:0.723312 17:-0.428654 18:-0.085385 19:0.705739 20:-0.434549 21:0.961058 22:0.201981 23:0.378938 24:0.288120 
1048576.000000 1:1.282236 2:1.165432 3:0.365979 4:0.283469 5:0.224867 6:-0.084170 7:-0.239299 8:-0.070661 9:-0.077973 10:0.972059 11:0.798755 12:0.723137 13:0.965728 14:1.006289 15:1.059943 16:0.495149 17:0.392811 18:0.393921 19:0.705739 20:-0.654721 21:0.691825 22:0.466323 23:1.572053 24:1.312444 
1048576.000000 1:-2.364082 2:-2.243635 3:-2.321325 4:-2.207361 5:-2.092467 6:-2.250950 7:-2.312414 8:-2.213272 9:-2.167968 10:-0.367874 11:-0.555126 12:-0.625862 13:-0.679980 14:-0.449372 15:-0.339092 16:0.596555 17:-0.310307 18:0.445047 19:0.705739 20:-0.728112 21:0.691825 22:0.466323 23:0.378938 24:0.176863 
1048576.000000 1:0.702998 2:1.113266 3:1.847012 4:1.722472 5:1.885965 6:2.983955 7:3.632244 8:4.169082 9:5.319581 10:-0.507088 11:-0.499487 12:-0.591710 13:-0.650592 14:-1.014881 15:-1.043570 16:-1.076635 17:-0.595732 18:-0.309061 19:0.705739 20:1.180043 21:0.153358 22:-0.062361 23:-0.259945 24:-0.245199 
1048576.000000 1:0.705217 2:1.655795 3:1.518638 4:0.954574 5:0.112076 6:-0.181853 7:-0.431062 8:-0.515353 9:-0.864118 10:1.868248 11:1.067676 12:0.834130 13:1.112667 14:1.247154 15:1.933100 16:1.619060 17:-0.178037 18:-0.398531 19:0.705739 20:0.079185 21:-0.385109 22:0.995007 23:-0.180084 24:-0.530094 
1048576.000000 1:0.927147 2:0.899384 3:0.406188 4:0.180222 5:0.047136 6:-0.394979 7:-0.736847 8:-0.383967 9:-0.077973 10:0.293392 11:0.084722 12:-0.216040 13:-0.239165 14:-0.428427 15:-0.745903 16:-0.527355 17:0.747852 18:0.694286 19:0.705739 20:0.152575 21:0.691825 22:0.201981 23:2.151839 24:2.022275 
1048576.000000 1:-0.934850 2:-1.129885 3:-1.155263 4:-0.939361 5:-0.585175 6:-0.399419 7:-0.197837 8:0.298232 9:0.291131 10:0.763238 11:0.585472 12:0.834130 13:1.200830 14:1.048178 15:0.653132 16:0.334591 17:1.047199 18:0.592034 19:0.705739 20:-0.067597 21:-0.385109 22:3.374086 23:-0.894036 24:-1.670891 
1048576.000000 1:1.262262 2:0.894167 3:0.707756 4:-0.213406 5:-0.427951 6:-0.466020 7:-0.218568 8:-0.247527 9:-0.207400 10:-1.072644 11:-0.926053 12:-0.617324 13:-0.474266 14:0.053302 15:0.752354 16:-0.087932 17:-0.672309 18:-1.005652 19:-1.414761 20:-0.948284 21:-0.115876 22:-0.458874 23:2.861000 24:3.196816 
1048576.000000 1:0.343470 2:0.961983 3:1.129951 4:0.622248 5:0.341075 6:0.000192 7:-0.099364 8:-0.267740 9:-0.087560 10:0.728435 11:0.539106 12:0.031561 13:-0.337124 14:-0.543624 15:-0.666525 16:-0.493554 17:-0.797617 18:-0.756413 19:0.705739 20:-1.021674 21:0.153358 22:1.259349 23:0.057900 24:-0.403926 
1048576.000000 1:0.339031 2:0.202964 3:0.238650 4:0.225393 5:-0.004132 6:-0.106371 7:-0.431062 8:-0.222260 9:-0.221780 10:0.667529 11:0.223819 12:-0.028204 13:-0.493858 14:-0.501734 15:-0.587147 16:-0.375247 17:0.406735 18:-0.040649 19:-1.414761 20:1.326824 21:-0.385109 22:-0.062361 23:0.584978 24:0.606981 
1048576.000000 1:-1.205605 2:-1.163793 3:-0.964270 4:-0.610261 5:-0.229713 6:-0.053089 7:-0.026804 8:0.262859 9:0.267163 10:-1.255362 11:-1.139335 12:-0.847849 13:-0.728959 14:-0.732126 15:-0.597070 16:-0.206238 17:-0.505231 18:-0.781976 19:0.705739 20:1.840559 21:0.153358 22:0.000000 23:-0.132168 24:-0.000000 
1048576.000000 1:-0.038250 2:0.056898 3:-0.079671 4:-0.232765 5:-0.451877 6:-0.394979 7:-0.192654 8:0.222432 9:0.511635 10:-0.820319 11:-0.091468 12:0.569453 13:0.720831 14:0.220860 15:0.057798 16:-0.020328 17:1.151623 18:0.432265 19:-1.414761 20:-0.361159 21:1.499525 22:-0.009493 23:2.276422 24:2.280151 
1048576.000000 1:1.144639 2:0.732452 3:0.319068 4:0.438340 5:0.365001 6:0.111196 7:0.450012 8:0.783352 9:0.727346 10:-0.802917 11:-0.759136 12:-0.788083 13:-0.768143 14:-0.962519 15:-1.182481 16:-1.228743 17:-0.665347 18:0.163854 19:0.705739 20:1.913949 21:0.422591 22:-0.062361 23:0.267134 24:0.286406 
1048576.000000 1:1.293333 2:0.941117 3:0.282210 4:0.109240 5:0.194106 6:0.461965 7:0.351539 8:0.288126 9:0.300718 10:-0.872524 11:-1.306252 12:-1.180830 13:-1.150182 14:-1.098660 15:-1.321393 16:-1.642815 17:-1.340620 18:-1.012042 19:0.705739 20:0.959872 21:0.153358 22:0.704231 23:-0.189668 24:-0.444627 
1048576.000000 1:-0.317883 2:0.265564 3:0.861890 4:0.322187 5:0.077897 6:0.217758 7:0.190873 8:0.091046 9:-0.293684 10:-0.254763 11:0.066175 12:0.065713 13:0.142874 14:0.042830 15:0.464609 16:0.841618 17:-0.261576 18:-0.705287 19:0.705739 20:-0.287768 21:-0.115876 22:0.000000 23:0.410883 24:-0.000000 
1048576.000000 1:-1.860300 2:-1.797613 3:-1.744995 4:-1.645956 5:-1.494335 6:-1.469488 7:-1.369147 8:-1.232926 9:-1.051067 10:-0.463584 11:-0.184200 12:0.074251 13:0.436751 14:0.430308 15:-0.319247 16:-0.611860 17:-0.867233 18:-0.718068 19:0.705739 20:0.886481 21:0.422591 22:-0.062361 23:-0.116196 24:-0.100216 
1048576.000000 1:1.539676 2:1.066316 3:0.979167 4:1.141709 5:1.465564 6:1.589757 7:1.108226 8:0.899578 9:1.211496 10:1.807342 11:1.141862 12:0.757288 13:0.593485 14:0.775896 15:0.990488 16:1.390898 17:1.276931 18:1.525082 19:0.705739 20:1.620387 21:-0.654343 22:-0.062361 23:-0.291889 24:-0.277418 
1048576.000000 1:0.101566 2:-0.023959 3:-0.039462 4:-0.158556 5:-0.079326 6:0.120076 7:-0.047536 8:-0.010021 9:-0.039625 10:-0.698507 11:-0.323297 12:-0.301419 13:-0.151002 14:-0.218980 15:-0.249791 16:-0.442851 17:-0.087537 18:0.016867 19:-1.414761 20:0.739700 21:-1.462043 22:-1.384072 23:-0.929175 24:-0.486577 
1048576.000000 1:0.383418 2:0.922859 3:1.240525 4:0.728721 5:0.313732 6:0.390923 7:-0.011256 8:-0.176780 9:-0.408729 10:-0.663704 11:-0.731316 12:-0.736855 13:-0.817122 14:-0.711182 15:-1.281704 16:-1.101986 17:-0.512193 18:0.400312 19:-1.414761 20:0.225966 21:-0.385109 22:-0.591045 23:0.043525 24:0.282886 
1048576.000000 1:0.145952 2:0.591603 3:0.503360 4:0.377037 5:0.159927 6:0.208878 7:0.413733 8:-0.217207 9:-0.044418 10:0.537016 11:0.316551 12:-0.002590 13:-0.111819 14:-0.145673 15:-0.220025 16:-0.417499 17:1.583240 18:1.448393 19:0.705739 20:-0.067597 21:0.961058 22:1.259349 23:0.123385 24:-0.346616 
1048576.000000 1:-0.743989 2:-0.759504 3:-0.263963 4:0.015673 5:0.515388 6:1.154624 7:1.227430 8:0.929898 9:0.636268 10:-0.742011 11:-0.768409 12:-0.711242 13:-0.484062 14:-0.239925 15:-0.249791 16:-0.079481 17:-0.999503 18:-0.762803 19:0.705739 20:-0.728112 21:-0.115876 22:-0.326703 23:0.043525 24:0.169396 
1048576.000000 1:-1.119052 2:-1.114235 3:-0.830240 4:-0.568317 5:-0.239967 6:0.000192 7:0.465560 8:0.985485 9:1.096450 10:-1.229260 11:-1.046604 12:-0.924691 13:-0.807326 14:-0.470317 15:-0.587147 16:0.038825 17:0.525081 18:-0.257935 19:0.705739 20:1.473606 21:0.153358 22:0.000000 23:0.041927 24:-0.000000 
1048576.000000 1:1.162394 2:0.722019 3:0.141479 4:-0.194047 5:-0.304907 6:-0.297296 7:-0.508804 8:-0.313220 9:-0.538156 10:0.014964 11:0.325824 12:0.347466 13:0.123283 14:0.220860 15:-0.259714 16:-0.594959 17:-0.129306 18:0.451438 19:-1.414761 20:-0.948284 21:-0.115876 22:-1.119729 23:0.315050 24:0.835191 
1048576.000000 1:1.299991 2:0.961983 3:0.717808 4:0.599663 5:0.402598 6:0.475286 7:0.356722 8:0.566059 9:0.372622 10:-0.098147 11:0.093995 12:0.441384 13:1.191034 14:1.236681 15:0.762276 16:0.799366 17:1.478817 18:0.834882 19:0.705739 20:-1.241846 21:0.422591 22:-0.591045 23:0.554631 24:0.830098 
1048576.000000 1:-2.352986 2:-2.230593 3:-2.328026 4:-2.207361 5:-2.092467 6:-2.250950 7:-2.374608 8:-2.359818 9:-2.354917 10:-1.568594 11:-0.666404 12:0.108403 13:0.867770 14:0.283695 15:-0.349014 16:-0.206238 17:0.907968 18:1.620943 19:0.705739 20:1.106653 21:1.230292 22:-0.062361 23:0.409285 24:0.429779 
1048576.000000 1:0.707436 2:0.278605 3:-0.300821 4:-0.261803 5:-0.092997 6:0.333202 7:0.102765 8:-0.010021 9:-0.202606 10:1.963958 11:1.308778 12:1.158573 13:1.582869 14:2.095417 15:2.240689 16:2.438754 17:2.390782 18:2.157766 19:0.705739 20:1.546996 21:0.099511 22:0.175547 23:-0.411680 24:-0.368826 
1048576.000000 1:0.350128 2:0.930684 3:0.831734 4:0.335093 5:-0.212624 6:0.026833 7:0.128679 8:0.096099 9:-0.279303 10:-0.820319 11:-1.083696 12:-0.924691 13:-1.062019 14:-0.899685 15:-0.567303 16:-0.687914 17:-1.716544 18:-1.695852 19:-1.414761 20:1.473606 21:-0.115876 22:-1.119729 23:-0.291889 24:0.144129 
1048576.000000 1:1.493070 2:1.462780 3:1.247227 4:0.515775 5:0.214613 6:0.057914 7:0.061303 8:-0.166674 9:-0.001276 10:-1.551192 11:-1.176428 12:-1.035684 13:-1.091407 14:-1.234801 15:-1.103104 16:-1.059734 17:-1.988046 18:-2.136813 19:0.705739 20:-1.168455 21:1.768759 22:1.523691 23:0.902823 24:0.231275 
1048576.000000 1:1.086937 2:0.735060 3:0.556972 4:0.144731 5:0.433359 6:1.221226 7:1.590226 8:1.207831 9:0.780075 10:-0.663704 11:-0.527307 12:-0.139198 13:0.338792 14:0.105664 15:-0.309325 16:-1.161139 17:-0.839387 18:-0.488001 19:-1.414761 20:0.886481 21:0.422591 22:-0.326703 23:1.169556 24:1.339254 
1048576.000000 1:-0.269058 2:0.453362 3:1.424817 4:0.983612 5:0.276135 6:0.071234 7:0.082034 8:0.252752 9:-0.049212 10:-0.019840 11:0.186726 12:0.031561 13:0.025324 14:0.388418 15:0.811888 16:-0.485103 17:-1.027349 18:-0.845883 19:0.705739 20:-1.608799 21:-0.115876 22:-0.326703 23:-0.505915 24:-0.401428 
1048576.000000 1:1.439807 2:1.421047 3:1.170160 4:0.489963 5:0.009539 6:-0.244014 7:-0.265213 8:-0.338487 9:-0.557330 10:-0.480985 11:-0.508760 12:-0.344109 13:-0.386103 14:-0.459845 15:-0.606992 16:-0.087932 17:0.218772 18:-1.031215 19:0.705739 20:-0.874893 21:1.230292 22:-0.062361 23:1.501776 24:1.531652 
1048576.000000 1:1.470877 2:1.209773 3:0.825032 4:0.441566 5:0.235121 6:0.000192 7:-0.254847 8:-0.520407 9:-0.763453 10:-0.098147 11:-0.397483 12:-0.489254 13:-0.719163 14:-0.763544 15:-0.745903 16:-1.076635 17:-0.825463 18:-0.999261 19:0.705739 20:-0.361159 21:0.153358 22:0.466323 23:0.378938 24:0.176863 
1048576.000000 1:0.041645 2:0.242089 3:0.272158 4:0.254431 5:0.566657 6:1.403271 7:3.145062 8:3.496989 9:3.545962 10:0.006263 11:-0.054376 12:0.142555 13:0.338792 14:0.807314 15:1.724733 16:1.619060 17:0.469389 18:0.828491 19:0.705739 20:-0.801502 21:0.691825 22:0.730665 23:0.506715 24:0.190901 
1048576.000000 1:0.918270 2:0.690719 3:0.677599 4:0.451245 5:-0.045147 6:-0.235134 7:-0.239299 8:0.207273 9:-0.087560 10:-0.924730 11:-0.276932 12:-0.011128 13:0.152670 14:0.032357 15:0.037953 16:0.554303 17:0.796583 18:1.716805 19:-1.414761 20:1.620387 21:0.691825 22:-0.591045 23:1.496984 24:1.839019 
1048576.000000 1:1.040332 2:1.061099 3:1.140003 4:0.506095 5:0.002704 6:-0.150772 7:-0.073450 8:0.040513 9:0.478080 10:-0.254763 11:-0.239839 12:-0.523406 13:-0.807326 14:-0.658820 15:-1.043570 16:-0.485103 17:-0.191960 18:0.074384 19:0.705739 20:-0.874893 21:0.691825 22:0.466323 23:-3.128531 24:-3.161469 
1048576.000000 1:-1.294377 2:-1.210742 3:-0.994427 4:-1.071646 5:-1.104695 6:-1.056557 7:-1.078911 8:-0.752860 9:-0.763453 10:-0.385276 11:-0.267658 12:-0.352647 13:-0.258757 14:-0.093311 15:-0.249791 16:0.343041 17:0.316234 18:0.802928 19:0.705739 20:0.666309 21:1.768759 22:0.466323 23:0.490743 24:0.283277 
1048576.000000 1:0.975972 2:0.620294 3:0.436345 4:0.583530 5:0.901611 6:1.261187 7:1.455473 8:1.450391 9:1.134799 10:0.154178 11:0.186726 12:0.262086 13:0.583689 14:0.974872 15:1.159166 16:0.224735 17:-0.832425 18:-0.341014 19:0.705739 20:-0.140987 21:-0.385109 22:-0.591045 23:-0.707163 24:-0.520832 
1048576.000000 1:0.742945 2:1.128916 3:0.496658 4:0.125373 5:-0.113505 6:0.271040 7:0.439646 8:0.859152 9:0.655442 10:-0.393977 11:-0.360390 12:-0.301419 13:-0.121615 14:0.357001 15:0.821810 16:1.357096 17:1.868664 18:2.023560 19:0.705739 20:1.546996 21:-0.385109 22:0.466323 23:-0.365361 24:-0.531544 
1048576.000000 1:0.567620 2:0.153406 3:-0.200298 4:-0.381182 5:-0.592011 6:-0.523742 7:0.030206 8:0.576165 9:1.091657 10:-0.959533 11:-0.722043 12:-0.642938 13:-0.454675 14:-0.208507 15:0.305854 16:0.993726 17:0.406735 18:-0.296279 19:0.705739 20:-0.581331 21:0.153358 22:0.000000 23:0.303870 24:-0.000000 
1048576.000000 1:0.689682 2:0.766360 3:0.640741 4:0.631927 5:0.511970 6:0.781654 7:1.299989 8:1.940564 9:2.218144 10:0.798042 11:0.808028 12:0.373080 13:0.348588 14:0.283695 15:0.921032 16:1.162735 17:1.158584 18:-0.155683 19:0.705739 20:-0.214378 21:-0.385109 22:-0.353137 23:-0.541053 24:-0.428630 
1048576.000000 1:0.689682 2:0.583778 3:0.905450 4:0.635154 5:0.320568 6:-0.017568 7:-0.275578 8:-0.030234 9:0.070627 10:-0.350472 11:-0.174927 12:-0.198964 13:-0.219573 14:-0.606458 15:-0.656603 16:-0.409049 17:-0.929887 18:-0.149292 19:-1.414761 20:0.005794 21:-0.923576 22:-1.119729 23:0.522687 24:1.071607 
1048576.000000 1:-2.080011 2:-1.875862 3:-1.852219 4:-1.871809 5:-1.750678 6:-1.682614 7:-1.483168 8:-1.354206 9:-1.170906 10:-0.124250 11:-0.360390 12:-0.446565 13:-0.337124 14:-0.061894 15:-0.497847 16:0.064176 17:-0.178037 18:0.234152 19:-1.414761 20:-0.140987 21:0.000000 22:0.000000 23:0.000000 24:-0.000000 
1048576.000000 1:-0.522059 2:0.129931 3:0.376031 4:0.535134 5:0.611089 6:0.799415 7:1.217065 8:1.157298 9:1.106037 10:0.545717 11:0.029083 12:-0.190426 13:-0.376307 14:-0.679765 15:-0.507770 16:-0.831572 17:-0.936849 18:-0.494392 19:-1.414761 20:1.546996 21:-2.000510 22:-1.119729 23:-1.421115 24:-1.141610 
1048576.000000 1:-0.626366 2:-0.475198 3:0.017501 4:0.093108 5:0.385508 6:0.448645 7:-0.275578 8:-0.363754 9:-0.356000 10:-0.202558 11:-0.647858 12:-0.864925 13:-1.169774 14:-1.507083 15:-1.936571 16:-1.676617 17:-1.152657 18:-1.203765 19:-1.414761 20:1.033262 21:-1.462043 22:-0.591045 23:-0.999452 24:-0.833768 
1048576.000000 1:0.876103 2:1.762736 3:1.669422 4:0.957800 5:0.563239 6:0.315441 7:0.304894 8:0.247699 9:-0.164258 10:-0.124250 11:-0.388209 12:-0.753931 13:-0.866102 14:-0.522679 15:-0.021580 16:0.605005 17:-0.226768 18:-0.622207 19:0.705739 20:-0.214378 21:-0.385109 22:0.466323 23:-0.691191 24:-0.841662 
1048576.000000 1:-0.053786 2:-0.235233 3:-0.374537 4:-0.323106 5:-0.239967 6:-0.168532 7:0.076851 8:-0.035287 9:0.300718 10:0.171579 11:0.186726 12:0.159631 13:0.358384 14:1.048178 15:0.901188 16:0.926123 17:1.590202 18:1.122466 19:-1.414761 20:0.079185 21:-0.115876 22:-0.591045 23:-0.403694 24:-0.199291 
1048576.000000 1:-1.130148 2:-0.887311 3:-0.585635 4:-0.555411 5:-0.318579 6:-0.346137 7:-0.285944 8:0.212326 9:-0.006070 10:1.189581 11:1.494242 12:0.979276 13:0.887361 14:0.723535 15:0.722587 16:0.469798 17:0.246618 18:-0.066212 19:0.705739 20:-1.095065 21:-0.923576 22:0.201981 23:-0.435638 24:-0.512330 
1048576.000000 1:0.172584 2:0.312513 3:0.329121 4:-0.003686 5:-0.089580 6:-0.150772 7:0.040572 8:-0.217207 9:-0.025244 10:-0.341772 11:-0.527307 12:-0.617324 13:-0.915081 14:-0.889212 15:-0.696292 16:-0.417499 17:0.358004 18:-0.481611 19:-1.414761 20:1.400215 21:-0.115876 22:-1.119729 23:-0.850912 24:-0.492376 
1048576.000000 1:-2.295284 2:-2.204510 3:-2.271064 4:-2.162190 5:-2.051453 6:-2.153267 7:-2.188027 8:-2.102098 9:-2.048129 10:-0.829020 11:-0.545853 12:-0.369723 13:-0.288145 14:-0.093311 15:0.504298 16:0.081077 17:0.622543 18:0.464219 19:0.705739 20:-0.581331 21:1.230292 22:1.417955 23:1.923439 24:1.151157 
1048576.000000 1:-0.417752 2:-0.037001 3:0.325770 4:0.035032 5:-0.219460 6:-0.341697 7:-0.109729 8:0.040513 9:0.128150 10:0.180280 11:0.223819 12:0.176707 13:0.358384 14:1.215736 15:1.694966 16:1.044429 17:0.378888 18:0.636769 19:0.705739 20:0.079185 21:0.961058 22:0.704231 23:0.303870 24:0.013261 
1048576.000000 1:1.144639 2:0.894167 3:0.292262 4:-0.113386 5:-0.301489 6:-0.568143 7:-0.467342 8:-0.207100 9:-0.125909 10:0.571819 11:0.854394 12:0.415770 13:0.613077 14:1.048178 15:1.278233 16:2.100736 17:1.527548 18:1.442003 19:0.705739 20:0.079185 21:0.422591 22:0.730665 23:0.043525 24:-0.237622 
1048576.000000 1:0.960437 2:1.308889 3:1.042831 4:0.596436 5:0.084733 6:-0.124131 7:-0.456976 8:-0.520407 9:-0.169051 10:-0.472285 11:0.075448 12:0.219397 13:0.093895 14:-0.334176 15:-0.527614 16:0.258537 17:1.026314 18:0.719849 19:0.705739 20:0.519528 21:0.422591 22:0.809968 23:-0.068280 24:-0.368826 
1048576.000000 1:-0.315664 2:-0.496064 3:0.037605 4:0.057617 5:0.122330 6:0.595169 7:0.911280 8:0.823779 9:0.990992 10:-1.090046 11:-0.805501 12:-0.711242 13:-0.523246 14:-0.910157 15:-0.120802 16:0.579654 17:0.984545 18:1.020214 19:-1.414761 20:-0.801502 21:-0.115876 22:-1.384072 23:1.993716 24:2.809946 
1048576.000000 1:1.015920 2:0.664636 3:0.493308 4:0.164090 5:-0.031475 6:-0.119691 7:0.548485 8:1.046125 9:1.034134 10:-1.133550 11:-0.749863 12:-0.412413 13:-0.317532 14:-0.344648 15:-0.775670 16:-1.440004 17:-1.396312 18:-1.542474 19:-1.414761 20:0.739700 21:1.230292 22:-1.912756 23:0.714352 24:1.777350 
1048576.000000 1:-0.122584 2:-0.172633 3:0.154882 4:0.622248 5:1.140863 6:1.145744 7:0.978656 8:0.368979 9:0.784868 10:-0.907328 11:-0.768409 12:-0.591710 13:-0.180390 14:0.220860 15:1.407222 16:0.174032 17:0.678236 18:-0.558300 19:-1.414761 20:-0.434549 21:-1.192810 22:-0.591045 23:-0.627303 24:-0.435330 
1048576.000000 1:-0.388901 2:-0.449115 3:-0.592336 4:-0.487656 5:-0.263892 6:-0.008688 7:-0.068267 8:-0.131300 9:-0.384762 10:-1.107448 11:-0.777682 12:-0.463641 13:-0.454675 14:-0.501734 15:-0.914581 16:-0.975229 17:-0.331192 18:0.055212 19:0.705739 20:-0.067597 21:0.153358 22:0.598494 23:-0.224806 24:-0.442288 
1048576.000000 1:-1.682755 2:-1.680239 3:-1.791906 4:-1.787921 5:-1.713081 6:-1.762536 7:-1.623103 8:-1.510859 9:-1.563979 10:-0.794217 11:-0.443848 12:-0.335571 13:-0.337124 14:-0.376065 15:-0.081113 16:0.157131 17:-0.073614 18:-0.519955 19:0.705739 20:-0.948284 21:-0.385109 22:0.995007 23:-0.197654 24:-0.479023 
1048576.000000 1:0.023890 2:1.204557 3:1.599056 4:0.609342 5:-0.198952 6:-0.497101 7:-0.519169 8:0.333606 9:0.693791 10:0.241186 11:-0.045103 12:-0.070894 13:-0.033452 14:0.241805 15:0.424920 16:0.385294 17:0.093464 18:0.617597 19:0.705739 20:-0.287768 21:0.422591 22:0.466323 23:0.123385 24:-0.066367 
1048576.000000 1:0.374540 2:-0.172633 3:-0.642598 4:-0.610261 5:-0.472384 6:-0.346137 7:0.149410 8:0.651965 9:0.760901 10:1.189581 11:1.828075 12:0.782902 13:0.603281 14:0.503615 15:0.543987 16:1.188087 17:1.311739 18:0.866836 19:-1.414761 20:-0.287768 21:0.422591 22:-1.119729 23:-0.180084 24:0.271430 
1048576.000000 1:1.166832 2:1.301064 3:1.552146 4:0.877139 5:0.720462 6:0.972579 7:0.885366 8:0.950112 9:1.053308 10:-0.454883 11:-0.249112 12:-0.369723 13:-0.591817 14:-0.690237 15:-0.934426 16:-0.721716 17:-1.438082 18:-1.171811 19:-1.414761 20:2.207511 21:-1.192810 22:-0.591045 23:-0.850912 24:-0.674735 
1048576.000000 1:1.126885 2:0.855043 3:0.617285 4:0.848101 5:1.349355 6:1.243427 7:1.030484 8:0.899578 9:1.523077 10:0.223785 11:-0.017283 12:-0.002590 13:0.407363 14:0.817786 15:0.573754 16:1.069780 17:1.423124 18:1.486738 19:0.705739 20:0.372747 21:0.422591 22:0.995007 23:-0.275917 24:-0.616309 
1048576.000000 1:0.656392 2:0.633336 3:0.412890 4:0.318960 5:0.402598 6:0.226639 7:-0.031987 8:-0.222260 9:-0.111528 10:1.589821 11:1.234593 12:0.996351 13:1.014708 14:0.796841 15:1.059943 16:-0.366797 17:-0.950772 18:-0.769194 19:0.705739 20:1.033262 21:-0.385109 22:0.466323 23:-0.180084 24:-0.355202 
1048576.000000 1:1.415394 2:1.196732 3:0.928905 4:0.580304 5:0.566657 6:0.959259 7:1.191151 8:1.374591 9:1.374477 10:-0.533191 11:-0.935326 12:-0.771007 13:-0.513450 14:0.042830 15:0.514221 16:-0.206238 17:-0.964695 18:-1.325189 19:0.705739 20:1.326824 21:0.287975 22:-0.855387 23:-0.470776 24:-0.166051 
1048576.000000 1:-0.453260 2:-0.621263 3:-0.548777 4:-0.300521 5:-0.137430 6:0.004633 7:0.481109 8:1.394805 9:1.403238 10:-1.020439 11:-1.009511 12:-0.847849 13:-0.660388 14:-0.281814 15:-0.110880 16:-0.096382 17:0.267503 18:1.525082 19:0.705739 20:0.079185 21:-0.115876 22:0.201981 23:-0.005989 24:-0.091460 
580203.319894 1:0.412269 2:0.727235 3:0.995921 4:0.715816 5:-0.089580 6:-0.612545 7:-0.809406 8:-0.944886 9:-0.773040 10:-1.403277 11:-1.111516 12:-0.958843 13:-1.032632 14:-1.234801 15:-1.301548 16:-1.828725 17:-1.807045 18:-1.504129 19:-1.414761 20:-0.287768 21:-0.385109 22:-1.912756 23:-0.052308 24:0.816458 
1048576.000000 1:-0.195821 2:-0.396948 3:-0.612441 4:-0.423126 5:-0.202370 6:-0.124131 7:-0.327406 8:-0.252580 9:-0.006070 10:2.512112 11:2.301006 12:1.747692 13:1.416339 14:0.315112 15:-0.478003 16:-0.324545 17:-0.553962 18:-1.248500 19:-1.414761 20:0.959872 21:-0.654343 22:-0.141664 23:-0.327028 24:-0.284126 
1048576.000000 1:0.782893 2:1.470605 3:1.240525 4:0.548039 5:-0.390355 6:-0.421619 7:-0.420696 8:-0.505247 9:-0.562123 10:-0.202558 11:-0.416029 12:-0.685628 13:-0.973856 14:-1.329052 15:-1.400771 16:-1.203392 17:-1.110888 18:-0.973698 19:0.705739 20:1.033262 21:-0.115876 22:-0.591045 23:-0.739107 24:-0.555032 
1048576.000000 1:0.967095 2:1.027191 3:0.456449 4:0.038258 5:-0.434787 6:-0.794590 7:-0.679836 8:-0.818553 9:-0.864118 10:0.432605 11:0.029083 12:-0.292881 13:-0.248961 14:-0.072366 15:-0.021580 16:-0.248490 17:0.253580 18:0.419484 19:0.705739 20:-1.975752 21:-0.385109 22:1.259349 23:-0.563414 24:-0.947673 
1048576.000000 1:-2.242020 2:-2.141910 3:-2.157138 4:-2.049264 5:-1.945498 6:-2.042264 7:-2.011812 8:-1.783739 9:-1.525630 10:0.075870 11:0.279458 12:0.151093 13:-0.121615 14:-0.480789 15:-0.676448 16:-0.485103 17:-0.721040 18:-0.066212 19:0.705739 20:-0.874893 21:-0.385109 22:-0.591045 23:-0.646469 24:-0.368826 
1048576.000000 1:0.503260 2:1.217598 3:0.687651 4:0.347999 5:-0.287818 6:-0.479341 7:-0.327406 8:-0.191940 9:-0.135496 10:2.642625 11:1.364417 12:0.663371 13:0.485730 14:0.409363 15:0.940877 16:0.292339 17:0.608620 18:1.109684 19:0.705739 20:-0.214378 21:-1.192810 22:-0.670348 23:-0.894036 24:-0.695032 
350159.407939 1:0.418926 2:0.385546 3:0.603882 4:0.638380 5:1.168207 6:3.112719 7:4.093512 8:1.667684 9:0.013104 10:-1.342371 11:-1.102243 12:-1.069836 13:-1.228549 14:-1.590862 15:-1.877038 16:-2.006185 17:-2.203854 18:-1.925918 19:0.705739 20:0.813090 21:0.691825 22:-0.062361 23:0.490743 24:0.511936 
1048576.000000 1:-2.002335 2:-1.870646 3:-1.554002 4:-1.429783 5:-1.244829 6:-0.967754 7:-0.726481 8:-0.778126 9:-0.753866 10:0.128075 11:-0.378936 12:-0.480717 13:-0.366512 14:-0.135201 15:0.325698 16:1.382447 17:0.448504 18:2.093858 19:0.705739 20:-1.168455 21:1.391832 22:0.704231 23:2.452114 24:2.006334 
1048576.000000 1:1.162394 2:1.149782 3:0.845137 4:0.809383 5:0.870850 6:0.910418 7:1.439925 8:0.929898 9:0.760901 10:0.815443 11:0.613292 12:0.245011 13:-0.033452 14:0.304639 15:0.950799 16:0.005023 17:0.030810 18:-0.206809 19:0.705739 20:0.079185 21:1.499525 22:0.201981 23:0.602548 24:0.504641 
1048576.000000 1:-0.262400 2:0.479445 3:-0.005955 4:-0.165009 5:-0.137430 6:-0.164092 7:-0.114912 8:-0.212154 9:0.166498 10:-1.090046 11:-1.324798 12:-1.291823 13:-1.483242 14:-1.936450 15:-2.174705 16:-1.854077 17:-0.748886 18:0.106338 19:-1.414761 20:1.767168 21:-0.923576 22:-0.855387 23:-0.627303 24:-0.338831 
1048576.000000 1:1.455342 2:0.969808 3:0.238650 4:0.264111 5:0.262464 6:0.239959 7:0.294528 8:0.535739 9:0.123356 10:-1.211858 11:-0.963145 12:-0.728318 13:-0.719163 14:-0.711182 15:-0.666525 16:-1.693518 17:-1.138734 18:-0.660551 19:0.705739 20:0.886481 21:0.287975 22:0.000000 23:-0.403694 24:-0.000000 
114332.930921 1:-0.428848 2:-0.464764 3:0.014150 4:-0.516694 5:-0.704801 6:-0.434940 7:-0.441428 8:-0.318274 9:-0.308064 10:0.371699 11:1.373690 12:0.859744 13:0.573893 14:0.053302 15:-0.021580 16:0.292339 17:0.358004 18:1.243890 19:0.705739 20:1.326824 21:3.922627 22:-0.326703 23:1.496984 24:1.679425 
1048576.000000 1:-2.075572 2:-1.982803 3:-2.023108 4:-2.013773 5:-1.883976 6:-1.949022 7:-1.965167 8:-1.869645 9:-1.808450 10:-0.550592 11:-0.406756 12:-0.455103 13:-0.611409 14:-0.658820 15:-0.745903 16:-0.831572 17:-1.027349 18:-1.529692 19:-1.414761 20:1.473606 21:-1.462043 22:-2.705782 23:-1.186326 24:-0.292569 
-1048576.000000 1:0.922709 2:0.698544 3:0.768069 4:0.286696 5:0.218031 6:0.732813 7:1.004570 8:1.788964 9:2.103099 10:-0.246062 11:-0.638585 12:-0.864925 13:-1.042427 14:-1.245273 15:-1.460304 16:-1.228743 17:-1.131773 18:-0.641379 19:0.705739 20:1.180043 21:1.499525 22:0.466323 23:0.586575 24:0.374488 
-1048576.000000 1:-1.103517 2:-1.015119 3:-0.783329 4:-0.736093 5:-0.756070 6:-0.590344 7:-0.524352 8:-0.459767 9:-0.509394 10:0.763238 11:0.529833 12:0.646295 13:0.632668 14:1.016761 15:0.772199 16:-0.400599 17:-1.055195 18:-0.884227 19:0.705739 20:0.446137 21:0.000000 22:0.000000 23:0.000000 24:-0.000000 
-1048576.000000 1:1.544114 2:1.102832 3:0.865241 4:0.893271 5:1.093013 6:1.238987 7:1.305172 8:1.228045 9:1.024547 10:1.650727 11:1.744617 12:2.020907 13:2.082459 14:2.304864 15:1.198855 16:0.740213 17:0.664313 18:0.413093 19:0.705739 20:0.299356 21:0.961058 22:0.995007 23:0.714352 24:0.274573 
-792348.005662 1:-0.078198 2:-0.456939 3:-0.485112 4:-0.329559 5:-0.325415 6:-0.577024 7:-0.622825 8:-0.242474 9:-0.312858 10:0.119374 11:-0.610765 12:-0.514868 13:-0.327328 14:-0.218980 15:0.087564 16:0.664159 17:0.629505 18:0.010476 19:0.705739 20:-0.728112 21:0.691825 22:1.206481 23:0.832545 24:0.295038 
-1048576.000000 1:0.833937 2:0.682894 3:0.362628 4:0.225393 5:0.259046 6:0.515247 7:0.372270 8:0.687339 9:0.257576 10:-0.246062 11:-0.221293 12:-0.275805 13:-0.102023 14:0.116136 15:-0.239869 16:0.241636 17:0.100426 18:0.841273 19:0.705739 20:-0.948284 21:-0.385109 22:-0.062361 23:-0.627303 24:-0.615712 
-1048576.000000 1:1.464219 2:1.061099 3:0.590479 4:0.251205 5:-0.140848 6:-0.430500 7:-0.503621 8:-0.692220 9:-0.562123 10:-0.715909 11:-0.786955 12:-1.001532 13:-1.316712 14:-1.559445 15:-1.341237 16:-1.068184 17:-0.783694 18:-1.389096 19:0.705739 20:-0.654721 21:-0.385109 22:0.730665 23:0.000000 24:-0.000000 
-1048576.000000 1:1.151297 2:1.376705 3:1.706280 4:1.190106 5:0.949461 6:0.919298 7:0.880183 8:1.147192 9:1.230670 10:0.397802 11:-0.035829 12:-0.241653 13:-0.258757 14:-0.428427 15:-0.557381 16:-0.671013 17:-0.721040 18:-0.168464 19:-1.414761 20:-0.434549 21:-2.000510 22:-0.855387 23:-0.882856 24:-0.620920 
-1048576.000000 1:-2.102204 2:-1.938462 3:-1.912533 4:-1.781468 5:-1.637887 6:-1.713695 7:-1.654200 8:-1.955552 9:-1.981019 10:0.267289 11:0.400009 12:0.577991 13:1.093075 14:1.320460 15:1.853722 16:1.610609 17:0.887083 18:0.662332 19:0.705739 20:0.005794 21:0.422591 22:-0.326703 23:-0.451610 24:-0.345009 
-274542.301628 1:0.536550 2:0.367288 3:0.352576 4:0.283469 5:0.166763 6:0.231079 7:0.164959 8:0.247699 9:0.708171 10:0.223785 11:0.325824 12:0.168169 13:0.436751 14:0.555976 15:-0.021580 16:-0.518905 17:-0.728001 18:-0.622207 19:-1.414761 20:0.079185 21:-1.462043 22:-0.855387 23:-0.563414 24:-0.262867 
-1048576.000000 1:-0.155874 2:-0.271749 3:-0.709613 4:-0.539279 5:-0.188699 6:0.093435 7:-0.031987 8:-0.035287 9:-0.015657 10:1.180880 11:0.418555 12:-0.164812 13:-0.258757 14:-0.344648 15:-0.140647 16:0.064176 17:-0.268538 18:-0.545518 19:0.705739 20:0.446137 21:0.000000 22:0.000000 23:0.000000 24:-0.000000 
-1048576.000000 1:-1.172315 2:-1.262909 3:-1.490338 4:-1.387839 5:-1.320023 6:-1.460608 7:-1.477985 8:-1.460326 9:-1.477694 10:-1.786115 11:-1.649359 12:-1.385741 13:-1.395079 14:-1.360469 15:-1.470226 16:-1.380851 17:-1.034311 18:-0.539127 19:-1.414761 20:1.620387 21:-0.385109 22:-1.912756 23:-0.435638 24:0.336011 
-1048576.000000 1:1.195683 2:0.990675 3:0.580427 4:0.351225 5:0.546149 6:0.852696 7:0.496657 8:0.247699 9:0.487667 10:-0.829020 11:-0.731316 12:-0.685628 13:-0.699572 14:-0.983464 15:-1.529760 16:-1.828725 17:-1.605159 18:-0.833101 19:0.705739 20:1.180043 21:0.691825 22:0.466323 23:2.087951 24:1.803465 
-1048576.000000 1:1.319964 2:1.668837 3:1.847012 4:1.664396 5:1.677473 6:1.731841 7:1.585043 8:0.803565 9:1.110831 10:-1.481585 11:-0.295478 12:0.424308 13:0.671852 14:1.435656 15:1.446910 16:-0.299193 17:-1.584275 18:-1.146248 19:0.705739 20:0.079185 21:0.691825 22:0.000000 23:-0.291889 24:-0.000000 
-1048576.000000 1:-1.243333 2:-1.268125 3:-0.893904 4:-0.652205 5:-0.236549 6:-0.048649 7:-0.306675 8:-0.666953 9:-0.964783 10:-0.489686 11:-0.527307 12:-0.625862 13:-0.464470 14:0.021885 15:0.682898 16:0.621906 17:-0.038806 18:-0.315451 19:0.705739 20:-0.581331 21:-0.115876 22:0.730665 23:-0.180084 24:-0.444496 
-1048576.000000 1:1.102472 2:0.761143 3:0.878644 4:0.560945 5:0.518806 6:0.173357 7:-0.016439 8:-0.348594 9:-0.720311 10:-0.846422 11:-0.304751 12:0.321852 13:1.102871 14:1.854552 15:3.401590 16:2.548610 17:1.388316 18:1.116075 19:0.705739 20:1.400215 21:1.768759 22:-0.485308 23:0.268731 24:0.478847 
-1048576.000000 1:1.326622 2:1.494080 3:1.032779 4:0.454472 5:0.163345 6:0.062354 7:-0.021622 8:0.045566 9:0.425351 10:-1.194456 11:-1.491715 12:-1.462583 13:-1.659568 14:-1.884088 15:-2.085405 16:-2.183644 17:-1.486813 18:-1.107903 19:0.705739 20:1.473606 21:-0.385109 22:0.201981 23:-0.627303 24:-0.700078 
-1048576.000000 1:-0.226891 2:-0.034393 3:-0.056216 4:-0.290841 5:-0.260474 6:-0.013128 7:0.289346 8:0.116313 9:0.545190 10:-0.280866 11:0.056902 12:0.296238 13:1.063687 14:1.519436 15:1.357610 16:0.926123 17:0.894045 18:0.886008 19:0.705739 20:1.840559 21:1.499525 22:0.466323 23:0.233592 24:0.038526 
-55145.680598 1:0.636418 2:0.166448 3:-0.307522 4:-0.629620 5:-0.646697 6:-0.719108 7:-0.493255 8:-0.682113 9:-0.533362 10:-0.011139 11:-0.063649 12:-0.403875 13:-0.719163 14:-0.847323 15:-1.172559 16:-1.059734 17:-0.707117 18:-0.053431 19:-1.414761 20:0.592919 21:0.691825 22:-0.855387 23:1.608789 24:1.697376 
-1048576.000000 1:0.172584 2:0.515962 3:0.848487 4:0.715816 5:0.511970 6:0.355402 7:0.398184 8:0.298232 9:0.712965 10:1.763838 11:1.225320 12:0.646295 13:0.720831 14:0.943455 15:0.930954 16:0.613456 17:1.444009 18:1.109684 19:0.705739 20:0.959872 21:-0.654343 22:0.201981 23:-0.499526 24:-0.574913 
-1048576.000000 1:0.891638 2:0.969808 3:0.855189 4:0.609342 5:0.662358 6:0.537447 7:0.382636 8:1.000645 9:0.914295 10:-0.811618 11:-0.647858 12:-0.361185 13:-0.043247 14:0.315112 15:-0.110880 16:0.148681 17:0.901006 18:1.461175 19:-1.414761 20:1.033262 21:-0.923576 22:-2.415006 23:-1.633544 24:-1.009750 
-1048576.000000 1:-1.121271 2:-0.782979 3:-0.552127 4:-0.707055 5:-0.691130 6:-0.492661 7:-0.317041 8:-0.222260 9:-0.250542 10:-0.446182 11:-0.555126 12:-0.694166 13:-0.895489 14:-1.077715 15:-1.301548 16:-0.856923 17:-0.345115 18:0.687895 19:-1.414761 20:-0.214378 21:0.000000 22:-0.723216 23:1.485804 24:1.909294 
-1048576.000000 1:-1.538501 2:-1.523740 3:-1.483637 4:-1.433010 5:-1.241411 6:-1.140919 7:-0.861233 8:-0.606313 9:-0.312858 10:-0.480985 11:-0.684950 12:-0.779545 13:-1.199162 14:-1.559445 15:-1.896882 16:-1.473806 17:-1.236196 18:-0.960916 19:0.705739 20:-0.581331 21:0.961058 22:1.259349 23:0.936364 24:0.364869 
-1048576.000000 1:0.294645 2:-0.016134 3:-0.253910 4:-0.342465 5:-0.725309 6:-0.878952 7:-0.793857 8:-0.752860 9:-0.696343 10:-0.698507 11:-0.749863 12:-0.745393 13:-0.699572 14:-0.449372 15:-0.408547 16:-0.485103 17:-0.282461 18:0.285278 19:0.705739 20:0.005794 21:-0.115876 22:-0.062361 23:0.155329 24:0.171566 
-1048576.000000 1:-0.111487 2:0.122106 3:0.040956 4:0.315734 5:0.484627 6:0.710612 7:0.636592 8:0.626699 9:0.794456 10:0.545717 11:0.706023 12:0.501149 13:0.642464 14:0.891093 15:1.565977 16:0.588104 17:1.583240 18:0.700677 19:0.705739 20:1.987340 21:-0.923576 22:-0.855387 23:-0.777440 24:-0.504559 
-1048576.000000 1:-0.111487 2:-0.185675 3:0.030904 4:0.206034 5:-0.041729 6:-0.066409 7:-0.467342 8:-1.005526 9:-0.959989 10:0.162879 11:-0.128561 12:-0.369723 13:-0.572225 14:-0.711182 15:-0.418469 16:-0.248490 17:-0.268538 18:-0.085385 19:0.705739 20:-0.140987 21:0.153358 22:1.523691 23:-0.403694 24:-0.881438 
-1048576.000000 1:0.647515 2:0.688110 3:0.439696 4:0.238299 5:0.323986 6:0.772774 7:0.823173 8:0.924845 9:0.353448 10:1.615923 11:1.308778 12:1.363484 13:1.906133 14:2.828483 15:3.054312 16:2.244393 17:2.349013 18:1.045777 19:0.705739 20:-0.581331 21:0.000000 22:0.000000 23:0.000000 24:-0.000000 
-1048576.000000 1:-0.388901 2:-0.164808 3:0.074463 4:-0.194047 5:-0.226295 6:0.066794 7:0.507023 8:0.520579 9:0.674616 10:2.834044 11:3.154137 12:2.131901 13:1.298788 14:0.650228 15:0.057798 16:-0.349896 17:0.023848 18:-0.053431 19:0.705739 20:-2.122533 21:0.000000 22:0.000000 23:0.000000 24:-0.000000 
-1048576.000000 1:0.998165 2:0.529003 3:0.252053 4:0.225393 5:0.511970 6:0.830496 7:1.693881 8:2.193230 9:1.614155 10:1.581120 11:2.013538 12:1.781844 13:2.229397 14:2.336281 15:1.814033 16:2.109186 17:1.019353 18:0.911571 19:0.705739 20:1.400215 21:0.000000 22:0.466323 23:-0.949939 24:-1.087933 
-1048576.000000 1:1.481974 2:1.616670 3:1.150055 4:0.644833 5:0.481209 6:0.559648 7:0.543302 8:0.490259 9:0.727346 10:-0.811618 11:-0.879687 12:-0.830773 13:-0.699572 14:-0.459845 15:-0.140647 16:-0.020328 17:0.615582 18:0.579253 19:0.705739 20:1.913949 21:0.153358 22:1.259349 23:-0.259945 24:-0.682090 
-1048576.000000 1:-2.062257 2:-1.930637 3:-2.046563 4:-2.000867 5:-1.880558 6:-1.962342 7:-1.897791 8:-1.682672 9:-1.429759 10:-1.046542 11:-1.065150 12:-0.992994 13:-0.944469 14:-0.794961 15:-0.696292 16:-0.510454 17:-0.658386 18:-0.091775 19:0.705739 20:-0.361159 21:0.000000 22:0.000000 23:0.000000 24:-0.000000 
-1048576.000000 1:1.142420 2:0.779401 3:0.791525 4:0.554492 5:0.194106 6:0.035713 7:-0.539901 8:-0.581047 9:-0.480633 10:-1.664303 11:-1.491715 12:-1.300361 13:-1.238345 14:-1.276690 15:-1.619060 16:-1.279446 17:-0.400808 18:-0.078994 19:-1.414761 20:2.134121 21:0.000000 22:-1.912756 23:-0.734316 24:-0.038336 
-1048576.000000 1:0.865007 2:0.526395 3:0.402837 4:0.273790 5:0.067644 6:0.106755 7:0.615861 8:0.732819 9:0.928675 10:-1.551192 11:-1.380437 12:-1.103988 13:-0.993448 14:-0.857795 15:-0.478003 16:-0.721716 17:-0.491308 18:-0.053431 19:-1.414761 20:-0.654721 21:-0.385109 22:-0.062361 23:0.885253 24:0.909835 
-1048576.000000 1:1.712781 2:1.188907 3:0.556972 4:0.502869 5:0.282971 6:0.306561 7:0.828356 8:1.430178 9:2.069544 10:-1.690406 11:-1.547354 12:-1.308899 13:-1.287325 14:-1.088187 15:-0.974115 16:-1.169590 17:-0.581808 18:0.253325 19:0.705739 20:1.253434 21:-0.115876 22:0.730665 23:0.011581 24:-0.267176 
-1048576.000000 1:1.226754 2:1.230640 3:1.495183 4:1.067500 5:1.294669 6:1.563116 7:1.512484 8:1.556511 9:0.684204 10:-0.837721 11:-0.536580 12:-0.190426 13:0.475934 14:0.953927 15:1.615588 16:1.128933 17:0.671274 18:-0.162074 19:0.705739 20:-0.361159 21:-0.115876 22:0.730665 23:-0.771051 24:-0.991233 
-51723.873363 1:0.936025 2:0.894167 3:-0.139985 4:-0.390862 5:-0.571503 6:-0.923353 7:-0.783492 8:-0.560833 9:-0.245748 10:0.702332 11:0.835847 12:0.270624 13:-0.013860 14:-0.082839 15:-0.418469 16:-0.916076 17:-1.333658 18:-1.542474 19:0.705739 20:-0.287768 21:-0.385109 22:0.995007 23:-0.576192 24:-0.886447 
-1048576.000000 1:0.094908 2:0.101240 3:0.144829 4:0.131826 5:0.166763 6:0.524127 7:0.569216 8:0.672179 9:0.401383 10:0.502212 11:-0.119288 12:-0.455103 13:-0.474266 14:-0.554096 15:-0.775670 16:-0.223139 17:0.330157 18:0.866836 19:0.705739 20:0.446137 21:-0.654343 22:-1.384072 23:-0.702371 24:-0.220074 
-1048576.000000 1:1.082499 2:1.554071 3:1.327645 4:0.767439 5:0.898193 6:0.941499 7:0.444829 8:-0.050447 9:-0.178638 10:1.250487 11:0.696750 12:0.338928 13:0.593485 14:0.639756 15:1.258388 16:1.737366 17:0.949737 18:0.783756 19:0.705739 20:1.400215 21:-0.385109 22:0.730665 23:-0.627303 24:-0.858242 
-1048576.000000 1:0.802866 2:0.693327 3:0.453099 4:0.328640 5:0.399180 6:0.626250 7:0.621044 8:0.641859 9:0.511635 10:0.423905 11:0.084722 12:-0.173350 13:-0.121615 14:-0.114256 15:0.137176 16:0.038825 17:0.845314 18:1.966044 19:0.705739 20:0.372747 21:-0.115876 22:0.201981 23:-0.802996 24:-0.872181 
-544123.527426 1:0.463313 2:-0.073517 3:-0.109828 4:-0.381182 5:-0.089580 6:-0.075290 7:0.045755 8:0.161793 9:0.085008 10:-0.002438 11:0.131087 12:0.125479 13:0.152670 14:0.357001 15:0.762276 16:1.433150 17:1.047199 18:0.770975 19:0.705739 20:1.913949 21:1.768759 22:0.000000 23:-0.119391 24:-0.000000 
-1048576.000000 1:-0.084856 2:0.622903 3:0.412890 4:0.209261 5:0.252210 6:0.559648 7:0.843904 8:0.439726 9:0.588332 10:0.345597 11:0.121814 12:0.151093 13:-0.102023 14:-0.543624 15:-1.122948 16:-1.794923 17:-1.674775 18:-1.440222 19:0.705739 20:0.225966 21:1.499525 22:1.259349 23:0.620117 24:0.088103 
-1048576.000000 1:0.869445 2:2.041825 3:1.857064 4:0.596436 5:-0.147684 6:-0.297296 7:-0.539901 8:-0.687167 9:-0.974370 10:-1.237961 11:-0.258385 12:-0.557558 13:-1.013040 14:-1.569917 15:-1.509915 16:-1.896329 17:-0.748886 18:-0.666942 19:-1.414761 20:-0.287768 21:-0.654343 22:0.000000 23:-0.751885 24:-0.000000 
-1048576.000000 1:1.248947 2:1.081966 3:0.922204 4:0.861006 5:0.771731 6:0.932618 7:0.781711 8:0.783352 9:1.321748 10:0.084571 11:-0.406756 12:-0.591710 13:-0.748551 14:-0.983464 15:-0.864970 16:-0.527355 17:0.260542 18:0.304451 19:0.705739 20:1.400215 21:0.422591 22:0.000000 23:-0.371749 24:-0.000000 
-1048576.000000 1:-0.570884 2:-0.010918 3:1.093092 4:1.641811 5:2.220919 6:3.037237 7:3.300546 8:2.162910 9:2.079131 10:0.493511 11:0.131087 12:-0.386799 13:-0.709367 14:-0.952046 15:-1.182481 16:-0.645662 17:-0.400808 18:-1.037605 19:0.705739 20:0.446137 21:-0.654343 22:0.730665 23:-0.579386 24:-0.813912 
-1048576.000000 1:-1.054692 2:-1.077718 3:-0.806785 4:-0.678017 5:-0.404026 6:-0.141891 7:0.247883 8:0.702499 9:0.502048 10:-0.019840 11:-0.267658 12:-0.301419 13:-0.219573 14:-0.040949 15:0.246320 16:0.605005 17:1.450970 18:1.620943 19:-1.414761 20:-0.507940 21:-0.923576 22:-1.912756 23:0.937961 24:2.057611 
-1048576.000000 1:0.560962 2:0.583778 3:0.747965 4:0.164090 5:-0.130594 6:-0.035329 7:-0.472524 8:-0.525460 9:-0.547743 10:-1.507688 11:-1.139335 12:-1.027146 13:-1.101203 14:-1.580389 15:-1.946493 16:-2.073788 17:-1.076080 18:-0.922572 19:0.705739 20:0.152575 21:2.307226 22:0.995007 23:2.662946 24:2.027598 
-1048576.000000 1:0.685243 2:0.930684 3:0.489957 4:0.135052 5:-0.260474 6:-0.443820 7:-0.311858 8:0.171899 9:0.219228 10:-0.306968 11:-1.065150 12:-1.103988 13:-1.189366 14:-1.130077 15:-0.577225 16:-0.071031 17:-0.386884 18:-1.651116 19:0.705739 20:-0.801502 21:0.961058 22:2.581060 23:1.385179 24:0.223389 
-1048576.000000 1:0.279110 2:0.920250 3:1.056234 4:0.038258 5:-0.926964 6:-1.274123 7:-1.633469 8:-1.920179 9:-1.909115 10:-0.463584 11:-1.491715 12:-1.479658 13:-1.777119 14:-2.198260 15:-2.581516 16:-2.563915 17:-2.022854 18:-1.836448 19:-1.414761 20:0.739700 21:0.422591 22:-2.177098 23:0.378938 24:1.521808 
-1048576.000000 1:-1.372053 2:-1.479399 3:-1.654525 4:-1.607239 5:-1.559275 6:-1.651533 7:-1.524630 8:-1.136913 9:-0.912054 10:3.434404 11:3.580702 12:2.772248 13:2.121643 14:1.163375 15:0.563832 16:0.959924 17:0.594697 18:0.553690 19:0.705739 20:-0.214378 21:-0.654343 22:1.206481 23:-0.646469 24:-1.006454 
-1048576.000000 1:0.691901 2:0.547261 3:-0.119880 4:-0.610261 5:-0.988487 6:-1.211961 7:-1.073728 8:-0.965100 9:-0.653201 10:3.399600 11:3.793985 12:2.891780 13:2.405723 14:1.435656 15:0.762276 16:0.512050 17:0.692159 18:0.477001 19:0.705739 20:-1.168455 21:0.691825 22:0.466323 23:0.602548 24:0.389690 
-1048576.000000 1:0.698559 2:0.646377 3:0.526815 4:0.009220 5:-0.434787 6:-0.701347 7:-1.198115 8:-1.495699 9:-1.520836 10:1.293991 11:0.594745 12:0.108403 13:0.133078 14:0.262750 15:-0.279558 16:-0.332995 17:-0.679270 18:-0.309061 19:-1.414761 20:0.372747 21:0.287975 22:-2.705782 23:-0.627303 24:0.482438 
-1048576.000000 1:0.618664 2:0.547261 3:0.781472 4:0.464151 5:0.426523 6:0.746133 7:0.605496 8:1.465551 9:1.834659 10:-2.151552 11:-1.667905 12:-1.197906 13:-1.395079 14:-1.622279 15:-1.390848 16:-1.178040 17:-0.728001 18:-0.743631 19:0.705739 20:-0.581331 21:1.230292 22:-0.326703 23:1.148793 24:1.317682 
-1048576.000000 1:1.382105 2:0.844609 3:0.399487 4:0.473831 5:0.067644 6:-0.106371 7:-0.171923 8:-0.116140 9:-0.336826 10:1.937855 11:1.698251 12:0.407232 13:0.240833 14:0.440780 15:1.258388 16:1.619060 17:1.144661 18:0.809319 19:0.705739 20:0.666309 21:-0.115876 22:1.417955 23:-0.579386 24:-1.003642 
-1048576.000000 1:0.454435 2:0.119498 3:0.148180 4:0.309281 5:0.296643 6:0.204438 7:-0.026804 8:0.091046 9:0.128150 10:1.320094 11:0.928579 12:0.227935 13:-0.121615 14:-0.417955 15:-1.003881 16:-1.186491 17:-1.521620 18:-1.663898 19:-1.414761 20:0.152575 21:0.153358 22:0.000000 23:0.000000 24:0.266929 
-1048576.000000 1:0.467751 2:1.426263 3:1.592355 4:1.067500 5:1.410877 6:2.104811 7:2.238074 8:0.929898 9:0.233608 10:1.224384 11:0.307277 12:-0.455103 13:-1.081611 14:-1.381414 15:-1.648826 16:-1.609013 17:-0.895079 18:-0.449657 19:0.705739 20:-0.654721 21:-1.462043 22:-0.591045 23:-1.104868 24:-0.946631 
-1048576.000000 1:0.307961 2:-0.180458 3:-0.652650 4:-0.742546 5:-0.725309 6:-0.905593 7:-1.255125 8:-1.616979 9:-1.899528 10:1.720333 11:1.865168 12:1.261028 13:1.426135 14:1.362350 15:1.099632 16:-0.071031 17:-1.507697 18:-1.357142 19:-1.414761 20:2.134121 21:0.000000 22:0.000000 23:0.000000 24:-0.000000 
-1048576.000000 1:1.064744 2:1.280198 3:0.922204 4:0.648060 5:0.498299 6:0.541887 7:0.118314 8:-0.217207 9:-0.178638 10:1.302692 11:0.418555 12:0.074251 13:-0.102023 14:0.126609 15:0.414998 16:-0.231590 17:-0.345115 18:0.176636 19:0.705739 20:-0.654721 21:-0.654343 22:0.730665 23:-0.315847 24:-0.570097 
-1048576.000000 1:0.316838 2:0.098631 3:-0.106477 4:-0.123065 5:0.033465 6:0.297681 7:0.439646 8:-0.085821 9:-0.288890 10:-1.159653 11:-0.935326 12:-0.805159 13:-0.768143 14:-0.763544 15:-0.864970 16:-0.780869 17:-0.038806 18:-0.737240 19:-1.414761 20:-0.434549 21:0.961058 22:-0.855387 23:1.512956 24:2.023667 
-1048576.000000 1:-0.519840 2:-0.459548 3:-0.119880 4:-0.003686 5:0.265882 6:0.639570 7:1.279258 8:1.485765 9:1.408032 10:1.328795 11:1.512788 12:1.619623 13:1.974704 14:1.917386 15:1.268310 16:0.630357 17:0.218772 18:-0.686114 19:0.705739 20:1.546996 21:-0.654343 22:-1.119729 23:-1.298130 24:-1.001579 
-887010.553768 1:-1.267745 2:-1.239434 3:-1.014531 4:-0.861925 5:-0.530488 6:-0.133011 7:0.543302 8:0.869258 9:1.259431 10:-1.098747 11:-1.000238 12:-0.642938 13:-0.552633 14:-1.035826 15:-1.083259 16:-0.628761 17:0.768736 18:1.467566 19:0.705739 20:1.326824 21:-0.115876 22:0.995007 23:-0.371749 24:-0.702523 
-1048576.000000 1:0.216970 2:-0.172633 3:-0.508568 4:-0.345691 5:-0.540742 6:-0.670266 7:-0.938975 8:-0.697273 9:-0.538156 10:1.041666 11:0.585472 12:0.347466 13:0.328996 14:0.555976 15:0.811888 16:0.782465 17:0.002964 18:-0.078994 19:0.705739 20:-0.507940 21:0.422591 22:1.788033 23:0.043525 24:-0.581271 
-1048576.000000 1:-0.277935 2:0.030815 3:0.449748 4:0.283469 5:0.238539 6:0.271040 7:0.548485 8:0.813672 9:0.780075 10:0.728435 11:1.596246 12:2.106287 13:2.797558 14:2.189668 15:1.109555 16:0.250086 17:-0.665347 18:-0.270716 19:0.705739 20:-1.241846 21:0.691825 22:0.995007 23:0.514701 24:0.094960 
-1048576.000000 1:0.800647 2:0.865476 3:0.530166 4:0.154411 5:-0.304907 6:-0.417179 7:-0.270396 8:0.070833 9:0.046659 10:0.180280 11:-0.128561 12:-0.198964 13:-0.170594 14:0.357001 15:0.782121 16:0.613456 17:0.204849 18:0.681504 19:0.705739 20:-1.095065 21:0.961058 22:1.259349 23:1.241431 24:0.631850 
-776919.695308 1:1.078060 2:1.050666 3:1.113197 4:0.373810 5:0.282971 6:0.346522 7:0.299711 8:0.495312 9:0.516429 10:0.041066 11:-0.425302 12:-0.642938 13:-0.689776 14:-0.543624 15:-0.716136 16:-0.865374 17:-1.305812 18:-1.050387 19:-1.414761 20:-0.361159 21:-0.115876 22:-1.648414 23:1.161570 24:2.149549 
-1048576.000000 1:-0.153654 2:-0.764721 3:-0.250560 4:-0.390862 5:-0.277564 6:-0.443820 7:-0.710933 8:-0.980260 9:-0.940815 10:0.406503 11:-0.072922 12:-0.173350 13:-0.444879 14:-0.533151 15:-0.249791 16:0.697960 17:-0.547001 18:-0.666942 19:-1.414761 20:-0.214378 21:0.000000 22:0.000000 23:0.160121 24:-0.000000 
-122946.972979 1:-0.666314 2:-0.996861 3:-0.994427 4:-0.778037 5:-0.434787 6:-0.044209 7:0.113131 8:-0.525460 9:-0.648408 10:0.771939 11:0.529833 12:0.424308 13:0.730627 14:0.985344 15:1.714811 16:1.086681 17:-0.226768 18:0.451438 19:0.705739 20:0.959872 21:-0.385109 22:-0.062361 23:-0.755079 24:-0.744586 
-1048576.000000 1:1.133543 2:0.990675 3:0.912152 4:0.589983 5:0.423105 6:0.537447 7:0.683238 8:0.899578 9:0.875946 10:-0.628900 11:-0.814775 12:-0.916153 13:-1.120795 14:-0.993936 15:-0.726059 16:-0.586509 17:-0.359038 18:0.067993 19:0.705739 20:0.005794 21:0.000000 22:0.000000 23:0.000000 24:-0.000000 
-1048576.000000 1:0.183680 2:0.364679 3:0.292262 4:0.009220 5:-0.062236 6:0.000192 7:0.107948 8:0.293179 9:-0.077973 10:-0.724610 11:-0.870414 12:-0.788083 13:-0.807326 14:-1.067243 15:-1.093181 16:-1.270995 17:-0.936849 18:-1.101513 19:-1.414761 20:-0.214378 21:-0.385109 22:-1.119729 23:0.128177 24:0.622417 
-1048576.000000 1:-0.881586 2:-1.038594 3:-0.766575 4:-0.555411 5:-0.468966 6:-0.625865 7:-0.861233 8:-0.545673 9:-0.063593 10:-0.063344 11:-0.453121 12:-0.480717 13:-0.366512 14:0.021885 15:-0.051347 16:-0.290743 17:-0.073614 18:-0.072603 19:0.705739 20:0.372747 21:0.530285 22:0.175547 23:0.409285 24:0.326549 
-1048576.000000 1:1.397640 2:1.421047 3:0.694353 4:0.351225 5:-0.079326 6:-0.679146 7:-0.985620 8:-1.035846 9:-0.792215 10:1.206982 11:0.724569 12:0.381618 13:0.231037 14:0.775896 15:1.000410 16:1.483853 17:0.121310 18:0.234152 19:0.705739 20:0.446137 21:-0.115876 22:0.466323 23:-0.898828 24:-1.039287 
-1048576.000000 1:1.275578 2:1.410613 3:1.706280 4:0.606116 5:-0.092997 6:-0.430500 7:-0.570997 8:-0.535567 9:-0.351207 10:0.310793 11:-0.100742 12:-0.446565 13:-0.631000 14:-0.669292 15:-0.855048 16:-0.561157 17:-0.003998 18:0.087165 19:-1.414761 20:-0.874893 21:0.691825 22:-1.119729 23:1.385179 24:2.053642 
-1048576.000000 1:1.180148 2:1.512338 3:0.804928 4:0.386716 5:-0.147684 6:-0.452700 7:-0.513987 8:-0.348594 9:-0.154670 10:-0.942131 11:-0.647858 12:-0.455103 13:-0.366512 14:-0.177090 15:0.246320 16:1.669763 17:1.764241 18:1.154419 19:-1.414761 20:0.152575 21:-0.654343 22:-1.066861 23:1.359624 24:1.989882 
-1048576.000000 1:-1.232237 2:-1.142926 3:-0.967621 4:-1.036154 5:-1.159381 6:-1.287443 7:-1.141104 8:-0.616420 9:-0.801802 10:-0.976935 11:-0.675677 12:-0.386799 13:-0.190186 14:0.032357 15:0.246320 16:0.385294 17:0.970622 18:2.458131 19:0.705739 20:-1.388627 21:0.000000 22:0.000000 23:0.000000 24:-0.000000 
-1048576.000000 1:0.891638 2:0.695935 3:0.975816 4:1.035235 5:0.935790 6:1.123544 7:1.579860 8:1.485765 9:1.599774 10:0.928555 11:0.937852 12:1.141497 13:1.455523 14:1.372822 15:0.811888 16:-0.020328 17:0.239657 18:0.349186 19:-1.414761 20:-1.902361 21:-1.192810 22:0.069810 23:0.727130 24:0.687838 
-1048576.000000 1:0.980411 2:0.695935 3:0.228598 4:-0.006912 5:0.077897 6:0.035713 7:-0.037170 8:0.475099 9:0.521222 10:0.502212 11:0.149634 12:0.005947 13:-0.033452 14:0.461725 15:0.762276 16:0.943024 17:-0.421692 18:-0.379359 19:-1.414761 20:0.372747 21:0.000000 22:-1.331203 23:0.691991 24:1.390095 
-1048576.000000 1:-0.761744 2:-0.561272 3:-0.588986 4:-0.458617 5:-0.185281 6:0.284360 7:0.356722 8:0.096099 9:-0.125909 10:-0.507088 11:-0.091468 12:0.458460 13:1.220421 14:1.529908 15:1.307999 16:0.605005 17:-0.247653 18:0.636769 19:0.705739 20:0.372747 21:-0.923576 22:0.175547 23:-1.140006 24:-1.195493 
-356447.862773 1:-0.042689 2:0.607253 3:-0.344381 4:-0.516694 5:-0.964561 6:-1.478369 7:-1.540179 8:-1.611926 9:-1.669437 10:1.398401 11:0.066175 12:-0.292881 13:-0.346920 14:-0.239925 15:-0.557381 16:-0.687914 17:-0.853310 18:-0.270716 19:0.705739 20:-1.021674 21:-0.115876 22:0.201981 23:-0.132168 24:-0.215061 
-1048576.000000 1:0.978191 2:0.894167 3:0.888696 4:0.344772 5:0.163345 6:0.461965 7:0.994205 8:0.758085 9:0.943056 10:-0.768114 11:-0.471668 12:-0.173350 13:0.191854 14:0.482670 15:0.881343 16:1.500753 17:3.260979 18:2.962999 19:0.705739 20:-0.581331 21:1.230292 22:-0.062361 23:1.720593 24:1.752349 
-1048576.000000 1:-0.621928 2:-1.051635 3:-1.054740 4:-0.858699 5:-0.475802 6:0.213318 7:0.227152 8:-0.045394 9:-0.547743 10:-2.438680 11:-2.122290 12:-1.795563 13:-1.963240 14:-2.229677 15:-2.531905 16:-2.276599 17:-1.445043 18:-0.916181 19:-1.414761 20:0.005794 21:-1.462043 22:-0.062361 23:1.161570 24:1.188525 
-1048576.000000 1:0.767357 2:1.181082 3:0.744614 4:0.335093 5:-0.164773 6:-0.350577 7:-0.726481 8:-0.651793 9:-0.279303 10:-2.099346 11:-1.519535 12:-1.103988 13:-1.169774 14:-1.318580 15:-1.390848 16:-0.831572 17:-0.150191 18:0.905180 19:-1.414761 20:1.033262 21:0.000000 22:-1.648414 23:0.043525 24:0.793085 
-1048576.000000 1:-0.570884 2:-0.764721 3:-0.830240 4:-0.710282 5:-0.803920 6:-0.963314 7:-0.648739 8:-0.080767 9:-0.308064 10:-0.916029 11:-0.286205 12:0.373080 13:1.161646 14:1.456601 15:0.653132 16:0.317690 17:-0.143229 18:0.016867 19:-1.414761 20:0.152575 21:-0.923576 22:-0.326703 23:-0.140154 24:-0.021431 
-1048576.000000 1:1.098034 2:1.259331 3:1.307541 4:0.748080 5:0.484627 6:0.453085 7:0.216787 8:-0.111087 9:-0.212193 10:0.249887 11:-0.314024 12:-0.736855 13:-0.866102 14:-0.595985 15:-0.100958 16:1.112033 17:0.330157 18:-0.519955 19:0.705739 20:-0.654721 21:-0.385109 22:-1.119729 23:-0.627303 24:-0.237774 
-1048576.000000 1:-0.679630 2:-0.939478 3:-0.629195 4:-0.542505 5:-0.369847 6:0.022393 7:0.351539 8:0.419512 9:0.617094 10:-1.107448 11:-1.046604 12:-0.899077 13:-0.905285 14:-0.826378 15:-0.765748 16:-0.079481 17:-0.073614 18:-0.270716 19:0.705739 20:-0.581331 21:0.691825 22:2.845402 23:0.490743 24:-0.539861 
-1048576.000000 1:-0.746209 2:-0.968169 3:-0.696210 4:-0.355371 5:-0.438205 6:-0.275095 7:0.465560 8:0.919792 9:1.024547 10:0.798042 11:0.437102 12:0.176707 13:0.123283 14:0.241805 15:0.256242 16:0.782465 17:0.726967 18:1.838229 19:0.705739 20:1.326824 21:0.427976 22:0.201981 23:-0.355777 24:-0.434101 
-1048576.000000 1:1.233411 2:1.199340 3:0.419591 4:0.231846 5:0.033465 6:-0.088610 7:0.242701 8:0.480152 9:0.080214 10:-0.550592 11:-0.610765 12:-0.668552 13:-0.631000 14:-0.292286 15:0.107409 16:0.292339 17:-0.059691 18:-0.219590 19:0.705739 20:1.033262 21:0.422591 22:-0.062361 23:0.011581 24:0.028658 
-1048576.000000 1:1.379886 2:1.092399 3:0.369330 4:0.076976 5:-0.113505 6:-0.266215 7:-0.441428 8:-0.237420 9:-0.221780 10:-0.959533 11:-0.926053 12:-0.856387 13:-0.866102 14:-0.774016 15:-0.487925 16:0.300789 17:0.156118 18:-0.488001 19:0.705739 20:1.033262 21:0.961058 22:1.259349 23:0.714352 24:0.170573 
-1048576.000000 1:-0.486550 2:-0.334349 3:0.231949 4:0.106014 5:0.030047 6:0.186678 7:0.170141 8:0.212326 9:0.334273 10:-0.454883 11:0.019810 12:0.202321 13:0.348588 14:0.168498 15:-0.259714 16:0.233185 17:0.093464 18:-0.398531 19:-1.414761 20:0.005794 21:-0.654343 22:-1.648414 23:-0.579386 24:0.037342 
-1048576.000000 1:0.793989 2:0.883734 3:0.912152 4:0.906177 5:1.034909 6:1.474313 7:1.766440 8:1.243205 9:1.005372 10:0.067169 11:-0.480941 12:-0.438027 13:-0.533042 14:-0.993936 15:-0.795514 16:-0.223139 17:-1.041272 18:-0.871446 19:0.705739 20:0.079185 21:-0.546649 22:-2.018493 23:-0.929175 24:-0.239318 
-1048576.000000 1:1.371008 2:1.298456 3:1.026077 4:0.573851 5:0.395762 6:0.377603 7:0.714334 8:1.025912 9:1.455967 10:-1.298867 11:-0.935326 12:-0.941767 13:-0.993448 14:-1.308107 15:-0.993959 16:-1.372401 17:-0.491308 18:-0.213200 19:0.705739 20:-0.140987 21:-0.385109 22:-0.035927 23:1.394763 24:1.409131 
-1048576.000000 1:-0.639682 2:-0.981211 3:-0.649299 4:-0.429579 5:-0.188699 6:0.026833 7:-0.301492 8:-0.596207 9:-0.571711 10:-0.968234 11:-1.018784 12:-0.924691 13:-0.856306 14:-0.889212 15:-1.013803 16:-0.332995 17:-0.407769 18:-0.456048 19:-1.414761 20:0.519528 21:-1.462043 22:-1.410506 23:-0.892439 24:-0.442997 
-1048576.000000 1:1.493070 2:1.220207 3:0.999271 4:0.602889 5:0.611089 6:0.928178 7:0.812807 8:1.025912 9:1.537458 10:-0.480985 11:-0.230566 12:-0.011128 13:0.280017 14:0.671173 15:0.970643 16:1.120483 17:0.204849 18:0.234152 19:-1.414761 20:-0.214378 21:-0.385109 22:-0.062361 23:0.479562 24:0.500660 
-1048576.000000 1:1.211218 2:0.685502 3:-0.059567 4:-0.168236 5:-0.175027 6:-0.323937 7:-0.586546 8:-0.641687 9:-0.475839 10:-1.237961 11:-1.232067 12:-1.001532 13:-0.895489 14:-0.899685 15:-1.311470 16:-1.651266 17:-0.748886 18:-1.235718 19:0.705739 20:1.767168 21:0.961058 22:-1.278335 23:0.233592 24:0.824027 
-1048576.000000 1:-1.136806 2:-1.077718 3:-1.255785 4:-1.223289 5:-1.217486 6:-1.234162 7:-1.348416 8:-1.591712 9:-1.501662 10:0.589221 11:1.837348 12:1.124421 13:1.318380 14:1.341405 15:0.891265 16:1.568357 17:1.896511 18:0.815710 19:-1.414761 20:-0.434549 21:0.000000 22:-0.591045 23:0.490743 24:0.761696 
-1048576.000000 1:1.346596 2:1.173257 3:0.496658 4:0.312508 5:0.347911 6:0.612929 7:0.911280 8:1.106765 9:1.235464 10:-1.368474 11:-1.046604 12:-0.685628 13:-0.356716 14:0.074247 15:0.712665 16:1.281042 17:0.545966 18:1.742368 19:0.705739 20:-0.287768 21:0.153358 22:-0.564611 23:0.169704 24:0.405989 
-1048576.000000 1:0.132636 2:0.242089 3:0.550270 4:0.990065 5:2.063696 6:3.827579 7:4.306007 8:4.285308 9:3.196032 10:0.302092 11:0.010536 12:-0.164812 13:-0.092227 14:0.262750 15:1.159166 16:2.489456 17:0.803544 18:-0.117338 19:-1.414761 20:-0.654721 21:0.000000 22:0.000000 23:0.000000 24:-0.898621 
-1048576.000000 1:1.255604 2:1.423655 3:1.213719 4:0.838421 5:0.470956 6:0.302121 7:0.035389 8:0.075886 9:0.008311 10:0.014964 11:0.752389 12:1.397636 13:1.857154 14:1.770773 15:1.427066 16:0.385294 17:-0.484346 18:-0.379359 19:-1.414761 20:0.592919 21:0.153358 22:-1.384072 23:0.794212 24:1.538464 
-1048576.000000 1:-0.246865 2:0.526395 3:0.248703 4:-0.284388 5:-0.410862 6:-0.270655 7:-0.099364 8:-0.373860 9:-0.691550 10:1.424504 11:1.308778 12:0.731675 13:0.328996 14:-0.281814 15:-0.755825 16:-0.383698 17:-0.832425 18:-0.673333 19:-1.414761 20:0.592919 21:0.000000 22:-0.855387 23:-0.723135 24:-0.444615 
-1048576.000000 1:1.226754 2:1.397572 3:1.619161 4:1.606320 5:0.505135 6:-0.239574 7:-0.576180 8:-0.949940 9:-1.190080 10:-1.107448 11:-0.759136 12:-0.762469 13:-0.777939 14:-1.098660 15:-1.499993 16:-1.304797 17:-1.319735 18:-1.267672 19:0.705739 20:1.033262 21:1.768759 22:0.201981 23:0.602548 24:0.504641 
-1048576.000000 1:0.873884 2:1.288023 3:0.205143 4:-0.026271 5:-0.178445 6:-0.133011 7:0.221969 8:0.166846 9:0.180879 10:-1.081345 11:-0.740589 12:-0.386799 13:0.044915 14:-0.260869 15:-0.577225 16:-0.594959 17:-0.519154 18:-0.315451 19:0.705739 20:-0.067597 21:2.576459 22:0.492757 23:4.212238 24:3.804294 
-1048576.000000 1:0.103785 2:-0.047434 3:0.268807 4:0.331866 5:0.549567 6:0.812735 7:1.310355 8:1.147192 9:0.871153 10:-1.359773 11:-1.130062 12:-0.779545 13:-0.493858 14:-0.522679 15:-1.212248 16:-1.820275 17:-1.751352 18:-1.542474 19:0.705739 20:0.886481 21:0.422591 22:0.466323 23:-0.280709 24:-0.450974 
-1048576.000000 1:1.018139 2:1.079358 3:1.153406 4:0.567398 5:0.474373 6:0.430884 7:0.221969 8:0.161793 9:0.180879 10:0.693631 11:0.511287 12:0.176707 13:0.250629 14:0.398891 15:0.196709 16:0.123330 17:0.963660 18:0.713458 19:0.705739 20:1.987340 21:1.230292 22:0.995007 23:-0.371749 24:-0.702523 
-1048576.000000 1:1.093595 2:1.029800 3:1.103145 4:1.183653 5:1.072506 6:0.541887 7:0.678055 8:0.783352 9:1.269018 10:0.336896 11:0.260912 12:-0.036742 13:-0.288145 14:-0.030477 15:0.067720 16:0.013474 17:-0.038806 18:-0.341014 19:0.705739 20:0.299356 21:-0.115876 22:1.259349 23:-0.355777 24:-0.765958 
-1048576.000000 1:-0.082636 2:0.930684 3:1.069637 4:0.806156 5:0.686283 6:0.715052 7:1.030484 8:0.904632 9:0.583539 10:0.754537 11:0.733843 12:-0.087970 13:-0.484062 14:-0.637875 15:-0.537536 16:-1.009031 17:-0.832425 18:-1.107903 19:0.705739 20:0.299356 21:-0.115876 22:-0.326703 23:-0.882856 24:-0.898621 
-1048576.000000 1:1.129104 2:0.646377 3:0.469852 4:0.577078 5:0.761477 6:0.746133 7:0.740248 8:0.753032 9:0.526016 10:-0.324370 11:-0.527307 12:-0.557558 13:-0.474266 14:-0.093311 15:-0.160491 16:0.266987 17:0.002964 18:0.790147 19:-1.414761 20:0.225966 21:-0.654343 22:-0.326703 23:0.339008 24:0.476380 
-1048576.000000 1:-0.448822 2:0.082982 3:-0.093074 4:-0.255350 5:-0.516817 6:-0.426059 7:-0.778309 8:-0.722540 9:-0.696343 10:2.425104 11:2.152636 12:1.457402 13:1.240013 14:1.121485 15:1.218699 16:1.002177 17:0.163080 18:0.745412 19:0.705739 20:-1.021674 21:0.422591 22:-0.326703 23:0.339008 24:0.476380 
-1048576.000000 1:-0.721796 2:-0.947303 3:-0.830240 4:-0.623167 5:-0.414280 6:-0.292856 7:-0.223750 8:-0.070661 9:-0.413523 10:-0.428780 11:-0.416029 12:-0.403875 13:-0.297940 14:-0.145673 15:-0.011658 16:0.097978 17:0.434581 18:0.540908 19:0.705739 20:0.079185 21:-0.115876 22:0.730665 23:-0.068280 24:-0.341059 
-1048576.000000 1:-1.931318 2:-1.943679 3:-2.026459 4:-1.923432 5:-1.819036 6:-1.815818 7:-1.695662 8:-1.485592 9:-1.357855 10:-0.820319 11:-0.480941 12:-0.292881 13:-0.787735 14:-1.538500 15:-2.125094 16:-2.242797 17:-1.918430 18:-1.593600 19:0.705739 20:1.180043 21:0.153358 22:0.995007 23:0.339008 24:-0.063100 
-1048576.000000 1:-0.579761 2:-0.509106 3:0.037605 4:0.225393 5:0.532478 6:0.737253 7:0.963108 8:1.369538 9:1.269018 10:-0.889926 11:-0.712770 12:-0.540482 13:-0.395899 14:0.095192 15:0.305854 16:0.790915 17:0.970622 18:0.419484 19:-1.414761 20:0.152575 21:-0.385109 22:-0.353137 23:-0.065085 24:-0.495976 
-1048576.000000 1:0.521015 2:0.437712 3:-0.207000 4:-0.245671 5:-0.226295 6:0.262160 7:0.792076 8:0.717659 9:1.010166 10:-1.298867 11:-1.148608 12:-0.779545 13:-0.826918 14:-0.889212 15:-0.755825 16:-0.502004 17:-0.560924 18:0.048821 19:-1.414761 20:-0.434549 21:2.845693 22:-0.881822 23:0.584978 24:1.008642 
-1048576.000000 1:-0.757305 2:-0.608222 3:-0.766575 4:-0.687696 5:-0.790249 6:-0.714667 7:-0.322223 8:0.459939 9:1.048514 10:-0.950832 11:-1.343345 12:-1.274747 13:-1.453855 14:-1.946923 15:-2.402916 16:-2.513212 17:-2.426625 18:-2.219893 19:0.705739 20:-0.507940 21:-0.923576 22:-0.353137 23:-0.857301 24:-0.758169 
-222999.052365 1:-0.426629 2:-0.524756 3:-0.475060 4:-0.584449 5:-0.715055 6:-0.550383 7:-0.462159 8:-0.060554 9:-0.236161 10:0.841546 11:0.251638 12:-0.224578 13:-0.454675 14:-0.554096 15:-0.656603 16:-0.603409 17:-0.303346 18:-0.398531 19:0.705739 20:-0.801502 21:-0.654343 22:-0.326703 23:-0.962716 24:-0.876008 
-1048576.000000 1:0.705217 2:1.392355 3:0.647442 4:0.457698 5:-0.188699 6:-0.461580 7:-0.260030 8:0.262859 9:0.353448 10:0.423905 11:0.260912 12:0.168169 13:0.613077 14:0.629283 15:1.307999 16:1.483853 17:0.761775 18:0.534517 19:0.705739 20:-0.948284 21:-0.385109 22:0.201981 23:-0.595359 24:-0.668787 
-1048576.000000 1:0.447777 2:0.787226 3:0.583778 4:0.515775 5:0.200942 6:0.479726 7:0.833538 8:1.116872 9:0.794456 10:-0.611498 11:-0.425302 12:-0.600248 13:-0.670184 14:-0.899685 15:-0.785592 16:-0.569608 17:-0.261576 18:0.355577 19:-1.414761 20:0.519528 21:-0.923576 22:-1.119729 23:0.011581 24:0.489660 
-1048576.000000 1:0.631980 2:0.547261 3:0.004098 4:-0.200500 5:-0.157938 6:-0.226254 7:-0.285944 8:0.156739 9:0.171292 10:-1.411978 11:-1.398984 12:-1.078374 13:-0.758347 14:-0.522679 15:0.633287 16:1.086681 17:0.093464 18:0.163854 19:0.705739 20:-1.388627 21:0.691825 22:0.730665 23:0.506715 24:0.190901 
-1048576.000000 1:0.760699 2:1.710570 3:1.542093 4:1.054594 5:0.891357 6:0.794975 7:0.776528 8:0.485206 9:0.204847 10:-2.429979 11:-2.048105 12:-1.769949 13:-2.002424 14:-2.386763 15:-2.631128 16:-2.479410 17:-1.925392 18:-1.453003 19:-1.414761 20:-0.287768 21:-1.731277 22:-0.591045 23:-1.010633 24:-0.845739 
-1048576.000000 1:-0.140338 2:-0.347390 3:0.027553 4:-0.106933 5:-0.192117 6:-0.208493 7:-0.327406 8:-0.474927 9:-0.993544 10:0.841546 11:0.066175 12:-0.190426 13:-0.141206 14:-0.281814 15:-0.329169 16:-0.645662 17:-1.124811 18:-0.769194 19:0.705739 20:-0.654721 21:3.922627 22:-0.591045 23:2.966415 24:3.412253 
-1048576.000000 1:0.853910 2:1.152390 3:0.476554 4:0.199581 5:-0.028057 6:0.342082 7:1.388097 8:0.550899 9:-0.423110 10:2.320693 11:2.597747 12:2.635641 13:2.797558 14:1.906914 15:0.395154 16:-1.093536 17:-1.793122 18:-1.862011 19:-1.414761 20:-2.195923 21:0.000000 22:0.000000 23:0.000000 24:-0.000000 
-1048576.000000 1:-0.178067 2:-0.224800 3:-0.079671 4:-0.316653 5:-0.520235 6:-0.679146 7:-1.027083 8:-0.919620 9:-1.007925 10:-0.898627 11:-0.369663 12:0.245011 13:0.750219 14:1.163375 15:1.407222 16:0.976825 17:0.156118 18:0.298060 19:0.705739 20:-0.801502 21:-0.115876 22:0.466323 23:0.022761 24:-0.162138 
-1048576.000000 1:0.616445 2:1.441913 3:1.220421 4:0.677098 5:0.156509 6:-0.181853 7:-0.648739 8:-0.520407 9:-0.384762 10:-0.681105 11:-0.406756 12:-0.164812 13:-0.151002 14:-0.103784 15:-0.448236 16:-1.127338 17:-0.957733 18:-1.369924 19:0.705739 20:0.592919 21:1.230292 22:2.052376 23:1.391568 24:0.429632 
-1048576.000000 1:-1.294377 2:-1.229000 3:-0.890553 4:-0.607035 5:-0.270728 6:-0.133011 7:0.232335 8:0.384139 9:-0.403936 10:0.293392 11:-0.072922 12:-0.250191 13:-0.111819 14:-0.135201 15:-0.180336 16:0.148681 17:1.061122 18:0.470610 19:0.705739 20:-0.434549 21:0.099511 22:1.735165 23:0.093038 24:-0.524116 
-1048576.000000 1:0.816182 2:0.255130 3:-0.448254 4:-0.561864 5:-0.670622 6:-0.994395 7:-1.519448 8:-1.470432 9:-1.444139 10:-0.193857 11:-0.332570 12:-0.531944 13:-0.621205 14:-0.669292 15:-0.934426 16:-0.662563 17:0.218772 18:-0.449657 19:0.705739 20:0.739700 21:0.422591 22:0.466323 23:0.650464 24:0.435295 
-1048576.000000 1:-1.028060 2:-0.279574 3:0.650793 4:0.015673 5:-1.043173 6:-1.305204 7:-1.954802 8:-2.294125 9:-2.297394 10:4.513311 11:4.470925 12:3.335754 13:3.610617 14:3.037931 15:2.419289 16:1.281042 17:0.754813 18:-0.168464 19:-1.414761 20:1.400215 21:2.307226 22:-2.177098 23:-0.505915 24:0.375501 
-1048576.000000 1:-0.684068 2:-0.722988 3:-0.458306 4:-0.165009 5:0.163345 6:0.728373 7:1.160054 8:0.818725 9:1.014960 10:-1.116149 11:-0.786955 12:-0.429489 13:0.191854 14:0.419836 15:0.682898 16:0.106429 17:-0.769771 18:-0.730850 19:-1.414761 20:0.372747 21:0.000000 22:0.000000 23:0.000000 24:-0.000000 
-1048576.000000 1:0.762919 2:0.270780 3:-0.056216 4:0.057617 5:0.443612 6:1.052502 7:1.071947 8:0.338659 9:0.037072 10:-0.559293 11:-0.545853 12:-0.455103 13:-0.572225 14:-0.815906 15:-1.093181 16:-1.609013 17:-1.779199 18:-1.657507 19:0.705739 20:0.666309 21:-0.654343 22:0.466323 23:-0.627303 24:-0.780855 
-1048576.000000 1:-2.146590 2:-2.053228 3:-2.143735 4:-2.055717 5:-1.966005 6:-2.135507 7:-2.193210 8:-2.081885 9:-2.062509 10:1.311393 11:1.151135 12:0.868282 13:0.916749 14:1.194792 15:0.682898 16:0.106429 17:-0.470423 18:-1.248500 19:0.705739 20:0.446137 21:0.691825 22:0.704231 23:0.339008 24:0.045862 
-1048576.000000 1:-1.682755 2:-1.575906 3:-1.587510 4:-1.533030 5:-1.374709 6:-1.216401 7:-0.861233 8:-0.611367 9:-0.897673 10:-0.594097 11:-0.351117 12:-0.139198 13:0.084099 14:0.074247 15:-0.001736 16:-0.349896 17:0.086502 18:-0.098166 19:0.705739 20:1.253434 21:1.230292 22:2.369586 23:1.394763 24:0.309312 
-1048576.000000 1:-0.391120 2:-0.801237 3:-0.766575 4:-0.626394 5:-0.342504 6:-0.688027 7:-0.990803 8:-0.894353 9:-0.820976 10:0.154178 11:0.288731 12:0.390156 13:0.632668 14:0.535032 15:0.375309 16:0.207834 17:1.353508 18:2.093858 19:0.705739 20:1.620387 21:0.422591 22:0.201981 23:-0.259945 24:-0.340227 
-243853.489486 1:-1.418658 2:-1.382891 3:-1.295994 4:-1.084551 5:-0.930382 6:-0.803470 7:-0.415514 8:-0.085821 9:0.171292 10:0.502212 11:0.019810 12:-0.233116 13:0.015528 14:0.650228 15:0.672976 16:0.858519 17:0.671274 18:0.361967 19:-1.414761 20:-0.654721 21:-0.977423 22:-1.648414 23:1.496984 24:-0.474785 
-1048576.000000 1:-1.700510 2:-1.789788 3:-1.929287 4:-1.875035 5:-1.760931 6:-1.793617 7:-1.845963 8:-1.960605 9:-1.928289 10:-0.637601 11:-0.100742 12:0.142555 13:0.466138 14:0.671173 15:0.752354 16:0.148681 17:-0.164114 18:0.540908 19:-1.414761 20:-1.315236 21:-0.223569 22:-0.855387 23:1.161570 24:1.635794 
-1048576.000000 1:1.069183 2:1.522771 3:1.133301 4:0.489963 5:0.088151 6:-0.177412 7:-0.197837 8:0.141579 9:0.597919 10:0.450007 11:0.400009 12:0.646295 13:0.701240 14:0.566449 15:0.484454 16:0.976825 17:0.462427 18:0.719849 19:0.705739 20:0.592919 21:-0.654343 22:0.730665 23:-0.894036 24:-1.105013 
-1048576.000000 1:-0.002741 2:0.002124 3:-0.072970 4:-0.365050 5:-0.393772 6:-0.381658 7:-0.042353 8:0.712605 9:0.650649 10:-2.342971 11:-1.927554 12:-1.556500 13:-1.620385 14:-2.177315 15:-2.551750 16:-2.386455 17:-1.995007 18:-1.721415 19:0.705739 20:-1.755580 21:0.099511 22:0.000000 23:0.000000 24:-0.000000 
-1048576.000000 1:-0.786156 2:-0.618655 3:-0.223754 4:-0.100480 5:0.245374 6:0.905978 7:1.771623 8:2.238710 9:1.695646 10:-0.541892 11:-0.369663 12:-0.096508 13:0.221241 14:0.147554 15:0.147098 16:-0.510454 17:-0.540039 18:-0.986479 19:0.705739 20:0.299356 21:-0.255877 22:-0.591045 23:-0.646469 24:-0.455850 
