svm_type c_svc
kernel_type rbf
gamma 0.000031
nr_class 2
total_sv 367
rho 348.616483 
probA -1.101309
probB 0.026018
label 1 0 
nr_sv 184 183 
SV
32768.000000 1:1.015563 2:1.670432 3:1.269566 4:1.102871 5:1.121485 6:0.196709 7:0.486699 8:1.332624 9:3.256973 10:0.705739 11:-1.388627 12:-0.115876 13:0.730665 14:-0.435638 15:-0.680922 
32768.000000 1:0.075870 2:-0.360390 3:-0.574634 4:-0.679980 5:-0.637875 6:-0.497847 7:0.190933 8:0.239657 9:0.949916 10:-1.414761 11:-0.654721 12:0.961058 13:0.466323 14:2.032049 15:1.750355 
32768.000000 1:3.277788 2:3.497244 3:2.345350 4:1.690624 5:0.932982 6:0.395154 7:1.019078 8:1.360470 9:1.953262 10:-1.414761 11:0.446137 12:1.768759 13:0.000000 14:0.000000 15:-0.000000 
32768.000000 1:-0.072045 2:-0.851867 3:-0.873463 4:-0.856306 5:-1.109132 6:-0.547458 7:0.376843 8:0.608620 9:1.295016 10:0.705739 11:0.225966 12:2.037992 13:0.704231 14:1.219070 15:0.862355 
32768.000000 1:-1.351072 2:-1.092969 3:-0.873463 4:-0.836714 5:-0.868267 6:-0.825281 7:-0.848473 8:-1.152657 9:-0.781976 10:0.705739 11:0.299356 12:-0.654343 13:0.466323 14:0.043525 15:-0.142376 
32768.000000 1:0.119374 2:0.158907 3:-0.147736 4:-0.141206 5:-0.637875 6:-1.013803 7:-1.101986 8:-1.222273 9:-0.794757 10:-1.414761 11:0.372747 12:0.000000 13:0.000000 14:0.233592 15:-0.000000 
32768.000000 1:0.928555 2:0.585472 3:0.279162 4:0.005732 5:-0.334176 6:-0.755825 7:-0.890725 8:-0.505231 9:-0.788366 10:0.705739 11:0.592919 12:-0.654343 13:1.259349 14:-0.962716 15:-1.297125 
32768.000000 1:-0.576695 2:-0.601492 3:-0.608786 4:-0.836714 5:-1.318580 6:-1.430537 7:-0.611860 8:-0.268538 9:0.470610 10:0.705739 11:-1.315236 12:-0.546649 13:-0.062361 14:-0.180084 15:-0.368826 
32768.000000 1:-0.263464 2:-0.082195 3:0.142555 4:0.456343 5:0.702590 6:0.593598 7:0.300789 8:-0.846348 9:-0.257935 10:0.705739 11:0.005794 12:0.153358 13:0.995007 14:-0.403694 15:-0.731261 
32768.000000 1:-1.429380 2:-1.055877 3:-0.660014 4:-0.248961 5:-0.103784 6:-0.855048 7:-1.118887 8:-0.143229 9:0.355577 10:0.705739 11:-0.948284 12:0.153358 13:-1.912756 14:-0.576192 15:0.159848 
32768.000000 1:-0.141652 2:0.001263 3:0.134017 4:0.662056 5:0.807314 6:1.387377 7:0.985276 8:0.949737 9:0.195808 10:-1.414761 11:-0.214378 12:0.422591 13:0.000000 14:1.148793 15:-0.000000 
32768.000000 1:-1.464183 2:-1.454622 3:-1.052760 4:-1.120795 5:-1.004408 6:-1.400771 7:-1.321698 8:-0.964695 9:-0.379359 10:-1.414761 11:0.152575 12:-0.923576 13:-2.177098 14:-1.381185 15:-0.758390 
32768.000000 1:-1.577294 2:-1.222794 3:-0.890539 4:-0.650592 5:-0.512206 6:-0.398625 7:-0.358346 8:-1.194427 9:-0.398531 10:-1.414761 11:1.400215 12:0.691825 13:-1.384072 14:0.514701 15:1.210028 
32768.000000 1:-0.428780 2:-0.592219 3:-0.395337 4:-0.346920 5:-0.774016 6:-0.646681 7:-0.814671 8:-0.825463 9:0.112728 10:0.705739 11:0.592919 12:0.691825 13:0.466323 14:0.267134 15:0.070450 
32768.000000 1:-0.272165 2:-0.110015 3:0.202321 4:0.564097 5:0.681645 6:0.682898 7:0.774014 8:-0.240691 9:-1.325189 10:-1.414761 11:1.473606 12:-1.865893 13:-2.177098 14:-1.315699 15:-0.673555 
32768.000000 1:0.684931 2:0.650384 3:0.082789 4:0.221241 5:-0.093311 6:-0.110880 7:-0.594959 8:-0.630539 9:-0.641379 10:0.705739 11:0.225966 12:-0.385109 13:-0.062361 14:-0.739107 15:-0.728477 
32768.000000 1:-2.160252 2:-1.593720 3:-1.189368 4:-1.003244 5:-1.224328 6:-1.549604 7:-1.659716 8:-1.612121 9:-1.280453 10:-1.414761 11:-0.581331 12:0.961058 13:-1.648414 14:0.874073 15:1.800744 
32768.000000 1:0.467409 2:0.223819 3:0.253548 4:0.417159 5:0.440780 6:0.375309 7:0.883870 8:1.457932 9:1.480347 10:0.705739 11:-0.361159 12:0.422591 13:-0.326703 14:0.394910 15:0.534458 
32768.000000 1:0.423905 2:0.335097 3:0.125479 4:-0.111819 5:-0.239925 6:-0.825281 7:-0.594959 8:-0.936849 9:-1.024824 10:-1.414761 11:0.225966 12:-0.654343 13:-0.062361 14:0.487549 15:0.500039 
32768.000000 1:0.658828 2:0.205273 3:0.040099 4:0.133078 5:-0.145673 6:-0.339092 7:-0.197788 8:-0.379923 9:-0.897009 10:0.705739 11:-1.975752 12:0.691825 13:2.316718 14:0.730324 15:-0.193133 
32768.000000 1:-0.498387 2:-0.870414 3:-0.685628 4:-0.562429 5:-0.616930 6:-0.656603 7:-1.085085 8:-1.124811 9:-1.830057 10:0.705739 11:1.473606 12:0.153358 13:0.000000 14:-0.154529 15:-0.000000 
32768.000000 1:0.389101 2:0.539106 3:0.347466 4:0.622873 5:0.671173 6:0.702743 7:0.790915 8:-0.184999 9:-0.890618 10:0.705739 11:-0.214378 12:1.230292 13:1.788033 14:1.017822 15:0.226523 
32768.000000 1:0.876350 2:0.585472 3:0.245011 4:0.319200 5:0.535032 6:1.159166 7:1.154285 8:-0.143229 9:-0.539127 10:0.705739 11:0.886481 12:-0.115876 13:0.466323 14:-0.323833 15:-0.492019 
32768.000000 1:0.223785 2:0.103268 3:0.014485 4:-0.337124 5:-0.585513 6:-0.478003 7:-0.197788 8:-0.567885 9:-0.015087 10:0.705739 11:1.473606 12:-0.115876 13:0.000000 14:-1.069729 15:-0.000000 
32768.000000 1:-0.620199 2:-0.082195 3:0.321852 4:0.671852 5:0.461725 6:0.295931 7:-0.451301 8:-0.359038 9:-0.424094 10:0.705739 11:-1.021674 12:-0.385109 13:0.730665 14:0.163315 15:-0.126797 
32768.000000 1:0.362998 2:0.400009 3:0.082789 4:-0.151002 5:-0.145673 6:-0.894737 7:-1.423103 8:-0.219807 9:0.528127 10:-1.414761 11:0.666309 12:-1.462043 13:-1.912756 14:-1.298130 15:-0.744993 
32768.000000 1:0.858948 2:0.539106 3:0.091327 4:-0.072635 5:-0.061894 6:0.067720 7:0.833168 8:-0.853310 9:-0.302670 10:-1.414761 11:0.152575 12:-0.923576 13:-1.912756 14:-0.716746 15:-0.016316 
32768.000000 1:0.571819 2:0.103268 3:-0.275805 4:-0.337124 5:-0.397010 6:-0.884814 7:-0.299193 8:-0.748886 9:-0.666942 10:0.705739 11:-0.287768 12:0.422591 13:0.201981 14:0.043525 15:-0.042959 
32768.000000 1:1.259188 2:1.058403 3:0.279162 4:-0.102023 5:-0.334176 6:-0.745903 7:-0.806220 8:-1.452005 9:-1.612772 10:-1.414761 11:-1.755580 12:-1.731277 13:-1.384072 14:-1.210284 15:-0.816889 
32768.000000 1:-0.968234 2:-0.777682 3:-0.753931 4:-0.591817 5:-0.239925 6:-0.100958 7:-0.527355 8:-1.006464 9:-1.024824 10:0.705739 11:0.813090 12:1.230292 13:-0.326703 14:1.257403 15:1.430519 
32768.000000 1:-0.785516 2:-0.582946 3:-0.284343 4:0.142874 5:0.650228 6:0.821810 7:0.486699 8:0.351042 9:0.413093 10:0.705739 11:1.767168 12:-0.115876 13:-0.591045 14:0.107413 15:0.351287 
32768.000000 1:-0.820319 2:-0.610765 3:-0.574634 4:-0.650592 5:-0.449372 6:-0.497847 7:-0.045680 8:-0.943810 9:-0.686114 10:0.705739 11:0.372747 12:-0.385109 13:-0.062361 14:-1.318894 15:-1.313243 
23500.749630 1:-0.628900 2:-0.499487 3:-0.327033 4:-0.307736 5:-0.459845 6:-0.597070 7:-1.262545 8:-1.507697 9:-1.254890 10:0.705739 11:0.005794 12:2.037992 13:0.201981 14:0.714352 15:0.614161 
32768.000000 1:-0.454883 2:-0.388209 3:-0.617324 4:-0.719163 5:-0.826378 6:-0.815359 7:-0.442851 8:-0.017921 9:0.866836 10:0.705739 11:-0.654721 12:-0.385109 13:-0.326703 14:0.514701 15:0.658911 
32768.000000 1:-0.559293 2:-0.582946 3:-0.438027 4:-0.699572 5:-0.711182 6:-0.031502 7:-0.214689 8:-0.936849 9:-1.491348 10:0.705739 11:0.299356 12:-0.115876 13:1.259349 14:0.490743 15:-0.025120 
32768.000000 1:-0.002438 2:-0.054376 3:-0.250191 4:-0.180390 5:-0.239925 6:0.137176 7:0.689510 8:1.033276 9:0.809319 10:0.705739 11:0.152575 12:1.230292 13:0.000000 14:0.490743 15:-0.000000 
32768.000000 1:-1.420679 2:-1.436076 3:-1.334513 4:-1.453855 5:-1.611806 6:-1.787738 7:-2.014635 8:-2.036777 9:-1.727805 10:0.705739 11:1.253434 12:-0.923576 13:-0.062361 14:-0.892439 15:-0.883126 
32768.000000 1:-0.950832 2:-0.462395 3:-0.327033 4:-0.239165 5:-0.218980 6:-0.547458 7:-0.890725 8:-0.414731 9:0.432265 10:0.705739 11:-0.801502 12:0.557208 13:0.201981 14:0.267134 15:0.176081 
10381.691834 1:-0.898627 2:-0.610765 3:-0.497792 4:-0.337124 5:-0.669292 6:-0.825281 7:-0.992130 8:-1.445043 9:-1.107903 10:-1.414761 11:0.152575 12:-0.115876 13:-1.119729 14:2.375448 15:3.181165 
32768.000000 1:-0.089447 2:0.001263 3:-0.002590 4:-0.004064 5:0.147554 6:0.514221 7:0.765564 8:-0.233730 9:-0.015087 10:0.705739 11:-0.287768 12:-0.385109 13:1.391520 14:0.022761 15:-0.474785 
32768.000000 1:1.015563 2:0.529833 3:-0.079432 4:-0.405695 5:-0.753071 6:-0.835203 7:-0.814671 8:-1.020387 9:-0.730850 10:0.705739 11:1.033262 12:-0.654343 13:0.201981 14:-0.627303 15:-0.700078 
32768.000000 1:1.537615 2:1.299505 3:0.646295 4:0.074303 5:-0.156145 6:-0.150569 7:-1.017482 8:-0.874194 9:-0.008696 10:0.705739 11:0.225966 12:0.153358 13:0.466323 14:-0.180084 15:-0.355202 
32768.000000 1:0.215084 2:0.233092 3:0.040099 4:0.280017 5:0.807314 6:1.466755 7:1.796519 8:-0.226768 9:-0.034259 10:0.705739 11:0.666309 12:1.230292 13:1.259349 14:1.219070 15:0.612281 
32768.000000 1:0.302092 2:0.112541 3:-0.087970 4:-0.062839 5:-0.187563 6:-0.259714 7:-0.231590 8:1.360470 9:0.866836 10:0.705739 11:0.813090 12:-2.538977 13:0.995007 14:1.385179 15:0.878074 
32768.000000 1:0.014964 2:0.047629 3:-0.156274 4:-0.386103 5:-0.522679 6:-0.944348 7:-0.738617 8:-1.347581 9:-1.222937 10:0.705739 11:0.299356 12:0.153358 13:0.466323 14:0.043525 15:-0.142376 
32768.000000 1:-0.872524 2:-0.824048 3:-0.685628 4:-0.533042 5:-0.627403 6:-0.497847 7:-1.135788 8:-1.521620 9:-1.414659 10:-1.414761 11:0.079185 12:-0.115876 13:-1.119729 14:0.936364 15:1.542620 
32768.000000 1:0.206383 2:0.381463 3:0.321852 4:0.573893 5:0.953927 6:1.129399 7:1.788069 8:1.144661 9:1.550645 10:0.705739 11:-0.581331 12:0.422591 13:0.201981 14:0.057900 15:-0.028878 
32768.000000 1:0.606623 2:-0.416029 3:-0.762469 4:-0.885693 5:-0.627403 6:-0.587147 7:-0.738617 8:-0.184999 9:-0.507174 10:0.705739 11:-0.214378 12:0.422591 13:0.281284 14:0.198454 15:0.077216 
32768.000000 1:-1.646901 2:-1.241340 3:-0.617324 4:0.015528 5:0.220860 6:0.325698 7:-0.451301 8:-0.895079 9:-0.654161 10:0.705739 11:0.519528 12:-0.115876 13:0.201981 14:-0.627303 15:-0.700078 
32768.000000 1:-0.272165 2:-0.286205 3:-0.198964 4:-0.317532 5:-0.899685 6:-1.638904 7:-1.296347 8:-0.087537 9:0.214980 10:-1.414761 11:1.106653 12:-0.923576 13:-1.912756 14:-0.612928 15:0.113805 
32768.000000 1:0.563118 2:0.557653 3:0.347466 4:0.466138 5:0.692117 6:0.792043 7:0.469798 8:-0.310307 9:0.170245 10:0.705739 11:1.106653 12:0.153358 13:0.466323 14:-0.541053 15:-0.698765 
32768.000000 1:-0.872524 2:-0.267658 3:-0.250191 4:0.123283 5:0.608338 6:0.414998 7:0.435996 8:0.142195 9:0.598425 10:-1.414761 11:-0.140987 12:2.307226 13:-0.062361 14:1.271778 15:1.638039 
32768.000000 1:0.206383 2:-0.230566 3:-0.327033 4:-0.170594 5:0.220860 6:0.504298 7:0.326140 8:-0.233730 9:-1.139857 10:0.705739 11:-1.315236 12:0.422591 13:0.889270 14:0.474771 15:0.099447 
32768.000000 1:-1.516388 2:-1.482442 3:-1.274747 4:-1.208957 5:-0.972991 6:-0.864970 7:0.309240 8:-0.184999 9:-0.155683 10:0.705739 11:0.152575 12:0.153358 13:0.466323 14:0.163315 15:-0.028362 
32768.000000 1:-0.889926 2:-1.083696 3:-1.010070 4:-1.238345 5:-1.255746 6:-0.785592 7:-1.161139 8:-0.623578 9:-0.941744 10:0.705739 11:0.299356 12:0.691825 13:0.995007 14:0.410883 15:0.002031 
32768.000000 1:0.824144 2:0.084722 3:-0.318495 4:-0.542837 5:-0.637875 6:-0.606992 7:-0.535806 8:-0.157153 9:-0.475220 10:0.705739 11:1.106653 12:-0.115876 13:1.259349 14:-0.154529 15:-0.589834 
32768.000000 1:-0.080746 2:-0.202746 3:-0.369723 4:-0.523246 5:-0.491262 6:-0.438314 7:-0.045680 8:0.100426 9:-0.187637 10:-1.414761 11:2.207511 12:0.000000 13:0.000000 14:-1.393963 15:-0.000000 
32768.000000 1:2.007462 2:2.217548 3:1.687927 4:1.465318 5:1.111013 6:0.206631 7:0.131780 8:0.636466 9:0.080775 10:0.705739 11:-1.902361 12:-0.385109 13:0.201981 14:-0.012378 15:-0.097719 
7425.515205 1:-0.515789 2:-0.110015 3:0.168169 4:0.436751 5:0.409363 6:0.018109 7:-0.763968 8:-0.741925 9:-0.162074 10:0.705739 11:0.666309 12:0.153358 13:0.466323 14:-0.373347 15:-0.539145 
32768.000000 1:1.624624 2:1.262413 3:0.996351 4:0.740423 5:0.535032 6:0.454687 7:0.833168 8:1.082007 9:0.387530 10:0.705739 11:0.519528 12:0.422591 13:0.995007 14:0.268731 15:-0.126324 
32768.000000 1:-1.559893 2:-1.463896 3:-1.232057 4:-1.336304 5:-1.360469 6:-1.688515 7:-1.769572 8:-1.368466 9:-0.379359 10:-1.414761 11:-0.581331 12:0.691825 13:-0.855387 14:2.407393 15:3.010980 
32768.000000 1:-0.280866 2:0.149634 3:0.099865 4:0.348588 5:0.367474 6:0.057798 7:-0.054130 8:0.566851 9:0.534517 10:0.705739 11:1.840559 12:0.153358 13:0.995007 14:-0.403694 15:-0.731261 
32768.000000 1:0.101973 2:-0.508760 3:-0.549020 4:-0.552633 5:-0.166618 6:-0.001736 7:0.959924 8:0.852275 9:1.243890 10:0.705739 11:-0.948284 12:1.230292 13:1.788033 14:2.381837 15:1.357435 
32768.000000 1:-1.020439 2:-0.963145 3:-0.805159 4:-0.973856 5:-1.444248 6:-1.867116 7:-1.913230 8:-1.591236 9:-1.190983 10:-1.414761 11:0.079185 12:1.230292 13:0.730665 14:2.279616 15:1.835123 
32768.000000 1:-1.264063 2:-1.055877 3:-0.788083 4:-0.679980 5:-0.501734 6:-1.073337 7:-1.507608 8:-1.535544 9:-1.695852 10:0.705739 11:0.592919 12:0.422591 13:1.523691 14:0.442827 15:-0.160487 
19678.637716 1:3.312592 2:4.888217 3:5.120189 4:5.834282 5:5.383744 6:3.322213 7:1.221888 8:0.914929 9:0.969088 10:0.705739 11:1.033262 12:-0.385109 13:-1.119729 14:-1.681460 15:-1.438039 
32768.000000 1:-1.055243 2:0.047629 3:0.612143 4:1.053891 5:1.812662 6:1.050021 7:0.190933 8:2.307243 9:1.729586 10:0.705739 11:-0.728112 12:0.422591 13:1.523691 14:0.602548 15:-0.024459 
32768.000000 1:-0.776815 2:-0.555126 3:-0.864925 4:-1.287325 5:-1.569917 6:-1.867116 7:-1.693518 8:-0.616616 9:0.553690 10:0.705739 11:0.592919 12:1.499525 13:-0.062361 14:0.778240 15:0.801903 
32768.000000 1:-0.385276 2:-0.833321 3:-0.916153 4:-1.081611 5:-1.370942 6:-1.628982 7:-1.406203 8:-1.243158 9:-1.715024 10:-1.414761 11:0.886481 12:-0.385109 13:-1.648414 14:0.458799 15:1.296915 
32768.000000 1:-0.211259 2:-0.063649 3:-0.198964 4:-0.503654 5:-0.732126 6:-1.023726 7:-0.704815 8:-0.414731 9:-0.660551 10:-1.414761 11:0.152575 12:-0.115876 13:0.466323 14:1.177542 15:0.934471 
3715.265214 1:-0.028540 2:0.093995 3:0.176707 4:0.162466 5:0.178971 6:-0.319247 7:0.495149 8:-0.665347 9:-0.168464 10:0.705739 11:-0.140987 12:0.422591 13:0.466323 14:0.267134 15:0.070450 
32768.000000 1:-0.028540 2:0.019810 3:0.031561 4:0.074303 5:-0.355121 6:-0.011658 7:0.681059 8:-0.442577 9:-0.507174 10:0.705739 11:0.299356 12:0.153358 13:0.000000 14:-0.365361 15:-0.000000 
12390.581852 1:3.277788 2:3.441605 3:1.807458 4:1.093075 5:0.283695 6:0.067720 7:-0.687914 8:-0.672309 9:-0.922572 10:0.705739 11:-0.801502 12:1.499525 13:1.259349 14:1.832398 15:1.146389 
32768.000000 1:-0.176455 2:-0.119288 3:0.091327 4:0.123283 5:-0.166618 6:-0.626836 7:-0.755518 8:-0.630539 9:-0.289888 10:-1.414761 11:-0.361159 12:-0.385109 13:-1.119729 14:-0.739107 15:-0.365075 
32768.000000 1:1.224384 2:0.835847 3:0.680447 4:0.642464 5:0.734007 6:0.752354 7:0.469798 8:0.197887 9:0.099947 10:0.705739 11:0.739700 12:-1.192810 13:0.995007 14:-0.994661 15:-1.258882 
32768.000000 1:0.789341 2:0.641111 3:0.501149 4:0.475934 5:0.158026 6:-0.110880 7:-0.180887 8:-0.031844 9:0.278888 10:0.705739 11:-1.095065 12:0.961058 13:0.000000 14:0.762268 15:-0.000000 
32768.000000 1:1.494111 2:1.651885 3:1.209801 4:1.171442 5:1.299516 6:1.516366 7:0.723312 8:-0.428654 9:-0.085385 10:0.705739 11:-0.434549 12:0.961058 13:0.201981 14:0.378938 15:0.288120 
32768.000000 1:0.972059 2:0.798755 3:0.723137 4:0.965728 5:1.006289 6:1.059943 7:0.495149 8:0.392811 9:0.393921 10:0.705739 11:-0.654721 12:0.691825 13:0.466323 14:1.572053 15:1.312444 
32768.000000 1:-1.368474 2:-0.527307 3:0.253548 4:1.112667 5:1.425184 6:2.171234 7:3.114790 8:1.527548 9:1.882964 10:0.705739 11:-1.168455 12:0.207205 13:-0.591045 14:-1.074521 15:-0.914140 
32768.000000 1:-0.367874 2:-0.555126 3:-0.625862 4:-0.679980 5:-0.449372 6:-0.339092 7:0.596555 8:-0.310307 9:0.445047 10:0.705739 11:-0.728112 12:0.691825 13:0.466323 14:0.378938 15:0.176863 
32768.000000 1:-1.020439 2:-0.805501 3:-0.668552 4:-0.640796 5:-0.533151 6:-0.745903 7:-1.017482 8:-1.716544 9:-1.759759 10:0.705739 11:0.666309 12:0.691825 13:0.995007 14:0.043525 15:-0.328927 
32768.000000 1:-0.507088 2:-0.499487 3:-0.591710 4:-0.650592 5:-1.014881 6:-1.043570 7:-1.076635 8:-0.595732 9:-0.309061 10:0.705739 11:1.180043 12:0.153358 13:-0.062361 14:-0.259945 15:-0.245199 
32768.000000 1:-0.411379 2:0.038356 3:0.057175 4:-0.082431 5:0.116136 6:-0.339092 7:-0.502004 8:-0.581808 9:-0.762803 10:-1.414761 11:0.225966 12:-0.788959 13:-1.648414 14:-0.291889 15:0.386146 
32768.000000 1:1.868248 2:1.067676 3:0.834130 4:1.112667 5:1.247154 6:1.933100 7:1.619060 8:-0.178037 9:-0.398531 10:0.705739 11:0.079185 12:-0.385109 13:0.995007 14:-0.180084 15:-0.530094 
32768.000000 1:0.293392 2:0.084722 3:-0.216040 4:-0.239165 5:-0.428427 6:-0.745903 7:-0.527355 8:0.747852 9:0.694286 10:0.705739 11:0.152575 12:0.691825 13:0.201981 14:2.151839 15:2.022275 
32768.000000 1:0.763238 2:0.585472 3:0.834130 4:1.200830 5:1.048178 6:0.653132 7:0.334591 8:1.047199 9:0.592034 10:0.705739 11:-0.067597 12:-0.385109 13:3.374086 14:-0.894036 15:-1.670891 
32768.000000 1:-1.072644 2:-0.926053 3:-0.617324 4:-0.474266 5:0.053302 6:0.752354 7:-0.087932 8:-0.672309 9:-1.005652 10:-1.414761 11:-0.948284 12:-0.115876 13:-0.458874 14:2.861000 15:3.196816 
32768.000000 1:0.728435 2:0.539106 3:0.031561 4:-0.337124 5:-0.543624 6:-0.666525 7:-0.493554 8:-0.797617 9:-0.756413 10:0.705739 11:-1.021674 12:0.153358 13:1.259349 14:0.057900 15:-0.403926 
32768.000000 1:0.667529 2:0.223819 3:-0.028204 4:-0.493858 5:-0.501734 6:-0.587147 7:-0.375247 8:0.406735 9:-0.040649 10:-1.414761 11:1.326824 12:-0.385109 13:-0.062361 14:0.584978 15:0.606981 
32768.000000 1:-1.255362 2:-1.139335 3:-0.847849 4:-0.728959 5:-0.732126 6:-0.597070 7:-0.206238 8:-0.505231 9:-0.781976 10:0.705739 11:1.840559 12:0.153358 13:0.000000 14:-0.132168 15:-0.000000 
32768.000000 1:-0.202558 2:-0.156380 3:0.526763 4:1.161646 5:1.268098 6:1.754500 7:0.959924 8:0.824429 9:1.761540 10:0.705739 11:-1.021674 12:0.314898 13:0.000000 14:-0.339805 15:-0.000000 
32768.000000 1:0.058468 2:0.483467 3:-0.156274 4:-0.346920 5:-0.449372 6:-0.864970 7:-1.169590 8:-0.435615 9:0.445047 10:-1.414761 11:-0.874893 12:0.153358 13:-1.119729 14:2.028854 15:2.786532 
32768.000000 1:-0.837721 2:-0.341844 3:-0.164812 4:-0.023656 5:0.398891 6:0.722587 7:0.816267 8:-0.150191 9:0.298060 10:0.705739 11:-1.095065 12:0.691825 13:0.704231 14:0.663241 15:0.346675 
32768.000000 1:-0.802917 2:-0.759136 3:-0.788083 4:-0.768143 5:-0.962519 6:-1.182481 7:-1.228743 8:-0.665347 9:0.163854 10:0.705739 11:1.913949 12:0.422591 13:-0.062361 14:0.267134 15:0.286406 
32768.000000 1:-0.872524 2:-1.306252 3:-1.180830 4:-1.150182 5:-1.098660 6:-1.321393 7:-1.642815 8:-1.340620 9:-1.012042 10:0.705739 11:0.959872 12:0.153358 13:0.704231 14:-0.189668 15:-0.444627 
32768.000000 1:-0.254763 2:0.066175 3:0.065713 4:0.142874 5:0.042830 6:0.464609 7:0.841618 8:-0.261576 9:-0.705287 10:0.705739 11:-0.287768 12:-0.115876 13:0.000000 14:0.410883 15:-0.000000 
32768.000000 1:1.807342 2:1.141862 3:0.757288 4:0.593485 5:0.775896 6:0.990488 7:1.390898 8:1.276931 9:1.525082 10:0.705739 11:1.620387 12:-0.654343 13:-0.062361 14:-0.291889 15:-0.277418 
32768.000000 1:-0.698507 2:-0.323297 3:-0.301419 4:-0.151002 5:-0.218980 6:-0.249791 7:-0.442851 8:-0.087537 9:0.016867 10:-1.414761 11:0.739700 12:-1.462043 13:-1.384072 14:-0.929175 15:-0.486577 
32768.000000 1:-0.663704 2:-0.731316 3:-0.736855 4:-0.817122 5:-0.711182 6:-1.281704 7:-1.101986 8:-0.512193 9:0.400312 10:-1.414761 11:0.225966 12:-0.385109 13:-0.591045 14:0.043525 15:0.282886 
32768.000000 1:-1.055243 2:-0.833321 3:-0.651476 4:-0.542837 5:-0.459845 6:-0.239869 7:0.300789 8:0.525081 9:0.285278 10:0.705739 11:-1.462018 12:-0.115876 13:-2.177098 14:-0.365361 15:0.557586 
32768.000000 1:0.537016 2:0.316551 3:-0.002590 4:-0.111819 5:-0.145673 6:-0.220025 7:-0.417499 8:1.583240 9:1.448393 10:0.705739 11:-0.067597 12:0.961058 13:1.259349 14:0.123385 15:-0.346616 
32768.000000 1:-0.689806 2:-0.629311 3:-0.600248 4:-0.542837 5:-0.522679 6:-0.041425 7:1.137384 8:0.921891 9:0.956306 10:0.705739 11:1.913949 12:0.153358 13:0.730665 14:0.160121 15:-0.129753 
32768.000000 1:-0.742011 2:-0.768409 3:-0.711242 4:-0.484062 5:-0.239925 6:-0.249791 7:-0.079481 8:-0.999503 9:-0.762803 10:0.705739 11:-0.728112 12:-0.115876 13:-0.326703 14:0.043525 15:0.169396 
32768.000000 1:-1.229260 2:-1.046604 3:-0.924691 4:-0.807326 5:-0.470317 6:-0.587147 7:0.038825 8:0.525081 9:-0.257935 10:0.705739 11:1.473606 12:0.153358 13:0.000000 14:0.041927 15:-0.000000 
32768.000000 1:0.014964 2:0.325824 3:0.347466 4:0.123283 5:0.220860 6:-0.259714 7:-0.594959 8:-0.129306 9:0.451438 10:-1.414761 11:-0.948284 12:-0.115876 13:-1.119729 14:0.315050 15:0.835191 
32768.000000 1:-0.098147 2:0.093995 3:0.441384 4:1.191034 5:1.236681 6:0.762276 7:0.799366 8:1.478817 9:0.834882 10:0.705739 11:-1.241846 12:0.422591 13:-0.591045 14:0.554631 15:0.830098 
25048.852191 1:1.059068 2:0.835847 3:1.150035 4:1.288993 5:1.330933 6:1.357610 7:0.926123 8:0.761775 9:1.352532 10:0.705739 11:1.473606 12:-0.654343 13:-1.384072 14:-1.058549 15:-0.638595 
32768.000000 1:1.963958 2:1.308778 3:1.158573 4:1.582869 5:2.095417 6:2.240689 7:2.438754 8:2.390782 9:2.157766 10:0.705739 11:1.546996 12:0.099511 13:0.175547 14:-0.411680 15:-0.368826 
32768.000000 1:-0.820319 2:-1.083696 3:-0.924691 4:-1.062019 5:-0.899685 6:-0.567303 7:-0.687914 8:-1.716544 9:-1.695852 10:-1.414761 11:1.473606 12:-0.115876 13:-1.119729 14:-0.291889 15:0.144129 
32768.000000 1:-1.551192 2:-1.176428 3:-1.035684 4:-1.091407 5:-1.234801 6:-1.103104 7:-1.059734 8:-1.988046 9:-2.136813 10:0.705739 11:-1.168455 12:1.768759 13:1.523691 14:0.902823 15:0.231275 
32768.000000 1:-0.663704 2:-0.527307 3:-0.139198 4:0.338792 5:0.105664 6:-0.309325 7:-1.161139 8:-0.839387 9:-0.488001 10:-1.414761 11:0.886481 12:0.422591 13:-0.326703 14:1.169556 15:1.339254 
32768.000000 1:-0.019840 2:0.186726 3:0.031561 4:0.025324 5:0.388418 6:0.811888 7:-0.485103 8:-1.027349 9:-0.845883 10:0.705739 11:-1.608799 12:-0.115876 13:-0.326703 14:-0.505915 15:-0.401428 
32768.000000 1:-0.480985 2:-0.508760 3:-0.344109 4:-0.386103 5:-0.459845 6:-0.606992 7:-0.087932 8:0.218772 9:-1.031215 10:0.705739 11:-0.874893 12:1.230292 13:-0.062361 14:1.501776 15:1.531652 
32768.000000 1:0.389101 2:0.566926 3:0.646295 4:0.642464 5:0.294167 6:0.434843 7:0.250086 8:-0.359038 9:-0.845883 10:0.705739 11:-1.902361 12:0.422591 13:1.788033 14:0.826157 15:0.067613 
32768.000000 1:-0.098147 2:-0.397483 3:-0.489254 4:-0.719163 5:-0.763544 6:-0.745903 7:-1.076635 8:-0.825463 9:-0.999261 10:0.705739 11:-0.361159 12:0.153358 13:0.466323 14:0.378938 15:0.176863 
32768.000000 1:0.006263 2:-0.054376 3:0.142555 4:0.338792 5:0.807314 6:1.724733 7:1.619060 8:0.469389 9:0.828491 10:0.705739 11:-0.801502 12:0.691825 13:0.730665 14:0.506715 15:0.190901 
32768.000000 1:-0.254763 2:-0.239839 3:-0.523406 4:-0.807326 5:-0.658820 6:-1.043570 7:-0.485103 8:-0.191960 9:0.074384 10:0.705739 11:-0.874893 12:0.691825 13:0.466323 14:-3.128531 15:-3.161469 
32768.000000 1:-0.385276 2:-0.267658 3:-0.352647 4:-0.258757 5:-0.093311 6:-0.249791 7:0.343041 8:0.316234 9:0.802928 10:0.705739 11:0.666309 12:1.768759 13:0.466323 14:0.490743 15:0.283277 
32768.000000 1:0.154178 2:0.186726 3:0.262086 4:0.583689 5:0.974872 6:1.159166 7:0.224735 8:-0.832425 9:-0.341014 10:0.705739 11:-0.140987 12:-0.385109 13:-0.591045 14:-0.707163 15:-0.520832 
32768.000000 1:1.146076 2:1.039857 3:0.834130 4:0.662056 5:0.796841 6:0.702743 7:0.241636 8:-0.052729 9:0.061602 10:0.705739 11:0.225966 12:-0.115876 13:-0.062361 14:-0.435638 15:-0.422401 
32768.000000 1:-0.393977 2:-0.360390 3:-0.301419 4:-0.121615 5:0.357001 6:0.821810 7:1.357096 8:1.868664 9:2.023560 10:0.705739 11:1.546996 12:-0.385109 13:0.466323 14:-0.365361 15:-0.531544 
32768.000000 1:-0.959533 2:-0.722043 3:-0.642938 4:-0.454675 5:-0.208507 6:0.305854 7:0.993726 8:0.406735 9:-0.296279 10:0.705739 11:-0.581331 12:0.153358 13:0.000000 14:0.303870 15:-0.000000 
32768.000000 1:0.798042 2:0.808028 3:0.373080 4:0.348588 5:0.283695 6:0.921032 7:1.162735 8:1.158584 9:-0.155683 10:0.705739 11:-0.214378 12:-0.385109 13:-0.353137 14:-0.541053 15:-0.428630 
32768.000000 1:-0.350472 2:-0.174927 3:-0.198964 4:-0.219573 5:-0.606458 6:-0.656603 7:-0.409049 8:-0.929887 9:-0.149292 10:-1.414761 11:0.005794 12:-0.923576 13:-1.119729 14:0.522687 15:1.071607 
32768.000000 1:-0.124250 2:-0.360390 3:-0.446565 4:-0.337124 5:-0.061894 6:-0.497847 7:0.064176 8:-0.178037 9:0.234152 10:-1.414761 11:-0.140987 12:0.000000 13:0.000000 14:0.000000 15:-0.000000 
32768.000000 1:-1.037841 2:-0.749863 3:-0.344109 4:0.084099 5:0.336056 6:-0.229947 7:0.452897 8:1.987011 9:1.346142 10:-1.414761 11:-0.434549 12:-0.385109 13:-1.119729 14:-1.074521 15:-0.746977 
32768.000000 1:0.545717 2:0.029083 3:-0.190426 4:-0.376307 5:-0.679765 6:-0.507770 7:-0.831572 8:-0.936849 9:-0.494392 10:-1.414761 11:1.546996 12:-2.000510 13:-1.119729 14:-1.421115 15:-1.141610 
32768.000000 1:-0.124250 2:-0.805501 3:-1.027146 4:-1.326508 5:-1.548972 6:-1.371004 7:-1.211842 8:-0.957733 9:-1.063168 10:0.705739 11:-0.214378 12:0.691825 13:0.466323 14:0.602548 15:0.389690 
32768.000000 1:-0.829020 2:-1.083696 3:-1.018608 4:-0.875897 5:-1.025353 6:-1.251937 7:-1.245644 8:-0.734963 9:-0.155683 10:0.705739 11:0.519528 12:0.153358 13:0.730665 14:0.426855 15:0.117018 
32768.000000 1:1.737735 2:1.605519 3:1.346408 4:1.191034 5:1.037706 6:0.633287 7:-0.324545 8:-0.755848 9:-0.468829 10:-1.414761 11:1.326824 12:-0.923576 13:-1.119729 14:-0.224806 15:0.220509 
7374.221657 1:-1.003037 2:-0.851867 3:-0.728318 4:-0.924877 5:-1.077715 6:-1.083259 7:-1.363950 8:-1.083042 9:-1.510520 10:0.705739 11:1.987340 12:0.691825 13:0.730665 14:0.621714 15:0.297293 
32768.000000 1:-0.202558 2:-0.647858 3:-0.864925 4:-1.169774 5:-1.507083 6:-1.936571 7:-1.676617 8:-1.152657 9:-1.203765 10:-1.414761 11:1.033262 12:-1.462043 13:-0.591045 14:-0.999452 15:-0.833768 
32768.000000 1:1.485410 2:1.494242 3:0.817054 4:0.730627 5:0.817786 6:0.444765 7:0.283888 8:-0.184999 9:-0.628598 10:0.705739 11:-1.168455 12:1.768759 13:0.201981 14:1.311708 15:1.199310 
32768.000000 1:-0.124250 2:-0.388209 3:-0.753931 4:-0.866102 5:-0.522679 6:-0.021580 7:0.605005 8:-0.226768 9:-0.622207 10:0.705739 11:-0.214378 12:-0.385109 13:0.466323 14:-0.691191 15:-0.841662 
32768.000000 1:0.171579 2:0.186726 3:0.159631 4:0.358384 5:1.048178 6:0.901188 7:0.926123 8:1.590202 9:1.122466 10:-1.414761 11:0.079185 12:-0.115876 13:-0.591045 14:-0.403694 15:-0.199291 
32768.000000 1:1.189581 2:1.494242 3:0.979276 4:0.887361 5:0.723535 6:0.722587 7:0.469798 8:0.246618 9:-0.066212 10:0.705739 11:-1.095065 12:-0.923576 13:0.201981 14:-0.435638 15:-0.512330 
32768.000000 1:-0.341772 2:-0.527307 3:-0.617324 4:-0.915081 5:-0.889212 6:-0.696292 7:-0.417499 8:0.358004 9:-0.481611 10:-1.414761 11:1.400215 12:-0.115876 13:-1.119729 14:-0.850912 15:-0.492376 
32768.000000 1:-0.829020 2:-0.545853 3:-0.369723 4:-0.288145 5:-0.093311 6:0.504298 7:0.081077 8:0.622543 9:0.464219 10:0.705739 11:-0.581331 12:1.230292 13:1.417955 14:1.923439 15:1.151157 
32768.000000 1:0.180280 2:0.223819 3:0.176707 4:0.358384 5:1.215736 6:1.694966 7:1.044429 8:0.378888 9:0.636769 10:0.705739 11:0.079185 12:0.961058 13:0.704231 14:0.303870 15:0.013261 
32768.000000 1:-1.246662 2:-1.130062 3:-0.924691 4:-0.885693 5:-0.690237 6:-0.220025 7:-0.332995 8:-0.407769 9:-0.270716 10:0.705739 11:0.519528 12:-0.385109 13:0.175547 14:-0.576192 15:-0.641595 
32768.000000 1:0.885050 2:1.021311 3:0.612143 4:0.407363 5:0.210388 6:-0.368858 7:-0.282292 8:0.177003 9:0.406702 10:0.705739 11:-1.388627 12:0.961058 13:0.704231 14:0.727130 15:0.405948 
32768.000000 1:0.876350 2:0.149634 3:-0.062356 4:-0.043247 5:0.419836 6:0.861499 7:0.435996 8:-0.164114 9:-0.481611 10:0.705739 11:0.519528 12:0.422591 13:0.201981 14:0.233592 15:0.143225 
32768.000000 1:0.571819 2:0.854394 3:0.415770 4:0.613077 5:1.048178 6:1.278233 7:2.100736 8:1.527548 9:1.442003 10:0.705739 11:0.079185 12:0.422591 13:0.730665 14:0.043525 15:-0.237622 
32768.000000 1:-0.185156 2:-0.082195 3:-0.122122 4:-0.356716 5:-0.585513 6:-1.053492 7:-1.304797 8:-0.971656 9:-0.449657 10:0.705739 11:-0.287768 12:1.230292 13:0.730665 14:0.458799 15:0.146571 
32768.000000 1:0.188981 2:0.427828 3:0.390156 4:0.534710 5:0.639756 6:0.752354 7:1.281042 8:0.170041 9:0.623988 10:0.705739 11:0.519528 12:-0.115876 13:1.523691 14:0.123385 15:-0.432544 
32768.000000 1:-0.367874 2:-0.230566 3:-0.130660 4:-0.327328 5:-0.480789 6:0.018109 7:1.745817 8:2.488244 9:2.502866 10:-1.414761 11:0.079185 12:-0.654343 13:-1.119729 14:-0.004392 15:0.471474 
32768.000000 1:-1.090046 2:-0.805501 3:-0.711242 4:-0.523246 5:-0.910157 6:-0.120802 7:0.579654 8:0.984545 9:1.020214 10:-1.414761 11:-0.801502 12:-0.115876 13:-1.384072 14:1.993716 15:2.809946 
32768.000000 1:-1.133550 2:-0.749863 3:-0.412413 4:-0.317532 5:-0.344648 6:-0.775670 7:-1.440004 8:-1.396312 9:-1.542474 10:-1.414761 11:0.739700 12:1.230292 13:-1.912756 14:0.714352 15:1.777350 
32768.000000 1:-0.907328 2:-0.768409 3:-0.591710 4:-0.180390 5:0.220860 6:1.407222 7:0.174032 8:0.678236 9:-0.558300 10:-1.414761 11:-0.434549 12:-1.192810 13:-0.591045 14:-0.627303 15:-0.435330 
32768.000000 1:0.571819 2:0.335097 3:0.125479 4:0.054711 5:0.042830 6:-0.319247 7:-0.476653 8:1.520586 9:-0.027868 10:0.705739 11:1.326824 12:-0.385109 13:0.466323 14:-0.788621 15:-0.934394 
32768.000000 1:-1.107448 2:-0.777682 3:-0.463641 4:-0.454675 5:-0.501734 6:-0.914581 7:-0.975229 8:-0.331192 9:0.055212 10:0.705739 11:-0.067597 12:0.153358 13:0.598494 14:-0.224806 15:-0.442288 
32768.000000 1:1.050367 2:1.021311 3:1.004889 4:1.514298 5:1.289043 6:1.486599 7:0.596555 8:0.337119 9:0.592034 10:0.705739 11:0.959872 12:-0.115876 13:0.175547 14:-0.365361 15:-0.434472 
32768.000000 1:-0.794217 2:-0.443848 3:-0.335571 4:-0.337124 5:-0.376065 6:-0.081113 7:0.157131 8:-0.073614 9:-0.519955 10:0.705739 11:-0.948284 12:-0.385109 13:0.995007 14:-0.197654 15:-0.479023 
32768.000000 1:0.241186 2:-0.045103 3:-0.070894 4:-0.033452 5:0.241805 6:0.424920 7:0.385294 8:0.093464 9:0.617597 10:0.705739 11:-0.287768 12:0.422591 13:0.466323 14:0.123385 15:-0.066367 
32768.000000 1:1.267888 2:1.002764 3:0.577991 4:0.250629 5:-0.166618 6:-0.100958 7:0.478249 8:0.170041 9:-0.213200 10:0.705739 11:1.033262 12:-0.385109 13:0.995007 14:-0.611331 15:-0.918059 
32768.000000 1:1.189581 2:1.828075 3:0.782902 4:0.603281 5:0.503615 6:0.543987 7:1.188087 8:1.311739 9:0.866836 10:-1.414761 11:-0.287768 12:0.422591 13:-1.119729 14:-0.180084 15:0.271430 
32768.000000 1:-0.454883 2:-0.249112 3:-0.369723 4:-0.591817 5:-0.690237 6:-0.934426 7:-0.721716 8:-1.438082 9:-1.171811 10:-1.414761 11:2.207511 12:-1.192810 13:-0.591045 14:-0.850912 15:-0.674735 
32768.000000 1:-0.976935 2:-0.907506 3:-0.771007 4:-1.042427 5:-1.014881 6:-0.606992 7:-0.349896 8:0.566851 9:-0.852274 10:0.705739 11:-0.801502 12:0.153358 13:0.995007 14:0.163315 15:-0.221160 
32768.000000 1:-0.802917 2:-0.722043 3:-0.617324 4:-0.552633 5:-0.376065 6:-0.398625 7:-0.003427 8:0.079541 9:0.713458 10:0.705739 11:0.225966 12:0.153358 13:-0.591045 14:0.163315 15:0.411139 
32768.000000 1:-0.559293 2:-0.545853 3:-0.463641 4:-0.836714 5:-1.287163 6:-1.499993 7:-1.972383 8:-1.598198 9:-1.740587 10:-1.414761 11:1.546996 12:-0.923576 13:0.201981 14:-1.104868 15:-1.167885 
32768.000000 1:0.223785 2:-0.017283 3:-0.002590 4:0.407363 5:0.817786 6:0.573754 7:1.069780 8:1.423124 9:1.486738 10:0.705739 11:0.372747 12:0.422591 13:0.995007 14:-0.275917 15:-0.616309 
32768.000000 1:1.589821 2:1.234593 3:0.996351 4:1.014708 5:0.796841 6:1.059943 7:-0.366797 8:-0.950772 9:-0.769194 10:0.705739 11:1.033262 12:-0.385109 13:0.466323 14:-0.180084 15:-0.355202 
32768.000000 1:-0.533191 2:-0.935326 3:-0.771007 4:-0.513450 5:0.042830 6:0.514221 7:-0.206238 8:-0.964695 9:-1.325189 10:0.705739 11:1.326824 12:0.287975 13:-0.855387 14:-0.470776 15:-0.166051 
32768.000000 1:-0.167754 2:-0.045103 3:0.151093 4:0.662056 5:1.194792 6:1.417144 7:0.706411 8:-0.066652 9:-0.865055 10:0.705739 11:-0.140987 12:0.691825 13:0.995007 14:0.163315 15:-0.221160 
32768.000000 1:-1.020439 2:-1.009511 3:-0.847849 4:-0.660388 5:-0.281814 6:-0.110880 7:-0.096382 8:0.267503 9:1.525082 10:0.705739 11:0.079185 12:-0.115876 13:0.201981 14:-0.005989 15:-0.091460 
32768.000000 1:-1.403277 2:-1.111516 3:-0.958843 4:-1.032632 5:-1.234801 6:-1.301548 7:-1.828725 8:-1.807045 9:-1.504129 10:-1.414761 11:-0.287768 12:-0.385109 13:-1.912756 14:-0.052308 15:0.816458 
32768.000000 1:2.512112 2:2.301006 3:1.747692 4:1.416339 5:0.315112 6:-0.478003 7:-0.324545 8:-0.553962 9:-1.248500 10:-1.414761 11:0.959872 12:-0.654343 13:-0.141664 14:-0.327028 15:-0.284126 
32768.000000 1:-0.202558 2:-0.416029 3:-0.685628 4:-0.973856 5:-1.329052 6:-1.400771 7:-1.203392 8:-1.110888 9:-0.973698 10:0.705739 11:1.033262 12:-0.115876 13:-0.591045 14:-0.739107 15:-0.555032 
32768.000000 1:-0.437481 2:-0.749863 3:-0.779545 4:-1.091407 5:-1.454721 6:-1.559526 7:-1.735770 8:-1.577313 9:-1.401878 10:0.705739 11:-0.067597 12:0.691825 13:-0.326703 14:0.155329 15:0.285552 
32768.000000 1:0.432605 2:0.029083 3:-0.292881 4:-0.248961 5:-0.072366 6:-0.021580 7:-0.248490 8:0.253580 9:0.419484 10:0.705739 11:-1.975752 12:-0.385109 13:1.259349 14:-0.563414 15:-0.947673 
32768.000000 1:-0.872524 2:-0.861140 3:-0.583172 4:-0.582021 5:-0.595985 6:-0.884814 7:-1.135788 8:-0.860271 9:-0.168464 10:0.705739 11:1.987340 12:0.691825 13:-0.062361 14:-0.277514 15:-0.262919 
32768.000000 1:0.075870 2:0.279458 3:0.151093 4:-0.121615 5:-0.480789 6:-0.676448 7:-0.485103 8:-0.721040 9:-0.066212 10:0.705739 11:-0.874893 12:-0.385109 13:-0.591045 14:-0.646469 15:-0.368826 
32768.000000 1:2.642625 2:1.364417 3:0.663371 4:0.485730 5:0.409363 6:0.940877 7:0.292339 8:0.608620 9:1.109684 10:0.705739 11:-0.214378 12:-1.192810 13:-0.670348 14:-0.894036 15:-0.695032 
32768.000000 1:-1.368474 2:-0.944599 3:-0.967381 4:-1.385283 5:-1.884088 6:-2.075482 7:-1.710419 8:-1.020387 9:-0.200418 10:-1.414761 11:-0.140987 12:-0.385109 13:-1.648414 14:0.155329 15:0.928732 
32768.000000 1:-0.028540 2:-0.128561 3:0.287700 4:0.632668 5:0.681645 6:0.633287 7:-0.054130 8:-0.247653 9:-0.187637 10:0.705739 11:-0.214378 12:0.961058 13:1.523691 14:0.490743 15:-0.119679 
32768.000000 1:-0.515789 2:0.529833 3:1.397636 4:2.346948 5:2.231557 6:2.250611 7:1.610609 8:2.425590 9:2.700979 10:-1.414761 11:1.033262 12:0.153358 13:0.000000 14:0.000000 15:0.607057 
32768.000000 1:-1.342371 2:-1.102243 3:-1.069836 4:-1.228549 5:-1.590862 6:-1.877038 7:-2.006185 8:-2.203854 9:-1.925918 10:0.705739 11:0.813090 12:0.691825 13:-0.062361 14:0.490743 15:0.511936 
32768.000000 1:0.371699 2:0.502014 3:0.390156 4:0.426955 5:0.199915 6:0.663054 7:1.526105 8:1.771202 9:0.962697 10:-1.414761 11:-0.140987 12:1.230292 13:-0.591045 14:1.512956 15:1.856120 
32768.000000 1:-0.298267 2:-0.369663 3:-0.250191 4:-0.356716 5:-0.449372 6:-0.825281 7:-0.409049 8:-0.379923 9:0.234152 10:0.705739 11:-0.361159 12:-0.385109 13:-0.062361 14:-0.612928 15:-0.474785 
32768.000000 1:0.128075 2:-0.378936 3:-0.480717 4:-0.366512 5:-0.135201 6:0.325698 7:1.382447 8:0.448504 9:2.093858 10:0.705739 11:-1.168455 12:1.391832 13:0.704231 14:2.452114 15:2.006334 
32768.000000 1:0.815443 2:0.613292 3:0.245011 4:-0.033452 5:0.304639 6:0.950799 7:0.005023 8:0.030810 9:-0.206809 10:0.705739 11:0.079185 12:1.499525 13:0.201981 14:0.602548 15:0.504641 
32768.000000 1:-1.090046 2:-1.324798 3:-1.291823 4:-1.483242 5:-1.936450 6:-2.174705 7:-1.854077 8:-0.748886 9:0.106338 10:-1.414761 11:1.767168 12:-0.923576 13:-0.855387 14:-0.627303 15:-0.338831 
32768.000000 1:-1.211858 2:-0.963145 3:-0.728318 4:-0.719163 5:-0.711182 6:-0.666525 7:-1.693518 8:-1.138734 9:-0.660551 10:0.705739 11:0.886481 12:0.287975 13:0.000000 14:-0.403694 15:-0.000000 
32768.000000 1:-0.550592 2:-0.406756 3:-0.455103 4:-0.611409 5:-0.658820 6:-0.745903 7:-0.831572 8:-1.027349 9:-1.529692 10:-1.414761 11:1.473606 12:-1.462043 13:-2.705782 14:-1.186326 15:-0.292569 
-32768.000000 1:-0.872524 2:-0.434575 3:-0.105046 4:-0.004064 5:0.451253 6:0.930954 7:1.779618 8:1.471855 9:0.611206 10:0.705739 11:-0.140987 12:-0.654343 13:0.201981 14:-0.739107 15:-0.809598 
-32768.000000 1:-0.246062 2:-0.638585 3:-0.864925 4:-1.042427 5:-1.245273 6:-1.460304 7:-1.228743 8:-1.131773 9:-0.641379 10:0.705739 11:1.180043 12:1.499525 13:0.466323 14:0.586575 15:0.374488 
-32768.000000 1:-1.307568 2:-1.510261 3:-1.360127 4:-1.444059 5:-1.528027 6:-1.410693 7:-1.270995 8:-1.048234 9:-0.820320 10:-1.414761 11:0.666309 12:-0.385109 13:-2.177098 14:0.235190 15:1.335584 
-32768.000000 1:0.763238 2:0.529833 3:0.646295 4:0.632668 5:1.016761 6:0.772199 7:-0.400599 8:-1.055195 9:-0.884227 10:0.705739 11:0.446137 12:0.000000 13:0.000000 14:0.000000 15:-0.000000 
-32768.000000 1:1.650727 2:1.744617 3:2.020907 4:2.082459 5:2.304864 6:1.198855 7:0.740213 8:0.664313 9:0.413093 10:0.705739 11:0.299356 12:0.961058 13:0.995007 14:0.714352 15:0.274573 
-32768.000000 1:0.241186 2:-0.017283 3:-0.190426 4:-0.102023 5:0.346529 6:0.782121 7:0.672609 8:0.330157 9:0.099947 10:-1.414761 11:-0.287768 12:0.530285 13:-1.912756 14:1.145598 15:2.322534 
-32768.000000 1:-0.246062 2:-0.221293 3:-0.275805 4:-0.102023 5:0.116136 6:-0.239869 7:0.241636 8:0.100426 9:0.841273 10:0.705739 11:-0.948284 12:-0.385109 13:-0.062361 14:-0.627303 15:-0.615712 
-32768.000000 1:-0.715909 2:-0.786955 3:-1.001532 4:-1.316712 5:-1.559445 6:-1.341237 7:-1.068184 8:-0.783694 9:-1.389096 10:0.705739 11:-0.654721 12:-0.385109 13:0.730665 14:0.000000 15:-0.000000 
-32768.000000 1:-0.280866 2:-0.397483 3:-0.301419 4:-0.131410 5:0.535032 6:0.891265 7:1.669763 8:1.353508 9:1.218327 10:0.705739 11:0.372747 12:0.153358 13:-0.855387 14:0.299078 15:0.683743 
-32768.000000 1:2.921053 2:3.089225 3:2.072135 4:1.367360 5:0.597866 6:0.147098 7:-0.561157 8:-0.567885 9:-0.801148 10:0.705739 11:-0.214378 12:-0.385109 13:-0.855387 14:-0.365361 15:-0.049690 
-32768.000000 1:0.267289 2:0.400009 3:0.577991 4:1.093075 5:1.320460 6:1.853722 7:1.610609 8:0.887083 9:0.662332 10:0.705739 11:0.005794 12:0.422591 13:-0.326703 14:-0.451610 15:-0.345009 
-32768.000000 1:1.102572 2:0.474194 3:0.134017 4:-0.102023 5:-0.187563 6:0.166942 7:1.517654 8:1.778164 9:0.943525 10:-1.414761 11:-0.067597 12:0.691825 13:-0.326703 14:1.549692 15:1.734184 
-32768.000000 1:0.223785 2:0.325824 3:0.168169 4:0.436751 5:0.555976 6:-0.021580 7:-0.518905 8:-0.728001 9:-0.622207 10:-1.414761 11:0.079185 12:-1.462043 13:-0.855387 14:-0.563414 15:-0.262867 
-32768.000000 1:1.180880 2:0.418555 3:-0.164812 4:-0.258757 5:-0.344648 6:-0.140647 7:0.064176 8:-0.268538 9:-0.545518 10:0.705739 11:0.446137 12:0.000000 13:0.000000 14:0.000000 15:-0.000000 
-32768.000000 1:-1.786115 2:-1.649359 3:-1.385741 4:-1.395079 5:-1.360469 6:-1.470226 7:-1.380851 8:-1.034311 9:-0.539127 10:-1.414761 11:1.620387 12:-0.385109 13:-1.912756 14:-0.435638 15:0.336011 
-32768.000000 1:-0.829020 2:-0.731316 3:-0.685628 4:-0.699572 5:-0.983464 6:-1.529760 7:-1.828725 8:-1.605159 9:-0.833101 10:0.705739 11:1.180043 12:0.691825 13:0.466323 14:2.087951 15:1.803465 
-32768.000000 1:-1.481585 2:-0.295478 3:0.424308 4:0.671852 5:1.435656 6:1.446910 7:-0.299193 8:-1.584275 9:-1.146248 10:0.705739 11:0.079185 12:0.691825 13:0.000000 14:-0.291889 15:-0.000000 
-32768.000000 1:-0.846422 2:-0.304751 3:0.321852 4:1.102871 5:1.854552 6:3.401590 7:2.548610 8:1.388316 9:1.116075 10:0.705739 11:1.400215 12:1.768759 13:-0.485308 14:0.268731 15:0.478847 
-2309.235006 1:-1.063943 2:-0.953872 3:-0.711242 4:-0.631000 5:-0.554096 6:-0.448236 7:-0.502004 8:-0.839387 9:-0.539127 10:-1.414761 11:-0.067597 12:-0.923576 13:-0.591045 14:-0.611331 15:-0.418229 
-32768.000000 1:-1.194456 2:-1.491715 3:-1.462583 4:-1.659568 5:-1.884088 6:-2.085405 7:-2.183644 8:-1.486813 9:-1.107903 10:0.705739 11:1.473606 12:-0.385109 13:0.201981 14:-0.627303 15:-0.700078 
-32768.000000 1:-0.280866 2:0.056902 3:0.296238 4:1.063687 5:1.519436 6:1.357610 7:0.926123 8:0.894045 9:0.886008 10:0.705739 11:1.840559 12:1.499525 13:0.466323 14:0.233592 15:0.038526 
-32768.000000 1:0.771939 2:0.557653 3:0.219397 4:0.211445 5:0.147554 6:0.067720 7:0.393744 8:0.058656 9:0.496173 10:-1.414761 11:-0.654721 12:-0.923576 13:-1.119729 14:0.219218 15:0.726076 
-32768.000000 1:-0.011139 2:-0.063649 3:-0.403875 4:-0.719163 5:-0.847323 6:-1.172559 7:-1.059734 8:-0.707117 9:-0.053431 10:-1.414761 11:0.592919 12:0.691825 13:-0.855387 14:1.608789 15:1.697376 
-15585.600983 1:-0.811618 2:-0.647858 3:-0.361185 4:-0.043247 5:0.315112 6:-0.110880 7:0.148681 8:0.901006 9:1.461175 10:-1.414761 11:1.033262 12:-0.923576 13:-2.415006 14:-1.633544 15:-1.009750 
-32768.000000 1:-0.446182 2:-0.555126 3:-0.694166 4:-0.895489 5:-1.077715 6:-1.301548 7:-0.856923 8:-0.345115 9:0.687895 10:-1.414761 11:-0.214378 12:0.000000 13:-0.723216 14:1.485804 15:1.909294 
-32768.000000 1:-0.480985 2:-0.684950 3:-0.779545 4:-1.199162 5:-1.559445 6:-1.896882 7:-1.473806 8:-1.236196 9:-0.960916 10:0.705739 11:-0.581331 12:0.961058 13:1.259349 14:0.936364 15:0.364869 
-32768.000000 1:0.136776 2:-0.128561 3:-0.463641 4:-0.650592 5:-0.637875 6:-0.428392 7:-0.451301 8:-0.052729 9:0.623988 10:0.705739 11:-0.507940 12:0.422591 13:-0.591045 14:0.235190 15:0.488090 
-32768.000000 1:0.275990 2:0.316551 3:-0.105046 4:-0.229369 5:-0.533151 6:-0.745903 7:-0.713265 8:-1.145696 9:-0.564690 10:0.705739 11:-1.608799 12:0.691825 13:0.466323 14:1.161570 15:0.921756 
-32768.000000 1:0.998162 2:1.253139 3:0.962200 4:0.828586 5:1.163375 6:1.218699 7:2.210592 8:1.430086 9:1.442003 10:0.705739 11:0.372747 12:-0.115876 13:0.466323 14:0.139357 15:-0.051165 
-32768.000000 1:-0.698507 2:-0.749863 3:-0.745393 4:-0.699572 5:-0.449372 6:-0.408547 7:-0.485103 8:-0.282461 9:0.285278 10:0.705739 11:0.005794 12:-0.115876 13:-0.062361 14:0.155329 15:0.171566 
-32768.000000 1:-1.446782 2:-0.740589 3:-0.753931 4:-0.944469 5:-1.130077 6:-1.371004 7:-1.617464 8:-0.602693 9:-0.666942 10:0.705739 11:-2.049142 12:0.153358 13:0.000000 14:0.000000 15:-0.000000 
-32768.000000 1:0.702332 2:0.093995 3:-0.335571 4:-0.562429 5:-0.459845 6:0.196709 7:0.123330 8:0.149157 9:0.349186 10:0.705739 11:-0.581331 12:0.000000 13:0.000000 14:1.337263 15:-0.000000 
-32768.000000 1:0.545717 2:0.706023 3:0.501149 4:0.642464 5:0.891093 6:1.565977 7:0.588104 8:1.583240 9:0.700677 10:0.705739 11:1.987340 12:-0.923576 13:-0.855387 14:-0.777440 15:-0.504559 
-32768.000000 1:-0.994337 2:-0.990965 3:-0.796621 4:-0.836714 5:-0.774016 6:-0.478003 7:0.123330 8:1.430086 9:1.256671 10:0.705739 11:-2.342705 12:0.153358 13:-0.591045 14:1.273375 15:0.690765 
-32768.000000 1:0.162879 2:-0.128561 3:-0.369723 4:-0.572225 5:-0.711182 6:-0.418469 7:-0.248490 8:-0.268538 9:-0.085385 10:0.705739 11:-0.140987 12:0.153358 13:1.523691 14:-0.403694 15:-0.881438 
-32768.000000 1:-1.272764 2:-1.130062 3:-1.027146 4:-1.081611 5:-0.815906 6:-0.319247 7:0.613456 8:-0.198922 9:-1.389096 10:-1.414761 11:-1.021674 12:0.000000 13:-0.591045 14:2.134270 15:2.521324 
-32768.000000 1:-1.133550 2:-1.130062 3:-1.078374 4:-1.120795 5:-0.941574 6:-0.309325 7:0.148681 8:-0.247653 9:-0.360187 10:-1.414761 11:0.592919 12:-1.731277 13:-1.595545 14:0.474771 15:1.291553 
-32768.000000 1:-0.106848 2:-0.490214 3:-0.523406 4:-0.425287 5:-0.512206 6:-0.547458 7:-0.214689 8:-0.616616 9:0.253325 10:0.705739 11:1.106653 12:0.153358 13:0.730665 14:-0.429249 15:-0.675012 
-32768.000000 1:-1.864423 2:-1.213520 3:-0.668552 4:-0.297940 5:-0.334176 6:-0.984037 7:-1.406203 8:-1.814006 9:-1.663898 10:-1.414761 11:-2.049142 12:0.000000 13:0.000000 14:0.000000 15:-0.000000 
-32768.000000 1:2.834044 2:3.154137 3:2.131901 4:1.298788 5:0.650228 6:0.057798 7:-0.349896 8:0.023848 9:-0.053431 10:0.705739 11:-2.122533 12:0.000000 13:0.000000 14:0.000000 15:-0.000000 
-32768.000000 1:1.581120 2:2.013538 3:1.781844 4:2.229397 5:2.336281 6:1.814033 7:2.109186 8:1.019353 9:0.911571 10:0.705739 11:1.400215 12:0.000000 13:0.466323 14:-0.949939 15:-1.087933 
-32768.000000 1:-0.811618 2:-0.879687 3:-0.830773 4:-0.699572 5:-0.459845 6:-0.140647 7:-0.020328 8:0.615582 9:0.579253 10:0.705739 11:1.913949 12:0.153358 13:1.259349 14:-0.259945 15:-0.682090 
-32768.000000 1:-1.046542 2:-1.065150 3:-0.992994 4:-0.944469 5:-0.794961 6:-0.696292 7:-0.510454 8:-0.658386 9:-0.091775 10:0.705739 11:-0.361159 12:0.000000 13:0.000000 14:0.000000 15:-0.000000 
-32768.000000 1:-1.664303 2:-1.491715 3:-1.300361 4:-1.238345 5:-1.276690 6:-1.619060 7:-1.279446 8:-0.400808 9:-0.078994 10:-1.414761 11:2.134121 12:0.000000 13:-1.912756 14:-0.734316 15:-0.038336 
-32768.000000 1:0.493511 2:0.010536 3:-0.284343 4:-0.376307 5:-0.376065 6:-0.249791 7:-0.738617 8:-0.595732 9:-0.960916 10:0.705739 11:0.886481 12:-0.115876 13:-0.062361 14:-0.365361 15:-0.351520 
-32768.000000 1:-0.994337 2:-0.916779 3:-0.873463 4:-0.924877 5:-1.098660 6:-1.311470 7:-1.254094 8:-0.595732 9:-0.884227 10:0.705739 11:-1.608799 12:-0.115876 13:0.000000 14:0.000000 15:-0.000000 
-32768.000000 1:-1.690406 2:-1.547354 3:-1.308899 4:-1.287325 5:-1.088187 6:-0.974115 7:-1.169590 8:-0.581808 9:0.253325 10:0.705739 11:1.253434 12:-0.115876 13:0.730665 14:0.011581 15:-0.267176 
-32768.000000 1:0.702332 2:0.835847 3:0.270624 4:-0.013860 5:-0.082839 6:-0.418469 7:-0.916076 8:-1.333658 9:-1.542474 10:0.705739 11:-0.287768 12:-0.385109 13:0.995007 14:-0.576192 15:-0.886447 
-32768.000000 1:1.267888 2:0.585472 3:0.313314 4:0.426955 5:0.294167 6:0.474532 7:0.351492 8:1.457932 9:1.684851 10:0.705739 11:1.840559 12:1.230292 13:-0.062361 14:0.602548 15:0.624701 
-32768.000000 1:1.041666 2:0.307277 3:0.091327 4:0.162466 5:0.273222 6:0.385231 7:0.343041 8:0.587735 9:0.592034 10:0.705739 11:0.446137 12:0.422591 13:0.201981 14:-0.224806 15:-0.305807 
-32768.000000 1:0.502212 2:-0.119288 3:-0.455103 4:-0.474266 5:-0.554096 6:-0.775670 7:-0.223139 8:0.330157 9:0.866836 10:0.705739 11:0.446137 12:-0.654343 13:-1.384072 14:-0.702371 15:-0.220074 
-31351.298659 1:1.250487 2:0.696750 3:0.338928 4:0.593485 5:0.639756 6:1.258388 7:1.737366 8:0.949737 9:0.783756 10:0.705739 11:1.400215 12:-0.385109 13:0.730665 14:-0.627303 15:-0.858242 
-32768.000000 1:0.423905 2:0.084722 3:-0.173350 4:-0.121615 5:-0.114256 6:0.137176 7:0.038825 8:0.845314 9:1.966044 10:0.705739 11:0.372747 12:-0.115876 13:0.201981 14:-0.802996 15:-0.872181 
-32768.000000 1:-0.002438 2:0.131087 3:0.125479 4:0.152670 5:0.357001 6:0.762276 7:1.433150 8:1.047199 9:0.770975 10:0.705739 11:1.913949 12:1.768759 13:0.000000 14:-0.119391 15:-0.000000 
-32768.000000 1:0.345597 2:0.121814 3:0.151093 4:-0.102023 5:-0.543624 6:-1.122948 7:-1.794923 8:-1.674775 9:-1.440222 10:0.705739 11:0.225966 12:1.499525 13:1.259349 14:0.620117 15:0.088103 
-32768.000000 1:-1.237961 2:-0.258385 3:-0.557558 4:-1.013040 5:-1.569917 6:-1.509915 7:-1.896329 8:-0.748886 9:-0.666942 10:-1.414761 11:-0.287768 12:-0.654343 13:0.000000 14:-0.751885 15:-0.000000 
-29840.977330 1:0.919854 2:-0.063649 3:-0.292881 4:-0.346920 5:-0.480789 6:-0.626836 7:-0.763968 8:-1.319735 9:-1.453003 10:0.705739 11:0.152575 12:-0.385109 13:0.730665 14:-0.467582 15:-0.710476 
-32768.000000 1:-1.551192 2:-1.287706 3:-1.027146 4:-1.091407 5:-1.119605 6:-1.301548 7:-1.228743 8:-1.612121 9:-1.631944 10:-1.414761 11:-0.067597 12:-0.385109 13:-0.591045 14:-0.012378 15:0.223034 
-32768.000000 1:0.084571 2:-0.406756 3:-0.591710 4:-0.748551 5:-0.983464 6:-0.864970 7:-0.527355 8:0.260542 9:0.304451 10:0.705739 11:1.400215 12:0.422591 13:0.000000 14:-0.371749 15:-0.000000 
-32768.000000 1:0.493511 2:0.131087 3:-0.386799 4:-0.709367 5:-0.952046 6:-1.182481 7:-0.645662 8:-0.400808 9:-1.037605 10:0.705739 11:0.446137 12:-0.654343 13:0.730665 14:-0.579386 15:-0.813912 
-32768.000000 1:-1.507688 2:-1.139335 3:-1.027146 4:-1.101203 5:-1.580389 6:-1.946493 7:-2.073788 8:-1.076080 9:-0.922572 10:0.705739 11:0.152575 12:2.307226 13:0.995007 14:2.662946 15:2.027598 
-32768.000000 1:-1.116149 2:-0.712770 3:-0.549020 4:-0.327328 5:-0.061894 6:0.127253 7:-0.147085 8:-0.567885 9:0.227762 10:-1.414761 11:-0.214378 12:0.000000 13:-1.119729 14:-1.010633 15:-0.674234 
-32768.000000 1:3.434404 2:3.580702 3:2.772248 4:2.121643 5:1.163375 6:0.563832 7:0.959924 8:0.594697 9:0.553690 10:0.705739 11:-0.214378 12:-0.654343 13:1.206481 14:-0.646469 15:-1.006454 
-32768.000000 1:3.399600 2:3.793985 3:2.891780 4:2.405723 5:1.435656 6:0.762276 7:0.512050 8:0.692159 9:0.477001 10:0.705739 11:-1.168455 12:0.691825 13:0.466323 14:0.602548 15:0.389690 
-32768.000000 1:0.476110 2:0.631838 3:0.552377 4:0.436751 5:0.053302 6:-0.190258 7:-0.704815 8:-0.818502 9:-1.222937 10:-1.414761 11:2.280902 12:0.000000 13:0.000000 14:-0.451610 15:-0.000000 
-32768.000000 1:0.397802 2:0.168180 3:0.151093 4:0.515118 5:0.555976 6:0.414998 7:-0.121734 8:0.149157 9:1.058558 10:-1.414761 11:-0.507940 12:-0.331262 13:-0.062361 14:0.374147 15:0.394338 
-32768.000000 1:-2.151552 2:-1.667905 3:-1.197906 4:-1.395079 5:-1.622279 6:-1.390848 7:-1.178040 8:-0.728001 9:-0.743631 10:0.705739 11:-0.581331 12:1.230292 13:-0.326703 14:1.148793 15:1.317682 
-30242.753153 1:-0.785516 2:-0.731316 3:-0.634400 4:-0.621205 5:-0.522679 6:-0.438314 7:0.410645 8:1.416162 9:0.879617 10:-1.414761 11:-0.434549 12:-0.923576 13:-0.591045 14:0.953933 15:0.923875 
-32768.000000 1:-1.055243 2:-1.009511 3:-0.856387 4:-0.719163 5:-0.218980 6:1.030177 7:0.309240 8:-0.261576 9:-0.123729 10:0.705739 11:0.225966 12:-0.654343 13:-1.119729 14:-0.914800 15:-0.565119 
-32768.000000 1:-1.264063 2:-1.426803 3:-1.223520 4:-1.306916 5:-1.507083 6:-1.579371 7:-0.713265 8:-0.442577 9:0.534517 10:0.705739 11:-0.361159 12:0.422591 13:0.730665 14:-0.403694 15:-0.651369 
-32597.520339 1:0.615324 2:0.372190 3:0.108403 4:0.152670 5:0.681645 6:0.841654 7:1.534555 8:2.892015 9:1.601771 10:0.705739 11:1.106653 12:0.691825 13:1.259349 14:0.969905 15:0.394223 
-32768.000000 1:1.320094 2:0.928579 3:0.227935 4:-0.121615 5:-0.417955 6:-1.003881 7:-1.186491 8:-1.521620 9:-1.663898 10:-1.414761 11:0.152575 12:0.153358 13:0.000000 14:0.000000 15:0.266929 
-32768.000000 1:1.720333 2:1.865168 3:1.261028 4:1.426135 5:1.362350 6:1.099632 7:-0.071031 8:-1.507697 9:-1.357142 10:-1.414761 11:2.134121 12:0.000000 13:0.000000 14:0.000000 15:-0.000000 
-32768.000000 1:-0.985636 2:-0.703497 3:-0.668552 4:-0.562429 5:-0.355121 6:0.176865 7:0.655708 8:1.388316 9:1.116075 10:0.705739 11:2.060730 12:0.153358 13:0.995007 14:0.022761 15:-0.347607 
-32768.000000 1:-0.463584 2:-0.694224 3:-0.779545 4:-0.699572 5:-0.868267 6:-1.222170 7:-0.949878 8:-0.045767 9:0.553690 10:0.705739 11:0.299356 12:0.153358 13:1.417955 14:0.057900 15:-0.454973 
-32768.000000 1:-0.446182 2:-0.564399 3:-0.472179 4:-0.395899 5:-0.428427 6:-0.249791 7:-0.206238 8:-0.393846 9:-0.456048 10:0.705739 11:1.180043 12:0.691825 13:0.995007 14:0.267134 15:-0.127761 
-32768.000000 1:-1.159653 2:-0.935326 3:-0.805159 4:-0.768143 5:-0.763544 6:-0.864970 7:-0.780869 8:-0.038806 9:-0.737240 10:-1.414761 11:-0.434549 12:0.961058 13:-0.855387 14:1.512956 15:2.023667 
-32768.000000 1:1.111273 2:1.420056 3:0.893896 4:0.711035 5:0.503615 6:0.603521 7:0.089528 8:-0.602693 9:-0.436875 10:0.705739 11:-2.049142 12:0.000000 13:1.788033 14:-0.660844 15:-1.165267 
-32768.000000 1:1.328795 2:1.512788 3:1.619623 4:1.974704 5:1.917386 6:1.268310 7:0.630357 8:0.218772 9:-0.686114 10:0.705739 11:1.546996 12:-0.654343 13:-1.119729 14:-1.298130 15:-1.001579 
-32768.000000 1:-1.098747 2:-1.000238 3:-0.642938 4:-0.552633 5:-1.035826 6:-1.083259 7:-0.628761 8:0.768736 9:1.467566 10:0.705739 11:1.326824 12:-0.115876 13:0.995007 14:-0.371749 15:-0.702523 
-32768.000000 1:1.041666 2:0.585472 3:0.347466 4:0.328996 5:0.555976 6:0.811888 7:0.782465 8:0.002964 9:-0.078994 10:0.705739 11:-0.507940 12:0.422591 13:1.788033 14:0.043525 15:-0.581271 
-32768.000000 1:-0.768114 2:-1.018784 3:-1.027146 4:-0.934673 5:-0.711182 6:-0.815359 7:-0.932977 8:-0.971656 9:-0.385750 10:0.705739 11:1.253434 12:0.422591 13:0.201981 14:0.057900 15:-0.050948 
-32768.000000 1:0.728435 2:1.596246 3:2.106287 4:2.797558 5:2.189668 6:1.109555 7:0.250086 8:-0.665347 9:-0.270716 10:0.705739 11:-1.241846 12:0.691825 13:0.995007 14:0.514701 15:0.094960 
-32768.000000 1:-0.933430 2:-0.972418 3:-0.864925 4:-0.797530 5:-0.774016 6:-0.497847 7:-0.290743 8:-1.257081 9:-1.018433 10:-1.414761 11:0.813090 12:-2.000510 13:-2.441440 14:-1.245422 15:-0.481150 
-32768.000000 1:0.180280 2:-0.128561 3:-0.198964 4:-0.170594 5:0.357001 6:0.782121 7:0.613456 8:0.204849 9:0.681504 10:0.705739 11:-1.095065 12:0.961058 13:1.259349 14:1.241431 15:0.631850 
-32768.000000 1:0.041066 2:-0.425302 3:-0.642938 4:-0.689776 5:-0.543624 6:-0.716136 7:-0.865374 8:-1.305812 9:-1.050387 10:-1.414761 11:-0.361159 12:-0.115876 13:-1.648414 14:1.161570 15:2.149549 
-32768.000000 1:0.406503 2:-0.072922 3:-0.173350 4:-0.444879 5:-0.533151 6:-0.249791 7:0.697960 8:-0.547001 9:-0.666942 10:-1.414761 11:-0.214378 12:0.000000 13:0.000000 14:0.160121 15:-0.000000 
-32768.000000 1:0.771939 2:0.529833 3:0.424308 4:0.730627 5:0.985344 6:1.714811 7:1.086681 8:-0.226768 9:0.451438 10:0.705739 11:0.959872 12:-0.385109 13:-0.062361 14:-0.755079 15:-0.744586 
-32768.000000 1:-0.628900 2:-0.814775 3:-0.916153 4:-1.120795 5:-0.993936 6:-0.726059 7:-0.586509 8:-0.359038 9:0.067993 10:0.705739 11:0.005794 12:0.000000 13:0.000000 14:0.000000 15:-0.000000 
-32768.000000 1:-0.724610 2:-0.870414 3:-0.788083 4:-0.807326 5:-1.067243 6:-1.093181 7:-1.270995 8:-0.936849 9:-1.101513 10:-1.414761 11:-0.214378 12:-0.385109 13:-1.119729 14:0.128177 15:0.622417 
-32768.000000 1:-0.063344 2:-0.453121 3:-0.480717 4:-0.366512 5:0.021885 6:-0.051347 7:-0.290743 8:-0.073614 9:-0.072603 10:0.705739 11:0.372747 12:0.530285 13:0.175547 14:0.409285 15:0.326549 
-18624.310419 1:1.206982 2:0.724569 3:0.381618 4:0.231037 5:0.775896 6:1.000410 7:1.483853 8:0.121310 9:0.234152 10:0.705739 11:0.446137 12:-0.115876 13:0.466323 14:-0.898828 15:-1.039287 
-32768.000000 1:0.658828 2:0.316551 3:-0.156274 4:-0.307736 5:-0.218980 6:-0.378780 7:-0.096382 8:0.726967 9:0.080775 10:0.705739 11:0.299356 12:0.691825 13:0.466323 14:-0.052308 15:-0.233587 
-32768.000000 1:-0.916029 2:-1.009511 3:-1.078374 4:-1.267733 5:-1.528027 6:-1.797660 7:-1.845626 8:-1.312773 9:-0.813929 10:-1.414761 11:1.620387 12:-2.054357 13:-1.648414 14:-0.905217 15:-0.358230 
-32768.000000 1:0.310793 2:-0.100742 3:-0.446565 4:-0.631000 5:-0.669292 6:-0.855048 7:-0.561157 8:-0.003998 9:0.087165 10:-1.414761 11:-0.874893 12:0.691825 13:-1.119729 14:1.385179 15:2.053642 
-32768.000000 1:0.389101 2:-0.082195 3:-0.361185 4:-0.591817 5:-0.815906 6:-0.805437 7:-0.535806 8:-0.052729 9:0.854054 10:0.705739 11:0.666309 12:0.153358 13:1.788033 14:0.267134 15:-0.395876 
-32768.000000 1:-0.942131 2:-0.647858 3:-0.455103 4:-0.366512 5:-0.177090 6:0.246320 7:1.669763 8:1.764241 9:1.154419 10:-1.414761 11:0.152575 12:-0.654343 13:-1.066861 14:1.359624 15:1.989882 
-32768.000000 1:-0.976935 2:-0.675677 3:-0.386799 4:-0.190186 5:0.032357 6:0.246320 7:0.385294 8:0.970622 9:2.458131 10:0.705739 11:-1.388627 12:0.000000 13:0.000000 14:0.000000 15:-0.000000 
-32768.000000 1:0.928555 2:0.937852 3:1.141497 4:1.455523 5:1.372822 6:0.811888 7:-0.020328 8:0.239657 9:0.349186 10:-1.414761 11:-1.902361 12:-1.192810 13:0.069810 14:0.727130 15:0.687838 
-32768.000000 1:0.502212 2:0.149634 3:0.005947 4:-0.033452 5:0.461725 6:0.762276 7:0.943024 8:-0.421692 9:-0.379359 10:-1.414761 11:0.372747 12:0.000000 13:-1.331203 14:0.691991 15:1.390095 
-32768.000000 1:-0.507088 2:-0.091468 3:0.458460 4:1.220421 5:1.529908 6:1.307999 7:0.605005 8:-0.247653 9:0.636769 10:0.705739 11:0.372747 12:-0.923576 13:0.175547 14:-1.140006 15:-1.195493 
-32768.000000 1:-0.768114 2:-0.471668 3:-0.173350 4:0.191854 5:0.482670 6:0.881343 7:1.500753 8:3.260979 9:2.962999 10:0.705739 11:-0.581331 12:1.230292 13:-0.062361 14:1.720593 15:1.752349 
-25710.000280 1:-2.438680 2:-2.122290 3:-1.795563 4:-1.963240 5:-2.229677 6:-2.531905 7:-2.276599 8:-1.445043 9:-0.916181 10:-1.414761 11:0.005794 12:-1.462043 13:-0.062361 14:1.161570 15:1.188525 
-32768.000000 1:-2.099346 2:-1.519535 3:-1.103988 4:-1.169774 5:-1.318580 6:-1.390848 7:-0.831572 8:-0.150191 9:0.905180 10:-1.414761 11:1.033262 12:0.000000 13:-1.648414 14:0.043525 15:0.793085 
-32768.000000 1:1.180880 2:0.548379 3:0.270624 4:0.054711 5:0.451253 6:1.397299 7:1.796519 8:1.520586 9:0.534517 10:0.705739 11:1.473606 12:1.230292 13:0.730665 14:1.043377 15:0.687398 
-32768.000000 1:2.433804 2:1.902260 3:1.295180 4:1.259605 5:0.995816 6:0.315776 7:0.114879 8:0.622543 9:0.732630 10:0.705739 11:0.005794 12:0.153358 13:0.201981 14:-0.146543 15:-0.229143 
-32768.000000 1:-0.916029 2:-0.286205 3:0.373080 4:1.161646 5:1.456601 6:0.653132 7:0.317690 8:-0.143229 9:0.016867 10:-1.414761 11:0.152575 12:-0.923576 13:-0.326703 14:-0.140154 15:-0.021431 
-32768.000000 1:0.798042 2:0.437102 3:0.176707 4:0.123283 5:0.241805 6:0.256242 7:0.782465 8:0.726967 9:1.838229 10:0.705739 11:1.326824 12:0.427976 13:0.201981 14:-0.355777 15:-0.434101 
-32768.000000 1:-0.507088 2:-0.703497 3:-0.668552 4:-0.435083 5:0.325584 6:0.633287 7:0.579654 8:0.392811 9:0.534517 10:0.705739 11:-0.361159 12:0.422591 13:-0.326703 14:0.315050 15:0.451490 
-32768.000000 1:-0.550592 2:-0.610765 3:-0.668552 4:-0.631000 5:-0.292286 6:0.107409 7:0.292339 8:-0.059691 9:-0.219590 10:0.705739 11:1.033262 12:0.422591 13:-0.062361 14:0.011581 15:0.028658 
-32768.000000 1:-0.959533 2:-0.926053 3:-0.856387 4:-0.866102 5:-0.774016 6:-0.487925 7:0.300789 8:0.156118 9:-0.488001 10:0.705739 11:1.033262 12:0.961058 13:1.259349 14:0.714352 15:0.170573 
-32768.000000 1:-0.454883 2:0.019810 3:0.202321 4:0.348588 5:0.168498 6:-0.259714 7:0.233185 8:0.093464 9:-0.398531 10:-1.414761 11:0.005794 12:-0.654343 13:-1.648414 14:-0.579386 15:0.037342 
-32768.000000 1:0.067169 2:-0.480941 3:-0.438027 4:-0.533042 5:-0.993936 6:-0.795514 7:-0.223139 8:-1.041272 9:-0.871446 10:0.705739 11:0.079185 12:-0.546649 13:-2.018493 14:-0.929175 15:-0.239318 
-32768.000000 1:0.328195 2:-0.147107 3:-0.258729 4:-0.121615 5:-0.313231 6:-0.686370 7:-0.696364 8:-1.103926 9:-1.497739 10:-1.414761 11:0.592919 12:0.000000 13:-1.384072 14:-0.180084 15:0.393631 
-32768.000000 1:-1.298867 2:-0.935326 3:-0.941767 4:-0.993448 5:-1.308107 6:-0.993959 7:-1.372401 8:-0.491308 9:-0.213200 10:0.705739 11:-0.140987 12:-0.385109 13:-0.035927 14:1.394763 15:1.409131 
-32768.000000 1:0.162879 2:-0.341844 3:-0.719780 4:-1.062019 5:-1.339525 6:-1.341237 7:-0.958329 8:-0.929887 9:-1.280453 10:0.705739 11:0.005794 12:-0.654343 13:-0.326703 14:-0.994661 15:-0.909196 
-32768.000000 1:-0.341772 2:-0.564399 3:-0.591710 4:-0.836714 5:-1.140549 6:-1.132870 7:-0.628761 8:0.281426 9:0.962697 10:-1.414761 11:-0.214378 12:-0.923576 13:-1.119729 14:-0.323833 15:0.107757 
-32768.000000 1:-0.480985 2:-0.230566 3:-0.011128 4:0.280017 5:0.671173 6:0.970643 7:1.120483 8:0.204849 9:0.234152 10:-1.414761 11:-0.214378 12:-0.385109 13:-0.062361 14:0.479562 15:0.500660 
-32768.000000 1:-1.237961 2:-1.232067 3:-1.001532 4:-0.895489 5:-0.899685 6:-1.311470 7:-1.651266 8:-0.748886 9:-1.235718 10:0.705739 11:1.767168 12:0.961058 13:-1.278335 14:0.233592 15:0.824027 
-32768.000000 1:0.589221 2:1.837348 3:1.124421 4:1.318380 5:1.341405 6:0.891265 7:1.568357 8:1.896511 9:0.815710 10:-1.414761 11:-0.434549 12:0.000000 13:-0.591045 14:0.490743 15:0.761696 
-32768.000000 1:-1.368474 2:-1.046604 3:-0.685628 4:-0.356716 5:0.074247 6:0.712665 7:1.281042 8:0.545966 9:1.742368 10:0.705739 11:-0.287768 12:0.153358 13:-0.564611 14:0.169704 15:0.405989 
-32768.000000 1:0.693631 2:0.344370 3:-0.122122 4:-0.082431 5:-0.072366 6:0.127253 7:-0.256941 8:-0.714078 9:-1.056777 10:0.705739 11:-0.948284 12:0.000000 13:0.000000 14:0.027553 15:-0.000000 
-32768.000000 1:1.685530 2:2.569928 3:1.747692 4:1.680828 5:1.372822 6:1.307999 7:-0.256941 8:-0.533077 9:-0.986479 10:-1.414761 11:-0.801502 12:-2.538977 13:-0.881822 14:-1.844375 15:-1.676529 
-32768.000000 1:-0.916029 2:-0.768409 3:-0.719780 4:-0.719163 5:-0.585513 6:-0.448236 7:-0.358346 8:-0.010960 9:0.067993 10:0.705739 11:-1.388627 12:0.691825 13:0.995007 14:-0.212029 15:-0.558832 
-32768.000000 1:-1.612098 2:-1.306252 3:-1.189368 4:-1.375487 5:-1.548972 6:-1.311470 7:-0.890725 8:-1.584275 9:-1.497739 10:-1.414761 11:-1.388627 12:0.000000 13:0.201981 14:0.757477 15:0.656404 
-32768.000000 1:2.677429 2:3.033586 3:2.866166 4:3.277557 5:3.467298 6:3.034468 7:1.821871 8:1.722472 9:1.256671 10:0.705739 11:1.620387 12:-0.654343 13:-0.062361 14:-1.186326 15:-1.179536 
-32768.000000 1:0.014964 2:0.752389 3:1.397636 4:1.857154 5:1.770773 6:1.427066 7:0.385294 8:-0.484346 9:-0.379359 10:-1.414761 11:0.592919 12:0.153358 13:-1.384072 14:0.794212 15:1.538464 
-32768.000000 1:1.424504 2:1.308778 3:0.731675 4:0.328996 5:-0.281814 6:-0.755825 7:-0.383698 8:-0.832425 9:-0.673333 10:-1.414761 11:0.592919 12:0.000000 13:-0.855387 14:-0.723135 15:-0.444615 
-32768.000000 1:0.432605 2:-0.045103 3:0.005947 4:0.299608 5:0.273222 6:-0.061269 7:-0.375247 8:-1.159619 9:-1.222937 10:0.705739 11:-0.287768 12:0.422591 13:0.995007 14:-0.116196 15:-0.472618 
-32768.000000 1:-1.107448 2:-0.759136 3:-0.762469 4:-0.777939 5:-1.098660 6:-1.499993 7:-1.304797 8:-1.319735 9:-1.267672 10:0.705739 11:1.033262 12:1.768759 13:0.201981 14:0.602548 15:0.504641 
-32768.000000 1:-1.081345 2:-0.740589 3:-0.386799 4:0.044915 5:-0.260869 6:-0.577225 7:-0.594959 8:-0.519154 9:-0.315451 10:0.705739 11:-0.067597 12:2.576459 13:0.492757 14:4.212238 15:3.804294 
-32768.000000 1:-1.359773 2:-1.130062 3:-0.779545 4:-0.493858 5:-0.522679 6:-1.212248 7:-1.820275 8:-1.751352 9:-1.542474 10:0.705739 11:0.886481 12:0.422591 13:0.466323 14:-0.280709 15:-0.450974 
-32768.000000 1:0.632725 2:0.177453 3:-0.045280 4:0.172262 5:0.472197 6:0.444765 7:0.140230 8:-0.456500 9:0.291669 10:0.705739 11:1.180043 12:-0.385109 13:0.730665 14:-0.739107 15:-0.961679 
-32768.000000 1:0.693631 2:0.511287 3:0.176707 4:0.250629 5:0.398891 6:0.196709 7:0.123330 8:0.963660 9:0.713458 10:0.705739 11:1.987340 12:1.230292 13:0.995007 14:-0.371749 15:-0.702523 
-32768.000000 1:-0.420079 2:-0.536580 3:-0.472179 4:-0.366512 5:-0.292286 6:-0.815359 7:-1.279446 8:-1.528582 9:-1.459394 10:-1.414761 11:1.106653 12:-1.462043 13:-1.119729 14:-0.882856 15:-0.528747 
-32768.000000 1:0.336896 2:0.260912 3:-0.036742 4:-0.288145 5:-0.030477 6:0.067720 7:0.013474 8:-0.038806 9:-0.341014 10:0.705739 11:0.299356 12:-0.115876 13:1.259349 14:-0.355777 15:-0.765958 
-32768.000000 1:0.754537 2:0.733843 3:-0.087970 4:-0.484062 5:-0.637875 6:-0.537536 7:-1.009031 8:-0.832425 9:-1.107903 10:0.705739 11:0.299356 12:-0.115876 13:-0.326703 14:-0.882856 15:-0.898621 
-32768.000000 1:2.425104 2:2.152636 3:1.457402 4:1.240013 5:1.121485 6:1.218699 7:1.002177 8:0.163080 9:0.745412 10:0.705739 11:-1.021674 12:0.422591 13:-0.326703 14:0.339008 15:0.476380 
-32768.000000 1:-0.428780 2:-0.416029 3:-0.403875 4:-0.297940 5:-0.145673 6:-0.011658 7:0.097978 8:0.434581 9:0.540908 10:0.705739 11:0.079185 12:-0.115876 13:0.730665 14:-0.068280 15:-0.341059 
-32768.000000 1:-0.994337 2:-0.805501 3:-0.711242 4:-0.709367 5:-0.983464 6:-0.686370 7:-0.730166 8:-0.359038 9:0.713458 10:-1.414761 11:0.446137 12:0.000000 13:-0.855387 14:-1.403546 15:-1.216498 
-32768.000000 1:-0.663704 2:-0.462395 3:-0.096508 4:0.368180 5:0.964399 6:1.625511 7:1.230339 8:0.594697 9:0.413093 10:0.705739 11:0.886481 12:-0.923576 13:0.730665 14:-0.716746 15:-0.940992 
-32768.000000 1:-0.820319 2:-0.480941 3:-0.292881 4:-0.787735 5:-1.538500 6:-2.125094 7:-2.242797 8:-1.918430 9:-1.593600 10:0.705739 11:1.180043 12:0.153358 13:0.995007 14:0.339008 15:-0.063100 
-32768.000000 1:-1.298867 2:-1.148608 3:-0.779545 4:-0.826918 5:-0.889212 6:-0.755825 7:-0.502004 8:-0.560924 9:0.048821 10:-1.414761 11:-0.434549 12:2.845693 13:-0.881822 14:0.584978 15:1.008642 
-32768.000000 1:0.641426 2:0.103268 3:-0.241653 4:-0.337124 5:-0.271342 6:0.226476 7:0.647258 8:0.483312 9:0.112728 10:0.705739 11:-0.214378 12:1.230292 13:2.052376 14:0.936364 15:0.062086 
-32768.000000 1:-0.968234 2:-0.740589 3:-0.438027 4:-0.151002 5:0.503615 6:0.861499 7:0.520501 8:-0.540039 9:0.304451 10:0.705739 11:-0.214378 12:0.153358 13:0.995007 14:-0.180084 15:-0.530094 
-32768.000000 1:-0.950832 2:-1.343345 3:-1.274747 4:-1.453855 5:-1.946923 6:-2.402916 7:-2.513212 8:-2.426625 9:-2.219893 10:0.705739 11:-0.507940 12:-0.923576 13:-0.353137 14:-0.857301 15:-0.758169 
-32768.000000 1:2.451206 2:2.783210 3:2.225819 4:1.984500 5:1.686994 6:1.109555 7:0.140230 8:-0.226768 9:-0.468829 10:0.705739 11:-0.434549 12:-0.385109 13:0.730665 14:-0.541053 15:-0.778448 
-32768.000000 1:0.284691 2:-0.518034 3:-0.625862 4:-0.699572 5:-0.616930 6:0.206631 7:0.351492 8:-1.277966 9:-1.050387 10:0.705739 11:-0.654721 12:0.691825 13:0.387020 14:0.057900 15:-0.099200 
-32768.000000 1:-0.611498 2:-0.425302 3:-0.600248 4:-0.670184 5:-0.899685 6:-0.785592 7:-0.569608 8:-0.261576 9:0.355577 10:-1.414761 11:0.519528 12:-0.923576 13:-1.119729 14:0.011581 15:0.489660 
-32768.000000 1:-1.342371 2:-1.482442 3:-1.351589 4:-1.483242 5:-1.569917 6:-1.638904 7:-1.287896 8:-0.888118 9:-0.673333 10:0.705739 11:0.886481 12:-0.115876 13:1.523691 14:-0.189029 15:-0.698616 
-32768.000000 1:-0.559293 2:-0.675677 3:-0.728318 4:-0.817122 5:-0.952046 6:-1.103104 7:-0.552707 8:0.358004 9:0.464219 10:0.705739 11:-0.434549 12:0.422591 13:0.466323 14:-0.467582 15:-0.628836 
-32768.000000 1:0.841546 2:0.066175 3:-0.190426 4:-0.141206 5:-0.281814 6:-0.329169 7:-0.645662 8:-1.124811 9:-0.769194 10:0.705739 11:-0.654721 12:3.922627 13:-0.591045 14:2.966415 15:3.412253 
-32768.000000 1:-0.628900 2:-0.527307 3:-0.292881 4:-0.004064 5:0.273222 6:1.069866 7:1.999330 8:0.552928 9:0.496173 10:0.705739 11:-0.948284 12:0.422591 13:1.523691 14:0.139357 15:-0.418941 
-32768.000000 1:-0.376575 2:-0.369663 3:-0.463641 4:-0.582021 5:-0.543624 6:-0.398625 7:0.165582 8:0.587735 9:0.873227 10:0.705739 11:-0.287768 12:-0.115876 13:0.466323 14:-0.189668 15:-0.364323 
-32768.000000 1:3.521413 2:4.174184 3:2.900318 4:2.464498 5:2.472422 6:2.012478 7:1.957078 8:2.063588 9:0.636769 10:0.705739 11:-0.948284 12:0.153358 13:0.704231 14:-0.189668 15:-0.444627 
-32768.000000 1:0.154178 2:0.029083 3:-0.096508 4:-0.199982 5:-0.292286 6:-0.071191 7:0.250086 8:0.796583 9:-0.123729 10:0.705739 11:-0.654721 12:0.000000 13:0.995007 14:-0.723135 15:-1.018642 
-32768.000000 1:2.320693 2:2.597747 3:2.635641 4:2.797558 5:1.906914 6:0.395154 7:-1.093536 8:-1.793122 9:-1.862011 10:-1.414761 11:-2.195923 12:0.000000 13:0.000000 14:0.000000 15:-0.000000 
-32768.000000 1:-0.898627 2:-0.369663 3:0.245011 4:0.750219 5:1.163375 6:1.407222 7:0.976825 8:0.156118 9:0.298060 10:0.705739 11:-0.801502 12:-0.115876 13:0.466323 14:0.022761 15:-0.162138 
-32768.000000 1:-1.498987 2:-1.065150 3:-0.753931 4:-0.591817 5:-0.093311 6:0.434843 7:1.213438 8:1.068084 9:0.822101 10:0.705739 11:0.666309 12:-0.923576 13:0.466323 14:-1.245422 15:-1.369168 
-32768.000000 1:-1.081345 2:-0.759136 3:-0.728318 4:-0.405695 5:-0.763544 6:-1.083259 7:-0.865374 8:0.072579 9:-0.085385 10:-1.414761 11:0.813090 12:0.153358 13:-1.119729 14:-0.403694 15:0.160970 
-32768.000000 1:-0.098147 2:-0.267658 3:-0.446565 4:-0.425287 5:-0.606458 6:-0.547458 7:-0.392148 8:1.290854 9:0.023258 10:-1.414761 11:-0.361159 12:0.153358 13:-1.384072 14:1.747746 15:2.658899 
-32768.000000 1:-0.976935 2:-0.907506 3:-0.685628 4:-0.738755 5:-0.732126 6:-0.507770 7:-0.704815 8:0.002964 9:0.592034 10:0.705739 11:-1.682189 12:-0.115876 13:0.995007 14:-0.180084 15:-0.530094 
-32768.000000 1:-0.681105 2:-0.406756 3:-0.164812 4:-0.151002 5:-0.103784 6:-0.448236 7:-1.127338 8:-0.957733 9:-1.369924 10:0.705739 11:0.592919 12:1.230292 13:2.052376 14:1.391568 15:0.429632 
-32768.000000 1:1.407102 2:0.780208 3:0.321852 4:0.084099 5:0.199915 6:0.186787 7:0.858519 8:0.504197 9:-0.379359 10:0.705739 11:1.620387 12:0.153358 13:-0.326703 14:-0.723135 15:-0.627102 
-32768.000000 1:-0.994337 2:-0.953872 3:-0.745393 4:-0.484062 5:-0.417955 6:-0.597070 7:-0.865374 8:-1.417197 9:-1.178202 10:0.705739 11:0.152575 12:-0.115876 13:-0.326703 14:-0.595359 15:-0.494353 
-32768.000000 1:-0.072045 2:-0.592219 3:-0.514868 4:-0.454675 5:-0.365593 6:-0.676448 7:-0.924527 8:-0.456500 9:0.310841 10:0.705739 11:1.106653 12:-0.923576 13:1.259349 14:-0.196057 15:-0.626177 
-32768.000000 1:-0.193857 2:-0.332570 3:-0.531944 4:-0.621205 5:-0.669292 6:-0.934426 7:-0.662563 8:0.218772 9:-0.449657 10:0.705739 11:0.739700 12:0.422591 13:0.466323 14:0.650464 15:0.435295 
-32768.000000 1:-1.116149 2:-0.786955 3:-0.429489 4:0.191854 5:0.419836 6:0.682898 7:0.106429 8:-0.769771 9:-0.730850 10:-1.414761 11:0.372747 12:0.000000 13:0.000000 14:0.000000 15:-0.000000 
-32768.000000 1:-0.559293 2:-0.545853 3:-0.455103 4:-0.572225 5:-0.815906 6:-1.093181 7:-1.609013 8:-1.779199 9:-1.657507 10:0.705739 11:0.666309 12:-0.654343 13:0.466323 14:-0.627303 15:-0.780855 
-32768.000000 1:1.311393 2:1.151135 3:0.868282 4:0.916749 5:1.194792 6:0.682898 7:0.106429 8:-0.470423 9:-1.248500 10:0.705739 11:0.446137 12:0.691825 13:0.704231 14:0.339008 15:0.045862 
-32768.000000 1:-0.594097 2:-0.351117 3:-0.139198 4:0.084099 5:0.074247 6:-0.001736 7:-0.349896 8:0.086502 9:-0.098166 10:0.705739 11:1.253434 12:1.230292 13:2.369586 14:1.394763 15:0.309312 
-32768.000000 1:1.868248 2:1.169681 3:0.509687 4:0.328996 5:0.304639 6:0.127253 7:0.081077 8:-0.818502 9:-0.539127 10:0.705739 11:-0.874893 12:0.153358 13:0.598494 14:0.444424 15:0.185668 
-32768.000000 1:0.154178 2:0.288731 3:0.390156 4:0.632668 5:0.535032 6:0.375309 7:0.207834 8:1.353508 9:2.093858 10:0.705739 11:1.620387 12:0.422591 13:0.201981 14:-0.259945 15:-0.340227 
-32768.000000 1:-1.124849 2:-0.935326 3:-0.771007 4:-0.513450 5:-0.072366 6:-0.150569 7:-0.763968 8:-0.748886 9:-0.213200 10:0.705739 11:-0.948284 12:2.037992 13:0.175547 14:-0.277514 15:-0.348170 
-32768.000000 1:0.197682 2:-0.082195 3:0.185245 4:0.515118 5:0.953927 6:1.040099 7:1.365546 8:-0.484346 9:-0.270716 10:0.705739 11:-0.654721 12:-0.115876 13:1.523691 14:-0.419666 15:-0.895041 
-16018.242814 1:-0.350472 2:-0.388209 3:-0.335571 4:0.044915 5:0.597866 6:1.923178 7:1.145834 8:-0.936849 9:-0.980089 10:0.705739 11:0.299356 12:-0.115876 13:0.466323 14:-0.739107 15:-0.887268 
-5539.576317 1:0.502212 2:0.019810 3:-0.233116 4:0.015528 5:0.650228 6:0.672976 7:0.858519 8:0.671274 9:0.361967 10:-1.414761 11:-0.654721 12:-0.977423 13:-1.648414 14:1.496984 15:-0.474785 
-32768.000000 1:-0.637601 2:-0.100742 3:0.142555 4:0.466138 5:0.671173 6:0.752354 7:0.148681 8:-0.164114 9:0.540908 10:-1.414761 11:-1.315236 12:-0.223569 13:-0.855387 14:1.161570 15:1.635794 
-32768.000000 1:0.450007 2:0.400009 3:0.646295 4:0.701240 5:0.566449 6:0.484454 7:0.976825 8:0.462427 9:0.719849 10:0.705739 11:0.592919 12:-0.654343 13:0.730665 14:-0.894036 15:-1.105013 
-32768.000000 1:-0.089447 2:-0.063649 3:-0.122122 4:-0.102023 5:-0.323704 6:-0.160491 7:-0.240040 8:-0.303346 9:-0.462438 10:-1.414761 11:-0.948284 12:-0.923576 13:-0.855387 14:0.000000 15:0.690765 
-32768.000000 1:-0.837721 2:-0.703497 3:-0.634400 4:-0.719163 5:-0.575041 6:-0.249791 7:0.638807 8:0.246618 9:1.435612 10:0.705739 11:-1.021674 12:0.153358 13:1.946639 14:-0.189668 15:-0.818453 
-32768.000000 1:-2.342971 2:-1.927554 3:-1.556500 4:-1.620385 5:-2.177315 6:-2.551750 7:-2.386455 8:-1.995007 9:-1.721415 10:0.705739 11:-1.755580 12:0.099511 13:0.000000 14:0.000000 15:-0.000000 
-32768.000000 1:-0.541892 2:-0.369663 3:-0.096508 4:0.221241 5:0.147554 6:0.147098 7:-0.510454 8:-0.540039 9:-0.986479 10:0.705739 11:0.299356 12:-0.255877 13:-0.591045 14:-0.646469 15:-0.455850 
