svm_type c_svc
kernel_type rbf
gamma 0.000001
nr_class 2
total_sv 143
rho 50.873261 
probA -1.327337
probB 0.246029
label 1 0 
nr_sv 70 73 
SV
1048576.000000 1:-0.072045 2:-0.851867 3:-0.873463 4:-0.856306 5:-1.109132 6:-0.547458 7:0.376843 8:0.608620 9:1.295016 10:0.705739 11:0.225966 12:2.037992 13:0.704231 14:1.219070 15:0.862355 16:-0.164687 
1048576.000000 1:-1.351072 2:-1.092969 3:-0.873463 4:-0.836714 5:-0.868267 6:-0.825281 7:-0.848473 8:-1.152657 9:-0.781976 10:0.705739 11:0.299356 12:-0.654343 13:0.466323 14:0.043525 15:-0.142376 16:-0.160845 
1048576.000000 1:0.119374 2:0.158907 3:-0.147736 4:-0.141206 5:-0.637875 6:-1.013803 7:-1.101986 8:-1.222273 9:-0.794757 10:-1.414761 11:0.372747 12:0.000000 13:0.000000 14:0.233592 15:-0.000000 16:-0.467160 
1048576.000000 1:0.928555 2:0.585472 3:0.279162 4:0.005732 5:-0.334176 6:-0.755825 7:-0.890725 8:-0.505231 9:-0.788366 10:0.705739 11:0.592919 12:-0.654343 13:1.259349 14:-0.962716 15:-1.297125 16:-0.364822 
1048576.000000 1:0.006263 2:0.483467 3:1.064655 4:1.445727 5:1.550853 6:1.526288 7:0.131780 8:0.232695 9:0.067993 10:0.705739 11:-0.728112 12:0.691825 13:0.466323 14:0.155329 15:-0.035963 16:-0.269470 
1048576.000000 1:0.423905 2:0.335097 3:0.125479 4:-0.111819 5:-0.239925 6:-0.825281 7:-0.594959 8:-0.936849 9:-1.024824 10:-1.414761 11:0.225966 12:-0.654343 13:-0.062361 14:0.487549 15:0.500039 16:-0.256547 
1048576.000000 1:-0.098147 2:0.622565 3:1.397636 4:2.670212 5:2.933207 6:1.030177 7:0.334591 8:-0.679270 9:-1.012042 10:-1.414761 11:-0.140987 12:-0.385109 13:-0.855387 14:1.209487 15:1.688686 16:-0.090641 
1048576.000000 1:0.658828 2:0.205273 3:0.040099 4:0.133078 5:-0.145673 6:-0.339092 7:-0.197788 8:-0.379923 9:-0.897009 10:0.705739 11:-1.975752 12:0.691825 13:2.316718 14:0.730324 15:-0.193133 16:-0.422452 
1048576.000000 1:1.259188 2:1.058403 3:0.279162 4:-0.102023 5:-0.334176 6:-0.745903 7:-0.806220 8:-1.452005 9:-1.612772 10:-1.414761 11:-1.755580 12:-1.731277 13:-1.384072 14:-1.210284 15:-0.816889 16:-0.474494 
1048576.000000 1:-0.420079 2:0.539106 3:1.406174 4:1.377155 5:0.796841 6:0.414998 7:-0.113283 8:0.956699 9:2.208892 10:0.705739 11:-0.434549 12:4.730327 13:0.201981 14:1.608789 15:1.347711 16:-0.767536 
1048576.000000 1:-0.785516 2:-0.582946 3:-0.284343 4:0.142874 5:0.650228 6:0.821810 7:0.486699 8:0.351042 9:0.413093 10:0.705739 11:1.767168 12:-0.115876 13:-0.591045 14:0.107413 15:0.351287 16:-0.444457 
1048576.000000 1:-0.628900 2:-0.499487 3:-0.327033 4:-0.307736 5:-0.459845 6:-0.597070 7:-1.262545 8:-1.507697 9:-1.254890 10:0.705739 11:0.005794 12:2.037992 13:0.201981 14:0.714352 15:0.614161 16:-0.112296 
1048576.000000 1:-0.454883 2:-0.388209 3:-0.617324 4:-0.719163 5:-0.826378 6:-0.815359 7:-0.442851 8:-0.017921 9:0.866836 10:0.705739 11:-0.654721 12:-0.385109 13:-0.326703 14:0.514701 15:0.658911 16:-0.601630 
1048576.000000 1:-1.420679 2:-1.436076 3:-1.334513 4:-1.453855 5:-1.611806 6:-1.787738 7:-2.014635 8:-2.036777 9:-1.727805 10:0.705739 11:1.253434 12:-0.923576 13:-0.062361 14:-0.892439 15:-0.883126 16:-0.267374 
1048576.000000 1:1.015563 2:0.529833 3:-0.079432 4:-0.405695 5:-0.753071 6:-0.835203 7:-0.814671 8:-1.020387 9:-0.730850 10:0.705739 11:1.033262 12:-0.654343 13:0.201981 14:-0.627303 15:-0.700078 16:-0.321861 
1048576.000000 1:0.215084 2:0.233092 3:0.040099 4:0.280017 5:0.807314 6:1.466755 7:1.796519 8:-0.226768 9:-0.034259 10:0.705739 11:0.666309 12:1.230292 13:1.259349 14:1.219070 15:0.612281 16:-0.734704 
1048576.000000 1:0.606623 2:-0.416029 3:-0.762469 4:-0.885693 5:-0.627403 6:-0.587147 7:-0.738617 8:-0.184999 9:-0.507174 10:0.705739 11:-0.214378 12:0.422591 13:0.281284 14:0.198454 15:0.077216 16:-0.268422 
1048576.000000 1:0.563118 2:0.557653 3:0.347466 4:0.466138 5:0.692117 6:0.792043 7:0.469798 8:-0.310307 9:0.170245 10:0.705739 11:1.106653 12:0.153358 13:0.466323 14:-0.541053 15:-0.698765 16:-0.371458 
1048576.000000 1:0.824144 2:0.084722 3:-0.318495 4:-0.542837 5:-0.637875 6:-0.606992 7:-0.535806 8:-0.157153 9:-0.475220 10:0.705739 11:1.106653 12:-0.115876 13:1.259349 14:-0.154529 15:-0.589834 16:-0.229653 
1048576.000000 1:2.007462 2:2.217548 3:1.687927 4:1.465318 5:1.111013 6:0.206631 7:0.131780 8:0.636466 9:0.080775 10:0.705739 11:-1.902361 12:-0.385109 13:0.201981 14:-0.012378 15:-0.097719 16:-0.413721 
442210.334737 1:1.624624 2:1.262413 3:0.996351 4:0.740423 5:0.535032 6:0.454687 7:0.833168 8:1.082007 9:0.387530 10:0.705739 11:0.519528 12:0.422591 13:0.995007 14:0.268731 15:-0.126324 16:-0.049077 
875417.337387 1:-1.559893 2:-1.463896 3:-1.232057 4:-1.336304 5:-1.360469 6:-1.688515 7:-1.769572 8:-1.368466 9:-0.379359 10:-1.414761 11:-0.581331 12:0.691825 13:-0.855387 14:2.407393 15:3.010980 16:0.041035 
1048576.000000 1:-1.020439 2:-0.963145 3:-0.805159 4:-0.973856 5:-1.444248 6:-1.867116 7:-1.913230 8:-1.591236 9:-1.190983 10:-1.414761 11:0.079185 12:1.230292 13:0.730665 14:2.279616 15:1.835123 16:-0.081909 
1048576.000000 1:3.312592 2:4.888217 3:5.120189 4:5.834282 5:5.383744 6:3.322213 7:1.221888 8:0.914929 9:0.969088 10:0.705739 11:1.033262 12:-0.385109 13:-1.119729 14:-1.681460 15:-1.438039 16:-0.493704 
1048576.000000 1:-0.028540 2:0.019810 3:0.031561 4:0.074303 5:-0.355121 6:-0.011658 7:0.681059 8:-0.442577 9:-0.507174 10:0.705739 11:0.299356 12:0.153358 13:0.000000 14:-0.365361 15:-0.000000 16:-0.234542 
1048576.000000 1:-0.124250 2:0.103268 3:-0.011128 4:-0.229369 5:-0.732126 6:-0.874892 7:-0.645662 8:-0.581808 9:-0.692505 10:0.705739 11:1.546996 12:3.384160 13:-0.062361 14:1.528928 15:1.559629 16:-0.018341 
1048576.000000 1:-0.176455 2:-0.119288 3:0.091327 4:0.123283 5:-0.166618 6:-0.626836 7:-0.755518 8:-0.630539 9:-0.289888 10:-1.414761 11:-0.361159 12:-0.385109 13:-1.119729 14:-0.739107 15:-0.365075 16:-0.422452 
1048576.000000 1:0.458708 2:1.067676 3:0.970738 4:0.936341 5:0.964399 6:0.266165 7:-0.155535 8:0.344080 9:1.026604 10:0.705739 11:0.372747 12:0.153358 13:0.000000 14:0.000000 15:-0.000000 16:-0.374252 
1048576.000000 1:1.224384 2:0.835847 3:0.680447 4:0.642464 5:0.734007 6:0.752354 7:0.469798 8:0.197887 9:0.099947 10:0.705739 11:0.739700 12:-1.192810 13:0.995007 14:-0.994661 15:-1.258882 16:-0.474844 
582817.084799 1:-0.367874 2:-0.555126 3:-0.625862 4:-0.679980 5:-0.449372 6:-0.339092 7:0.596555 8:-0.310307 9:0.445047 10:0.705739 11:-0.728112 12:0.691825 13:0.466323 14:0.378938 15:0.176863 16:-0.121727 
1048576.000000 1:-1.072644 2:-0.926053 3:-0.617324 4:-0.474266 5:0.053302 6:0.752354 7:-0.087932 8:-0.672309 9:-1.005652 10:-1.414761 11:-0.948284 12:-0.115876 13:-0.458874 14:2.861000 15:3.196816 16:0.289719 
1048576.000000 1:-0.820319 2:-0.091468 3:0.569453 4:0.720831 5:0.220860 6:0.057798 7:-0.020328 8:1.151623 9:0.432265 10:-1.414761 11:-0.361159 12:1.499525 13:-0.009493 14:2.276422 15:2.280151 16:-0.081909 
1048576.000000 1:0.058468 2:0.483467 3:-0.156274 4:-0.346920 5:-0.449372 6:-0.864970 7:-1.169590 8:-0.435615 9:0.445047 10:-1.414761 11:-0.874893 12:0.153358 13:-1.119729 14:2.028854 15:2.786532 16:0.000000 
1048576.000000 1:-0.802917 2:-0.759136 3:-0.788083 4:-0.768143 5:-0.962519 6:-1.182481 7:-1.228743 8:-0.665347 9:0.163854 10:0.705739 11:1.913949 12:0.422591 13:-0.062361 14:0.267134 15:0.286406 16:-0.369363 
1048576.000000 1:-0.872524 2:-1.306252 3:-1.180830 4:-1.150182 5:-1.098660 6:-1.321393 7:-1.642815 8:-1.340620 9:-1.012042 10:0.705739 11:0.959872 12:0.153358 13:0.704231 14:-0.189668 15:-0.444627 16:-0.183898 
1048576.000000 1:-0.698507 2:-0.323297 3:-0.301419 4:-0.151002 5:-0.218980 6:-0.249791 7:-0.442851 8:-0.087537 9:0.016867 10:-1.414761 11:0.739700 12:-1.462043 13:-1.384072 14:-0.929175 15:-0.486577 16:-0.098675 
1048576.000000 1:0.537016 2:0.316551 3:-0.002590 4:-0.111819 5:-0.145673 6:-0.220025 7:-0.417499 8:1.583240 9:1.448393 10:0.705739 11:-0.067597 12:0.961058 13:1.259349 14:0.123385 15:-0.346616 16:-0.313129 
1048576.000000 1:-1.229260 2:-1.046604 3:-0.924691 4:-0.807326 5:-0.470317 6:-0.587147 7:0.038825 8:0.525081 9:-0.257935 10:0.705739 11:1.473606 12:0.153358 13:0.000000 14:0.041927 15:-0.000000 16:-0.035805 
1048576.000000 1:-0.098147 2:0.093995 3:0.441384 4:1.191034 5:1.236681 6:0.762276 7:0.799366 8:1.478817 9:0.834882 10:0.705739 11:-1.241846 12:0.422591 13:-0.591045 14:0.554631 15:0.830098 16:-0.392065 
411542.841756 1:-1.568594 2:-0.666404 3:0.108403 4:0.867770 5:0.283695 6:-0.349014 7:-0.206238 8:0.907968 9:1.620943 10:0.705739 11:1.106653 12:1.230292 13:-0.062361 14:0.409285 15:0.429779 16:-0.286934 
1048576.000000 1:1.963958 2:1.308778 3:1.158573 4:1.582869 5:2.095417 6:2.240689 7:2.438754 8:2.390782 9:2.157766 10:0.705739 11:1.546996 12:0.099511 13:0.175547 14:-0.411680 15:-0.368826 16:-0.444457 
1048576.000000 1:0.006263 2:-0.054376 3:0.142555 4:0.338792 5:0.807314 6:1.724733 7:1.619060 8:0.469389 9:0.828491 10:0.705739 11:-0.801502 12:0.691825 13:0.730665 14:0.506715 15:0.190901 16:-0.326402 
1048576.000000 1:1.146076 2:1.039857 3:0.834130 4:0.662056 5:0.796841 6:0.702743 7:0.241636 8:-0.052729 9:0.061602 10:0.705739 11:0.225966 12:-0.115876 13:-0.062361 14:-0.435638 15:-0.422401 16:-0.308938 
1048576.000000 1:-0.393977 2:-0.360390 3:-0.301419 4:-0.121615 5:0.357001 6:0.821810 7:1.357096 8:1.868664 9:2.023560 10:0.705739 11:1.546996 12:-0.385109 13:0.466323 14:-0.365361 15:-0.531544 16:-0.395558 
1048576.000000 1:-0.959533 2:-0.722043 3:-0.642938 4:-0.454675 5:-0.208507 6:0.305854 7:0.993726 8:0.406735 9:-0.296279 10:0.705739 11:-0.581331 12:0.153358 13:0.000000 14:0.303870 15:-0.000000 16:-0.205902 
1048576.000000 1:0.798042 2:0.808028 3:0.373080 4:0.348588 5:0.283695 6:0.921032 7:1.162735 8:1.158584 9:-0.155683 10:0.705739 11:-0.214378 12:-0.385109 13:-0.353137 14:-0.541053 15:-0.428630 16:-0.223366 
1048576.000000 1:0.545717 2:0.029083 3:-0.190426 4:-0.376307 5:-0.679765 6:-0.507770 7:-0.831572 8:-0.936849 9:-0.494392 10:-1.414761 11:1.546996 12:-2.000510 13:-1.119729 14:-1.421115 15:-1.141610 16:-0.539809 
1048576.000000 1:-0.124250 2:-0.805501 3:-1.027146 4:-1.326508 5:-1.548972 6:-1.371004 7:-1.211842 8:-0.957733 9:-1.063168 10:0.705739 11:-0.214378 12:0.691825 13:0.466323 14:0.602548 15:0.389690 16:-0.316622 
1048576.000000 1:-0.202558 2:-0.647858 3:-0.864925 4:-1.169774 5:-1.507083 6:-1.936571 7:-1.676617 8:-1.152657 9:-1.203765 10:-1.414761 11:1.033262 12:-1.462043 13:-0.591045 14:-0.999452 15:-0.833768 16:-0.111248 
1048576.000000 1:-0.124250 2:-0.388209 3:-0.753931 4:-0.866102 5:-0.522679 6:-0.021580 7:0.605005 8:-0.226768 9:-0.622207 10:0.705739 11:-0.214378 12:-0.385109 13:0.466323 14:-0.691191 15:-0.841662 16:-0.444457 
1048576.000000 1:-1.246662 2:-1.130062 3:-0.924691 4:-0.885693 5:-0.690237 6:-0.220025 7:-0.332995 8:-0.407769 9:-0.270716 10:0.705739 11:0.519528 12:-0.385109 13:0.175547 14:-0.576192 15:-0.641595 16:-0.558320 
1048576.000000 1:0.876350 2:0.149634 3:-0.062356 4:-0.043247 5:0.419836 6:0.861499 7:0.435996 8:-0.164114 9:-0.481611 10:0.705739 11:0.519528 12:0.422591 13:0.201981 14:0.233592 15:0.143225 16:-0.074924 
1048576.000000 1:0.571819 2:0.854394 3:0.415770 4:0.613077 5:1.048178 6:1.278233 7:2.100736 8:1.527548 9:1.442003 10:0.705739 11:0.079185 12:0.422591 13:0.730665 14:0.043525 15:-0.237622 16:-0.116488 
1048576.000000 1:0.188981 2:0.427828 3:0.390156 4:0.534710 5:0.639756 6:0.752354 7:1.281042 8:0.170041 9:0.623988 10:0.705739 11:0.519528 12:-0.115876 13:1.523691 14:0.123385 15:-0.432544 16:-0.290077 
1048576.000000 1:-1.090046 2:-0.805501 3:-0.711242 4:-0.523246 5:-0.910157 6:-0.120802 7:0.579654 8:0.984545 9:1.020214 10:-1.414761 11:-0.801502 12:-0.115876 13:-1.384072 14:1.993716 15:2.809946 16:0.000000 
1048576.000000 1:-1.133550 2:-0.749863 3:-0.412413 4:-0.317532 5:-0.344648 6:-0.775670 7:-1.440004 8:-1.396312 9:-1.542474 10:-1.414761 11:0.739700 12:1.230292 13:-1.912756 14:0.714352 15:1.777350 16:-0.163989 
1048576.000000 1:0.571819 2:0.335097 3:0.125479 4:0.054711 5:0.042830 6:-0.319247 7:-0.476653 8:1.520586 9:-0.027868 10:0.705739 11:1.326824 12:-0.385109 13:0.466323 14:-0.788621 15:-0.934394 16:-0.357138 
1048576.000000 1:-1.107448 2:-0.777682 3:-0.463641 4:-0.454675 5:-0.501734 6:-0.914581 7:-0.975229 8:-0.331192 9:0.055212 10:0.705739 11:-0.067597 12:0.153358 13:0.598494 14:-0.224806 15:-0.442288 16:-0.228954 
1048576.000000 1:0.241186 2:-0.045103 3:-0.070894 4:-0.033452 5:0.241805 6:0.424920 7:0.385294 8:0.093464 9:0.617597 10:0.705739 11:-0.287768 12:0.422591 13:0.466323 14:0.123385 15:-0.066367 16:-0.275408 
1048576.000000 1:1.267888 2:1.002764 3:0.577991 4:0.250629 5:-0.166618 6:-0.100958 7:0.478249 8:0.170041 9:-0.213200 10:0.705739 11:1.033262 12:-0.385109 13:0.995007 14:-0.611331 15:-0.918059 16:-0.406036 
1048576.000000 1:1.189581 2:1.828075 3:0.782902 4:0.603281 5:0.503615 6:0.543987 7:1.188087 8:1.311739 9:0.866836 10:-1.414761 11:-0.287768 12:0.422591 13:-1.119729 14:-0.180084 15:0.271430 16:-0.457380 
1048576.000000 1:-0.454883 2:-0.249112 3:-0.369723 4:-0.591817 5:-0.690237 6:-0.934426 7:-0.721716 8:-1.438082 9:-1.171811 10:-1.414761 11:2.207511 12:-1.192810 13:-0.591045 14:-0.850912 15:-0.674735 16:-0.124870 
1048576.000000 1:0.223785 2:-0.017283 3:-0.002590 4:0.407363 5:0.817786 6:0.573754 7:1.069780 8:1.423124 9:1.486738 10:0.705739 11:0.372747 12:0.422591 13:0.995007 14:-0.275917 15:-0.616309 16:-0.195074 
1048576.000000 1:-0.533191 2:-0.935326 3:-0.771007 4:-0.513450 5:0.042830 6:0.514221 7:-0.206238 8:-0.964695 9:-1.325189 10:0.705739 11:1.326824 12:0.287975 13:-0.855387 14:-0.470776 15:-0.166051 16:-0.245021 
1048576.000000 1:-1.020439 2:-1.009511 3:-0.847849 4:-0.660388 5:-0.281814 6:-0.110880 7:-0.096382 8:0.267503 9:1.525082 10:0.705739 11:0.079185 12:-0.115876 13:0.201981 14:-0.005989 15:-0.091460 16:-0.269470 
1048576.000000 1:-0.202558 2:-0.416029 3:-0.685628 4:-0.973856 5:-1.329052 6:-1.400771 7:-1.203392 8:-1.110888 9:-0.973698 10:0.705739 11:1.033262 12:-0.115876 13:-0.591045 14:-0.739107 15:-0.555032 16:-0.601630 
1048576.000000 1:0.432605 2:0.029083 3:-0.292881 4:-0.248961 5:-0.072366 6:-0.021580 7:-0.248490 8:0.253580 9:0.419484 10:0.705739 11:-1.975752 12:-0.385109 13:1.259349 14:-0.563414 15:-0.947673 16:-0.655070 
1048576.000000 1:2.642625 2:1.364417 3:0.663371 4:0.485730 5:0.409363 6:0.940877 7:0.292339 8:0.608620 9:1.109684 10:0.705739 11:-0.214378 12:-1.192810 13:-0.670348 14:-0.894036 15:-0.695032 16:-0.159099 
1048576.000000 1:-1.368474 2:-0.944599 3:-0.967381 4:-1.385283 5:-1.884088 6:-2.075482 7:-1.710419 8:-1.020387 9:-0.200418 10:-1.414761 11:-0.140987 12:-0.385109 13:-1.648414 14:0.155329 15:0.928732 16:-0.165037 
1048576.000000 1:-1.090046 2:-1.324798 3:-1.291823 4:-1.483242 5:-1.936450 6:-2.174705 7:-1.854077 8:-0.748886 9:0.106338 10:-1.414761 11:1.767168 12:-0.923576 13:-0.855387 14:-0.627303 15:-0.338831 16:-0.530378 
-1048576.000000 1:1.650727 2:1.744617 3:2.020907 4:2.082459 5:2.304864 6:1.198855 7:0.740213 8:0.664313 9:0.413093 10:0.705739 11:0.299356 12:0.961058 13:0.995007 14:0.714352 15:0.274573 16:-0.470652 
-1048576.000000 1:-0.246062 2:-0.221293 3:-0.275805 4:-0.102023 5:0.116136 6:-0.239869 7:0.241636 8:0.100426 9:0.841273 10:0.705739 11:-0.948284 12:-0.385109 13:-0.062361 14:-0.627303 15:-0.615712 16:-0.578928 
-1048576.000000 1:-0.829020 2:-0.731316 3:-0.685628 4:-0.699572 5:-0.983464 6:-1.529760 7:-1.828725 8:-1.605159 9:-0.833101 10:0.705739 11:1.180043 12:0.691825 13:0.466323 14:2.087951 15:1.803465 16:-0.431184 
-51155.158349 1:-1.481585 2:-0.295478 3:0.424308 4:0.671852 5:1.435656 6:1.446910 7:-0.299193 8:-1.584275 9:-1.146248 10:0.705739 11:0.079185 12:0.691825 13:0.000000 14:-0.291889 15:-0.000000 16:-0.438170 
-1048576.000000 1:-0.846422 2:-0.304751 3:0.321852 4:1.102871 5:1.854552 6:3.401590 7:2.548610 8:1.388316 9:1.116075 10:0.705739 11:1.400215 12:1.768759 13:-0.485308 14:0.268731 15:0.478847 16:-0.081909 
-1048576.000000 1:0.450007 2:0.223819 3:0.193783 4:0.397567 5:1.351877 6:2.736801 7:1.847222 8:0.420658 9:0.330014 10:0.705739 11:-0.140987 12:-0.115876 13:0.334152 14:0.139357 15:-0.000675 16:-0.275757 
-1048576.000000 1:0.771939 2:0.557653 3:0.219397 4:0.211445 5:0.147554 6:0.067720 7:0.393744 8:0.058656 9:0.496173 10:-1.414761 11:-0.654721 12:-0.923576 13:-1.119729 14:0.219218 15:0.726076 16:-0.352597 
-1048576.000000 1:-0.185156 2:-0.017283 3:0.313314 4:0.573893 5:1.498491 6:1.665200 7:0.630357 8:0.302311 9:-0.558300 10:0.705739 11:-0.874893 12:-0.115876 13:1.523691 14:-0.371749 15:-0.854233 16:-0.048030 
-703518.370674 1:-0.480985 2:-0.684950 3:-0.779545 4:-1.199162 5:-1.559445 6:-1.896882 7:-1.473806 8:-1.236196 9:-0.960916 10:0.705739 11:-0.581331 12:0.961058 13:1.259349 14:0.936364 15:0.364869 16:-0.549938 
-253731.859747 1:-1.446782 2:-0.740589 3:-0.753931 4:-0.944469 5:-1.130077 6:-1.371004 7:-1.617464 8:-0.602693 9:-0.666942 10:0.705739 11:-2.049142 12:0.153358 13:0.000000 14:0.000000 15:-0.000000 16:-0.542603 
-925832.431429 1:0.702332 2:0.093995 3:-0.335571 4:-0.562429 5:-0.459845 6:0.196709 7:0.123330 8:0.149157 9:0.349186 10:0.705739 11:-0.581331 12:0.000000 13:0.000000 14:1.337263 15:-0.000000 16:-0.347009 
-1048576.000000 1:-0.106848 2:-0.490214 3:-0.523406 4:-0.425287 5:-0.512206 6:-0.547458 7:-0.214689 8:-0.616616 9:0.253325 10:0.705739 11:1.106653 12:0.153358 13:0.730665 14:-0.429249 15:-0.675012 16:-0.514312 
-1048576.000000 1:-1.664303 2:-1.491715 3:-1.300361 4:-1.238345 5:-1.276690 6:-1.619060 7:-1.279446 8:-0.400808 9:-0.078994 10:-1.414761 11:2.134121 12:0.000000 13:-1.912756 14:-0.734316 15:-0.038336 16:-0.313479 
-1048576.000000 1:-0.837721 2:-0.536580 3:-0.190426 4:0.475934 5:0.953927 6:1.615588 7:1.128933 8:0.671274 9:-0.162074 10:0.705739 11:-0.361159 12:-0.115876 13:0.730665 14:-0.771051 15:-0.991233 16:-0.266676 
-1048576.000000 1:1.267888 2:0.585472 3:0.313314 4:0.426955 5:0.294167 6:0.474532 7:0.351492 8:1.457932 9:1.684851 10:0.705739 11:1.840559 12:1.230292 13:-0.062361 14:0.602548 15:0.624701 16:-0.439916 
-1048576.000000 1:0.502212 2:-0.119288 3:-0.455103 4:-0.474266 5:-0.554096 6:-0.775670 7:-0.223139 8:0.330157 9:0.866836 10:0.705739 11:0.446137 12:-0.654343 13:-1.384072 14:-0.702371 15:-0.220074 16:-0.571942 
-1048576.000000 1:0.423905 2:0.084722 3:-0.173350 4:-0.121615 5:-0.114256 6:0.137176 7:0.038825 8:0.845314 9:1.966044 10:0.705739 11:0.372747 12:-0.115876 13:0.201981 14:-0.802996 15:-0.872181 16:-0.486370 
-1048576.000000 1:0.345597 2:0.121814 3:0.151093 4:-0.102023 5:-0.543624 6:-1.122948 7:-1.794923 8:-1.674775 9:-1.440222 10:0.705739 11:0.225966 12:1.499525 13:1.259349 14:0.620117 15:0.088103 16:-0.399051 
-1048576.000000 1:0.919854 2:-0.063649 3:-0.292881 4:-0.346920 5:-0.480789 6:-0.626836 7:-0.763968 8:-1.319735 9:-1.453003 10:0.705739 11:0.152575 12:-0.385109 13:0.730665 14:-0.467582 15:-0.710476 16:-0.348057 
-1048576.000000 1:0.493511 2:0.131087 3:-0.386799 4:-0.709367 5:-0.952046 6:-1.182481 7:-0.645662 8:-0.400808 9:-1.037605 10:0.705739 11:0.446137 12:-0.654343 13:0.730665 14:-0.579386 15:-0.813912 16:-0.601281 
-420607.686177 1:-0.019840 2:-0.267658 3:-0.301419 4:-0.219573 5:-0.040949 6:0.246320 7:0.605005 8:1.450970 9:1.620943 10:-1.414761 11:-0.507940 12:-0.923576 13:-1.912756 14:0.937961 15:2.057611 16:-0.379841 
-1048576.000000 1:-1.507688 2:-1.139335 3:-1.027146 4:-1.101203 5:-1.580389 6:-1.946493 7:-2.073788 8:-1.076080 9:-0.922572 10:0.705739 11:0.152575 12:2.307226 13:0.995007 14:2.662946 15:2.027598 16:0.244663 
-593858.853049 1:-0.463584 2:-1.491715 3:-1.479658 4:-1.777119 5:-2.198260 6:-2.581516 7:-2.563915 8:-2.022854 9:-1.836448 10:-1.414761 11:0.739700 12:0.422591 13:-2.177098 14:0.378938 15:1.521808 16:-0.357138 
-1023010.278334 1:3.434404 2:3.580702 3:2.772248 4:2.121643 5:1.163375 6:0.563832 7:0.959924 8:0.594697 9:0.553690 10:0.705739 11:-0.214378 12:-0.654343 13:1.206481 14:-0.646469 15:-1.006454 16:-0.735752 
-1048576.000000 1:3.399600 2:3.793985 3:2.891780 4:2.405723 5:1.435656 6:0.762276 7:0.512050 8:0.692159 9:0.477001 10:0.705739 11:-1.168455 12:0.691825 13:0.466323 14:0.602548 15:0.389690 16:-0.011705 
-1048576.000000 1:0.476110 2:0.631838 3:0.552377 4:0.436751 5:0.053302 6:-0.190258 7:-0.704815 8:-0.818502 9:-1.222937 10:-1.414761 11:2.280902 12:0.000000 13:0.000000 14:-0.451610 15:-0.000000 16:-0.374602 
-1048576.000000 1:1.293991 2:0.594745 3:0.108403 4:0.133078 5:0.262750 6:-0.279558 7:-0.332995 8:-0.679270 9:-0.309061 10:-1.414761 11:0.372747 12:0.287975 13:-2.705782 14:-0.627303 15:0.482438 16:0.359225 
-573049.876260 1:1.224384 2:0.307277 3:-0.455103 4:-1.081611 5:-1.381414 6:-1.648826 7:-1.609013 8:-0.895079 9:-0.449657 10:0.705739 11:-0.654721 12:-1.462043 13:-0.591045 14:-1.104868 15:-0.946631 16:-0.701872 
-1048576.000000 1:1.720333 2:1.865168 3:1.261028 4:1.426135 5:1.362350 6:1.099632 7:-0.071031 8:-1.507697 9:-1.357142 10:-1.414761 11:2.134121 12:0.000000 13:0.000000 14:0.000000 15:-0.000000 16:0.100761 
-1048576.000000 1:-0.985636 2:-0.703497 3:-0.668552 4:-0.562429 5:-0.355121 6:0.176865 7:0.655708 8:1.388316 9:1.116075 10:0.705739 11:2.060730 12:0.153358 13:0.995007 14:0.022761 15:-0.347607 16:-0.429089 
-1048576.000000 1:-1.159653 2:-0.935326 3:-0.805159 4:-0.768143 5:-0.763544 6:-0.864970 7:-0.780869 8:-0.038806 9:-0.737240 10:-1.414761 11:-0.434549 12:0.961058 13:-0.855387 14:1.512956 15:2.023667 16:-0.125918 
-1048576.000000 1:1.328795 2:1.512788 3:1.619623 4:1.974704 5:1.917386 6:1.268310 7:0.630357 8:0.218772 9:-0.686114 10:0.705739 11:1.546996 12:-0.654343 13:-1.119729 14:-1.298130 15:-1.001579 16:-0.432581 
-1048576.000000 1:-1.098747 2:-1.000238 3:-0.642938 4:-0.552633 5:-1.035826 6:-1.083259 7:-0.628761 8:0.768736 9:1.467566 10:0.705739 11:1.326824 12:-0.115876 13:0.995007 14:-0.371749 15:-0.702523 16:-0.601630 
-1048576.000000 1:0.728435 2:1.596246 3:2.106287 4:2.797558 5:2.189668 6:1.109555 7:0.250086 8:-0.665347 9:-0.270716 10:0.705739 11:-1.241846 12:0.691825 13:0.995007 14:0.514701 15:0.094960 16:-0.460174 
-1048576.000000 1:0.180280 2:-0.128561 3:-0.198964 4:-0.170594 5:0.357001 6:0.782121 7:0.613456 8:0.204849 9:0.681504 10:0.705739 11:-1.095065 12:0.961058 13:1.259349 14:1.241431 15:0.631850 16:-0.387525 
-1048576.000000 1:-0.063344 2:-0.453121 3:-0.480717 4:-0.366512 5:0.021885 6:-0.051347 7:-0.290743 8:-0.073614 9:-0.072603 10:0.705739 11:0.372747 12:0.530285 13:0.175547 14:0.409285 15:0.326549 16:-0.367966 
-1048576.000000 1:-0.916029 2:-1.009511 3:-1.078374 4:-1.267733 5:-1.528027 6:-1.797660 7:-1.845626 8:-1.312773 9:-0.813929 10:-1.414761 11:1.620387 12:-2.054357 13:-1.648414 14:-0.905217 15:-0.358230 16:-0.444457 
-1048576.000000 1:0.310793 2:-0.100742 3:-0.446565 4:-0.631000 5:-0.669292 6:-0.855048 7:-0.561157 8:-0.003998 9:0.087165 10:-1.414761 11:-0.874893 12:0.691825 13:-1.119729 14:1.385179 15:2.053642 16:-0.072828 
-1048576.000000 1:0.502212 2:0.149634 3:0.005947 4:-0.033452 5:0.461725 6:0.762276 7:0.943024 8:-0.421692 9:-0.379359 10:-1.414761 11:0.372747 12:0.000000 13:-1.331203 14:0.691991 15:1.390095 16:-0.045934 
-1048576.000000 1:-1.020439 2:-1.018784 3:-0.899077 4:-0.915081 5:-0.993936 6:-1.063415 7:-0.561157 8:0.636466 9:0.604815 10:0.705739 11:-1.021674 12:-0.115876 13:1.523691 14:-0.180084 15:-0.690998 16:-0.506628 
-1048576.000000 1:-2.099346 2:-1.519535 3:-1.103988 4:-1.169774 5:-1.318580 6:-1.390848 7:-0.831572 8:-0.150191 9:0.905180 10:-1.414761 11:1.033262 12:0.000000 13:-1.648414 14:0.043525 15:0.793085 16:-0.290776 
-1048576.000000 1:2.433804 2:1.902260 3:1.295180 4:1.259605 5:0.995816 6:0.315776 7:0.114879 8:0.622543 9:0.732630 10:0.705739 11:0.005794 12:0.153358 13:0.201981 14:-0.146543 15:-0.229143 16:-0.648433 
-1048576.000000 1:0.798042 2:0.437102 3:0.176707 4:0.123283 5:0.241805 6:0.256242 7:0.782465 8:0.726967 9:1.838229 10:0.705739 11:1.326824 12:0.427976 13:0.201981 14:-0.355777 15:-0.434101 16:-0.523044 
-1048576.000000 1:-0.550592 2:-0.610765 3:-0.668552 4:-0.631000 5:-0.292286 6:0.107409 7:0.292339 8:-0.059691 9:-0.219590 10:0.705739 11:1.033262 12:0.422591 13:-0.062361 14:0.011581 15:0.028658 16:-0.384032 
-1048576.000000 1:0.406503 2:-0.063649 3:-0.250191 4:-0.288145 5:-0.281814 6:0.246320 7:1.213438 8:1.082007 9:1.103293 10:0.705739 11:-0.507940 12:-1.192810 13:0.000000 14:-1.138409 15:-0.000000 16:-0.504532 
-959207.275538 1:-0.480985 2:-0.601492 3:-0.523406 4:-0.454675 5:-0.124728 6:-0.349014 7:0.300789 8:1.075045 9:2.605118 10:0.705739 11:-0.214378 12:-0.654343 13:0.466323 14:-1.074521 15:-1.206508 16:-0.750072 
-1048576.000000 1:-1.298867 2:-0.935326 3:-0.941767 4:-0.993448 5:-1.308107 6:-0.993959 7:-1.372401 8:-0.491308 9:-0.213200 10:0.705739 11:-0.140987 12:-0.385109 13:-0.035927 14:1.394763 15:1.409131 16:0.043830 
-1048576.000000 1:-0.968234 2:-1.018784 3:-0.924691 4:-0.856306 5:-0.889212 6:-1.013803 7:-0.332995 8:-0.407769 9:-0.456048 10:-1.414761 11:0.519528 12:-1.462043 13:-1.410506 14:-0.892439 15:-0.442997 16:0.035796 
-1048576.000000 1:-0.480985 2:-0.230566 3:-0.011128 4:0.280017 5:0.671173 6:0.970643 7:1.120483 8:0.204849 9:0.234152 10:-1.414761 11:-0.214378 12:-0.385109 13:-0.062361 14:0.479562 15:0.500660 16:-0.195074 
-1048576.000000 1:0.589221 2:1.837348 3:1.124421 4:1.318380 5:1.341405 6:0.891265 7:1.568357 8:1.896511 9:0.815710 10:-1.414761 11:-0.434549 12:0.000000 13:-0.591045 14:0.490743 15:0.761696 16:-0.374602 
-1048576.000000 1:-0.916029 2:-0.768409 3:-0.719780 4:-0.719163 5:-0.585513 6:-0.448236 7:-0.358346 8:-0.010960 9:0.067993 10:0.705739 11:-1.388627 12:0.691825 13:0.995007 14:-0.212029 15:-0.558832 16:-0.470652 
-981497.316205 1:-0.132951 2:-0.323297 3:-0.412413 4:-0.464470 5:-0.407483 6:0.315776 7:0.148681 8:0.706082 9:0.310841 10:-1.414761 11:0.886481 12:-2.538977 13:-1.119729 14:-0.435638 15:-0.019544 16:-0.373554 
-1048576.000000 1:0.014964 2:0.752389 3:1.397636 4:1.857154 5:1.770773 6:1.427066 7:0.385294 8:-0.484346 9:-0.379359 10:-1.414761 11:0.592919 12:0.153358 13:-1.384072 14:0.794212 15:1.538464 16:-0.261786 
-1048576.000000 1:-1.107448 2:-0.759136 3:-0.762469 4:-0.777939 5:-1.098660 6:-1.499993 7:-1.304797 8:-1.319735 9:-1.267672 10:0.705739 11:1.033262 12:1.768759 13:0.201981 14:0.602548 15:0.504641 16:-0.028470 
-1048576.000000 1:0.754537 2:0.733843 3:-0.087970 4:-0.484062 5:-0.637875 6:-0.537536 7:-1.009031 8:-0.832425 9:-1.107903 10:0.705739 11:0.299356 12:-0.115876 13:-0.326703 14:-0.882856 15:-0.898621 16:-0.486020 
-20822.492917 1:2.425104 2:2.152636 3:1.457402 4:1.240013 5:1.121485 6:1.218699 7:1.002177 8:0.163080 9:0.745412 10:0.705739 11:-1.021674 12:0.422591 13:-0.326703 14:0.339008 15:0.476380 16:-0.597439 
-1048576.000000 1:-0.820319 2:-0.480941 3:-0.292881 4:-0.787735 5:-1.538500 6:-2.125094 7:-2.242797 8:-1.918430 9:-1.593600 10:0.705739 11:1.180043 12:0.153358 13:0.995007 14:0.339008 15:-0.063100 16:-0.594645 
-1048576.000000 1:-0.889926 2:-0.712770 3:-0.540482 4:-0.395899 5:0.095192 6:0.305854 7:0.790915 8:0.970622 9:0.419484 10:-1.414761 11:0.152575 12:-0.385109 13:-0.353137 14:-0.065085 15:-0.495976 16:-0.263882 
-1048576.000000 1:0.423905 2:0.260912 3:0.168169 4:0.613077 5:0.629283 6:1.307999 7:1.483853 8:0.761775 9:0.534517 10:0.705739 11:-0.948284 12:-0.385109 13:0.201981 14:-0.595359 15:-0.668787 16:-0.197170 
-1048576.000000 1:-0.611498 2:-0.425302 3:-0.600248 4:-0.670184 5:-0.899685 6:-0.785592 7:-0.569608 8:-0.261576 9:0.355577 10:-1.414761 11:0.519528 12:-0.923576 13:-1.119729 14:0.011581 15:0.489660 16:-0.411625 
-1048576.000000 1:-0.324370 2:-0.777682 3:-0.660014 4:-0.572225 5:-0.250397 6:0.613443 7:1.365546 8:0.573812 9:0.138291 10:0.705739 11:-0.287768 12:-0.385109 13:-0.326703 14:-0.180084 15:-0.062916 16:-0.444806 
-1048576.000000 1:0.841546 2:0.066175 3:-0.190426 4:-0.141206 5:-0.281814 6:-0.329169 7:-0.645662 8:-1.124811 9:-0.769194 10:0.705739 11:-0.654721 12:3.922627 13:-0.591045 14:2.966415 15:3.412253 16:0.013792 
-1048576.000000 1:3.521413 2:4.174184 3:2.900318 4:2.464498 5:2.472422 6:2.012478 7:1.957078 8:2.063588 9:0.636769 10:0.705739 11:-0.948284 12:0.153358 13:0.704231 14:-0.189668 15:-0.444627 16:-0.452839 
-1048576.000000 1:-0.681105 2:-0.406756 3:-0.164812 4:-0.151002 5:-0.103784 6:-0.448236 7:-1.127338 8:-0.957733 9:-1.369924 10:0.705739 11:0.592919 12:1.230292 13:2.052376 14:1.391568 15:0.429632 16:-0.218476 
-1048576.000000 1:-0.994337 2:-0.953872 3:-0.745393 4:-0.484062 5:-0.417955 6:-0.597070 7:-0.865374 8:-1.417197 9:-1.178202 10:0.705739 11:0.152575 12:-0.115876 13:-0.326703 14:-0.595359 15:-0.494353 16:-0.452141 
-1048576.000000 1:-0.193857 2:-0.332570 3:-0.531944 4:-0.621205 5:-0.669292 6:-0.934426 7:-0.662563 8:0.218772 9:-0.449657 10:0.705739 11:0.739700 12:0.422591 13:0.466323 14:0.650464 15:0.435295 16:-0.483226 
-1048576.000000 1:-1.116149 2:-0.786955 3:-0.429489 4:0.191854 5:0.419836 6:0.682898 7:0.106429 8:-0.769771 9:-0.730850 10:-1.414761 11:0.372747 12:0.000000 13:0.000000 14:0.000000 15:-0.000000 16:-0.162243 
-1048576.000000 1:-0.559293 2:-0.545853 3:-0.455103 4:-0.572225 5:-0.815906 6:-1.093181 7:-1.609013 8:-1.779199 9:-1.657507 10:0.705739 11:0.666309 12:-0.654343 13:0.466323 14:-0.627303 15:-0.780855 16:-0.255848 
-1048576.000000 1:-0.594097 2:-0.351117 3:-0.139198 4:0.084099 5:0.074247 6:-0.001736 7:-0.349896 8:0.086502 9:-0.098166 10:0.705739 11:1.253434 12:1.230292 13:2.369586 14:1.394763 15:0.309312 16:-0.164687 
-1048576.000000 1:0.154178 2:0.288731 3:0.390156 4:0.632668 5:0.535032 6:0.375309 7:0.207834 8:1.353508 9:2.093858 10:0.705739 11:1.620387 12:0.422591 13:0.201981 14:-0.259945 15:-0.340227 16:-0.128363 
-1048576.000000 1:-0.011139 2:-0.527307 3:-0.685628 4:-0.787735 5:-0.920629 6:-1.172559 7:-1.211842 8:-0.755848 9:-0.673333 10:0.705739 11:-0.728112 12:-0.385109 13:-0.062361 14:-0.857301 15:-0.847685 16:0.000000 
-1048576.000000 1:0.450007 2:0.400009 3:0.646295 4:0.701240 5:0.566449 6:0.484454 7:0.976825 8:0.462427 9:0.719849 10:0.705739 11:0.592919 12:-0.654343 13:0.730665 14:-0.894036 15:-1.105013 16:-0.443060 
-1048576.000000 1:-2.342971 2:-1.927554 3:-1.556500 4:-1.620385 5:-2.177315 6:-2.551750 7:-2.386455 8:-1.995007 9:-1.721415 10:0.705739 11:-1.755580 12:0.099511 13:0.000000 14:0.000000 15:-0.000000 16:-0.525838 
