svm_type c_svc
kernel_type rbf
gamma 0.100000
nr_class 2
total_sv 296
rho 0.178555 
label 1 0 
nr_sv 141 155 
SV
0.487575 1:0.965403 2:1.566330 3:1.232526 4:1.069866 5:1.089943 6:0.187871 7:0.478673 8:1.346225 9:3.330090 10:0.434818 
1.000000 1:0.129033 2:0.690706 3:0.910242 4:0.937334 5:0.978434 6:1.553021 7:2.600988 8:2.538153 9:1.391217 10:0.788101 
1.000000 1:0.052999 2:-0.351286 3:-0.552430 4:-0.653053 5:-0.613097 6:-0.494704 7:0.183907 8:0.245445 9:0.989177 10:0.107269 
1.000000 1:3.161929 2:3.291308 3:2.273750 4:1.637861 5:0.907474 6:0.382892 7:1.009252 8:1.374271 9:2.007247 10:0.287403 
1.000000 1:-0.090620 2:-0.815366 3:-0.841659 4:-0.823451 5:-1.069268 6:-0.543460 7:0.369188 8:0.617046 9:1.339341 10:-0.121390 
1.000000 1:-1.332502 2:-1.043029 3:-0.841659 4:-0.804518 5:-0.836114 6:-0.816490 7:-0.851986 8:-1.156824 9:-0.768129 10:-0.117347 
1.000000 1:0.095240 2:0.139063 3:-0.139246 4:-0.132391 5:-0.613097 6:-1.001760 7:-1.104642 8:-1.226937 9:-0.781098 10:-0.439749 
1.000000 1:-0.487684 2:-0.106111 3:0.819342 4:1.609461 5:1.992148 6:0.538909 7:0.259704 8:-0.070066 9:-0.379058 10:-0.000000 
1.000000 1:0.880921 2:0.541850 3:0.273938 4:0.009608 5:-0.319120 6:-0.748232 7:-0.894095 8:-0.504769 9:-0.774614 10:-0.332036 
1.000000 1:-0.014586 2:0.445532 3:1.034198 4:1.401197 5:1.505565 6:1.494514 7:0.124953 8:0.238433 9:0.094312 10:-0.231676 
1.000000 1:-0.276480 2:-0.088599 3:0.141719 4:0.445071 5:0.684457 6:0.577914 7:0.293391 8:-0.848325 9:-0.236398 10:0.269022 
1.000000 1:-1.442328 2:-1.384522 3:-1.015197 4:-1.079049 5:-0.967897 6:-1.382052 7:-1.323611 8:-0.967517 9:-0.359604 10:0.568264 
0.311193 1:-1.552154 2:-1.165616 3:-0.858187 4:-0.624653 5:-0.491451 6:-0.397194 7:-0.363516 8:-1.198892 9:-0.379058 10:0.304313 
1.000000 1:-0.436995 2:-0.570192 3:-0.378893 4:-0.331189 5:-0.744880 6:-0.640970 7:-0.818298 8:-0.827291 9:0.139704 10:0.117562 
1.000000 1:0.390927 2:0.305432 3:0.125192 4:-0.103991 5:-0.227886 6:-0.816490 7:-0.599329 8:-0.939472 9:-1.014541 10:-0.218074 
1.000000 1:-0.115964 2:0.576875 3:1.356481 4:2.584520 5:2.843668 6:1.006961 7:0.327079 8:-0.680052 9:-1.001572 10:-0.043455 
1.000000 1:0.619027 2:0.182845 3:0.042555 4:0.132674 5:-0.136651 6:-0.338687 7:-0.203500 8:-0.378565 9:-0.884851 10:-0.392694 
1.000000 1:-0.504580 2:-0.832879 3:-0.659858 4:-0.539454 5:-0.592823 6:-0.650722 7:-1.087799 8:-1.128778 9:-1.831591 10:0.033378 
0.134065 1:0.830232 2:0.541850 3:0.240884 4:0.312539 5:0.522263 6:1.133725 7:1.144002 8:-0.140179 9:-0.521717 10:0.570838 
1.000000 1:0.331789 2:0.366725 3:0.083874 4:-0.141857 5:-0.136651 6:-0.884747 7:-1.424674 8:-0.217304 9:0.561198 10:-0.130948 
1.000000 1:0.534546 2:0.086526 3:-0.263201 4:-0.321722 5:-0.379943 6:-0.874996 7:-0.304563 8:-0.750166 9:-0.651408 10:0.113519 
1.000000 1:1.201952 2:0.988418 3:0.273938 4:-0.094524 5:-0.319120 6:-0.738481 7:-0.809876 8:-1.458311 9:-1.611117 10:-0.447469 
1.000000 1:-0.428547 2:0.498069 3:1.364745 4:1.334930 5:0.775691 6:0.402394 7:-0.119281 8:0.967613 9:2.266628 10:-0.755902 
1.000000 1:-0.960782 2:-0.745317 3:-0.725968 4:-0.567854 5:-0.227886 6:-0.104662 7:-0.531954 8:-1.009585 9:-1.014541 10:0.207262 
1.000000 1:-0.783370 2:-0.561436 3:-0.271465 4:0.142140 5:0.633771 6:0.802188 7:0.478673 8:0.357626 9:0.444477 10:-0.415854 
1.000000 1:-0.631303 2:-0.482629 3:-0.312783 4:-0.293323 5:-0.440766 6:-0.592215 7:-1.264658 8:-1.514402 9:-1.247984 10:-0.066247 
1.000000 1:-0.462339 2:-0.377555 3:-0.593749 4:-0.690919 5:-0.795566 6:-0.806739 7:-0.447735 8:-0.013975 9:0.904878 10:-0.581283 
0.349105 1:-0.563718 2:-0.561436 3:-0.420211 4:-0.671986 5:-0.684057 6:-0.036404 7:-0.220344 8:-0.939472 9:-1.487912 10:0.235201 
1.000000 1:-1.400087 2:-1.367009 3:-1.287898 4:-1.400913 5:-1.555851 6:-1.762344 7:-2.014206 8:-2.047264 9:-1.727839 10:-0.229471 
1.000000 1:-0.107516 2:-0.009793 3:0.001237 4:0.000142 5:0.147189 6:0.499905 7:0.756595 8:-0.231327 9:0.010014 10:0.310563 
1.000000 1:0.965403 2:0.489313 3:-0.073136 4:-0.387988 5:-0.724606 6:-0.826241 7:-0.818298 8:-1.023608 9:-0.716253 10:-0.286819 
1.000000 1:0.188170 2:0.209113 3:0.042555 4:0.274673 5:0.785828 6:1.436008 7:1.784065 8:-0.224315 9:-0.009440 10:-0.721346 
1.000000 1:-0.867852 2:-0.789098 3:-0.659858 4:-0.511054 5:-0.602960 6:-0.494704 7:-1.138330 8:-1.528425 9:-1.410097 10:0.163515 
1.000000 1:0.179722 2:0.349213 3:0.315257 4:0.558670 5:0.927748 6:1.104471 7:1.775643 8:1.156919 9:1.598722 10:0.227113 
1.000000 1:0.568338 2:-0.403823 3:-0.734231 4:-0.851851 5:-0.602960 6:-0.582464 7:-0.742501 8:-0.182247 9:-0.489295 10:-0.230573 
1.000000 1:-1.619740 2:-1.183128 3:-0.593749 4:0.019075 5:0.218148 6:0.314635 7:-0.456157 8:-0.897404 9:-0.638439 10:0.382984 
0.709404 1:-0.284928 2:-0.281236 3:-0.188828 4:-0.302789 5:-0.866525 6:-1.616078 7:-1.298346 8:-0.084088 9:0.243456 10:0.246229 
1.000000 1:0.526097 2:0.515581 3:0.340048 4:0.454538 5:0.674320 6:0.772935 7:0.461829 8:-0.308451 9:0.198065 10:-0.339021 
0.740179 1:-0.496132 2:0.681950 3:2.050631 4:2.707586 5:2.863942 6:1.416506 7:0.369188 8:0.049127 9:1.209650 10:0.305784 
1.000000 1:0.179722 2:-0.228699 3:-0.312783 4:-0.160790 5:0.218148 6:0.490154 7:0.318657 8:-0.231327 9:-1.131263 10:0.226010 
1.000000 1:-1.493017 2:-1.410790 3:-1.230053 4:-1.164249 5:-0.937485 6:-0.855494 7:0.301813 8:-0.182247 9:-0.132646 10:0.346957 
1.000000 1:0.779543 2:0.069013 3:-0.304520 4:-0.520521 5:-0.613097 6:-0.601966 7:-0.540376 8:-0.154202 9:-0.456872 10:-0.189768 
1.000000 1:-0.099068 2:-0.202430 3:-0.354102 4:-0.501587 5:-0.471177 6:-0.436198 7:-0.051906 8:0.105218 9:-0.165069 10:-0.000000 
1.000000 1:1.928495 2:2.082948 3:1.637447 4:1.420130 5:1.079805 6:0.197622 7:0.124953 8:0.645091 9:0.107281 10:-0.383503 
1.000000 1:-0.521477 2:-0.114868 3:0.166510 4:0.426138 5:0.400617 6:0.012351 7:-0.767767 8:-0.743154 9:-0.139131 10:-0.056322 
1.000000 1:1.556775 2:1.181055 3:0.968088 4:0.719602 5:0.522263 6:0.441399 7:0.823970 8:1.093817 9:0.418539 10:0.000292 
1.000000 1:-1.535258 2:-1.393278 3:-1.188734 4:-1.287314 5:-1.312560 6:-1.664833 7:-1.769971 8:-1.374175 9:-0.359604 10:0.095138 
1.000000 1:0.002310 2:0.681950 3:0.662332 4:0.454538 5:0.329657 6:-0.231425 7:-0.363516 8:-1.430266 9:-1.436035 10:0.298799 
1.000000 1:-1.011471 2:-0.920441 3:-0.775550 4:-0.937050 5:-1.393657 6:-1.840352 7:-1.913144 8:-1.598538 9:-1.183139 10:-0.034264 
1.000000 1:-1.248020 2:-1.008004 3:-0.759022 4:-0.653053 5:-0.481314 6:-1.060267 7:-1.508893 8:-1.542447 9:-1.695416 10:-0.033897 
1.000000 1:3.195722 2:4.604744 3:4.959449 4:5.642228 5:5.215758 6:3.259458 7:1.211377 8:0.925545 9:1.008630 10:-0.467688 
1.000000 1:1.945391 2:2.660859 3:2.670407 4:3.313447 5:2.600376 6:2.069828 7:1.851440 8:1.801962 9:1.520908 10:-0.170651 
1.000000 1:-0.048379 2:0.007720 3:0.034291 4:0.075874 5:-0.339394 6:-0.016902 7:0.672376 8:-0.441667 9:-0.489295 10:-0.194914 
0.563490 1:3.161929 2:3.238771 3:1.753138 4:1.060399 5:0.278971 6:0.061107 7:-0.691970 8:-0.673041 9:-0.910789 10:2.843830 
1.000000 1:-0.141309 2:0.086526 3:-0.007027 4:-0.217590 5:-0.704331 6:-0.865245 7:-0.649860 8:-0.581894 9:-0.677346 10:0.032642 
1.000000 1:-0.191998 2:-0.123624 3:0.092137 4:0.123207 5:-0.156926 6:-0.621468 7:-0.759345 8:-0.630973 9:-0.268821 10:-0.392694 
1.000000 1:0.424719 2:0.997174 3:0.943297 4:0.908934 5:0.937885 6:0.256128 7:-0.161391 8:0.350615 9:1.066991 10:-0.341962 
1.000000 1:1.168159 2:0.778269 3:0.662332 4:0.624936 5:0.714868 6:0.733931 7:0.461829 8:0.203377 9:0.126735 10:-0.447837 
1.000000 1:-1.349398 2:-0.508898 3:0.249147 4:1.079333 5:1.383920 6:2.128334 7:3.097880 8:1.542543 9:1.935917 10:0.213144 
1.000000 1:-0.377858 2:-0.535167 3:-0.602012 4:-0.653053 5:-0.430628 6:-0.338687 7:0.588157 8:-0.308451 9:0.476899 10:-0.076173 
1.000000 1:-0.513029 2:-0.482629 3:-0.568958 4:-0.624653 5:-0.978034 6:-1.031013 7:-1.079377 8:-0.595916 9:-0.288275 10:0.280418 
1.000000 1:1.793324 2:0.997174 3:0.811078 4:1.079333 5:1.211588 6:1.894308 7:1.607206 8:-0.175236 9:-0.379058 10:0.151383 
0.503963 1:1.446949 2:2.231804 3:2.554716 4:1.694661 5:0.380343 6:-0.767734 7:-1.492049 8:-1.668651 9:-1.585179 10:2.568115 
1.000000 1:0.720405 2:0.541850 3:0.811078 4:1.164532 5:1.018983 6:0.636420 7:0.327079 8:1.058760 9:0.626043 10:-0.126537 
0.959140 1:-1.062160 2:-0.885416 3:-0.593749 4:-0.454255 5:0.055954 6:0.733931 7:-0.094016 8:-0.673041 9:-0.995088 10:0.356883 
1.000000 1:-0.817163 2:-0.097355 3:0.554904 4:0.700669 5:0.218148 6:0.051356 7:-0.026641 8:1.163930 9:0.463930 10:-0.034264 
1.000000 1:-0.217342 2:-0.158649 3:0.513585 4:1.126666 5:1.231862 6:1.718789 7:0.950298 8:0.834397 9:1.812711 10:-0.005223 
1.000000 1:0.036103 2:0.445532 3:-0.147510 4:-0.331189 5:-0.430628 6:-0.855494 7:-1.172017 8:-0.434655 9:0.476899 10:-0.000000 
1.000000 1:-0.800267 2:-0.727804 3:-0.759022 4:-0.738252 5:-0.927348 6:-1.167528 7:-1.230971 8:-0.666030 9:0.191580 10:-0.336816 
1.000000 1:-0.867852 2:-1.244422 3:-1.139152 4:-1.107449 5:-1.059131 6:-1.304043 7:-1.643643 8:-1.346130 9:-1.001572 10:-0.141609 
1.000000 1:-0.470788 2:-0.184917 3:0.075610 4:0.426138 5:0.420891 6:-0.319185 7:-0.616173 8:-0.869359 9:-0.703284 10:0.039627 
1.000000 1:1.734187 2:1.067224 3:0.736705 4:0.577603 5:0.755417 6:0.967956 7:1.379815 8:1.290134 9:1.572784 10:-0.026544 
1.000000 1:-0.698888 2:-0.316261 3:-0.287992 4:-0.141857 5:-0.207611 6:-0.250928 7:-0.447735 8:-0.084088 9:0.042436 10:-0.051910 
1.000000 1:-1.045264 2:-0.797854 3:-0.626803 4:-0.520521 5:-0.440766 6:-0.241177 7:0.293391 8:0.532910 9:0.314786 10:0.161309 
1.000000 1:0.500753 2:0.287919 3:0.001237 4:-0.103991 5:-0.136651 6:-0.221674 7:-0.422469 8:1.598633 9:1.494969 10:-0.277629 
1.000000 1:-0.690440 2:-0.605217 3:-0.577221 4:-0.520521 5:-0.501588 6:-0.046155 7:1.127158 8:0.932556 9:0.995661 10:0.409820 
1.000000 1:-0.741129 2:-0.736560 3:-0.684649 4:-0.463721 5:-0.227886 6:-0.250928 7:-0.085594 8:-1.002574 9:-0.748676 10:0.189248 
1.000000 1:-1.214227 2:-0.999247 3:-0.891241 4:-0.776118 5:-0.450903 6:-0.582464 7:0.032313 8:0.532910 9:-0.236398 10:0.014261 
1.000000 1:-0.115964 2:0.077770 3:0.430948 4:1.155065 5:1.201451 6:0.743682 7:0.790282 8:1.493463 9:0.872455 10:-0.360711 
1.000000 1:-1.543706 2:-0.640242 3:0.108665 4:0.842668 5:0.278971 6:-0.348438 7:-0.211922 8:0.918533 9:1.670052 10:-0.250057 
1.000000 1:1.886254 2:1.224837 3:1.125098 4:1.533729 5:2.032697 6:2.196592 7:2.424129 8:2.411949 9:2.214752 10:-0.415854 
1.000000 1:1.303330 2:1.776479 3:1.918412 4:1.136132 5:0.319520 6:0.636420 7:0.722907 8:0.280501 9:0.749249 10:0.013894 
1.000000 1:-0.817163 2:-1.034272 3:-0.891241 4:-1.022250 5:-0.866525 6:-0.562962 7:-0.691970 8:-1.724742 9:-1.695416 10:0.149545 
1.000000 1:-1.526810 2:-1.121835 3:-0.998669 4:-1.050649 5:-1.190914 6:-1.089520 7:-1.062533 8:-1.998185 9:-2.142848 10:0.119768 
0.394911 1:-0.115964 2:-0.386311 3:-0.469793 4:-0.690919 5:-0.734743 6:-0.738481 7:-1.079377 8:-0.827291 9:-0.988603 10:0.281153 
0.873311 1:-1.493017 2:-0.097355 3:2.298542 4:3.540645 5:4.273004 6:3.191201 7:0.630267 8:0.084184 9:-0.314213 10:3.442683 
1.000000 1:-0.014586 2:-0.062330 3:0.141719 4:0.331472 5:0.785828 6:1.689536 7:1.607206 8:0.476819 9:0.865971 10:-0.291598 
1.000000 1:-0.394754 2:-0.263724 3:-0.337574 4:-0.245990 5:-0.085966 6:-0.250928 7:0.335501 8:0.322569 9:0.840033 10:-0.014413 
1.000000 1:0.129033 2:0.165332 3:0.257411 4:0.568137 5:0.948023 6:1.133725 7:0.217594 8:-0.834302 9:-0.320697 10:-0.050807 
1.000000 1:1.092125 2:0.970906 3:0.811078 4:0.643870 5:0.775691 6:0.685175 7:0.234438 8:-0.049032 9:0.087828 10:-0.273217 
1.000000 1:-0.403202 2:-0.351286 3:-0.287992 4:-0.113457 5:0.349931 6:0.802188 7:1.346127 8:1.886098 9:2.078577 10:-0.364387 
1.000000 1:-0.952334 2:-0.692779 3:-0.618540 4:-0.435321 5:-0.197474 6:0.295132 7:0.983986 8:0.413717 9:-0.275306 10:-0.164769 
1.000000 1:0.754198 2:0.752000 3:0.364839 4:0.340939 5:0.278971 6:0.899699 7:1.152424 8:1.170942 9:-0.132646 10:-0.183150 
0.724949 1:-1.028367 2:-0.719048 3:-0.329311 4:0.085341 5:0.329657 6:-0.231425 7:0.444985 8:2.005291 9:1.391217 10:5.443637 
1.000000 1:0.509201 2:0.016476 3:-0.180564 4:-0.359589 5:-0.653646 6:-0.504455 7:-0.835142 8:-0.939472 9:-0.476326 10:-0.516214 
0.144103 1:-0.470788 2:0.279163 3:0.943297 4:1.240265 5:2.164479 6:2.411115 7:1.194533 8:1.262089 9:0.671435 10:1.036979 
1.000000 1:-0.141309 2:-0.771585 3:-0.990406 4:-1.277848 5:-1.495028 6:-1.352799 7:-1.214127 8:-0.960506 9:-1.053448 10:-0.281305 
1.000000 1:-0.217342 2:-0.622729 3:-0.833396 4:-1.126382 5:-1.454480 6:-1.908610 7:-1.677331 8:-1.156824 9:-1.196108 10:-0.065145 
1.000000 1:-0.141309 2:-0.377555 3:-0.725968 4:-0.832918 5:-0.501588 6:-0.026653 7:0.596579 8:-0.224315 9:-0.606016 10:-0.415854 
1.000000 1:1.134366 2:1.399961 3:0.951561 4:0.861601 5:0.704731 6:0.704678 7:0.461829 8:0.252456 9:-0.041863 10:-0.033529 
1.000000 1:-0.825611 2:-0.526411 3:-0.354102 4:-0.274389 5:-0.085966 6:0.490154 7:0.074422 8:0.631068 9:0.496353 10:0.357618 
1.000000 1:0.154378 2:0.200357 3:0.174774 4:0.350405 5:1.181177 6:1.660283 7:1.034517 8:0.385671 9:0.671435 10:0.262037 
1.000000 1:-1.231124 2:-1.078053 3:-0.891241 4:-0.851851 5:-0.663783 6:-0.221674 7:-0.338251 8:-0.406610 9:-0.249367 10:-0.535698 
1.000000 1:0.830232 2:0.130307 3:-0.056609 4:-0.037725 5:0.410754 6:0.841193 7:0.428141 8:-0.161213 9:-0.463357 10:-0.026912 
1.000000 1:0.534546 2:0.795781 3:0.406157 4:0.596537 5:1.018983 6:1.250738 7:2.087253 8:1.542543 9:1.488485 10:-0.070659 
1.000000 1:0.162826 2:0.392994 3:0.381366 4:0.520804 5:0.623634 6:0.733931 7:1.270330 8:0.175331 9:0.658466 10:-0.253366 
1.000000 1:-0.479236 2:0.060257 3:0.216093 4:0.094808 5:-0.319120 6:-0.523958 7:0.251282 8:1.037726 9:0.755734 10:0.132635 
0.497245 1:-0.352513 2:2.047923 3:5.108195 4:4.657703 5:3.330250 6:1.913810 7:0.402876 8:1.661736 9:1.060506 10:2.731706 
0.229928 1:0.458512 2:3.247527 3:5.042085 4:4.847034 5:4.191907 6:1.767544 7:0.579735 8:1.549554 9:2.149906 10:2.138736 
1.000000 1:-0.377858 2:-0.228699 3:-0.122719 4:-0.312256 5:-0.461040 6:0.012351 7:1.733534 8:2.510108 9:2.564916 10:0.848390 
1.000000 1:-1.079056 2:-0.771585 3:-0.684649 4:-0.501587 5:-0.876663 6:-0.124164 7:0.571313 8:0.995658 9:1.060506 10:-0.000000 
1.000000 1:-1.121297 2:-0.719048 3:-0.395420 4:-0.302789 5:-0.329257 6:-0.767734 7:-1.441518 8:-1.402221 9:-1.539788 10:-0.120655 
0.585169 1:0.813335 2:2.590809 3:3.686841 4:2.641319 5:2.336811 6:1.211733 7:0.091266 8:-0.189259 9:-0.281790 10:2.842727 
1.000000 1:0.534546 2:0.305432 3:0.125192 4:0.056941 5:0.045817 6:-0.319185 7:-0.481423 8:1.535531 9:-0.002956 10:-0.323949 
1.000000 1:-1.095953 2:-0.745317 3:-0.445002 4:-0.435321 5:-0.481314 6:-0.904249 7:-0.978314 8:-0.329485 9:0.081343 10:-0.189032 
1.000000 1:0.999195 2:0.953393 3:0.976352 4:1.467463 5:1.252137 6:1.455510 7:0.588157 8:0.343603 9:0.626043 10:0.172705 
1.000000 1:-0.791818 2:-0.430092 3:-0.321047 4:-0.321722 5:-0.359668 6:-0.085159 7:0.150219 8:-0.070066 9:-0.502264 10:0.058008 
1.000000 1:0.213515 2:-0.053574 3:-0.064873 4:-0.028258 5:0.238423 6:0.412145 7:0.377610 8:0.098206 9:0.651981 10:-0.237926 
1.000000 1:1.210400 2:0.935881 3:0.563167 4:0.246273 5:-0.156926 6:-0.104662 7:0.470251 8:0.175331 9:-0.191007 10:-0.375416 
0.258082 1:1.827117 2:3.124940 3:3.207547 4:1.817726 5:-0.096103 6:-0.338687 7:-0.708814 8:0.070161 9:0.781672 10:3.327618 
1.000000 1:1.134366 2:1.715186 3:0.761496 4:0.587070 5:0.491851 6:0.529158 7:1.177689 8:1.325191 9:0.904878 10:-0.429456 
1.000000 1:-0.462339 2:-0.246211 3:-0.354102 4:-0.567854 5:-0.663783 6:-0.923752 7:-0.725657 8:-1.444289 9:-1.163685 10:-0.079482 
1.000000 1:0.196618 2:-0.027305 3:0.001237 4:0.397738 5:0.795965 6:0.558411 7:1.059783 8:1.437373 9:1.533877 10:-0.153373 
0.769409 1:0.973851 2:3.019865 3:4.405782 4:4.373705 5:3.107233 6:1.601776 7:1.329283 8:2.327813 9:4.049872 10:2.346808 
1.000000 1:1.522982 2:1.154787 3:0.968088 4:0.984667 5:0.775691 6:1.036214 7:-0.371938 8:-0.953495 9:-0.755160 10:0.472683 
1.000000 1:-0.538373 2:-0.894173 3:-0.742495 4:-0.492121 5:0.045817 6:0.499905 7:-0.211922 8:-0.967517 9:-1.319314 10:-0.205943 
1.000000 1:-0.183550 2:-0.053574 3:0.149983 4:0.643870 5:1.160903 6:1.387253 7:0.697642 8:-0.063054 9:-0.852428 10:0.530767 
1.000000 1:-1.011471 2:-0.964222 3:-0.816868 4:-0.634120 5:-0.268434 6:-0.114413 7:-0.102438 8:0.273490 9:1.572784 10:-0.231676 
1.000000 1:0.813335 2:1.338668 3:0.587958 4:-0.283856 5:-1.201051 6:-1.469812 7:-1.584690 8:-0.729132 9:0.022983 10:-0.015148 
1.000000 1:-1.383191 2:-1.060541 3:-0.924296 4:-0.993850 5:-1.190914 6:-1.284541 7:-1.828925 8:-1.815890 9:-1.500881 10:0.402468 
1.000000 1:2.418489 2:2.161754 3:1.695292 4:1.372797 5:0.309383 6:-0.475202 7:-0.329829 8:-0.553848 9:-1.241500 10:-0.018457 
1.000000 1:-0.217342 2:-0.403823 3:-0.659858 4:-0.937050 5:-1.282148 6:-1.382052 7:-1.205705 8:-1.114756 9:-0.962665 10:-0.581283 
1.000000 1:-0.445443 2:-0.719048 3:-0.750759 4:-1.050649 5:-1.403794 6:-1.538069 7:-1.736284 8:-1.584515 9:-1.397128 10:0.313136 
1.000000 1:0.399375 2:0.016476 3:-0.279729 4:-0.236523 5:-0.065691 6:-0.026653 7:-0.254032 8:0.259467 9:0.450961 10:-0.637528 
1.000000 1:-1.467673 2:-0.964222 3:-0.420211 4:-0.075591 5:0.177600 6:0.373141 7:1.615627 8:0.539921 9:1.520908 10:-0.000000 
1.000000 1:-0.867852 2:-0.824123 3:-0.560694 4:-0.558387 5:-0.572548 6:-0.874996 7:-1.138330 8:-0.862347 9:-0.145615 10:0.174544 
1.000000 1:2.545212 2:1.277374 3:0.645804 4:0.473471 5:0.400617 6:0.919201 7:0.284969 8:0.617046 9:1.151290 10:-0.115508 
1.000000 1:-1.349398 2:-0.902929 3:-0.932560 4:-1.334647 5:-1.819417 6:-2.045125 7:-1.711018 8:-1.023608 9:-0.178038 10:-0.121758 
1.000000 1:-1.324054 2:-1.051785 3:-1.031724 4:-1.183182 5:-1.535577 6:-1.850103 7:-2.005784 8:-2.215536 9:-1.928859 10:-0.088305 
1.000000 1:0.019207 2:-0.097355 3:-0.188828 4:-0.634120 5:-1.282148 6:-1.674584 7:-1.862612 8:-1.696697 9:-1.617602 10:0.248435 
1.000000 1:-1.079056 2:-1.261934 3:-1.246580 4:-1.429313 5:-1.870102 6:-2.142636 7:-1.854190 8:-0.750166 9:0.133219 10:-0.506288 
-1.000000 1:-0.681992 2:-0.780341 3:-0.676386 4:-0.369055 5:-0.106240 6:-0.065657 7:-0.641438 8:-1.535436 9:-0.904304 10:-0.246381 
-1.000000 1:-1.036816 2:-1.016760 3:-0.676386 4:-0.416388 5:-0.339394 6:-0.338687 7:-0.649860 8:-0.897404 9:-0.917273 10:-0.107788 
-1.000000 1:0.559890 2:0.270407 3:0.422685 4:0.937334 5:1.140628 6:1.601776 7:1.607206 8:2.229654 9:1.553330 10:-0.375416 
-0.992227 1:1.582120 2:1.636380 3:1.959730 4:2.016525 5:2.235439 6:1.172729 7:0.731329 8:0.673136 9:0.444477 10:-0.443425 
-0.462306 1:2.815554 2:2.906034 3:2.009313 4:1.325464 5:0.583086 6:0.139115 7:-0.565641 8:-0.567871 9:-0.787583 10:-0.614368 
-1.000000 1:-1.611292 2:-1.191885 3:-0.833396 4:-0.463721 5:-0.602960 6:-0.718979 7:-1.382565 8:-1.605549 9:-1.889952 10:-0.133889 
-0.357085 1:1.514534 2:1.373693 3:0.943297 4:0.965734 5:1.292685 6:1.660283 7:1.118736 8:1.177953 9:0.100797 10:-0.435705 
-1.000000 1:0.500753 2:0.428019 3:0.149983 4:0.416672 5:0.583086 6:-0.055906 7:-0.565641 8:-0.280406 9:-0.223429 10:-0.447469 
-1.000000 1:-0.935437 2:-0.622729 3:-0.502848 4:-0.416388 5:-0.146789 6:-0.114413 7:0.638688 8:1.030715 9:2.098030 10:-0.190503 
-1.000000 1:-0.715785 2:-0.876660 3:-0.783813 4:-0.795052 5:-0.937485 6:-1.001760 7:-0.296141 8:-0.413621 9:-0.015925 10:-0.087937 
-0.558260 1:1.658153 2:2.310610 3:1.364745 4:1.060399 5:0.745280 6:1.533519 7:1.691424 8:1.163930 9:0.146189 10:-0.499671 
-1.000000 1:0.196618 2:0.296676 3:0.166510 4:0.426138 5:0.542537 6:-0.026653 7:-0.523532 8:-0.729132 9:-0.606016 10:-0.494892 
-1.000000 1:-0.360961 2:-0.009793 3:-0.304520 4:-0.548920 5:-0.917211 6:-1.343048 7:-1.483627 8:-1.633595 9:-1.591664 10:-0.556284 
-1.000000 1:0.238859 2:0.147820 3:0.009500 4:-0.151324 5:-0.146789 6:0.646171 7:1.430346 8:2.068393 9:1.060506 10:-0.002282 
-1.000000 1:-0.825611 2:-0.701535 3:-0.659858 4:-0.671986 5:-0.947623 6:-1.508816 7:-1.828925 8:-1.612561 9:-0.820006 10:-0.401884 
-0.858212 1:-1.459225 2:-0.289992 3:0.414421 4:0.653336 5:1.394057 6:1.416506 7:-0.304563 8:-1.591527 9:-1.137747 10:-0.409237 
-1.000000 1:-0.842508 2:-0.298748 3:0.315257 4:1.069866 5:1.799542 6:3.337467 7:2.533613 8:1.402316 9:1.157774 10:-0.034264 
-1.000000 1:0.416271 2:0.200357 3:0.191302 4:0.388272 5:1.312960 6:2.684145 7:1.834597 8:0.427740 9:0.360178 10:-0.238293 
-1.000000 1:2.274870 2:0.708219 3:-0.064873 4:-0.539454 5:-0.937485 6:-0.953005 7:-0.312985 8:0.126252 9:0.094312 10:-0.112935 
-1.000000 1:0.331789 2:-0.027305 3:-0.172301 4:0.123207 5:0.258697 6:0.178120 7:0.579735 8:-0.483735 9:-0.858913 10:-0.355932 
-0.252523 1:-0.293376 2:0.042745 3:0.290466 4:1.032000 5:1.475154 6:1.328746 7:0.916611 8:0.904511 9:0.924331 10:-0.705170 
-1.000000 1:0.728854 2:0.515581 3:0.216093 4:0.208407 5:0.147189 6:0.061107 7:0.386032 8:0.063150 9:0.528775 10:-0.319170 
-0.172209 1:-0.031482 2:-0.071086 3:-0.387157 4:-0.690919 5:-0.815840 6:-1.157777 7:-1.062533 8:-0.708098 9:-0.028894 10:-0.631647 
-0.774182 1:1.691946 2:1.146030 3:0.629277 4:0.700669 5:0.917611 6:0.909450 7:0.605001 8:1.458407 9:1.151290 10:-0.619883 
-1.000000 1:1.083677 2:0.664437 3:0.282202 4:0.066408 5:-0.846251 6:-1.352799 7:-1.298346 8:-1.619572 9:-1.669478 10:-0.071026 
-0.154012 1:-0.453891 2:-0.535167 3:-0.668122 4:-0.861318 5:-1.038857 6:-1.284541 7:-0.860408 8:-0.343508 9:0.723311 10:-0.568416 
-1.000000 1:-0.200446 2:-0.027305 3:0.306993 4:0.558670 5:1.454880 6:1.631029 7:0.621845 8:0.308547 9:-0.541171 10:0.001395 
-0.764797 1:-0.487684 2:-0.657754 3:-0.750759 4:-1.154782 5:-1.505165 6:-1.869606 7:-1.475205 8:-1.240960 9:-0.949696 10:-0.526875 
-1.000000 1:0.466960 2:0.235382 3:0.133456 4:0.198940 5:0.309383 6:0.158617 7:0.529204 8:0.539921 9:0.249941 10:-0.379827 
-1.000000 1:0.247307 2:0.287919 3:-0.097927 4:-0.217590 5:-0.511726 6:-0.738481 7:-0.717235 8:-1.149812 9:-0.547656 10:-0.555549 
-0.721571 1:-0.420099 2:-0.596460 3:-0.544167 4:-0.208123 5:0.420891 6:0.470652 7:0.327079 8:-0.322474 9:-0.249367 10:-0.357402 
-0.447665 1:-1.239572 2:-1.165616 3:-0.982142 4:-0.766652 5:-0.491451 6:-0.104662 7:-0.464579 8:0.077172 9:-0.735707 10:-0.383503 
-1.000000 1:0.948506 2:1.172299 3:0.935033 4:0.804802 5:1.130491 6:1.192231 7:2.196738 8:1.444384 9:1.488485 10:-0.617309 
-1.000000 1:0.661268 2:0.077770 3:-0.321047 4:-0.539454 5:-0.440766 6:0.187871 7:0.116531 8:0.154297 9:0.379631 10:-0.313288 
-0.863919 1:4.015195 2:6.758778 3:7.380709 4:8.122473 5:7.739906 6:4.897639 7:1.144002 8:-0.245349 9:-0.748676 10:-0.000000 
-1.000000 1:0.137481 2:-0.132380 3:-0.354102 4:-0.548920 5:-0.684057 6:-0.416696 7:-0.254032 8:-0.266383 9:-0.061316 10:-0.457027 
-0.608403 1:-0.124412 2:-0.473873 3:-0.502848 4:-0.406922 5:-0.491451 6:-0.543460 7:-0.220344 8:-0.616950 9:0.282364 10:-0.489378 
-1.000000 1:-1.830944 2:-1.156860 3:-0.643331 4:-0.283856 5:-0.319120 6:-0.972507 7:-1.407830 8:-1.822901 9:-1.662994 10:-0.651498 
-0.118029 1:1.548327 2:1.224837 3:1.323427 4:1.846126 5:2.742296 6:2.996180 7:2.230425 8:2.369881 9:1.086444 10:-0.470997 
-0.231573 1:2.731072 2:2.967328 3:2.067158 4:1.259198 5:0.633771 6:0.051356 7:-0.355094 8:0.028093 9:-0.028894 10:-0.719140 
-0.650047 1:0.458512 2:-0.001036 3:-0.271465 4:-0.359589 5:-0.359668 6:-0.250928 7:-0.742501 8:-0.595916 9:-0.949696 10:-0.467321 
-1.000000 1:2.012977 2:1.058468 3:0.389630 4:-0.132391 5:-0.349531 6:-0.465451 7:-0.338251 8:0.567966 9:-0.165069 10:-0.379092 
-1.000000 1:1.455397 2:1.829017 3:1.554810 4:1.164532 5:0.137051 6:-0.397194 7:-1.087799 8:-0.708098 9:-0.132646 10:-0.211457 
-1.000000 1:0.754198 2:0.673194 3:0.753232 4:0.890001 5:1.100080 6:1.387253 7:1.421924 8:0.336592 9:0.444477 10:-0.213663 
-0.816701 1:5.088114 2:6.898877 3:5.901509 4:4.856501 5:3.330250 6:0.919201 7:-1.315189 8:-1.493368 9:-1.630571 10:-0.755902 
-1.000000 1:-0.834059 2:-0.517654 3:-0.180564 4:0.464004 5:0.927748 6:1.582274 7:1.118736 8:0.680148 9:-0.139131 10:-0.228735 
-1.000000 1:1.210400 2:0.541850 3:0.306993 4:0.416672 5:0.289108 6:0.460901 7:0.343922 8:1.472429 9:1.734897 10:-0.411075 
-1.000000 1:0.390927 2:0.069013 3:-0.164037 4:-0.113457 5:-0.106240 6:0.129364 7:0.032313 8:0.855431 9:2.020216 10:-0.459968 
-1.000000 1:0.314893 2:0.104038 3:0.149983 4:-0.094524 5:-0.521863 6:-1.109022 7:-1.795237 8:-1.682674 9:-1.436035 10:-0.368063 
-1.000000 1:0.872473 2:-0.071086 3:-0.279729 4:-0.331189 5:-0.461040 6:-0.621468 7:-0.767767 8:-1.325096 9:-1.449004 10:-0.314391 
-1.000000 1:-1.526810 2:-1.226909 3:-0.990406 4:-1.050649 5:-1.079405 6:-1.284541 7:-1.230971 8:-1.619572 9:-1.630571 10:-0.479820 
-1.000000 1:-0.817163 2:-0.622729 3:-0.535903 4:-0.387988 5:-0.156926 6:-0.553211 7:-0.035063 8:-0.364542 9:-0.703284 10:-0.283878 
-1.000000 1:-0.039931 2:-0.263724 3:-0.287992 4:-0.208123 5:-0.035280 6:0.236626 7:0.596579 8:1.465418 9:1.670052 10:-0.347844 
-0.168234 1:-0.183550 2:-0.508898 3:-0.544167 4:-0.189190 5:0.765554 6:1.631029 7:3.198942 8:2.432983 9:0.204549 10:-0.348947 
-1.000000 1:-1.095953 2:-0.745317 3:-0.445002 4:-0.435321 5:-0.481314 6:-0.904249 7:-0.978314 8:-0.329485 9:0.081343 10:-0.189032 
-1.000000 1:-1.484569 2:-1.086810 3:-0.990406 4:-1.060116 5:-1.525440 6:-1.918361 7:-2.073159 8:-1.079699 9:-0.910789 10:0.309460 
-0.711990 1:-2.498350 2:-2.111289 3:-1.866356 4:-2.110907 5:-2.518879 6:-2.883717 7:-2.915348 8:-2.531046 9:-2.343869 10:-0.000000 
-1.000000 1:-0.318720 2:-1.016760 3:-1.064779 4:-1.145315 5:-1.089543 6:-0.572713 7:-0.077172 8:-0.385576 9:-1.650025 10:-0.483863 
-1.000000 1:-0.470788 2:-1.419547 3:-1.428381 4:-1.713311 5:-2.123531 6:-2.542430 7:-2.561629 8:-2.033241 9:-1.838076 10:-0.323949 
-1.000000 1:3.280203 2:3.571508 3:2.802626 4:2.328922 5:1.394057 6:0.743682 7:0.503938 8:0.701182 9:0.509322 10:0.039627 
-1.000000 1:0.441616 2:0.585631 3:0.538376 4:0.426138 5:0.055954 6:-0.192421 7:-0.708814 8:-0.820279 9:-1.215562 10:-0.342330 
-1.000000 1:-1.780255 2:-1.577159 3:-1.395326 4:-1.419846 5:-1.626811 6:-2.054876 7:-2.064737 8:-1.079699 9:-0.781098 10:0.087418 
-0.244680 1:0.365582 2:0.147820 3:0.149983 4:0.501871 5:0.542537 6:0.402394 7:-0.127703 8:0.154297 9:1.099414 10:-0.688628 
-1.000000 1:1.235744 2:0.550606 3:0.108665 4:0.132674 5:0.258697 6:-0.280181 7:-0.338251 8:-0.680052 9:-0.288275 10:0.430039 
-0.337676 1:1.860910 2:1.592598 3:0.397894 4:0.236806 5:0.431028 6:1.231235 7:1.607206 8:1.156919 9:0.846517 10:-0.469526 
-1.000000 1:-0.352513 2:-0.272480 3:-0.263201 4:-0.179723 5:0.005269 6:0.295132 7:0.276547 8:-0.553848 9:0.107281 10:-0.195282 
-0.352001 1:1.168159 2:0.279163 3:-0.436739 4:-1.041183 5:-1.332834 6:-1.625829 7:-1.609956 8:-0.897404 9:-0.430934 10:-0.686789 
-1.000000 1:1.649705 2:1.750211 3:1.224262 4:1.382263 5:1.323097 6:1.075218 7:-0.077172 8:-1.514402 9:-1.351737 10:0.158001 
-1.000000 1:-1.146642 2:-0.894173 3:-0.775550 4:-0.738252 5:-0.734743 6:-0.855494 7:-0.784611 8:-0.035009 9:-0.722738 10:-0.080585 
-0.591187 1:1.269537 2:1.417474 3:1.571337 4:1.912392 5:1.860365 6:1.240986 7:0.621845 8:0.224411 9:-0.670861 10:-0.403355 
-1.000000 1:0.686613 2:1.496280 3:2.042367 4:2.707586 5:2.123931 6:1.084969 7:0.242860 8:-0.666030 9:-0.249367 10:-0.432397 
-1.000000 1:0.154378 2:-0.132380 3:-0.188828 4:-0.160790 5:0.349931 6:0.763184 7:0.605001 8:0.210388 9:0.716827 10:-0.355932 
-1.000000 1:-0.496132 2:0.165332 3:0.637541 4:0.757469 5:0.694594 6:0.548660 7:0.335501 8:-0.687064 9:-0.359604 10:-0.047499 
-1.000000 1:-0.926989 2:-0.710292 3:-0.767286 4:-0.690919 5:-0.450903 6:-0.172919 7:-0.296141 8:-0.329485 9:-0.547656 10:-0.250425 
-1.000000 1:0.019207 2:-0.412580 3:-0.618540 4:-0.662519 5:-0.521863 6:-0.709228 7:-0.868829 8:-1.311073 9:-1.040479 10:-0.398576 
-0.773295 1:0.374030 2:-0.079843 3:-0.164037 4:-0.425855 5:-0.511726 6:-0.250928 7:0.689220 8:-0.546837 9:-0.651408 10:-0.432029 
-1.000000 1:-0.082171 2:-0.438848 3:-0.461530 4:-0.350122 5:0.025543 6:-0.055906 7:-0.296141 8:-0.070066 9:-0.048347 10:-0.335345 
-1.000000 1:-0.783370 2:-1.016760 3:-0.973878 4:-1.116916 5:-1.424068 6:-1.469812 7:-1.475205 8:-0.694075 9:-1.066417 10:-0.372475 
-1.000000 1:-0.715785 2:-0.508898 3:-0.221883 4:-0.283856 5:-1.018583 6:-1.265039 7:-0.843564 8:0.890488 9:1.378248 10:-0.401884 
-1.000000 1:-1.079056 2:-0.797854 3:-0.610276 4:-0.577320 5:-0.461040 6:-0.806739 7:-0.868829 8:-0.070066 9:-0.028894 10:-0.143080 
-1.000000 1:-0.910093 2:-0.964222 3:-1.039988 4:-1.221048 5:-1.474754 6:-1.772095 7:-1.845768 8:-1.318084 9:-0.800552 10:-0.415854 
-1.000000 1:0.281100 2:-0.106111 3:-0.428475 4:-0.605720 5:-0.643508 6:-0.845743 7:-0.565641 8:0.000048 9:0.113766 10:-0.024706 
-1.000000 1:0.357134 2:-0.088599 3:-0.345838 4:-0.567854 5:-0.785428 6:-0.796988 7:-0.540376 8:-0.049032 9:0.891909 10:-0.547462 
-0.740583 1:2.012977 2:2.415685 3:1.430854 4:1.685194 5:2.113794 6:2.498875 7:3.047348 8:1.374271 9:2.214752 10:-0.590473 
-1.000000 1:-0.935437 2:-0.622729 3:-0.436739 4:-0.350122 5:-0.167063 6:0.236626 7:1.657737 8:1.780928 9:1.196681 10:-0.441955 
-0.106361 1:-0.969230 2:-0.648998 3:-0.370629 4:-0.179723 5:0.035680 6:0.236626 7:0.377610 8:0.981635 9:2.519524 10:-0.659953 
-1.000000 1:0.880921 2:0.874587 3:1.108571 4:1.410663 5:1.333234 6:0.792437 7:-0.026641 8:0.245445 9:0.379631 10:-0.659953 
-1.000000 1:0.466960 2:0.130307 3:0.009500 4:-0.028258 5:0.451303 6:0.743682 7:0.933455 8:-0.420633 9:-0.359604 10:0.003600 
-1.000000 1:0.787991 2:0.822050 3:0.662332 4:0.577603 5:0.481714 6:0.246377 7:-0.388782 8:-0.077077 9:0.048921 10:-0.383503 
-1.000000 1:-0.513029 2:-0.097355 3:0.447476 4:1.183465 5:1.485291 6:1.279991 7:0.596579 8:-0.245349 9:0.671435 10:-0.576504 
-1.000000 1:0.365582 2:0.287919 3:0.290466 4:0.265206 5:0.126914 6:0.685175 7:1.135580 8:0.988647 9:0.165642 10:-0.098598 
-0.679252 1:-0.766474 2:-0.456361 3:-0.164037 4:0.189473 5:0.471577 6:0.860695 7:1.489299 8:3.288367 9:3.031802 10:-0.581283 
-1.000000 1:-2.059045 2:-1.445815 3:-1.064779 4:-1.126382 5:-1.272011 6:-1.372301 7:-0.835142 8:-0.147190 9:0.943785 10:-0.254101 
-1.000000 1:2.342456 2:1.785236 3:1.257317 4:1.221331 5:0.968297 6:0.304884 7:0.108110 8:0.631068 9:0.768703 10:-0.630544 
-1.000000 1:-0.910093 2:-0.281236 3:0.364839 4:1.126666 5:1.414331 6:0.636420 7:0.310235 8:-0.140179 9:0.042436 10:-0.579077 
-1.000000 1:0.754198 2:0.401750 3:0.174774 4:0.123207 5:0.238423 6:0.246377 7:0.773439 8:0.736239 9:1.890525 10:-0.498568 
-1.000000 1:-0.555269 2:-0.587704 3:-0.643331 4:-0.605720 5:-0.278571 6:0.100111 7:0.284969 8:-0.056043 9:-0.197491 10:-0.352256 
-1.000000 1:-1.028367 2:-0.815366 3:-0.635067 4:-0.482654 5:-0.197474 6:-0.172919 7:-0.287719 8:-0.287417 9:0.742765 10:-0.246749 
-1.000000 1:-1.281813 2:-0.894173 3:-0.907769 4:-0.955984 5:-1.261874 6:-0.982258 7:-1.374143 8:-0.490746 9:-0.191007 10:0.098079 
-0.170415 1:-0.352513 2:-0.543923 3:-0.568958 4:-0.804518 5:-1.099680 6:-1.118773 7:-0.633017 8:0.287513 9:1.002146 10:-0.515479 
-1.000000 1:-0.115964 2:-0.797854 3:-0.990406 4:-1.164249 5:-1.353108 6:-1.694086 7:-1.837347 8:-1.269005 9:-1.053448 10:-0.501509 
-1.000000 1:-0.960782 2:-0.972979 3:-0.891241 4:-0.823451 5:-0.856388 6:-1.001760 7:-0.338251 8:-0.406610 9:-0.437419 10:0.089623 
-1.000000 1:0.162826 2:0.787025 3:0.670595 4:0.397738 5:-0.116377 6:0.334137 7:0.748173 8:0.140275 9:-0.022409 10:0.621569 
-1.000000 1:-1.155090 2:-0.955466 3:-0.924296 4:-0.757185 5:-0.592823 6:-0.309434 7:0.242860 8:-0.217304 9:0.872455 10:0.064993 
-1.000000 1:-0.487684 2:-0.228699 3:-0.007027 4:0.274673 5:0.654046 6:0.948454 7:1.110314 8:0.210388 9:0.262910 10:-0.153373 
-1.000000 1:-0.377858 2:0.585631 3:-0.048345 4:0.000142 5:-0.085966 6:0.051356 7:0.655532 8:2.236666 9:1.760835 10:-0.475408 
-1.000000 1:0.551442 2:1.723942 3:1.092043 4:1.278131 5:1.302822 6:0.870446 7:1.556674 8:1.914144 9:0.853002 10:-0.342330 
-1.000000 1:-0.741129 2:-0.578948 3:-0.502848 4:-0.596253 5:-0.602960 6:-0.475202 7:-0.355094 8:0.252456 9:0.048921 10:-0.383503 
-1.000000 1:-1.349398 2:-0.999247 3:-0.659858 4:-0.340655 5:0.076229 6:0.694926 7:1.270330 8:0.553944 9:1.793258 10:-0.592311 
-0.059380 1:-0.403202 2:-0.491386 3:-0.651594 4:-0.757185 5:-0.734743 6:-0.504455 7:1.261908 8:1.731849 9:3.595955 10:-0.716567 
-1.000000 1:0.399375 2:-0.237455 3:-0.329311 4:-0.416388 5:-0.471177 6:-0.631219 7:-0.717235 8:-1.135790 9:-1.008057 10:-0.264027 
-0.749147 1:-0.149757 2:-0.316261 3:-0.395420 4:-0.444788 5:-0.390080 6:0.304884 7:0.141797 8:0.715204 9:0.340724 10:-0.341227 
-0.291886 1:-1.585947 2:-1.244422 3:-1.147416 4:-1.325181 5:-1.495028 6:-1.294292 7:-0.894095 8:-1.591527 9:-1.494396 10:-0.716567 
-0.834691 1:2.579005 2:2.853496 3:2.777835 4:3.171448 5:3.360662 6:2.976677 7:1.809331 8:1.738860 9:1.300434 10:-0.715096 
-1.000000 1:0.019207 2:-0.395067 3:-0.626803 4:-0.643586 5:-0.410354 6:0.012351 7:1.118736 8:0.063150 9:-0.113192 10:-0.315861 
-1.000000 1:-0.006138 2:0.699462 3:1.356481 4:1.798793 5:1.718445 6:1.397004 7:0.377610 8:-0.483735 9:-0.359604 10:-0.223589 
-1.000000 1:0.120585 2:-0.044818 3:0.100401 4:0.378805 5:0.471577 6:0.714429 7:0.849236 8:-0.827291 9:-1.092356 10:-0.364387 
-1.000000 1:1.362467 2:1.224837 3:0.711914 4:0.322006 5:-0.268434 6:-0.748232 7:-0.388782 8:-0.834302 9:-0.657892 10:-0.677599 
-1.000000 1:-1.095953 2:-0.727804 3:-0.734231 4:-0.747719 5:-1.059131 6:-1.479563 7:-1.306768 8:-1.325096 9:-1.260953 10:0.021981 
-1.000000 1:-1.070608 2:-0.710292 3:-0.370629 4:0.047475 5:-0.248160 6:-0.572713 7:-0.599329 8:-0.518792 9:-0.294759 10:-0.460336 
-0.717713 1:-0.926989 2:-0.535167 3:-0.296256 4:-0.018791 5:0.623634 6:1.094720 7:2.592566 8:5.910608 9:5.424591 10:-0.650027 
-1.000000 1:0.711957 2:0.681950 3:-0.081400 4:-0.463721 5:-0.613097 6:-0.533709 7:-1.012002 8:-0.834302 9:-1.098840 10:-0.459600 
-0.805944 1:2.334008 2:2.021654 3:1.414327 4:1.202398 5:1.089943 6:1.192231 7:0.992408 8:0.168320 9:0.781672 10:-0.576871 
-0.307987 1:-0.817163 2:-0.465117 3:-0.279729 4:-0.757185 5:-1.484891 6:-2.093880 7:-2.241597 8:-1.928071 9:-1.591664 10:-0.573930 
-1.000000 1:-0.884748 2:-0.684023 3:-0.519375 4:-0.378522 5:0.096503 6:0.295132 7:0.781861 8:0.981635 9:0.450961 10:-0.225794 
-1.000000 1:-0.352513 2:0.042745 3:0.298729 4:0.340939 5:-0.096103 6:-0.377692 7:-0.574063 8:-0.904415 9:-1.254469 10:-0.207046 
-1.000000 1:-1.281813 2:-1.095566 3:-0.750759 4:-0.795052 5:-0.856388 6:-0.748232 7:-0.506688 8:-0.560860 9:0.074859 10:-0.249690 
-1.000000 1:0.390927 2:0.235382 3:0.166510 4:0.596537 5:0.613497 6:1.279991 7:1.472455 8:0.771295 9:0.567683 10:-0.155579 
-0.118679 1:0.255756 2:-0.500142 3:-0.602012 4:-0.671986 5:-0.592823 6:0.197622 7:0.343922 8:-1.283028 9:-1.040479 10:-0.511435 
-1.000000 1:-0.614407 2:-0.412580 3:-0.577221 4:-0.643586 5:-0.866525 6:-0.777486 7:-0.574063 8:-0.259372 9:0.386116 10:-0.381297 
-1.000000 1:-0.546821 2:-0.885416 3:-1.064779 4:-1.381980 5:-1.545714 6:-1.879357 7:-2.090003 8:-1.745776 9:-1.118294 10:-0.564372 
-1.000000 1:1.117470 2:1.399961 3:0.951561 4:0.795335 5:1.120354 6:1.182480 7:0.891345 8:1.787940 9:1.909979 10:-0.197120 
-1.000000 1:0.796439 2:0.051501 3:-0.180564 4:-0.132391 5:-0.268434 6:-0.328936 7:-0.649860 8:-1.128778 9:-0.755160 10:0.066463 
-1.000000 1:-1.003023 2:-0.272480 3:0.232620 4:0.539737 5:1.018983 6:0.958205 7:1.438768 8:1.514497 9:0.872455 10:-0.234617 
-0.079516 1:2.232629 2:2.441953 3:2.554716 4:2.707586 5:1.850228 6:0.382892 7:-1.096220 8:-1.801867 9:-1.864014 10:-0.700759 
-0.356597 1:-0.893197 2:-0.360042 3:0.240884 4:0.729069 5:1.130491 6:1.377501 7:0.967142 8:0.161309 9:0.327755 10:-0.460336 
-1.000000 1:-1.214227 2:-1.095566 3:-0.940824 4:-0.993850 5:-0.846251 6:-0.757983 7:-0.641438 8:-0.455689 9:-0.139131 10:-0.316596 
-1.000000 1:-0.115964 2:-0.263724 3:-0.428475 4:-0.406922 5:-0.582686 6:-0.543460 7:-0.397204 8:1.304157 9:0.048921 10:-0.312920 
-1.000000 1:-0.681992 2:-0.395067 3:-0.155773 4:-0.141857 5:-0.096103 6:-0.445949 7:-1.129908 8:-0.960506 9:-1.364706 10:-0.178004 
-1.000000 1:-0.986127 2:-0.911685 3:-0.717704 4:-0.463721 5:-0.400217 6:-0.592215 7:-0.868829 8:-1.423255 9:-1.170170 10:-0.423941 
-0.979888 1:1.759531 2:0.979662 3:0.356575 4:0.075874 5:0.025543 6:0.880197 7:1.261908 8:0.701182 9:0.010014 10:-0.421368 
-0.360239 1:4.361570 2:4.210713 3:3.232338 4:3.493312 5:2.945039 6:2.372111 7:1.270330 8:0.764284 9:-0.145615 10:-0.709582 
-1.000000 1:-1.104401 2:-0.754073 3:-0.411948 4:0.189473 5:0.410754 6:0.665673 7:0.099688 8:-0.771200 9:-0.716253 10:-0.118817 
-0.093226 1:0.069896 2:1.067224 3:0.554904 4:0.861601 5:1.171040 6:2.040574 7:1.994612 8:2.622289 9:1.060506 10:-0.480187 
-1.000000 1:-1.721118 2:-1.113078 3:-0.643331 4:-0.511054 5:-1.444342 6:-1.996370 7:-2.174222 8:-2.229559 9:-1.721354 10:0.523782 
-1.000000 1:-0.563718 2:-0.526411 3:-0.436739 4:-0.548920 5:-0.785428 6:-1.079769 7:-1.609956 8:-1.787844 9:-1.656509 10:-0.217339 
-1.000000 1:-0.420099 2:-0.298748 3:-0.263201 4:-0.728786 5:-1.353108 6:-1.469812 7:-1.079377 8:-0.946483 9:-0.774614 10:-0.323949 
-1.000000 1:-0.597510 2:-0.342530 3:-0.130982 4:0.085341 5:0.076229 6:-0.007151 7:-0.355094 8:0.091195 9:-0.074285 10:-0.121390 
-0.356340 1:-2.135079 2:-1.647209 3:-1.378799 4:-1.353580 5:-1.170640 6:-1.138275 7:-0.127703 8:1.886098 9:2.707575 10:-0.673188 
-1.000000 1:0.129033 2:0.261651 3:0.381366 4:0.615470 5:0.522263 6:0.363390 7:0.200750 8:1.367259 9:2.149906 10:-0.083158 
-1.000000 1:1.041436 2:0.813293 3:0.835869 4:1.069866 5:1.272411 6:0.782686 7:-0.203500 8:0.266479 9:0.139704 10:-0.691569 
-0.444594 1:1.801772 2:2.678372 3:1.934939 4:1.912392 5:2.569965 6:3.590995 7:3.308427 8:2.867686 9:1.890525 10:-0.716934 
-1.000000 1:-0.031482 2:-0.508898 3:-0.659858 4:-0.757185 5:-0.886800 6:-1.157777 7:-1.214127 8:-0.757177 9:-0.657892 10:-0.000000 
-1.000000 1:-0.639751 2:-0.106111 3:0.141719 4:0.454538 5:0.654046 6:0.733931 7:0.141797 8:-0.161213 9:0.574167 10:-0.507759 
-1.000000 1:0.416271 2:0.366725 3:0.629277 4:0.681736 5:0.552674 6:0.470652 7:0.967142 8:0.469808 9:0.755734 10:-0.414383 
