svm_type c_svc
kernel_type rbf
gamma 0.031250
nr_class 2
total_sv 152
rho 2.272290 
probA -0.832227
probB 0.332754
label 1 0 
nr_sv 71 81 
SV
10.684528 1:1.015563 2:1.670432 3:1.269566 4:1.102871 5:1.121485 6:0.196709 7:0.486699 8:1.332624 9:3.256973 10:0.363765 
90.069547 1:0.075870 2:-0.360390 3:-0.574634 4:-0.679980 5:-0.637875 6:-0.497847 7:0.190933 8:0.239657 9:0.949916 10:0.052562 
440.532548 1:-0.072045 2:-0.851867 3:-0.873463 4:-0.856306 5:-1.109132 6:-0.547458 7:0.376843 8:0.608620 9:1.295016 10:-0.164687 
1024.000000 1:-1.351072 2:-1.092969 3:-0.873463 4:-0.836714 5:-0.868267 6:-0.825281 7:-0.848473 8:-1.152657 9:-0.781976 10:-0.160845 
1024.000000 1:0.119374 2:0.158907 3:-0.147736 4:-0.141206 5:-0.637875 6:-1.013803 7:-1.101986 8:-1.222273 9:-0.794757 10:-0.467160 
12.842927 1:1.972659 2:1.865168 3:1.158573 4:0.642464 5:-0.009532 6:-0.061269 7:-0.840022 8:-0.651424 9:-0.456048 10:4.232684 
480.250143 1:0.928555 2:0.585472 3:0.279162 4:0.005732 5:-0.334176 6:-0.755825 7:-0.890725 8:-0.505231 9:-0.788366 10:-0.364822 
1024.000000 1:0.006263 2:0.483467 3:1.064655 4:1.445727 5:1.550853 6:1.526288 7:0.131780 8:0.232695 9:0.067993 10:-0.269470 
1024.000000 1:0.423905 2:0.335097 3:0.125479 4:-0.111819 5:-0.239925 6:-0.825281 7:-0.594959 8:-0.936849 9:-1.024824 10:-0.256547 
216.708570 1:-0.098147 2:0.622565 3:1.397636 4:2.670212 5:2.933207 6:1.030177 7:0.334591 8:-0.679270 9:-1.012042 10:-0.090641 
1024.000000 1:0.658828 2:0.205273 3:0.040099 4:0.133078 5:-0.145673 6:-0.339092 7:-0.197788 8:-0.379923 9:-0.897009 10:-0.422452 
25.334293 1:-0.498387 2:-0.870414 3:-0.685628 4:-0.562429 5:-0.616930 6:-0.656603 7:-1.085085 8:-1.124811 9:-1.830057 10:-0.017643 
4.914455 1:0.362998 2:0.400009 3:0.082789 4:-0.151002 5:-0.145673 6:-0.894737 7:-1.423103 8:-0.219807 9:0.528127 10:-0.173769 
1024.000000 1:1.259188 2:1.058403 3:0.279162 4:-0.102023 5:-0.334176 6:-0.745903 7:-0.806220 8:-1.452005 9:-1.612772 10:-0.474494 
244.545469 1:-0.420079 2:0.539106 3:1.406174 4:1.377155 5:0.796841 6:0.414998 7:-0.113283 8:0.956699 9:2.208892 10:-0.767536 
1024.000000 1:-0.785516 2:-0.582946 3:-0.284343 4:0.142874 5:0.650228 6:0.821810 7:0.486699 8:0.351042 9:0.413093 10:-0.444457 
1024.000000 1:-0.628900 2:-0.499487 3:-0.327033 4:-0.307736 5:-0.459845 6:-0.597070 7:-1.262545 8:-1.507697 9:-1.254890 10:-0.112296 
1024.000000 1:-0.454883 2:-0.388209 3:-0.617324 4:-0.719163 5:-0.826378 6:-0.815359 7:-0.442851 8:-0.017921 9:0.866836 10:-0.601630 
679.493080 1:-1.420679 2:-1.436076 3:-1.334513 4:-1.453855 5:-1.611806 6:-1.787738 7:-2.014635 8:-2.036777 9:-1.727805 10:-0.267374 
1024.000000 1:1.015563 2:0.529833 3:-0.079432 4:-0.405695 5:-0.753071 6:-0.835203 7:-0.814671 8:-1.020387 9:-0.730850 10:-0.321861 
1024.000000 1:0.215084 2:0.233092 3:0.040099 4:0.280017 5:0.807314 6:1.466755 7:1.796519 8:-0.226768 9:-0.034259 10:-0.734704 
1024.000000 1:0.606623 2:-0.416029 3:-0.762469 4:-0.885693 5:-0.627403 6:-0.587147 7:-0.738617 8:-0.184999 9:-0.507174 10:-0.268422 
1024.000000 1:0.563118 2:0.557653 3:0.347466 4:0.466138 5:0.692117 6:0.792043 7:0.469798 8:-0.310307 9:0.170245 10:-0.371458 
10.856577 1:-0.072045 2:0.260912 3:-0.087970 4:-0.190186 5:-0.198035 6:0.028031 7:0.114879 8:-0.386884 9:-1.433831 10:4.335720 
1024.000000 1:0.824144 2:0.084722 3:-0.318495 4:-0.542837 5:-0.637875 6:-0.606992 7:-0.535806 8:-0.157153 9:-0.475220 10:-0.229653 
361.586041 1:2.007462 2:2.217548 3:1.687927 4:1.465318 5:1.111013 6:0.206631 7:0.131780 8:0.636466 9:0.080775 10:-0.413721 
1024.000000 1:-1.020439 2:-0.963145 3:-0.805159 4:-0.973856 5:-1.444248 6:-1.867116 7:-1.913230 8:-1.591236 9:-1.190983 10:-0.081909 
353.659432 1:-1.264063 2:-1.055877 3:-0.788083 4:-0.679980 5:-0.501734 6:-1.073337 7:-1.507608 8:-1.535544 9:-1.695852 10:-0.081560 
1.116811 1:3.312592 2:4.888217 3:5.120189 4:5.834282 5:5.383744 6:3.322213 7:1.221888 8:0.914929 9:0.969088 10:-0.493704 
68.682288 1:2.024864 2:2.829576 3:2.755172 4:3.424495 5:2.681870 6:2.111700 7:1.864123 8:1.785126 9:1.473956 10:-0.211490 
727.044542 1:-0.028540 2:0.019810 3:0.031561 4:0.074303 5:-0.355121 6:-0.011658 7:0.681059 8:-0.442577 9:-0.507174 10:-0.234542 
1024.000000 1:-0.176455 2:-0.119288 3:0.091327 4:0.123283 5:-0.166618 6:-0.626836 7:-0.755518 8:-0.630539 9:-0.289888 10:-0.422452 
1024.000000 1:1.224384 2:0.835847 3:0.680447 4:0.642464 5:0.734007 6:0.752354 7:0.469798 8:0.197887 9:0.099947 10:-0.474844 
502.519944 1:-0.367874 2:-0.555126 3:-0.625862 4:-0.679980 5:-0.449372 6:-0.339092 7:0.596555 8:-0.310307 9:0.445047 10:-0.121727 
1024.000000 1:-0.802917 2:-0.759136 3:-0.788083 4:-0.768143 5:-0.962519 6:-1.182481 7:-1.228743 8:-0.665347 9:0.163854 10:-0.369363 
590.889563 1:-0.872524 2:-1.306252 3:-1.180830 4:-1.150182 5:-1.098660 6:-1.321393 7:-1.642815 8:-1.340620 9:-1.012042 10:-0.183898 
49.506007 1:-0.463584 2:-0.184200 3:0.074251 4:0.436751 5:0.430308 6:-0.319247 7:-0.611860 8:-0.867233 9:-0.718068 10:-0.011705 
99.009311 1:1.807342 2:1.141862 3:0.757288 4:0.593485 5:0.775896 6:0.990488 7:1.390898 8:1.276931 9:1.525082 10:-0.074575 
1024.000000 1:-0.698507 2:-0.323297 3:-0.301419 4:-0.151002 5:-0.218980 6:-0.249791 7:-0.442851 8:-0.087537 9:0.016867 10:-0.098675 
788.833989 1:0.537016 2:0.316551 3:-0.002590 4:-0.111819 5:-0.145673 6:-0.220025 7:-0.417499 8:1.583240 9:1.448393 10:-0.313129 
1024.000000 1:-1.229260 2:-1.046604 3:-0.924691 4:-0.807326 5:-0.470317 6:-0.587147 7:0.038825 8:0.525081 9:-0.257935 10:-0.035805 
716.037052 1:-0.098147 2:0.093995 3:0.441384 4:1.191034 5:1.236681 6:0.762276 7:0.799366 8:1.478817 9:0.834882 10:-0.392065 
72.334227 1:1.963958 2:1.308778 3:1.158573 4:1.582869 5:2.095417 6:2.240689 7:2.438754 8:2.390782 9:2.157766 10:-0.444457 
1024.000000 1:0.006263 2:-0.054376 3:0.142555 4:0.338792 5:0.807314 6:1.724733 7:1.619060 8:0.469389 9:0.828491 10:-0.326402 
1024.000000 1:0.154178 2:0.186726 3:0.262086 4:0.583689 5:0.974872 6:1.159166 7:0.224735 8:-0.832425 9:-0.341014 10:-0.097627 
245.282427 1:1.146076 2:1.039857 3:0.834130 4:0.662056 5:0.796841 6:0.702743 7:0.241636 8:-0.052729 9:0.061602 10:-0.308938 
1024.000000 1:-0.393977 2:-0.360390 3:-0.301419 4:-0.121615 5:0.357001 6:0.821810 7:1.357096 8:1.868664 9:2.023560 10:-0.395558 
1024.000000 1:-0.959533 2:-0.722043 3:-0.642938 4:-0.454675 5:-0.208507 6:0.305854 7:0.993726 8:0.406735 9:-0.296279 10:-0.205902 
553.928536 1:0.798042 2:0.808028 3:0.373080 4:0.348588 5:0.283695 6:0.921032 7:1.162735 8:1.158584 9:-0.155683 10:-0.223366 
1024.000000 1:0.545717 2:0.029083 3:-0.190426 4:-0.376307 5:-0.679765 6:-0.507770 7:-0.831572 8:-0.936849 9:-0.494392 10:-0.539809 
1024.000000 1:-0.124250 2:-0.805501 3:-1.027146 4:-1.326508 5:-1.548972 6:-1.371004 7:-1.211842 8:-0.957733 9:-1.063168 10:-0.316622 
1024.000000 1:-0.202558 2:-0.647858 3:-0.864925 4:-1.169774 5:-1.507083 6:-1.936571 7:-1.676617 8:-1.152657 9:-1.203765 10:-0.111248 
1024.000000 1:-0.124250 2:-0.388209 3:-0.753931 4:-0.866102 5:-0.522679 6:-0.021580 7:0.605005 8:-0.226768 9:-0.622207 10:-0.444457 
1024.000000 1:-1.246662 2:-1.130062 3:-0.924691 4:-0.885693 5:-0.690237 6:-0.220025 7:-0.332995 8:-0.407769 9:-0.270716 10:-0.558320 
1024.000000 1:0.876350 2:0.149634 3:-0.062356 4:-0.043247 5:0.419836 6:0.861499 7:0.435996 8:-0.164114 9:-0.481611 10:-0.074924 
804.869156 1:0.188981 2:0.427828 3:0.390156 4:0.534710 5:0.639756 6:0.752354 7:1.281042 8:0.170041 9:0.623988 10:-0.290077 
429.550498 1:-1.090046 2:-0.805501 3:-0.711242 4:-0.523246 5:-0.910157 6:-0.120802 7:0.579654 8:0.984545 9:1.020214 10:0.000000 
1024.000000 1:-1.133550 2:-0.749863 3:-0.412413 4:-0.317532 5:-0.344648 6:-0.775670 7:-1.440004 8:-1.396312 9:-1.542474 10:-0.163989 
1024.000000 1:-1.107448 2:-0.777682 3:-0.463641 4:-0.454675 5:-0.501734 6:-0.914581 7:-0.975229 8:-0.331192 9:0.055212 10:-0.228954 
1024.000000 1:0.241186 2:-0.045103 3:-0.070894 4:-0.033452 5:0.241805 6:0.424920 7:0.385294 8:0.093464 9:0.617597 10:-0.275408 
828.311736 1:1.189581 2:1.828075 3:0.782902 4:0.603281 5:0.503615 6:0.543987 7:1.188087 8:1.311739 9:0.866836 10:-0.457380 
478.428472 1:0.223785 2:-0.017283 3:-0.002590 4:0.407363 5:0.817786 6:0.573754 7:1.069780 8:1.423124 9:1.486738 10:-0.195074 
992.057963 1:-0.533191 2:-0.935326 3:-0.771007 4:-0.513450 5:0.042830 6:0.514221 7:-0.206238 8:-0.964695 9:-1.325189 10:-0.245021 
2.114443 1:-0.167754 2:-0.045103 3:0.151093 4:0.662056 5:1.194792 6:1.417144 7:0.706411 8:-0.066652 9:-0.865055 10:0.454926 
538.038638 1:-1.020439 2:-1.009511 3:-0.847849 4:-0.660388 5:-0.281814 6:-0.110880 7:-0.096382 8:0.267503 9:1.525082 10:-0.269470 
16.716253 1:2.512112 2:2.301006 3:1.747692 4:1.416339 5:0.315112 6:-0.478003 7:-0.324545 8:-0.553962 9:-1.248500 10:-0.066891 
1024.000000 1:-0.202558 2:-0.416029 3:-0.685628 4:-0.973856 5:-1.329052 6:-1.400771 7:-1.203392 8:-1.110888 9:-0.973698 10:-0.601630 
1024.000000 1:0.432605 2:0.029083 3:-0.292881 4:-0.248961 5:-0.072366 6:-0.021580 7:-0.248490 8:0.253580 9:0.419484 10:-0.655070 
302.403714 1:2.642625 2:1.364417 3:0.663371 4:0.485730 5:0.409363 6:0.940877 7:0.292339 8:0.608620 9:1.109684 10:-0.159099 
745.963426 1:-1.368474 2:-0.944599 3:-0.967381 4:-1.385283 5:-1.884088 6:-2.075482 7:-1.710419 8:-1.020387 9:-0.200418 10:-0.165037 
688.075495 1:-1.090046 2:-1.324798 3:-1.291823 4:-1.483242 5:-1.936450 6:-2.174705 7:-1.854077 8:-0.748886 9:0.106338 10:-0.530378 
-18.149118 1:-2.516988 2:-2.159382 3:-1.838253 4:-1.982832 5:-2.208732 6:-2.422761 7:-2.225897 8:-2.148162 9:-1.862011 10:-0.618396 
-587.275788 1:-1.307568 2:-1.510261 3:-1.360127 4:-1.444059 5:-1.528027 6:-1.410693 7:-1.270995 8:-1.048234 9:-0.820320 10:-0.507675 
-11.634715 1:1.650727 2:1.744617 3:2.020907 4:2.082459 5:2.304864 6:1.198855 7:0.740213 8:0.664313 9:0.413093 10:-0.470652 
-110.957858 1:-0.280866 2:-0.397483 3:-0.301419 4:-0.131410 5:0.535032 6:0.891265 7:1.669763 8:1.353508 9:1.218327 10:-0.571942 
-556.684486 1:-0.089447 2:-0.174927 3:-0.198964 4:0.015528 5:0.304639 6:0.762276 7:1.002177 8:-0.449539 9:-0.526346 10:-0.511518 
-1024.000000 1:-0.829020 2:-0.731316 3:-0.685628 4:-0.699572 5:-0.983464 6:-1.529760 7:-1.828725 8:-1.605159 9:-0.833101 10:-0.431184 
-393.766854 1:0.450007 2:0.223819 3:0.193783 4:0.397567 5:1.351877 6:2.736801 7:1.847222 8:0.420658 9:0.330014 10:-0.275757 
-110.237866 1:-0.280866 2:0.056902 3:0.296238 4:1.063687 5:1.519436 6:1.357610 7:0.926123 8:0.894045 9:0.886008 10:-0.719336 
-1024.000000 1:0.771939 2:0.557653 3:0.219397 4:0.211445 5:0.147554 6:0.067720 7:0.393744 8:0.058656 9:0.496173 10:-0.352597 
-417.324842 1:1.763838 2:1.225320 3:0.646295 4:0.720831 5:0.943455 6:0.930954 7:0.613456 8:1.444009 9:1.109684 10:-0.638304 
-1024.000000 1:-0.446182 2:-0.555126 3:-0.694166 4:-0.895489 5:-1.077715 6:-1.301548 7:-0.856923 8:-0.345115 9:0.687895 10:-0.589406 
-491.913173 1:-0.185156 2:-0.017283 3:0.313314 4:0.573893 5:1.498491 6:1.665200 7:0.630357 8:0.302311 9:-0.558300 10:-0.048030 
-1017.913369 1:-0.480985 2:-0.684950 3:-0.779545 4:-1.199162 5:-1.559445 6:-1.896882 7:-1.473806 8:-1.236196 9:-0.960916 10:-0.549938 
-265.991350 1:0.275990 2:0.316551 3:-0.105046 4:-0.229369 5:-0.533151 6:-0.745903 7:-0.713265 8:-1.145696 9:-0.564690 10:-0.577181 
-1024.000000 1:0.702332 2:0.093995 3:-0.335571 4:-0.562429 5:-0.459845 6:0.196709 7:0.123330 8:0.149157 9:0.349186 10:-0.347009 
-471.662847 1:0.493511 2:0.010536 3:-0.284343 4:-0.376307 5:-0.376065 6:-0.249791 7:-0.738617 8:-0.595732 9:-0.960916 10:-0.493355 
-217.117838 1:-1.690406 2:-1.547354 3:-1.308899 4:-1.287325 5:-1.088187 6:-0.974115 7:-1.169590 8:-0.581808 9:0.253325 10:-0.582071 
-54.508697 1:1.267888 2:0.585472 3:0.313314 4:0.426955 5:0.294167 6:0.474532 7:0.351492 8:1.457932 9:1.684851 10:-0.439916 
-198.157465 1:0.345597 2:0.121814 3:0.151093 4:-0.102023 5:-0.543624 6:-1.122948 7:-1.794923 8:-1.674775 9:-1.440222 10:-0.399051 
-402.368089 1:0.919854 2:-0.063649 3:-0.292881 4:-0.346920 5:-0.480789 6:-0.626836 7:-0.763968 8:-1.319735 9:-1.453003 10:-0.348057 
-457.208673 1:0.493511 2:0.131087 3:-0.386799 4:-0.709367 5:-0.952046 6:-1.182481 7:-0.645662 8:-0.400808 9:-1.037605 10:-0.601281 
-825.128523 1:-0.019840 2:-0.267658 3:-0.301419 4:-0.219573 5:-0.040949 6:0.246320 7:0.605005 8:1.450970 9:1.620943 10:-0.379841 
-835.140081 1:-1.507688 2:-1.139335 3:-1.027146 4:-1.101203 5:-1.580389 6:-1.946493 7:-2.073788 8:-1.076080 9:-0.922572 10:0.244663 
-519.089956 1:-0.306968 2:-1.065150 3:-1.103988 4:-1.189366 5:-1.130077 6:-0.577225 7:-0.071031 8:-0.386884 9:-1.651116 10:-0.509073 
-390.934320 1:-0.463584 2:-1.491715 3:-1.479658 4:-1.777119 5:-2.198260 6:-2.581516 7:-2.563915 8:-2.022854 9:-1.836448 10:-0.357138 
-87.963196 1:3.399600 2:3.793985 3:2.891780 4:2.405723 5:1.435656 6:0.762276 7:0.512050 8:0.692159 9:0.477001 10:-0.011705 
-1024.000000 1:0.476110 2:0.631838 3:0.552377 4:0.436751 5:0.053302 6:-0.190258 7:-0.704815 8:-0.818502 9:-1.222937 10:-0.374602 
-1024.000000 1:1.293991 2:0.594745 3:0.108403 4:0.133078 5:0.262750 6:-0.279558 7:-0.332995 8:-0.679270 9:-0.309061 10:0.359225 
-413.561158 1:1.937855 2:1.698251 3:0.407232 4:0.240833 5:0.440780 6:1.258388 7:1.619060 8:1.144661 9:0.809319 10:-0.495451 
-134.360433 1:0.041066 2:-0.239839 3:-0.472179 4:-0.474266 5:-0.103784 6:0.911110 7:0.774014 8:0.079541 9:-0.047040 10:-0.505580 
-382.185758 1:1.224384 2:0.307277 3:-0.455103 4:-1.081611 5:-1.381414 6:-1.648826 7:-1.609013 8:-0.895079 9:-0.449657 10:-0.701872 
-2.566082 1:1.720333 2:1.865168 3:1.261028 4:1.426135 5:1.362350 6:1.099632 7:-0.071031 8:-1.507697 9:-1.357142 10:0.100761 
-57.763869 1:1.111273 2:1.420056 3:0.893896 4:0.711035 5:0.503615 6:0.603521 7:0.089528 8:-0.602693 9:-0.436875 10:-0.723877 
-1024.000000 1:0.180280 2:-0.128561 3:-0.198964 4:-0.170594 5:0.357001 6:0.782121 7:0.613456 8:0.204849 9:0.681504 10:-0.387525 
-902.618348 1:0.041066 2:-0.425302 3:-0.642938 4:-0.689776 5:-0.543624 6:-0.716136 7:-0.865374 8:-1.305812 9:-1.050387 10:-0.428041 
-488.596252 1:0.406503 2:-0.072922 3:-0.173350 4:-0.444879 5:-0.533151 6:-0.249791 7:0.697960 8:-0.547001 9:-0.666942 10:-0.459825 
-398.458917 1:0.771939 2:0.529833 3:0.424308 4:0.730627 5:0.985344 6:1.714811 7:1.086681 8:-0.226768 9:0.451438 10:-0.701872 
-1024.000000 1:-0.063344 2:-0.453121 3:-0.480717 4:-0.366512 5:0.021885 6:-0.051347 7:-0.290743 8:-0.073614 9:-0.072603 10:-0.367966 
-747.805263 1:-0.916029 2:-1.009511 3:-1.078374 4:-1.267733 5:-1.528027 6:-1.797660 7:-1.845626 8:-1.312773 9:-0.813929 10:-0.444457 
-1024.000000 1:0.310793 2:-0.100742 3:-0.446565 4:-0.631000 5:-0.669292 6:-0.855048 7:-0.561157 8:-0.003998 9:0.087165 10:-0.072828 
-400.169677 1:1.459308 2:0.928579 3:0.253548 4:-0.121615 5:0.011413 6:0.325698 7:0.833168 8:0.406735 9:-0.948135 10:-0.645290 
-314.252688 1:-0.942131 2:-0.647858 3:-0.455103 4:-0.366512 5:-0.177090 6:0.246320 7:1.669763 8:1.764241 9:1.154419 10:-0.469255 
-504.406362 1:0.928555 2:0.937852 3:1.141497 4:1.455523 5:1.372822 6:0.811888 7:-0.020328 8:0.239657 9:0.349186 10:-0.676375 
-1024.000000 1:0.502212 2:0.149634 3:0.005947 4:-0.033452 5:0.461725 6:0.762276 7:0.943024 8:-0.421692 9:-0.379359 10:-0.045934 
-18.587809 1:-0.507088 2:-0.091468 3:0.458460 4:1.220421 5:1.529908 6:1.307999 7:0.605005 8:-0.247653 9:0.636769 10:-0.597090 
-116.144923 1:-0.768114 2:-0.471668 3:-0.173350 4:0.191854 5:0.482670 6:0.881343 7:1.500753 8:3.260979 9:2.962999 10:-0.601630 
-112.155960 1:-2.099346 2:-1.519535 3:-1.103988 4:-1.169774 5:-1.318580 6:-1.390848 7:-0.831572 8:-0.150191 9:0.905180 10:-0.290776 
-1024.000000 1:-0.550592 2:-0.610765 3:-0.668552 4:-0.631000 5:-0.292286 6:0.107409 7:0.292339 8:-0.059691 9:-0.219590 10:-0.384032 
-1024.000000 1:-1.298867 2:-0.935326 3:-0.941767 4:-0.993448 5:-1.308107 6:-0.993959 7:-1.372401 8:-0.491308 9:-0.213200 10:0.043830 
-497.757266 1:-0.341772 2:-0.564399 3:-0.591710 4:-0.836714 5:-1.140549 6:-1.132870 7:-0.628761 8:0.281426 9:0.962697 10:-0.539110 
-1024.000000 1:-0.968234 2:-1.018784 3:-0.924691 4:-0.856306 5:-0.889212 6:-1.013803 7:-0.332995 8:-0.407769 9:-0.456048 10:0.035796 
-1024.000000 1:-0.480985 2:-0.230566 3:-0.011128 4:0.280017 5:0.671173 6:0.970643 7:1.120483 8:0.204849 9:0.234152 10:-0.195074 
-602.269912 1:0.589221 2:1.837348 3:1.124421 4:1.318380 5:1.341405 6:0.891265 7:1.568357 8:1.896511 9:0.815710 10:-0.374602 
-425.340239 1:-1.368474 2:-1.046604 3:-0.685628 4:-0.356716 5:0.074247 6:0.712665 7:1.281042 8:0.545966 9:1.742368 10:-0.612109 
-6.066682 1:2.677429 2:3.033586 3:2.866166 4:3.277557 5:3.467298 6:3.034468 7:1.821871 8:1.722472 9:1.256671 10:-0.728767 
-745.924735 1:0.014964 2:0.752389 3:1.397636 4:1.857154 5:1.770773 6:1.427066 7:0.385294 8:-0.484346 9:-0.379359 10:-0.261786 
-1024.000000 1:1.424504 2:1.308778 3:0.731675 4:0.328996 5:-0.281814 6:-0.755825 7:-0.383698 8:-0.832425 9:-0.673333 10:-0.693140 
-1024.000000 1:-1.107448 2:-0.759136 3:-0.762469 4:-0.777939 5:-1.098660 6:-1.499993 7:-1.304797 8:-1.319735 9:-1.267672 10:-0.028470 
-0.719840 1:-0.933430 2:-0.555126 3:-0.309957 4:-0.023656 5:0.639756 6:1.119477 7:2.607763 8:5.864606 9:5.321183 10:-0.666945 
-1024.000000 1:0.754537 2:0.733843 3:-0.087970 4:-0.484062 5:-0.637875 6:-0.537536 7:-1.009031 8:-0.832425 9:-1.107903 10:-0.486020 
-1024.000000 1:-0.889926 2:-0.712770 3:-0.540482 4:-0.395899 5:0.095192 6:0.305854 7:0.790915 8:0.970622 9:0.419484 10:-0.263882 
-1024.000000 1:-1.298867 2:-1.148608 3:-0.779545 4:-0.826918 5:-0.889212 6:-0.755825 7:-0.502004 8:-0.560924 9:0.048821 10:-0.286584 
-1024.000000 1:0.423905 2:0.260912 3:0.168169 4:0.613077 5:0.629283 6:1.307999 7:1.483853 8:0.761775 9:0.534517 10:-0.197170 
-352.736932 1:0.284691 2:-0.518034 3:-0.625862 4:-0.699572 5:-0.616930 6:0.206631 7:0.351492 8:-1.277966 9:-1.050387 10:-0.535268 
-1024.000000 1:-0.611498 2:-0.425302 3:-0.600248 4:-0.670184 5:-0.899685 6:-0.785592 7:-0.569608 8:-0.261576 9:0.355577 10:-0.411625 
-50.670203 1:-1.411978 2:-1.398984 3:-1.078374 4:-0.758347 5:-0.522679 6:0.633287 7:1.086681 8:0.093464 9:0.163854 10:-0.545048 
-168.925528 1:-0.324370 2:-0.777682 3:-0.660014 4:-0.572225 5:-0.250397 6:0.613443 7:1.365546 8:0.573812 9:0.138291 10:-0.444806 
-141.406036 1:-0.420079 2:-0.935326 3:-0.873463 4:-0.826918 5:-0.585513 6:-0.011658 7:-0.510454 8:1.416162 9:1.435612 10:-0.499293 
-1024.000000 1:0.841546 2:0.066175 3:-0.190426 4:-0.141206 5:-0.281814 6:-0.329169 7:-0.645662 8:-1.124811 9:-0.769194 10:0.013792 
-566.034524 1:-0.098147 2:-0.267658 3:-0.446565 4:-0.425287 5:-0.606458 6:-0.547458 7:-0.392148 8:1.290854 9:0.023258 10:-0.346660 
-1024.000000 1:-0.681105 2:-0.406756 3:-0.164812 4:-0.151002 5:-0.103784 6:-0.448236 7:-1.127338 8:-0.957733 9:-1.369924 10:-0.218476 
-972.171534 1:-0.994337 2:-0.953872 3:-0.745393 4:-0.484062 5:-0.417955 6:-0.597070 7:-0.865374 8:-1.417197 9:-1.178202 10:-0.452141 
-918.610813 1:-1.116149 2:-0.786955 3:-0.429489 4:0.191854 5:0.419836 6:0.682898 7:0.106429 8:-0.769771 9:-0.730850 10:-0.162243 
-1024.000000 1:-0.559293 2:-0.545853 3:-0.455103 4:-0.572225 5:-0.815906 6:-1.093181 7:-1.609013 8:-1.779199 9:-1.657507 10:-0.255848 
-1024.000000 1:-0.594097 2:-0.351117 3:-0.139198 4:0.084099 5:0.074247 6:-0.001736 7:-0.349896 8:0.086502 9:-0.098166 10:-0.164687 
-17.442677 1:-2.177654 2:-1.732817 3:-1.428431 4:-1.404875 5:-1.213856 6:-1.152715 7:-0.121734 8:1.868664 9:2.643462 10:-0.688949 
-1024.000000 1:0.154178 2:0.288731 3:0.390156 4:0.632668 5:0.535032 6:0.375309 7:0.207834 8:1.353508 9:2.093858 10:-0.128363 
-547.622221 1:1.093871 2:0.872940 3:0.859744 4:1.102871 5:1.309988 6:0.801965 7:-0.197788 8:0.260542 9:0.112728 10:-0.706413 
-1024.000000 1:-0.011139 2:-0.527307 3:-0.685628 4:-0.787735 5:-0.920629 6:-1.172559 7:-1.211842 8:-0.755848 9:-0.673333 10:0.000000 
-892.730361 1:-0.637601 2:-0.100742 3:0.142555 4:0.466138 5:0.671173 6:0.752354 7:0.148681 8:-0.164114 9:0.540908 10:-0.531775 
-1024.000000 1:0.450007 2:0.400009 3:0.646295 4:0.701240 5:0.566449 6:0.484454 7:0.976825 8:0.462427 9:0.719849 10:-0.443060 
