svm_type c_svc
kernel_type rbf
gamma 0.066667
nr_class 2
total_sv 506
rho 0.460457 
label 1 0 
nr_sv 246 260 
SV
1.000000 1:-0.298100 2:-0.251529 3:-0.210285 4:-0.177502 5:-0.187376 6:-0.185317 7:-0.150614 8:-0.137925 9:-0.050248 10:0.693685 11:-1.427017 12:-0.097076 13:0.719150 14:-0.421539 15:-0.666842 
1.000000 1:-0.257907 2:-0.238398 3:-0.205889 4:-0.185801 5:-0.180885 6:-0.181048 7:-0.195446 8:-0.158456 9:-0.163033 10:0.693685 11:1.780042 12:0.000000 13:-0.341885 14:0.297080 15:0.436368 
1.000000 1:-0.203753 2:-0.167086 3:-0.240330 4:-0.261299 5:-0.301268 6:-0.346534 7:-0.348996 8:-0.369449 9:-0.358622 10:-1.439615 11:-0.681189 12:1.001686 13:0.453892 14:2.101793 15:1.810650 
1.000000 1:-0.279485 2:-0.266697 3:-0.241552 4:-0.221408 5:-0.215702 6:-0.211256 7:-0.212632 8:-0.192966 9:-0.160653 10:0.693685 11:0.064638 12:0.177614 13:-0.341885 14:-0.568529 15:-0.459816 
1.000000 1:-0.214118 2:-0.204440 3:-0.277703 4:-0.291820 5:-0.321036 6:-0.348833 7:-0.379257 8:-0.403086 9:-0.410494 10:-1.439615 11:0.437552 12:1.825758 13:0.000000 14:-0.000000 15:-0.000000 
1.000000 1:-0.183233 2:-0.214175 3:-0.276482 4:-0.278434 5:-0.280909 6:-0.294984 7:-0.288473 8:-0.279024 9:-0.283908 10:0.693685 11:0.288387 12:-0.646458 13:0.453892 14:0.068428 15:-0.118058 
1.000000 1:-0.197830 2:-0.209194 3:-0.228605 4:-0.208558 5:-0.228979 6:-0.259523 7:-0.292582 8:-0.307418 9:-0.328641 10:-1.439615 11:0.362969 12:0.000000 13:0.000000 14:0.262782 15:-0.000000 
1.000000 1:-0.280331 2:-0.281412 3:-0.291626 4:-0.301458 5:-0.318381 6:-0.333401 7:-0.310889 8:-0.322271 9:-0.314841 10:0.693685 11:0.586718 12:0.726996 13:-1.137661 14:0.411406 15:0.952216 
1.000000 1:-0.206714 2:-0.190178 3:-0.261581 4:-0.270134 5:-0.289170 6:-0.302536 7:-0.310515 8:-0.333192 9:-0.332448 10:0.693685 11:-0.233693 12:1.551068 13:0.984409 14:0.574728 15:0.137067 
0.932202 1:-0.317562 2:-0.257415 3:-0.177065 4:-0.150194 5:-0.217177 6:-0.278239 7:-0.323965 8:-0.342802 9:-0.330069 10:-1.439615 11:0.213804 12:1.551068 13:-0.341885 14:2.854710 15:3.084338 
1.000000 1:-0.247119 2:-0.277563 3:-0.320938 4:-0.327962 5:-0.311004 6:-0.308446 7:-0.297813 8:-0.254997 9:-0.341966 10:0.693685 11:0.586718 12:-0.646458 13:1.249668 14:-0.960503 15:-1.294757 
1.000000 1:-0.245003 2:-0.204214 3:-0.205156 4:-0.220605 5:-0.228979 6:-0.229644 7:-0.211138 8:-0.157146 9:-0.127341 10:0.693685 11:-0.755772 12:0.726996 13:0.453892 14:0.182754 15:-0.009623 
1.000000 1:-0.253042 2:-0.253114 3:-0.259139 4:-0.262102 5:-0.272057 6:-0.273313 7:-0.328074 8:-0.369449 9:-0.356243 10:0.693685 11:0.362969 12:0.726996 13:0.453892 14:0.083127 15:-0.104117 
1.000000 1:-0.213695 2:-0.211232 3:-0.202469 4:-0.225960 5:-0.246387 6:-0.277254 7:-0.293329 8:-0.301302 9:-0.341014 10:0.693685 11:-1.352434 12:-0.536581 13:-0.076626 14:-0.160223 15:-0.348812 
1.000000 1:-0.230830 2:-0.193347 3:-0.207354 4:-0.210432 5:-0.245502 6:-0.275283 7:-0.282869 8:-0.281208 9:-0.291522 10:0.693685 11:-0.009944 12:0.177614 13:0.984409 14:-0.388875 15:-0.718137 
1.000000 1:-0.165464 2:-0.178858 3:-0.200515 4:-0.203739 5:-0.191802 6:-0.182362 7:-0.193205 8:-0.223108 9:-0.187779 10:0.693685 11:-0.979520 12:0.177614 13:-1.933437 14:-0.565263 15:0.189910 
1.000000 1:-0.249657 2:-0.210779 3:-0.261581 4:-0.271205 5:-0.268221 6:-0.269045 7:-0.261200 8:-0.292129 9:-0.315316 10:-1.439615 11:-0.233693 12:0.452305 13:0.000000 14:1.198620 15:-0.000000 
1.000000 1:-0.363467 2:-0.345254 3:-0.310923 4:-0.299584 5:-0.275598 6:-0.242777 7:-0.245882 8:-0.290381 9:-0.334352 10:-1.439615 11:0.139221 12:-0.921148 13:-2.198696 14:-1.388408 15:-0.745782 
1.000000 1:3.535671 2:3.537759 3:3.541169 4:3.539037 5:3.537987 6:3.540741 7:3.540922 8:3.537201 9:3.533176 10:-1.439615 11:1.407128 12:0.726996 13:-1.402920 14:0.550230 15:1.260052 
1.000000 1:-0.357332 2:-0.330086 3:-0.284298 4:-0.227031 5:-0.083517 6:-0.119648 7:-0.233927 8:-0.248882 9:-0.222519 10:0.693685 11:0.586718 12:0.726996 13:0.453892 14:0.297080 15:0.098813 
1.000000 1:-0.274408 2:-0.252434 3:-0.234956 4:-0.205613 5:-0.181770 6:-0.181048 7:-0.242146 8:-0.255434 9:-0.244409 10:-1.439615 11:1.481711 12:-1.882566 13:-2.198696 14:-1.321446 15:-0.659334 
1.000000 1:-0.192753 2:-0.185423 3:-0.212484 4:-0.207219 5:-0.223078 6:-0.245404 7:-0.282495 8:-0.312660 9:-0.331972 10:0.693685 11:0.213804 12:-0.371767 13:-0.076626 14:-0.731852 15:-0.715300 
1.000000 1:-0.244580 2:-0.254925 3:-0.236422 4:-0.247645 5:-0.270287 6:-0.277254 7:-0.273529 8:-0.253687 9:-0.260114 10:-1.439615 11:-0.606607 12:1.001686 13:-1.668178 14:0.917705 15:1.861996 
0.196218 1:-0.358178 2:-0.297033 3:-0.203690 4:-0.135201 5:-0.009163 6:-0.093380 7:-0.210390 8:-0.307418 9:-0.291998 10:0.693685 11:2.078373 12:1.276377 13:-1.137661 14:-0.160223 15:0.303613 
1.000000 1:-0.413391 2:-0.359063 3:-0.283077 4:-0.174289 5:-0.139577 6:-0.207316 7:-0.245135 8:-0.286887 9:-0.341966 10:0.693685 11:-1.501600 12:0.177614 13:0.000000 14:-0.601194 15:-0.000000 
1.000000 1:-0.410852 2:-0.419283 3:-0.355869 4:-0.323411 5:-0.289465 6:-0.322237 7:-0.349369 8:-0.326202 9:-0.283908 10:0.693685 11:-0.009944 12:1.001686 13:0.000000 14:0.656389 15:-0.000000 
1.000000 1:-0.257696 2:-0.258547 3:-0.262559 4:-0.255409 5:-0.258485 6:-0.261493 7:-0.263068 8:-0.233592 9:-0.142570 10:0.693685 11:-0.382858 12:0.452305 13:-0.341885 14:0.427738 15:0.571641 
1.000000 1:-0.182810 2:-0.227532 3:-0.267200 4:-0.305206 5:-0.296252 6:-0.280865 7:-0.272034 8:-0.290381 9:-0.286763 10:-1.439615 11:0.213804 12:-0.646458 13:-0.076626 14:0.522465 15:0.536567 
1.000000 1:-0.425872 2:-0.376948 3:-0.331442 4:-0.327427 5:-0.297432 6:-0.240479 7:-0.170789 8:-0.115646 9:-0.153039 10:-1.439615 11:-0.159110 12:-0.371767 13:-0.872402 14:1.260683 15:1.747808 
1.000000 1:-0.231676 2:-0.259452 3:-0.239109 4:-0.186337 5:-0.237831 6:-0.266090 7:-0.297439 8:-0.342802 9:-0.320551 10:-1.439615 11:1.257963 12:0.452305 13:-0.660195 14:0.068428 15:0.342215 
1.000000 1:-0.212426 2:-0.215080 3:-0.238376 4:-0.228637 5:-0.221898 6:-0.222748 7:-0.239905 8:-0.223108 9:-0.217284 10:0.693685 11:-2.023679 12:0.726996 13:2.310703 14:0.770715 15:-0.169780 
1.000000 1:-0.208195 2:-0.190178 3:-0.223476 4:-0.218464 5:-0.249928 6:-0.290387 7:-0.294450 8:-0.327950 9:-0.319599 10:0.693685 11:1.481711 12:0.177614 13:0.000000 14:-0.134091 15:-0.000000 
1.000000 1:-0.208618 2:-0.189046 3:-0.243750 4:-0.268528 5:-0.337854 6:-0.353430 7:-0.366555 8:-0.401339 9:-0.414777 10:0.693685 11:-0.233693 12:1.276377 13:1.780185 14:1.064696 15:0.257852 
1.000000 1:-0.181964 2:-0.191083 3:-0.189278 4:-0.161706 5:-0.188557 6:-0.250001 7:-0.263442 8:-0.238834 9:-0.299612 10:0.693685 11:0.885049 12:-0.097076 13:0.453892 14:-0.307213 15:-0.474348 
1.000000 1:-0.244369 2:-0.218250 3:-0.177065 4:-0.153942 5:-0.175574 6:-0.201406 7:-0.250739 8:-0.316592 9:-0.320075 10:0.693685 11:1.481711 12:-0.097076 13:0.000000 14:-1.069929 15:-0.000000 
1.000000 1:-0.410641 2:-0.355667 3:-0.286741 4:-0.213912 5:-0.174689 6:-0.187944 7:-0.193578 8:-0.241892 9:-0.247741 10:0.693685 11:-1.054103 12:-0.371767 13:0.719150 14:0.190920 15:-0.102184 
1.000000 1:-0.301908 2:-0.260132 3:-0.230560 4:-0.244165 5:-0.249338 6:-0.242449 7:-0.247377 8:-0.252376 9:-0.248692 10:-1.439615 11:0.661301 12:-1.470530 13:-1.933437 14:-1.303480 15:-0.732130 
1.000000 1:3.535671 2:3.537759 3:3.541169 4:3.539037 5:3.537987 6:3.540741 7:3.540922 8:3.537201 9:3.533176 10:-1.439615 11:0.139221 12:-0.921148 13:-1.933437 14:-0.708987 15:0.010398 
1.000000 1:-0.178791 2:-0.262395 3:-0.273795 4:-0.234259 5:-0.193277 6:-0.195496 7:-0.222346 8:-0.272471 9:-0.280577 10:0.693685 11:-0.308275 12:0.452305 13:0.188633 14:0.068428 15:-0.016751 
1.000000 1:-0.274831 2:-0.317861 3:-0.366128 4:-0.380169 5:-0.393030 6:-0.373787 7:-0.353853 8:-0.328823 9:-0.342918 10:-1.439615 11:-1.799931 12:-1.745220 13:-1.402920 14:-1.213653 15:-0.805393 
0.275024 1:-0.350986 2:-0.316502 3:-0.229094 4:-0.148855 5:-0.164657 6:-0.242777 7:-0.254849 8:-0.246698 9:-0.282480 10:0.693685 11:-0.457441 12:4.847356 13:0.188633 14:1.668989 15:1.400352 
1.000000 1:-0.360505 2:-0.328954 3:-0.256452 4:-0.149926 5:-0.070535 6:-0.120633 7:-0.232433 8:-0.337123 9:-0.397169 10:-1.439615 11:0.959632 12:0.177614 13:-0.607143 14:0.248083 15:0.504175 
1.000000 1:-0.176041 2:-0.207836 3:-0.215415 4:-0.253268 5:-0.238421 6:-0.223077 7:-0.254475 8:-0.246698 9:-0.231560 10:0.693685 11:1.780042 12:-0.097076 13:-0.607143 14:0.133757 15:0.384988 
1.000000 1:-0.283081 2:-0.258094 3:-0.192942 4:-0.109232 5:-0.133086 6:-0.202063 7:-0.221598 8:-0.290818 9:-0.272011 10:0.693685 11:0.362969 12:-0.371767 13:-0.076626 14:-1.324712 15:-1.311181 
1.000000 1:-0.188733 2:-0.237266 3:-0.260116 4:-0.245236 5:-0.228389 6:-0.226688 7:-0.236542 8:-0.208256 9:-0.224422 10:0.693685 11:-0.681189 12:-0.371767 13:-0.341885 14:0.550230 15:0.698459 
1.000000 1:-0.157637 2:-0.210326 3:-0.254742 4:-0.276024 5:-0.276483 6:-0.260836 7:-0.265683 8:-0.258055 9:-0.258210 10:0.693685 11:0.288387 12:-0.097076 13:1.249668 14:0.525731 15:0.001426 
1.000000 1:-0.248177 2:-0.227305 3:-0.190255 4:-0.156352 5:-0.178230 6:-0.215196 7:-0.248124 8:-0.224419 9:-0.268680 10:0.693685 11:-0.009944 12:0.177614 13:0.000000 14:-0.045897 15:-0.000000 
1.000000 1:-0.368332 2:-0.339820 3:-0.281123 4:-0.220873 5:-0.097090 6:-0.066128 7:-0.147999 8:-0.223108 9:-0.242506 10:0.693685 11:1.257963 12:-0.921148 13:-0.076626 14:-0.888641 15:-0.872888 
1.000000 1:-0.287946 2:-0.264659 3:-0.230560 4:-0.231314 5:-0.266156 6:-0.289402 7:-0.258211 8:-0.223108 9:-0.170171 10:0.693685 11:-0.830355 12:0.589650 13:0.188633 14:0.297080 15:0.206452 
1.000000 1:-0.289216 2:-0.282091 3:-0.259627 4:-0.252197 5:-0.319266 6:-0.359011 7:-0.379631 8:-0.391728 9:-0.424770 10:-1.439615 11:0.139221 12:-0.097076 13:-1.137661 14:2.452937 15:3.268656 
1.000000 1:-0.387159 2:-0.400719 3:-0.375898 4:-0.360892 5:-0.363819 6:-0.348176 7:-0.341150 8:-0.335813 9:-0.324358 10:0.693685 11:-0.308275 12:-0.371767 13:1.382297 14:0.047196 15:-0.456786 
1.000000 1:-0.174137 2:-0.221646 3:-0.265001 4:-0.268260 5:-0.292711 6:-0.324864 7:-0.307900 8:-0.328386 9:-0.357194 10:0.693685 11:1.034214 12:-0.646458 13:0.188633 14:-0.617526 15:-0.686362 
1.000000 1:-0.271869 2:-0.234776 3:-0.168271 4:-0.063987 5:-0.118924 6:-0.216181 7:-0.254102 8:-0.271597 9:-0.294853 10:0.693685 11:0.213804 12:0.177614 13:0.453892 14:-0.160223 15:-0.334930 
1.000000 1:-0.195080 2:-0.175915 3:-0.194164 4:-0.206148 5:-0.270287 6:-0.297939 7:-0.305285 8:-0.351102 9:-0.368140 10:0.693685 11:-0.457441 12:1.825758 13:-0.607143 14:3.039264 15:2.458488 
1.000000 1:-0.218984 2:-0.237493 3:-0.239109 4:-0.213109 5:-0.220422 6:-0.259195 7:-0.280627 8:-0.279024 9:-0.239175 10:0.693685 11:0.810466 12:-2.569292 13:0.984409 14:1.440337 15:0.921788 
1.000000 1:-0.165675 2:-0.182254 3:-0.177798 4:-0.156619 5:-0.159936 6:-0.210600 7:-0.260826 8:-0.251066 9:-0.233464 10:0.693685 11:0.288387 12:0.177614 13:0.453892 14:0.068428 15:-0.118058 
1.000000 1:-0.257907 2:-0.298618 3:-0.300420 4:-0.293426 5:-0.279729 6:-0.270687 7:-0.240652 8:-0.223982 9:-0.229181 10:-1.439615 11:0.064638 12:-0.097076 13:-1.137661 14:0.981401 15:1.598966 
1.000000 1:-0.234849 2:-0.205572 3:-0.266711 4:-0.280843 5:-0.321036 6:-0.334386 7:-0.334799 8:-0.358528 9:-0.355291 10:0.693685 11:-0.606607 12:0.452305 13:0.188633 14:0.083127 15:-0.002403 
1.000000 1:-0.226811 2:-0.173651 3:-0.236178 4:-0.268260 5:-0.319856 6:-0.333401 7:-0.351237 8:-0.389107 9:-0.421439 10:0.693685 11:-0.233693 12:0.452305 13:0.268210 14:0.226851 15:0.105708 
1.000000 1:-0.234003 2:-0.259000 3:-0.257917 4:-0.250323 5:-0.228979 6:-0.212570 7:-0.240278 8:-0.249319 9:-0.266776 10:0.693685 11:0.512135 12:-0.097076 13:0.188633 14:-0.617526 15:-0.686362 
1.000000 1:-0.422064 2:-0.392342 3:-0.352449 4:-0.355003 5:-0.344641 6:-0.322565 7:-0.335546 8:-0.329697 9:-0.334828 10:-1.439615 11:1.108797 12:-0.921148 13:-1.933437 14:-0.602827 15:0.142992 
1.000000 1:-0.258119 2:-0.311974 3:-0.288207 4:-0.262102 5:-0.210686 6:-0.205346 7:-0.210390 8:-0.171998 9:-0.217760 10:0.693685 11:1.108797 12:0.177614 13:0.453892 14:-0.529332 15:-0.685023 
0.865212 1:-0.303177 2:-0.280054 3:-0.242284 4:-0.247913 5:-0.273827 6:-0.285462 7:-0.294824 8:-0.300429 9:-0.289619 10:-1.439615 11:-0.159110 12:2.375140 13:-0.076626 14:1.324378 15:1.696198 
1.000000 1:-0.213484 2:-0.208741 3:-0.186591 4:-0.214180 5:-0.233110 6:-0.236867 7:-0.222346 8:-0.193840 9:-0.184448 10:0.693685 11:-1.352434 12:0.452305 13:0.878306 14:0.509399 15:0.128361 
1.000000 1:-0.233580 2:-0.176821 3:-0.246925 4:-0.247378 5:-0.300677 6:-0.328475 7:-0.323965 8:-0.323581 9:-0.290094 10:0.693685 11:0.139221 12:0.177614 13:0.453892 14:0.190920 15:-0.001877 
1.000000 1:-0.162714 2:-0.126110 3:-0.156547 4:-0.140824 5:-0.179705 6:-0.210271 7:-0.209270 8:-0.216556 9:-0.182068 10:0.693685 11:0.288387 12:0.726996 13:0.984409 14:0.444070 15:0.029093 
1.000000 1:-0.372352 2:-0.328501 3:-0.261826 4:-0.178573 5:-0.167903 6:-0.263135 7:-0.338161 8:-0.391291 9:-0.411921 10:0.693685 11:0.437552 12:1.276377 13:0.453892 14:0.083127 15:-0.104117 
1.000000 1:-0.183022 2:-0.160294 3:-0.214194 4:-0.221944 5:-0.237536 6:-0.258866 7:-0.215621 8:-0.261550 9:-0.230133 10:0.693685 11:1.108797 12:-0.097076 13:1.249668 14:-0.134091 15:-0.574022 
1.000000 1:-0.273138 2:-0.236361 3:-0.221033 4:-0.232117 5:-0.205375 6:-0.161019 7:-0.258958 8:-0.348918 9:-0.365285 10:-1.439615 11:2.227539 12:0.000000 13:0.000000 14:-1.401474 15:-0.000000 
1.000000 1:-0.272504 2:-0.280507 3:-0.282344 4:-0.273347 5:-0.266746 6:-0.264776 7:-0.254475 8:-0.213498 9:-0.213001 10:0.693685 11:-1.949096 12:-0.371767 13:0.188633 14:0.011266 15:-0.072552 
1.000000 1:-0.378698 2:-0.375816 3:-0.354892 4:-0.348309 5:-0.332838 6:-0.310416 7:-0.276144 8:-0.204761 9:-0.200628 10:0.693685 11:0.661301 12:0.177614 13:0.453892 14:-0.357843 15:-0.522369 
1.000000 1:-0.239292 2:-0.243152 3:-0.251322 4:-0.259157 5:-0.267041 6:-0.291701 7:-0.329569 8:-0.309602 9:-0.323882 10:0.693685 11:0.512135 12:0.452305 13:0.984409 14:0.298713 15:-0.101701 
1.000000 1:-0.247542 2:-0.226852 3:-0.212972 4:-0.235598 5:-0.266746 6:-0.279224 7:-0.299681 8:-0.360276 9:-0.380513 10:-1.439615 11:-0.606607 12:0.726996 13:-0.872402 14:2.485601 15:3.095236 
1.000000 1:-0.361986 2:-0.336877 3:-0.264024 4:-0.198920 5:-0.175869 6:-0.149856 7:-0.273902 8:-0.362897 9:-0.394314 10:0.693685 11:1.854625 12:0.177614 13:0.984409 14:-0.388875 15:-0.718137 
1.000000 1:-0.268908 2:-0.194479 3:-0.177798 4:-0.217660 5:-0.265861 6:-0.291044 7:-0.333305 8:-0.356344 9:-0.350532 10:0.693685 11:-0.979520 12:1.276377 13:1.780185 14:2.459470 15:1.410261 
1.000000 1:-0.207560 2:-0.184971 3:-0.205644 4:-0.197313 5:-0.207735 6:-0.227017 7:-0.231686 8:-0.220487 9:-0.230133 10:0.693685 11:0.586718 12:-0.316829 13:0.000000 14:-0.650190 15:-0.000000 
1.000000 1:-0.196772 2:-0.217344 3:-0.243261 4:-0.231314 5:-0.253174 6:-0.249673 7:-0.245135 8:-0.201703 9:-0.159226 10:0.693685 11:0.586718 12:0.452305 13:1.514927 14:0.476735 15:-0.136514 
1.000000 1:-0.376159 2:-0.370609 3:-0.317274 4:-0.291017 5:-0.298612 6:-0.286119 7:-0.265683 8:-0.264171 9:-0.271059 10:0.693685 11:1.034214 12:-0.371767 13:-1.137661 14:-1.695454 15:-1.438350 
1.000000 1:-0.478122 2:-0.445770 3:-0.412294 4:-0.418988 5:-0.409258 6:-0.381667 7:-0.394575 8:-0.427986 9:-0.450468 10:0.693685 11:-0.681189 12:0.177614 13:-0.872402 14:0.068428 15:0.436312 
1.000000 1:-0.359871 2:-0.358158 3:-0.331198 4:-0.324750 5:-0.351132 6:-0.318297 7:-0.317240 8:-0.356781 9:-0.378133 10:0.693685 11:-0.382858 12:0.000000 13:0.000000 14:-0.000000 15:-0.000000 
1.000000 1:3.535671 2:3.537759 3:3.541169 4:3.539037 5:3.537987 6:3.540741 7:3.540922 8:3.537201 9:3.533176 10:0.693685 11:2.078373 12:-0.646458 13:-0.341885 14:-0.617526 15:-0.510544 
1.000000 1:-0.309101 2:-0.294543 3:-0.268909 4:-0.224621 5:-0.215997 6:-0.250329 7:-0.288099 8:-0.304797 9:-0.318172 10:0.693685 11:-0.755772 12:0.452305 13:1.514927 14:0.640057 15:0.002100 
1.000000 1:-0.203541 2:-0.177047 3:-0.233491 4:-0.233456 5:-0.233110 6:-0.267732 7:-0.310889 8:-0.289945 9:-0.286287 10:-1.439615 11:0.885049 12:-0.371767 13:-1.668178 14:0.493067 15:1.348590 
1.000000 1:-0.312062 2:-0.212137 3:-0.169249 4:-0.182321 5:-0.218357 6:-0.257225 7:-0.303043 8:-0.371633 9:-0.408114 10:-1.439615 11:0.139221 12:-0.097076 13:0.453892 14:1.228018 15:0.979257 
1.000000 1:-0.306350 2:-0.317408 3:-0.243506 4:-0.219802 5:-0.223078 6:-0.271015 7:-0.303417 8:-0.355907 9:-0.355767 10:0.693685 11:-0.159110 12:0.452305 13:0.453892 14:0.297080 15:0.098813 
1.000000 1:-0.296408 2:-0.298391 3:-0.266223 4:-0.255142 5:-0.255829 6:-0.269373 7:-0.308647 8:-0.308729 9:-0.332924 10:0.693685 11:0.288387 12:0.177614 13:0.000000 14:-0.349677 15:-0.000000 
1.000000 1:-0.271023 2:-0.249039 3:-0.194164 4:-0.112713 5:-0.123349 6:-0.188272 7:-0.216368 8:-0.309602 9:-0.313889 10:0.693685 11:-1.203269 12:0.177614 13:-0.076626 14:-0.388875 15:-0.370575 
1.000000 1:-0.153194 2:-0.161653 3:-0.209064 4:-0.228637 5:-0.237241 6:-0.223405 7:-0.201050 8:-0.175056 9:-0.226802 10:-1.439615 11:-0.382858 12:-0.371767 13:-1.137661 14:-0.731852 15:-0.344990 
1.000000 1:-0.216657 2:-0.196290 3:-0.266223 4:-0.269866 5:-0.274122 6:-0.294656 7:-0.299681 8:-0.313097 9:-0.328641 10:0.693685 11:0.362969 12:0.177614 13:0.000000 14:-0.000000 15:-0.000000 
1.000000 1:-0.213061 2:-0.200139 3:-0.169737 4:-0.092366 5:-0.066699 6:-0.186959 7:-0.276891 8:-0.361586 9:-0.380037 10:-1.439615 11:0.735883 12:-0.921148 13:-1.137661 14:-0.617526 15:-0.215270 
1.000000 1:-0.315658 2:-0.303598 3:-0.282344 4:-0.264512 5:-0.217472 6:-0.161676 7:-0.148373 8:-0.216119 9:-0.309606 10:0.693685 11:0.735883 12:-1.195839 13:0.984409 14:-0.993168 15:-1.255787 
1.000000 1:-0.270177 2:-0.234323 3:-0.213705 4:-0.225424 5:-0.285630 6:-0.276925 7:-0.264936 8:-0.287760 9:-0.267252 10:0.693685 11:-1.128686 12:1.001686 13:0.000000 14:0.803380 15:-0.000000 
1.000000 1:-0.215811 2:-0.211911 3:-0.196606 4:-0.194636 5:-0.193277 6:-0.150184 7:-0.093080 8:-0.090746 9:-0.124962 10:0.693685 11:-0.457441 12:1.001686 13:0.188633 14:0.411406 15:0.320621 
1.000000 1:-0.166521 2:-0.185876 3:-0.259139 4:-0.261299 5:-0.265566 6:-0.292357 7:-0.304911 8:-0.301739 9:-0.311033 10:0.693685 11:-0.681189 12:0.726996 13:0.453892 14:1.631425 15:1.364415 
1.000000 1:-0.353524 2:-0.308126 3:-0.239597 4:-0.193565 5:-0.140463 6:-0.084515 7:-0.037414 8:-0.102104 9:-0.062145 10:0.693685 11:-1.203269 12:0.232552 13:-0.607143 14:-1.074829 15:-0.904492 
1.000000 1:-0.298312 2:-0.296127 3:-0.289916 4:-0.308686 5:-0.347591 6:-0.330445 7:-0.335546 8:-0.366828 9:-0.387651 10:0.693685 11:0.064638 12:2.924521 13:-0.156203 14:11.533667 15:11.747729 
1.000000 1:3.535671 2:3.537759 3:3.541169 4:3.539037 5:3.537987 6:3.540741 7:3.540922 8:3.537201 9:3.533176 10:0.693685 11:-0.755772 12:0.726996 13:0.453892 14:0.411406 15:0.207249 
1.000000 1:-0.322639 2:-0.324652 3:-0.254742 4:-0.195975 5:-0.211571 6:-0.245076 7:-0.278759 8:-0.282955 9:-0.273438 10:0.693685 11:0.661301 12:0.726996 13:0.984409 14:0.068428 15:-0.308156 
1.000000 1:-0.221734 2:-0.190404 3:-0.150928 4:-0.141895 5:-0.122169 6:-0.065799 7:-0.027327 8:0.070448 9:0.231953 10:0.693685 11:1.183380 12:0.177614 13:-0.076626 14:-0.241884 15:-0.222836 
1.000000 1:-0.186195 2:-0.154861 3:-0.179263 4:-0.186872 5:-0.248748 6:-0.279880 7:-0.296318 8:-0.313097 9:-0.378133 10:-1.439615 11:0.213804 12:-0.783803 13:-1.668178 14:-0.274549 15:0.420510 
1.000000 1:-0.221522 2:-0.143542 3:-0.174867 4:-0.205881 5:-0.275893 6:-0.299581 7:-0.320602 8:-0.331007 9:-0.371471 10:0.693685 11:0.064638 12:-0.371767 13:0.984409 14:-0.160223 15:-0.513147 
1.000000 1:-0.327505 2:-0.305862 3:-0.251811 4:-0.152871 5:-0.063748 6:-0.096992 7:-0.233180 8:-0.324892 9:-0.384320 10:0.693685 11:0.959632 12:0.726996 13:0.188633 14:-0.062230 15:-0.144296 
1.000000 1:-0.353736 2:-0.335519 3:-0.282588 4:-0.184195 5:-0.094729 6:-0.151497 7:-0.245509 8:-0.359839 9:-0.367664 10:0.693685 11:2.003790 12:0.726996 13:0.188633 14:0.003099 15:-0.080524 
0.536691 1:-0.200368 2:-0.208968 3:-0.255963 4:-0.269866 5:-0.281204 6:-0.317640 7:-0.338909 8:-0.317902 9:-0.291998 10:0.693685 11:0.139221 12:0.726996 13:0.188633 14:2.224285 15:2.087738 
1.000000 1:-0.327293 2:-0.328501 3:-0.273062 4:-0.129579 5:-0.164952 6:-0.250001 7:-0.322470 8:-0.412259 9:-0.462841 10:0.693685 11:-0.979520 12:-0.097076 13:0.453892 14:-0.029565 15:-0.211004 
1.000000 1:-0.377852 2:-0.385098 3:-0.369303 4:-0.361696 5:-0.332248 6:-0.307133 7:-0.283242 8:-0.250192 9:-0.266776 10:0.693685 11:-0.084527 12:-0.371767 13:3.371738 14:-0.890275 15:-1.675628 
1.000000 1:-0.168425 2:-0.209647 3:-0.233979 4:-0.302796 5:-0.321921 6:-0.320595 7:-0.302669 8:-0.311350 9:-0.311985 10:-1.439615 11:-0.979520 12:-0.097076 13:-0.474514 14:2.949437 15:3.284605 
1.000000 1:-0.256004 2:-0.203534 3:-0.203202 4:-0.233724 5:-0.256714 6:-0.286776 7:-0.289593 8:-0.291692 9:-0.277721 10:0.693685 11:-1.054103 12:0.177614 13:1.249668 14:0.083127 15:-0.384580 
1.000000 1:-0.256427 2:-0.269413 3:-0.268177 4:-0.266386 5:-0.286220 6:-0.295641 7:-0.319855 8:-0.313097 9:-0.319124 10:-1.439615 11:1.332545 12:-0.371767 13:-0.076626 14:0.622092 15:0.645542 
1.000000 1:-0.403871 2:-0.388041 3:-0.355869 4:-0.334923 5:-0.303628 6:-0.289402 7:-0.291088 8:-0.266792 9:-0.261541 10:0.693685 11:1.854625 12:0.177614 13:0.000000 14:-0.111226 15:-0.000000 
1.000000 1:-0.292600 2:-0.282318 3:-0.291626 4:-0.304403 5:-0.324872 6:-0.315013 7:-0.297439 8:-0.276403 9:-0.226326 10:-1.439615 11:-0.382858 12:1.551068 13:-0.023574 14:2.351677 15:2.350515 
1.000000 1:-0.208407 2:-0.163464 3:-0.199293 4:-0.202400 5:-0.219242 6:-0.265433 7:-0.319108 8:-0.322707 9:-0.335780 10:0.693685 11:-1.054103 12:0.342429 13:0.000000 14:-0.323546 15:-0.000000 
1.000000 1:-0.334697 2:-0.305183 3:-0.229338 4:-0.184730 5:-0.198588 6:-0.226360 7:-0.215247 8:-0.227477 9:-0.168268 10:-1.439615 11:1.407128 12:0.726996 13:-0.978506 14:1.443604 15:2.017806 
1.000000 1:-0.242042 2:-0.242020 3:-0.218835 4:-0.227834 5:-0.270287 6:-0.278567 7:-0.280627 8:-0.328386 9:-0.301992 10:-1.439615 11:-0.904938 12:0.177614 13:-1.137661 14:2.098527 15:2.866522 
1.000000 1:-0.169695 2:-0.156898 3:-0.194408 4:-0.210432 5:-0.261730 6:-0.287761 7:-0.284363 8:-0.267666 9:-0.267252 10:0.693685 11:-1.128686 12:0.726996 13:0.692624 14:0.702120 15:0.380288 
1.000000 1:-0.179637 2:-0.223230 3:-0.262314 4:-0.247913 5:-0.252288 6:-0.277254 7:-0.256717 8:-0.230098 9:-0.248692 10:0.693685 11:1.929208 12:0.452305 13:-0.076626 14:0.297080 15:0.318874 
1.000000 1:-0.165464 2:-0.205346 3:-0.265001 4:-0.275489 5:-0.267926 6:-0.253613 7:-0.261200 8:-0.260240 9:-0.280101 10:0.693685 11:0.959632 12:0.177614 13:0.692624 14:-0.170022 15:-0.426055 
1.000000 1:-0.319043 2:-0.263980 3:-0.222010 4:-0.256748 5:-0.274122 6:-0.265105 7:-0.267178 8:-0.285576 9:-0.345773 10:0.693685 11:-0.308275 12:-0.097076 13:0.000000 14:0.444070 15:-0.000000 
1.000000 1:-0.465853 2:-0.443053 3:-0.412539 4:-0.420863 5:-0.412798 6:-0.392174 7:-0.379257 8:-0.376439 9:-0.357670 10:0.693685 11:0.885049 12:0.452305 13:-0.076626 14:-0.094894 15:-0.075097 
1.000000 1:-0.141983 2:-0.194479 3:-0.214194 4:-0.190085 5:-0.158756 6:-0.170870 7:-0.205534 8:-0.211750 9:-0.159702 10:0.693685 11:1.630877 12:-0.646458 13:-0.076626 14:-0.274549 15:-0.255667 
1.000000 1:-0.279062 2:-0.289109 3:-0.288451 4:-0.298245 5:-0.290055 6:-0.274955 7:-0.286231 8:-0.270724 9:-0.256782 10:-1.439615 11:0.735883 12:-1.470530 13:-1.402920 14:-0.926205 15:-0.468802 
1.000000 1:-0.252196 2:-0.206704 3:-0.194164 4:-0.223550 5:-0.257894 6:-0.256896 7:-0.292956 8:-0.320523 9:-0.339111 10:-1.439615 11:0.213804 12:-0.371767 13:-0.607143 14:0.068428 15:0.315287 
1.000000 1:-0.175618 2:-0.161426 3:-0.176088 4:-0.156619 5:-0.182065 6:-0.215196 7:-0.215247 8:-0.237961 9:-0.193490 10:0.693685 11:-1.501600 12:-0.097076 13:-2.198696 14:-0.349677 15:0.595208 
1.000000 1:-0.275042 2:-0.235682 3:-0.248880 4:-0.254071 5:-0.271762 6:-0.270358 7:-0.259332 8:-0.317902 9:-0.305799 10:0.693685 11:-0.084527 12:1.001686 13:1.249668 14:0.150090 15:-0.326180 
1.000000 1:-0.209887 2:-0.207383 3:-0.210530 4:-0.169470 5:-0.136627 6:-0.185317 7:-0.215247 8:-0.233156 9:-0.209194 10:0.693685 11:1.929208 12:0.177614 13:0.719150 14:0.187654 15:-0.105195 
1.000000 1:-0.318831 2:-0.314238 3:-0.285031 4:-0.270937 5:-0.282089 6:-0.260508 7:-0.243641 8:-0.241892 9:-0.181592 10:0.693685 11:0.586718 12:-0.097076 13:0.453892 14:0.248083 15:0.052341 
1.000000 1:-0.359659 2:-0.352951 3:-0.304817 4:-0.283788 5:-0.240781 6:-0.200749 7:-0.198062 8:-0.208256 9:-0.247741 10:0.693685 11:-0.755772 12:-0.097076 13:-0.341885 14:0.068428 15:0.199640 
1.000000 1:-0.395410 2:-0.383740 3:-0.346342 4:-0.332781 5:-0.305988 6:-0.286447 7:-0.254849 8:-0.207819 9:-0.183972 10:0.693685 11:1.481711 12:0.177614 13:0.000000 14:0.066795 15:-0.000000 
1.000000 1:-0.177945 2:-0.224362 3:-0.275260 4:-0.300655 5:-0.309529 6:-0.304506 7:-0.319855 8:-0.314844 9:-0.353387 10:-1.439615 11:-0.979520 12:-0.097076 13:-1.137661 14:0.346077 15:0.878090 
1.000000 1:-0.323697 2:-0.289336 3:-0.195629 4:-0.082995 5:-0.114793 6:-0.228002 7:-0.275023 8:-0.358528 9:-0.387175 10:0.693685 11:-0.979520 12:1.276377 13:0.984409 14:0.586161 15:0.156001 
1.000000 1:-0.164829 2:-0.203308 3:-0.232758 4:-0.234259 5:-0.249338 6:-0.250329 7:-0.258958 8:-0.246698 9:-0.267252 10:0.693685 11:-1.277851 12:0.452305 13:-0.607143 14:0.591060 15:0.872900 
1.000000 1:-0.513027 2:-0.480634 3:-0.455285 4:-0.467982 5:-0.465613 6:-0.451933 7:-0.457340 8:-0.490454 9:-0.520423 10:0.693685 11:1.108797 12:1.276377 13:-0.076626 14:0.442437 15:0.464972 
1.000000 1:-0.325812 2:-0.265565 3:-0.186591 4:-0.140824 5:-0.120989 6:-0.159706 7:-0.213753 8:-0.210877 9:-0.176834 10:0.693685 11:1.481711 12:-0.646458 13:-1.402920 14:-1.058497 15:-0.623710 
1.000000 1:-0.221311 2:-0.262848 3:-0.307504 4:-0.306545 5:-0.293006 6:-0.261493 7:-0.279506 8:-0.289071 9:-0.308654 10:0.693685 11:1.556294 12:0.122676 13:0.162107 14:-0.397041 15:-0.348812 
1.000000 1:-0.386525 2:-0.368345 3:-0.319229 4:-0.243630 5:-0.181475 6:-0.245076 7:-0.295197 8:-0.344986 9:-0.373850 10:0.693685 11:-0.830355 12:0.177614 13:1.514927 14:0.068428 15:-0.483049 
1.000000 1:-0.255157 2:-0.206251 3:-0.224941 4:-0.257283 5:-0.302743 6:-0.283164 7:-0.277265 8:-0.289508 9:-0.331497 10:-1.439615 11:1.481711 12:-0.097076 13:-1.137661 14:-0.274549 15:0.173892 
1.000000 1:-0.146425 2:-0.159842 3:-0.194897 4:-0.242023 5:-0.267631 6:-0.283492 7:-0.281748 8:-0.304360 9:-0.297709 10:0.693685 11:-1.203269 12:1.825758 13:1.514927 14:0.947103 15:0.262695 
1.000000 1:-0.185137 2:-0.223004 3:-0.244971 4:-0.272811 5:-0.247863 6:-0.197137 7:-0.167053 8:-0.186851 9:-0.241078 10:-1.439615 11:0.885049 12:0.452305 13:-0.341885 14:1.219852 15:1.391734 
1.000000 1:-0.314389 2:-0.247680 3:-0.181706 4:-0.202668 5:-0.262320 6:-0.283164 7:-0.285484 8:-0.276839 9:-0.295805 10:0.693685 11:-1.650765 12:-0.097076 13:-0.341885 14:-0.493401 15:-0.382034 
1.000000 1:-0.151502 2:-0.163690 3:-0.200515 4:-0.244433 5:-0.284744 6:-0.306476 7:-0.309768 8:-0.329260 9:-0.355767 10:0.693685 11:-0.904938 12:1.276377 13:-0.076626 14:1.559563 15:1.587789 
1.000000 1:-0.347813 2:-0.313786 3:-0.261581 4:-0.174021 5:-0.156986 6:-0.188929 7:-0.236542 8:-0.327076 9:-0.310082 10:0.693685 11:-1.949096 12:0.452305 13:1.780185 14:0.868709 15:0.095922 
1.000000 1:-0.148540 2:-0.182254 3:-0.225674 4:-0.248716 5:-0.264976 6:-0.287761 7:-0.309768 8:-0.341055 9:-0.379561 10:0.693685 11:-0.382858 12:0.177614 13:0.453892 14:0.411406 15:0.207249 
1.000000 1:-0.209676 2:-0.205119 3:-0.202469 4:-0.153674 5:-0.156691 6:-0.243434 7:-0.316866 8:-0.377749 9:-0.401452 10:0.693685 11:-0.830355 12:1.221439 13:-0.368410 14:-0.000000 15:-0.000000 
1.000000 1:-0.284773 2:-0.265791 3:-0.265490 4:-0.263709 5:-0.236946 6:-0.182690 7:-0.063566 8:0.002301 9:0.078717 10:0.693685 11:-0.830355 12:0.726996 13:0.719150 14:0.542064 15:0.221554 
1.000000 1:-0.478334 2:-0.429470 3:-0.361975 4:-0.258622 5:-0.201539 6:-0.236539 7:-0.304911 8:-0.354597 9:-0.412873 10:0.693685 11:-0.233693 12:-0.646458 13:-0.341885 14:-0.570162 15:-0.461507 
1.000000 1:-0.201214 2:-0.227079 3:-0.236178 4:-0.247913 5:-0.289760 6:-0.302864 7:-0.304537 8:-0.276839 9:-0.284860 10:-1.439615 11:1.630877 12:0.726996 13:-0.607143 14:1.554663 15:1.900999 
1.000000 1:-0.338082 2:-0.291373 3:-0.220545 4:-0.159297 5:-0.194163 6:-0.269373 7:-0.314251 8:-0.374254 9:-0.340538 10:0.693685 11:-1.352434 12:1.551068 13:0.984409 14:1.407673 15:0.892878 
1.000000 1:-0.207560 2:-0.225947 3:-0.204912 4:-0.151800 5:-0.121284 6:-0.186630 7:-0.243267 8:-0.289945 9:-0.318648 10:0.693685 11:0.735883 12:0.177614 13:1.196616 14:0.370575 15:-0.114885 
1.000000 1:-0.189579 2:-0.194479 3:-0.202225 4:-0.243362 5:-0.285335 6:-0.298268 7:-0.291461 8:-0.268103 9:-0.208242 10:0.693685 11:-0.904938 12:0.726996 13:0.453892 14:-3.175156 15:-3.194539 
1.000000 1:-0.412121 2:-0.392116 3:-0.357823 4:-0.373475 5:-0.380932 6:-0.366563 7:-0.363193 8:-0.341055 9:-0.331972 10:0.693685 11:0.661301 12:1.825758 13:0.453892 14:0.525731 15:0.315685 
1.000000 1:-0.195714 2:-0.233418 3:-0.254009 4:-0.236669 5:-0.207735 6:-0.195167 7:-0.181997 8:-0.169814 9:-0.183496 10:0.693685 11:-0.159110 12:-0.371767 13:-0.607143 14:-0.699187 15:-0.503708 
1.000000 1:-0.181964 2:-0.216439 3:-0.233735 4:-0.209629 5:-0.172329 6:-0.193197 7:-0.230565 8:-0.269850 9:-0.285812 10:0.693685 11:0.213804 12:-0.097076 13:-0.076626 14:-0.421539 15:-0.403406 
1.000000 1:-0.217926 2:-0.189272 3:-0.249368 4:-0.274953 5:-0.295366 6:-0.266090 7:-0.246256 8:-0.206508 9:-0.208242 10:0.693685 11:1.556294 12:-0.371767 13:0.453892 14:-0.349677 15:-0.514624 
1.000000 1:-0.234426 2:-0.273262 3:-0.299443 4:-0.315112 5:-0.334314 6:-0.320267 7:-0.276144 8:-0.209566 9:-0.139714 10:0.693685 11:-0.606607 12:0.177614 13:0.000000 14:0.334644 15:-0.000000 
1.000000 1:-0.223003 2:-0.220514 3:-0.238865 4:-0.232117 5:-0.241666 6:-0.227673 7:-0.193578 8:-0.125256 9:-0.071663 10:0.693685 11:-0.233693 12:-0.371767 13:-0.368410 14:-0.529332 15:-0.409754 
1.000000 1:-0.184291 2:-0.169123 3:-0.170958 4:-0.138414 5:-0.131316 6:-0.208629 7:-0.257838 8:-0.305671 9:-0.307226 10:-1.439615 11:0.213804 12:-0.646458 13:-0.872402 14:-0.225552 15:0.112929 
1.000000 1:-0.223003 2:-0.236134 3:-0.219323 4:-0.232117 5:-0.257599 6:-0.287432 7:-0.306405 8:-0.300866 9:-0.299612 10:-1.439615 11:-0.009944 12:-0.921148 13:-1.137661 14:0.558396 15:1.119000 
1.000000 1:-0.202272 2:-0.206930 3:-0.187324 4:-0.168399 5:-0.186196 6:-0.239494 7:-0.249245 8:-0.234029 9:-0.176834 10:0.693685 11:-0.681189 12:1.001686 13:0.453892 14:1.342344 15:1.090227 
1.000000 1:-0.487007 2:-0.449845 3:-0.420599 4:-0.440139 5:-0.436108 6:-0.410562 7:-0.393081 8:-0.405707 9:-0.406687 10:-1.439615 11:-0.159110 12:0.000000 13:0.000000 14:-0.000000 15:-0.000000 
1.000000 1:-0.408102 2:-0.335972 3:-0.247903 4:-0.195975 5:-0.235470 6:-0.239494 7:-0.251860 8:-0.260676 9:-0.259162 10:-1.439615 11:-0.457441 12:-0.371767 13:-1.137661 14:-1.074829 15:-0.734152 
1.000000 1:-0.338716 2:-0.275752 3:-0.258406 4:-0.240952 5:-0.233405 6:-0.225375 7:-0.202171 8:-0.206945 9:-0.203483 10:-1.439615 11:1.556294 12:-2.019911 13:-1.137661 14:-1.429239 15:-1.136286 
1.000000 1:-0.133309 2:-0.156219 3:-0.189523 4:-0.179911 5:-0.159051 6:-0.170213 7:-0.194326 8:-0.197772 9:-0.200628 10:0.693685 11:1.183380 12:0.177614 13:-0.607143 14:0.150090 15:0.402414 
1.000000 1:-0.214964 2:-0.151918 3:-0.199538 4:-0.199455 5:-0.256714 6:-0.283164 7:-0.284737 8:-0.272908 9:-0.236795 10:0.693685 11:-0.233693 12:0.726996 13:0.453892 14:0.640057 15:0.424121 
1.000000 1:3.535671 2:3.537759 3:3.541169 4:3.539037 5:3.537987 6:3.540741 7:3.540922 8:3.537201 9:3.533176 10:0.693685 11:0.139221 12:0.452305 13:-0.368410 14:-0.475435 15:-0.353787 
1.000000 1:-0.229561 2:-0.147164 3:-0.149707 4:-0.181518 5:-0.200949 6:-0.262806 7:-0.305658 8:-0.333192 9:-0.335304 10:0.693685 11:0.512135 12:0.177614 13:0.719150 14:0.460402 15:0.146266 
1.000000 1:-0.265946 2:-0.248586 3:-0.201248 4:-0.123154 5:-0.051651 6:-0.145259 7:-0.202545 8:-0.317029 9:-0.305799 10:0.693685 11:1.481711 12:0.177614 13:-0.076626 14:-0.388875 15:-0.370407 
1.000000 1:-0.318831 2:-0.307899 3:-0.262559 4:-0.167061 5:-0.161412 6:-0.213883 7:-0.293703 8:-0.384739 9:-0.404307 10:-1.439615 11:1.332545 12:-0.921148 13:-1.137661 14:-0.205953 15:0.251725 
1.000000 1:-0.281177 2:-0.281186 3:-0.265245 4:-0.251394 5:-0.255239 6:-0.303193 7:-0.337041 8:-0.340181 9:-0.367664 10:0.693685 11:2.003790 12:0.726996 13:0.719150 14:0.659656 15:0.329968 
1.000000 1:-0.348447 2:-0.328274 3:-0.284543 4:-0.276560 5:-0.251403 6:-0.251314 7:-0.305658 8:-0.327950 9:-0.339587 10:-1.439615 11:1.034214 12:-1.470530 13:-0.607143 14:-0.998067 15:-0.822593 
1.000000 1:-0.275254 2:-0.243605 3:-0.215659 4:-0.222212 5:-0.251698 6:-0.275612 7:-0.249618 8:-0.239271 9:-0.242030 10:0.693685 11:-1.203269 12:1.825758 13:0.188633 14:1.365209 15:1.249131 
1.000000 1:-0.205234 2:-0.134033 3:-0.163875 4:-0.205077 5:-0.235175 6:-0.261821 7:-0.264936 8:-0.270724 9:-0.314365 10:0.693685 11:-0.233693 12:-0.371767 13:0.453892 14:-0.682855 15:-0.830637 
1.000000 1:-0.293870 2:-0.307447 3:-0.313122 4:-0.311899 5:-0.306283 6:-0.300894 7:-0.284737 8:-0.294313 9:-0.290570 10:-1.439615 11:0.064638 12:-0.097076 13:-0.607143 14:-0.388875 15:-0.176055 
1.000000 1:-0.396044 2:-0.363365 3:-0.327289 4:-0.329033 5:-0.308644 6:-0.306148 7:-0.295945 8:-0.241892 9:-0.240602 10:0.693685 11:-1.128686 12:-0.921148 13:0.188633 14:-0.421539 15:-0.495044 
1.000000 1:-0.272292 2:-0.259905 3:-0.261581 4:-0.284324 5:-0.291531 6:-0.297939 7:-0.285110 8:-0.303923 9:-0.283908 10:-1.439615 11:1.407128 12:-0.097076 13:-1.137661 14:-0.846177 15:-0.474711 
1.000000 1:-0.507527 2:-0.478370 3:-0.451377 4:-0.464234 5:-0.462072 6:-0.445695 7:-0.446132 8:-0.473417 9:-0.496629 10:0.693685 11:-0.606607 12:1.276377 13:1.408823 14:1.990734 15:1.200062 
1.000000 1:-0.328351 2:-0.290015 3:-0.262070 4:-0.282449 5:-0.304808 6:-0.313372 7:-0.298186 8:-0.289945 9:-0.282004 10:0.693685 11:0.064638 12:1.001686 13:0.692624 14:0.334644 15:0.040537 
1.000000 1:-0.293870 2:-0.258547 3:-0.216636 4:-0.181785 5:-0.155510 6:-0.124902 7:-0.134176 8:-0.110404 9:-0.108782 10:0.693685 11:0.512135 12:-0.371767 13:0.162107 14:-0.565263 15:-0.626767 
1.000000 1:-0.243099 2:-0.244511 3:-0.228850 4:-0.176966 5:-0.167018 6:-0.243106 7:-0.287725 8:-0.301739 9:-0.337207 10:0.693685 11:-0.084527 12:1.001686 13:1.514927 14:0.411406 15:-0.191960 
1.000000 1:3.535671 2:3.537759 3:3.541169 4:3.539037 5:3.537987 6:3.540741 7:3.540922 8:3.537201 9:3.533176 10:0.693685 11:0.139221 12:2.924521 13:1.249668 14:2.779582 15:1.967068 
1.000000 1:-0.359659 2:-0.321030 3:-0.283077 4:-0.275221 5:-0.287105 6:-0.289731 7:-0.310141 8:-0.358965 9:-0.405259 10:0.693685 11:-1.427017 12:1.001686 13:0.692624 14:0.767449 15:0.440688 
1.000000 1:-0.214541 2:-0.130411 3:-0.181706 4:-0.206951 5:-0.246092 6:-0.275612 7:-0.320229 8:-0.345860 9:-0.361002 10:0.693685 11:0.512135 12:0.452305 13:0.188633 14:0.262782 15:0.172971 
1.000000 1:-0.179637 2:-0.209421 3:-0.264513 4:-0.294229 5:-0.310119 6:-0.327162 7:-0.317240 8:-0.290381 9:-0.278197 10:0.693685 11:0.064638 12:0.452305 13:0.719150 14:0.068428 15:-0.215115 
1.000000 1:-0.246907 2:-0.212816 3:-0.199293 4:-0.168667 5:-0.213931 6:-0.235225 7:-0.213006 8:-0.186414 9:-0.172075 10:0.693685 11:-0.308275 12:1.276377 13:0.719150 14:0.493067 15:0.176381 
1.000000 1:-0.429891 2:-0.380344 3:-0.252299 4:-0.122886 5:-0.155215 6:-0.264776 7:-0.317613 8:-0.353723 9:-0.359574 10:-1.439615 11:0.661301 12:-0.921148 13:-2.198696 14:-0.511366 15:-0.262434 
1.000000 1:-0.247965 2:-0.255604 3:-0.240330 4:-0.234795 5:-0.229864 6:-0.254598 7:-0.285857 8:-0.260240 9:-0.229657 10:0.693685 11:0.512135 12:-0.097076 13:1.514927 14:0.150090 15:-0.413742 
1.000000 1:-0.443853 2:-0.411585 3:-0.331930 4:-0.265583 5:-0.250813 6:-0.275940 7:-0.291835 8:-0.300866 9:-0.301516 10:0.693685 11:0.362969 12:-0.097076 13:0.188633 14:-0.372542 15:-0.447215 
1.000000 1:-0.197195 2:-0.173425 3:-0.209553 4:-0.234795 5:-0.277663 6:-0.294327 7:-0.323217 8:-0.346297 9:-0.322455 10:0.693685 11:0.512135 12:0.452305 13:0.798728 14:-0.045897 15:-0.348812 
1.000000 1:-0.377852 2:-0.334387 3:-0.262070 4:-0.208022 5:-0.146364 6:-0.142632 7:-0.253728 8:-0.255871 9:-0.252024 10:0.693685 11:1.780042 12:0.452305 13:0.188633 14:0.154989 15:0.067747 
0.336496 1:-0.426929 2:-0.394606 3:-0.346831 4:-0.314844 5:-0.317496 6:-0.333072 7:-0.353479 8:-0.303487 9:-0.263445 10:0.693685 11:1.257963 12:1.825758 13:0.000000 14:0.868709 15:-0.000000 
1.000000 1:-0.347813 2:-0.300429 3:-0.207110 4:-0.070948 5:-0.084697 6:-0.183347 7:-0.248498 8:-0.311787 9:-0.324834 10:0.693685 11:0.437552 12:1.551068 13:2.310703 14:0.917705 15:-0.054559 
1.000000 1:-0.438987 2:-0.391437 3:-0.327778 4:-0.279504 5:-0.263501 6:-0.267732 7:-0.274276 8:-0.276839 9:-0.255831 10:-1.439615 11:0.064638 12:-0.646458 13:-1.137661 14:0.019432 15:0.507460 
1.000000 1:-0.319043 2:-0.330086 3:-0.283077 4:-0.280308 5:-0.275008 6:-0.242449 7:-0.223093 8:-0.230098 9:-0.204435 10:-1.439615 11:-0.830355 12:-0.097076 13:-1.402920 14:2.062596 15:2.890381 
1.000000 1:-0.191906 2:-0.229569 3:-0.249612 4:-0.271741 5:-0.288285 6:-0.295641 7:-0.236169 8:-0.179861 9:-0.180165 10:-1.439615 11:0.735883 12:1.276377 13:-1.933437 14:0.754383 15:1.838158 
1.000000 1:-0.300427 2:-0.302240 3:-0.274528 4:-0.233724 5:-0.186491 6:-0.201078 7:-0.216368 8:-0.261113 9:-0.226802 10:-1.439615 11:-0.457441 12:-1.195839 13:-0.607143 14:-0.617526 15:-0.416581 
1.000000 1:3.535671 2:3.537759 3:3.541169 4:3.539037 5:3.537987 6:3.540741 7:3.540922 8:3.537201 9:3.533176 10:0.693685 11:-0.382858 12:0.452305 13:1.514927 14:0.378741 15:-0.219682 
1.000000 1:-0.384198 2:-0.354988 3:-0.282344 4:-0.165454 5:-0.097090 6:-0.149856 7:-0.247750 8:-0.359402 9:-0.372899 10:0.693685 11:-0.382858 12:1.001686 13:0.984409 14:0.803380 15:0.350743 
1.000000 1:-0.319255 2:-0.302240 3:-0.257673 4:-0.214983 5:-0.187376 6:-0.183019 7:-0.214126 8:-0.190782 9:-0.183496 10:0.693685 11:1.332545 12:-0.371767 13:0.453892 14:-0.782482 15:-0.925131 
1.000000 1:-0.325389 2:-0.325784 3:-0.328755 4:-0.325821 5:-0.309234 6:-0.289074 7:-0.292956 8:-0.298245 9:-0.327214 10:0.693685 11:-0.084527 12:0.177614 13:0.586521 14:-0.205953 15:-0.423671 
1.000000 1:-0.234215 2:-0.211005 3:-0.202713 4:-0.188478 5:-0.220127 6:-0.234240 7:-0.230191 8:-0.243203 9:-0.191110 10:0.693685 11:0.959632 12:-0.097076 13:0.162107 14:-0.349677 15:-0.415706 
1.000000 1:-0.449141 2:-0.432866 3:-0.416203 4:-0.433178 5:-0.432567 6:-0.416143 7:-0.403541 8:-0.419686 9:-0.442854 10:0.693685 11:-0.979520 12:-0.371767 13:0.984409 14:-0.178189 15:-0.461104 
1.000000 1:-0.286254 2:-0.182480 3:-0.169004 4:-0.234259 5:-0.302743 6:-0.320595 7:-0.327327 8:-0.271160 9:-0.237747 10:0.693685 11:-0.308275 12:0.452305 13:0.453892 14:0.150090 15:-0.040604 
1.000000 1:-0.255792 2:-0.201950 3:-0.195874 4:-0.200526 5:-0.187376 6:-0.217166 7:-0.261947 8:-0.320960 9:-0.314365 10:0.693685 11:1.034214 12:-0.371767 13:0.984409 14:-0.601194 15:-0.908486 
1.000000 1:-0.445333 2:-0.388720 3:-0.315076 4:-0.197313 5:-0.134266 6:-0.179735 7:-0.271661 8:-0.402649 9:-0.463317 10:0.693685 11:-0.009944 12:2.375140 13:2.575962 14:1.668989 15:0.429325 
1.000000 1:-0.253042 2:-0.302013 3:-0.332419 4:-0.335726 5:-0.326347 6:-0.311073 7:-0.276517 8:-0.237087 9:-0.224422 10:-1.439615 11:-0.308275 12:0.452305 13:-1.137661 14:-0.160223 15:0.303613 
1.000000 1:-0.177522 2:-0.174104 3:-0.172180 4:-0.212038 5:-0.222488 6:-0.214540 7:-0.219357 8:-0.193840 9:-0.177309 10:-1.439615 11:2.227539 12:-1.195839 13:-0.607143 14:-0.846177 15:-0.660536 
1.000000 1:-0.342736 2:-0.345706 3:-0.290405 4:-0.219534 5:-0.209505 6:-0.251971 7:-0.263068 8:-0.264171 9:-0.237747 10:0.693685 11:-0.830355 12:0.177614 13:0.984409 14:0.190920 15:-0.198340 
1.000000 1:-0.214330 2:-0.202176 3:-0.214438 4:-0.184463 5:-0.208620 6:-0.242777 7:-0.267925 8:-0.277276 9:-0.320551 10:0.693685 11:0.213804 12:0.177614 13:-0.607143 14:0.190920 15:0.445977 
1.000000 1:3.535671 2:3.537759 3:3.541169 4:3.539037 5:3.537987 6:3.540741 7:3.540922 8:3.537201 9:3.533176 10:-1.439615 11:0.437552 12:1.276377 13:-1.137661 14:0.946777 15:1.559679 
1.000000 1:-0.361351 2:-0.347291 3:-0.298954 4:-0.198384 5:-0.072895 6:-0.093709 7:-0.238784 8:-0.270724 9:-0.342918 10:-1.439615 11:1.556294 12:-0.921148 13:0.188633 14:-1.105860 15:-1.163060 
1.000000 1:-0.181541 2:-0.212816 3:-0.240330 4:-0.213912 5:-0.166132 6:-0.191556 7:-0.213006 8:-0.187724 9:-0.122107 10:0.693685 11:0.362969 12:0.452305 13:0.984409 14:-0.258217 15:-0.601000 
1.000000 1:-0.371082 2:-0.343216 3:-0.273795 4:-0.204542 5:-0.103286 6:-0.184004 7:-0.215621 8:-0.228787 9:-0.217284 10:0.693685 11:1.257963 12:-0.371767 13:0.188633 14:-0.421539 15:-0.495044 
1.000000 1:-0.395198 2:-0.365176 3:-0.301153 4:-0.178840 5:-0.086468 6:-0.145916 7:-0.273902 8:-0.390854 9:-0.397169 10:0.693685 11:-0.755772 12:0.177614 13:-0.076626 14:-0.274549 15:-0.255667 
1.000000 1:-0.311639 2:-0.267602 3:-0.188790 4:-0.134666 5:-0.163772 6:-0.231942 7:-0.248124 8:-0.272471 9:-0.233464 10:0.693685 11:0.810466 12:1.825758 13:0.000000 14:-0.586495 15:-0.000000 
1.000000 1:-0.225965 2:-0.231380 3:-0.255231 4:-0.258354 5:-0.250518 6:-0.270358 7:-0.289967 8:-0.306108 9:-0.293426 10:0.693685 11:1.034214 12:-0.371767 13:0.453892 14:-0.160223 15:-0.334930 
1.000000 1:3.535671 2:3.537759 3:3.541169 4:3.539037 5:3.537987 6:3.540741 7:3.540922 8:3.537201 9:3.533176 10:0.693685 11:1.332545 12:0.314960 13:-0.872402 14:-0.457470 15:-0.142184 
1.000000 1:-0.321582 2:-0.337783 3:-0.274772 4:-0.233991 5:-0.221898 6:-0.216181 7:-0.215247 8:-0.234029 9:-0.264397 10:0.693685 11:-0.159110 12:0.726996 13:0.984409 14:0.190920 15:-0.198340 
1.000000 1:-0.331947 2:-0.340952 3:-0.326068 4:-0.310025 5:-0.297432 6:-0.287104 7:-0.263068 8:-0.205198 9:-0.186827 10:0.693685 11:0.064638 12:-0.097076 13:0.188633 14:0.017798 15:-0.066175 
1.000000 1:-0.239503 2:-0.193800 3:-0.220300 4:-0.222747 5:-0.250813 6:-0.287761 7:-0.336293 8:-0.390418 9:-0.393362 10:-1.439615 11:1.481711 12:-1.745220 13:-0.872402 14:-1.027465 15:-0.769187 
1.000000 1:-0.249446 2:-0.224136 3:-0.213217 4:-0.225692 5:-0.293006 6:-0.332744 7:-0.346007 8:-0.376002 9:-0.376230 10:-1.439615 11:-0.308275 12:-0.371767 13:-1.933437 14:-0.029565 15:0.859001 
1.000000 1:-0.365582 2:-0.330086 3:-0.246193 4:-0.143233 5:-0.103581 6:-0.200421 7:-0.287352 8:-0.372507 9:-0.396217 10:0.693685 11:0.139221 12:0.177614 13:-0.368410 14:-0.421539 15:-0.297820 
1.000000 1:-0.307408 2:-0.321483 3:-0.330221 4:-0.320198 5:-0.303628 6:-0.296298 7:-0.312383 8:-0.317902 9:-0.291998 10:-1.439615 11:0.959632 12:-0.646458 13:-0.156203 14:-0.310480 15:-0.262503 
1.000000 1:-0.214118 2:-0.159389 3:-0.195385 4:-0.240149 5:-0.319266 6:-0.318625 7:-0.320229 8:-0.332755 9:-0.347677 10:0.693685 11:1.034214 12:-0.097076 13:-0.607143 14:-0.731852 15:-0.538559 
1.000000 1:3.535671 2:3.537759 3:3.541169 4:3.539037 5:3.537987 6:3.540741 7:3.540922 8:3.537201 9:3.533176 10:0.693685 11:0.586718 12:1.001686 13:0.984409 14:0.983034 15:0.660736 
1.000000 1:-0.167791 2:-0.193121 3:-0.238376 4:-0.214448 5:-0.210686 6:-0.272328 7:-0.282869 8:-0.299992 9:-0.277721 10:0.693685 11:-0.084527 12:0.726996 13:-0.341885 14:0.182754 15:0.318004 
1.000000 1:-0.196560 2:-0.197875 3:-0.252299 4:-0.282182 5:-0.323397 6:-0.345549 7:-0.334425 8:-0.359402 9:-0.372899 10:0.693685 11:-2.023679 12:-0.371767 13:1.249668 14:-0.552197 15:-0.938663 
1.000000 1:-0.326447 2:-0.326463 3:-0.252299 4:-0.137611 5:-0.055487 6:-0.061531 7:-0.178261 8:-0.272034 9:-0.242506 10:0.693685 11:1.854625 12:1.276377 13:2.469858 14:1.018965 15:-0.030837 
1.000000 1:-0.235907 2:-0.254019 3:-0.190255 4:-0.164383 5:-0.176459 6:-0.194182 7:-0.199182 8:-0.168503 9:-0.215856 10:0.693685 11:1.257963 12:0.726996 13:0.000000 14:0.092927 15:-0.000000 
1.000000 1:-0.213272 2:-0.174330 3:-0.235689 4:-0.250323 5:-0.282679 6:-0.308446 7:-0.303417 8:-0.330134 9:-0.328165 10:0.693685 11:2.003790 12:0.726996 13:-0.076626 14:-0.259850 15:-0.240893 
1.000000 1:-0.502450 2:-0.472937 3:-0.442583 4:-0.454596 5:-0.452631 6:-0.435844 7:-0.428946 8:-0.432791 9:-0.417632 10:0.693685 11:-0.904938 12:-0.371767 13:-0.607143 14:-0.637125 15:-0.348812 
1.000000 1:-0.240773 2:-0.181348 3:-0.235445 4:-0.256213 5:-0.310414 6:-0.323222 7:-0.315745 8:-0.308729 9:-0.308654 10:0.693685 11:-0.233693 12:-1.195839 13:-0.686721 14:-0.890275 15:-0.681220 
1.000000 1:-0.235061 2:-0.209421 3:-0.139936 4:-0.148855 5:-0.193572 6:-0.256239 7:-0.301175 8:-0.299992 9:-0.292950 10:-1.439615 11:-0.159110 12:-0.371767 13:-1.668178 14:0.182754 15:0.973409 
1.000000 1:-0.388006 2:-0.377627 3:-0.306771 4:-0.218196 5:-0.149019 6:-0.160691 7:-0.202918 8:-0.270724 9:-0.325786 10:0.693685 11:1.183380 12:0.452305 13:0.586521 14:-0.385608 15:-0.591662 
1.000000 1:-0.250715 2:-0.234776 3:-0.255231 4:-0.237472 5:-0.186196 6:-0.228987 7:-0.295945 8:-0.296934 9:-0.328165 10:0.693685 11:-0.233693 12:1.001686 13:1.514927 14:0.525731 15:-0.094930 
1.000000 1:-0.234426 2:-0.246548 3:-0.223232 4:-0.146714 5:-0.117743 6:-0.212898 7:-0.315372 8:-0.382118 9:-0.387651 10:0.693685 11:1.034214 12:0.452305 13:0.188633 14:0.119058 15:0.032672 
1.000000 1:-0.236965 2:-0.215533 3:-0.200270 4:-0.186604 5:-0.177640 6:-0.158721 7:-0.143142 8:-0.079388 9:-0.097361 10:-1.439615 11:1.034214 12:0.177614 13:0.000000 14:-0.000000 15:0.645620 
1.000000 1:-0.186618 2:-0.131543 3:-0.198561 4:-0.215519 5:-0.278253 6:-0.321908 7:-0.336667 8:-0.392602 9:-0.405735 10:-1.439615 11:-0.159110 12:1.276377 13:-0.607143 14:1.570995 15:1.918425 
1.000000 1:-0.341890 2:-0.311295 3:-0.251322 4:-0.202936 5:-0.222488 6:-0.266090 7:-0.313504 8:-0.323144 9:-0.296757 10:0.693685 11:-0.382858 12:-0.371767 13:-0.076626 14:-0.602827 15:-0.456786 
1.000000 1:3.535671 2:3.537759 3:3.541169 4:3.539037 5:3.537987 6:3.540741 7:3.540922 8:3.537201 9:3.533176 10:0.693685 11:-1.203269 12:1.441191 13:0.692624 14:2.531331 15:2.071494 
1.000000 1:-0.364524 2:-0.321483 3:-0.303351 4:-0.233188 5:-0.131316 6:-0.151826 7:-0.273155 8:-0.345423 9:-0.366236 10:0.693685 11:0.735883 12:0.177614 13:-0.341885 14:-0.068762 15:0.057603 
1.000000 1:-0.320524 2:-0.235682 3:-0.164119 4:-0.123689 5:-0.106826 6:-0.182690 7:-0.232806 8:-0.254997 9:-0.254403 10:0.693685 11:0.512135 12:0.726996 13:0.000000 14:0.011266 15:-0.079959 
1.000000 1:-0.266581 2:-0.232739 3:-0.202225 4:-0.178573 5:-0.183541 6:-0.166601 7:-0.133055 8:-0.114335 9:-0.040730 10:0.693685 11:0.735883 12:0.726996 13:0.453892 14:3.395307 15:3.037425 
1.000000 1:-0.313966 2:-0.245643 3:-0.286008 4:-0.298781 5:-0.295957 6:-0.294984 7:-0.292209 8:-0.305671 9:-0.252024 10:-1.439615 11:1.780042 12:-0.921148 13:-0.872402 14:-0.617526 15:-0.318248 
1.000000 1:-0.150021 2:-0.202855 3:-0.268421 4:-0.263173 5:-0.264091 6:-0.271672 7:-0.273529 8:-0.250192 9:-0.284384 10:0.693685 11:0.885049 12:0.314960 13:0.000000 14:-0.388875 15:-0.000000 
1.000000 1:3.535671 2:3.537759 3:3.541169 4:3.539037 5:3.537987 6:3.540741 7:3.540922 8:3.537201 9:3.533176 10:0.693685 11:-0.606607 12:0.726996 13:-0.076626 14:0.427738 15:0.450198 
0.971182 1:-0.329409 2:-0.327142 3:-0.283810 4:-0.327159 5:-0.343165 6:-0.312386 7:-0.305658 8:-0.283829 9:-0.277246 10:0.693685 11:1.332545 12:4.023284 13:-0.341885 14:1.554663 15:1.738371 
1.000000 1:3.535671 2:3.537759 3:3.541169 4:3.539037 5:3.537987 6:3.540741 7:3.540922 8:3.537201 9:3.533176 10:-1.439615 11:1.481711 12:-1.470530 13:-2.729213 14:-1.189155 15:-0.271106 
-1.000000 1:-0.208618 2:-0.192668 3:-0.256696 4:-0.275221 5:-0.299497 6:-0.311401 7:-0.311262 8:-0.281645 9:-0.271059 10:0.693685 11:0.661301 12:0.177614 13:0.000000 14:-0.225552 15:-0.000000 
-1.000000 1:-0.366005 2:-0.376269 3:-0.351960 4:-0.342955 5:-0.329888 6:-0.311401 7:-0.310141 8:-0.306981 9:-0.267252 10:-1.439615 11:1.034214 12:-1.470530 13:-1.137661 14:-0.372542 15:0.062703 
-1.000000 1:-0.200791 2:-0.226400 3:-0.229582 4:-0.260764 5:-0.267041 6:-0.229315 7:-0.208522 8:-0.155398 9:-0.090222 10:0.693685 11:1.183380 12:1.551068 13:0.453892 14:0.623725 15:0.408630 
-0.922267 1:-0.378275 2:-0.371967 3:-0.356113 4:-0.363034 5:-0.354082 6:-0.319610 7:-0.281001 8:-0.272034 9:-0.280577 10:0.693685 11:1.108797 12:-0.371767 13:-0.076626 14:-0.764516 15:-0.748131 
-1.000000 1:-0.393929 2:-0.375137 3:-0.342922 4:-0.346168 5:-0.350837 6:-0.330445 7:-0.327327 8:-0.337997 9:-0.354815 10:0.693685 11:0.437552 12:0.000000 13:0.000000 14:-0.000000 15:-0.000000 
-1.000000 1:-0.284350 2:-0.292958 3:-0.284298 4:-0.273079 5:-0.245797 6:-0.211256 7:-0.193205 8:-0.178551 9:-0.161605 10:0.693685 11:-0.308275 12:-0.097076 13:0.453892 14:-0.529332 15:-0.685023 
-1.000000 1:-0.141559 2:-0.191310 3:-0.222499 4:-0.210164 5:-0.191802 6:-0.193854 7:-0.199556 8:-0.179861 9:-0.194917 10:0.693685 11:0.288387 12:1.001686 13:0.984409 14:0.754383 15:0.306816 
-1.000000 1:-0.186195 2:-0.239530 3:-0.270131 4:-0.282182 5:-0.284449 6:-0.280209 7:-0.266057 8:-0.320086 9:-0.358622 10:-1.439615 11:-0.308275 12:0.562181 13:-1.933437 14:1.195354 15:2.393705 
-1.000000 1:-0.296408 2:-0.326690 3:-0.320938 4:-0.311899 5:-0.313070 6:-0.328804 7:-0.331063 8:-0.307855 9:-0.320075 10:0.693685 11:-0.755772 12:0.726996 13:1.196616 14:0.875241 15:0.327670 
-0.128290 1:-0.209041 2:-0.227305 3:-0.258406 4:-0.264780 5:-0.260255 6:-0.245732 7:-0.260453 8:-0.233592 9:-0.279149 10:0.693685 11:-0.979520 12:-0.371767 13:-0.076626 14:-0.617526 15:-0.600392 
-1.000000 1:-0.149175 2:-0.194932 3:-0.242529 4:-0.263977 5:-0.297137 6:-0.317312 7:-0.322844 8:-0.347607 9:-0.343870 10:0.693685 11:-0.681189 12:-0.371767 13:0.719150 14:-0.000000 15:-0.000000 
-1.000000 1:-0.425449 2:-0.411585 3:-0.382738 4:-0.391413 5:-0.366770 6:-0.324535 7:-0.269419 8:-0.251940 9:-0.289619 10:0.693685 11:0.362969 12:0.177614 13:-0.872402 14:0.329744 15:0.723763 
-1.000000 1:-0.348870 2:-0.370383 3:-0.377853 4:-0.388200 5:-0.380932 6:-0.366892 7:-0.354600 8:-0.327076 9:-0.330069 10:0.693685 11:-0.233693 12:-0.371767 13:-0.872402 14:-0.349677 15:-0.023610 
-1.000000 1:-0.268696 2:-0.242247 3:-0.267200 4:-0.286733 5:-0.340510 6:-0.351131 7:-0.342645 8:-0.350665 9:-0.311033 10:0.693685 11:-0.009944 12:0.726996 13:0.692624 14:0.334644 15:0.040537 
-0.002999 1:-0.374678 2:-0.390305 3:-0.344144 4:-0.329837 5:-0.310709 6:-0.284477 7:-0.255222 8:-0.195587 9:-0.212049 10:0.693685 11:0.213804 12:-0.097076 13:0.719150 14:-0.349677 15:-0.600588 
-1.000000 1:-0.188099 2:-0.234550 3:-0.258406 4:-0.263173 5:-0.275303 6:-0.302864 7:-0.317613 8:-0.317902 9:-0.326738 10:-1.439615 11:1.034214 12:-0.646458 13:0.000000 14:-0.385608 15:-0.000000 
-1.000000 1:-0.489123 2:-0.455278 3:-0.424752 4:-0.432642 5:-0.426076 6:-0.412203 7:-0.406157 8:-0.456817 9:-0.485684 10:0.693685 11:-0.009944 12:0.452305 13:-0.341885 14:-0.437871 15:-0.324543 
-1.000000 1:-0.272504 2:-0.322841 3:-0.316297 4:-0.306277 5:-0.260550 6:-0.183019 7:-0.131561 8:-0.044004 9:-0.070235 10:0.693685 11:0.064638 12:-0.097076 13:0.453892 14:-0.503200 15:-0.660238 
-1.000000 1:-0.161021 2:-0.189725 3:-0.217125 4:-0.240149 5:-0.280319 6:-0.308118 7:-0.346381 8:-0.382118 9:-0.400024 10:-1.439615 11:0.437552 12:-0.097076 13:-1.402920 14:1.668989 15:2.570080 
-1.000000 1:-0.221522 2:-0.268734 3:-0.316542 4:-0.331443 5:-0.345231 6:-0.345878 7:-0.343018 8:-0.350228 9:-0.374326 10:-1.439615 11:-0.084527 12:0.726996 13:-0.341885 14:1.608559 15:1.794171 
-1.000000 1:-0.224695 2:-0.268282 3:-0.325579 4:-0.340278 5:-0.343165 6:-0.320595 7:-0.303790 8:-0.267666 9:-0.237747 10:0.693685 11:1.332545 12:1.276377 13:0.984409 14:0.983034 15:0.511807 
-1.000000 1:-0.302966 2:-0.309711 3:-0.336816 4:-0.328230 5:-0.301563 6:-0.281194 7:-0.283989 8:-0.268976 9:-0.259638 10:0.693685 11:0.437552 12:0.000000 13:0.000000 14:-0.000000 15:-0.000000 
-1.000000 1:3.535671 2:3.537759 3:3.541169 4:3.539037 5:3.537987 6:3.540741 7:3.540922 8:3.537201 9:3.533176 10:-1.439615 11:1.630877 12:-0.371767 13:-1.933437 14:-0.421539 15:0.369422 
-1.000000 1:-0.174772 2:-0.201044 3:-0.243261 4:-0.255677 5:-0.238421 6:-0.224390 7:-0.251113 8:-0.273345 9:-0.248216 10:0.693685 11:1.183380 12:0.726996 13:0.453892 14:2.158956 15:1.864769 
-1.000000 1:-0.162925 2:-0.142183 3:-0.150928 4:-0.146981 5:-0.139872 6:-0.157408 7:-0.173778 8:-0.202577 9:-0.156370 10:0.693685 11:0.064638 12:0.726996 13:0.000000 14:-0.274549 15:-0.000000 
-0.377832 1:-0.407044 2:-0.396870 3:-0.350250 4:-0.337868 5:-0.303923 6:-0.289402 7:-0.306405 8:-0.341492 9:-0.387175 10:0.693685 11:-0.606607 12:-0.097076 13:0.719150 14:-0.160223 15:-0.425921 
-1.000000 1:-0.265311 2:-0.145353 3:-0.190255 4:-0.293426 5:-0.318676 6:-0.325192 7:-0.307526 8:-0.310913 9:-0.312461 10:0.693685 11:-0.084527 12:0.177614 13:1.249668 14:0.019432 15:-0.440131 
-1.000000 1:3.535671 2:3.537759 3:3.541169 4:3.539037 5:3.537987 6:3.540741 7:3.540922 8:3.537201 9:3.533176 10:0.693685 11:1.407128 12:1.825758 13:-0.501040 14:0.298713 15:0.514972 
-1.000000 1:-0.382082 2:-0.386909 3:-0.359288 4:-0.347239 5:-0.314840 6:-0.288417 7:-0.261200 8:-0.222235 9:-0.217284 10:0.693685 11:-0.159110 12:-0.097076 13:0.321262 14:0.166422 15:0.026336 
-1.000000 1:-0.241407 2:-0.255604 3:-0.265490 4:-0.273615 5:-0.294186 6:-0.301223 7:-0.285110 8:-0.265918 9:-0.190634 10:0.693685 11:0.735883 12:-0.646458 13:0.453892 14:-0.601194 15:-0.753183 
-1.000000 1:-0.166733 2:-0.202176 3:-0.249857 4:-0.281646 5:-0.304218 6:-0.293342 7:-0.257464 8:-0.204761 9:-0.196821 10:0.693685 11:-0.159110 12:0.726996 13:0.984409 14:0.190920 15:-0.198340 
-1.000000 1:-0.143463 2:-0.190857 3:-0.218102 4:-0.209093 5:-0.229274 6:-0.242777 7:-0.235795 8:-0.176803 9:-0.209670 10:0.693685 11:1.630877 12:0.177614 13:0.719150 14:-0.098161 15:-0.368702 
-1.000000 1:-0.167579 2:-0.158030 3:-0.247414 4:-0.261567 5:-0.296252 6:-0.316327 7:-0.275770 8:-0.251066 9:-0.231560 10:0.693685 11:-0.532024 12:1.001686 13:0.745676 14:0.721718 15:0.374607 
-1.000000 1:-0.201426 2:-0.232739 3:-0.231537 4:-0.216322 5:-0.203604 6:-0.208301 7:-0.187227 8:-0.203450 9:-0.173502 10:0.693685 11:-1.054103 12:-0.097076 13:0.188633 14:-0.457470 15:-0.530119 
-1.000000 1:-0.162079 2:-0.157351 3:-0.210285 4:-0.246842 5:-0.270582 6:-0.282179 7:-0.288099 8:-0.279897 9:-0.244885 10:0.693685 11:1.481711 12:-0.371767 13:0.188633 14:-0.617526 15:-0.686362 
-1.000000 1:-0.310370 2:-0.290241 3:-0.289672 4:-0.308419 5:-0.305693 6:-0.285462 7:-0.256343 8:-0.261550 9:-0.225850 10:0.693685 11:1.854625 12:1.551068 13:0.453892 14:0.262782 15:0.066282 
-1.000000 1:-0.228080 2:-0.272357 3:-0.307992 4:-0.335994 5:-0.339330 6:-0.337012 7:-0.324338 8:-0.354160 9:-0.342442 10:-1.439615 11:0.586718 12:0.726996 13:-0.872402 14:1.668989 15:1.756663 
-1.000000 1:-0.272292 2:-0.242247 3:-0.224209 4:-0.225424 5:-0.240781 6:-0.258538 7:-0.259332 8:-0.261987 9:-0.211573 10:0.693685 11:0.959632 12:-0.646458 13:0.188633 14:-0.486868 15:-0.558817 
-1.000000 1:-0.203753 2:-0.202855 3:-0.223476 4:-0.234259 5:-0.227799 6:-0.248031 7:-0.264936 8:-0.205635 9:-0.221567 10:-1.439615 11:1.034214 12:-0.921148 13:-2.437429 14:-1.646458 15:-1.001920 
-1.000000 1:-0.262561 2:-0.246548 3:-0.238865 4:-0.227566 5:-0.233110 6:-0.241792 7:-0.260079 8:-0.289508 9:-0.276294 10:0.693685 11:-0.755772 12:0.177614 13:0.188633 14:-0.454204 15:-0.526931 
-1.000000 1:-0.395621 2:-0.355215 3:-0.326068 4:-0.343490 5:-0.344936 6:-0.322894 7:-0.310889 8:-0.316155 9:-0.318648 10:-1.439615 11:-0.233693 12:0.000000 13:-0.739773 14:1.543230 15:1.972609 
-1.000000 1:-0.435391 2:-0.419056 3:-0.393486 4:-0.403193 5:-0.391259 6:-0.368205 7:-0.344886 8:-0.345860 9:-0.322931 10:0.693685 11:-0.606607 12:1.001686 13:1.249668 14:0.981401 15:0.398828 
-1.000000 1:-0.438141 2:-0.450524 3:-0.427927 4:-0.440139 5:-0.439058 6:-0.426322 7:-0.425957 8:-0.446333 9:-0.456655 10:0.693685 11:-0.532024 12:0.452305 13:-0.607143 14:0.264415 15:0.524392 
-1.000000 1:-0.356063 2:-0.386003 3:-0.369548 4:-0.379365 5:-0.375031 6:-0.333729 7:-0.302296 8:-0.191219 9:-0.327690 10:0.693685 11:-1.650765 12:0.726996 13:0.453892 14:1.211686 15:0.966300 
-1.000000 1:-0.175406 2:-0.188140 3:-0.216148 4:-0.243630 5:-0.266746 6:-0.280209 7:-0.296692 8:-0.284266 9:-0.288667 10:0.693685 11:-0.979520 12:0.177614 13:0.268210 14:0.011266 15:-0.102923 
-1.000000 1:-0.275465 2:-0.250170 3:-0.312389 4:-0.373475 5:-0.384178 6:-0.376085 7:-0.367302 8:-0.374691 9:-0.364809 10:0.693685 11:0.362969 12:-0.097076 13:0.453892 14:0.166422 15:-0.025113 
-1.000000 1:-0.260657 2:-0.288204 3:-0.303840 4:-0.311899 5:-0.344936 6:-0.346863 7:-0.335546 8:-0.351976 9:-0.352911 10:0.693685 11:-0.009944 12:-0.097076 13:-0.076626 14:0.182754 15:0.201850 
-0.420150 1:3.535671 2:3.537759 3:3.541169 4:3.539037 5:3.537987 6:3.540741 7:3.540922 8:3.537201 9:3.533176 10:-1.439615 11:0.586718 12:-0.921148 13:-1.137661 14:-0.617526 15:-0.215270 
-0.036037 1:-0.333639 2:-0.326011 3:-0.335594 4:-0.348845 5:-0.333133 6:-0.303193 7:-0.292582 8:-0.257618 9:-0.211573 10:0.693685 11:-2.098262 12:0.177614 13:0.000000 14:-0.000000 15:-0.000000 
-1.000000 1:3.535671 2:3.537759 3:3.541169 4:3.539037 5:3.537987 6:3.540741 7:3.540922 8:3.537201 9:3.533176 10:0.693685 11:-0.606607 12:0.000000 13:0.000000 14:1.391341 15:-0.000000 
-1.000000 1:-0.299370 2:-0.276432 3:-0.282588 4:-0.258622 5:-0.243437 6:-0.233255 7:-0.241399 8:-0.238834 9:-0.228229 10:0.693685 11:2.003790 12:-0.921148 13:-0.872402 14:-0.771049 15:-0.487125 
-1.000000 1:-0.367909 2:-0.276205 3:-0.178775 4:-0.163580 5:-0.097680 6:-0.193854 7:-0.256717 8:-0.335376 9:-0.345773 10:-1.439615 11:2.451287 12:0.000000 13:0.000000 14:-0.000000 15:-0.000000 
-1.000000 1:-0.209253 2:-0.232286 3:-0.260849 4:-0.277898 5:-0.282679 6:-0.233255 7:-0.173030 8:-0.054488 9:-0.024074 10:0.693685 11:-2.396593 12:0.177614 13:-0.607143 14:1.326012 15:0.730919 
-1.000000 1:-0.231253 2:-0.274620 3:-0.299199 4:-0.338404 5:-0.350542 6:-0.337012 7:-0.300428 8:-0.251066 9:-0.243458 10:-1.439615 11:-1.054103 12:0.000000 13:-0.607143 14:2.206320 15:2.596273 
-1.000000 1:-0.309735 2:-0.332123 3:-0.363197 4:-0.381775 5:-0.373261 6:-0.358683 7:-0.332184 8:-0.325329 9:-0.312461 10:0.693685 11:1.108797 12:0.177614 13:0.719150 14:-0.415006 15:-0.660819 
-1.000000 1:-0.227234 2:-0.227305 3:-0.253521 4:-0.265315 5:-0.257894 6:-0.229972 7:-0.232433 8:-0.213498 9:-0.260114 10:0.693685 11:-0.606607 12:0.000000 13:0.000000 14:-0.000000 15:-0.000000 
-1.000000 1:-0.325812 2:-0.301561 3:-0.279902 4:-0.300387 5:-0.304808 6:-0.280209 7:-0.241399 8:-0.214808 9:-0.195393 10:0.693685 11:-2.172845 12:0.000000 13:0.000000 14:-0.000000 15:-0.000000 
-1.000000 1:-0.193599 2:-0.241115 3:-0.267200 4:-0.266118 5:-0.241076 6:-0.224062 7:-0.170042 8:-0.104725 9:-0.163985 10:0.693685 11:1.407128 12:0.000000 13:0.453892 14:-0.947437 15:-1.081589 
-1.000000 1:-0.223003 2:-0.201271 3:-0.218102 4:-0.247913 5:-0.244912 6:-0.224062 7:-0.189095 8:-0.170251 9:-0.241078 10:0.693685 11:1.630877 12:-0.097076 13:-0.076626 14:-0.388875 15:-0.370575 
-1.000000 1:-0.147483 2:-0.146711 3:-0.201736 4:-0.231314 5:-0.244617 6:-0.247374 7:-0.254102 8:-0.256308 9:-0.214429 10:0.693685 11:1.929208 12:0.177614 13:1.249668 14:-0.241884 15:-0.668031 
-1.000000 1:-0.240349 2:-0.300655 3:-0.326557 4:-0.344561 5:-0.349952 6:-0.338654 7:-0.291461 8:-0.251066 9:-0.212049 10:0.693685 11:-1.874514 12:0.726996 13:0.188633 14:1.097360 15:0.987664 
-0.144604 1:3.535671 2:3.537759 3:3.541169 4:3.539037 5:3.537987 6:3.540741 7:3.540922 8:3.537201 9:3.533176 10:0.693685 11:-0.382858 12:0.000000 13:0.000000 14:-0.000000 15:-0.000000 
-1.000000 1:-0.179849 2:-0.219382 3:-0.228117 4:-0.239078 5:-0.267336 6:-0.280865 7:-0.327701 8:-0.358528 9:-0.367664 10:-1.439615 11:2.152956 12:0.000000 13:-1.933437 14:-0.726952 15:-0.012041 
-1.000000 1:-0.206291 2:-0.241115 3:-0.255963 4:-0.262102 5:-0.279138 6:-0.278567 7:-0.245135 8:-0.230098 9:-0.214904 10:-1.439615 11:-0.681189 12:-0.371767 13:-0.076626 14:0.929138 15:0.954153 
-1.000000 1:-0.290696 2:-0.329406 3:-0.352693 4:-0.376153 5:-0.382408 6:-0.375757 7:-0.382993 8:-0.400902 9:-0.456179 10:0.693685 11:0.885049 12:-0.097076 13:-0.076626 14:-0.349677 15:-0.331178 
-1.000000 1:-0.261715 2:-0.212137 3:-0.227873 4:-0.247110 5:-0.265271 6:-0.273642 7:-0.263815 8:-0.265482 9:-0.299136 10:0.693685 11:-0.606607 12:0.177614 13:-0.341885 14:-0.529332 15:-0.419234 
-1.000000 1:-0.286889 2:-0.268508 3:-0.214194 4:-0.179376 5:-0.178525 6:-0.180063 7:-0.189842 8:-0.198645 9:-0.209194 10:0.693685 11:0.661301 12:1.001686 13:-0.607143 14:0.525731 15:0.803198 
-1.000000 1:-0.148329 2:-0.182933 3:-0.211751 4:-0.218464 5:-0.210981 6:-0.205346 7:-0.227202 8:-0.210440 9:-0.232512 10:0.693685 11:1.481711 12:-0.097076 13:0.984409 14:-0.388875 15:-0.718137 
-1.000000 1:-0.219407 2:-0.275752 3:-0.284543 4:-0.296907 5:-0.288580 6:-0.258210 7:-0.267925 8:-0.268976 9:-0.342918 10:-1.439615 11:2.152956 12:0.000000 13:0.000000 14:0.754383 15:-0.000000 
-1.000000 1:-0.125482 2:-0.184065 3:-0.244727 4:-0.242291 5:-0.260255 6:-0.267075 7:-0.232059 8:-0.169814 9:-0.107830 10:0.693685 11:1.257963 12:-0.097076 13:0.719150 14:0.035764 15:-0.245230 
-1.000000 1:-0.171810 2:-0.179990 3:-0.176577 4:-0.196242 5:-0.172919 6:-0.170213 7:-0.176019 8:-0.116083 9:-0.183972 10:0.693685 11:-0.382858 12:-0.097076 13:0.719150 14:-0.764516 15:-0.983050 
-1.000000 1:-0.326870 2:-0.342537 3:-0.322648 4:-0.333852 5:-0.323987 6:-0.298268 7:-0.307153 8:-0.346297 9:-0.361953 10:-1.439615 11:-0.084527 12:-0.097076 13:-0.872402 14:0.298713 15:0.590554 
-1.000000 1:3.535671 2:3.537759 3:3.541169 4:3.539037 5:3.537987 6:3.540741 7:3.540922 8:3.537201 9:3.533176 10:0.693685 11:1.854625 12:1.276377 13:-0.076626 14:0.640057 15:0.663599 
-1.000000 1:-0.170329 2:-0.230475 3:-0.262803 4:-0.259693 5:-0.260845 6:-0.272328 7:-0.276517 8:-0.229224 9:-0.205863 10:0.693685 11:0.437552 12:0.452305 13:0.188633 14:-0.205953 15:-0.284596 
-1.000000 1:-0.268485 2:-0.263301 3:-0.252544 4:-0.254071 5:-0.240486 6:-0.264448 7:-0.279880 8:-0.323581 9:-0.324358 10:0.693685 11:-0.009944 12:-0.371767 13:0.984409 14:-0.045897 15:-0.410651 
-1.000000 1:-0.279908 2:-0.278243 3:-0.275260 4:-0.273882 5:-0.269402 6:-0.249016 7:-0.254475 8:-0.239271 9:-0.267728 10:0.693685 11:0.437552 12:-0.646458 13:-1.402920 14:-0.694288 15:-0.197234 
-1.000000 1:-0.185560 2:-0.152144 3:-0.189034 4:-0.221408 5:-0.206850 6:-0.214211 7:-0.250739 8:-0.299992 9:-0.319124 10:0.693685 11:1.407128 12:-0.371767 13:0.719150 14:-0.617526 15:-0.847532 
-1.000000 1:-0.212214 2:-0.227079 3:-0.252299 4:-0.256748 5:-0.250223 6:-0.239494 7:-0.243267 8:-0.231845 9:-0.247265 10:0.693685 11:0.362969 12:-0.097076 13:0.188633 14:-0.797181 15:-0.861736 
-1.000000 1:-0.244580 2:-0.293637 3:-0.293825 4:-0.316718 5:-0.294481 6:-0.292686 7:-0.284363 8:-0.272471 9:-0.281053 10:0.693685 11:1.929208 12:1.825758 13:0.000000 14:-0.098161 15:-0.000000 
-1.000000 1:-0.296831 2:-0.232739 3:-0.255719 4:-0.267992 5:-0.263796 6:-0.243106 7:-0.229070 8:-0.263734 9:-0.245361 10:0.693685 11:0.213804 12:1.551068 13:1.249668 14:0.658023 15:0.116801 
-0.549804 1:-0.205868 2:-0.109583 3:-0.149951 4:-0.234527 5:-0.296252 6:-0.307461 7:-0.323591 8:-0.343239 9:-0.372899 10:-1.439615 11:-0.308275 12:-0.646458 13:0.000000 14:-0.744918 15:-0.000000 
-1.000000 1:-0.207772 2:-0.209421 3:-0.200270 4:-0.212038 5:-0.227504 6:-0.236867 7:-0.232806 8:-0.195587 9:-0.200628 10:0.693685 11:-0.009944 12:1.551068 13:0.453892 14:1.668989 15:1.400043 
-1.000000 1:3.535671 2:3.537759 3:3.541169 4:3.539037 5:3.537987 6:3.540741 7:3.540922 8:3.537201 9:3.533176 10:0.693685 11:-1.427017 12:1.825758 13:1.514927 14:1.113692 15:0.404081 
-1.000000 1:-0.169695 2:-0.193121 3:-0.217858 4:-0.212841 5:-0.218357 6:-0.217823 7:-0.232433 8:-0.222235 9:-0.153991 10:0.693685 11:1.407128 12:0.452305 13:0.000000 14:-0.356210 15:-0.000000 
-1.000000 1:-0.343159 2:-0.287977 3:-0.206133 4:-0.149123 5:-0.093254 6:-0.063829 7:-0.046007 8:-0.091620 9:-0.100216 10:0.693685 11:0.437552 12:-0.646458 13:0.719150 14:-0.568529 15:-0.802359 
-1.000000 1:-0.325389 2:-0.325784 3:-0.328755 4:-0.325821 5:-0.309234 6:-0.289074 7:-0.292956 8:-0.298245 9:-0.327214 10:0.693685 11:-1.576183 12:0.726996 13:0.453892 14:0.558396 15:0.346667 
-1.000000 1:-0.235061 2:-0.235908 3:-0.230315 4:-0.270134 5:-0.295366 6:-0.286447 7:-0.315745 8:-0.323581 9:-0.328165 10:0.693685 11:0.139221 12:2.375140 13:0.984409 14:2.746917 15:2.093163 
-1.000000 1:3.535671 2:3.537759 3:3.541169 4:3.539037 5:3.537987 6:3.540741 7:3.540922 8:3.537201 9:3.533176 10:0.693685 11:-1.725348 12:1.825758 13:1.514927 14:1.494234 15:0.727052 
-1.000000 1:-0.200791 2:-0.242020 3:-0.276970 4:-0.284056 5:-0.277663 6:-0.252299 7:-0.264936 8:-0.303050 9:-0.288667 10:0.693685 11:0.437552 12:-0.316829 13:0.586521 14:-0.565263 15:-0.759652 
-1.000000 1:-0.223426 2:-0.206251 3:-0.249857 4:-0.273882 5:-0.307759 6:-0.320267 7:-0.311262 8:-0.272471 9:-0.272487 10:0.693685 11:-0.830355 12:1.001686 13:2.575962 14:1.440337 15:0.254659 
-1.000000 1:-0.262138 2:-0.207157 3:-0.208820 4:-0.281646 5:-0.364999 6:-0.380354 7:-0.403915 8:-0.451138 9:-0.478545 10:-1.439615 11:0.735883 12:0.452305 13:-2.198696 14:0.411406 15:1.577758 
-0.757763 1:-0.159117 2:-0.185650 3:-0.243506 4:-0.269866 5:-0.286515 6:-0.274298 7:-0.248124 8:-0.169814 9:-0.195869 10:-1.439615 11:-0.233693 12:0.000000 13:-1.137661 14:-1.009500 15:-0.660026 
-1.000000 1:-0.365371 2:-0.381023 3:-0.349273 4:-0.345097 5:-0.336674 6:-0.306805 7:-0.313130 8:-0.313971 9:-0.310082 10:0.693685 11:2.078373 12:0.452305 13:-0.076626 14:-0.503200 15:-0.485483 
-1.000000 1:-0.222791 2:-0.239530 3:-0.294802 4:-0.335726 5:-0.370900 6:-0.376414 7:-0.372159 8:-0.378623 9:-0.375278 10:0.693685 11:-1.203269 12:0.726996 13:0.453892 14:0.640057 15:0.424121 
-1.000000 1:-0.248600 2:-0.217118 3:-0.261826 4:-0.330372 5:-0.328118 6:-0.339639 7:-0.328448 8:-0.334065 9:-0.372423 10:-1.439615 11:2.302121 12:0.000000 13:0.000000 14:-0.437871 15:-0.000000 
-1.000000 1:-0.235907 2:-0.211458 3:-0.206133 4:-0.295568 5:-0.329593 6:-0.328475 7:-0.312757 8:-0.281208 9:-0.247265 10:-1.439615 11:0.139221 12:0.000000 13:-0.607143 14:0.868709 15:1.270784 
-1.000000 1:-0.416352 2:-0.404567 3:-0.376143 4:-0.377759 5:-0.370310 6:-0.336684 7:-0.305658 8:-0.242766 9:-0.220615 10:-1.439615 11:-2.023679 12:-0.097076 13:0.984409 14:2.214486 15:1.615827 
-1.000000 1:-0.229772 2:-0.239530 3:-0.228605 4:-0.245771 5:-0.247272 6:-0.228987 7:-0.240652 8:-0.144040 9:-0.126865 10:0.693685 11:-0.606607 12:1.276377 13:-0.341885 14:1.198620 15:1.369752 
-1.000000 1:-0.444910 2:-0.443053 3:-0.426950 4:-0.441745 5:-0.438173 6:-0.421397 7:-0.408772 8:-0.428859 9:-0.456179 10:0.693685 11:1.108797 12:0.726996 13:1.249668 14:1.015699 15:0.428740 
-1.000000 1:-0.194656 2:-0.252434 3:-0.303351 4:-0.302796 5:-0.309234 6:-0.309431 7:-0.282121 8:-0.235777 9:-0.205863 10:0.693685 11:-0.681189 12:0.452305 13:0.162107 14:-0.013233 15:-0.086325 
-1.000000 1:-0.259600 2:-0.256962 3:-0.249124 4:-0.258890 5:-0.265566 6:-0.266747 7:-0.236916 8:-0.195587 9:-0.177785 10:-1.439615 11:-0.308275 12:-0.097076 13:-1.668178 14:1.595494 15:2.681471 
-1.000000 1:-0.245215 2:-0.276432 3:-0.274283 4:-0.257819 5:-0.257599 6:-0.272328 7:-0.292209 8:-0.289508 9:-0.289143 10:-1.439615 11:0.139221 12:0.177614 13:0.000000 14:-0.000000 15:0.299026 
-1.000000 1:-0.244157 2:-0.163011 3:-0.169493 4:-0.196510 5:-0.163477 6:-0.131468 7:-0.124089 8:-0.220050 9:-0.272011 10:0.693685 11:-0.681189 12:-1.470530 13:-0.607143 14:-1.105860 15:-0.937601 
-1.000000 1:-0.259388 2:-0.302919 3:-0.333396 4:-0.346971 5:-0.348476 6:-0.352116 7:-0.376269 8:-0.422744 9:-0.479021 10:-1.439615 11:2.152956 12:0.000000 13:0.000000 14:-0.000000 15:-0.000000 
-1.000000 1:-0.187252 2:-0.175915 3:-0.218346 4:-0.231314 5:-0.241371 6:-0.247374 7:-0.288099 8:-0.310039 9:-0.314365 10:0.693685 11:-0.681189 12:-0.646458 13:0.719150 14:-0.299047 15:-0.553910 
-1.000000 1:-0.419948 2:-0.425621 3:-0.404966 4:-0.407744 5:-0.398931 6:-0.391518 7:-0.363193 8:-0.365518 9:-0.350532 10:0.693685 11:2.078373 12:0.177614 13:0.984409 14:0.047196 15:-0.327191 
-1.000000 1:-0.224272 2:-0.261716 3:-0.289916 4:-0.293962 5:-0.278253 6:-0.252956 7:-0.240278 8:-0.220050 9:-0.243458 10:0.693685 11:0.288387 12:0.177614 13:1.408823 14:0.083127 15:-0.436597 
-1.000000 1:-0.194445 2:-0.213043 3:-0.260116 4:-0.276024 5:-0.280614 6:-0.236539 7:-0.235048 8:-0.267666 9:-0.296281 10:0.693685 11:1.183380 12:0.726996 13:0.984409 14:0.297080 15:-0.103165 
-1.000000 1:-0.258542 2:-0.278469 3:-0.293092 4:-0.294765 5:-0.281499 6:-0.264120 7:-0.253728 8:-0.296934 9:-0.323407 10:-1.439615 11:-0.457441 12:1.001686 13:-0.872402 14:1.570995 15:2.089157 
-1.000000 1:-0.338293 2:-0.326916 3:-0.294313 4:-0.285394 5:-0.261730 6:-0.238837 7:-0.195820 8:-0.172435 9:-0.173978 10:0.693685 11:1.556294 12:-0.646458 13:-1.137661 14:-1.303480 15:-0.993593 
-1.000000 1:-0.409583 2:-0.394833 3:-0.360021 4:-0.356877 5:-0.332248 6:-0.298924 7:-0.244014 8:-0.189472 9:-0.142094 10:0.693685 11:1.332545 12:-0.097076 13:0.984409 14:-0.356210 15:-0.688853 
-1.000000 1:-0.268061 2:-0.302240 3:-0.322648 4:-0.313505 5:-0.331953 6:-0.336684 7:-0.355721 8:-0.345860 9:-0.349580 10:0.693685 11:-0.532024 12:0.452305 13:1.780185 14:0.068428 15:-0.565296 
-1.000000 1:-0.464795 2:-0.458674 3:-0.426462 4:-0.432375 5:-0.426076 6:-0.402025 7:-0.381499 8:-0.374254 9:-0.381941 10:0.693685 11:1.257963 12:0.452305 13:0.188633 14:0.083127 15:-0.024893 
-1.000000 1:-0.315235 2:-0.284355 3:-0.253032 4:-0.261567 5:-0.264976 6:-0.268060 7:-0.251113 8:-0.241019 9:-0.229181 10:0.693685 11:-1.277851 12:0.726996 13:0.984409 14:0.550230 15:0.123789 
-0.127536 1:-0.255157 2:-0.273941 3:-0.275260 4:-0.285930 5:-0.272647 6:-0.252299 7:-0.239905 8:-0.215245 9:-0.157798 10:-1.439615 11:0.810466 12:-2.019911 13:-2.463955 14:-1.249584 15:-0.463271 
-1.000000 1:-0.212426 2:-0.211911 3:-0.246925 4:-0.272008 5:-0.311299 6:-0.316983 7:-0.307153 8:-0.288197 9:-0.291998 10:0.693685 11:-1.128686 12:1.001686 13:1.249668 14:1.293347 15:0.670884 
-0.850111 1:-0.283504 2:-0.271451 3:-0.235933 4:-0.179911 5:-0.106236 6:-0.122275 7:-0.132308 8:-0.143604 9:-0.078325 10:-1.439615 11:0.437552 12:-1.470530 13:2.045444 14:0.754383 15:-0.092376 
-1.000000 1:-0.437718 2:-0.435356 3:-0.418889 4:-0.435052 5:-0.432567 6:-0.414173 7:-0.411387 8:-0.416628 9:-0.420963 10:0.693685 11:-0.606607 12:1.276377 13:0.453892 14:2.289614 15:1.988695 
-1.000000 1:-0.185983 2:-0.195837 3:-0.204423 4:-0.253803 5:-0.260845 6:-0.258538 7:-0.261947 8:-0.237961 9:-0.229657 10:-1.439615 11:-0.382858 12:-0.097076 13:-1.668178 14:1.211686 15:2.217431 
-1.000000 1:-0.303389 2:-0.353404 3:-0.304084 4:-0.317521 5:-0.309529 6:-0.317312 7:-0.337414 8:-0.372070 9:-0.375754 10:-1.439615 11:-0.233693 12:0.000000 13:0.000000 14:0.187654 15:-0.000000 
-1.000000 1:-0.174983 2:-0.233191 3:-0.277459 4:-0.288875 5:-0.279729 6:-0.267732 7:-0.246630 8:-0.199082 9:-0.213477 10:0.693685 11:-0.830355 12:0.177614 13:0.453892 14:-0.388875 15:-0.551802 
-1.000000 1:-0.352255 2:-0.373552 3:-0.358311 4:-0.349648 5:-0.322807 6:-0.290387 7:-0.278012 8:-0.345860 9:-0.371471 10:0.693685 11:0.959632 12:-0.371767 13:-0.076626 14:-0.748184 15:-0.731715 
-1.000000 1:-0.180483 2:-0.201044 3:-0.218835 4:-0.235598 5:-0.246977 6:-0.239494 7:-0.228697 8:-0.195587 9:-0.202531 10:0.693685 11:-0.009944 12:0.000000 13:0.000000 14:-0.000000 15:-0.000000 
-1.000000 1:-0.270811 2:-0.254472 3:-0.264024 4:-0.284324 5:-0.290941 6:-0.287104 7:-0.280253 8:-0.262861 9:-0.302943 10:-1.439615 11:-0.233693 12:-0.371767 13:-1.137661 14:0.154989 15:0.661271 
-1.000000 1:-0.372775 2:-0.377401 3:-0.341701 4:-0.331175 5:-0.326642 6:-0.333401 7:-0.353105 8:-0.339744 9:-0.300088 10:0.693685 11:0.362969 12:0.562181 13:0.162107 14:0.442437 15:0.359780 
-0.520727 1:-0.155733 2:-0.163917 3:-0.234956 4:-0.256213 5:-0.291826 6:-0.338326 7:-0.358336 8:-0.380370 9:-0.382892 10:0.693685 11:0.437552 12:-0.097076 13:0.453892 14:-0.895174 15:-1.032018 
-1.000000 1:-0.209041 2:-0.210779 3:-0.214438 4:-0.229440 5:-0.238716 6:-0.237852 7:-0.226829 8:-0.144914 9:-0.144949 10:0.693685 11:0.288387 12:0.726996 13:0.453892 14:-0.029565 15:-0.211004 
-1.000000 1:-0.155310 2:-0.192215 3:-0.231537 4:-0.238007 5:-0.239011 6:-0.222748 7:-0.236916 8:-0.236213 9:-0.185875 10:-1.439615 11:0.959632 12:0.000000 13:0.000000 14:-0.666523 15:-0.000000 
-1.000000 1:-0.345697 2:-0.354762 3:-0.366861 4:-0.376420 5:-0.376211 6:-0.380354 7:-0.389718 8:-0.424491 9:-0.426674 10:0.693685 11:-1.128686 12:1.001686 13:0.984409 14:-0.421539 15:-0.747422 
-1.000000 1:-0.173079 2:-0.214401 3:-0.271352 4:-0.279504 5:-0.275893 6:-0.265761 7:-0.250739 8:-0.253687 9:-0.175406 10:0.693685 11:-1.054103 12:0.452305 13:0.000000 14:-0.000000 15:-0.000000 
-1.000000 1:-0.326235 2:-0.379438 3:-0.382982 4:-0.384988 5:-0.374441 6:-0.343251 7:-0.302296 8:-0.322707 9:-0.320551 10:-1.439615 11:1.630877 12:-2.074849 13:-1.668178 14:-0.901707 15:-0.338015 
-1.000000 1:-0.160175 2:-0.232286 3:-0.277703 4:-0.281914 5:-0.279433 6:-0.250658 7:-0.246630 8:-0.224419 9:-0.238699 10:0.693685 11:-0.308275 12:0.452305 13:0.162107 14:-0.170022 15:-0.239823 
-1.000000 1:-0.167156 2:-0.164596 3:-0.161432 4:-0.234795 5:-0.293006 6:-0.317640 7:-0.323217 8:-0.327950 9:-0.319599 10:-1.439615 11:-0.904938 12:0.726996 13:-1.137661 14:1.440337 15:2.119702 
-1.000000 1:-0.341678 2:-0.328727 3:-0.349029 4:-0.381239 5:-0.392440 6:-0.387249 7:-0.375521 8:-0.379497 9:-0.422867 10:0.693685 11:0.661301 12:0.177614 13:1.780185 14:0.297080 15:-0.376377 
-1.000000 1:-0.338082 2:-0.354535 3:-0.342190 4:-0.319128 5:-0.247863 6:-0.108484 7:-0.002295 8:-0.068467 9:-0.081656 10:-1.439615 11:1.183380 12:-1.250777 13:-0.978506 14:-0.926205 15:-0.621400 
-1.000000 1:-0.176252 2:-0.155767 3:-0.226651 4:-0.252464 5:-0.298612 6:-0.316983 7:-0.321723 8:-0.318339 9:-0.300564 10:-1.439615 11:0.139221 12:-0.646458 13:-1.084609 14:1.414206 15:2.054729 
-1.000000 1:-0.195291 2:-0.226400 3:-0.268909 4:-0.284591 5:-0.277663 6:-0.280209 7:-0.282495 8:-0.234466 9:-0.217760 10:-1.439615 11:0.362969 12:0.000000 13:-1.349868 14:0.731518 15:1.443541 
-1.000000 1:-0.215176 2:-0.238172 3:-0.288207 4:-0.290481 5:-0.292416 6:-0.300566 7:-0.319481 8:-0.350228 9:-0.372423 10:-1.439615 11:0.213804 12:0.726996 13:-0.607143 14:1.450137 15:1.789477 
-1.000000 1:-0.426718 2:-0.410227 3:-0.379562 4:-0.386594 5:-0.378572 6:-0.369190 7:-0.381873 8:-0.419249 9:-0.410018 10:0.693685 11:1.780042 12:0.726996 13:-1.137661 14:0.003099 15:0.488928 
-0.215631 1:-0.312908 2:-0.317634 3:-0.313366 4:-0.339475 5:-0.337559 6:-0.336027 7:-0.322470 8:-0.346297 9:-0.377658 10:-1.439615 11:-2.023679 12:0.000000 13:-1.694704 14:2.170389 15:3.408652 
-1.000000 1:-0.267215 2:-0.310390 3:-0.307748 4:-0.294229 5:-0.252583 6:-0.196809 7:-0.157339 8:-0.149719 9:-0.099264 10:0.693685 11:-0.457441 12:-0.371767 13:-0.872402 14:-0.834745 15:-0.557192 
-1.000000 1:-0.292812 2:-0.234323 3:-0.310679 4:-0.327695 5:-0.367950 6:-0.397099 7:-0.401300 8:-0.422744 9:-0.446185 10:0.693685 11:-1.054103 12:-0.097076 13:0.188633 14:-0.111226 15:-0.192126 
-0.230933 1:-0.199522 2:-0.187235 3:-0.229827 4:-0.256480 5:-0.271467 6:-0.280537 7:-0.267925 8:-0.207819 9:-0.171123 10:-1.439615 11:-0.979520 12:0.000000 13:-1.402920 14:-1.074829 15:-0.642834 
-1.000000 1:-0.195503 2:-0.209421 3:-0.220789 4:-0.256480 5:-0.271762 6:-0.254269 7:-0.213753 8:-0.222671 9:-0.199200 10:0.693685 11:-0.606607 12:1.276377 13:-0.076626 14:1.783314 15:1.812681 
-0.154783 1:-0.348236 2:-0.378306 3:-0.362464 4:-0.356341 5:-0.326642 6:-0.271015 7:-0.272408 8:-0.297371 9:-0.349580 10:-1.439615 11:-0.009944 12:-1.470530 13:-0.076626 14:1.211686 15:1.238140 
-1.000000 1:-0.215599 2:-0.184518 3:-0.231781 4:-0.258087 5:-0.299497 6:-0.309431 7:-0.334052 8:-0.337997 9:-0.309130 10:-1.439615 11:1.034214 12:0.000000 13:-1.668178 14:0.068428 15:0.835184 
-1.000000 1:3.535671 2:3.537759 3:3.541169 4:3.539037 5:3.537987 6:3.540741 7:3.540922 8:3.537201 9:3.533176 10:0.693685 11:1.481711 12:1.276377 13:0.719150 14:1.090827 15:0.727487 
-1.000000 1:-0.266792 2:-0.287977 3:-0.292848 4:-0.307883 5:-0.306579 6:-0.300238 7:-0.282121 8:-0.280771 9:-0.255355 10:0.693685 11:-0.009944 12:0.177614 13:0.188633 14:-0.125925 15:-0.206474 
-1.000000 1:-0.183868 2:-0.177726 3:-0.190011 4:-0.221944 5:-0.241961 6:-0.251314 7:-0.269793 8:-0.306544 9:-0.325786 10:0.693685 11:-0.681189 12:-0.371767 13:-1.137661 14:-0.617526 15:-0.215270 
-1.000000 1:-0.353736 2:-0.368572 3:-0.331442 4:-0.329569 5:-0.315725 6:-0.281850 7:-0.261200 8:-0.248445 9:-0.213001 10:0.693685 11:-0.606607 12:0.726996 13:2.841220 14:0.525731 15:-0.523099 
-1.000000 1:-0.359871 2:-0.371062 3:-0.336571 4:-0.315379 5:-0.323987 6:-0.307133 7:-0.255970 8:-0.207819 9:-0.178737 10:0.693685 11:1.332545 12:0.457799 13:0.188633 14:-0.339878 15:-0.415329 
-1.000000 1:-0.262561 2:-0.317634 3:-0.331198 4:-0.339742 5:-0.344936 6:-0.331430 7:-0.330689 8:-0.346734 9:-0.348153 10:0.693685 11:-0.382858 12:0.452305 13:-0.341885 14:0.346077 15:0.487095 
-1.000000 1:-0.170964 2:-0.182933 3:-0.254986 4:-0.265315 5:-0.282679 6:-0.292357 7:-0.264936 8:-0.245387 9:-0.267252 10:0.693685 11:1.034214 12:0.452305 13:-0.076626 14:0.035764 15:0.056227 
-1.000000 1:-0.157214 2:-0.192441 3:-0.258650 4:-0.278434 5:-0.295071 6:-0.306476 7:-0.317613 8:-0.304360 9:-0.300564 10:0.693685 11:1.034214 12:1.001686 13:1.249668 14:0.754383 15:0.200839 
-0.911747 1:-0.334909 2:-0.316049 3:-0.268665 4:-0.276560 5:-0.282384 6:-0.270030 7:-0.262694 8:-0.256745 9:-0.226326 10:-1.439615 11:-0.009944 12:-0.646458 13:-1.668178 14:-0.568529 15:0.065075 
-1.000000 1:-0.418256 2:-0.384872 3:-0.346831 4:-0.334120 5:-0.305398 6:-0.267403 7:-0.229070 8:-0.149719 9:-0.147329 10:0.693685 11:0.437552 12:-0.097076 13:-0.076626 14:-0.454204 15:-0.436237 
-1.000000 1:-0.213061 2:-0.210326 3:-0.219323 4:-0.210164 5:-0.195933 6:-0.180392 7:-0.160328 8:-0.199519 9:-0.225850 10:0.693685 11:0.064638 12:-0.536581 13:-2.039541 14:-0.926205 15:-0.216844 
-1.000000 1:3.535671 2:3.537759 3:3.541169 4:3.539037 5:3.537987 6:3.540741 7:3.540922 8:3.537201 9:3.533176 10:0.693685 11:0.437552 12:-0.371767 13:0.000000 14:-0.561996 15:-0.000000 
-1.000000 1:-0.255369 2:-0.252887 3:-0.265734 4:-0.310293 5:-0.326642 6:-0.314357 7:-0.321349 8:-0.341492 9:-0.356719 10:-1.439615 11:0.586718 12:0.000000 13:-1.402920 14:-0.160223 15:0.428137 
-1.000000 1:-0.158060 2:-0.174557 3:-0.211018 4:-0.237740 5:-0.250223 6:-0.259523 7:-0.237663 8:-0.190782 9:-0.144949 10:0.693685 11:-0.159110 12:-0.371767 13:-0.050100 14:1.450137 15:1.462939 
-1.000000 1:-0.433064 2:-0.417924 3:-0.394707 4:-0.389807 5:-0.359688 6:-0.302208 7:-0.161822 8:-0.086814 9:-0.140190 10:0.693685 11:1.108797 12:-0.371767 13:0.719150 14:-0.111226 15:-0.380748 
-1.000000 1:-0.235484 2:-0.228211 3:-0.251078 4:-0.243362 5:-0.246682 6:-0.266090 7:-0.276891 8:-0.201703 9:-0.184448 10:0.693685 11:0.213804 12:1.276377 13:-0.076626 14:0.378741 15:0.400952 
-1.000000 1:-0.249869 2:-0.257189 3:-0.272818 4:-0.269866 5:-0.276483 6:-0.272328 7:-0.262321 8:-0.242329 9:-0.163509 10:0.693685 11:-0.681189 12:0.452305 13:0.719150 14:0.493067 15:0.176381 
-1.000000 1:-0.146425 2:-0.181348 3:-0.212484 4:-0.234259 5:-0.230159 6:-0.217495 7:-0.224961 8:-0.192529 9:-0.133528 10:-1.439615 11:-0.233693 12:-0.371767 13:-0.076626 14:0.514299 15:0.537200 
-1.000000 1:-0.173291 2:-0.227532 3:-0.289916 4:-0.299048 5:-0.301858 6:-0.309431 7:-0.331063 8:-0.333192 9:-0.316268 10:0.693685 11:1.780042 12:1.001686 13:-1.296816 14:0.262782 15:0.866714 
-0.312575 1:3.535671 2:3.537759 3:3.541169 4:3.539037 5:3.537987 6:3.540741 7:3.540922 8:3.537201 9:3.533176 10:-1.439615 11:-0.457441 12:0.000000 13:-0.607143 14:0.525731 15:0.803198 
-1.000000 1:-0.160387 2:-0.185197 3:-0.249612 4:-0.259157 5:-0.255829 6:-0.244419 7:-0.215994 8:-0.203450 9:-0.165888 10:0.693685 11:-0.308275 12:0.177614 13:-0.580617 14:0.197453 15:0.440730 
-1.000000 1:-0.159752 2:-0.188819 3:-0.234468 4:-0.267992 5:-0.289170 6:-0.296954 7:-0.294824 8:-0.283829 9:-0.257734 10:-1.439615 11:-2.620341 12:-2.019911 13:-1.296816 14:-1.608893 15:-1.297385 
-1.000000 1:-0.434122 2:-0.394833 3:-0.368082 4:-0.394090 5:-0.394800 6:-0.384294 7:-0.391213 8:-0.415317 9:-0.441426 10:0.693685 11:-0.979520 12:0.000000 13:0.000000 14:0.052096 15:-0.000000 
-1.000000 1:-0.234849 2:-0.269866 3:-0.246193 4:-0.238007 5:-0.199179 6:-0.141975 7:-0.125583 8:-0.156272 9:-0.121155 10:0.693685 11:1.034214 12:-0.097076 13:0.984409 14:-0.385608 15:-0.715209 
-1.000000 1:-0.206080 2:-0.233644 3:-0.251567 4:-0.220873 5:-0.201539 6:-0.202391 7:-0.147252 8:-0.116520 9:-0.082132 10:0.693685 11:0.437552 12:0.726996 13:-0.341885 14:0.068428 15:0.199640 
-1.000000 1:-0.255157 2:-0.220514 3:-0.262070 4:-0.292891 5:-0.291826 6:-0.259851 7:-0.234674 8:-0.203014 9:-0.116396 10:-1.439615 11:0.885049 12:-2.569292 13:-1.137661 14:-0.421539 15:0.007109 
-1.000000 1:-0.276100 2:-0.265791 3:-0.245460 4:-0.201597 5:-0.105941 6:0.009720 7:0.026472 8:0.062148 9:0.087283 10:-1.439615 11:-0.681189 12:0.000000 13:0.000000 14:-0.000000 15:-0.888678 
-1.000000 1:-0.285408 2:-0.258094 3:-0.234956 4:-0.222479 5:-0.190622 6:-0.113409 7:-0.066181 8:-0.126130 9:-0.123058 10:-1.439615 11:0.288387 12:-1.745220 13:-0.872402 14:-0.846177 15:-0.569768 
-1.000000 1:-0.158483 2:-0.197422 3:-0.236422 4:-0.244165 5:-0.218652 6:-0.190571 7:-0.143142 8:-0.143167 9:-0.034068 10:0.693685 11:1.630877 12:-0.646458 13:-0.076626 14:-1.189155 15:-1.174933 
-1.000000 1:-0.396256 2:-0.420414 3:-0.380051 4:-0.373208 5:-0.347886 6:-0.330117 7:-0.300054 8:-0.304797 9:-0.277721 10:0.693685 11:0.437552 12:-0.097076 13:-0.607143 14:-0.617526 15:-0.416581 
-1.000000 1:-0.265100 2:-0.317408 3:-0.330953 4:-0.338671 5:-0.316020 6:-0.295313 7:-0.297439 8:-0.234903 9:-0.213001 10:0.693685 11:1.108797 12:-0.371767 13:-1.402920 14:-0.576695 15:-0.059538 
-1.000000 1:-0.169060 2:-0.163464 3:-0.197095 4:-0.214983 5:-0.244617 6:-0.264120 7:-0.284737 8:-0.285139 9:-0.289143 10:-1.439615 11:0.586718 12:0.177614 13:-1.402920 14:0.836044 15:1.594731 
-1.000000 1:3.535671 2:3.537759 3:3.541169 4:3.539037 5:3.537987 6:3.540741 7:3.540922 8:3.537201 9:3.533176 10:-1.439615 11:1.183380 12:-1.745220 13:-1.402920 14:-1.417806 15:-1.044449 
-1.000000 1:-0.297254 2:-0.329406 3:-0.302130 4:-0.307883 5:-0.303628 6:-0.284149 7:-0.265310 8:-0.293876 9:-0.187303 10:0.693685 11:-0.681189 12:1.276377 13:1.514927 14:0.689054 15:0.043684 
-1.000000 1:-0.312274 2:-0.241341 3:-0.267688 4:-0.309490 5:-0.321626 6:-0.306476 7:-0.289967 8:-0.324455 9:-0.353387 10:-1.439615 11:0.586718 12:0.000000 13:-0.872402 14:-0.715519 15:-0.426042 
-1.000000 1:-0.297254 2:-0.293184 3:-0.288939 4:-0.286733 5:-0.302153 6:-0.308446 7:-0.270540 8:-0.271597 9:-0.229657 10:0.693685 11:-0.308275 12:0.452305 13:0.984409 14:-0.094894 15:-0.454578 
-1.000000 1:-0.171810 2:-0.165728 3:-0.167783 4:-0.151800 5:-0.241666 6:-0.305163 7:-0.331810 8:-0.379933 9:-0.418584 10:0.693685 11:1.034214 12:1.825758 13:0.188633 14:0.640057 15:0.541257 
-1.000000 1:-0.205445 2:-0.175236 3:-0.270864 4:-0.287804 5:-0.301268 6:-0.298596 7:-0.274276 8:-0.267229 9:-0.260590 10:0.693685 11:-0.084527 12:2.649830 13:0.480417 14:4.331145 15:3.903630 
-1.000000 1:-0.221945 2:-0.251529 3:-0.242040 4:-0.240952 5:-0.237241 6:-0.228659 7:-0.189095 8:-0.219177 9:-0.118775 10:0.693685 11:-0.681189 12:1.001686 13:0.719150 14:1.391341 15:1.004546 
-1.000000 1:-0.278850 2:-0.291373 3:-0.265734 4:-0.257551 5:-0.238126 6:-0.228330 7:-0.192084 8:-0.198208 9:-0.219663 10:0.693685 11:0.885049 12:0.452305 13:0.453892 14:-0.263116 15:-0.432522 
-1.000000 1:-0.217714 2:-0.222325 3:-0.280390 4:-0.295836 5:-0.318381 6:-0.327162 7:-0.318734 8:-0.310039 9:-0.234416 10:0.693685 11:-1.054103 12:0.452305 13:1.249668 14:0.411406 15:-0.098280 
-1.000000 1:-0.191695 2:-0.193573 3:-0.201736 4:-0.237740 5:-0.244322 6:-0.255583 7:-0.273155 8:-0.275092 9:-0.266300 10:0.693685 11:2.003790 12:1.276377 13:0.984409 14:-0.356210 15:-0.688853 
-1.000000 1:-0.185349 2:-0.204666 3:-0.242284 4:-0.293158 5:-0.321921 6:-0.320267 7:-0.304537 8:-0.338434 9:-0.314841 10:-1.439615 11:1.108797 12:-1.470530 13:-1.137661 14:-0.878842 15:-0.511774 
-0.495395 1:-0.315235 2:-0.280733 3:-0.251322 4:-0.252197 5:-0.226324 6:-0.191884 7:-0.106530 8:-0.093367 9:-0.133052 10:-1.439615 11:0.810466 12:-3.118674 13:-2.463955 14:-2.381409 15:-1.974396 
-1.000000 1:-0.184714 2:-0.197648 3:-0.204912 4:-0.185534 5:-0.190622 6:-0.242121 7:-0.238037 8:-0.217866 9:-0.181117 10:0.693685 11:0.288387 12:-0.097076 13:1.249668 14:-0.339878 15:-0.753494 
-1.000000 1:-0.296831 2:-0.206478 3:-0.208087 4:-0.217660 5:-0.225143 6:-0.232927 7:-0.214874 8:-0.226603 9:-0.248692 10:0.693685 11:0.288387 12:-0.097076 13:-0.341885 14:-0.878842 15:-0.888678 
-1.000000 1:-0.181118 2:-0.230927 3:-0.251567 4:-0.237204 5:-0.219832 6:-0.231285 7:-0.236542 8:-0.231845 9:-0.263445 10:-1.439615 11:0.213804 12:-0.646458 13:-0.341885 14:0.370575 15:0.512459 
-1.000000 1:-0.331736 2:-0.280054 3:-0.292848 4:-0.306277 5:-0.329593 6:-0.318297 7:-0.340029 8:-0.340181 9:-0.338635 10:0.693685 11:-1.054103 12:0.452305 13:-0.341885 14:0.370575 15:0.512459 
-0.481034 1:3.535671 2:3.537759 3:3.541169 4:3.539037 5:3.537987 6:3.540741 7:3.540922 8:3.537201 9:3.533176 10:0.693685 11:-0.233693 12:0.452305 13:1.780185 14:0.215419 15:-0.443848 
-1.000000 1:-0.357332 2:-0.369024 3:-0.345609 4:-0.335726 5:-0.318381 6:-0.305491 7:-0.307900 8:-0.296060 9:-0.335780 10:0.693685 11:0.064638 12:-0.097076 13:0.719150 14:-0.045897 15:-0.320518 
-1.000000 1:-0.472834 2:-0.455731 3:-0.433301 4:-0.444422 5:-0.442304 6:-0.420412 7:-0.408025 8:-0.414444 9:-0.419536 10:0.693685 11:1.183380 12:0.177614 13:0.984409 14:0.370575 15:-0.037275 
-1.000000 1:-0.344005 2:-0.331217 3:-0.283077 4:-0.266654 5:-0.238421 6:-0.226360 7:-0.207775 8:-0.171561 9:-0.156370 10:-1.439615 11:0.139221 12:-0.371767 13:-0.368410 14:-0.042631 15:-0.478380 
-1.000000 1:-0.173291 2:-0.241115 3:-0.288695 4:-0.302261 5:-0.312185 6:-0.305491 7:-0.278385 8:-0.249755 9:-0.204911 10:-1.439615 11:-0.233693 12:-0.097076 13:-1.137661 14:0.868709 15:1.471099 
-1.000000 1:-0.227234 2:-0.232512 3:-0.286252 4:-0.312970 5:-0.331068 6:-0.342266 7:-0.351985 8:-0.327076 9:-0.312461 10:0.693685 11:-0.233693 12:0.177614 13:-0.607143 14:-0.060596 15:0.177626 
-1.000000 1:-0.239080 2:-0.249039 3:-0.300664 4:-0.305474 5:-0.305103 6:-0.267075 7:-0.231686 8:-0.239708 9:-0.228705 10:-1.439615 11:-0.457441 12:2.924521 13:-0.898928 14:0.622092 15:1.054838 
-1.000000 1:-0.330889 2:-0.365176 3:-0.362708 4:-0.373208 5:-0.372966 6:-0.354743 7:-0.325459 8:-0.339744 9:-0.382416 10:0.693685 11:-0.233693 12:1.276377 13:2.045444 14:0.981401 15:0.090290 
-1.000000 1:-0.171598 2:-0.247680 3:-0.293336 4:-0.297174 5:-0.289760 6:-0.273970 7:-0.258211 8:-0.209129 9:-0.199200 10:0.693685 11:-0.233693 12:0.177614 13:0.984409 14:-0.160223 15:-0.513147 
-1.000000 1:-0.342524 2:-0.231607 3:-0.237155 4:-0.287804 5:-0.326052 6:-0.345549 7:-0.359830 8:-0.360276 9:-0.364333 10:0.693685 11:0.362969 12:0.000000 13:-0.050100 14:-0.708987 15:-0.700816 
-1.000000 1:-0.220676 2:-0.259905 3:-0.296512 4:-0.306812 5:-0.322216 6:-0.343579 7:-0.320229 8:-0.317465 9:-0.315316 10:0.693685 11:-0.532024 12:-0.371767 13:0.719150 14:0.101093 15:-0.185000 
-0.081852 1:3.535671 2:3.537759 3:3.541169 4:3.539037 5:3.537987 6:3.540741 7:3.540922 8:3.537201 9:3.533176 10:0.693685 11:0.288387 12:0.452305 13:1.249668 14:-0.486868 15:-0.881688 
-1.000000 1:-0.286042 2:-0.287298 3:-0.296023 4:-0.314844 5:-0.347886 6:-0.349818 7:-0.350117 8:-0.353723 9:-0.360526 10:0.693685 11:-0.681189 12:0.726996 13:0.374314 14:0.083127 15:-0.074062 
-1.000000 1:-0.262561 2:-0.203534 3:-0.245948 4:-0.293426 5:-0.305103 6:-0.302536 7:-0.319481 8:-0.299555 9:-0.284860 10:-1.439615 11:0.661301 12:-1.745220 13:-1.668178 14:-1.074829 15:-0.547063 
-1.000000 1:-0.246061 2:-0.218929 3:-0.243261 4:-0.242291 5:-0.268221 6:-0.252299 7:-0.230191 8:-0.171998 9:-0.198724 10:-1.439615 11:0.512135 12:-0.921148 13:-1.137661 14:0.035764 15:0.525991 
-1.000000 1:-0.228503 2:-0.239757 3:-0.284543 4:-0.300922 5:-0.298022 6:-0.302208 7:-0.305658 8:-0.263734 9:-0.274866 10:0.693685 11:-1.427017 12:0.726996 13:0.719150 14:0.542064 15:0.221554 
-1.000000 1:-0.213484 2:-0.262848 3:-0.286497 4:-0.302529 5:-0.285925 6:-0.291372 7:-0.300054 8:-0.296934 9:-0.290570 10:-1.439615 11:1.481711 12:-1.470530 13:-1.933437 14:-1.564796 15:-1.058516 
-1.000000 1:-0.306985 2:-0.356347 3:-0.350006 4:-0.345364 5:-0.323987 6:-0.267732 7:-0.224587 8:-0.160203 9:-0.232036 10:0.693685 11:0.437552 12:-0.097076 13:0.453892 14:-0.388875 15:-0.551802 
-1.000000 1:-0.411910 2:-0.422905 3:-0.396661 4:-0.389539 5:-0.362934 6:-0.329789 7:-0.311262 8:-0.303050 9:-0.285336 10:0.693685 11:-0.308275 12:-0.371767 13:-0.341885 14:-0.160223 15:-0.037088 
-1.000000 1:-0.202272 2:-0.247454 3:-0.274772 4:-0.272811 5:-0.300382 6:-0.303193 7:-0.287352 8:-0.244950 9:-0.242982 10:0.693685 11:-0.382858 12:-0.097076 13:-0.050100 14:-0.132458 15:-0.123051 
-1.000000 1:-0.227657 2:-0.263754 3:-0.277215 4:-0.274953 5:-0.263796 6:-0.244091 7:-0.255970 8:-0.227477 9:-0.200628 10:0.693685 11:-0.457441 12:0.452305 13:0.453892 14:-0.454204 15:-0.613765 
-1.000000 1:-0.302120 2:-0.317181 3:-0.283566 4:-0.293962 5:-0.302743 6:-0.303193 7:-0.312383 8:-0.328386 9:-0.389555 10:0.693685 11:-0.681189 12:4.023284 13:-0.607143 14:3.057230 15:3.504137 
-1.000000 1:-0.181964 2:-0.225947 3:-0.269642 4:-0.256213 5:-0.257894 6:-0.256896 7:-0.203666 8:-0.222671 9:-0.180641 10:0.693685 11:-0.979520 12:0.452305 13:1.514927 14:0.166422 15:-0.399881 
-1.000000 1:-0.254946 2:-0.304277 3:-0.340968 4:-0.354199 5:-0.351132 6:-0.332744 7:-0.326580 8:-0.312660 9:-0.328641 10:0.693685 11:-0.308275 12:-0.097076 13:0.453892 14:-0.170022 15:-0.344225 
-1.000000 1:-0.220465 2:-0.243832 3:-0.293336 4:-0.308686 5:-0.330183 6:-0.316983 7:-0.321349 8:-0.286887 9:-0.306751 10:0.693685 11:-0.979520 12:0.177614 13:0.692624 14:-0.170022 15:-0.426055 
-1.000000 1:-0.356909 2:-0.348197 3:-0.345854 4:-0.351522 5:-0.344936 6:-0.329460 7:-0.303790 8:-0.303923 9:-0.311033 10:-1.439615 11:0.437552 12:0.000000 13:-1.137661 14:-0.323546 15:0.118298 
-1.000000 1:-0.317351 2:-0.317634 3:-0.309214 4:-0.304670 5:-0.284449 6:-0.276597 7:-0.283242 8:-0.243203 9:-0.198724 10:0.693685 11:0.885049 12:-0.097076 13:0.984409 14:-0.295781 15:-0.634677 
-1.000000 1:-0.284773 2:-0.262848 3:-0.270864 4:-0.292623 5:-0.296842 6:-0.270687 7:-0.244762 8:-0.212624 9:-0.183020 10:0.693685 11:-1.277851 12:0.726996 13:1.408823 14:-0.349677 15:-0.807928 
-1.000000 1:-0.362409 2:-0.341179 3:-0.337549 4:-0.339207 5:-0.328413 6:-0.326505 7:-0.303417 8:-0.346734 9:-0.327214 10:0.693685 11:-0.904938 12:-0.097076 13:-0.341885 14:-0.356210 15:-0.239997 
-1.000000 1:-0.129502 2:-0.168671 3:-0.206377 4:-0.250590 5:-0.270582 6:-0.276925 7:-0.274649 8:-0.237961 9:-0.247741 10:0.693685 11:-0.009944 12:-0.097076 13:1.780185 14:-0.045897 15:-0.553961 
-1.000000 1:-0.194445 2:-0.257868 3:-0.288451 4:-0.307883 5:-0.323102 6:-0.332416 7:-0.340403 8:-0.356344 9:-0.321027 10:0.693685 11:-0.159110 12:0.177614 13:0.719150 14:-0.356210 15:-0.606611 
-1.000000 1:-0.305716 2:-0.306541 3:-0.291382 4:-0.311364 5:-0.329888 6:-0.336356 7:-0.363193 8:-0.374254 9:-0.412397 10:0.693685 11:-0.830355 12:-0.097076 13:0.453892 14:0.047196 15:-0.138197 
-1.000000 1:3.535671 2:3.537759 3:3.541169 4:3.539037 5:3.537987 6:3.540741 7:3.540922 8:3.537201 9:3.533176 10:-1.439615 11:0.362969 12:0.353416 13:-1.429445 14:1.523632 15:2.418926 
-1.000000 1:-0.181118 2:-0.238398 3:-0.303351 4:-0.333852 5:-0.336084 6:-0.336027 7:-0.353853 8:-0.365081 9:-0.378609 10:-1.439615 11:0.810466 12:0.177614 13:-1.137661 14:-0.388875 15:0.191053 
-1.000000 1:-0.496315 2:-0.474068 3:-0.446492 4:-0.458612 5:-0.455581 6:-0.443396 7:-0.444637 8:-0.468612 9:-0.495201 10:-1.439615 11:-0.382858 12:0.177614 13:-1.402920 14:1.811079 15:2.736463 
-1.000000 1:-0.163348 2:-0.193573 3:-0.264757 4:-0.254338 5:-0.264386 6:-0.275612 7:-0.265310 8:-0.285576 9:-0.214429 10:-1.439615 11:0.437552 12:-0.921148 13:-1.668178 14:-0.486868 15:0.163807 
-0.722559 1:-0.410641 2:-0.399587 3:-0.380784 4:-0.382578 5:-0.359393 6:-0.321252 7:-0.269793 8:-0.282081 9:-0.272011 10:-1.439615 11:2.003790 12:-1.470530 13:-0.341885 14:-1.509267 15:-1.433782 
-1.000000 1:-0.229984 2:-0.161879 3:-0.196606 4:-0.228905 5:-0.272352 6:-0.299581 7:-0.333305 8:-0.332755 9:-0.327214 10:0.693685 11:0.586718 12:1.276377 13:2.045444 14:1.446870 15:0.464822 
-0.055961 1:-0.361986 2:-0.334613 3:-0.355869 4:-0.368656 5:-0.344050 6:-0.322237 7:-0.332184 8:-0.330571 9:-0.372899 10:-1.439615 11:0.885049 12:-1.470530 13:-0.607143 14:-0.535865 15:-0.329454 
-1.000000 1:-0.395198 2:-0.402077 3:-0.409119 4:-0.424075 5:-0.417224 6:-0.387249 7:-0.368423 8:-0.397407 9:-0.442854 10:0.693685 11:1.630877 12:0.177614 13:-0.341885 14:-0.715519 15:-0.611998 
-1.000000 1:3.535671 2:3.537759 3:3.541169 4:3.539037 5:3.537987 6:3.540741 7:3.540922 8:3.537201 9:3.533176 10:0.693685 11:0.139221 12:-0.097076 13:-0.341885 14:-0.584862 15:-0.476725 
-1.000000 1:-0.173714 2:-0.184065 3:-0.228850 4:-0.241755 5:-0.263501 6:-0.259523 7:-0.246630 8:-0.296934 9:-0.317220 10:0.693685 11:-0.382858 12:-0.371767 13:0.188633 14:-0.349677 15:-0.424895 
-1.000000 1:-0.377852 2:-0.349781 3:-0.308725 4:-0.253000 5:-0.178230 6:-0.149856 7:-0.145384 8:-0.146661 9:-0.165412 10:0.693685 11:1.034214 12:-0.921148 13:-0.607143 14:-1.074829 15:-0.904492 
-1.000000 1:-0.321582 2:-0.326916 3:-0.306038 4:-0.298781 5:-0.278843 6:-0.270358 7:-0.248124 8:-0.259803 9:-0.215380 10:0.693685 11:0.437552 12:-0.371767 13:-0.076626 14:-0.503200 15:-0.485483 
-0.298461 1:3.535671 2:3.537759 3:3.541169 4:3.539037 5:3.537987 6:3.540741 7:3.540922 8:3.537201 9:3.533176 10:-1.439615 11:-0.457441 12:-1.470530 13:-1.668178 14:-1.189155 15:-0.685287 
-1.000000 1:-0.301485 2:-0.291826 3:-0.294313 4:-0.302529 5:-0.312775 6:-0.280865 7:-0.222719 8:-0.171998 9:-0.173026 10:0.693685 11:-0.755772 12:0.177614 13:-0.076626 14:-0.349677 15:-0.331178 
-1.000000 1:-0.210945 2:-0.264886 3:-0.318007 4:-0.332246 5:-0.344050 6:-0.358355 7:-0.397190 8:-0.417502 9:-0.435716 10:0.693685 11:0.735883 12:0.452305 13:0.453892 14:0.689054 15:0.470593 
-1.000000 1:-0.386736 2:-0.311295 3:-0.238132 4:-0.283520 5:-0.375031 6:-0.380682 7:-0.427452 8:-0.485648 9:-0.516140 10:-1.439615 11:1.407128 12:2.375140 13:-2.198696 14:-0.493401 15:0.409663 
-1.000000 1:-0.353947 2:-0.349781 3:-0.318984 4:-0.299048 5:-0.271172 6:-0.231614 7:-0.197688 8:-0.220050 9:-0.194441 10:-1.439615 11:0.362969 12:0.000000 13:0.000000 14:-0.000000 15:-0.000000 
-1.000000 1:-0.452949 2:-0.435130 3:-0.417668 4:-0.430768 5:-0.427846 6:-0.413517 7:-0.412134 8:-0.416191 9:-0.440950 10:0.693685 11:0.362969 12:0.452305 13:-0.341885 14:0.011266 15:0.140458 
-1.000000 1:-0.251350 2:-0.233418 3:-0.267932 4:-0.275489 5:-0.317200 6:-0.322894 7:-0.328074 8:-0.342802 9:-0.351484 10:0.693685 11:-1.501600 12:0.726996 13:2.045444 14:1.342344 15:0.380716 
-1.000000 1:-0.216234 2:-0.263754 3:-0.289916 4:-0.280040 5:-0.248158 6:-0.210271 7:-0.209643 8:-0.268103 9:-0.291998 10:0.693685 11:0.661301 12:-0.646458 13:0.453892 14:-0.617526 15:-0.768674 
-0.228478 1:-0.188310 2:-0.256736 3:-0.285764 4:-0.269866 5:-0.241371 6:-0.245076 7:-0.210764 8:-0.136177 9:-0.186351 10:-1.439615 11:-2.023679 12:-2.074849 13:-1.827334 14:-1.429239 15:-0.924252 
-1.000000 1:-0.322005 2:-0.307673 3:-0.254253 4:-0.185801 5:-0.128365 6:-0.217166 7:-0.312383 8:-0.348481 9:-0.361477 10:0.693685 11:1.183380 12:-0.097076 13:1.514927 14:0.035764 15:-0.510772 
-1.000000 1:-0.493353 2:-0.465013 3:-0.441606 4:-0.455131 5:-0.454401 6:-0.443068 7:-0.443143 8:-0.462059 9:-0.483304 10:0.693685 11:0.437552 12:0.726996 13:0.692624 14:0.370575 15:0.073757 
-1.000000 1:-0.449141 2:-0.423810 3:-0.401302 4:-0.412028 5:-0.403652 6:-0.375429 7:-0.348249 8:-0.336686 9:-0.374802 10:0.693685 11:1.257963 12:1.276377 13:2.363755 14:1.450137 15:0.342215 
-1.000000 1:-0.276735 2:-0.299070 3:-0.307015 4:-0.332246 5:-0.336674 6:-0.319282 7:-0.291461 8:-0.275529 9:-0.216332 10:0.693685 11:-0.904938 12:0.177614 13:0.586521 14:0.478368 15:0.216221 
-1.000000 1:-0.325812 2:-0.356573 3:-0.341213 4:-0.336262 5:-0.313070 6:-0.332087 7:-0.353479 8:-0.359839 9:-0.368140 10:0.693685 11:1.630877 12:0.452305 13:0.188633 14:-0.241884 15:-0.319670 
-1.000000 1:-0.250080 2:-0.316729 3:-0.342434 4:-0.353396 5:-0.341395 6:-0.328475 7:-0.284363 8:-0.297808 9:-0.330545 10:0.693685 11:-0.979520 12:2.100449 13:0.162107 14:-0.259850 15:-0.327765 
-0.336856 1:3.535671 2:3.537759 3:3.541169 4:3.539037 5:3.537987 6:3.540741 7:3.540922 8:3.537201 9:3.533176 10:0.693685 11:0.139221 12:-0.701396 13:-0.341885 14:-1.189155 15:-1.102363 
-0.057728 1:3.535671 2:3.537759 3:3.541169 4:3.539037 5:3.537987 6:3.540741 7:3.540922 8:3.537201 9:3.533176 10:0.693685 11:-1.949096 12:0.000000 13:1.249668 14:-0.993168 15:-1.323245 
-1.000000 1:-0.303600 2:-0.324426 3:-0.356113 4:-0.364641 5:-0.369425 6:-0.368533 7:-0.356468 8:-0.372944 9:-0.412873 10:0.693685 11:-0.159110 12:0.000000 13:1.514927 14:-0.000000 15:-0.000000 
-0.690914 1:3.535671 2:3.537759 3:3.541169 4:3.539037 5:3.537987 6:3.540741 7:3.540922 8:3.537201 9:3.533176 10:-1.439615 11:-1.352434 12:-0.206953 13:-0.872402 14:1.211686 15:1.693911 
-1.000000 1:-0.127386 2:-0.184744 3:-0.227873 4:-0.275221 5:-0.300382 6:-0.312386 7:-0.335546 8:-0.351539 9:-0.350056 10:-1.439615 11:0.213804 12:0.000000 13:-1.668178 14:-1.074829 15:-0.780705 
-1.000000 1:-0.289004 2:-0.286845 3:-0.290894 4:-0.315112 5:-0.318086 6:-0.311730 7:-0.283989 8:-0.221798 9:-0.233464 10:0.693685 11:-1.799931 12:0.122676 13:0.000000 14:-0.000000 15:-0.000000 
-1.000000 1:-0.363678 2:-0.340952 3:-0.302130 4:-0.293694 5:-0.264386 6:-0.219137 7:-0.164811 8:-0.116520 9:-0.133528 10:0.693685 11:0.288387 12:-0.239916 13:-0.607143 14:-0.637125 15:-0.437491 
