svm_type c_svc
kernel_type rbf
gamma 0.000000
nr_class 2
total_sv 312
rho -4.814145 
probA -1.374980
probB -0.124262
label 1 0 
nr_sv 156 156 
SV
1048576.000000 1:-0.095952 2:0.411629 3:1.036130 4:1.306258 5:1.147699 6:1.376631 7:1.953021 8:1.652524 9:2.323603 10:0.705739 11:-1.388627 12:-0.115876 13:0.730665 14:-0.435638 15:-0.680922 
1048576.000000 1:0.891638 2:1.381922 3:0.620636 4:0.289922 5:-0.181863 6:-0.767949 7:-0.881965 8:-0.853926 9:-0.614853 10:-1.414761 11:-0.654721 12:0.961058 13:0.466323 14:2.032049 15:1.750355 
1048576.000000 1:0.097127 2:0.234264 3:0.597181 4:0.741627 5:0.775148 6:0.945939 7:0.864635 8:0.793459 9:0.688997 10:0.705739 11:0.079185 12:0.153358 13:-0.326703 14:-0.579386 15:-0.477759 
1048576.000000 1:0.782893 2:0.951550 3:0.111322 4:-0.084348 5:-0.424534 6:-0.861191 7:-1.275857 8:-1.298619 9:-1.228429 10:-1.414761 11:0.446137 12:1.768759 13:0.000000 14:0.000000 15:-0.000000 
1048576.000000 1:1.106911 2:0.839393 3:0.128076 4:0.080202 5:0.064226 6:-0.084170 7:-0.011256 8:0.121366 9:0.046659 10:0.705739 11:0.299356 12:-0.654343 13:0.466323 14:0.043525 15:-0.142376 
1048576.000000 1:0.955998 2:0.899384 3:0.781472 4:0.925536 5:0.655522 6:0.319881 7:-0.130460 8:-0.389020 9:-0.576504 10:-1.414761 11:0.372747 12:0.000000 13:0.000000 14:0.233592 15:-0.000000 
1048576.000000 1:0.081592 2:0.056898 3:-0.096425 4:-0.206953 5:-0.383519 6:-0.639185 7:-0.322223 8:-0.338487 9:-0.173845 10:0.705739 11:0.592919 12:0.691825 13:-1.119729 14:0.378938 15:0.907934 
1048576.000000 1:0.862787 2:1.115874 3:0.332471 4:0.180222 5:-0.041729 6:-0.212933 7:-0.280761 8:-0.515353 9:-0.360794 10:0.705739 11:-0.214378 12:1.499525 13:0.995007 14:0.538659 15:0.107990 
1048576.000000 1:0.436681 2:0.109065 3:-0.481761 4:-0.516694 5:-0.291236 6:-0.283975 7:-0.094181 8:0.434672 9:-0.384762 10:0.705739 11:0.592919 12:-0.654343 13:1.259349 14:-0.962716 15:-1.297125 
1048576.000000 1:0.461093 2:0.954158 3:1.106495 4:0.777118 5:0.658940 6:0.755013 7:1.040850 8:1.480711 9:1.547045 10:0.705739 11:-0.728112 12:0.691825 13:0.466323 14:0.155329 15:-0.035963 
1048576.000000 1:0.374540 2:0.393371 3:0.362628 4:0.277016 5:0.170181 6:0.204438 7:-0.482890 8:-0.778126 9:-0.432697 10:0.705739 11:0.372747 12:0.691825 13:0.466323 14:0.057900 15:-0.128694 
1048576.000000 1:0.787331 2:0.873301 3:1.143354 4:0.709363 5:0.450448 6:0.142276 7:-0.006073 8:-0.075714 9:-0.471046 10:0.705739 11:-1.315236 12:-0.546649 13:-0.062361 14:-0.180084 15:-0.368826 
1048576.000000 1:0.605348 2:1.079358 3:1.072988 4:0.899724 5:0.460702 6:0.151157 7:0.025023 8:0.146633 9:-0.015657 10:0.705739 11:0.005794 12:0.153358 13:0.995007 14:-0.403694 15:-0.731261 
1048576.000000 1:1.293333 2:1.243681 3:1.160107 4:0.970706 5:1.072506 6:1.367750 7:1.253344 8:0.591325 9:0.890327 10:0.705739 11:-0.948284 12:0.153358 13:-1.912756 14:-0.576192 15:0.159848 
1048576.000000 1:0.410049 2:0.878517 3:0.329121 4:0.160864 5:0.177016 6:0.177797 7:0.304894 8:0.010193 9:-0.130703 10:-1.414761 11:-0.214378 12:0.422591 13:0.000000 14:1.148793 15:-0.000000 
131263.566817 1:1.042551 2:1.196732 3:1.250578 4:0.925536 5:0.453866 6:0.981460 7:1.486570 8:1.374591 9:0.928675 10:0.705739 11:1.106653 12:2.576459 13:-1.119729 14:0.826157 15:1.994061 
1048576.000000 1:-0.788375 2:-0.673430 3:-0.347731 4:-0.187594 5:0.091569 6:0.422004 7:0.429281 8:-0.040341 9:-0.523775 10:-1.414761 11:0.152575 12:-0.923576 13:-2.177098 14:-1.381185 15:-0.758390 
1048576.000000 1:-2.335231 2:-2.201902 3:-2.254310 4:-2.065396 5:-1.860050 6:-2.188788 7:-2.317597 8:-2.278965 9:-2.211110 10:-1.414761 11:1.400215 12:0.691825 13:-1.384072 14:0.514701 15:1.210028 
1048576.000000 1:1.004823 2:1.168040 3:0.999271 4:0.931989 5:0.734134 6:0.564088 7:0.133862 8:-0.287954 9:-0.341619 10:0.705739 11:0.225966 12:-0.385109 13:-0.062361 14:-0.739107 15:-0.728477 
1048576.000000 1:0.461093 2:0.367288 3:0.674248 4:0.448019 5:0.173599 6:0.120076 7:0.201238 8:0.459939 9:0.377415 10:-1.414761 11:-0.581331 12:0.961058 13:-1.648414 14:0.874073 15:1.800744 
1048576.000000 1:0.327935 2:0.328163 3:0.315718 4:0.357678 5:0.317150 6:0.284360 7:0.351539 8:0.414459 9:1.053308 10:0.705739 11:-0.361159 12:0.422591 13:-0.326703 14:0.394910 15:0.534458 
1048576.000000 1:1.111350 2:0.688110 3:0.252053 4:-0.239218 5:-0.123759 6:0.088995 7:0.221969 8:0.055673 9:0.065834 10:-1.414761 11:0.225966 12:-0.654343 13:-0.062361 14:0.487549 15:0.500039 
1048576.000000 1:-1.438632 2:-1.035985 3:-0.625844 4:-0.513467 5:-0.140848 6:0.630690 7:1.600591 8:2.001204 9:1.499110 10:-1.414761 11:-0.140987 12:-0.385109 13:-0.855387 14:1.209487 15:1.688686 
1048576.000000 1:0.800647 2:0.828959 3:0.647442 4:0.673871 5:0.734134 6:0.852696 7:0.646958 8:0.803565 9:0.660236 10:0.705739 11:-1.975752 12:0.691825 13:2.316718 14:0.730324 15:-0.193133 
1048576.000000 1:0.842814 2:1.131524 3:0.573726 4:0.199581 5:-0.598846 6:-0.905593 7:-1.130738 8:-1.323886 9:-1.271571 10:0.705739 11:-0.214378 12:1.230292 13:1.788033 14:1.017822 15:0.226523 
1048576.000000 1:-0.140338 2:0.309905 3:0.758017 4:0.493189 5:0.409433 6:0.581849 7:0.543302 8:0.444779 9:0.463700 10:-1.414761 11:0.666309 12:-1.462043 13:-1.912756 14:-1.298130 15:-0.744993 
1048576.000000 1:1.153516 2:0.281213 3:0.164934 4:0.609342 5:1.058834 6:1.216786 7:1.004570 8:0.232539 9:0.200053 10:0.705739 11:-0.287768 12:0.422591 13:0.201981 14:0.043525 15:-0.042959 
1048576.000000 1:0.145952 2:-0.355215 3:-1.108352 4:-1.158760 5:-1.251665 6:-1.163120 7:-0.913061 8:-0.479980 9:-0.705930 10:-1.414761 11:-1.755580 12:-1.731277 13:-1.384072 14:-1.210284 15:-0.816889 
1048576.000000 1:-0.937069 2:-1.101193 3:-1.101651 4:-0.797396 5:-0.311743 6:-0.585904 7:-0.938975 8:-0.924673 9:-0.480633 10:0.705739 11:0.813090 12:1.230292 13:-0.326703 14:1.257403 15:1.430519 
1048576.000000 1:1.182367 2:0.912425 3:0.959062 4:0.380263 5:0.539314 6:0.839376 7:0.450012 8:0.464992 9:0.535603 10:0.705739 11:1.767168 12:-0.115876 13:-0.591045 14:0.107413 15:0.351287 
1048576.000000 1:0.287987 2:0.135148 3:-0.347731 4:-0.665111 5:-1.032919 6:-1.158680 7:-1.327684 8:-1.207659 9:-1.142145 10:0.705739 11:0.005794 12:2.037992 13:0.201981 14:0.714352 15:0.614161 
1048576.000000 1:1.049209 2:0.573345 3:0.352576 4:0.473831 5:0.635015 6:0.803855 7:0.735065 8:0.945058 9:0.688997 10:0.705739 11:-0.654721 12:-0.385109 13:-0.326703 14:0.514701 15:0.658911 
1048576.000000 1:1.375447 2:0.883734 3:0.422942 4:0.109240 5:0.108658 6:0.382043 7:0.351539 8:0.414459 9:0.219228 10:0.705739 11:0.299356 12:-0.115876 13:1.259349 14:0.490743 15:-0.025120 
1048576.000000 1:0.010574 2:0.257739 3:0.747965 4:0.641607 5:0.228285 6:-0.017568 7:0.481109 8:0.838939 9:0.880740 10:0.705739 11:-0.801502 12:0.557208 13:0.201981 14:0.267134 15:0.176081 
1048576.000000 1:-1.034718 2:-1.309858 3:-1.239032 4:-0.907096 5:-0.909875 6:-0.799030 7:-0.736847 8:-0.373860 9:-0.336826 10:0.705739 11:-0.287768 12:-0.385109 13:1.391520 14:0.022761 15:-0.474785 
1048576.000000 1:1.202341 2:0.753318 3:0.282210 4:0.202808 5:-0.089580 6:-0.528182 7:-0.379234 8:-0.586100 9:-0.681963 10:0.705739 11:1.033262 12:-0.654343 13:0.201981 14:-0.627303 15:-0.700078 
1048576.000000 1:0.487725 2:0.312513 3:0.359277 4:0.480284 5:0.864014 6:1.287828 7:1.595408 8:1.061285 9:0.262370 10:0.705739 11:0.666309 12:1.230292 13:1.259349 14:1.219070 15:0.612281 
1048576.000000 1:0.731848 2:0.568128 3:0.640741 4:0.867459 5:0.751223 6:0.364283 7:0.133862 8:0.227486 9:0.363035 10:0.705739 11:0.813090 12:-2.538977 13:0.995007 14:1.385179 15:0.878074 
1048576.000000 1:0.319058 2:-0.138725 3:-0.210351 4:-0.100480 5:0.074479 6:0.231079 7:0.605496 8:0.495312 9:0.434938 10:-1.414761 11:0.079185 12:-0.115876 13:-1.119729 14:0.936364 15:1.542620 
1048576.000000 1:0.565401 2:0.941117 3:0.258755 4:0.044711 5:-0.410862 6:-0.696907 7:-0.664287 8:-0.818553 9:-0.672375 10:0.705739 11:-0.581331 12:0.422591 13:0.201981 14:0.057900 15:-0.028878 
1048576.000000 1:0.649734 2:1.308889 3:0.677599 4:0.196355 5:-0.410862 6:-0.648066 7:-0.902696 8:-1.197553 9:-1.353062 10:0.705739 11:-0.214378 12:0.422591 13:0.281284 14:0.198454 15:0.077216 
1048576.000000 1:0.574278 2:0.322946 3:0.379382 4:0.418981 5:0.655522 6:1.012541 7:0.740248 8:0.515526 9:0.540397 10:0.705739 11:0.519528 12:-0.115876 13:0.201981 14:-0.627303 15:-0.700078 
1048576.000000 1:-1.400904 2:-1.218567 3:-0.924061 4:-0.861925 5:-0.721891 6:-0.559263 7:-0.778309 8:-0.682113 9:-0.696343 10:-1.414761 11:1.106653 12:-0.923576 13:-1.912756 14:-0.612928 15:0.113805 
1048576.000000 1:0.321277 2:-0.284791 3:-0.036111 4:0.280243 5:0.867432 6:1.119104 7:1.134140 8:1.475658 9:0.866359 10:0.705739 11:1.106653 12:0.153358 13:0.466323 14:-0.541053 15:-0.698765 
1048576.000000 1:0.789550 2:0.901992 3:1.361153 4:0.857780 5:0.614507 6:0.666211 7:0.880183 8:1.091605 9:1.067689 10:0.705739 11:-1.315236 12:0.422591 13:0.889270 14:0.474771 15:0.099447 
1048576.000000 1:0.578716 2:1.267156 3:0.526815 4:0.444793 5:-0.205788 6:-0.608104 7:-0.576180 8:-0.530513 9:-0.116322 10:0.705739 11:0.152575 12:0.153358 13:0.466323 14:0.163315 15:-0.028362 
1048576.000000 1:1.109130 2:1.460171 3:0.979167 4:0.757760 5:0.552985 6:0.368723 7:0.932011 8:0.404352 9:0.712965 10:0.705739 11:1.106653 12:-0.115876 13:1.259349 14:-0.154529 15:-0.589834 
1048576.000000 1:0.170364 2:0.072548 3:0.040956 4:0.131826 5:0.214613 6:0.319881 7:0.486292 8:1.061285 9:0.919088 10:0.705739 11:-1.902361 12:-0.385109 13:0.201981 14:-0.012378 15:-0.097719 
1048576.000000 1:-0.941508 2:-1.020335 3:-0.950867 4:-0.761905 5:-0.540742 6:-0.310616 7:0.258249 8:1.041072 9:1.115624 10:0.705739 11:0.666309 12:0.153358 13:0.466323 14:-0.373347 15:-0.539145 
1048576.000000 1:0.518795 2:0.505528 3:0.466502 4:0.299602 5:0.177016 6:-0.159652 7:-0.685019 8:-0.444607 9:-0.653201 10:0.705739 11:0.519528 12:0.422591 13:0.995007 14:0.268731 15:-0.126324 
1048576.000000 1:0.847252 2:1.170649 3:1.093092 4:1.064274 5:0.908446 6:0.768334 7:0.709151 8:0.732819 9:0.780075 10:0.705739 11:0.592919 12:-0.331262 13:0.000000 14:-0.659247 15:-0.000000 
1048576.000000 1:1.042551 2:1.350622 3:0.888696 4:0.464151 5:-0.065654 6:-0.168532 7:-0.348137 8:-0.298060 9:-0.351207 10:-1.414761 11:0.079185 12:1.230292 13:0.730665 14:2.279616 15:1.835123 
1048576.000000 1:0.964876 2:0.802876 3:0.583778 4:0.644833 5:0.375254 6:0.515247 7:0.631410 8:0.975378 9:1.211496 10:0.705739 11:0.592919 12:0.422591 13:1.523691 14:0.442827 15:-0.160487 
1048576.000000 1:-0.919314 2:-0.968169 3:-0.441552 4:-0.087574 5:-0.195534 6:-0.084170 7:0.289346 8:0.459939 9:0.621887 10:0.705739 11:1.033262 12:-0.385109 13:-1.119729 14:-1.681460 15:-1.438039 
1048576.000000 1:-1.986800 2:-1.828913 3:-1.738294 4:-1.610465 5:-1.425977 6:-1.274123 7:-1.488351 8:-1.667512 9:-1.688611 10:0.705739 11:-0.654721 12:0.153358 13:-0.855387 14:0.043525 15:0.401653 
1048576.000000 1:-0.743989 2:-0.819495 3:-0.622493 4:-0.468297 5:-0.762905 6:-0.421619 7:-0.374051 8:-0.656847 9:-0.753866 10:0.705739 11:-0.361159 12:0.000000 13:0.000000 14:0.000000 15:-0.000000 
1048576.000000 1:0.310181 2:0.080373 3:0.027553 4:0.280243 5:0.631597 6:0.648450 7:0.201238 8:-0.237420 9:-0.471046 10:0.705739 11:2.060730 12:-0.654343 13:-0.326703 14:-0.627303 15:-0.527540 
1048576.000000 1:0.893858 2:1.267156 3:0.717808 4:0.628701 5:0.614507 6:0.279920 7:-0.332589 8:-0.202047 9:-0.370381 10:-1.414761 11:0.886481 12:-0.385109 13:-1.648414 14:0.458799 15:1.296915 
1048576.000000 1:-0.084856 2:-0.138725 3:0.265456 4:0.360904 5:0.351329 6:0.248839 7:-0.270396 8:-0.207100 9:-0.279303 10:0.705739 11:0.299356 12:0.153358 13:0.000000 14:-0.365361 15:-0.000000 
1048576.000000 1:0.991507 2:0.581170 3:0.288912 4:0.241525 5:0.419687 6:0.746133 7:0.657324 8:0.717659 9:0.377415 10:0.705739 11:1.546996 12:3.384160 13:-0.062361 14:1.528928 15:1.559629 
1048576.000000 1:1.422052 2:1.444522 3:1.052883 4:0.680324 5:0.552985 6:0.866016 7:1.274075 8:1.379645 9:0.712965 10:-1.414761 11:-0.361159 12:-0.385109 13:-1.119729 14:-0.739107 15:-0.365075 
1048576.000000 1:0.756261 2:1.045449 3:0.268807 4:0.186675 5:0.129166 6:-0.097490 7:-0.166740 8:-0.338487 9:-0.255335 10:0.705739 11:0.372747 12:0.153358 13:0.000000 14:0.000000 15:-0.000000 
1048576.000000 1:-0.284593 2:-0.193500 3:0.044307 4:0.247978 5:0.799074 6:1.740721 7:1.994483 8:0.995592 9:-0.073180 10:0.705739 11:0.739700 12:-1.192810 13:0.995007 14:-0.994661 15:-1.258882 
1048576.000000 1:0.765138 2:0.868084 3:1.220421 4:1.090085 5:1.062252 6:1.851724 7:2.699342 8:2.299350 9:1.940118 10:0.705739 11:-0.434549 12:0.961058 13:0.201981 14:0.378938 15:0.288120 
1048576.000000 1:1.282236 2:1.165432 3:0.365979 4:0.283469 5:0.224867 6:-0.084170 7:-0.239299 8:-0.070661 9:-0.077973 10:0.705739 11:-0.654721 12:0.691825 13:0.466323 14:1.572053 15:1.312444 
1048576.000000 1:-0.679630 2:-0.243058 3:0.634039 4:1.106218 5:1.694563 6:2.735308 7:3.466395 8:2.269030 9:2.328396 10:0.705739 11:-1.168455 12:0.207205 13:-0.591045 14:-1.074521 15:-0.914140 
1048576.000000 1:-2.364082 2:-2.243635 3:-2.321325 4:-2.207361 5:-2.092467 6:-2.250950 7:-2.312414 8:-2.213272 9:-2.167968 10:0.705739 11:-0.728112 12:0.691825 13:0.466323 14:0.378938 15:0.176863 
1048576.000000 1:0.702998 2:1.113266 3:1.847012 4:1.722472 5:1.885965 6:2.983955 7:3.632244 8:4.169082 9:5.319581 10:0.705739 11:1.180043 12:0.153358 13:-0.062361 14:-0.259945 15:-0.245199 
1048576.000000 1:1.075841 2:1.522771 3:1.458324 4:1.177200 5:0.423105 6:0.084555 7:-0.052718 8:-0.252580 9:-0.768247 10:-1.414761 11:0.225966 12:-0.788959 13:-1.648414 14:-0.291889 15:0.386146 
1048576.000000 1:0.705217 2:1.655795 3:1.518638 4:0.954574 5:0.112076 6:-0.181853 7:-0.431062 8:-0.515353 9:-0.864118 10:0.705739 11:0.079185 12:-0.385109 13:0.995007 14:-0.180084 15:-0.530094 
1048576.000000 1:0.927147 2:0.899384 3:0.406188 4:0.180222 5:0.047136 6:-0.394979 7:-0.736847 8:-0.383967 9:-0.077973 10:0.705739 11:0.152575 12:0.691825 13:0.201981 14:2.151839 15:2.022275 
1048576.000000 1:-0.934850 2:-1.129885 3:-1.155263 4:-0.939361 5:-0.585175 6:-0.399419 7:-0.197837 8:0.298232 9:0.291131 10:0.705739 11:-0.067597 12:-0.385109 13:3.374086 14:-0.894036 15:-1.670891 
1048576.000000 1:1.262262 2:0.894167 3:0.707756 4:-0.213406 5:-0.427951 6:-0.466020 7:-0.218568 8:-0.247527 9:-0.207400 10:-1.414761 11:-0.948284 12:-0.115876 13:-0.458874 14:2.861000 15:3.196816 
1048576.000000 1:0.339031 2:0.202964 3:0.238650 4:0.225393 5:-0.004132 6:-0.106371 7:-0.431062 8:-0.222260 9:-0.221780 10:-1.414761 11:1.326824 12:-0.385109 13:-0.062361 14:0.584978 15:0.606981 
1048576.000000 1:-1.205605 2:-1.163793 3:-0.964270 4:-0.610261 5:-0.229713 6:-0.053089 7:-0.026804 8:0.262859 9:0.267163 10:0.705739 11:1.840559 12:0.153358 13:0.000000 14:-0.132168 15:-0.000000 
1048576.000000 1:-0.038250 2:0.056898 3:-0.079671 4:-0.232765 5:-0.451877 6:-0.394979 7:-0.192654 8:0.222432 9:0.511635 10:-1.414761 11:-0.361159 12:1.499525 13:-0.009493 14:2.276422 15:2.280151 
1048576.000000 1:0.840594 2:1.418438 3:1.183563 4:0.990065 5:0.778566 6:0.275480 7:-0.456976 8:-0.429447 9:-0.360794 10:0.705739 11:-1.021674 12:0.314898 13:0.000000 14:-0.339805 15:-0.000000 
1048576.000000 1:0.489944 2:0.518570 3:0.915502 4:0.696457 5:0.173599 6:0.120076 7:0.118314 8:-0.429447 9:-0.130703 10:-1.414761 11:-0.874893 12:0.153358 13:-1.119729 14:2.028854 15:2.786532 
1048576.000000 1:1.248947 2:1.499296 3:1.243876 4:0.890045 5:0.255628 6:-0.044209 7:-0.021622 8:0.131473 9:0.080214 10:0.705739 11:-1.095065 12:0.691825 13:0.704231 14:0.663241 15:0.346675 
1048576.000000 1:1.144639 2:0.732452 3:0.319068 4:0.438340 5:0.365001 6:0.111196 7:0.450012 8:0.783352 9:0.727346 10:0.705739 11:1.913949 12:0.422591 13:-0.062361 14:0.267134 15:0.286406 
1048576.000000 1:1.293333 2:0.941117 3:0.282210 4:0.109240 5:0.194106 6:0.461965 7:0.351539 8:0.288126 9:0.300718 10:0.705739 11:0.959872 12:0.153358 13:0.704231 14:-0.189668 15:-0.444627 
1048576.000000 1:-0.317883 2:0.265564 3:0.861890 4:0.322187 5:0.077897 6:0.217758 7:0.190873 8:0.091046 9:-0.293684 10:0.705739 11:-0.287768 12:-0.115876 13:0.000000 14:0.410883 15:-0.000000 
1048576.000000 1:-1.860300 2:-1.797613 3:-1.744995 4:-1.645956 5:-1.494335 6:-1.469488 7:-1.369147 8:-1.232926 9:-1.051067 10:0.705739 11:0.886481 12:0.422591 13:-0.062361 14:-0.116196 15:-0.100216 
1048576.000000 1:1.539676 2:1.066316 3:0.979167 4:1.141709 5:1.465564 6:1.589757 7:1.108226 8:0.899578 9:1.211496 10:0.705739 11:1.620387 12:-0.654343 13:-0.062361 14:-0.291889 15:-0.277418 
1048576.000000 1:0.101566 2:-0.023959 3:-0.039462 4:-0.158556 5:-0.079326 6:0.120076 7:-0.047536 8:-0.010021 9:-0.039625 10:-1.414761 11:0.739700 12:-1.462043 13:-1.384072 14:-0.929175 15:-0.486577 
1048576.000000 1:0.383418 2:0.922859 3:1.240525 4:0.728721 5:0.313732 6:0.390923 7:-0.011256 8:-0.176780 9:-0.408729 10:-1.414761 11:0.225966 12:-0.385109 13:-0.591045 14:0.043525 15:0.282886 
1048576.000000 1:0.145952 2:0.591603 3:0.503360 4:0.377037 5:0.159927 6:0.208878 7:0.413733 8:-0.217207 9:-0.044418 10:0.705739 11:-0.067597 12:0.961058 13:1.259349 14:0.123385 15:-0.346616 
1048576.000000 1:-0.317883 2:-0.313482 3:0.007448 4:0.180222 5:0.036883 6:0.311001 7:0.496657 8:0.470046 9:1.072482 10:0.705739 11:0.592919 12:-0.115876 13:0.466323 14:0.219218 15:0.024845 
1048576.000000 1:-0.743989 2:-0.759504 3:-0.263963 4:0.015673 5:0.515388 6:1.154624 7:1.227430 8:0.929898 9:0.636268 10:0.705739 11:-0.728112 12:-0.115876 13:-0.326703 14:0.043525 15:0.169396 
1048576.000000 1:-1.119052 2:-1.114235 3:-0.830240 4:-0.568317 5:-0.239967 6:0.000192 7:0.465560 8:0.985485 9:1.096450 10:0.705739 11:1.473606 12:0.153358 13:0.000000 14:0.041927 15:-0.000000 
1048576.000000 1:1.162394 2:0.722019 3:0.141479 4:-0.194047 5:-0.304907 6:-0.297296 7:-0.508804 8:-0.313220 9:-0.538156 10:-1.414761 11:-0.948284 12:-0.115876 13:-1.119729 14:0.315050 15:0.835191 
1048576.000000 1:1.299991 2:0.961983 3:0.717808 4:0.599663 5:0.402598 6:0.475286 7:0.356722 8:0.566059 9:0.372622 10:0.705739 11:-1.241846 12:0.422591 13:-0.591045 14:0.554631 15:0.830098 
1048576.000000 1:-2.352986 2:-2.230593 3:-2.328026 4:-2.207361 5:-2.092467 6:-2.250950 7:-2.374608 8:-2.359818 9:-2.354917 10:0.705739 11:1.106653 12:1.230292 13:-0.062361 14:0.409285 15:0.429779 
1048576.000000 1:0.707436 2:0.278605 3:-0.300821 4:-0.261803 5:-0.092997 6:0.333202 7:0.102765 8:-0.010021 9:-0.202606 10:0.705739 11:1.546996 12:0.099511 13:0.175547 14:-0.411680 15:-0.368826 
1048576.000000 1:0.350128 2:0.930684 3:0.831734 4:0.335093 5:-0.212624 6:0.026833 7:0.128679 8:0.096099 9:-0.279303 10:-1.414761 11:1.473606 12:-0.115876 13:-1.119729 14:-0.291889 15:0.144129 
1048576.000000 1:1.493070 2:1.462780 3:1.247227 4:0.515775 5:0.214613 6:0.057914 7:0.061303 8:-0.166674 9:-0.001276 10:0.705739 11:-1.168455 12:1.768759 13:1.523691 14:0.902823 15:0.231275 
1048576.000000 1:1.086937 2:0.735060 3:0.556972 4:0.144731 5:0.433359 6:1.221226 7:1.590226 8:1.207831 9:0.780075 10:-1.414761 11:0.886481 12:0.422591 13:-0.326703 14:1.169556 15:1.339254 
1048576.000000 1:1.439807 2:1.421047 3:1.170160 4:0.489963 5:0.009539 6:-0.244014 7:-0.265213 8:-0.338487 9:-0.557330 10:0.705739 11:-0.874893 12:1.230292 13:-0.062361 14:1.501776 15:1.531652 
1048576.000000 1:1.470877 2:1.209773 3:0.825032 4:0.441566 5:0.235121 6:0.000192 7:-0.254847 8:-0.520407 9:-0.763453 10:0.705739 11:-0.361159 12:0.153358 13:0.466323 14:0.378938 15:0.176863 
1048576.000000 1:0.041645 2:0.242089 3:0.272158 4:0.254431 5:0.566657 6:1.403271 7:3.145062 8:3.496989 9:3.545962 10:0.705739 11:-0.801502 12:0.691825 13:0.730665 14:0.506715 15:0.190901 
1048576.000000 1:0.918270 2:0.690719 3:0.677599 4:0.451245 5:-0.045147 6:-0.235134 7:-0.239299 8:0.207273 9:-0.087560 10:-1.414761 11:1.620387 12:0.691825 13:-0.591045 14:1.496984 15:1.839019 
1048576.000000 1:1.040332 2:1.061099 3:1.140003 4:0.506095 5:0.002704 6:-0.150772 7:-0.073450 8:0.040513 9:0.478080 10:0.705739 11:-0.874893 12:0.691825 13:0.466323 14:-3.128531 15:-3.161469 
1048576.000000 1:-1.294377 2:-1.210742 3:-0.994427 4:-1.071646 5:-1.104695 6:-1.056557 7:-1.078911 8:-0.752860 9:-0.763453 10:0.705739 11:0.666309 12:1.768759 13:0.466323 14:0.490743 15:0.283277 
1048576.000000 1:0.975972 2:0.620294 3:0.436345 4:0.583530 5:0.901611 6:1.261187 7:1.455473 8:1.450391 9:1.134799 10:0.705739 11:-0.140987 12:-0.385109 13:-0.591045 14:-0.707163 15:-0.520832 
1048576.000000 1:1.120227 2:0.815918 3:0.717808 4:0.912630 5:1.315176 6:1.278948 7:0.755797 8:0.262859 9:0.137737 10:0.705739 11:0.225966 12:-0.115876 13:-0.062361 14:-0.435638 15:-0.422401 
1048576.000000 1:0.742945 2:1.128916 3:0.496658 4:0.125373 5:-0.113505 6:0.271040 7:0.439646 8:0.859152 9:0.655442 10:0.705739 11:1.546996 12:-0.385109 13:0.466323 14:-0.365361 15:-0.531544 
1048576.000000 1:0.567620 2:0.153406 3:-0.200298 4:-0.381182 5:-0.592011 6:-0.523742 7:0.030206 8:0.576165 9:1.091657 10:0.705739 11:-0.581331 12:0.153358 13:0.000000 14:0.303870 15:-0.000000 
1048576.000000 1:0.689682 2:0.766360 3:0.640741 4:0.631927 5:0.511970 6:0.781654 7:1.299989 8:1.940564 9:2.218144 10:0.705739 11:-0.214378 12:-0.385109 13:-0.353137 14:-0.541053 15:-0.428630 
1048576.000000 1:0.689682 2:0.583778 3:0.905450 4:0.635154 5:0.320568 6:-0.017568 7:-0.275578 8:-0.030234 9:0.070627 10:-1.414761 11:0.005794 12:-0.923576 13:-1.119729 14:0.522687 15:1.071607 
1048576.000000 1:-2.080011 2:-1.875862 3:-1.852219 4:-1.871809 5:-1.750678 6:-1.682614 7:-1.483168 8:-1.354206 9:-1.170906 10:-1.414761 11:-0.140987 12:0.000000 13:0.000000 14:0.000000 15:-0.000000 
1048576.000000 1:-0.522059 2:0.129931 3:0.376031 4:0.535134 5:0.611089 6:0.799415 7:1.217065 8:1.157298 9:1.106037 10:-1.414761 11:1.546996 12:-2.000510 13:-1.119729 14:-1.421115 15:-1.141610 
644086.883236 1:0.774015 2:1.556679 3:1.183563 4:1.028783 5:0.341075 6:0.049034 7:-0.016439 8:-0.035287 9:0.085008 10:0.705739 11:-0.214378 12:0.691825 13:0.466323 14:0.602548 15:0.389690 
1048576.000000 1:-0.626366 2:-0.475198 3:0.017501 4:0.093108 5:0.385508 6:0.448645 7:-0.275578 8:-0.363754 9:-0.356000 10:-1.414761 11:1.033262 12:-1.462043 13:-0.591045 14:-0.999452 15:-0.833768 
1048576.000000 1:0.876103 2:1.762736 3:1.669422 4:0.957800 5:0.563239 6:0.315441 7:0.304894 8:0.247699 9:-0.164258 10:0.705739 11:-0.214378 12:-0.385109 13:0.466323 14:-0.691191 15:-0.841662 
1048576.000000 1:-0.053786 2:-0.235233 3:-0.374537 4:-0.323106 5:-0.239967 6:-0.168532 7:0.076851 8:-0.035287 9:0.300718 10:-1.414761 11:0.079185 12:-0.115876 13:-0.591045 14:-0.403694 15:-0.199291 
1048576.000000 1:-1.130148 2:-0.887311 3:-0.585635 4:-0.555411 5:-0.318579 6:-0.346137 7:-0.285944 8:0.212326 9:-0.006070 10:0.705739 11:-1.095065 12:-0.923576 13:0.201981 14:-0.435638 15:-0.512330 
1048576.000000 1:0.172584 2:0.312513 3:0.329121 4:-0.003686 5:-0.089580 6:-0.150772 7:0.040572 8:-0.217207 9:-0.025244 10:-1.414761 11:1.400215 12:-0.115876 13:-1.119729 14:-0.850912 15:-0.492376 
1048576.000000 1:-2.295284 2:-2.204510 3:-2.271064 4:-2.162190 5:-2.051453 6:-2.153267 7:-2.188027 8:-2.102098 9:-2.048129 10:0.705739 11:-0.581331 12:1.230292 13:1.417955 14:1.923439 15:1.151157 
1048576.000000 1:-0.417752 2:-0.037001 3:0.325770 4:0.035032 5:-0.219460 6:-0.341697 7:-0.109729 8:0.040513 9:0.128150 10:0.705739 11:0.079185 12:0.961058 13:0.704231 14:0.303870 15:0.013261 
1048576.000000 1:-2.239801 2:-2.123652 3:-2.180593 4:-2.149285 5:-2.030945 6:-2.179908 7:-2.156931 8:-2.117258 9:-2.134413 10:0.705739 11:0.152575 12:2.845693 13:1.259349 14:2.694890 15:1.903856 
1048576.000000 1:-0.743989 2:-0.394340 3:0.030904 4:0.122146 5:-0.014386 6:-0.030888 7:-0.301492 8:-0.656847 9:-0.974370 10:0.705739 11:-1.388627 12:0.961058 13:0.704231 14:0.727130 15:0.405948 
1048576.000000 1:1.144639 2:0.894167 3:0.292262 4:-0.113386 5:-0.301489 6:-0.568143 7:-0.467342 8:-0.207100 9:-0.125909 10:0.705739 11:0.079185 12:0.422591 13:0.730665 14:0.043525 15:-0.237622 
1048576.000000 1:0.430023 2:0.364679 3:0.620636 4:0.593210 5:0.621343 6:0.399804 7:-0.094181 8:0.101153 9:0.363035 10:0.705739 11:0.519528 12:-0.115876 13:1.523691 14:0.123385 15:-0.432544 
1048576.000000 1:0.960437 2:1.308889 3:1.042831 4:0.596436 5:0.084733 6:-0.124131 7:-0.456976 8:-0.520407 9:-0.169051 10:0.705739 11:0.519528 12:0.422591 13:0.809968 14:-0.068280 15:-0.368826 
1048576.000000 1:-1.578448 2:-1.202917 3:-0.582284 4:0.064070 5:0.255628 6:0.208878 7:0.087217 8:0.070833 9:0.099389 10:-1.414761 11:0.079185 12:-0.654343 13:-1.119729 14:-0.004392 15:0.471474 
1048576.000000 1:-0.315664 2:-0.496064 3:0.037605 4:0.057617 5:0.122330 6:0.595169 7:0.911280 8:0.823779 9:0.990992 10:-1.414761 11:-0.801502 12:-0.115876 13:-1.384072 14:1.993716 15:2.809946 
1048576.000000 1:1.015920 2:0.664636 3:0.493308 4:0.164090 5:-0.031475 6:-0.119691 7:0.548485 8:1.046125 9:1.034134 10:-1.414761 11:0.739700 12:1.230292 13:-1.912756 14:0.714352 15:1.777350 
1048576.000000 1:-0.122584 2:-0.172633 3:0.154882 4:0.622248 5:1.140863 6:1.145744 7:0.978656 8:0.368979 9:0.784868 10:-1.414761 11:-0.434549 12:-1.192810 13:-0.591045 14:-0.627303 15:-0.435330 
1048576.000000 1:-0.388901 2:-0.449115 3:-0.592336 4:-0.487656 5:-0.263892 6:-0.008688 7:-0.068267 8:-0.131300 9:-0.384762 10:0.705739 11:-0.067597 12:0.153358 13:0.598494 14:-0.224806 15:-0.442288 
1048576.000000 1:0.572059 2:0.875909 3:1.136652 4:1.164294 5:0.754641 6:0.666211 7:0.729883 8:0.697445 9:1.168354 10:0.705739 11:0.959872 12:-0.115876 13:0.175547 14:-0.365361 15:-0.434472 
1048576.000000 1:-1.682755 2:-1.680239 3:-1.791906 4:-1.787921 5:-1.713081 6:-1.762536 7:-1.623103 8:-1.510859 9:-1.563979 10:0.705739 11:-0.948284 12:-0.385109 13:0.995007 14:-0.197654 15:-0.479023 
1048576.000000 1:0.023890 2:1.204557 3:1.599056 4:0.609342 5:-0.198952 6:-0.497101 7:-0.519169 8:0.333606 9:0.693791 10:0.705739 11:-0.287768 12:0.422591 13:0.466323 14:0.123385 15:-0.066367 
1048576.000000 1:0.374540 2:-0.172633 3:-0.642598 4:-0.610261 5:-0.472384 6:-0.346137 7:0.149410 8:0.651965 9:0.760901 10:-1.414761 11:-0.287768 12:0.422591 13:-1.119729 14:-0.180084 15:0.271430 
1048576.000000 1:1.166832 2:1.301064 3:1.552146 4:0.877139 5:0.720462 6:0.972579 7:0.885366 8:0.950112 9:1.053308 10:-1.414761 11:2.207511 12:-1.192810 13:-0.591045 14:-0.850912 15:-0.674735 
1048576.000000 1:-1.185631 2:-1.148143 3:-1.138509 4:-1.239422 5:-1.231157 6:-1.505009 7:-1.545362 8:-1.505806 9:-1.506456 10:-1.414761 11:0.446137 12:1.230292 13:-1.119729 14:0.902503 15:1.504066 
1048576.000000 1:1.126885 2:0.855043 3:0.617285 4:0.848101 5:1.349355 6:1.243427 7:1.030484 8:0.899578 9:1.523077 10:0.705739 11:0.372747 12:0.422591 13:0.995007 14:-0.275917 15:-0.616309 
1048576.000000 1:0.656392 2:0.633336 3:0.412890 4:0.318960 5:0.402598 6:0.226639 7:-0.031987 8:-0.222260 9:-0.111528 10:0.705739 11:1.033262 12:-0.385109 13:0.466323 14:-0.180084 15:-0.355202 
1048576.000000 1:1.415394 2:1.196732 3:0.928905 4:0.580304 5:0.566657 6:0.959259 7:1.191151 8:1.374591 9:1.374477 10:0.705739 11:1.326824 12:0.287975 13:-0.855387 14:-0.470776 15:-0.166051 
148663.184145 1:-0.344514 2:-0.582139 3:0.151531 4:0.619022 5:0.737552 6:0.981460 7:1.040850 8:0.591325 9:0.300718 10:0.705739 11:-0.140987 12:0.691825 13:0.995007 14:0.163315 15:-0.221160 
1048576.000000 1:-0.453260 2:-0.621263 3:-0.548777 4:-0.300521 5:-0.137430 6:0.004633 7:0.481109 8:1.394805 9:1.403238 10:0.705739 11:0.079185 12:-0.115876 13:0.201981 14:-0.005989 15:-0.091460 
1048576.000000 1:0.516576 2:1.074141 3:0.895398 4:0.754533 5:0.406016 6:0.004633 7:-0.622825 8:-1.071220 9:-1.031893 10:-1.414761 11:1.473606 12:-1.731277 13:-0.855387 14:-1.028202 15:-0.781359 
1048576.000000 1:0.412269 2:0.727235 3:0.995921 4:0.715816 5:-0.089580 6:-0.612545 7:-0.809406 8:-0.944886 9:-0.773040 10:-1.414761 11:-0.287768 12:-0.385109 13:-1.912756 14:-0.052308 15:0.816458 
1048576.000000 1:-0.195821 2:-0.396948 3:-0.612441 4:-0.423126 5:-0.202370 6:-0.124131 7:-0.327406 8:-0.252580 9:-0.006070 10:-1.414761 11:0.959872 12:-0.654343 13:-0.141664 14:-0.327028 15:-0.284126 
1048576.000000 1:0.782893 2:1.470605 3:1.240525 4:0.548039 5:-0.390355 6:-0.421619 7:-0.420696 8:-0.505247 9:-0.562123 10:0.705739 11:1.033262 12:-0.115876 13:-0.591045 14:-0.739107 15:-0.555032 
1048576.000000 1:1.268920 2:1.081966 3:0.647442 4:0.848101 5:0.860596 6:0.208878 7:0.092400 8:-0.126247 9:0.123356 10:0.705739 11:-0.067597 12:0.691825 13:-0.326703 14:0.155329 15:0.285552 
1048576.000000 1:0.967095 2:1.027191 3:0.456449 4:0.038258 5:-0.434787 6:-0.794590 7:-0.679836 8:-0.818553 9:-0.864118 10:0.705739 11:-1.975752 12:-0.385109 13:1.259349 14:-0.563414 15:-0.947673 
1048576.000000 1:0.793989 2:1.298456 3:0.680950 4:0.409301 5:0.033465 6:-0.301736 7:-0.192654 8:-0.373860 9:-0.240955 10:0.705739 11:1.987340 12:0.691825 13:-0.062361 14:-0.277514 15:-0.262919 
1048576.000000 1:-2.242020 2:-2.141910 3:-2.157138 4:-2.049264 5:-1.945498 6:-2.042264 7:-2.011812 8:-1.783739 9:-1.525630 10:0.705739 11:-0.874893 12:-0.385109 13:-0.591045 14:-0.646469 15:-0.368826 
1048576.000000 1:0.503260 2:1.217598 3:0.687651 4:0.347999 5:-0.287818 6:-0.479341 7:-0.327406 8:-0.191940 9:-0.135496 10:0.705739 11:-0.214378 12:-1.192810 13:-0.670348 14:-0.894036 15:-0.695032 
1048576.000000 1:0.543208 2:0.826351 3:1.166809 4:1.161068 5:1.216057 6:1.682999 7:1.937472 8:1.920351 9:1.590187 10:-1.414761 11:1.033262 12:0.153358 13:0.000000 14:0.000000 15:0.607057 
1048576.000000 1:-2.002335 2:-1.870646 3:-1.554002 4:-1.429783 5:-1.244829 6:-0.967754 7:-0.726481 8:-0.778126 9:-0.753866 10:0.705739 11:-1.168455 12:1.391832 13:0.704231 14:2.452114 15:2.006334 
1048576.000000 1:1.162394 2:1.149782 3:0.845137 4:0.809383 5:0.870850 6:0.910418 7:1.439925 8:0.929898 9:0.760901 10:0.705739 11:0.079185 12:1.499525 13:0.201981 14:0.602548 15:0.504641 
1048576.000000 1:-0.262400 2:0.479445 3:-0.005955 4:-0.165009 5:-0.137430 6:-0.164092 7:-0.114912 8:-0.212154 9:0.166498 10:-1.414761 11:1.767168 12:-0.923576 13:-0.855387 14:-0.627303 15:-0.338831 
1048576.000000 1:1.455342 2:0.969808 3:0.238650 4:0.264111 5:0.262464 6:0.239959 7:0.294528 8:0.535739 9:0.123356 10:0.705739 11:0.886481 12:0.287975 13:0.000000 14:-0.403694 15:-0.000000 
1048576.000000 1:-0.428848 2:-0.464764 3:0.014150 4:-0.516694 5:-0.704801 6:-0.434940 7:-0.441428 8:-0.318274 9:-0.308064 10:0.705739 11:1.326824 12:3.922627 13:-0.326703 14:1.496984 15:1.679425 
1048576.000000 1:-2.075572 2:-1.982803 3:-2.023108 4:-2.013773 5:-1.883976 6:-1.949022 7:-1.965167 8:-1.869645 9:-1.808450 10:-1.414761 11:1.473606 12:-1.462043 13:-2.705782 14:-1.186326 15:-0.292569 
-1048576.000000 1:0.922709 2:0.698544 3:0.768069 4:0.286696 5:0.218031 6:0.732813 7:1.004570 8:1.788964 9:2.103099 10:0.705739 11:1.180043 12:1.499525 13:0.466323 14:0.586575 15:0.374488 
-1048576.000000 1:-0.337857 2:-0.618655 3:-0.361134 4:-0.419900 5:-0.410862 6:-0.217374 7:-0.228933 8:0.040513 9:0.478080 10:-1.414761 11:0.666309 12:-0.385109 13:-2.177098 14:0.235190 15:1.335584 
-1048576.000000 1:-1.103517 2:-1.015119 3:-0.783329 4:-0.736093 5:-0.756070 6:-0.590344 7:-0.524352 8:-0.459767 9:-0.509394 10:0.705739 11:0.446137 12:0.000000 13:0.000000 14:0.000000 15:-0.000000 
-1048576.000000 1:1.544114 2:1.102832 3:0.865241 4:0.893271 5:1.093013 6:1.238987 7:1.305172 8:1.228045 9:1.024547 10:0.705739 11:0.299356 12:0.961058 13:0.995007 14:0.714352 15:0.274573 
-1048576.000000 1:1.075841 2:0.547261 3:0.211844 4:0.031805 5:0.006122 6:0.066794 7:0.284163 8:-0.338487 9:-0.667582 10:-1.414761 11:-0.287768 12:0.530285 13:-1.912756 14:1.145598 15:2.322534 
-1048576.000000 1:-0.078198 2:-0.456939 3:-0.485112 4:-0.329559 5:-0.325415 6:-0.577024 7:-0.622825 8:-0.242474 9:-0.312858 10:0.705739 11:-0.728112 12:0.691825 13:1.206481 14:0.832545 15:0.295038 
-1048576.000000 1:1.566307 2:1.264548 3:0.938958 4:0.425434 5:-0.000714 6:-0.235134 7:-0.545083 8:-0.272794 9:0.051453 10:0.705739 11:-0.581331 12:-0.923576 13:1.523691 14:-0.189668 15:-0.699160 
-1048576.000000 1:1.488632 2:1.387139 3:1.334347 4:0.722268 5:0.365001 6:0.244399 7:0.040572 8:0.414459 9:0.425351 10:0.705739 11:-0.874893 12:0.153358 13:1.259349 14:-0.515498 15:-0.905739 
-1048576.000000 1:0.833937 2:0.682894 3:0.362628 4:0.225393 5:0.259046 6:0.515247 7:0.372270 8:0.687339 9:0.257576 10:0.705739 11:-0.948284 12:-0.385109 13:-0.062361 14:-0.627303 15:-0.615712 
-1048576.000000 1:1.464219 2:1.061099 3:0.590479 4:0.251205 5:-0.140848 6:-0.430500 7:-0.503621 8:-0.692220 9:-0.562123 10:0.705739 11:-0.654721 12:-0.385109 13:0.730665 14:0.000000 15:-0.000000 
-1048576.000000 1:1.151297 2:1.376705 3:1.706280 4:1.190106 5:0.949461 6:0.919298 7:0.880183 8:1.147192 9:1.230670 10:-1.414761 11:-0.434549 12:-2.000510 13:-0.855387 14:-0.882856 15:-0.620920 
-1048576.000000 1:-2.102204 2:-1.938462 3:-1.912533 4:-1.781468 5:-1.637887 6:-1.713695 7:-1.654200 8:-1.955552 9:-1.981019 10:0.705739 11:0.005794 12:0.422591 13:-0.326703 14:-0.451610 15:-0.345009 
-1048576.000000 1:0.705217 2:0.213397 3:-0.424799 4:-0.558638 5:-0.691130 6:-0.794590 7:-0.757578 8:-0.712433 9:-0.787421 10:-1.414761 11:-0.067597 12:0.691825 13:-0.326703 14:1.549692 15:1.734184 
-1048576.000000 1:0.536550 2:0.367288 3:0.352576 4:0.283469 5:0.166763 6:0.231079 7:0.164959 8:0.247699 9:0.708171 10:-1.414761 11:0.079185 12:-1.462043 13:-0.855387 14:-0.563414 15:-0.262867 
-1048576.000000 1:-0.155874 2:-0.271749 3:-0.709613 4:-0.539279 5:-0.188699 6:0.093435 7:-0.031987 8:-0.035287 9:-0.015657 10:0.705739 11:0.446137 12:0.000000 13:0.000000 14:0.000000 15:-0.000000 
-1048576.000000 1:-1.172315 2:-1.262909 3:-1.490338 4:-1.387839 5:-1.320023 6:-1.460608 7:-1.477985 8:-1.460326 9:-1.477694 10:-1.414761 11:1.620387 12:-0.385109 13:-1.912756 14:-0.435638 15:0.336011 
-1048576.000000 1:1.195683 2:0.990675 3:0.580427 4:0.351225 5:0.546149 6:0.852696 7:0.496657 8:0.247699 9:0.487667 10:0.705739 11:1.180043 12:0.691825 13:0.466323 14:2.087951 15:1.803465 
-1048576.000000 1:1.319964 2:1.668837 3:1.847012 4:1.664396 5:1.677473 6:1.731841 7:1.585043 8:0.803565 9:1.110831 10:0.705739 11:0.079185 12:0.691825 13:0.000000 14:-0.291889 15:-0.000000 
-1048576.000000 1:-1.243333 2:-1.268125 3:-0.893904 4:-0.652205 5:-0.236549 6:-0.048649 7:-0.306675 8:-0.666953 9:-0.964783 10:0.705739 11:-0.581331 12:-0.115876 13:0.730665 14:-0.180084 15:-0.444496 
-1048576.000000 1:0.243601 2:1.629712 3:1.307541 4:-0.110159 5:-0.407444 6:-0.581464 7:-0.399965 8:-0.485033 9:-0.552536 10:0.705739 11:-0.067597 12:0.153358 13:1.259349 14:-0.004392 15:-0.458440 
-1048576.000000 1:1.102472 2:0.761143 3:0.878644 4:0.560945 5:0.518806 6:0.173357 7:-0.016439 8:-0.348594 9:-0.720311 10:0.705739 11:1.400215 12:1.768759 13:-0.485308 14:0.268731 15:0.478847 
-1048576.000000 1:-0.979236 2:-1.150751 3:-1.011180 4:-0.748999 5:-0.342504 6:-0.035329 7:0.346356 8:0.783352 9:0.775281 10:0.705739 11:-0.140987 12:-0.115876 13:0.334152 14:0.139357 15:-0.000675 
-1048576.000000 1:0.496602 2:0.364679 3:0.278859 4:0.141505 5:-0.092997 6:-0.177412 7:0.066486 8:0.227486 9:0.890327 10:0.705739 11:0.739700 12:-0.654343 13:0.466323 14:-0.611331 15:-0.765653 
-1048576.000000 1:1.326622 2:1.494080 3:1.032779 4:0.454472 5:0.163345 6:0.062354 7:-0.021622 8:0.045566 9:0.425351 10:0.705739 11:1.473606 12:-0.385109 13:0.201981 14:-0.627303 15:-0.700078 
-1048576.000000 1:-0.226891 2:-0.034393 3:-0.056216 4:-0.290841 5:-0.260474 6:-0.013128 7:0.289346 8:0.116313 9:0.545190 10:0.705739 11:1.840559 12:1.499525 13:0.466323 14:0.233592 15:0.038526 
-1048576.000000 1:0.636418 2:0.166448 3:-0.307522 4:-0.629620 5:-0.646697 6:-0.719108 7:-0.493255 8:-0.682113 9:-0.533362 10:-1.414761 11:0.592919 12:0.691825 13:-0.855387 14:1.608789 15:1.697376 
-1048576.000000 1:0.172584 2:0.515962 3:0.848487 4:0.715816 5:0.511970 6:0.355402 7:0.398184 8:0.298232 9:0.712965 10:0.705739 11:0.959872 12:-0.654343 13:0.201981 14:-0.499526 15:-0.574913 
-1048576.000000 1:0.891638 2:0.969808 3:0.855189 4:0.609342 5:0.662358 6:0.537447 7:0.382636 8:1.000645 9:0.914295 10:-1.414761 11:1.033262 12:-0.923576 13:-2.415006 14:-1.633544 15:-1.009750 
-1048576.000000 1:-1.121271 2:-0.782979 3:-0.552127 4:-0.707055 5:-0.691130 6:-0.492661 7:-0.317041 8:-0.222260 9:-0.250542 10:-1.414761 11:-0.214378 12:0.000000 13:-0.723216 14:1.485804 15:1.909294 
-1048576.000000 1:0.294645 2:-0.016134 3:-0.253910 4:-0.342465 5:-0.725309 6:-0.878952 7:-0.793857 8:-0.752860 9:-0.696343 10:0.705739 11:0.005794 12:-0.115876 13:-0.062361 14:0.155329 15:0.171566 
-1048576.000000 1:-0.471015 2:-0.449115 3:-0.686157 4:-0.774811 5:-0.554414 6:-0.212933 7:-0.057901 8:0.505419 9:1.010166 10:0.705739 11:-2.049142 12:0.153358 13:0.000000 14:0.000000 15:-0.000000 
-1048576.000000 1:1.153516 2:0.789835 3:-0.026059 4:-0.313427 5:-0.557832 6:-0.736868 7:-0.695384 8:-0.474927 9:-0.183432 10:0.705739 11:-0.581331 12:0.000000 13:0.000000 14:1.337263 15:-0.000000 
-1048576.000000 1:-0.111487 2:0.122106 3:0.040956 4:0.315734 5:0.484627 6:0.710612 7:0.636592 8:0.626699 9:0.794456 10:0.705739 11:1.987340 12:-0.923576 13:-0.855387 14:-0.777440 15:-0.504559 
-1048576.000000 1:-0.111487 2:-0.185675 3:0.030904 4:0.206034 5:-0.041729 6:-0.066409 7:-0.467342 8:-1.005526 9:-0.959989 10:0.705739 11:-0.140987 12:0.153358 13:1.523691 14:-0.403694 15:-0.881438 
-143143.195963 1:0.603129 2:0.142973 3:-0.186895 4:-0.645752 5:-0.759487 6:-0.683587 7:-0.146009 8:0.490259 9:0.617094 10:-1.414761 11:-1.021674 12:0.000000 13:-0.591045 14:2.134270 15:2.521324 
-1048576.000000 1:0.647515 2:0.688110 3:0.439696 4:0.238299 5:0.323986 6:0.772774 7:0.823173 8:0.924845 9:0.353448 10:0.705739 11:-0.581331 12:0.000000 13:0.000000 14:0.000000 15:-0.000000 
-1048576.000000 1:-0.388901 2:-0.164808 3:0.074463 4:-0.194047 5:-0.226295 6:0.066794 7:0.507023 8:0.520579 9:0.674616 10:0.705739 11:-2.122533 12:0.000000 13:0.000000 14:0.000000 15:-0.000000 
-1048576.000000 1:0.689682 2:0.988067 3:0.925555 4:0.451245 5:0.474373 6:0.826055 7:1.227430 8:1.374591 9:0.454112 10:0.705739 11:1.620387 12:-0.115876 13:-0.062361 14:-0.403694 15:-0.390182 
-1048576.000000 1:1.481974 2:1.616670 3:1.150055 4:0.644833 5:0.481209 6:0.559648 7:0.543302 8:0.490259 9:0.727346 10:0.705739 11:1.913949 12:0.153358 13:1.259349 14:-0.259945 15:-0.682090 
-1048576.000000 1:1.142420 2:0.779401 3:0.791525 4:0.554492 5:0.194106 6:0.035713 7:-0.539901 8:-0.581047 9:-0.480633 10:-1.414761 11:2.134121 12:0.000000 13:-1.912756 14:-0.734316 15:-0.038336 
-1048576.000000 1:0.865007 2:0.526395 3:0.402837 4:0.273790 5:0.067644 6:0.106755 7:0.615861 8:0.732819 9:0.928675 10:-1.414761 11:-0.654721 12:-0.385109 13:-0.062361 14:0.885253 15:0.909835 
-1048576.000000 1:-0.180286 2:-0.044826 3:0.181688 4:-0.119839 5:0.163345 6:0.368723 7:0.128679 8:0.035459 9:-0.538156 10:0.705739 11:-1.755580 12:-0.654343 13:0.730665 14:-0.852509 15:-1.066594 
-1048576.000000 1:1.226754 2:1.230640 3:1.495183 4:1.067500 5:1.294669 6:1.563116 7:1.512484 8:1.556511 9:0.684204 10:0.705739 11:-0.361159 12:-0.115876 13:0.730665 14:-0.771051 15:-0.991233 
-1048576.000000 1:-0.399997 2:-0.639521 3:-0.508568 4:-0.590902 5:-0.445041 6:-0.159652 7:-0.280761 8:-0.530513 9:-0.499807 10:-1.414761 11:-0.067597 12:-0.115876 13:-0.855387 14:0.268731 15:0.553018 
-1048576.000000 1:1.078060 2:0.667244 3:0.051008 4:-0.165009 5:-0.127176 6:-0.119691 7:0.087217 8:0.020299 9:-0.116322 10:0.705739 11:1.840559 12:1.230292 13:-0.062361 14:0.602548 15:0.624701 
-1048576.000000 1:1.242289 2:0.651594 3:0.312367 4:0.302828 5:0.279553 6:0.133396 7:0.061303 8:0.576165 9:0.597919 10:0.705739 11:0.446137 12:0.422591 13:0.201981 14:-0.224806 15:-0.305807 
-1048576.000000 1:0.094908 2:0.101240 3:0.144829 4:0.131826 5:0.166763 6:0.524127 7:0.569216 8:0.672179 9:0.401383 10:0.705739 11:0.446137 12:-0.654343 13:-1.384072 14:-0.702371 15:-0.220074 
-1048576.000000 1:1.082499 2:1.554071 3:1.327645 4:0.767439 5:0.898193 6:0.941499 7:0.444829 8:-0.050447 9:-0.178638 10:0.705739 11:1.400215 12:-0.385109 13:0.730665 14:-0.627303 15:-0.858242 
-1048576.000000 1:0.802866 2:0.693327 3:0.453099 4:0.328640 5:0.399180 6:0.626250 7:0.621044 8:0.641859 9:0.511635 10:0.705739 11:0.372747 12:-0.115876 13:0.201981 14:-0.802996 15:-0.872181 
-1048576.000000 1:0.463313 2:-0.073517 3:-0.109828 4:-0.381182 5:-0.089580 6:-0.075290 7:0.045755 8:0.161793 9:0.085008 10:0.705739 11:1.913949 12:1.768759 13:0.000000 14:-0.119391 15:-0.000000 
-1048576.000000 1:-0.084856 2:0.622903 3:0.412890 4:0.209261 5:0.252210 6:0.559648 7:0.843904 8:0.439726 9:0.588332 10:0.705739 11:0.225966 12:1.499525 13:1.259349 14:0.620117 15:0.088103 
-1048576.000000 1:0.869445 2:2.041825 3:1.857064 4:0.596436 5:-0.147684 6:-0.297296 7:-0.539901 8:-0.687167 9:-0.974370 10:-1.414761 11:-0.287768 12:-0.654343 13:0.000000 14:-0.751885 15:-0.000000 
-1048576.000000 1:-1.953511 2:-1.823696 3:-1.932638 4:-1.810506 5:-1.719917 6:-1.904620 7:-1.991081 8:-2.056619 9:-2.110445 10:0.705739 11:-1.388627 12:1.768759 13:1.523691 14:1.065738 15:0.370024 
-1048576.000000 1:1.248947 2:1.081966 3:0.922204 4:0.861006 5:0.771731 6:0.932618 7:0.781711 8:0.783352 9:1.321748 10:0.705739 11:1.400215 12:0.422591 13:0.000000 14:-0.371749 15:-0.000000 
-1048576.000000 1:-0.570884 2:-0.010918 3:1.093092 4:1.641811 5:2.220919 6:3.037237 7:3.300546 8:2.162910 9:2.079131 10:0.705739 11:0.446137 12:-0.654343 13:0.730665 14:-0.579386 15:-0.813912 
-1048576.000000 1:-1.054692 2:-1.077718 3:-0.806785 4:-0.678017 5:-0.404026 6:-0.141891 7:0.247883 8:0.702499 9:0.502048 10:-1.414761 11:-0.507940 12:-0.923576 13:-1.912756 14:0.937961 15:2.057611 
-1048576.000000 1:0.560962 2:0.583778 3:0.747965 4:0.164090 5:-0.130594 6:-0.035329 7:-0.472524 8:-0.525460 9:-0.547743 10:0.705739 11:0.152575 12:2.307226 13:0.995007 14:2.662946 15:2.027598 
-1048576.000000 1:0.685243 2:0.930684 3:0.489957 4:0.135052 5:-0.260474 6:-0.443820 7:-0.311858 8:0.171899 9:0.219228 10:0.705739 11:-0.801502 12:0.961058 13:2.581060 14:1.385179 15:0.223389 
-1048576.000000 1:0.279110 2:0.920250 3:1.056234 4:0.038258 5:-0.926964 6:-1.274123 7:-1.633469 8:-1.920179 9:-1.909115 10:-1.414761 11:0.739700 12:0.422591 13:-2.177098 14:0.378938 15:1.521808 
-1048576.000000 1:0.691901 2:0.547261 3:-0.119880 4:-0.610261 5:-0.988487 6:-1.211961 7:-1.073728 8:-0.965100 9:-0.653201 10:0.705739 11:-1.168455 12:0.691825 13:0.466323 14:0.602548 15:0.389690 
-1048576.000000 1:0.698559 2:0.646377 3:0.526815 4:0.009220 5:-0.434787 6:-0.701347 7:-1.198115 8:-1.495699 9:-1.520836 10:-1.414761 11:0.372747 12:0.287975 13:-2.705782 14:-0.627303 15:0.482438 
-1048576.000000 1:0.618664 2:0.547261 3:0.781472 4:0.464151 5:0.426523 6:0.746133 7:0.605496 8:1.465551 9:1.834659 10:0.705739 11:-0.581331 12:1.230292 13:-0.326703 14:1.148793 15:1.317682 
-1048576.000000 1:1.382105 2:0.844609 3:0.399487 4:0.473831 5:0.067644 6:-0.106371 7:-0.171923 8:-0.116140 9:-0.336826 10:0.705739 11:0.666309 12:-0.115876 13:1.417955 14:-0.579386 15:-1.003642 
-1048576.000000 1:0.454435 2:0.119498 3:0.148180 4:0.309281 5:0.296643 6:0.204438 7:-0.026804 8:0.091046 9:0.128150 10:-1.414761 11:0.152575 12:0.153358 13:0.000000 14:0.000000 15:0.266929 
-1048576.000000 1:0.467751 2:1.426263 3:1.592355 4:1.067500 5:1.410877 6:2.104811 7:2.238074 8:0.929898 9:0.233608 10:0.705739 11:-0.654721 12:-1.462043 13:-0.591045 14:-1.104868 15:-0.946631 
-1048576.000000 1:0.307961 2:-0.180458 3:-0.652650 4:-0.742546 5:-0.725309 6:-0.905593 7:-1.255125 8:-1.616979 9:-1.899528 10:-1.414761 11:2.134121 12:0.000000 13:0.000000 14:0.000000 15:-0.000000 
-1048576.000000 1:1.064744 2:1.280198 3:0.922204 4:0.648060 5:0.498299 6:0.541887 7:0.118314 8:-0.217207 9:-0.178638 10:0.705739 11:-0.654721 12:-0.654343 13:0.730665 14:-0.315847 15:-0.570097 
-1048576.000000 1:-1.376491 2:-1.594164 3:-1.637771 4:-1.481406 5:-1.313187 6:-1.425087 7:-1.063362 8:-0.833713 9:-0.566917 10:0.705739 11:2.060730 12:0.153358 13:0.995007 14:0.022761 15:-0.347607 
-1048576.000000 1:0.676366 2:0.291647 3:-0.056216 4:-0.106933 5:0.081315 6:0.444205 7:0.698786 8:0.747979 9:0.468493 10:0.705739 11:0.299356 12:0.153358 13:1.417955 14:0.057900 15:-0.454973 
-1048576.000000 1:0.989288 2:0.852434 3:0.345874 4:0.099561 5:0.043718 6:0.644010 7:0.615861 8:0.101153 9:-0.164258 10:0.705739 11:1.180043 12:0.691825 13:0.995007 14:0.267134 15:-0.127761 
-1048576.000000 1:0.316838 2:0.098631 3:-0.106477 4:-0.123065 5:0.033465 6:0.297681 7:0.439646 8:-0.085821 9:-0.288890 10:-1.414761 11:-0.434549 12:0.961058 13:-0.855387 14:1.512956 15:2.023667 
-1048576.000000 1:-0.519840 2:-0.459548 3:-0.119880 4:-0.003686 5:0.265882 6:0.639570 7:1.279258 8:1.485765 9:1.408032 10:0.705739 11:1.546996 12:-0.654343 13:-1.119729 14:-1.298130 15:-1.001579 
-1048576.000000 1:0.148171 2:0.260347 3:-0.153388 4:-0.332785 5:-0.499727 6:-0.221814 7:-0.317041 8:-0.141407 9:-0.255335 10:0.705739 11:-1.021674 12:0.153358 13:2.052376 14:0.155329 15:-0.568544 
-1048576.000000 1:0.216970 2:-0.172633 3:-0.508568 4:-0.345691 5:-0.540742 6:-0.670266 7:-0.938975 8:-0.697273 9:-0.538156 10:0.705739 11:-0.507940 12:0.422591 13:1.788033 14:0.043525 15:-0.581271 
-1048576.000000 1:-1.846984 2:-1.977587 3:-1.932638 4:-1.775015 5:-1.634469 6:-1.553851 7:-1.281039 8:-0.858980 9:-0.705930 10:0.705739 11:1.253434 12:0.422591 13:0.201981 14:0.057900 15:-0.050948 
-1048576.000000 1:-0.277935 2:0.030815 3:0.449748 4:0.283469 5:0.238539 6:0.271040 7:0.548485 8:0.813672 9:0.780075 10:0.705739 11:-1.241846 12:0.691825 13:0.995007 14:0.514701 15:0.094960 
-1048576.000000 1:0.800647 2:0.865476 3:0.530166 4:0.154411 5:-0.304907 6:-0.417179 7:-0.270396 8:0.070833 9:0.046659 10:0.705739 11:-1.095065 12:0.961058 13:1.259349 14:1.241431 15:0.631850 
-1048576.000000 1:1.078060 2:1.050666 3:1.113197 4:0.373810 5:0.282971 6:0.346522 7:0.299711 8:0.495312 9:0.516429 10:-1.414761 11:-0.361159 12:-0.115876 13:-1.648414 14:1.161570 15:2.149549 
-1048576.000000 1:-0.153654 2:-0.764721 3:-0.250560 4:-0.390862 5:-0.277564 6:-0.443820 7:-0.710933 8:-0.980260 9:-0.940815 10:-1.414761 11:-0.214378 12:0.000000 13:0.000000 14:0.160121 15:-0.000000 
-1048576.000000 1:-0.666314 2:-0.996861 3:-0.994427 4:-0.778037 5:-0.434787 6:-0.044209 7:0.113131 8:-0.525460 9:-0.648408 10:0.705739 11:0.959872 12:-0.385109 13:-0.062361 14:-0.755079 15:-0.744586 
-1048576.000000 1:1.133543 2:0.990675 3:0.912152 4:0.589983 5:0.423105 6:0.537447 7:0.683238 8:0.899578 9:0.875946 10:0.705739 11:0.005794 12:0.000000 13:0.000000 14:0.000000 15:-0.000000 
-1048576.000000 1:0.183680 2:0.364679 3:0.292262 4:0.009220 5:-0.062236 6:0.000192 7:0.107948 8:0.293179 9:-0.077973 10:-1.414761 11:-0.214378 12:-0.385109 13:-1.119729 14:0.128177 15:0.622417 
-1048576.000000 1:-0.881586 2:-1.038594 3:-0.766575 4:-0.555411 5:-0.468966 6:-0.625865 7:-0.861233 8:-0.545673 9:-0.063593 10:0.705739 11:0.372747 12:0.530285 13:0.175547 14:0.409285 15:0.326549 
-1048576.000000 1:1.397640 2:1.421047 3:0.694353 4:0.351225 5:-0.079326 6:-0.679146 7:-0.985620 8:-1.035846 9:-0.792215 10:0.705739 11:0.446137 12:-0.115876 13:0.466323 14:-0.898828 15:-1.039287 
-1048576.000000 1:0.833937 2:0.873301 3:0.965764 4:0.641607 5:0.525642 6:0.666211 7:0.864635 8:1.698004 9:1.585394 10:0.705739 11:0.299356 12:0.691825 13:0.466323 14:-0.052308 15:-0.233587 
-1048576.000000 1:-0.817226 2:-0.902961 3:-0.954218 4:-0.884511 5:-0.923547 6:-1.216401 7:-1.519448 8:-1.480539 9:-1.266778 10:-1.414761 11:-1.168455 12:0.000000 13:0.000000 14:-0.935564 15:-0.000000 
-1048576.000000 1:1.213438 2:0.836784 3:0.195091 4:0.060843 5:0.101823 6:0.279920 7:0.496657 8:0.520579 9:1.134799 10:0.705739 11:-1.021674 12:0.422591 13:0.000000 14:0.000000 15:-0.000000 
-1048576.000000 1:1.275578 2:1.410613 3:1.706280 4:0.606116 5:-0.092997 6:-0.430500 7:-0.570997 8:-0.535567 9:-0.351207 10:-1.414761 11:-0.874893 12:0.691825 13:-1.119729 14:1.385179 15:2.053642 
-1048576.000000 1:1.180148 2:1.512338 3:0.804928 4:0.386716 5:-0.147684 6:-0.452700 7:-0.513987 8:-0.348594 9:-0.154670 10:-1.414761 11:0.152575 12:-0.654343 13:-1.066861 14:1.359624 15:1.989882 
-1048576.000000 1:0.891638 2:0.695935 3:0.975816 4:1.035235 5:0.935790 6:1.123544 7:1.579860 8:1.485765 9:1.599774 10:-1.414761 11:-1.902361 12:-1.192810 13:0.069810 14:0.727130 15:0.687838 
-1048576.000000 1:0.980411 2:0.695935 3:0.228598 4:-0.006912 5:0.077897 6:0.035713 7:-0.037170 8:0.475099 9:0.521222 10:-1.414761 11:0.372747 12:0.000000 13:-1.331203 14:0.691991 15:1.390095 
-1048576.000000 1:-0.253523 2:-0.352607 3:-0.381239 4:-0.658658 5:-0.609100 6:-0.670266 7:-0.477707 8:-0.565887 9:-0.830563 10:-1.414761 11:-1.975752 12:0.000000 13:-1.674848 14:2.099131 15:3.318549 
-1048576.000000 1:-0.761744 2:-0.561272 3:-0.588986 4:-0.458617 5:-0.185281 6:0.284360 7:0.356722 8:0.096099 9:-0.125909 10:0.705739 11:0.372747 12:-0.923576 13:0.175547 14:-1.140006 15:-1.195493 
-1048576.000000 1:-0.042689 2:0.607253 3:-0.344381 4:-0.516694 5:-0.964561 6:-1.478369 7:-1.540179 8:-1.611926 9:-1.669437 10:0.705739 11:-1.021674 12:-0.115876 13:0.201981 14:-0.132168 15:-0.215061 
-1048576.000000 1:0.978191 2:0.894167 3:0.888696 4:0.344772 5:0.163345 6:0.461965 7:0.994205 8:0.758085 9:0.943056 10:0.705739 11:-0.581331 12:1.230292 13:-0.062361 14:1.720593 15:1.752349 
-1048576.000000 1:0.767357 2:1.181082 3:0.744614 4:0.335093 5:-0.164773 6:-0.350577 7:-0.726481 8:-0.651793 9:-0.279303 10:-1.414761 11:1.033262 12:0.000000 13:-1.648414 14:0.043525 15:0.793085 
-1048576.000000 1:0.079373 2:0.482054 3:0.466502 4:-0.006912 5:-0.212624 6:0.364283 7:1.123775 8:1.677791 9:1.206702 10:0.705739 11:1.473606 12:1.230292 13:0.730665 14:1.043377 15:0.687398 
-1048576.000000 1:0.230286 2:-0.013526 3:-0.103126 4:-0.281162 5:-0.257057 6:-0.195173 7:0.082034 8:0.333606 9:0.535603 10:0.705739 11:0.005794 12:0.153358 13:0.201981 14:-0.146543 15:-0.229143 
-1048576.000000 1:1.098034 2:1.259331 3:1.307541 4:0.748080 5:0.484627 6:0.453085 7:0.216787 8:-0.111087 9:-0.212193 10:0.705739 11:-0.654721 12:-0.385109 13:-1.119729 14:-0.627303 15:-0.237774 
-1048576.000000 1:-0.679630 2:-0.939478 3:-0.629195 4:-0.542505 5:-0.369847 6:0.022393 7:0.351539 8:0.419512 9:0.617094 10:0.705739 11:-0.581331 12:0.691825 13:2.845402 14:0.490743 15:-0.539861 
-938179.794219 1:-0.746209 2:-0.968169 3:-0.696210 4:-0.355371 5:-0.438205 6:-0.275095 7:0.465560 8:0.919792 9:1.024547 10:0.705739 11:1.326824 12:0.427976 13:0.201981 14:-0.355777 15:-0.434101 
-1048576.000000 1:0.276891 2:-0.352607 3:-0.629195 4:-0.661885 5:-0.691130 6:-0.608104 7:-0.565814 8:-0.515353 9:-0.451871 10:0.705739 11:-0.361159 12:0.422591 13:-0.326703 14:0.315050 15:0.451490 
-1048576.000000 1:1.233411 2:1.199340 3:0.419591 4:0.231846 5:0.033465 6:-0.088610 7:0.242701 8:0.480152 9:0.080214 10:0.705739 11:1.033262 12:0.422591 13:-0.062361 14:0.011581 15:0.028658 
-1048576.000000 1:1.379886 2:1.092399 3:0.369330 4:0.076976 5:-0.113505 6:-0.266215 7:-0.441428 8:-0.237420 9:-0.221780 10:0.705739 11:1.033262 12:0.961058 13:1.259349 14:0.714352 15:0.170573 
-1048576.000000 1:-0.486550 2:-0.334349 3:0.231949 4:0.106014 5:0.030047 6:0.186678 7:0.170141 8:0.212326 9:0.334273 10:-1.414761 11:0.005794 12:-0.654343 13:-1.648414 14:-0.579386 15:0.037342 
-1048576.000000 1:-0.399997 2:-0.018743 3:0.298964 4:0.093108 5:0.094987 6:0.519687 7:0.698786 8:0.485206 9:0.085008 10:0.705739 11:-1.241846 12:-0.654343 13:1.259349 14:-1.146395 15:-1.457873 
-1048576.000000 1:0.793989 2:0.883734 3:0.912152 4:0.906177 5:1.034909 6:1.474313 7:1.766440 8:1.243205 9:1.005372 10:0.705739 11:0.079185 12:-0.546649 13:-2.018493 14:-0.929175 15:-0.239318 
-1048576.000000 1:0.350128 2:0.393371 3:0.272158 4:-0.306974 5:-0.479220 6:-0.386098 7:-0.425879 8:-0.424394 9:-0.437491 10:-1.414761 11:0.592919 12:0.000000 13:-1.384072 14:-0.180084 15:0.393631 
-1048576.000000 1:1.371008 2:1.298456 3:1.026077 4:0.573851 5:0.395762 6:0.377603 7:0.714334 8:1.025912 9:1.455967 10:0.705739 11:-0.140987 12:-0.385109 13:-0.035927 14:1.394763 15:1.409131 
-1048576.000000 1:-0.360050 2:-0.428248 3:-0.173492 4:0.131826 5:0.515388 6:1.238987 7:1.906376 8:2.001204 9:1.944911 10:-1.414761 11:1.033262 12:-1.731277 13:-1.119729 14:-1.681460 15:-1.438039 
-1048576.000000 1:-0.175847 2:-0.514322 3:-0.508568 4:-0.465070 5:-0.356176 6:-0.053089 7:0.019841 8:1.056232 9:0.641061 10:-1.414761 11:-0.214378 12:-0.923576 13:-1.119729 14:-0.323833 15:0.107757 
-1048576.000000 1:-0.639682 2:-0.981211 3:-0.649299 4:-0.429579 5:-0.188699 6:0.026833 7:-0.301492 8:-0.596207 9:-0.571711 10:-1.414761 11:0.519528 12:-1.462043 13:-1.410506 14:-0.892439 15:-0.442997 
-1048576.000000 1:1.211218 2:0.685502 3:-0.059567 4:-0.168236 5:-0.175027 6:-0.323937 7:-0.586546 8:-0.641687 9:-0.475839 10:0.705739 11:1.767168 12:0.961058 13:-1.278335 14:0.233592 15:0.824027 
-1048576.000000 1:1.346596 2:1.173257 3:0.496658 4:0.312508 5:0.347911 6:0.612929 7:0.911280 8:1.106765 9:1.235464 10:0.705739 11:-0.287768 12:0.153358 13:-0.564611 14:0.169704 15:0.405989 
-1048576.000000 1:1.626228 2:1.606237 3:1.143354 4:0.341546 5:-0.058819 6:-0.186293 7:-0.260030 8:-0.373860 9:-0.231367 10:-1.414761 11:-1.388627 12:0.000000 13:0.201981 14:0.757477 15:0.656404 
-1048576.000000 1:0.132636 2:0.242089 3:0.550270 4:0.990065 5:2.063696 6:3.827579 7:4.306007 8:4.285308 9:3.196032 10:-1.414761 11:-0.654721 12:0.000000 13:0.000000 14:0.000000 15:-0.898621 
-1048576.000000 1:0.034987 2:0.335988 3:0.697704 4:0.751307 5:1.099849 6:2.353458 7:3.098417 8:1.844551 9:1.959292 10:-1.414761 11:0.299356 12:-1.731277 13:-0.855387 14:-0.850912 15:-0.585659 
-1048576.000000 1:1.255604 2:1.423655 3:1.213719 4:0.838421 5:0.470956 6:0.302121 7:0.035389 8:0.075886 9:0.008311 10:-1.414761 11:0.592919 12:0.153358 13:-1.384072 14:0.794212 15:1.538464 
-1048576.000000 1:-0.246865 2:0.526395 3:0.248703 4:-0.284388 5:-0.410862 6:-0.270655 7:-0.099364 8:-0.373860 9:-0.691550 10:-1.414761 11:0.592919 12:0.000000 13:-0.855387 14:-0.723135 15:-0.444615 
-1048576.000000 1:-0.091514 2:-0.076126 3:-0.049514 4:-0.035951 5:-0.205788 6:-0.319496 7:0.180507 8:0.121366 9:0.492461 10:0.705739 11:-0.287768 12:0.422591 13:0.995007 14:-0.116196 15:-0.472618 
-1048576.000000 1:1.226754 2:1.397572 3:1.619161 4:1.606320 5:0.505135 6:-0.239574 7:-0.576180 8:-0.949940 9:-1.190080 10:0.705739 11:1.033262 12:1.768759 13:0.201981 14:0.602548 15:0.504641 
-1048576.000000 1:0.873884 2:1.288023 3:0.205143 4:-0.026271 5:-0.178445 6:-0.133011 7:0.221969 8:0.166846 9:0.180879 10:0.705739 11:-0.067597 12:2.576459 13:0.492757 14:4.212238 15:3.804294 
-1048576.000000 1:0.103785 2:-0.047434 3:0.268807 4:0.331866 5:0.549567 6:0.812735 7:1.310355 8:1.147192 9:0.871153 10:0.705739 11:0.886481 12:0.422591 13:0.466323 14:-0.280709 15:-0.450974 
-1048576.000000 1:-0.675191 2:-0.425640 3:-0.481761 4:-0.739320 5:-0.547578 6:0.097875 7:0.626227 8:0.667125 9:0.813630 10:0.705739 11:1.180043 12:-0.385109 13:0.730665 14:-0.739107 15:-0.961679 
-1048576.000000 1:1.018139 2:1.079358 3:1.153406 4:0.567398 5:0.474373 6:0.430884 7:0.221969 8:0.161793 9:0.180879 10:0.705739 11:1.987340 12:1.230292 13:0.995007 14:-0.371749 15:-0.702523 
-1048576.000000 1:1.093595 2:1.029800 3:1.103145 4:1.183653 5:1.072506 6:0.541887 7:0.678055 8:0.783352 9:1.269018 10:0.705739 11:0.299356 12:-0.115876 13:1.259349 14:-0.355777 15:-0.765958 
-1048576.000000 1:-0.082636 2:0.930684 3:1.069637 4:0.806156 5:0.686283 6:0.715052 7:1.030484 8:0.904632 9:0.583539 10:0.705739 11:0.299356 12:-0.115876 13:-0.326703 14:-0.882856 15:-0.898621 
-1048576.000000 1:1.129104 2:0.646377 3:0.469852 4:0.577078 5:0.761477 6:0.746133 7:0.740248 8:0.753032 9:0.526016 10:-1.414761 11:0.225966 12:-0.654343 13:-0.326703 14:0.339008 15:0.476380 
-1048576.000000 1:-0.448822 2:0.082982 3:-0.093074 4:-0.255350 5:-0.516817 6:-0.426059 7:-0.778309 8:-0.722540 9:-0.696343 10:0.705739 11:-1.021674 12:0.422591 13:-0.326703 14:0.339008 15:0.476380 
-1048576.000000 1:-0.721796 2:-0.947303 3:-0.830240 4:-0.623167 5:-0.414280 6:-0.292856 7:-0.223750 8:-0.070661 9:-0.413523 10:0.705739 11:0.079185 12:-0.115876 13:0.730665 14:-0.068280 15:-0.341059 
-1048576.000000 1:-0.497647 2:-0.819495 3:-0.803434 4:-0.719961 5:-0.540742 6:-0.106371 7:0.424098 8:0.384139 9:0.674616 10:0.705739 11:0.886481 12:-0.923576 13:0.730665 14:-0.716746 15:-0.940992 
-1048576.000000 1:-0.579761 2:-0.509106 3:0.037605 4:0.225393 5:0.532478 6:0.737253 7:0.963108 8:1.369538 9:1.269018 10:-1.414761 11:0.152575 12:-0.385109 13:-0.353137 14:-0.065085 15:-0.495976 
-1048576.000000 1:0.521015 2:0.437712 3:-0.207000 4:-0.245671 5:-0.226295 6:0.262160 7:0.792076 8:0.717659 9:1.010166 10:-1.414761 11:-0.434549 12:2.845693 13:-0.881822 14:0.584978 15:1.008642 
-1048576.000000 1:0.705217 2:1.392355 3:0.647442 4:0.457698 5:-0.188699 6:-0.461580 7:-0.260030 8:0.262859 9:0.353448 10:0.705739 11:-0.948284 12:-0.385109 13:0.201981 14:-0.595359 15:-0.668787 
-1048576.000000 1:0.714094 2:0.315121 3:-0.150037 4:-0.261803 5:-0.431369 6:-0.794590 7:-0.493255 8:-0.328380 9:-0.197812 10:0.705739 11:-0.507940 12:-0.385109 13:0.730665 14:0.075469 15:-0.208069 
-1048576.000000 1:0.447777 2:0.787226 3:0.583778 4:0.515775 5:0.200942 6:0.479726 7:0.833538 8:1.116872 9:0.794456 10:-1.414761 11:0.519528 12:-0.923576 13:-1.119729 14:0.011581 15:0.489660 
-1048576.000000 1:0.760699 2:1.710570 3:1.542093 4:1.054594 5:0.891357 6:0.794975 7:0.776528 8:0.485206 9:0.204847 10:-1.414761 11:-0.287768 12:-1.731277 13:-0.591045 14:-1.010633 15:-0.845739 
-1048576.000000 1:-1.292158 2:-1.565473 3:-1.523846 4:-1.262007 5:-0.906457 6:-0.616985 7:-0.472524 8:-0.389020 9:-0.183432 10:0.705739 11:-0.287768 12:-0.385109 13:-0.326703 14:-0.180084 15:-0.062916 
-1048576.000000 1:0.907174 2:0.455970 3:0.148180 4:0.144731 5:-0.168191 6:-0.217374 7:-0.011256 8:0.550899 9:0.549984 10:0.705739 11:-0.361159 12:-0.115876 13:-0.035927 14:-0.152932 15:-0.147275 
-1048576.000000 1:0.640857 2:0.268172 3:0.114673 4:0.118920 5:0.248792 6:0.564088 7:0.429281 8:0.717659 9:0.890327 10:0.705739 11:-0.434549 12:0.422591 13:0.466323 14:-0.467582 15:-0.628836 
-1048576.000000 1:-0.140338 2:-0.347390 3:0.027553 4:-0.106933 5:-0.192117 6:-0.208493 7:-0.327406 8:-0.474927 9:-0.993544 10:0.705739 11:-0.654721 12:3.922627 13:-0.591045 14:2.966415 15:3.412253 
-1048576.000000 1:-0.178067 2:-0.224800 3:-0.079671 4:-0.316653 5:-0.520235 6:-0.679146 7:-1.027083 8:-0.919620 9:-1.007925 10:0.705739 11:-0.801502 12:-0.115876 13:0.466323 14:0.022761 15:-0.162138 
-1048576.000000 1:-2.177660 2:-2.154952 3:-2.207399 4:-2.094435 5:-1.972841 6:-2.126627 7:-2.167296 8:-2.036405 9:-2.004987 10:-1.414761 11:-0.361159 12:0.153358 13:-1.384072 14:1.747746 15:2.658899 
-1048576.000000 1:0.616445 2:1.441913 3:1.220421 4:0.677098 5:0.156509 6:-0.181853 7:-0.648739 8:-0.520407 9:-0.384762 10:0.705739 11:0.592919 12:1.230292 13:2.052376 14:1.391568 15:0.429632 
-1048576.000000 1:0.321277 2:-0.297832 3:-0.568881 4:-0.590902 5:-0.687712 6:-1.100958 7:-1.358781 8:-1.278406 9:-1.386617 10:0.705739 11:1.106653 12:-0.923576 13:1.259349 14:-0.196057 15:-0.626177 
-1048576.000000 1:-1.294377 2:-1.229000 3:-0.890553 4:-0.607035 5:-0.270728 6:-0.133011 7:0.232335 8:0.384139 9:-0.403936 10:0.705739 11:-0.434549 12:0.099511 13:1.735165 14:0.093038 15:-0.524116 
-1048576.000000 1:-0.133680 2:-0.052651 3:-0.119880 4:-0.216633 5:-0.318579 6:0.115636 7:0.838721 8:1.162352 9:1.010166 10:0.705739 11:-0.728112 12:0.153358 13:-0.062361 14:-0.365361 15:-0.351520 
-1048576.000000 1:0.816182 2:0.255130 3:-0.448254 4:-0.561864 5:-0.670622 6:-0.994395 7:-1.519448 8:-1.470432 9:-1.444139 10:0.705739 11:0.739700 12:0.422591 13:0.466323 14:0.650464 15:0.435295 
-1048576.000000 1:-1.028060 2:-0.279574 3:0.650793 4:0.015673 5:-1.043173 6:-1.305204 7:-1.954802 8:-2.294125 9:-2.297394 10:-1.414761 11:1.400215 12:2.307226 13:-2.177098 14:-0.505915 15:0.375501 
-1048576.000000 1:-0.684068 2:-0.722988 3:-0.458306 4:-0.165009 5:0.163345 6:0.728373 7:1.160054 8:0.818725 9:1.014960 10:-1.414761 11:0.372747 12:0.000000 13:0.000000 14:0.000000 15:-0.000000 
-1048576.000000 1:0.762919 2:0.270780 3:-0.056216 4:0.057617 5:0.443612 6:1.052502 7:1.071947 8:0.338659 9:0.037072 10:0.705739 11:0.666309 12:-0.654343 13:0.466323 14:-0.627303 15:-0.780855 
-520524.956589 1:-1.682755 2:-1.575906 3:-1.587510 4:-1.533030 5:-1.374709 6:-1.216401 7:-0.861233 8:-0.611367 9:-0.897673 10:0.705739 11:1.253434 12:1.230292 13:2.369586 14:1.394763 15:0.309312 
-1048576.000000 1:-0.391120 2:-0.801237 3:-0.766575 4:-0.626394 5:-0.342504 6:-0.688027 7:-0.990803 8:-0.894353 9:-0.820976 10:0.705739 11:1.620387 12:0.422591 13:0.201981 14:-0.259945 15:-0.340227 
-370741.687427 1:-1.700510 2:-1.789788 3:-1.929287 4:-1.875035 5:-1.760931 6:-1.793617 7:-1.845963 8:-1.960605 9:-1.928289 10:-1.414761 11:-1.315236 12:-0.223569 13:-0.855387 14:1.161570 15:1.635794 
-1048576.000000 1:1.069183 2:1.522771 3:1.133301 4:0.489963 5:0.088151 6:-0.177412 7:-0.197837 8:0.141579 9:0.597919 10:0.705739 11:0.592919 12:-0.654343 13:0.730665 14:-0.894036 15:-1.105013 
-1048576.000000 1:-0.786156 2:-0.618655 3:-0.223754 4:-0.100480 5:0.245374 6:0.905978 7:1.771623 8:2.238710 9:1.695646 10:0.705739 11:0.299356 12:-0.255877 13:-0.591045 14:-0.646469 15:-0.455850 
