svm_type c_svc
kernel_type rbf
gamma 0.000031
nr_class 2
total_sv 141
rho -5.871629 
probA -1.473518
probB 0.287786
label 1 0 
nr_sv 70 71 
SV
32768.000000 1:0.119320 2:0.236872 3:-0.106477 4:0.012446 5:0.173599 6:0.102315 7:-0.182288 8:-0.136354 9:-0.284097 10:0.705739 11:0.225966 12:2.037992 13:0.704231 14:1.219070 15:0.862355 16:-0.164687 
32768.000000 1:1.106911 2:0.839393 3:0.128076 4:0.080202 5:0.064226 6:-0.084170 7:-0.011256 8:0.121366 9:0.046659 10:0.705739 11:0.299356 12:-0.654343 13:0.466323 14:0.043525 15:-0.142376 16:-0.160845 
32768.000000 1:0.955998 2:0.899384 3:0.781472 4:0.925536 5:0.655522 6:0.319881 7:-0.130460 8:-0.389020 9:-0.576504 10:-1.414761 11:0.372747 12:0.000000 13:0.000000 14:0.233592 15:-0.000000 16:-0.467160 
32768.000000 1:0.436681 2:0.109065 3:-0.481761 4:-0.516694 5:-0.291236 6:-0.283975 7:-0.094181 8:0.434672 9:-0.384762 10:0.705739 11:0.592919 12:-0.654343 13:1.259349 14:-0.962716 15:-1.297125 16:-0.364822 
32768.000000 1:0.461093 2:0.954158 3:1.106495 4:0.777118 5:0.658940 6:0.755013 7:1.040850 8:1.480711 9:1.547045 10:0.705739 11:-0.728112 12:0.691825 13:0.466323 14:0.155329 15:-0.035963 16:-0.269470 
32768.000000 1:1.111350 2:0.688110 3:0.252053 4:-0.239218 5:-0.123759 6:0.088995 7:0.221969 8:0.055673 9:0.065834 10:-1.414761 11:0.225966 12:-0.654343 13:-0.062361 14:0.487549 15:0.500039 16:-0.256547 
32768.000000 1:-1.438632 2:-1.035985 3:-0.625844 4:-0.513467 5:-0.140848 6:0.630690 7:1.600591 8:2.001204 9:1.499110 10:-1.414761 11:-0.140987 12:-0.385109 13:-0.855387 14:1.209487 15:1.688686 16:-0.090641 
32768.000000 1:0.800647 2:0.828959 3:0.647442 4:0.673871 5:0.734134 6:0.852696 7:0.646958 8:0.803565 9:0.660236 10:0.705739 11:-1.975752 12:0.691825 13:2.316718 14:0.730324 15:-0.193133 16:-0.422452 
32768.000000 1:-0.140338 2:0.309905 3:0.758017 4:0.493189 5:0.409433 6:0.581849 7:0.543302 8:0.444779 9:0.463700 10:-1.414761 11:0.666309 12:-1.462043 13:-1.912756 14:-1.298130 15:-0.744993 16:-0.173769 
32768.000000 1:0.145952 2:-0.355215 3:-1.108352 4:-1.158760 5:-1.251665 6:-1.163120 7:-0.913061 8:-0.479980 9:-0.705930 10:-1.414761 11:-1.755580 12:-1.731277 13:-1.384072 14:-1.210284 15:-0.816889 16:-0.474494 
32768.000000 1:-0.652998 2:-0.336957 3:0.774771 4:1.645037 5:1.397206 6:0.586289 7:0.465560 8:0.464992 9:0.046659 10:0.705739 11:-0.434549 12:4.730327 13:0.201981 14:1.608789 15:1.347711 16:-0.767536 
32768.000000 1:1.182367 2:0.912425 3:0.959062 4:0.380263 5:0.539314 6:0.839376 7:0.450012 8:0.464992 9:0.535603 10:0.705739 11:1.767168 12:-0.115876 13:-0.591045 14:0.107413 15:0.351287 16:-0.444457 
32768.000000 1:0.287987 2:0.135148 3:-0.347731 4:-0.665111 5:-1.032919 6:-1.158680 7:-1.327684 8:-1.207659 9:-1.142145 10:0.705739 11:0.005794 12:2.037992 13:0.201981 14:0.714352 15:0.614161 16:-0.112296 
32768.000000 1:1.049209 2:0.573345 3:0.352576 4:0.473831 5:0.635015 6:0.803855 7:0.735065 8:0.945058 9:0.688997 10:0.705739 11:-0.654721 12:-0.385109 13:-0.326703 14:0.514701 15:0.658911 16:-0.601630 
32768.000000 1:1.202341 2:0.753318 3:0.282210 4:0.202808 5:-0.089580 6:-0.528182 7:-0.379234 8:-0.586100 9:-0.681963 10:0.705739 11:1.033262 12:-0.654343 13:0.201981 14:-0.627303 15:-0.700078 16:-0.321861 
32768.000000 1:0.487725 2:0.312513 3:0.359277 4:0.480284 5:0.864014 6:1.287828 7:1.595408 8:1.061285 9:0.262370 10:0.705739 11:0.666309 12:1.230292 13:1.259349 14:1.219070 15:0.612281 16:-0.734704 
32768.000000 1:0.649734 2:1.308889 3:0.677599 4:0.196355 5:-0.410862 6:-0.648066 7:-0.902696 8:-1.197553 9:-1.353062 10:0.705739 11:-0.214378 12:0.422591 13:0.281284 14:0.198454 15:0.077216 16:-0.268422 
32768.000000 1:0.321277 2:-0.284791 3:-0.036111 4:0.280243 5:0.867432 6:1.119104 7:1.134140 8:1.475658 9:0.866359 10:0.705739 11:1.106653 12:0.153358 13:0.466323 14:-0.541053 15:-0.698765 16:-0.371458 
23149.810087 1:1.109130 2:1.460171 3:0.979167 4:0.757760 5:0.552985 6:0.368723 7:0.932011 8:0.404352 9:0.712965 10:0.705739 11:1.106653 12:-0.115876 13:1.259349 14:-0.154529 15:-0.589834 16:-0.229653 
32768.000000 1:0.170364 2:0.072548 3:0.040956 4:0.131826 5:0.214613 6:0.319881 7:0.486292 8:1.061285 9:0.919088 10:0.705739 11:-1.902361 12:-0.385109 13:0.201981 14:-0.012378 15:-0.097719 16:-0.413721 
14027.512898 1:-0.941508 2:-1.020335 3:-0.950867 4:-0.761905 5:-0.540742 6:-0.310616 7:0.258249 8:1.041072 9:1.115624 10:0.705739 11:0.666309 12:0.153358 13:0.466323 14:-0.373347 15:-0.539145 16:-0.102866 
4996.560781 1:0.434462 2:0.695935 3:0.999271 4:0.593210 5:0.218031 6:0.097875 7:-0.171923 8:-0.823606 9:-0.907260 10:-1.414761 11:-0.581331 12:0.691825 13:-0.855387 14:2.407393 15:3.010980 16:0.041035 
32768.000000 1:1.042551 2:1.350622 3:0.888696 4:0.464151 5:-0.065654 6:-0.168532 7:-0.348137 8:-0.298060 9:-0.351207 10:-1.414761 11:0.079185 12:1.230292 13:0.730665 14:2.279616 15:1.835123 16:-0.081909 
32768.000000 1:-0.919314 2:-0.968169 3:-0.441552 4:-0.087574 5:-0.195534 6:-0.084170 7:0.289346 8:0.459939 9:0.621887 10:0.705739 11:1.033262 12:-0.385109 13:-1.119729 14:-1.681460 15:-1.438039 16:-0.493704 
32768.000000 1:-0.084856 2:-0.138725 3:0.265456 4:0.360904 5:0.351329 6:0.248839 7:-0.270396 8:-0.207100 9:-0.279303 10:0.705739 11:0.299356 12:0.153358 13:0.000000 14:-0.365361 15:-0.000000 16:-0.234542 
32768.000000 1:1.422052 2:1.444522 3:1.052883 4:0.680324 5:0.552985 6:0.866016 7:1.274075 8:1.379645 9:0.712965 10:-1.414761 11:-0.361159 12:-0.385109 13:-1.119729 14:-0.739107 15:-0.365075 16:-0.422452 
32768.000000 1:0.756261 2:1.045449 3:0.268807 4:0.186675 5:0.129166 6:-0.097490 7:-0.166740 8:-0.338487 9:-0.255335 10:0.705739 11:0.372747 12:0.153358 13:0.000000 14:0.000000 15:-0.000000 16:-0.374252 
32768.000000 1:-0.284593 2:-0.193500 3:0.044307 4:0.247978 5:0.799074 6:1.740721 7:1.994483 8:0.995592 9:-0.073180 10:0.705739 11:0.739700 12:-1.192810 13:0.995007 14:-0.994661 15:-1.258882 16:-0.474844 
32768.000000 1:-2.364082 2:-2.243635 3:-2.321325 4:-2.207361 5:-2.092467 6:-2.250950 7:-2.312414 8:-2.213272 9:-2.167968 10:0.705739 11:-0.728112 12:0.691825 13:0.466323 14:0.378938 15:0.176863 16:-0.121727 
28201.915305 1:-0.934850 2:-1.129885 3:-1.155263 4:-0.939361 5:-0.585175 6:-0.399419 7:-0.197837 8:0.298232 9:0.291131 10:0.705739 11:-0.067597 12:-0.385109 13:3.374086 14:-0.894036 15:-1.670891 16:-0.169577 
32768.000000 1:1.262262 2:0.894167 3:0.707756 4:-0.213406 5:-0.427951 6:-0.466020 7:-0.218568 8:-0.247527 9:-0.207400 10:-1.414761 11:-0.948284 12:-0.115876 13:-0.458874 14:2.861000 15:3.196816 16:0.289719 
32768.000000 1:-0.038250 2:0.056898 3:-0.079671 4:-0.232765 5:-0.451877 6:-0.394979 7:-0.192654 8:0.222432 9:0.511635 10:-1.414761 11:-0.361159 12:1.499525 13:-0.009493 14:2.276422 15:2.280151 16:-0.081909 
32768.000000 1:0.489944 2:0.518570 3:0.915502 4:0.696457 5:0.173599 6:0.120076 7:0.118314 8:-0.429447 9:-0.130703 10:-1.414761 11:-0.874893 12:0.153358 13:-1.119729 14:2.028854 15:2.786532 16:0.000000 
32768.000000 1:1.144639 2:0.732452 3:0.319068 4:0.438340 5:0.365001 6:0.111196 7:0.450012 8:0.783352 9:0.727346 10:0.705739 11:1.913949 12:0.422591 13:-0.062361 14:0.267134 15:0.286406 16:-0.369363 
32768.000000 1:1.293333 2:0.941117 3:0.282210 4:0.109240 5:0.194106 6:0.461965 7:0.351539 8:0.288126 9:0.300718 10:0.705739 11:0.959872 12:0.153358 13:0.704231 14:-0.189668 15:-0.444627 16:-0.183898 
32768.000000 1:-1.860300 2:-1.797613 3:-1.744995 4:-1.645956 5:-1.494335 6:-1.469488 7:-1.369147 8:-1.232926 9:-1.051067 10:0.705739 11:0.886481 12:0.422591 13:-0.062361 14:-0.116196 15:-0.100216 16:-0.011705 
32768.000000 1:0.101566 2:-0.023959 3:-0.039462 4:-0.158556 5:-0.079326 6:0.120076 7:-0.047536 8:-0.010021 9:-0.039625 10:-1.414761 11:0.739700 12:-1.462043 13:-1.384072 14:-0.929175 15:-0.486577 16:-0.098675 
32768.000000 1:0.145952 2:0.591603 3:0.503360 4:0.377037 5:0.159927 6:0.208878 7:0.413733 8:-0.217207 9:-0.044418 10:0.705739 11:-0.067597 12:0.961058 13:1.259349 14:0.123385 15:-0.346616 16:-0.313129 
32768.000000 1:1.299991 2:0.961983 3:0.717808 4:0.599663 5:0.402598 6:0.475286 7:0.356722 8:0.566059 9:0.372622 10:0.705739 11:-1.241846 12:0.422591 13:-0.591045 14:0.554631 15:0.830098 16:-0.392065 
32768.000000 1:-2.352986 2:-2.230593 3:-2.328026 4:-2.207361 5:-2.092467 6:-2.250950 7:-2.374608 8:-2.359818 9:-2.354917 10:0.705739 11:1.106653 12:1.230292 13:-0.062361 14:0.409285 15:0.429779 16:-0.286934 
32768.000000 1:0.707436 2:0.278605 3:-0.300821 4:-0.261803 5:-0.092997 6:0.333202 7:0.102765 8:-0.010021 9:-0.202606 10:0.705739 11:1.546996 12:0.099511 13:0.175547 14:-0.411680 15:-0.368826 16:-0.444457 
32768.000000 1:0.041645 2:0.242089 3:0.272158 4:0.254431 5:0.566657 6:1.403271 7:3.145062 8:3.496989 9:3.545962 10:0.705739 11:-0.801502 12:0.691825 13:0.730665 14:0.506715 15:0.190901 16:-0.326402 
32768.000000 1:-1.294377 2:-1.210742 3:-0.994427 4:-1.071646 5:-1.104695 6:-1.056557 7:-1.078911 8:-0.752860 9:-0.763453 10:0.705739 11:0.666309 12:1.768759 13:0.466323 14:0.490743 15:0.283277 16:-0.063048 
32768.000000 1:1.120227 2:0.815918 3:0.717808 4:0.912630 5:1.315176 6:1.278948 7:0.755797 8:0.262859 9:0.137737 10:0.705739 11:0.225966 12:-0.115876 13:-0.062361 14:-0.435638 15:-0.422401 16:-0.308938 
32768.000000 1:0.742945 2:1.128916 3:0.496658 4:0.125373 5:-0.113505 6:0.271040 7:0.439646 8:0.859152 9:0.655442 10:0.705739 11:1.546996 12:-0.385109 13:0.466323 14:-0.365361 15:-0.531544 16:-0.395558 
32768.000000 1:0.567620 2:0.153406 3:-0.200298 4:-0.381182 5:-0.592011 6:-0.523742 7:0.030206 8:0.576165 9:1.091657 10:0.705739 11:-0.581331 12:0.153358 13:0.000000 14:0.303870 15:-0.000000 16:-0.205902 
32768.000000 1:0.689682 2:0.766360 3:0.640741 4:0.631927 5:0.511970 6:0.781654 7:1.299989 8:1.940564 9:2.218144 10:0.705739 11:-0.214378 12:-0.385109 13:-0.353137 14:-0.541053 15:-0.428630 16:-0.223366 
32768.000000 1:-0.522059 2:0.129931 3:0.376031 4:0.535134 5:0.611089 6:0.799415 7:1.217065 8:1.157298 9:1.106037 10:-1.414761 11:1.546996 12:-2.000510 13:-1.119729 14:-1.421115 15:-1.141610 16:-0.539809 
32768.000000 1:0.774015 2:1.556679 3:1.183563 4:1.028783 5:0.341075 6:0.049034 7:-0.016439 8:-0.035287 9:0.085008 10:0.705739 11:-0.214378 12:0.691825 13:0.466323 14:0.602548 15:0.389690 16:-0.316622 
7442.014142 1:-0.626366 2:-0.475198 3:0.017501 4:0.093108 5:0.385508 6:0.448645 7:-0.275578 8:-0.363754 9:-0.356000 10:-1.414761 11:1.033262 12:-1.462043 13:-0.591045 14:-0.999452 15:-0.833768 16:-0.111248 
32768.000000 1:0.876103 2:1.762736 3:1.669422 4:0.957800 5:0.563239 6:0.315441 7:0.304894 8:0.247699 9:-0.164258 10:0.705739 11:-0.214378 12:-0.385109 13:0.466323 14:-0.691191 15:-0.841662 16:-0.444457 
32768.000000 1:-0.056005 2:0.328163 3:0.945659 4:1.241729 5:1.506578 6:2.189173 7:2.118870 8:1.970884 9:1.523077 10:0.705739 11:0.519528 12:-0.385109 13:0.175547 14:-0.576192 15:-0.641595 16:-0.558320 
32768.000000 1:1.144639 2:0.894167 3:0.292262 4:-0.113386 5:-0.301489 6:-0.568143 7:-0.467342 8:-0.207100 9:-0.125909 10:0.705739 11:0.079185 12:0.422591 13:0.730665 14:0.043525 15:-0.237622 16:-0.116488 
32768.000000 1:0.430023 2:0.364679 3:0.620636 4:0.593210 5:0.621343 6:0.399804 7:-0.094181 8:0.101153 9:0.363035 10:0.705739 11:0.519528 12:-0.115876 13:1.523691 14:0.123385 15:-0.432544 16:-0.290077 
32768.000000 1:-0.315664 2:-0.496064 3:0.037605 4:0.057617 5:0.122330 6:0.595169 7:0.911280 8:0.823779 9:0.990992 10:-1.414761 11:-0.801502 12:-0.115876 13:-1.384072 14:1.993716 15:2.809946 16:0.000000 
32768.000000 1:1.015920 2:0.664636 3:0.493308 4:0.164090 5:-0.031475 6:-0.119691 7:0.548485 8:1.046125 9:1.034134 10:-1.414761 11:0.739700 12:1.230292 13:-1.912756 14:0.714352 15:1.777350 16:-0.163989 
6585.851628 1:-0.320102 2:-0.172633 3:0.386083 4:0.848101 5:1.144281 6:1.358870 7:0.916463 8:1.126978 9:1.292986 10:0.705739 11:1.326824 12:-0.385109 13:0.466323 14:-0.788621 15:-0.934394 16:-0.357138 
32768.000000 1:-0.388901 2:-0.449115 3:-0.592336 4:-0.487656 5:-0.263892 6:-0.008688 7:-0.068267 8:-0.131300 9:-0.384762 10:0.705739 11:-0.067597 12:0.153358 13:0.598494 14:-0.224806 15:-0.442288 16:-0.228954 
32768.000000 1:-1.682755 2:-1.680239 3:-1.791906 4:-1.787921 5:-1.713081 6:-1.762536 7:-1.623103 8:-1.510859 9:-1.563979 10:0.705739 11:-0.948284 12:-0.385109 13:0.995007 14:-0.197654 15:-0.479023 16:0.005759 
32768.000000 1:0.023890 2:1.204557 3:1.599056 4:0.609342 5:-0.198952 6:-0.497101 7:-0.519169 8:0.333606 9:0.693791 10:0.705739 11:-0.287768 12:0.422591 13:0.466323 14:0.123385 15:-0.066367 16:-0.275408 
32768.000000 1:0.347909 2:0.980242 3:1.227122 4:1.012650 5:1.116938 6:0.923738 7:0.356722 8:-0.293007 9:-0.063593 10:0.705739 11:1.033262 12:-0.385109 13:0.995007 14:-0.611331 15:-0.918059 16:-0.406036 
32768.000000 1:0.374540 2:-0.172633 3:-0.642598 4:-0.610261 5:-0.472384 6:-0.346137 7:0.149410 8:0.651965 9:0.760901 10:-1.414761 11:-0.287768 12:0.422591 13:-1.119729 14:-0.180084 15:0.271430 16:-0.457380 
32768.000000 1:1.166832 2:1.301064 3:1.552146 4:0.877139 5:0.720462 6:0.972579 7:0.885366 8:0.950112 9:1.053308 10:-1.414761 11:2.207511 12:-1.192810 13:-0.591045 14:-0.850912 15:-0.674735 16:-0.124870 
32768.000000 1:1.415394 2:1.196732 3:0.928905 4:0.580304 5:0.566657 6:0.959259 7:1.191151 8:1.374591 9:1.374477 10:0.705739 11:1.326824 12:0.287975 13:-0.855387 14:-0.470776 15:-0.166051 16:-0.245021 
32768.000000 1:-0.453260 2:-0.621263 3:-0.548777 4:-0.300521 5:-0.137430 6:0.004633 7:0.481109 8:1.394805 9:1.403238 10:0.705739 11:0.079185 12:-0.115876 13:0.201981 14:-0.005989 15:-0.091460 16:-0.269470 
32768.000000 1:-0.195821 2:-0.396948 3:-0.612441 4:-0.423126 5:-0.202370 6:-0.124131 7:-0.327406 8:-0.252580 9:-0.006070 10:-1.414761 11:0.959872 12:-0.654343 13:-0.141664 14:-0.327028 15:-0.284126 16:-0.066891 
32768.000000 1:0.782893 2:1.470605 3:1.240525 4:0.548039 5:-0.390355 6:-0.421619 7:-0.420696 8:-0.505247 9:-0.562123 10:0.705739 11:1.033262 12:-0.115876 13:-0.591045 14:-0.739107 15:-0.555032 16:-0.601630 
32768.000000 1:0.967095 2:1.027191 3:0.456449 4:0.038258 5:-0.434787 6:-0.794590 7:-0.679836 8:-0.818553 9:-0.864118 10:0.705739 11:-1.975752 12:-0.385109 13:1.259349 14:-0.563414 15:-0.947673 16:-0.655070 
23880.112473 1:0.418926 2:0.385546 3:0.603882 4:0.638380 5:1.168207 6:3.112719 7:4.093512 8:1.667684 9:0.013104 10:0.705739 11:0.813090 12:0.691825 13:-0.062361 14:0.490743 15:0.511936 16:-0.133253 
32768.000000 1:-0.262400 2:0.479445 3:-0.005955 4:-0.165009 5:-0.137430 6:-0.164092 7:-0.114912 8:-0.212154 9:0.166498 10:-1.414761 11:1.767168 12:-0.923576 13:-0.855387 14:-0.627303 15:-0.338831 16:-0.530378 
-32768.000000 1:1.544114 2:1.102832 3:0.865241 4:0.893271 5:1.093013 6:1.238987 7:1.305172 8:1.228045 9:1.024547 10:0.705739 11:0.299356 12:0.961058 13:0.995007 14:0.714352 15:0.274573 16:-0.470652 
-32768.000000 1:0.833937 2:0.682894 3:0.362628 4:0.225393 5:0.259046 6:0.515247 7:0.372270 8:0.687339 9:0.257576 10:0.705739 11:-0.948284 12:-0.385109 13:-0.062361 14:-0.627303 15:-0.615712 16:-0.578928 
-29503.752617 1:1.195683 2:0.990675 3:0.580427 4:0.351225 5:0.546149 6:0.852696 7:0.496657 8:0.247699 9:0.487667 10:0.705739 11:1.180043 12:0.691825 13:0.466323 14:2.087951 15:1.803465 16:-0.431184 
-32768.000000 1:1.319964 2:1.668837 3:1.847012 4:1.664396 5:1.677473 6:1.731841 7:1.585043 8:0.803565 9:1.110831 10:0.705739 11:0.079185 12:0.691825 13:0.000000 14:-0.291889 15:-0.000000 16:-0.438170 
-32768.000000 1:-1.243333 2:-1.268125 3:-0.893904 4:-0.652205 5:-0.236549 6:-0.048649 7:-0.306675 8:-0.666953 9:-0.964783 10:0.705739 11:-0.581331 12:-0.115876 13:0.730665 14:-0.180084 15:-0.444496 16:-0.528632 
-32768.000000 1:1.102472 2:0.761143 3:0.878644 4:0.560945 5:0.518806 6:0.173357 7:-0.016439 8:-0.348594 9:-0.720311 10:0.705739 11:1.400215 12:1.768759 13:-0.485308 14:0.268731 15:0.478847 16:-0.081909 
-32768.000000 1:-0.979236 2:-1.150751 3:-1.011180 4:-0.748999 5:-0.342504 6:-0.035329 7:0.346356 8:0.783352 9:0.775281 10:0.705739 11:-0.140987 12:-0.115876 13:0.334152 14:0.139357 15:-0.000675 16:-0.275757 
-31419.285829 1:0.092689 2:-0.005701 3:-0.431500 4:-0.400541 5:-0.308325 6:-0.013128 7:-0.016439 8:-0.479980 9:-0.332032 10:-1.414761 11:-0.654721 12:-0.923576 13:-1.119729 14:0.219218 15:0.726076 16:-0.352597 
-7913.242770 1:0.172584 2:0.515962 3:0.848487 4:0.715816 5:0.511970 6:0.355402 7:0.398184 8:0.298232 9:0.712965 10:0.705739 11:0.959872 12:-0.654343 13:0.201981 14:-0.499526 15:-0.574913 16:-0.638304 
-32768.000000 1:-2.279749 2:-2.160169 3:-2.247608 4:-2.139605 5:-2.017274 6:-2.139947 7:-2.141382 8:-2.086938 9:-2.014574 10:0.705739 11:-0.874893 12:-0.115876 13:1.523691 14:-0.371749 15:-0.854233 16:-0.048030 
-4985.710381 1:1.153516 2:0.789835 3:-0.026059 4:-0.313427 5:-0.557832 6:-0.736868 7:-0.695384 8:-0.474927 9:-0.183432 10:0.705739 11:-0.581331 12:0.000000 13:0.000000 14:1.337263 15:-0.000000 16:-0.347009 
-32768.000000 1:-0.111487 2:0.122106 3:0.040956 4:0.315734 5:0.484627 6:0.710612 7:0.636592 8:0.626699 9:0.794456 10:0.705739 11:1.987340 12:-0.923576 13:-0.855387 14:-0.777440 15:-0.504559 16:-0.660309 
-32768.000000 1:-0.111487 2:-0.185675 3:0.030904 4:0.206034 5:-0.041729 6:-0.066409 7:-0.467342 8:-1.005526 9:-0.959989 10:0.705739 11:-0.140987 12:0.153358 13:1.523691 14:-0.403694 15:-0.881438 16:-0.483576 
-32768.000000 1:0.647515 2:0.688110 3:0.439696 4:0.238299 5:0.323986 6:0.772774 7:0.823173 8:0.924845 9:0.353448 10:0.705739 11:-0.581331 12:0.000000 13:0.000000 14:0.000000 15:-0.000000 16:-0.496848 
-32768.000000 1:1.142420 2:0.779401 3:0.791525 4:0.554492 5:0.194106 6:0.035713 7:-0.539901 8:-0.581047 9:-0.480633 10:-1.414761 11:2.134121 12:0.000000 13:-1.912756 14:-0.734316 15:-0.038336 16:-0.313479 
-32768.000000 1:1.226754 2:1.230640 3:1.495183 4:1.067500 5:1.294669 6:1.563116 7:1.512484 8:1.556511 9:0.684204 10:0.705739 11:-0.361159 12:-0.115876 13:0.730665 14:-0.771051 15:-0.991233 16:-0.266676 
-32768.000000 1:1.078060 2:0.667244 3:0.051008 4:-0.165009 5:-0.127176 6:-0.119691 7:0.087217 8:0.020299 9:-0.116322 10:0.705739 11:1.840559 12:1.230292 13:-0.062361 14:0.602548 15:0.624701 16:-0.439916 
-32768.000000 1:0.802866 2:0.693327 3:0.453099 4:0.328640 5:0.399180 6:0.626250 7:0.621044 8:0.641859 9:0.511635 10:0.705739 11:0.372747 12:-0.115876 13:0.201981 14:-0.802996 15:-0.872181 16:-0.486370 
-32768.000000 1:-0.084856 2:0.622903 3:0.412890 4:0.209261 5:0.252210 6:0.559648 7:0.843904 8:0.439726 9:0.588332 10:0.705739 11:0.225966 12:1.499525 13:1.259349 14:0.620117 15:0.088103 16:-0.399051 
-32768.000000 1:0.088250 2:0.515962 3:0.309016 4:-0.216633 5:-0.198952 6:-0.075290 7:0.050937 8:0.318446 9:0.535603 10:0.705739 11:0.152575 12:-0.385109 13:0.730665 14:-0.467582 15:-0.710476 16:-0.348057 
-32768.000000 1:-0.570884 2:-0.010918 3:1.093092 4:1.641811 5:2.220919 6:3.037237 7:3.300546 8:2.162910 9:2.079131 10:0.705739 11:0.446137 12:-0.654343 13:0.730665 14:-0.579386 15:-0.813912 16:-0.601281 
-32768.000000 1:-1.054692 2:-1.077718 3:-0.806785 4:-0.678017 5:-0.404026 6:-0.141891 7:0.247883 8:0.702499 9:0.502048 10:-1.414761 11:-0.507940 12:-0.923576 13:-1.912756 14:0.937961 15:2.057611 16:-0.379841 
-32768.000000 1:0.911612 2:1.235856 3:0.570375 4:0.309281 5:0.101823 6:0.164477 7:0.543302 8:0.555952 9:0.372622 10:0.705739 11:-1.608799 12:-0.654343 13:0.995007 14:-0.365361 15:-0.696775 16:-0.380889 
-32768.000000 1:0.560962 2:0.583778 3:0.747965 4:0.164090 5:-0.130594 6:-0.035329 7:-0.472524 8:-0.525460 9:-0.547743 10:0.705739 11:0.152575 12:2.307226 13:0.995007 14:2.662946 15:2.027598 16:0.244663 
-32768.000000 1:0.685243 2:0.930684 3:0.489957 4:0.135052 5:-0.260474 6:-0.443820 7:-0.311858 8:0.171899 9:0.219228 10:0.705739 11:-0.801502 12:0.961058 13:2.581060 14:1.385179 15:0.223389 16:-0.509073 
-32768.000000 1:0.691901 2:0.547261 3:-0.119880 4:-0.610261 5:-0.988487 6:-1.211961 7:-1.073728 8:-0.965100 9:-0.653201 10:0.705739 11:-1.168455 12:0.691825 13:0.466323 14:0.602548 15:0.389690 16:-0.011705 
-27635.875351 1:0.421146 2:0.808093 3:0.325770 4:-0.548958 5:-0.496309 6:-0.696907 7:-0.596911 8:-0.570940 9:-0.883292 10:-1.414761 11:2.280902 12:0.000000 13:0.000000 14:-0.451610 15:-0.000000 16:-0.374602 
-32768.000000 1:0.698559 2:0.646377 3:0.526815 4:0.009220 5:-0.434787 6:-0.701347 7:-1.198115 8:-1.495699 9:-1.520836 10:-1.414761 11:0.372747 12:0.287975 13:-2.705782 14:-0.627303 15:0.482438 16:0.359225 
-32768.000000 1:1.382105 2:0.844609 3:0.399487 4:0.473831 5:0.067644 6:-0.106371 7:-0.171923 8:-0.116140 9:-0.336826 10:0.705739 11:0.666309 12:-0.115876 13:1.417955 14:-0.579386 15:-1.003642 16:-0.495451 
-32768.000000 1:0.307961 2:-0.180458 3:-0.652650 4:-0.742546 5:-0.725309 6:-0.905593 7:-1.255125 8:-1.616979 9:-1.899528 10:-1.414761 11:2.134121 12:0.000000 13:0.000000 14:0.000000 15:-0.000000 16:0.100761 
-32402.748743 1:-1.376491 2:-1.594164 3:-1.637771 4:-1.481406 5:-1.313187 6:-1.425087 7:-1.063362 8:-0.833713 9:-0.566917 10:0.705739 11:2.060730 12:0.153358 13:0.995007 14:0.022761 15:-0.347607 16:-0.429089 
-32768.000000 1:0.316838 2:0.098631 3:-0.106477 4:-0.123065 5:0.033465 6:0.297681 7:0.439646 8:-0.085821 9:-0.288890 10:-1.414761 11:-0.434549 12:0.961058 13:-0.855387 14:1.512956 15:2.023667 16:-0.125918 
-32768.000000 1:-0.519840 2:-0.459548 3:-0.119880 4:-0.003686 5:0.265882 6:0.639570 7:1.279258 8:1.485765 9:1.408032 10:0.705739 11:1.546996 12:-0.654343 13:-1.119729 14:-1.298130 15:-1.001579 16:-0.432581 
-32768.000000 1:-0.277935 2:0.030815 3:0.449748 4:0.283469 5:0.238539 6:0.271040 7:0.548485 8:0.813672 9:0.780075 10:0.705739 11:-1.241846 12:0.691825 13:0.995007 14:0.514701 15:0.094960 16:-0.460174 
-32768.000000 1:0.800647 2:0.865476 3:0.530166 4:0.154411 5:-0.304907 6:-0.417179 7:-0.270396 8:0.070833 9:0.046659 10:0.705739 11:-1.095065 12:0.961058 13:1.259349 14:1.241431 15:0.631850 16:-0.387525 
-32768.000000 1:-0.881586 2:-1.038594 3:-0.766575 4:-0.555411 5:-0.468966 6:-0.625865 7:-0.861233 8:-0.545673 9:-0.063593 10:0.705739 11:0.372747 12:0.530285 13:0.175547 14:0.409285 15:0.326549 16:-0.367966 
-32768.000000 1:1.275578 2:1.410613 3:1.706280 4:0.606116 5:-0.092997 6:-0.430500 7:-0.570997 8:-0.535567 9:-0.351207 10:-1.414761 11:-0.874893 12:0.691825 13:-1.119729 14:1.385179 15:2.053642 16:-0.072828 
-32768.000000 1:0.980411 2:0.695935 3:0.228598 4:-0.006912 5:0.077897 6:0.035713 7:-0.037170 8:0.475099 9:0.521222 10:-1.414761 11:0.372747 12:0.000000 13:-1.331203 14:0.691991 15:1.390095 16:-0.045934 
-32768.000000 1:0.767357 2:1.181082 3:0.744614 4:0.335093 5:-0.164773 6:-0.350577 7:-0.726481 8:-0.651793 9:-0.279303 10:-1.414761 11:1.033262 12:0.000000 13:-1.648414 14:0.043525 15:0.793085 16:-0.290776 
-32768.000000 1:-0.746209 2:-0.968169 3:-0.696210 4:-0.355371 5:-0.438205 6:-0.275095 7:0.465560 8:0.919792 9:1.024547 10:0.705739 11:1.326824 12:0.427976 13:0.201981 14:-0.355777 15:-0.434101 16:-0.523044 
-32768.000000 1:1.233411 2:1.199340 3:0.419591 4:0.231846 5:0.033465 6:-0.088610 7:0.242701 8:0.480152 9:0.080214 10:0.705739 11:1.033262 12:0.422591 13:-0.062361 14:0.011581 15:0.028658 16:-0.384032 
-32768.000000 1:-0.335637 2:-0.509106 3:-0.404694 4:-0.455391 5:-0.574921 6:-0.723548 7:-0.342955 8:0.020299 9:0.358241 10:0.705739 11:-0.507940 12:-1.192810 13:0.000000 14:-1.138409 15:-0.000000 16:-0.504532 
-32768.000000 1:1.371008 2:1.298456 3:1.026077 4:0.573851 5:0.395762 6:0.377603 7:0.714334 8:1.025912 9:1.455967 10:0.705739 11:-0.140987 12:-0.385109 13:-0.035927 14:1.394763 15:1.409131 16:0.043830 
-32768.000000 1:-0.639682 2:-0.981211 3:-0.649299 4:-0.429579 5:-0.188699 6:0.026833 7:-0.301492 8:-0.596207 9:-0.571711 10:-1.414761 11:0.519528 12:-1.462043 13:-1.410506 14:-0.892439 15:-0.442997 16:0.035796 
-32768.000000 1:1.493070 2:1.220207 3:0.999271 4:0.602889 5:0.611089 6:0.928178 7:0.812807 8:1.025912 9:1.537458 10:-1.414761 11:-0.214378 12:-0.385109 13:-0.062361 14:0.479562 15:0.500660 16:-0.195074 
-26270.103619 1:0.352347 2:0.766360 3:0.325770 4:-0.094027 5:-0.089580 6:0.311001 7:0.615861 8:0.793459 9:1.408032 10:-1.414761 11:0.886481 12:-2.538977 13:-1.119729 14:-0.435638 15:-0.019544 16:-0.373554 
-32768.000000 1:0.132636 2:0.242089 3:0.550270 4:0.990065 5:2.063696 6:3.827579 7:4.306007 8:4.285308 9:3.196032 10:-1.414761 11:-0.654721 12:0.000000 13:0.000000 14:0.000000 15:-0.898621 16:-0.696633 
-32768.000000 1:1.255604 2:1.423655 3:1.213719 4:0.838421 5:0.470956 6:0.302121 7:0.035389 8:0.075886 9:0.008311 10:-1.414761 11:0.592919 12:0.153358 13:-1.384072 14:0.794212 15:1.538464 16:-0.261786 
-32768.000000 1:1.226754 2:1.397572 3:1.619161 4:1.606320 5:0.505135 6:-0.239574 7:-0.576180 8:-0.949940 9:-1.190080 10:0.705739 11:1.033262 12:1.768759 13:0.201981 14:0.602548 15:0.504641 16:-0.028470 
-24153.319645 1:-0.280155 2:0.069940 3:0.463151 4:0.377037 5:0.655522 6:1.172385 7:2.346913 8:2.289244 9:1.307367 10:-1.414761 11:0.813090 12:-3.077444 13:-2.441440 14:-2.352287 15:-1.964086 16:-0.666945 
-19978.423584 1:1.093595 2:1.029800 3:1.103145 4:1.183653 5:1.072506 6:0.541887 7:0.678055 8:0.783352 9:1.269018 10:0.705739 11:0.299356 12:-0.115876 13:1.259349 14:-0.355777 15:-0.765958 16:-0.758106 
-32768.000000 1:-0.082636 2:0.930684 3:1.069637 4:0.806156 5:0.686283 6:0.715052 7:1.030484 8:0.904632 9:0.583539 10:0.705739 11:0.299356 12:-0.115876 13:-0.326703 14:-0.882856 15:-0.898621 16:-0.486020 
-32768.000000 1:-0.579761 2:-0.509106 3:0.037605 4:0.225393 5:0.532478 6:0.737253 7:0.963108 8:1.369538 9:1.269018 10:-1.414761 11:0.152575 12:-0.385109 13:-0.353137 14:-0.065085 15:-0.495976 16:-0.263882 
-1002.113007 1:0.521015 2:0.437712 3:-0.207000 4:-0.245671 5:-0.226295 6:0.262160 7:0.792076 8:0.717659 9:1.010166 10:-1.414761 11:-0.434549 12:2.845693 13:-0.881822 14:0.584978 15:1.008642 16:-0.286584 
-32768.000000 1:0.705217 2:1.392355 3:0.647442 4:0.457698 5:-0.188699 6:-0.461580 7:-0.260030 8:0.262859 9:0.353448 10:0.705739 11:-0.948284 12:-0.385109 13:0.201981 14:-0.595359 15:-0.668787 16:-0.197170 
-32768.000000 1:0.447777 2:0.787226 3:0.583778 4:0.515775 5:0.200942 6:0.479726 7:0.833538 8:1.116872 9:0.794456 10:-1.414761 11:0.519528 12:-0.923576 13:-1.119729 14:0.011581 15:0.489660 16:-0.411625 
-32768.000000 1:0.907174 2:0.455970 3:0.148180 4:0.144731 5:-0.168191 6:-0.217374 7:-0.011256 8:0.550899 9:0.549984 10:0.705739 11:-0.361159 12:-0.115876 13:-0.035927 14:-0.152932 15:-0.147275 16:-0.499293 
-32768.000000 1:-0.140338 2:-0.347390 3:0.027553 4:-0.106933 5:-0.192117 6:-0.208493 7:-0.327406 8:-0.474927 9:-0.993544 10:0.705739 11:-0.654721 12:3.922627 13:-0.591045 14:2.966415 15:3.412253 16:0.013792 
-32768.000000 1:0.718533 2:0.497703 3:-0.106477 4:-0.287615 5:-0.509981 6:-0.408299 7:-0.420696 8:0.060726 9:-0.039625 10:0.705739 11:-0.948284 12:0.153358 13:0.704231 14:-0.189668 15:-0.444627 16:-0.452839 
-32768.000000 1:0.616445 2:1.441913 3:1.220421 4:0.677098 5:0.156509 6:-0.181853 7:-0.648739 8:-0.520407 9:-0.384762 10:0.705739 11:0.592919 12:1.230292 13:2.052376 14:1.391568 15:0.429632 16:-0.218476 
-32768.000000 1:-1.294377 2:-1.229000 3:-0.890553 4:-0.607035 5:-0.270728 6:-0.133011 7:0.232335 8:0.384139 9:-0.403936 10:0.705739 11:-0.434549 12:0.099511 13:1.735165 14:0.093038 15:-0.524116 16:-0.671485 
-32768.000000 1:0.374540 2:0.977633 3:0.044307 4:-0.252124 5:-0.195534 6:0.324321 7:0.729883 8:0.889472 9:0.468493 10:0.705739 11:-0.654721 12:-0.115876 13:0.730665 14:-0.576192 15:-0.810957 16:-0.580674 
-32768.000000 1:-0.133680 2:-0.052651 3:-0.119880 4:-0.216633 5:-0.318579 6:0.115636 7:0.838721 8:1.162352 9:1.010166 10:0.705739 11:-0.728112 12:0.153358 13:-0.062361 14:-0.365361 15:-0.351520 16:-0.480083 
-32768.000000 1:-0.684068 2:-0.722988 3:-0.458306 4:-0.165009 5:0.163345 6:0.728373 7:1.160054 8:0.818725 9:1.014960 10:-1.414761 11:0.372747 12:0.000000 13:0.000000 14:0.000000 15:-0.000000 16:-0.162243 
-32768.000000 1:0.762919 2:0.270780 3:-0.056216 4:0.057617 5:0.443612 6:1.052502 7:1.071947 8:0.338659 9:0.037072 10:0.705739 11:0.666309 12:-0.654343 13:0.466323 14:-0.627303 15:-0.780855 16:-0.255848 
-32768.000000 1:-1.682755 2:-1.575906 3:-1.587510 4:-1.533030 5:-1.374709 6:-1.216401 7:-0.861233 8:-0.611367 9:-0.897673 10:0.705739 11:1.253434 12:1.230292 13:2.369586 14:1.394763 15:0.309312 16:-0.164687 
-32768.000000 1:-0.391120 2:-0.801237 3:-0.766575 4:-0.626394 5:-0.342504 6:-0.688027 7:-0.990803 8:-0.894353 9:-0.820976 10:0.705739 11:1.620387 12:0.422591 13:0.201981 14:-0.259945 15:-0.340227 16:-0.128363 
-1323.201766 1:-0.808349 2:-0.670821 3:-0.307522 4:-0.074668 5:0.347911 6:0.932618 7:2.010031 8:2.824896 9:1.834659 10:-1.414761 11:-1.168455 12:-1.569736 13:-0.247401 14:-1.069729 15:-1.015176 16:-0.706413 
-32768.000000 1:0.403391 2:-0.227408 3:-0.686157 4:-0.849020 5:-0.926964 6:-1.038796 7:-0.793857 8:-0.429447 9:-0.173845 10:0.705739 11:-0.728112 12:-0.385109 13:-0.062361 14:-0.857301 15:-0.847685 16:0.000000 
-32768.000000 1:1.069183 2:1.522771 3:1.133301 4:0.489963 5:0.088151 6:-0.177412 7:-0.197837 8:0.141579 9:0.597919 10:0.705739 11:0.592919 12:-0.654343 13:0.730665 14:-0.894036 15:-1.105013 16:-0.443060 
-32768.000000 1:-0.786156 2:-0.618655 3:-0.223754 4:-0.100480 5:0.245374 6:0.905978 7:1.771623 8:2.238710 9:1.695646 10:0.705739 11:0.299356 12:-0.255877 13:-0.591045 14:-0.646469 15:-0.455850 16:-0.562162 
