svm_type c_svc
kernel_type rbf
gamma 0.100000
nr_class 2
total_sv 263
rho 0.106317 
label 1 0 
nr_sv 131 132 
SV
1.000000 1:-0.086580 2:0.428662 3:1.065443 4:1.354556 5:1.187178 6:1.397339 7:1.953167 8:1.630814 9:2.296087 10:0.434818 
1.000000 1:0.894511 2:1.396152 3:0.648564 4:0.325144 5:-0.160598 6:-0.761537 7:-0.886313 8:-0.864064 9:-0.631378 10:0.107269 
1.000000 1:0.786481 2:0.967023 3:0.137551 4:-0.053942 5:-0.406593 6:-0.855401 7:-1.280830 8:-1.306704 9:-1.242660 10:0.287403 
1.000000 1:0.127276 2:0.254409 3:-0.080974 4:0.044098 5:0.199733 6:0.114528 7:-0.185527 8:-0.149805 9:-0.301859 10:-0.121390 
1.000000 1:1.108367 2:0.855190 3:0.154361 4:0.112725 5:0.088862 6:-0.073200 7:-0.014224 8:0.106725 9:0.027660 10:-0.117347 
1.000000 1:0.958447 2:0.915007 3:0.809936 4:0.968935 5:0.688258 6:0.333545 7:-0.133617 8:-0.401305 9:-0.593173 10:-0.439749 
1.000000 1:0.089796 2:0.074956 3:-0.070889 4:-0.178125 5:-0.365016 6:-0.631915 7:-0.325684 8:-0.351005 9:-0.192020 10:0.370117 
1.000000 1:0.865850 2:1.130872 3:0.359438 4:0.214032 5:-0.018544 6:-0.202822 7:-0.284156 8:-0.527055 9:-0.378269 10:-0.000000 
1.000000 1:0.442548 2:0.126971 3:-0.457510 4:-0.491850 5:-0.271469 6:-0.274338 7:-0.097280 8:0.418585 9:-0.402148 10:-0.332036 
1.000000 1:0.466799 2:0.969624 3:1.136043 4:0.818608 5:0.691723 6:0.771577 7:1.039550 8:1.459794 9:1.522434 10:-0.231676 
1.000000 1:-2.311122 2:-2.177320 3:-2.235970 4:-2.060478 5:-1.861775 6:-2.191848 7:-2.324222 8:-2.282523 9:-2.221665 10:0.304313 
0.157976 1:-0.717124 2:-0.096696 3:1.149491 4:1.851288 5:3.262544 6:2.590754 7:1.013595 8:-0.275555 9:-0.134712 10:2.220347 
1.000000 1:-1.263890 2:-1.501117 3:-0.944990 4:-0.439563 5:-0.018544 6:-0.479945 7:-0.927841 8:-0.632685 9:-0.368718 10:0.218658 
1.000000 1:1.112776 2:0.704344 3:0.278752 4:-0.210804 5:-0.101698 6:0.101119 7:0.219371 8:0.041335 9:0.046762 10:-0.218074 
1.000000 1:-1.420423 2:-1.014771 3:-0.602073 4:-0.488582 5:-0.119021 6:0.646425 7:1.600179 8:1.977883 9:1.474678 10:-0.043455 
1.000000 1:0.804118 2:0.844786 3:0.675459 4:0.714033 5:0.767947 6:0.869911 7:0.645034 8:0.785774 9:0.638941 10:-0.392694 
1.000000 1:0.846008 2:1.125671 3:0.880537 4:0.844752 5:0.442263 6:-0.037442 7:-0.143999 8:-0.330885 9:-0.201571 10:0.033378 
1.000000 1:-0.130674 2:0.327231 3:0.786403 4:0.531026 5:0.438798 6:0.597258 7:0.541214 8:0.428645 9:0.443140 10:-0.130948 
0.154247 1:1.154666 2:0.298623 3:0.191342 4:0.648673 5:1.097095 6:1.236429 7:1.003213 8:0.217385 9:0.180480 10:0.113519 
1.000000 1:0.153732 2:-0.335968 3:-1.086191 4:-1.142177 5:-1.245055 6:-1.159343 7:-0.917459 8:-0.491845 9:-0.722115 10:-0.447469 
1.000000 1:-0.639960 2:-0.317762 3:0.803213 4:1.697693 5:1.440102 6:0.601728 7:0.463348 8:0.448765 9:0.027660 10:-0.755902 
1.000000 1:-0.922161 2:-1.079791 3:-1.079467 4:-0.776164 5:-0.292257 6:-0.578279 7:-0.943414 8:-0.934484 9:-0.497660 10:0.207262 
1.000000 1:1.183327 2:0.928011 3:0.988119 4:0.416647 5:0.570458 6:0.856502 7:0.447775 8:0.448765 9:0.514775 10:-0.415854 
0.191825 1:1.582377 2:2.126971 3:2.648911 4:1.720569 5:0.577387 6:0.574910 7:0.177843 8:0.016185 9:-0.712564 10:4.034183 
1.000000 1:0.294833 2:0.152979 3:-0.323033 4:-0.642177 5:-1.023313 6:-1.154873 7:-1.332740 8:-1.216164 9:-1.156698 10:-0.066247 
1.000000 1:1.051045 2:0.589910 3:0.379610 4:0.511418 5:0.667470 6:0.820744 7:0.733281 8:0.926614 9:0.667595 10:-0.581283 
1.000000 1:1.375136 2:0.899403 3:0.450210 4:0.142137 5:0.133903 6:0.396121 7:0.349146 8:0.398465 9:0.199583 10:0.235201 
1.000000 1:-0.820745 2:-0.585643 3:0.090484 4:0.812072 5:2.226593 6:3.024317 7:1.973931 8:0.715354 9:0.490896 10:-0.229471 
1.000000 1:-1.019168 2:-1.287853 3:-1.217306 4:-0.887275 5:-0.898583 6:-0.792825 7:-0.740965 8:-0.386215 9:-0.354391 10:0.310563 
1.000000 1:1.203169 2:0.769364 3:0.309009 4:0.236908 5:-0.067051 6:-0.520172 7:-0.382785 8:-0.597475 9:-0.698237 10:-0.286819 
1.000000 1:0.493256 2:0.329832 3:0.386334 4:0.517954 5:0.899606 6:1.307944 7:1.594988 8:1.042304 9:0.242563 10:-0.721346 
1.000000 1:0.325699 2:-0.120103 3:-0.185194 4:-0.070281 5:0.099256 6:0.244150 7:0.603506 8:0.478945 9:0.414486 10:0.163515 
1.000000 1:0.570420 2:0.956620 3:0.285476 4:0.076777 5:-0.392734 6:-0.690022 7:-0.668291 8:-0.828854 9:-0.688686 10:0.227113 
1.000000 1:0.654199 2:1.323330 3:0.705717 4:0.230372 5:-0.392734 6:-0.640855 7:-0.907077 8:-1.206104 9:-1.366826 10:-0.230573 
1.000000 1:-1.382944 2:-1.196826 3:-0.901285 4:-0.841524 5:-0.708024 6:-0.551460 7:-0.782493 8:-0.693044 9:-0.712564 10:0.246229 
1.000000 1:0.327903 2:-0.265747 3:-0.010374 4:0.315340 5:0.903071 6:1.138095 7:1.132988 8:1.454764 9:0.844294 10:-0.339021 
1.000000 1:0.793095 2:0.917608 3:1.391550 4:0.900307 5:0.646682 6:0.682183 7:0.878629 8:1.072484 9:1.044870 10:0.226010 
0.469224 1:1.322223 2:1.866893 3:1.801705 4:1.789196 5:1.259937 6:1.048700 7:0.992831 8:0.705294 9:0.939806 10:0.568999 
0.210838 1:-1.837112 2:-1.428295 3:-1.082829 4:-1.024530 5:-1.158437 6:-1.490102 7:-1.768784 8:-1.593414 9:-1.467115 10:4.615390 
1.000000 1:1.110572 2:1.474175 3:1.008290 4:0.799000 5:0.584317 6:0.382712 7:0.930539 8:0.388405 9:0.691473 10:-0.189768 
0.067759 1:0.171370 2:0.602914 3:0.910794 4:0.665013 5:0.944647 6:1.678931 7:0.302427 8:-0.838914 9:-0.951346 10:-0.000000 
1.000000 1:0.177984 2:0.090560 3:0.066950 4:0.165013 5:0.241309 6:0.333545 7:0.484113 8:1.042304 9:0.896826 10:-0.383503 
1.000000 1:-0.926571 2:-0.999167 3:-0.928180 4:-0.740216 5:-0.524393 6:-0.301156 7:0.255708 8:1.022184 9:1.092627 10:-0.056322 
1.000000 1:0.524122 2:0.522290 3:0.493915 4:0.334947 5:0.203198 6:-0.149185 7:-0.689055 8:-0.456635 9:-0.669583 10:0.000292 
1.000000 1:0.440343 2:0.712147 3:1.028462 4:0.632333 5:0.244774 6:0.110059 7:-0.175145 8:-0.833884 9:-0.922692 10:0.095138 
1.000000 1:1.044431 2:1.364942 3:0.917518 4:0.501614 5:-0.042798 6:-0.158125 7:-0.351639 8:-0.310765 9:-0.368718 10:-0.034264 
1.000000 1:0.967266 2:0.818779 3:0.611583 4:0.684621 5:0.404151 6:0.530212 7:0.629461 8:0.956794 9:1.188139 10:-0.033897 
1.000000 1:-0.904524 2:-0.947151 3:-0.417167 4:-0.057210 5:-0.174457 6:-0.073200 7:0.286854 8:0.443735 9:0.600736 10:-0.467688 
1.000000 1:0.316880 2:0.098363 3:0.053503 4:0.315340 5:0.664005 6:0.664304 7:0.198607 8:-0.250405 9:-0.488109 10:-0.170651 
1.000000 1:-0.075557 2:-0.120103 3:0.292200 4:0.397039 5:0.379898 6:0.262029 7:-0.273774 8:-0.220225 9:-0.297084 10:-0.194914 
1.000000 1:0.993723 2:0.597712 3:0.315733 4:0.276124 5:0.449193 6:0.762638 7:0.655416 8:0.700264 9:0.357179 10:0.032642 
1.000000 1:1.421434 2:1.458570 3:1.082253 4:0.720568 5:0.584317 6:0.883321 7:1.273145 8:1.359194 9:0.691473 10:-0.392694 
1.000000 1:0.760024 2:1.060651 3:0.295561 4:0.220568 5:0.154691 6:-0.086609 7:-0.169954 8:-0.351005 9:-0.273205 10:-0.341962 
1.000000 1:-0.273980 2:-0.174719 3:0.070312 4:0.282660 5:0.833776 6:1.763856 7:1.994695 8:0.976914 9:-0.091731 10:-0.447837 
1.000000 1:-0.666416 2:-0.224134 3:0.662012 4:1.151941 5:1.741533 6:2.765074 7:3.468941 8:2.244473 9:2.300863 10:0.213144 
1.000000 1:-0.090990 2:-0.086293 3:-0.033907 4:-0.259824 5:-0.711488 6:-0.600627 7:-0.689055 8:-0.813764 9:-0.841506 10:0.496578 
1.000000 1:-2.339783 2:-2.218932 3:-2.303209 4:-2.204269 5:-2.097376 6:-2.254425 7:-2.319031 8:-2.217133 9:-2.178684 10:-0.076173 
1.000000 1:0.707112 2:1.128271 3:1.879030 4:1.776124 5:1.935557 6:3.015378 7:3.635053 8:4.135752 9:5.280860 10:0.280418 
0.788694 1:0.709316 2:1.669234 3:1.549561 4:0.998346 5:0.137368 6:-0.171534 7:-0.434696 8:-0.527055 9:-0.879711 10:0.151383 
1.000000 1:-0.919957 2:-1.108399 3:-1.133258 4:-0.919955 5:-0.569435 6:-0.390550 7:-0.201100 8:0.282775 9:0.271217 10:-0.126537 
1.000000 1:1.262696 2:0.909806 3:0.735974 4:-0.184661 5:-0.410058 6:-0.457596 7:-0.221864 8:-0.260465 9:-0.225449 10:0.356883 
1.000000 1:-0.029258 2:0.074956 3:-0.054079 4:-0.204268 5:-0.434311 6:-0.386081 7:-0.195909 8:0.207325 9:0.490896 10:-0.034264 
0.953507 1:0.843803 2:1.432563 3:1.213368 4:1.034294 5:0.812988 6:0.288847 7:-0.460651 8:-0.441545 9:-0.378269 10:-0.005223 
1.000000 1:0.495460 2:0.535294 3:0.944414 4:0.736908 5:0.199733 6:0.132407 7:0.115551 8:-0.441545 9:-0.149039 10:-0.000000 
1.000000 1:1.145847 2:0.748558 3:0.345990 4:0.475470 5:0.393757 6:0.123468 7:0.447775 8:0.765654 9:0.705800 10:-0.336816 
1.000000 1:1.293562 2:0.956620 3:0.309009 4:0.142137 5:0.220521 6:0.476576 7:0.349146 8:0.272715 9:0.280768 10:-0.141609 
1.000000 1:-1.839316 2:-1.774199 3:-1.724957 4:-1.635641 5:-1.491050 6:-1.467753 7:-1.374268 8:-1.241314 9:-1.065961 10:0.039627 
1.000000 1:1.538283 2:1.081457 3:1.008290 4:1.187889 5:1.509397 6:1.611885 7:1.107033 8:0.881344 9:1.188139 10:-0.026544 
1.000000 1:0.109638 2:-0.005669 3:-0.013736 4:-0.129105 5:-0.056656 6:0.132407 7:-0.050561 8:-0.024055 9:-0.058302 10:-0.051910 
1.000000 1:1.183327 2:1.461171 3:1.536113 4:1.599654 5:1.235684 6:0.995064 7:0.998022 8:0.670084 9:1.135607 10:0.161309 
1.000000 1:0.153732 2:0.608115 3:0.530896 4:0.413379 5:0.185874 6:0.221802 7:0.411438 8:-0.230285 9:-0.063077 10:-0.277629 
1.000000 1:-0.730352 2:-0.739089 3:-0.238985 4:0.047366 5:0.546205 6:1.173852 7:1.226426 8:0.911524 9:0.615063 10:0.189248 
1.000000 1:-1.102947 2:-1.092795 3:-0.807151 4:-0.544138 5:-0.219498 6:0.011725 7:0.463348 8:0.966854 9:1.073524 10:0.014261 
1.000000 1:1.163484 2:0.738154 3:0.167808 4:-0.165053 5:-0.285328 6:-0.287747 7:-0.512561 8:-0.325855 9:-0.554968 10:0.174176 
1.000000 1:1.300176 2:0.977426 3:0.746060 4:0.638869 5:0.431869 6:0.489985 7:0.354337 8:0.549365 9:0.352403 10:-0.360711 
1.000000 1:-2.328760 2:-2.205928 3:-2.309933 4:-2.204269 5:-2.097376 6:-2.254425 7:-2.381323 8:-2.363003 9:-2.364934 10:-0.250057 
1.000000 1:0.711521 2:0.296022 3:-0.275966 4:-0.233680 5:-0.070515 6:0.346954 7:0.099978 8:-0.024055 9:-0.220673 10:-0.415854 
0.755477 1:-1.010349 2:-0.918542 3:-0.440701 4:0.534294 5:1.242613 6:0.588319 7:-0.149190 8:-0.733284 9:-1.008653 10:0.013894 
1.000000 1:0.356564 2:0.946217 3:0.860365 4:0.370895 5:-0.191780 6:0.038543 7:0.125933 8:0.081575 9:-0.297084 10:0.149545 
1.000000 1:1.491985 2:1.476776 3:1.277244 4:0.553902 5:0.241309 6:0.069831 7:0.058450 8:-0.179985 9:-0.020097 10:0.119768 
1.000000 1:1.469938 2:1.224500 3:0.853642 4:0.478738 5:0.262098 6:0.011725 7:-0.258201 8:-0.532085 9:-0.779423 10:0.281153 
1.000000 1:0.050111 2:0.259611 3:0.298923 4:0.289196 5:0.598175 6:1.424157 7:3.147099 8:3.466762 9:3.513874 10:-0.291598 
1.000000 1:-1.277118 2:-1.189024 3:-0.971885 4:-1.053942 5:-1.096072 6:-1.052069 7:-1.083571 8:-0.763464 9:-0.779423 10:-0.014413 
1.000000 1:0.978290 2:0.636724 3:0.463658 4:0.622529 5:0.937718 6:1.281126 7:1.454831 8:1.429614 9:1.111729 10:-0.050807 
1.000000 1:1.121595 2:0.831783 3:0.746060 4:0.955863 5:1.356949 6:1.299005 7:0.754045 8:0.247565 9:0.118397 10:-0.273217 
1.000000 1:0.746796 2:1.143876 3:0.524173 4:0.158477 5:-0.091304 6:0.284378 7:0.437393 8:0.841104 9:0.634166 10:-0.364387 
1.000000 1:0.572625 2:0.171184 3:-0.175108 4:-0.354595 5:-0.576364 6:-0.515703 7:0.027304 8:0.559425 9:1.068749 10:-0.164769 
1.000000 1:0.693883 2:0.782368 3:0.668736 4:0.671549 5:0.542740 6:0.798396 7:1.299100 8:1.917523 9:2.191023 10:-0.183150 
0.599867 1:-1.235229 2:-0.544030 3:0.547706 4:1.119261 5:0.605105 6:0.646425 7:0.546405 8:0.343135 9:0.385832 10:5.443637 
1.000000 1:-0.509883 2:0.147777 3:0.403143 4:0.573510 5:0.643217 6:0.816275 7:1.216044 8:1.137874 9:1.083075 10:-0.516214 
1.000000 1:0.777662 2:1.570404 3:1.213368 4:1.073510 5:0.369504 6:0.060892 7:-0.019415 8:-0.049205 9:0.065865 10:-0.281305 
1.000000 1:-0.613503 2:-0.455604 3:0.043417 4:0.125797 5:0.414545 6:0.463167 7:-0.278965 8:-0.376155 9:-0.373494 10:-0.065145 
1.000000 1:0.879078 2:1.775866 3:1.700847 4:1.001614 5:0.594711 6:0.329075 7:0.302427 8:0.232475 9:-0.182468 10:-0.415854 
1.000000 1:-1.113970 2:-0.866527 3:-0.561730 4:-0.531066 5:-0.299187 6:-0.336914 7:-0.289347 8:0.197265 9:-0.024872 10:-0.033529 
1.000000 1:-2.271437 2:-2.179921 3:-2.252780 4:-2.158517 5:-2.055799 6:-2.156091 7:-2.194447 8:-2.106473 9:-2.059294 10:0.357618 
1.000000 1:-0.406262 2:-0.018673 3:0.352714 4:0.066973 5:-0.198710 6:-0.332444 7:-0.112853 8:0.026245 9:0.108846 10:0.262037 
1.000000 1:-0.046896 2:0.345437 3:0.974671 4:1.289196 5:1.550973 6:2.215298 7:2.119279 8:1.947703 9:1.498556 10:-0.535698 
1.000000 1:0.782071 2:1.820079 3:1.458789 4:0.985274 5:0.483840 6:0.136877 7:-0.465842 8:-0.808734 9:-0.960897 10:-0.026912 
1.000000 1:1.145847 2:0.909806 3:0.319095 4:-0.083353 5:-0.281863 6:-0.560400 7:-0.471033 8:-0.220225 9:-0.144263 10:-0.070659 
1.000000 1:0.435934 2:0.381848 3:0.648564 4:0.632333 5:0.653611 6:0.414000 7:-0.097280 8:0.086605 9:0.342852 10:-0.253366 
1.000000 1:0.962857 2:1.323330 3:1.072167 4:0.635601 5:0.109650 6:-0.113428 7:-0.460651 8:-0.532085 9:-0.187244 10:0.132635 
1.000000 1:-0.304845 2:-0.476410 3:0.063588 4:0.089849 5:0.147762 6:0.610667 7:0.909775 8:0.805894 9:0.968460 10:-0.000000 
1.000000 1:1.017974 2:0.680937 3:0.520811 4:0.197692 5:-0.008150 6:-0.108958 7:0.546405 8:1.027214 9:1.011441 10:-0.120655 
1.000000 1:-0.309255 2:-0.153913 3:0.413229 4:0.890503 5:1.183713 6:1.379460 7:0.914966 8:1.107694 9:1.269325 10:-0.323949 
1.000000 1:-0.377601 2:-0.429596 3:-0.568454 4:-0.462438 5:-0.243751 6:0.002785 7:-0.071325 8:-0.144775 9:-0.402148 10:-0.189032 
1.000000 1:0.577034 2:0.891600 3:1.166301 4:1.210765 5:0.788735 6:0.682183 7:0.728090 8:0.680144 9:1.145159 10:0.172705 
1.000000 1:-1.662940 2:-1.657164 3:-1.772024 4:-1.779432 5:-1.712792 6:-1.762755 7:-1.628627 8:-1.517964 9:-1.576954 10:0.058008 
1.000000 1:0.032474 2:1.219299 3:1.630247 4:0.648673 5:-0.177922 6:-0.488884 7:-0.522943 8:0.317985 9:0.672371 10:-0.237926 
1.000000 1:0.354360 2:0.995632 3:1.257073 4:1.057170 5:1.155995 6:0.941427 7:0.354337 8:-0.305735 9:-0.082180 10:-0.375416 
0.237490 1:-1.623256 2:-1.150012 3:-0.376824 4:1.099654 5:1.776180 6:1.446506 7:0.286854 8:-1.306704 9:-1.643813 10:3.327618 
1.000000 1:0.380816 2:-0.153913 3:-0.618883 4:-0.586622 5:-0.455099 6:-0.336914 7:0.146697 8:0.634874 9:0.739230 10:-0.429456 
1.000000 1:1.167894 2:1.315528 3:1.583180 4:0.919915 5:0.754088 6:0.990594 7:0.883820 8:0.931644 9:1.030543 10:-0.079482 
1.000000 1:-1.169088 2:-1.126605 3:-1.116448 4:-1.223877 5:-1.224267 6:-1.503511 7:-1.550762 8:-1.512934 9:-1.519647 10:0.922650 
1.000000 1:1.128209 2:0.870794 3:0.645202 4:0.890503 5:1.391596 6:1.263247 7:1.029168 8:0.881344 9:1.498556 10:-0.153373 
1.000000 1:1.414820 2:1.211496 3:0.957861 4:0.619261 5:0.598175 6:0.977185 7:1.190089 8:1.354164 9:1.350511 10:-0.205943 
1.000000 1:-0.441537 2:-0.601247 3:-0.524749 4:-0.272896 5:-0.115557 6:0.016194 7:0.478922 8:1.374284 9:1.379165 10:-0.231676 
1.000000 1:0.521917 2:1.089260 3:0.924242 4:0.795732 5:0.435334 6:0.016194 7:-0.626763 8:-1.080354 9:-1.046859 10:-0.015148 
1.000000 1:-0.185792 2:-0.377580 3:-0.588626 4:-0.397079 5:-0.181386 6:-0.113428 7:-0.330875 8:-0.265495 9:-0.024872 10:-0.018457 
1.000000 1:0.786481 2:1.484578 3:1.270521 4:0.586581 5:-0.371946 6:-0.412899 7:-0.424314 8:-0.516995 9:-0.578846 10:-0.581283 
1.000000 1:0.969471 2:1.042446 3:0.483829 4:0.070241 5:-0.416987 6:-0.788356 7:-0.683864 8:-0.828854 9:-0.879711 10:-0.637528 
1.000000 1:0.559397 2:0.397452 3:1.337759 4:1.508150 5:1.304978 6:1.245368 7:1.252381 8:1.454764 9:0.858620 10:-0.000000 
1.000000 1:0.797504 2:1.312927 3:0.709079 4:0.446059 5:0.057679 6:-0.292216 7:-0.195909 8:-0.386215 9:-0.258878 10:0.174544 
0.813247 1:-2.218525 2:-2.117502 3:-2.138474 4:-2.044138 5:-1.948393 6:-2.044348 7:-2.017952 8:-1.789584 9:-1.538749 10:1.372249 
1.000000 1:0.508689 2:1.232303 3:0.715802 4:0.383967 5:-0.268004 6:-0.471005 7:-0.330875 8:-0.205135 9:-0.153814 10:-0.115508 
0.614440 1:0.568216 2:0.904604 3:2.020231 4:1.687889 5:1.093630 6:0.409530 7:-0.159572 8:-0.074355 9:0.061089 10:-0.121758 
1.000000 1:0.424910 2:0.402654 3:0.631754 4:0.678085 5:1.207966 6:3.145000 7:4.097053 8:1.645904 9:-0.005770 10:-0.088305 
1.000000 1:-1.980417 2:-1.847021 3:-1.533327 4:-1.416687 5:-1.238126 6:-0.962675 7:-0.730583 8:-0.788614 9:-0.769872 10:0.783322 
0.390011 1:0.239715 2:0.644526 3:1.176387 4:1.331680 5:1.221825 6:1.634234 7:2.150425 8:2.098603 9:2.530093 10:1.256448 
1.000000 1:-0.251933 2:0.496282 3:0.019883 4:-0.135641 5:-0.115557 6:-0.153655 7:-0.118044 8:-0.225255 9:0.147051 10:-0.506288 
1.000000 1:1.454505 2:0.985229 3:0.265304 4:0.299000 5:0.289815 6:0.253090 7:0.292045 8:0.519185 9:0.104070 10:0.413496 
1.000000 1:-2.053172 2:-1.958854 3:-2.003997 4:-2.008191 5:-1.886028 6:-1.950483 7:-1.971233 8:-1.875094 9:-1.820512 10:0.753177 
-1.000000 1:0.843803 2:1.102264 3:0.419953 4:0.142137 5:-0.136345 6:-0.403960 7:-0.450269 8:-0.270525 9:-0.320962 10:-0.246381 
-1.000000 1:0.052316 2:-0.049882 3:0.050141 4:0.174817 5:0.469981 6:1.039761 7:1.241999 8:1.007094 9:1.164261 10:-0.107788 
-1.000000 1:-0.490040 2:-0.502418 3:-0.165023 4:-0.155249 5:-0.080909 6:-0.135776 7:0.369910 8:0.901464 9:0.911152 10:-0.375416 
-1.000000 1:1.542693 2:1.117868 3:0.893985 4:0.936255 5:1.131742 6:1.258777 7:1.304291 8:1.208294 9:1.001890 10:-0.443425 
-1.000000 1:1.077501 2:0.563902 3:0.238409 4:0.063706 5:0.029962 6:0.078770 7:0.281663 8:-0.351005 9:-0.683910 10:-0.457027 
-1.000000 1:-1.332235 2:-1.235838 3:-1.079467 4:-0.851327 5:-0.583294 6:-0.395020 7:-0.372403 8:-0.320825 9:-0.831955 10:-0.443425 
-1.000000 1:0.219873 2:0.535294 3:0.278752 4:0.008150 5:-0.628335 6:-0.868811 7:-0.782493 8:-0.577355 9:-0.172917 10:-0.133889 
-1.000000 1:-0.889091 2:-1.173419 3:-0.786979 4:-0.531066 5:-0.309581 6:-0.041912 7:0.292045 8:0.785774 9:0.514775 10:-0.435705 
-1.000000 1:1.057659 2:0.618519 3:0.399781 4:0.299000 5:0.144297 6:-0.198352 7:-0.434696 8:-0.481785 9:-0.402148 10:-0.498568 
-1.000000 1:0.810733 2:0.803174 3:0.695631 4:0.276124 5:0.019567 6:0.118998 7:0.022113 8:0.141935 9:0.595960 10:-0.190503 
-1.000000 1:1.339860 2:1.133473 3:0.964585 4:0.580046 5:0.088862 6:-0.256459 7:-0.808448 8:-1.100474 9:-1.175801 10:-0.087937 
-0.977929 1:0.541759 2:0.384448 3:0.379610 4:0.318608 5:0.192803 6:0.244150 7:0.162270 8:0.232475 9:0.686698 10:-0.494892 
-1.000000 1:-2.183249 2:-2.088893 3:-2.128389 4:-2.014727 5:-1.906816 6:-2.093515 7:-2.215211 8:-2.101443 9:-2.040191 10:-0.002282 
-1.000000 1:1.196555 2:1.006035 3:0.608221 4:0.387235 5:0.577387 6:0.869911 7:0.494495 8:0.232475 9:0.467018 10:-0.401884 
-1.000000 1:1.320018 2:1.682238 3:1.879030 4:1.717301 5:1.724209 6:1.754916 7:1.584606 8:0.785774 9:1.087851 10:-0.409237 
-1.000000 1:-1.226410 2:-1.246241 3:-0.871028 4:-0.629105 5:-0.216033 6:-0.037442 7:-0.310111 8:-0.677955 9:-0.980000 10:-0.504450 
-1.000000 1:1.103958 2:0.777166 3:0.907432 4:0.599653 5:0.549669 6:0.186044 7:-0.019415 8:-0.361065 9:-0.736442 10:-0.034264 
-1.000000 1:-0.964051 2:-1.129206 3:-0.988695 4:-0.727144 5:-0.323440 6:-0.024033 7:0.343955 8:0.765654 9:0.753556 10:-0.238293 
-1.000000 1:1.280334 2:0.993031 3:0.517449 4:0.066973 5:-0.209104 6:-0.108958 7:0.359528 8:1.027214 9:1.006665 10:-0.112935 
-1.000000 1:1.522850 2:1.123070 3:0.951137 4:0.955863 5:0.677864 6:0.597258 7:0.785191 8:1.404464 9:0.763108 10:-0.355932 
-1.000000 1:1.271515 2:1.500183 3:0.547706 4:0.305536 5:-0.125951 6:-0.448657 7:-0.014224 8:0.081575 9:0.108846 10:-0.317332 
-1.000000 1:0.918763 2:0.641926 3:0.769593 4:0.870895 5:0.986224 6:1.093397 7:1.423685 8:0.992004 9:1.083075 10:-0.557020 
-1.000000 1:0.100819 2:0.012537 3:-0.407081 4:-0.374203 5:-0.288793 6:-0.001685 7:-0.019415 8:-0.491845 9:-0.349616 10:-0.319170 
-1.000000 1:0.180188 2:0.532693 3:0.877175 4:0.756516 5:0.542740 6:0.369302 7:0.395865 8:0.282775 9:0.691473 10:-0.619883 
-1.000000 1:0.281605 2:0.483278 3:0.668736 4:0.727104 5:0.625893 6:0.588319 7:0.364719 8:0.056425 9:0.194807 10:-0.071026 
-1.000000 1:-2.256005 2:-2.135707 3:-2.229246 4:-2.135642 5:-2.021152 6:-2.142681 7:-2.147728 8:-2.091383 9:-2.025864 10:0.001395 
-1.000000 1:-0.481221 2:-0.411390 3:-0.158299 4:0.112725 5:0.130438 6:0.360363 7:0.499686 8:0.287805 9:1.212018 10:-0.379827 
-1.000000 1:1.189941 2:1.154279 3:0.978033 4:0.534294 5:0.227451 6:0.020664 7:-0.289347 8:-0.119625 9:-0.387821 10:-0.357402 
-0.750484 1:-0.972869 2:-0.788503 3:-0.104508 4:0.161745 5:0.310604 6:1.093397 7:1.979122 8:2.581483 9:2.592177 10:-0.383503 
-0.544098 1:1.154666 2:0.805775 3:-0.000288 4:-0.285968 5:-0.541717 6:-0.730249 7:-0.699437 8:-0.486815 9:-0.201571 10:-0.313288 
-1.000000 1:-0.102013 2:0.139975 3:0.066950 4:0.351287 5:0.515022 6:0.726880 7:0.634652 8:0.609724 9:0.772659 10:-0.643043 
-1.000000 1:-0.818540 2:0.139975 3:1.495770 4:1.508150 5:2.230058 6:1.231959 7:0.390674 8:-0.662865 9:-0.722115 10:-0.000000 
-1.000000 1:-0.102013 2:-0.166917 3:0.056865 4:0.240176 5:-0.018544 6:-0.055321 7:-0.471033 8:-1.014964 9:-0.975224 10:-0.457027 
-1.000000 1:0.651994 2:0.704344 3:0.467020 4:0.272856 5:0.352180 6:0.789456 7:0.821528 8:0.906494 9:0.333300 10:-0.470997 
-1.000000 1:1.143642 2:0.795372 3:0.820022 4:0.593117 5:0.220521 6:0.047482 7:-0.543707 8:-0.592445 9:-0.497660 10:-0.277996 
-1.000000 1:0.288219 2:0.878597 3:0.816660 4:0.495078 5:0.269027 6:0.159225 7:0.198607 8:0.051395 9:-0.354391 10:-0.379092 
-1.000000 1:0.025859 2:0.225801 3:0.998204 4:1.289196 5:1.207966 6:1.361581 7:1.158943 8:0.846134 9:0.648492 10:-0.211457 
-1.000000 1:1.472142 2:1.216698 3:1.045271 4:0.848019 5:0.899606 6:1.129155 7:0.857865 8:1.082544 9:0.572082 10:-0.213663 
-0.012114 1:-0.170359 2:-0.026475 3:0.208151 4:-0.089889 5:0.189339 6:0.382712 7:0.125933 8:0.021215 9:-0.554968 10:-0.735683 
-1.000000 1:1.258287 2:1.130872 3:1.344483 4:1.282660 5:1.395061 6:1.808553 7:2.181571 8:2.697173 9:3.189131 10:-0.617677 
-1.000000 1:1.227421 2:1.245307 3:1.526027 4:1.112725 5:1.336161 6:1.585067 7:1.511932 8:1.535244 9:0.662819 10:-0.228735 
-1.000000 1:1.079706 2:0.683538 3:0.077036 4:-0.135641 5:-0.105162 6:-0.108958 7:0.084405 8:0.006125 9:-0.134712 10:-0.411075 
-1.000000 1:0.219873 2:0.293421 3:0.477106 4:0.406843 5:0.539275 6:0.279908 7:0.006540 8:-0.547175 9:-0.497660 10:-0.569886 
-1.000000 1:0.103024 2:0.119169 3:0.171170 4:0.165013 5:0.192803 6:0.539152 7:0.567169 8:0.654994 9:0.381057 10:-0.550035 
-1.000000 1:1.084115 2:1.567803 3:1.357931 4:0.808804 5:0.934253 6:0.959306 7:0.442584 8:-0.064295 9:-0.196795 10:-0.608854 
-1.000000 1:0.806323 2:0.709546 3:0.480468 4:0.364359 5:0.428404 6:0.641956 7:0.619079 8:0.624814 9:0.490896 10:-0.459968 
-1.000000 1:-0.075557 2:0.639325 3:0.440124 4:0.243444 5:0.279421 6:0.574910 7:0.842292 8:0.423615 9:0.567307 10:-0.368063 
-1.000000 1:0.872464 2:2.054149 3:1.889115 4:0.635601 5:-0.125951 6:-0.287747 7:-0.543707 8:-0.698074 9:-0.989551 10:-0.607016 
-1.000000 1:0.096410 2:0.532693 3:0.335905 4:-0.187929 5:-0.177922 6:-0.064261 7:0.048068 8:0.302895 9:0.514775 10:-0.314391 
-1.000000 1:0.852622 2:0.909806 3:1.203282 4:0.926451 5:0.705582 6:0.677713 7:0.670989 8:0.911524 9:0.786986 10:-0.283878 
-1.000000 1:-0.558386 2:0.007335 3:1.122596 4:1.694425 5:2.275099 6:3.069015 7:3.302829 8:2.138843 9:2.052530 10:-0.580915 
-1.000000 1:-1.039010 2:-1.056384 3:-0.783617 4:-0.655249 5:-0.385805 6:-0.131306 7:0.245326 8:0.685174 9:0.481345 10:-0.347844 
-1.000000 1:0.914353 2:1.250508 3:0.598135 4:0.344751 5:0.126974 6:0.177104 7:0.541214 8:0.539305 9:0.352403 10:-0.348947 
-1.000000 1:-0.377601 2:-0.429596 3:-0.568454 4:-0.462438 5:-0.243751 6:0.002785 7:-0.071325 8:-0.144775 9:-0.402148 10:-0.189032 
-1.000000 1:0.566011 2:0.600313 3:0.776317 4:0.197692 5:-0.108627 6:-0.024033 7:-0.476224 8:-0.537115 9:-0.564519 10:0.309460 
-1.000000 1:-1.645303 2:-1.558334 3:-1.516518 4:-1.547406 5:-1.494515 6:-1.485632 7:-1.431369 8:-1.497844 9:-1.099391 10:-0.000000 
-0.625317 1:0.286014 2:0.935814 3:1.085615 4:0.070241 5:-0.915907 6:-1.271086 7:-1.639009 8:-1.925394 9:-1.920800 10:-0.323949 
-1.000000 1:0.696088 2:0.563902 3:-0.094422 4:-0.586622 5:-0.978272 6:-1.208510 7:-1.078380 8:-0.974724 9:-0.669583 10:0.039627 
-1.000000 1:0.427115 2:0.823980 3:0.352714 4:-0.524530 5:-0.479352 6:-0.690022 7:-0.600808 8:-0.582385 9:-0.898814 10:-0.342330 
-1.000000 1:0.559397 2:0.886399 3:1.119234 4:-0.099693 5:-0.493211 6:-0.569339 7:-0.362021 8:0.177145 9:0.634166 10:0.087418 
-1.000000 1:0.702702 2:0.662732 3:0.554430 4:0.040830 5:-0.416987 6:-0.694491 7:-1.202964 8:-1.502874 9:-1.533973 10:0.430039 
-1.000000 1:1.381750 2:0.860391 3:0.426677 4:0.511418 5:0.092327 6:-0.095549 7:-0.175145 8:-0.129685 9:-0.354391 10:-0.469526 
-1.000000 1:0.312470 2:0.363642 3:0.534258 4:0.348019 5:0.265562 6:0.306726 7:0.707326 8:1.163024 9:1.207242 10:-0.195282 
-1.000000 1:0.473413 2:1.440365 3:1.623523 4:1.112725 5:1.453961 6:2.130373 7:2.238673 8:0.911524 9:0.213910 10:-0.686789 
-1.000000 1:0.314675 2:-0.161715 3:-0.628969 4:-0.720608 5:-0.711488 6:-0.900099 7:-1.260066 8:-1.623594 9:-1.911249 10:0.158001 
-1.000000 1:1.066478 2:1.294721 3:0.951137 4:0.687889 5:0.528881 6:0.557031 7:0.115551 8:-0.230285 9:-0.196795 10:-0.666938 
-1.000000 1:0.323494 2:0.116568 3:-0.080974 4:-0.093157 5:0.057679 6:0.311196 7:0.437393 8:-0.099505 9:-0.306635 10:-0.080585 
-1.000000 1:-0.267366 2:0.048948 3:0.477106 4:0.318608 5:0.265562 6:0.284378 7:0.546405 8:0.795834 9:0.758332 10:-0.432397 
-1.000000 1:0.804118 2:0.881197 3:0.557792 4:0.187889 5:-0.285328 6:-0.408429 7:-0.273774 8:0.056425 9:0.027660 10:-0.355932 
-1.000000 1:0.061135 2:0.191991 3:0.692269 4:1.282660 5:2.105328 6:2.184010 7:1.999886 8:1.545304 9:1.861504 10:-0.047499 
-1.000000 1:-1.546091 2:-1.688373 3:-1.809005 4:-1.805576 5:-1.702398 6:-1.744876 7:-1.742829 8:-1.522994 9:-1.366826 10:-0.250425 
-0.548997 1:1.079706 2:1.065853 3:1.142767 4:0.410111 5:0.310604 6:0.360363 7:0.297236 8:0.478945 9:0.495672 10:-0.398576 
-0.382578 1:-0.143902 2:-0.744290 3:-0.225537 4:-0.364399 5:-0.257610 6:-0.435248 7:-0.715010 8:-0.989814 9:-0.956121 10:-0.432029 
-1.000000 1:-0.867044 2:-1.017372 3:-0.743274 4:-0.531066 5:-0.451634 6:-0.618506 7:-0.865549 8:-0.557235 9:-0.082180 10:-0.335345 
-0.893287 1:-2.220729 2:-2.078490 3:-2.114941 4:-2.080086 5:-1.931069 6:-1.937074 7:-1.758402 8:-1.538084 9:-1.185352 10:-0.372475 
-1.000000 1:-2.163407 2:-2.081091 3:-2.148560 4:-2.027798 5:-1.892957 6:-1.963893 7:-1.934896 8:-1.779524 9:-1.562627 10:-0.401884 
-1.000000 1:1.399387 2:1.104864 3:0.769593 4:0.606189 5:0.573922 6:0.887790 7:0.748854 8:0.730444 9:1.126056 10:-0.143080 
-1.000000 1:1.275924 2:1.424760 3:1.737829 4:0.645405 5:-0.070515 6:-0.421838 7:-0.574853 8:-0.547175 9:-0.368718 10:-0.024706 
-0.585237 1:-0.505473 2:-0.754693 3:-0.753360 4:-0.390543 5:0.466516 6:2.411966 7:3.910176 8:2.400403 9:2.353395 10:-0.627235 
-1.000000 1:1.181122 2:1.526191 3:0.833470 4:0.423183 5:-0.125951 6:-0.444187 7:-0.517752 8:-0.361065 9:-0.172917 10:-0.441955 
-1.000000 1:0.982699 2:0.712147 3:0.255218 4:0.024490 5:0.102721 6:0.047482 7:-0.040179 8:0.458825 9:0.500448 10:0.003600 
-1.000000 1:0.775457 2:0.582108 3:-0.007012 4:-0.034334 5:-0.063586 6:-0.184943 7:-0.429505 8:-0.567295 9:-0.626603 10:-0.383503 
-0.190980 1:-0.747990 2:-0.541429 3:-0.565092 4:-0.433027 5:-0.164063 6:0.297787 7:0.354337 8:0.081575 9:-0.144263 10:-0.576504 
-1.000000 1:-0.159335 2:-0.424394 3:-0.518025 4:-0.370935 5:-0.077445 6:0.342484 7:0.946112 8:1.479914 9:1.302755 10:-0.098598 
-1.000000 1:0.771048 2:1.195892 3:0.772955 4:0.370895 5:-0.143274 6:-0.341383 7:-0.730583 8:-0.662865 9:-0.297084 10:-0.254101 
-1.000000 1:1.099548 2:1.273915 3:1.337759 4:0.789196 5:0.515022 6:0.467636 7:0.214180 8:-0.124655 9:-0.230225 10:-0.532022 
-1.000000 1:1.234035 2:1.214097 3:0.446848 4:0.266320 5:0.057679 6:-0.077670 7:0.240135 8:0.463855 9:0.061089 10:-0.352256 
-1.000000 1:-1.341054 2:-1.105799 3:-0.817237 4:-0.567014 5:-0.205639 6:0.266499 7:0.676180 8:1.183144 9:0.978011 10:-0.246749 
-1.000000 1:1.370726 2:1.312927 3:1.055357 4:0.612725 5:0.424940 6:0.391651 7:0.712517 8:1.007094 9:1.431697 10:0.098079 
-1.000000 1:-0.626732 2:-0.960155 3:-0.625607 4:-0.403615 5:-0.167527 6:0.038543 7:-0.304920 8:-0.607535 9:-0.588397 10:0.089623 
-1.000000 1:0.561601 2:0.693941 3:0.500639 4:0.534294 5:0.442263 6:0.226271 7:0.053259 8:0.569485 9:0.519550 10:0.621569 
-1.000000 1:0.413887 2:0.363642 3:0.204789 4:0.207496 5:0.133903 6:0.217332 7:0.380292 8:0.584575 9:1.307530 10:0.064993 
-1.000000 1:1.491985 2:1.234903 3:1.028462 4:0.642137 5:0.643217 6:0.945897 7:0.811146 8:1.007094 9:1.512883 10:-0.153373 
-1.000000 1:1.211988 2:0.701744 3:-0.033907 4:-0.138909 5:-0.153669 6:-0.314565 7:-0.590426 8:-0.652805 9:-0.492885 10:-0.401884 
-0.472388 1:-1.166883 2:-1.368477 3:-1.429108 4:-1.299040 5:-1.123790 6:-0.967145 7:-0.507370 8:-0.179985 9:0.099294 10:-0.443425 
-1.000000 1:0.570420 2:0.217998 3:0.571240 4:0.602921 5:1.034730 6:1.960524 7:2.181571 8:1.736444 9:1.708684 10:-0.264027 
-1.000000 1:0.872464 2:0.631522 3:0.497277 4:0.818608 5:1.020871 6:1.191731 7:1.672853 8:1.987943 9:1.808972 10:-0.548932 
-1.000000 1:0.140504 2:0.259611 3:0.577963 4:1.034294 5:2.115722 6:3.864625 7:4.309884 8:4.251442 9:3.165253 10:-0.681275 
-0.779323 1:0.043497 2:0.353239 3:0.725888 4:0.792464 5:1.138672 6:2.380677 7:3.100380 8:1.821954 9:1.933139 10:-0.622824 
-1.000000 1:-1.109561 2:-1.511520 3:-1.267735 4:-1.040870 5:-0.708024 6:-0.582748 7:-0.278965 8:-0.496875 9:-0.373494 10:-0.315861 
-0.783038 1:0.255148 2:-0.330766 3:-0.598711 4:-0.625837 5:-0.337299 6:-0.104488 7:-0.133617 8:0.710324 9:0.715351 10:-0.368798 
-1.000000 1:1.256082 2:1.437764 3:1.243625 4:0.880699 5:0.501163 6:0.315666 7:0.032495 8:0.061455 9:-0.010545 10:-0.223589 
-0.451997 1:-2.108290 2:-1.927645 3:-1.879606 4:-1.684661 5:-1.394038 6:-0.788356 7:0.489304 8:1.525184 9:1.364838 10:-0.599664 
-1.000000 1:1.227421 2:1.411756 3:1.650418 4:1.658477 5:0.535811 6:-0.229640 7:-0.580044 8:-0.959634 9:-1.204455 10:0.021981 
-1.000000 1:1.112776 2:1.055450 3:0.947776 4:0.769588 5:1.034730 6:1.044231 7:0.935730 8:0.745534 9:-0.110834 10:-0.537903 
-0.284533 1:-0.269570 2:0.087959 3:0.490553 4:0.413379 5:0.688258 6:1.191731 7:2.347684 8:2.264593 9:1.283652 10:-0.650027 
-0.893280 1:1.095139 2:1.045046 3:1.132682 4:1.230373 5:1.110954 6:0.557031 7:0.676180 8:0.765654 9:1.245447 10:-0.745976 
-1.000000 1:-0.073352 2:0.946217 3:1.099062 4:0.848019 5:0.719441 6:0.731350 7:1.029168 8:0.886374 9:0.562531 10:-0.459600 
-1.000000 1:-0.567205 2:-0.489414 3:0.063588 4:0.259784 5:0.563528 6:0.753699 7:0.961685 8:1.349134 9:1.245447 10:-0.225794 
-1.000000 1:0.649789 2:0.644526 3:0.016521 4:-0.305576 5:-0.513999 6:-0.770477 7:-0.948605 8:-0.557235 9:-0.411699 10:-0.207046 
-1.000000 1:-0.551772 2:0.654929 3:0.695631 4:-0.001654 5:-0.465493 6:-0.810704 7:-1.088762 8:-1.055204 9:-1.108942 10:-0.507391 
-1.000000 1:0.709316 2:1.406555 3:0.675459 4:0.495078 5:-0.167527 6:-0.453126 7:-0.263392 8:0.247565 9:0.333300 10:-0.155579 
-1.000000 1:0.453571 2:0.803174 3:0.611583 4:0.553902 5:0.227451 6:0.494455 7:0.831910 8:1.097634 9:0.772659 10:-0.381297 
-0.712755 1:0.764434 2:1.723850 3:1.573094 4:1.099654 5:0.927324 6:0.811805 7:0.774809 8:0.468885 9:0.185256 10:-0.737521 
-0.177965 1:-1.274913 2:-1.542730 3:-1.503070 4:-1.246752 5:-0.895118 6:-0.609567 7:-0.476224 8:-0.401305 9:-0.201571 10:-0.416221 
-1.000000 1:-1.546091 2:-1.594745 3:-1.721595 4:-1.668321 5:-1.525697 6:-1.646542 7:-1.815503 8:-2.036053 9:-1.973332 10:-0.197120 
-1.000000 1:-0.130674 2:-0.328165 3:0.053503 4:-0.076817 5:-0.170992 6:-0.198352 7:-0.330875 8:-0.486815 9:-1.008653 10:0.066463 
-1.000000 1:-0.287208 2:-0.330766 3:-0.299500 4:-0.214072 5:0.029962 6:0.177104 7:0.089596 8:0.478945 9:0.925479 10:-0.234617 
-1.000000 1:-2.154588 2:-2.130506 3:-2.188903 4:-2.089890 5:-1.976111 6:-2.129272 7:-2.173683 8:-2.041083 9:-2.016313 10:-0.312920 
-0.399108 1:-0.789879 2:-0.632457 3:-1.052572 4:-1.129105 5:-1.051031 6:-1.136994 7:-0.642336 8:0.016185 9:-0.020097 10:-0.501877 
-1.000000 1:0.621128 2:1.455970 3:1.250349 4:0.717300 5:0.182409 6:-0.171534 7:-0.652718 8:-0.532085 9:-0.402148 10:-0.178004 
-1.000000 1:1.209783 2:1.203694 3:0.806575 4:0.557170 5:0.279421 6:0.396121 7:0.608697 8:0.061455 9:-0.144263 10:-0.421368 
-1.000000 1:-0.917752 2:-0.702678 3:-0.289414 4:0.419915 5:1.291119 6:1.875599 7:1.984313 8:1.716324 9:1.675254 10:-0.444160 
-1.000000 1:-0.670826 2:-0.702678 3:-0.433977 4:-0.135641 5:0.189339 6:0.744759 7:1.158943 8:0.800864 9:0.992338 10:-0.118817 
-1.000000 1:0.398454 2:0.636724 3:0.272028 4:0.145405 5:-0.347693 6:-0.475475 7:-0.507370 8:-0.456635 9:-0.559744 10:0.523782 
-1.000000 1:0.766639 2:0.288219 3:-0.030546 4:0.089849 5:0.473446 6:1.071049 7:1.070696 8:0.323015 9:0.018108 10:-0.217339 
-1.000000 1:-0.337916 2:-0.216332 3:0.456934 4:1.236909 5:1.852404 6:0.914609 7:-0.403550 8:-0.843944 9:-0.908365 10:-0.323949 
-1.000000 1:-1.662940 2:-1.553133 3:-1.566947 4:-1.521262 5:-1.369785 6:-1.212979 7:-0.865549 8:-0.622625 9:-0.913141 10:-0.121390 
-1.000000 1:-0.379805 2:-0.780701 3:-0.743274 4:-0.602961 5:-0.323440 6:-0.681082 7:-0.995324 8:-0.904304 9:-0.836731 10:-0.083158 
-0.943637 1:-2.198682 2:-2.094095 3:-2.175456 4:-2.161785 5:-2.066193 6:-2.209727 7:-2.173683 8:-2.171863 9:-2.202563 10:-0.638264 
-1.000000 1:0.409477 2:-0.208529 3:-0.662588 4:-0.828452 5:-0.915907 6:-1.034190 7:-0.798066 8:-0.441545 9:-0.192020 10:-0.000000 
-0.995558 1:1.070887 2:1.536594 3:1.162939 4:0.527758 5:0.113115 6:-0.167064 7:-0.201100 8:0.126845 9:0.576858 10:-0.414383 
