svm_type c_svc
kernel_type rbf
gamma 0.000001
nr_class 2
total_sv 148
rho -8.472895 
probA -1.446899
probB 0.189025
label 1 0 
nr_sv 73 75 
SV
1048576.000000 1:0.705739 2:0.225966 3:2.037992 4:0.704231 5:1.219070 6:0.862355 7:-0.164687 
1048576.000000 1:-1.414761 2:0.372747 3:0.000000 4:0.000000 5:0.233592 6:-0.000000 7:-0.467160 
885002.949419 1:0.705739 2:-0.214378 3:1.499525 4:0.995007 5:0.538659 6:0.107990 7:0.000000 
1048576.000000 1:0.705739 2:0.592919 3:-0.654343 4:1.259349 5:-0.962716 6:-1.297125 7:-0.364822 
1048576.000000 1:0.705739 2:-0.728112 3:0.691825 4:0.466323 5:0.155329 6:-0.035963 7:-0.269470 
1048576.000000 1:-1.414761 2:0.225966 3:-0.654343 4:-0.062361 5:0.487549 6:0.500039 7:-0.256547 
1048576.000000 1:-1.414761 2:-0.140987 3:-0.385109 4:-0.855387 5:1.209487 6:1.688686 7:-0.090641 
1048576.000000 1:0.705739 2:-1.975752 3:0.691825 4:2.316718 5:0.730324 6:-0.193133 7:-0.422452 
1048576.000000 1:-1.414761 2:0.666309 3:-1.462043 4:-1.912756 5:-1.298130 6:-0.744993 7:-0.173769 
1048576.000000 1:-1.414761 2:-1.755580 3:-1.731277 4:-1.384072 5:-1.210284 6:-0.816889 7:-0.474494 
1048576.000000 1:0.705739 2:-0.434549 3:4.730327 4:0.201981 5:1.608789 6:1.347711 7:-0.767536 
1048576.000000 1:0.705739 2:1.767168 3:-0.115876 4:-0.591045 5:0.107413 6:0.351287 7:-0.444457 
1048576.000000 1:0.705739 2:0.005794 3:2.037992 4:0.201981 5:0.714352 6:0.614161 7:-0.112296 
1048576.000000 1:0.705739 2:-0.654721 3:-0.385109 4:-0.326703 5:0.514701 6:0.658911 7:-0.601630 
1048576.000000 1:0.705739 2:1.253434 3:-0.923576 4:-0.062361 5:-0.892439 6:-0.883126 7:-0.267374 
1048576.000000 1:0.705739 2:1.033262 3:-0.654343 4:0.201981 5:-0.627303 6:-0.700078 7:-0.321861 
1048576.000000 1:0.705739 2:0.666309 3:1.230292 4:1.259349 5:1.219070 6:0.612281 7:-0.734704 
1048576.000000 1:0.705739 2:-0.214378 3:0.422591 4:0.281284 5:0.198454 6:0.077216 7:-0.268422 
1048576.000000 1:0.705739 2:1.106653 3:0.153358 4:0.466323 5:-0.541053 6:-0.698765 7:-0.371458 
1048576.000000 1:0.705739 2:1.106653 3:-0.115876 4:1.259349 5:-0.154529 6:-0.589834 7:-0.229653 
1048576.000000 1:0.705739 2:-1.902361 3:-0.385109 4:0.201981 5:-0.012378 6:-0.097719 7:-0.413721 
1048576.000000 1:-1.414761 2:-0.581331 3:0.691825 4:-0.855387 5:2.407393 6:3.010980 7:0.041035 
1048576.000000 1:-1.414761 2:0.079185 3:1.230292 4:0.730665 5:2.279616 6:1.835123 7:-0.081909 
1048576.000000 1:0.705739 2:0.592919 3:0.422591 4:1.523691 5:0.442827 6:-0.160487 7:-0.081560 
1048576.000000 1:0.705739 2:1.033262 3:-0.385109 4:-1.119729 5:-1.681460 6:-1.438039 7:-0.493704 
1048576.000000 1:0.705739 2:0.299356 3:0.153358 4:0.000000 5:-0.365361 6:-0.000000 7:-0.234542 
764475.344884 1:0.705739 2:1.546996 3:3.384160 4:-0.062361 5:1.528928 6:1.559629 7:-0.018341 
1048576.000000 1:-1.414761 2:-0.361159 3:-0.385109 4:-1.119729 5:-0.739107 6:-0.365075 7:-0.422452 
1048576.000000 1:0.705739 2:0.372747 3:0.153358 4:0.000000 5:0.000000 6:-0.000000 7:-0.374252 
1048576.000000 1:0.705739 2:0.739700 3:-1.192810 4:0.995007 5:-0.994661 6:-1.258882 7:-0.474844 
1048576.000000 1:0.705739 2:-0.728112 3:0.691825 4:0.466323 5:0.378938 6:0.176863 7:-0.121727 
1048576.000000 1:0.705739 2:-0.067597 3:-0.385109 4:3.374086 5:-0.894036 6:-1.670891 7:-0.169577 
1048576.000000 1:-1.414761 2:-0.361159 3:1.499525 4:-0.009493 5:2.276422 6:2.280151 7:-0.081909 
1048576.000000 1:-1.414761 2:-0.874893 3:0.153358 4:-1.119729 5:2.028854 6:2.786532 7:0.000000 
1048576.000000 1:0.705739 2:1.913949 3:0.422591 4:-0.062361 5:0.267134 6:0.286406 7:-0.369363 
1048576.000000 1:0.705739 2:0.959872 3:0.153358 4:0.704231 5:-0.189668 6:-0.444627 7:-0.183898 
531480.976336 1:0.705739 2:1.620387 3:-0.654343 4:-0.062361 5:-0.291889 6:-0.277418 7:-0.074575 
1048576.000000 1:-1.414761 2:0.739700 3:-1.462043 4:-1.384072 5:-0.929175 6:-0.486577 7:-0.098675 
1048576.000000 1:0.705739 2:-0.067597 3:0.961058 4:1.259349 5:0.123385 6:-0.346616 7:-0.313129 
1048576.000000 1:0.705739 2:-1.241846 3:0.422591 4:-0.591045 5:0.554631 6:0.830098 7:-0.392065 
1048576.000000 1:0.705739 2:1.106653 3:1.230292 4:-0.062361 5:0.409285 6:0.429779 7:-0.286934 
1048576.000000 1:0.705739 2:1.546996 3:0.099511 4:0.175547 5:-0.411680 6:-0.368826 7:-0.444457 
1048576.000000 1:0.705739 2:-0.801502 3:0.691825 4:0.730665 5:0.506715 6:0.190901 7:-0.326402 
1048576.000000 1:0.705739 2:0.666309 3:1.768759 4:0.466323 5:0.490743 6:0.283277 7:-0.063048 
1048576.000000 1:0.705739 2:0.225966 3:-0.115876 4:-0.062361 5:-0.435638 6:-0.422401 7:-0.308938 
1048576.000000 1:0.705739 2:1.546996 3:-0.385109 4:0.466323 5:-0.365361 6:-0.531544 7:-0.395558 
1048576.000000 1:0.705739 2:-0.581331 3:0.153358 4:0.000000 5:0.303870 6:-0.000000 7:-0.205902 
1048576.000000 1:0.705739 2:-0.214378 3:-0.385109 4:-0.353137 5:-0.541053 6:-0.428630 7:-0.223366 
1048576.000000 1:-1.414761 2:1.546996 3:-2.000510 4:-1.119729 5:-1.421115 6:-1.141610 7:-0.539809 
1048576.000000 1:0.705739 2:-0.214378 3:0.691825 4:0.466323 5:0.602548 6:0.389690 7:-0.316622 
1048576.000000 1:0.705739 2:-0.214378 3:-0.385109 4:0.466323 5:-0.691191 6:-0.841662 7:-0.444457 
1048576.000000 1:0.705739 2:0.519528 3:-0.385109 4:0.175547 5:-0.576192 6:-0.641595 7:-0.558320 
1048576.000000 1:0.705739 2:0.519528 3:0.422591 4:0.201981 5:0.233592 6:0.143225 7:-0.074924 
1048576.000000 1:0.705739 2:0.079185 3:0.422591 4:0.730665 5:0.043525 6:-0.237622 7:-0.116488 
1048576.000000 1:0.705739 2:0.519528 3:-0.115876 4:1.523691 5:0.123385 6:-0.432544 7:-0.290077 
1048576.000000 1:-1.414761 2:-0.801502 3:-0.115876 4:-1.384072 5:1.993716 6:2.809946 7:0.000000 
1048576.000000 1:-1.414761 2:0.739700 3:1.230292 4:-1.912756 5:0.714352 6:1.777350 7:-0.163989 
1048576.000000 1:0.705739 2:1.326824 3:-0.385109 4:0.466323 5:-0.788621 6:-0.934394 7:-0.357138 
1048576.000000 1:0.705739 2:-0.067597 3:0.153358 4:0.598494 5:-0.224806 6:-0.442288 7:-0.228954 
1048576.000000 1:0.705739 2:-0.287768 3:0.422591 4:0.466323 5:0.123385 6:-0.066367 7:-0.275408 
1048576.000000 1:0.705739 2:1.033262 3:-0.385109 4:0.995007 5:-0.611331 6:-0.918059 7:-0.406036 
1048576.000000 1:-1.414761 2:-0.287768 3:0.422591 4:-1.119729 5:-0.180084 6:0.271430 7:-0.457380 
1048576.000000 1:-1.414761 2:2.207511 3:-1.192810 4:-0.591045 5:-0.850912 6:-0.674735 7:-0.124870 
1048576.000000 1:0.705739 2:0.372747 3:0.422591 4:0.995007 5:-0.275917 6:-0.616309 7:-0.195074 
1048576.000000 1:0.705739 2:1.326824 3:0.287975 4:-0.855387 5:-0.470776 6:-0.166051 7:-0.245021 
1048576.000000 1:0.705739 2:0.079185 3:-0.115876 4:0.201981 5:-0.005989 6:-0.091460 7:-0.269470 
777477.609417 1:-1.414761 2:0.959872 3:-0.654343 4:-0.141664 5:-0.327028 6:-0.284126 7:-0.066891 
1048576.000000 1:0.705739 2:1.033262 3:-0.115876 4:-0.591045 5:-0.739107 6:-0.555032 7:-0.601630 
1048576.000000 1:0.705739 2:-1.975752 3:-0.385109 4:1.259349 5:-0.563414 6:-0.947673 7:-0.655070 
1048576.000000 1:0.705739 2:-0.214378 3:-1.192810 4:-0.670348 5:-0.894036 6:-0.695032 7:-0.159099 
1048576.000000 1:-1.414761 2:-0.140987 3:-0.385109 4:-1.648414 5:0.155329 6:0.928732 7:-0.165037 
1048576.000000 1:0.705739 2:0.813090 3:0.691825 4:-0.062361 5:0.490743 6:0.511936 7:-0.133253 
1048576.000000 1:-1.414761 2:1.767168 3:-0.923576 4:-0.855387 5:-0.627303 6:-0.338831 7:-0.530378 
-1048576.000000 1:0.705739 2:-0.140987 3:-0.654343 4:0.201981 5:-0.739107 6:-0.809598 7:-0.467858 
-1048576.000000 1:0.705739 2:0.299356 3:0.961058 4:0.995007 5:0.714352 6:0.274573 7:-0.470652 
-1048576.000000 1:0.705739 2:1.180043 3:0.691825 4:0.466323 5:2.087951 6:1.803465 7:-0.431184 
-1048576.000000 1:0.705739 2:0.079185 3:0.691825 4:0.000000 5:-0.291889 6:-0.000000 7:-0.438170 
-1048576.000000 1:0.705739 2:1.400215 3:1.768759 4:-0.485308 5:0.268731 6:0.478847 7:-0.081909 
-1048576.000000 1:0.705739 2:-0.140987 3:-0.115876 4:0.334152 5:0.139357 6:-0.000675 7:-0.275757 
-667280.691403 1:-1.414761 2:-0.654721 3:-0.923576 4:-1.119729 5:0.219218 6:0.726076 7:-0.352597 
-1048576.000000 1:0.705739 2:-0.874893 3:-0.115876 4:1.523691 5:-0.371749 6:-0.854233 7:-0.048030 
-1048576.000000 1:0.705739 2:-0.581331 3:0.000000 4:0.000000 5:1.337263 6:-0.000000 7:-0.347009 
-1048576.000000 1:0.705739 2:-0.140987 3:0.153358 4:1.523691 5:-0.403694 6:-0.881438 7:-0.483576 
-1048576.000000 1:0.705739 2:1.106653 3:0.153358 4:0.730665 5:-0.429249 6:-0.675012 7:-0.514312 
-1048576.000000 1:0.705739 2:-0.581331 3:0.000000 4:0.000000 5:0.000000 6:-0.000000 7:-0.496848 
-1048576.000000 1:-1.414761 2:2.134121 3:0.000000 4:-1.912756 5:-0.734316 6:-0.038336 7:-0.313479 
-1048576.000000 1:0.705739 2:0.886481 3:-0.115876 4:-0.062361 5:-0.365361 6:-0.351520 7:-0.493355 
-1048576.000000 1:0.705739 2:1.253434 3:-0.115876 4:0.730665 5:0.011581 6:-0.267176 7:-0.582071 
-1048576.000000 1:0.705739 2:-0.361159 3:-0.115876 4:0.730665 5:-0.771051 6:-0.991233 7:-0.266676 
-407371.431890 1:0.705739 2:0.446137 3:-0.654343 4:-1.384072 5:-0.702371 6:-0.220074 7:-0.571942 
-1048576.000000 1:0.705739 2:0.372747 3:-0.115876 4:0.201981 5:-0.802996 6:-0.872181 7:-0.486370 
-372114.664588 1:0.705739 2:1.913949 3:1.768759 4:0.000000 5:-0.119391 6:-0.000000 7:-0.589755 
-1048576.000000 1:0.705739 2:0.225966 3:1.499525 4:1.259349 5:0.620117 6:0.088103 7:-0.399051 
-1048576.000000 1:0.705739 2:0.152575 3:-0.385109 4:0.730665 5:-0.467582 6:-0.710476 7:-0.348057 
-1048576.000000 1:0.705739 2:-1.608799 3:-0.654343 4:0.995007 5:-0.365361 6:-0.696775 7:-0.380889 
-1048576.000000 1:0.705739 2:0.152575 3:2.307226 4:0.995007 5:2.662946 6:2.027598 7:0.244663 
-1048576.000000 1:-1.414761 2:0.739700 3:0.422591 4:-2.177098 5:0.378938 6:1.521808 7:-0.357138 
-1048576.000000 1:0.705739 2:-1.168455 3:0.691825 4:0.466323 5:0.602548 6:0.389690 7:-0.011705 
-1048576.000000 1:-1.414761 2:2.280902 3:0.000000 4:0.000000 5:-0.451610 6:-0.000000 7:-0.374602 
-1048576.000000 1:-1.414761 2:0.372747 3:0.287975 4:-2.705782 5:-0.627303 6:0.482438 7:0.359225 
-1048576.000000 1:0.705739 2:0.666309 3:-0.115876 4:1.417955 5:-0.579386 6:-1.003642 7:-0.495451 
-1048576.000000 1:-1.414761 2:2.134121 3:0.000000 4:0.000000 5:0.000000 6:-0.000000 7:0.100761 
-1048576.000000 1:0.705739 2:2.060730 3:0.153358 4:0.995007 5:0.022761 6:-0.347607 7:-0.429089 
-1048576.000000 1:-1.414761 2:-0.434549 3:0.961058 4:-0.855387 5:1.512956 6:2.023667 7:-0.125918 
-141304.699529 1:-1.414761 2:-2.049142 3:0.000000 4:0.000000 5:-0.981883 6:-0.000000 7:-0.476590 
-1048576.000000 1:0.705739 2:1.546996 3:-0.654343 4:-1.119729 5:-1.298130 6:-1.001579 7:-0.432581 
-1048576.000000 1:0.705739 2:-1.241846 3:0.691825 4:0.995007 5:0.514701 6:0.094960 7:-0.460174 
-1048576.000000 1:0.705739 2:0.372747 3:0.530285 4:0.175547 5:0.409285 6:0.326549 7:-0.367966 
-1048576.000000 1:-1.414761 2:1.620387 3:-2.054357 4:-1.648414 5:-0.905217 6:-0.358230 7:-0.444457 
-1048576.000000 1:-1.414761 2:-0.874893 3:0.691825 4:-1.119729 5:1.385179 6:2.053642 7:-0.072828 
-1048576.000000 1:0.705739 2:0.666309 3:0.153358 4:1.788033 5:0.267134 6:-0.395876 7:-0.569497 
-1048576.000000 1:-1.414761 2:0.372747 3:0.000000 4:-1.331203 5:0.691991 6:1.390095 7:-0.045934 
-1048576.000000 1:0.705739 2:-1.021674 3:-0.115876 4:1.523691 5:-0.180084 6:-0.690998 7:-0.506628 
-1048576.000000 1:-1.414761 2:1.033262 3:0.000000 4:-1.648414 5:0.043525 6:0.793085 7:-0.290776 
-1048576.000000 1:0.705739 2:1.033262 3:0.422591 4:-0.062361 5:0.011581 6:0.028658 7:-0.384032 
-987631.018886 1:0.705739 2:0.446137 3:-0.385109 4:0.000000 5:-0.572998 6:-0.000000 7:-0.524441 
-1048576.000000 1:0.705739 2:-0.140987 3:-0.385109 4:-0.035927 5:1.394763 6:1.409131 7:0.043830 
-1048576.000000 1:-1.414761 2:0.519528 3:-1.462043 4:-1.410506 5:-0.892439 6:-0.442997 7:0.035796 
-1048576.000000 1:-1.414761 2:-0.214378 3:-0.385109 4:-0.062361 5:0.479562 6:0.500660 7:-0.195074 
-1048576.000000 1:0.705739 2:1.767168 3:0.961058 4:-1.278335 5:0.233592 6:0.824027 7:-0.431184 
-1048576.000000 1:-1.414761 2:0.886481 3:-2.538977 4:-1.119729 5:-0.435638 6:-0.019544 7:-0.373554 
-1048576.000000 1:-1.414761 2:0.592919 3:0.153358 4:-1.384072 5:0.794212 6:1.538464 7:-0.261786 
-1048576.000000 1:0.705739 2:-0.287768 3:-0.385109 4:1.523691 5:0.203246 6:-0.364530 7:-0.593248 
-1048576.000000 1:0.705739 2:1.033262 3:1.768759 4:0.201981 5:0.602548 6:0.504641 7:-0.028470 
-1048576.000000 1:0.705739 2:-1.021674 3:0.422591 4:1.259349 5:0.378938 6:-0.122966 7:-0.500690 
-1048576.000000 1:0.705739 2:0.299356 3:-0.115876 4:-0.326703 5:-0.882856 6:-0.898621 7:-0.486020 
-1048576.000000 1:-1.414761 2:0.152575 3:-0.385109 4:-0.353137 5:-0.065085 6:-0.495976 7:-0.263882 
-1048576.000000 1:-1.414761 2:-0.434549 3:2.845693 4:-0.881822 5:0.584978 6:1.008642 7:-0.286584 
-1048576.000000 1:0.705739 2:-0.948284 3:-0.385109 4:0.201981 5:-0.595359 6:-0.668787 7:-0.197170 
-1048576.000000 1:-1.414761 2:0.519528 3:-0.923576 4:-1.119729 5:0.011581 6:0.489660 7:-0.411625 
-1048576.000000 1:0.705739 2:-0.287768 3:-0.385109 4:-0.326703 5:-0.180084 6:-0.062916 7:-0.444806 
-1048576.000000 1:0.705739 2:-0.654721 3:3.922627 4:-0.591045 5:2.966415 6:3.412253 7:0.013792 
-1048576.000000 1:0.705739 2:-0.948284 3:0.153358 4:0.704231 5:-0.189668 6:-0.444627 7:-0.452839 
-1048576.000000 1:0.705739 2:-0.801502 3:-0.115876 4:0.466323 5:0.022761 6:-0.162138 7:-0.486719 
-1048576.000000 1:0.705739 2:0.666309 3:-0.923576 4:0.466323 5:-1.245422 6:-1.369168 7:-0.586612 
-1048576.000000 1:0.705739 2:-1.682189 3:-0.115876 4:0.995007 5:-0.180084 6:-0.530094 7:-0.526187 
-1048576.000000 1:0.705739 2:0.592919 3:1.230292 4:2.052376 5:1.391568 6:0.429632 7:-0.218476 
-1048576.000000 1:0.705739 2:1.620387 3:0.153358 4:-0.326703 5:-0.723135 6:-0.627102 7:-0.561813 
-1048576.000000 1:0.705739 2:0.152575 3:-0.115876 4:-0.326703 5:-0.595359 6:-0.494353 7:-0.452141 
-382734.373762 1:0.705739 2:-0.728112 3:0.153358 4:-0.062361 5:-0.365361 6:-0.351520 7:-0.480083 
-1048576.000000 1:0.705739 2:0.739700 3:0.422591 4:0.466323 5:0.650464 6:0.435295 7:-0.483226 
-1048576.000000 1:-1.414761 2:0.372747 3:0.000000 4:0.000000 5:0.000000 6:-0.000000 7:-0.162243 
-1048576.000000 1:0.705739 2:0.666309 3:-0.654343 4:0.466323 5:-0.627303 6:-0.780855 7:-0.255848 
-1048576.000000 1:0.705739 2:1.253434 3:1.230292 4:2.369586 5:1.394763 6:0.309312 7:-0.164687 
-1048576.000000 1:0.705739 2:1.620387 3:0.422591 4:0.201981 5:-0.259945 6:-0.340227 7:-0.128363 
-1048576.000000 1:0.705739 2:-1.902361 3:0.000000 4:1.259349 5:-0.994661 6:-1.325082 7:-0.559019 
-1048576.000000 1:0.705739 2:-0.728112 3:-0.385109 4:-0.062361 5:-0.857301 6:-0.847685 7:0.000000 
-1048576.000000 1:0.705739 2:0.592919 3:-0.654343 4:0.730665 5:-0.894036 6:-1.105013 7:-0.443060 
