svm_type c_svc
kernel_type rbf
gamma 0.000000
nr_class 2
total_sv 556
rho 1.000000 
probA -0.038289
probB 0.078609
label 1 0 
nr_sv 278 278 
SV
1073741824.000000 1:0.705739 2:-1.388627 3:-0.115876 4:0.730665 5:-0.435638 6:-0.680922 
1073741824.000000 1:0.705739 2:1.767168 3:0.000000 4:-0.326703 5:0.267134 6:0.401708 
1073741824.000000 1:-1.414761 2:-0.654721 3:0.961058 4:0.466323 5:2.032049 6:1.750355 
1073741824.000000 1:0.705739 2:0.079185 3:0.153358 4:-0.326703 5:-0.579386 6:-0.477759 
1073741824.000000 1:-1.414761 2:0.446137 3:1.768759 4:0.000000 5:0.000000 6:-0.000000 
1073741824.000000 1:0.705739 2:0.225966 3:2.037992 4:0.704231 5:1.219070 6:0.862355 
1073741824.000000 1:0.705739 2:0.299356 3:-0.654343 4:0.466323 5:0.043525 6:-0.142376 
1073741824.000000 1:-1.414761 2:0.372747 3:0.000000 4:0.000000 5:0.233592 6:-0.000000 
1073741824.000000 1:0.705739 2:0.592919 3:0.691825 4:-1.119729 5:0.378938 6:0.907934 
1073741824.000000 1:0.705739 2:-0.214378 3:1.499525 4:0.995007 5:0.538659 6:0.107990 
1073741824.000000 1:-1.414761 2:0.225966 3:1.499525 4:-0.326703 5:2.768362 6:3.000285 
1073741824.000000 1:0.705739 2:0.592919 3:-0.654343 4:1.259349 5:-0.962716 6:-1.297125 
1073741824.000000 1:0.705739 2:-0.728112 3:0.691825 4:0.466323 5:0.155329 6:-0.035963 
1073741824.000000 1:0.705739 2:0.372747 3:0.691825 4:0.466323 5:0.057900 6:-0.128694 
1073741824.000000 1:0.705739 2:-1.315236 3:-0.546649 4:-0.062361 5:-0.180084 6:-0.368826 
1073741824.000000 1:0.705739 2:-0.581331 3:1.499525 4:0.201981 5:1.321291 6:1.208698 
1073741824.000000 1:0.705739 2:0.005794 3:0.153358 4:0.995007 5:-0.403694 6:-0.731261 
1073741824.000000 1:0.705739 2:-0.948284 3:0.153358 4:-1.912756 5:-0.576192 6:0.159848 
1073741824.000000 1:-1.414761 2:-0.214378 3:0.422591 4:0.000000 5:1.148793 6:-0.000000 
1073741824.000000 1:0.705739 2:1.106653 3:2.576459 4:-1.119729 5:0.826157 6:1.994061 
1073741824.000000 1:-1.414761 2:0.152575 3:-0.923576 4:-2.177098 5:-1.381185 6:-0.758390 
1073741824.000000 1:-1.414761 2:1.400215 3:0.691825 4:-1.384072 5:0.514701 6:1.210028 
1073741824.000000 1:0.705739 2:0.592919 3:0.691825 4:0.466323 5:0.267134 6:0.070450 
1073741824.000000 1:-1.414761 2:1.473606 3:-1.865893 4:-2.177098 5:-1.315699 6:-0.673555 
1073741824.000000 1:0.705739 2:0.299356 3:0.691825 4:0.995007 5:0.490743 6:0.073406 
1073741824.000000 1:0.705739 2:0.225966 3:-0.385109 4:-0.062361 5:-0.739107 6:-0.728477 
1073741824.000000 1:-1.414761 2:-0.581331 3:0.961058 4:-1.648414 5:0.874073 6:1.800744 
1073741824.000000 1:0.705739 2:2.060730 3:1.230292 4:-1.119729 5:-0.180084 6:0.271430 
1073741824.000000 1:0.705739 2:-0.214378 3:1.230292 4:0.466323 5:1.113654 6:0.881491 
1073741824.000000 1:0.705739 2:-1.462018 3:0.153358 4:0.000000 5:-0.611331 6:-0.000000 
1073741824.000000 1:0.705739 2:0.005794 3:0.961058 4:0.000000 5:0.618520 6:-0.000000 
1073741824.000000 1:0.705739 2:-0.361159 3:0.422591 4:-0.326703 5:0.394910 6:0.534458 
1073741824.000000 1:-1.414761 2:0.225966 3:-0.654343 4:-0.062361 5:0.487549 6:0.500039 
1073741824.000000 1:-1.414761 2:-0.140987 3:-0.385109 4:-0.855387 5:1.209487 6:1.688686 
1073741824.000000 1:-1.414761 2:1.253434 3:0.422591 4:-0.643914 5:0.043525 6:0.309312 
1073741824.000000 1:0.705739 2:-1.975752 3:0.691825 4:2.316718 5:0.730324 6:-0.193133 
1073741824.000000 1:0.705739 2:1.473606 3:0.153358 4:0.000000 5:-0.154529 6:-0.000000 
1073741824.000000 1:0.705739 2:-0.287768 3:2.037992 4:1.523691 5:2.056007 6:1.213401 
1073741824.000000 1:0.705739 2:-0.214378 3:1.230292 4:1.788033 5:1.017822 6:0.226523 
1073741824.000000 1:0.705739 2:0.886481 3:-0.115876 4:0.466323 5:-0.323833 6:-0.492019 
1073741824.000000 1:0.705739 2:1.473606 3:-0.115876 4:0.000000 5:-1.069729 6:-0.000000 
1073741824.000000 1:0.705739 2:-1.021674 3:-0.385109 4:0.730665 5:0.163315 6:-0.126797 
1073741824.000000 1:-1.414761 2:0.666309 3:-1.462043 4:-1.912756 5:-1.298130 6:-0.744993 
1073741824.000000 1:-1.414761 2:0.152575 3:-0.923576 4:-1.912756 5:-0.716746 6:-0.016316 
1073741824.000000 1:0.705739 2:-0.287768 3:0.422591 4:0.201981 5:0.043525 6:-0.042959 
1073741824.000000 1:-1.414761 2:-1.755580 3:-1.731277 4:-1.384072 5:-1.210284 6:-0.816889 
1073741824.000000 1:0.705739 2:-0.434549 3:4.730327 4:0.201981 5:1.608789 6:1.347711 
1073741824.000000 1:0.705739 2:0.813090 3:1.230292 4:-0.326703 5:1.257403 6:1.430519 
1073741824.000000 1:-1.414761 2:0.959872 3:0.153358 4:-0.591045 5:0.219218 6:0.468251 
1073741824.000000 1:0.705739 2:1.767168 3:-0.115876 4:-0.591045 5:0.107413 6:0.351287 
1073741824.000000 1:0.705739 2:0.372747 3:-0.385109 4:-0.062361 5:-1.318894 6:-1.313243 
1073741824.000000 1:0.705739 2:1.693777 3:1.230292 4:0.730665 5:0.832545 6:0.492345 
1073741824.000000 1:0.705739 2:0.005794 3:2.037992 4:0.201981 5:0.714352 6:0.614161 
1073741824.000000 1:0.705739 2:-0.654721 3:-0.385109 4:-0.326703 5:0.514701 6:0.658911 
1073741824.000000 1:0.705739 2:0.299356 3:-0.115876 4:1.259349 5:0.490743 6:-0.025120 
1073741824.000000 1:0.705739 2:0.005794 3:0.153358 4:0.000000 5:-0.068280 6:-0.000000 
1073741824.000000 1:0.705739 2:0.152575 3:1.230292 4:0.000000 5:0.490743 6:-0.000000 
1073741824.000000 1:0.705739 2:1.253434 3:-0.923576 4:-0.062361 5:-0.892439 6:-0.883126 
1073741824.000000 1:0.705739 2:-0.801502 3:0.557208 4:0.201981 5:0.267134 6:0.176081 
1073741824.000000 1:-1.414761 2:0.152575 3:-0.115876 4:-1.119729 5:2.375448 6:3.181165 
1073741824.000000 1:0.705739 2:-0.287768 3:-0.385109 4:1.391520 5:0.022761 6:-0.474785 
1073741824.000000 1:0.705739 2:1.033262 3:-0.654343 4:0.201981 5:-0.627303 6:-0.700078 
1073741824.000000 1:0.705739 2:0.225966 3:0.153358 4:0.466323 5:-0.180084 6:-0.355202 
1073741824.000000 1:0.705739 2:-0.434549 3:1.768759 4:-0.591045 5:2.948846 6:2.386110 
1073741824.000000 1:0.705739 2:0.666309 3:1.230292 4:1.259349 5:1.219070 6:0.612281 
1073741824.000000 1:0.705739 2:0.813090 3:-2.538977 4:0.995007 5:1.385179 6:0.878074 
1073741824.000000 1:0.705739 2:0.299356 3:0.153358 4:0.466323 5:0.043525 6:-0.142376 
1073741824.000000 1:-1.414761 2:0.079185 3:-0.115876 4:-1.119729 5:0.936364 6:1.542620 
1073741824.000000 1:0.705739 2:-0.581331 3:0.422591 4:0.201981 5:0.057900 6:-0.028878 
1073741824.000000 1:0.705739 2:-0.214378 3:0.422591 4:0.281284 5:0.198454 6:0.077216 
1073741824.000000 1:0.705739 2:0.519528 3:-0.115876 4:0.201981 5:-0.627303 6:-0.700078 
1073741824.000000 1:-1.414761 2:1.106653 3:-0.923576 4:-1.912756 5:-0.612928 6:0.113805 
1073741824.000000 1:0.705739 2:1.106653 3:0.153358 4:0.466323 5:-0.541053 6:-0.698765 
1073741824.000000 1:-1.414761 2:-0.140987 3:2.307226 4:-0.062361 5:1.271778 6:1.638039 
1073741824.000000 1:0.705739 2:1.546996 3:2.845693 4:0.000000 5:0.267134 6:-0.000000 
1073741824.000000 1:0.705739 2:-1.315236 3:0.422591 4:0.889270 5:0.474771 6:0.099447 
1073741824.000000 1:0.705739 2:0.152575 3:0.153358 4:0.466323 5:0.163315 6:-0.028362 
1073741824.000000 1:0.705739 2:0.299356 3:0.691825 4:0.995007 5:0.410883 6:0.002031 
1073741824.000000 1:0.705739 2:1.180043 3:0.961058 4:0.201981 5:1.219070 6:1.108565 
1073741824.000000 1:0.705739 2:0.446137 3:1.230292 4:0.466323 5:0.057900 6:-0.128694 
1073741824.000000 1:0.705739 2:1.106653 3:-0.115876 4:1.259349 5:-0.154529 6:-0.589834 
1073741824.000000 1:-1.414761 2:2.207511 3:0.000000 4:0.000000 5:-1.393963 6:-0.000000 
1073741824.000000 1:0.705739 2:-1.902361 3:-0.385109 4:0.201981 5:-0.012378 6:-0.097719 
1073741824.000000 1:0.705739 2:0.079185 3:1.230292 4:-0.326703 5:1.078516 6:1.244669 
1073741824.000000 1:0.705739 2:0.666309 3:0.153358 4:0.466323 5:-0.373347 6:-0.539145 
1073741824.000000 1:0.705739 2:0.519528 3:0.422591 4:0.995007 5:0.268731 6:-0.126324 
1073741824.000000 1:-1.414761 2:-0.581331 3:0.691825 4:-0.855387 5:2.407393 6:3.010980 
1073741824.000000 1:0.705739 2:1.840559 3:0.153358 4:0.995007 5:-0.403694 6:-0.731261 
1073741824.000000 1:0.705739 2:-0.948284 3:1.230292 4:1.788033 5:2.381837 6:1.357435 
1073741824.000000 1:0.705739 2:0.592919 3:-0.331262 4:0.000000 5:-0.659247 6:-0.000000 
1073741824.000000 1:-1.414761 2:0.079185 3:1.230292 4:0.730665 5:2.279616 6:1.835123 
1073741824.000000 1:0.705739 2:0.592919 3:0.422591 4:1.523691 5:0.442827 6:-0.160487 
1073741824.000000 1:0.705739 2:1.033262 3:-0.385109 4:-1.119729 5:-1.681460 6:-1.438039 
1073741824.000000 1:0.705739 2:-0.654721 3:0.153358 4:-0.855387 5:0.043525 6:0.401653 
1073741824.000000 1:0.705739 2:-0.361159 3:0.000000 4:0.000000 5:0.000000 6:-0.000000 
1073741824.000000 1:0.705739 2:2.060730 3:-0.654343 4:-0.326703 5:-0.627303 6:-0.527540 
1073741824.000000 1:0.705739 2:-0.728112 3:0.422591 4:1.523691 5:0.602548 6:-0.024459 
1073741824.000000 1:0.705739 2:0.592919 3:1.499525 4:-0.062361 5:0.778240 6:0.801903 
1073741824.000000 1:0.705739 2:0.739700 3:0.961058 4:0.730665 5:0.937961 6:0.589871 
1073741824.000000 1:-1.414761 2:0.886481 3:-0.385109 4:-1.648414 5:0.458799 6:1.296915 
1073741824.000000 1:-1.414761 2:0.152575 3:-0.115876 4:0.466323 5:1.177542 6:0.934471 
1073741824.000000 1:0.705739 2:-0.140987 3:0.422591 4:0.466323 5:0.267134 6:0.070450 
1073741824.000000 1:0.705739 2:0.299356 3:0.153358 4:0.000000 5:-0.365361 6:-0.000000 
1073741824.000000 1:0.705739 2:-0.801502 3:1.499525 4:1.259349 5:1.832398 6:1.146389 
1073741824.000000 1:0.705739 2:1.546996 3:3.384160 4:-0.062361 5:1.528928 6:1.559629 
1073741824.000000 1:0.705739 2:-1.168455 3:0.153358 4:-0.062361 5:-0.403694 6:-0.390182 
1073741824.000000 1:-1.414761 2:-0.361159 3:-0.385109 4:-1.119729 5:-0.739107 6:-0.365075 
1073741824.000000 1:0.705739 2:1.400215 3:0.961058 4:-0.062361 5:0.794212 6:0.817916 
1073741824.000000 1:0.705739 2:0.372747 3:0.153358 4:0.000000 5:0.000000 6:-0.000000 
1073741824.000000 1:-1.414761 2:0.739700 3:-0.923576 4:-1.119729 5:-0.627303 6:-0.237774 
1073741824.000000 1:0.705739 2:0.739700 3:-1.192810 4:0.995007 5:-0.994661 6:-1.258882 
1073741824.000000 1:0.705739 2:-1.095065 3:0.961058 4:0.000000 5:0.762268 6:-0.000000 
1073741824.000000 1:0.705739 2:-0.434549 3:0.961058 4:0.201981 5:0.378938 6:0.288120 
1073741824.000000 1:0.705739 2:-0.654721 3:0.691825 4:0.466323 5:1.572053 6:1.312444 
1073741824.000000 1:0.705739 2:-1.168455 3:0.207205 4:-0.591045 5:-1.074521 6:-0.914140 
1073741824.000000 1:0.705739 2:0.079185 3:2.845693 4:-0.141664 5:11.255925 6:11.502074 
1073741824.000000 1:0.705739 2:-0.728112 3:0.691825 4:0.466323 5:0.378938 6:0.176863 
1073741824.000000 1:0.705739 2:0.666309 3:0.691825 4:0.995007 5:0.043525 6:-0.328927 
1073741824.000000 1:0.705739 2:1.180043 3:0.153358 4:-0.062361 5:-0.259945 6:-0.245199 
1073741824.000000 1:-1.414761 2:0.225966 3:-0.788959 4:-1.648414 5:-0.291889 6:0.386146 
1073741824.000000 1:0.705739 2:0.079185 3:-0.385109 4:0.995007 5:-0.180084 6:-0.530094 
1073741824.000000 1:0.705739 2:0.959872 3:0.691825 4:0.201981 5:-0.084252 6:-0.168124 
1073741824.000000 1:0.705739 2:1.987340 3:0.691825 4:0.201981 5:-0.020364 6:-0.105542 
1073741824.000000 1:0.705739 2:1.987340 3:2.845693 4:0.000000 5:0.522687 6:-0.000000 
1073741824.000000 1:0.705739 2:0.152575 3:0.691825 4:0.201981 5:2.151839 6:2.022275 
1073741824.000000 1:0.705739 2:-0.948284 3:-0.115876 4:0.466323 5:-0.052308 6:-0.233587 
1073741824.000000 1:0.705739 2:-0.067597 3:-0.385109 4:3.374086 5:-0.894036 6:-1.670891 
1073741824.000000 1:-1.414761 2:-0.948284 3:-0.115876 4:-0.458874 5:2.861000 6:3.196816 
1073741824.000000 1:0.705739 2:0.079185 3:2.845693 4:-0.062361 5:0.937961 6:0.962995 
1073741824.000000 1:0.705739 2:-1.021674 3:0.153358 4:1.259349 5:0.057900 6:-0.403926 
1073741824.000000 1:-1.414761 2:1.326824 3:-0.385109 4:-0.062361 5:0.584978 6:0.606981 
1073741824.000000 1:0.705739 2:1.840559 3:0.153358 4:0.000000 5:-0.132168 6:-0.000000 
1073741824.000000 1:-1.414761 2:-0.361159 3:1.499525 4:-0.009493 5:2.276422 6:2.280151 
1073741824.000000 1:0.705739 2:-1.021674 3:0.314898 4:0.000000 5:-0.339805 6:-0.000000 
1073741824.000000 1:-1.414761 2:1.400215 3:0.691825 4:-0.961124 5:1.388374 6:1.953648 
1073741824.000000 1:-1.414761 2:-0.874893 3:0.153358 4:-1.119729 5:2.028854 6:2.786532 
1073741824.000000 1:0.705739 2:-1.095065 3:0.691825 4:0.704231 5:0.663241 6:0.346675 
1073741824.000000 1:0.705739 2:1.913949 3:0.422591 4:-0.062361 5:0.267134 6:0.286406 
1073741824.000000 1:0.705739 2:0.959872 3:0.153358 4:0.704231 5:-0.189668 6:-0.444627 
1073741824.000000 1:0.705739 2:-0.287768 3:-0.115876 4:0.000000 5:0.410883 6:-0.000000 
1073741824.000000 1:0.705739 2:0.886481 3:0.422591 4:-0.062361 5:-0.116196 6:-0.100216 
1073741824.000000 1:0.705739 2:1.620387 3:-0.654343 4:-0.062361 5:-0.291889 6:-0.277418 
1073741824.000000 1:-1.414761 2:0.739700 3:-1.462043 4:-1.384072 5:-0.929175 6:-0.486577 
1073741824.000000 1:-1.414761 2:0.225966 3:-0.385109 4:-0.591045 5:0.043525 6:0.282886 
1073741824.000000 1:0.705739 2:-1.462018 3:-0.115876 4:-2.177098 5:-0.365361 6:0.557586 
1073741824.000000 1:0.705739 2:-0.067597 3:0.961058 4:1.259349 5:0.123385 6:-0.346616 
1073741824.000000 1:0.705739 2:1.913949 3:0.153358 4:0.730665 5:0.160121 6:-0.129753 
1073741824.000000 1:0.705739 2:0.592919 3:-0.115876 4:0.466323 5:0.219218 6:0.024845 
1073741824.000000 1:0.705739 2:-0.728112 3:-0.115876 4:-0.326703 5:0.043525 6:0.169396 
1073741824.000000 1:0.705739 2:1.473606 3:0.153358 4:0.000000 5:0.041927 6:-0.000000 
1073741824.000000 1:-1.414761 2:-0.948284 3:-0.115876 4:-1.119729 5:0.315050 6:0.835191 
1073741824.000000 1:0.705739 2:-0.948284 3:1.230292 4:0.995007 5:0.549840 6:0.126572 
1073741824.000000 1:0.705739 2:-1.241846 3:0.422591 4:-0.591045 5:0.554631 6:0.830098 
1073741824.000000 1:0.705739 2:1.106653 3:1.230292 4:-0.062361 5:0.409285 6:0.429779 
1073741824.000000 1:0.705739 2:1.473606 3:-0.654343 4:-1.384072 5:-1.058549 6:-0.638595 
1073741824.000000 1:0.705739 2:1.546996 3:0.099511 4:0.175547 5:-0.411680 6:-0.368826 
1073741824.000000 1:0.705739 2:-0.801502 3:0.153358 4:1.523691 5:0.043525 6:-0.500558 
1073741824.000000 1:-1.414761 2:1.473606 3:-0.115876 4:-1.119729 5:-0.291889 6:0.144129 
1073741824.000000 1:0.705739 2:-1.168455 3:1.768759 4:1.523691 5:0.902823 6:0.231275 
1073741824.000000 1:-1.414761 2:0.886481 3:0.422591 4:-0.326703 5:1.169556 6:1.339254 
1073741824.000000 1:0.705739 2:-1.608799 3:-0.115876 4:-0.326703 5:-0.505915 6:-0.401428 
1073741824.000000 1:0.705739 2:-0.874893 3:1.230292 4:-0.062361 5:1.501776 6:1.531652 
1073741824.000000 1:0.705739 2:-1.902361 3:0.422591 4:1.788033 5:0.826157 6:0.067613 
1073741824.000000 1:0.705739 2:-0.361159 3:0.153358 4:0.466323 5:0.378938 6:0.176863 
1073741824.000000 1:0.705739 2:-0.801502 3:1.176445 4:-0.353137 5:0.000000 6:-0.000000 
1073741824.000000 1:0.705739 2:-0.801502 3:0.691825 4:0.730665 5:0.506715 6:0.190901 
1073741824.000000 1:0.705739 2:-0.214378 3:-0.654343 4:-0.326703 5:-0.580984 6:-0.479418 
1073741824.000000 1:-1.414761 2:1.620387 3:0.691825 4:-0.591045 5:1.496984 6:1.839019 
1073741824.000000 1:0.705739 2:-1.315236 3:1.499525 4:0.995007 5:1.353235 6:0.849703 
1073741824.000000 1:0.705739 2:0.739700 3:0.153358 4:1.206481 5:0.339008 6:-0.139261 
1073741824.000000 1:0.705739 2:-0.874893 3:0.691825 4:0.466323 5:-3.128531 6:-3.161469 
1073741824.000000 1:0.705739 2:0.666309 3:1.768759 4:0.466323 5:0.490743 6:0.283277 
1073741824.000000 1:0.705739 2:-0.140987 3:-0.385109 4:-0.591045 5:-0.707163 6:-0.520832 
1073741824.000000 1:0.705739 2:0.225966 3:-0.115876 4:-0.062361 5:-0.435638 6:-0.422401 
1073741824.000000 1:0.705739 2:1.546996 3:-0.385109 4:0.466323 5:-0.365361 6:-0.531544 
1073741824.000000 1:0.705739 2:-0.581331 3:0.153358 4:0.000000 5:0.303870 6:-0.000000 
1073741824.000000 1:0.705739 2:-0.287768 3:1.499525 4:0.201981 5:1.832398 6:1.709360 
1073741824.000000 1:0.705739 2:-0.214378 3:-0.385109 4:-0.353137 5:-0.541053 6:-0.428630 
1073741824.000000 1:-1.414761 2:0.225966 3:-0.654343 4:-0.855387 5:-0.243973 6:0.084303 
1073741824.000000 1:-1.414761 2:0.005794 3:-0.923576 4:-1.119729 5:0.522687 6:1.071607 
1073741824.000000 1:0.705739 2:-0.654721 3:0.961058 4:0.466323 5:1.289347 6:1.043371 
1073741824.000000 1:-1.414761 2:-0.140987 3:0.000000 4:0.000000 5:0.000000 6:-0.000000 
1073741824.000000 1:-1.414761 2:-0.434549 3:-0.385109 4:-1.119729 5:-1.074521 6:-0.746977 
1073741824.000000 1:-1.414761 2:1.546996 3:-2.000510 4:-1.119729 5:-1.421115 6:-1.141610 
1073741824.000000 1:0.705739 2:1.180043 3:0.153358 4:-0.591045 5:0.123385 6:0.368388 
1073741824.000000 1:0.705739 2:-0.214378 3:0.691825 4:0.466323 5:0.602548 6:0.389690 
1073741824.000000 1:0.705739 2:0.152575 3:0.422591 4:-0.353137 5:-0.488346 6:-0.373707 
1073741824.000000 1:0.705739 2:0.519528 3:0.153358 4:0.730665 5:0.426855 6:0.117018 
1073741824.000000 1:0.705739 2:1.473606 3:0.153358 4:-0.062361 5:-0.403694 6:-0.390017 
1073741824.000000 1:-1.414761 2:1.326824 3:-0.923576 4:-1.119729 5:-0.224806 6:0.220509 
1073741824.000000 1:0.705739 2:1.987340 3:0.691825 4:0.730665 5:0.621714 6:0.297293 
1073741824.000000 1:-1.414761 2:1.033262 3:-1.462043 4:-0.591045 5:-0.999452 6:-0.833768 
1073741824.000000 1:0.705739 2:-1.168455 3:1.768759 4:0.201981 5:1.311708 6:1.199310 
1073741824.000000 1:0.705739 2:-0.214378 3:-0.385109 4:0.466323 5:-0.691191 6:-0.841662 
1073741824.000000 1:-1.414761 2:0.079185 3:-0.115876 4:-0.591045 5:-0.403694 6:-0.199291 
1073741824.000000 1:0.705739 2:-1.095065 3:-0.923576 4:0.201981 5:-0.435638 6:-0.512330 
1073741824.000000 1:-1.414761 2:1.400215 3:-0.115876 4:-1.119729 5:-0.850912 6:-0.492376 
1073741824.000000 1:0.705739 2:-0.581331 3:1.230292 4:1.417955 5:1.923439 6:1.151157 
1073741824.000000 1:0.705739 2:-0.140987 3:1.230292 4:0.995007 5:0.760671 6:0.316243 
1073741824.000000 1:0.705739 2:0.079185 3:0.961058 4:0.704231 5:0.303870 6:0.013261 
1073741824.000000 1:0.705739 2:0.519528 3:-0.385109 4:0.175547 5:-0.576192 6:-0.641595 
1073741824.000000 1:0.705739 2:-0.067597 3:0.961058 4:1.523691 5:0.378938 6:-0.214899 
1073741824.000000 1:0.705739 2:0.152575 3:2.845693 4:1.259349 5:2.694890 6:1.903856 
1073741824.000000 1:0.705739 2:-1.388627 3:0.961058 4:0.704231 5:0.727130 6:0.405948 
1073741824.000000 1:0.705739 2:0.519528 3:0.422591 4:0.201981 5:0.233592 6:0.143225 
1073741824.000000 1:0.705739 2:0.446137 3:1.768759 4:-1.251901 5:0.584978 6:1.220560 
1073741824.000000 1:0.705739 2:0.079185 3:0.422591 4:0.730665 5:0.043525 6:-0.237622 
1073741824.000000 1:0.705739 2:-0.287768 3:1.230292 4:0.730665 5:0.458799 6:0.146571 
1073741824.000000 1:-1.414761 2:0.666309 3:-0.923576 4:-2.177098 5:-0.523484 6:-0.284058 
1073741824.000000 1:0.705739 2:0.519528 3:-0.115876 4:1.523691 5:0.123385 6:-0.432544 
1073741824.000000 1:0.705739 2:0.372747 3:-0.115876 4:0.201981 5:-0.387721 6:-0.465393 
1073741824.000000 1:0.705739 2:0.519528 3:0.422591 4:0.809968 5:-0.068280 6:-0.368826 
1073741824.000000 1:0.705739 2:1.767168 3:0.422591 4:0.201981 5:0.128177 6:0.039964 
1073741824.000000 1:0.705739 2:0.886481 3:1.499525 4:-0.591045 5:0.128177 6:0.373518 
1073741824.000000 1:0.705739 2:0.886481 3:2.845693 4:0.995007 5:1.385179 6:0.878074 
1073741824.000000 1:0.705739 2:1.253434 3:1.768759 4:0.000000 5:0.826157 6:-0.000000 
1073741824.000000 1:0.705739 2:0.446137 3:1.499525 4:2.316718 5:0.874073 6:-0.080061 
1073741824.000000 1:-1.414761 2:0.079185 3:-0.654343 4:-1.119729 5:-0.004392 6:0.471474 
1073741824.000000 1:-1.414761 2:-0.801502 3:-0.115876 4:-1.384072 5:1.993716 6:2.809946 
1073741824.000000 1:-1.414761 2:0.739700 3:1.230292 4:-1.912756 5:0.714352 6:1.777350 
1073741824.000000 1:-1.414761 2:-0.434549 3:-1.192810 4:-0.591045 5:-0.627303 6:-0.435330 
1073741824.000000 1:0.705739 2:-0.361159 3:0.422591 4:1.523691 5:0.346994 6:-0.242104 
1073741824.000000 1:0.705739 2:-0.361159 3:0.961058 4:0.995007 5:0.762268 6:0.317680 
1073741824.000000 1:0.705739 2:1.326824 3:-0.385109 4:0.466323 5:-0.788621 6:-0.934394 
1073741824.000000 1:0.705739 2:-0.067597 3:0.153358 4:0.598494 5:-0.224806 6:-0.442288 
1073741824.000000 1:0.705739 2:0.959872 3:-0.115876 4:0.175547 5:-0.365361 6:-0.434472 
1073741824.000000 1:0.705739 2:-0.948284 3:-0.385109 4:0.995007 5:-0.197654 6:-0.479023 
1073741824.000000 1:0.705739 2:-0.287768 3:0.422591 4:0.466323 5:0.123385 6:-0.066367 
1073741824.000000 1:0.705739 2:1.033262 3:-0.385109 4:0.995007 5:-0.611331 6:-0.918059 
1073741824.000000 1:0.705739 2:0.005794 3:2.307226 4:2.581060 5:1.608789 6:0.394797 
1073741824.000000 1:-1.414761 2:-0.287768 3:0.422591 4:-1.119729 5:-0.180084 6:0.271430 
1073741824.000000 1:-1.414761 2:2.207511 3:-1.192810 4:-0.591045 5:-0.850912 6:-0.674735 
1073741824.000000 1:0.705739 2:-0.801502 3:0.153358 4:0.995007 5:0.163315 6:-0.221160 
1073741824.000000 1:0.705739 2:0.225966 3:0.153358 4:-0.591045 5:0.163315 6:0.411139 
1073741824.000000 1:-1.414761 2:0.446137 3:1.230292 4:-1.119729 5:0.902503 6:1.504066 
1073741824.000000 1:-1.414761 2:1.546996 3:-0.923576 4:0.201981 5:-1.104868 6:-1.167885 
1073741824.000000 1:0.705739 2:-0.581331 3:1.499525 4:-0.326703 5:0.339008 6:0.476380 
1073741824.000000 1:0.705739 2:0.372747 3:0.422591 4:0.995007 5:-0.275917 6:-0.616309 
1073741824.000000 1:0.705739 2:1.253434 3:-0.385109 4:0.201981 5:-0.435638 6:-0.512330 
1073741824.000000 1:0.705739 2:-0.728112 3:0.153358 4:-0.062361 5:-0.291889 6:-0.277418 
1073741824.000000 1:0.705739 2:0.813090 3:1.768759 4:0.000000 5:-0.596956 6:-0.000000 
1073741824.000000 1:0.705739 2:1.033262 3:-0.385109 4:0.466323 5:-0.180084 6:-0.355202 
1073741824.000000 1:0.705739 2:1.326824 3:0.287975 4:-0.855387 5:-0.470776 6:-0.166051 
1073741824.000000 1:0.705739 2:-0.140987 3:0.691825 4:0.995007 5:0.163315 6:-0.221160 
1073741824.000000 1:0.705739 2:0.079185 3:-0.115876 4:0.201981 5:-0.005989 6:-0.091460 
1073741824.000000 1:-1.414761 2:1.473606 3:-1.731277 4:-0.855387 5:-1.028202 6:-0.781359 
1073741824.000000 1:-1.414761 2:-0.287768 3:-0.385109 4:-1.912756 5:-0.052308 6:0.816458 
1073741824.000000 1:0.705739 2:0.152575 3:0.153358 4:-0.353137 5:-0.435638 6:-0.318784 
1073741824.000000 1:-1.414761 2:0.959872 3:-0.654343 4:-0.141664 5:-0.327028 6:-0.284126 
1073741824.000000 1:0.705739 2:1.033262 3:-0.115876 4:-0.591045 5:-0.739107 6:-0.555032 
1073741824.000000 1:0.705739 2:-0.287768 3:0.961058 4:1.523691 5:1.832398 6:1.022961 
1073741824.000000 1:0.705739 2:0.592919 3:0.961058 4:0.995007 5:0.937961 6:0.621891 
1073741824.000000 1:0.705739 2:-0.067597 3:0.691825 4:-0.326703 5:0.155329 6:0.285552 
1073741824.000000 1:0.705739 2:-1.975752 3:-0.385109 4:1.259349 5:-0.563414 6:-0.947673 
1073741824.000000 1:0.705739 2:1.840559 3:1.230292 4:2.475323 5:0.973100 6:-0.056781 
1073741824.000000 1:0.705739 2:1.253434 3:0.691825 4:0.000000 5:0.067483 6:-0.000000 
1073741824.000000 1:0.705739 2:1.987340 3:0.691825 4:-0.062361 5:-0.277514 6:-0.262919 
1073741824.000000 1:0.705739 2:-0.874893 3:-0.385109 4:-0.591045 5:-0.646469 6:-0.368826 
1073741824.000000 1:0.705739 2:-0.214378 3:-1.192810 4:-0.670348 5:-0.894036 6:-0.695032 
1073741824.000000 1:-1.414761 2:-0.140987 3:-0.385109 4:-1.648414 5:0.155329 6:0.928732 
1073741824.000000 1:0.705739 2:1.180043 3:0.422591 4:0.598494 5:-0.400499 6:-0.607145 
1073741824.000000 1:0.705739 2:-0.214378 3:0.961058 4:1.523691 5:0.490743 6:-0.119679 
1073741824.000000 1:0.705739 2:1.033262 3:0.422591 4:0.201981 5:0.093038 6:0.005543 
1073741824.000000 1:-1.414761 2:1.033262 3:0.153358 4:0.000000 5:0.000000 6:0.607057 
1073741824.000000 1:0.705739 2:0.813090 3:0.691825 4:-0.062361 5:0.490743 6:0.511936 
1073741824.000000 1:-1.414761 2:-0.140987 3:1.230292 4:-0.591045 5:1.512956 6:1.856120 
1073741824.000000 1:0.705739 2:-0.361159 3:-0.385109 4:-0.062361 5:-0.612928 6:-0.474785 
1073741824.000000 1:0.705739 2:-1.168455 3:1.391832 4:0.704231 5:2.452114 6:2.006334 
1073741824.000000 1:0.705739 2:0.079185 3:1.499525 4:0.201981 5:0.602548 6:0.504641 
1073741824.000000 1:0.705739 2:0.739700 3:0.153358 4:-0.326703 5:-0.090641 6:0.030009 
1073741824.000000 1:0.705739 2:0.519528 3:0.691825 4:0.000000 5:-0.012378 6:-0.104988 
1073741824.000000 1:0.705739 2:0.739700 3:0.691825 4:0.466323 5:3.297038 6:2.954247 
1073741824.000000 1:0.705739 2:1.473606 3:1.230292 4:0.730665 5:1.564067 6:1.169117 
1073741824.000000 1:-1.414761 2:1.767168 3:-0.923576 4:-0.855387 5:-0.627303 6:-0.338831 
1073741824.000000 1:0.705739 2:0.886481 3:0.287975 4:0.000000 5:-0.403694 6:-0.000000 
1073741824.000000 1:0.705739 2:-0.581331 3:0.691825 4:-0.062361 5:0.394910 6:0.415280 
1073741824.000000 1:0.705739 2:1.326824 3:3.922627 4:-0.326703 5:1.496984 6:1.679425 
1073741824.000000 1:-1.414761 2:1.473606 3:-1.462043 4:-2.705782 5:-1.186326 6:-0.292569 
-1073741824.000000 1:0.705739 2:-0.287768 3:-0.385109 4:0.995007 5:-0.576192 6:-0.886447 
-1073741824.000000 1:-1.414761 2:-0.654721 3:-2.538977 4:-1.119729 5:-1.561669 6:-1.301645 
-1073741824.000000 1:0.705739 2:1.840559 3:1.230292 4:-0.062361 5:0.602548 6:0.624701 
-1073741824.000000 1:-1.414761 2:-1.388627 3:-0.923576 4:1.259349 5:0.444424 6:-0.065656 
-1073741824.000000 1:0.705739 2:0.446137 3:0.422591 4:0.201981 5:-0.224806 6:-0.305807 
-1073741824.000000 1:0.705739 2:-0.581331 3:0.153358 4:0.995007 5:-0.451610 6:-0.898621 
-1073741824.000000 1:-1.414761 2:-0.581331 3:-2.000510 4:-1.384072 5:-1.298130 6:-0.920112 
-1073741824.000000 1:0.705739 2:0.446137 3:-0.654343 4:-1.384072 5:-0.702371 6:-0.220074 
-1073741824.000000 1:0.705739 2:1.400215 3:-0.385109 4:0.730665 5:-0.627303 6:-0.858242 
-1073741824.000000 1:0.705739 2:0.372747 3:-0.115876 4:0.201981 5:-0.802996 6:-0.872181 
-1073741824.000000 1:-1.414761 2:0.813090 3:-1.731277 4:-1.119729 5:-1.362018 6:-1.074322 
-1073741824.000000 1:0.705739 2:1.913949 3:1.768759 4:0.000000 5:-0.119391 6:-0.000000 
-1073741824.000000 1:0.705739 2:0.225966 3:1.499525 4:1.259349 5:0.620117 6:0.088103 
-1073741824.000000 1:-1.414761 2:-0.287768 3:-0.654343 4:0.000000 5:-0.751885 6:-0.000000 
-1073741824.000000 1:-1.414761 2:-1.021674 3:-1.731277 4:-0.062361 5:0.487549 6:0.508714 
-1073741824.000000 1:0.705739 2:0.152575 3:-0.385109 4:0.730665 5:-0.467582 6:-0.710476 
-1073741824.000000 1:-1.414761 2:-0.067597 3:-0.385109 4:-0.591045 5:-0.012378 6:0.223034 
-1073741824.000000 1:0.705739 2:-1.388627 3:1.768759 4:1.523691 5:1.065738 6:0.370024 
-1073741824.000000 1:0.705739 2:1.400215 3:0.422591 4:0.000000 5:-0.371749 6:-0.000000 
-1073741824.000000 1:0.705739 2:-1.462018 3:-0.115876 4:-0.062361 5:-0.365361 6:-0.351520 
-1073741824.000000 1:-1.414761 2:-1.755580 3:-1.462043 4:-1.384072 5:-1.409935 6:-1.051486 
-1073741824.000000 1:0.705739 2:0.446137 3:-0.654343 4:0.730665 5:-0.579386 6:-0.813912 
-1073741824.000000 1:-1.414761 2:-1.535408 3:-1.192810 4:-1.648414 5:-0.467582 6:0.172988 
-1073741824.000000 1:-1.414761 2:-0.507940 3:-0.923576 4:-1.912756 5:0.937961 6:2.057611 
-1073741824.000000 1:-1.414761 2:-1.902361 3:0.000000 4:0.000000 5:0.000000 6:-0.000000 
-1073741824.000000 1:0.705739 2:-1.608799 3:-0.654343 4:0.995007 5:-0.365361 6:-0.696775 
-1073741824.000000 1:0.705739 2:0.152575 3:2.307226 4:0.995007 5:2.662946 6:2.027598 
-1073741824.000000 1:0.705739 2:-1.095065 3:0.691825 4:3.374086 5:0.936364 6:-0.368826 
-1073741824.000000 1:-1.414761 2:-1.095065 3:0.000000 4:0.730665 5:-1.441879 6:-1.608546 
-1073741824.000000 1:0.705739 2:-0.801502 3:0.961058 4:2.581060 5:1.385179 6:0.223389 
-1073741824.000000 1:-1.414761 2:-0.287768 3:-1.462043 4:-2.441440 5:-1.186326 6:-0.401974 
-1073741824.000000 1:-1.414761 2:0.739700 3:0.422591 4:-2.177098 5:0.378938 6:1.521808 
-1073741824.000000 1:-1.414761 2:-0.214378 3:0.000000 4:-1.119729 5:-1.010633 6:-0.674234 
-1073741824.000000 1:0.705739 2:-0.214378 3:-0.654343 4:1.206481 5:-0.646469 6:-1.006454 
-1073741824.000000 1:0.705739 2:-1.168455 3:0.691825 4:0.466323 5:0.602548 6:0.389690 
-1073741824.000000 1:-1.414761 2:2.280902 3:0.000000 4:0.000000 5:-0.451610 6:-0.000000 
-1073741824.000000 1:-1.414761 2:-0.507940 3:-0.331262 4:-0.062361 5:0.374147 6:0.394338 
-1073741824.000000 1:-1.414761 2:-1.975752 3:-0.115876 4:0.995007 5:2.142256 6:1.559167 
-1073741824.000000 1:-1.414761 2:0.372747 3:0.287975 4:-2.705782 5:-0.627303 6:0.482438 
-1073741824.000000 1:0.705739 2:-0.581331 3:1.230292 4:-0.326703 5:1.148793 6:1.317682 
-1073741824.000000 1:-1.414761 2:-0.434549 3:-0.923576 4:-0.591045 5:0.953933 6:0.923875 
-1073741824.000000 1:0.705739 2:0.225966 3:-0.654343 4:-1.119729 5:-0.914800 6:-0.565119 
-1073741824.000000 1:0.705739 2:-0.361159 3:0.422591 4:0.730665 5:-0.403694 6:-0.651369 
-1073741824.000000 1:0.705739 2:0.666309 3:-0.115876 4:1.417955 5:-0.579386 6:-1.003642 
-1073741824.000000 1:0.705739 2:-0.140987 3:0.153358 4:1.523691 5:-0.180084 6:-0.690998 
-1073741824.000000 1:-1.414761 2:-0.361159 3:-2.000510 4:-1.384072 5:-0.866884 6:-0.413382 
-1073741824.000000 1:0.705739 2:0.959872 3:-0.654343 4:1.259349 5:-0.295083 6:-0.712842 
-1073741824.000000 1:0.705739 2:1.106653 3:0.691825 4:1.259349 5:0.969905 6:0.394223 
-1073741824.000000 1:0.705739 2:-0.654721 3:0.422591 4:0.175547 5:-0.036336 6:-0.111234 
-1073741824.000000 1:-1.414761 2:0.152575 3:0.153358 4:0.000000 5:0.000000 6:0.266929 
-1073741824.000000 1:0.705739 2:-0.654721 3:-1.462043 4:-0.591045 5:-1.104868 6:-0.946631 
-1073741824.000000 1:-1.414761 2:2.134121 3:0.000000 4:0.000000 5:0.000000 6:-0.000000 
-1073741824.000000 1:0.705739 2:-0.654721 3:-0.654343 4:0.730665 5:-0.315847 6:-0.570097 
-1073741824.000000 1:0.705739 2:2.060730 3:0.153358 4:0.995007 5:0.022761 6:-0.347607 
-1073741824.000000 1:-1.414761 2:0.079185 3:-0.923576 4:-0.591045 5:-0.547442 6:-0.349828 
-1073741824.000000 1:0.705739 2:0.299356 3:0.153358 4:1.417955 5:0.057900 6:-0.454973 
-1073741824.000000 1:0.705739 2:1.180043 3:0.691825 4:0.995007 5:0.267134 6:-0.127761 
-1073741824.000000 1:-1.414761 2:-0.434549 3:0.961058 4:-0.855387 5:1.512956 6:2.023667 
-1073741824.000000 1:-1.414761 2:-0.140987 3:-1.731277 4:-0.591045 5:-1.175145 6:-1.021872 
-1073741824.000000 1:-1.414761 2:-2.049142 3:0.000000 4:0.000000 5:-0.981883 6:-0.000000 
-1073741824.000000 1:0.705739 2:-2.049142 3:0.000000 4:1.788033 5:-0.660844 6:-1.165267 
-1073741824.000000 1:0.705739 2:1.546996 3:-0.654343 4:-1.119729 5:-1.298130 6:-1.001579 
-1073741824.000000 1:-1.414761 2:-0.948284 3:-0.762036 4:-0.961124 5:-0.365361 6:-0.006238 
-1073741824.000000 1:0.705739 2:1.326824 3:-0.115876 4:0.995007 5:-0.371749 6:-0.702523 
-1073741824.000000 1:0.705739 2:-1.021674 3:0.153358 4:2.052376 5:0.155329 6:-0.568544 
-1073741824.000000 1:0.705739 2:-0.507940 3:0.422591 4:1.788033 5:0.043525 6:-0.581271 
-1073741824.000000 1:0.705739 2:1.253434 3:0.422591 4:0.201981 5:0.057900 6:-0.050948 
-1073741824.000000 1:0.705739 2:-1.241846 3:0.691825 4:0.995007 5:0.514701 6:0.094960 
-1073741824.000000 1:-1.414761 2:0.813090 3:-2.000510 4:-2.441440 5:-1.245422 6:-0.481150 
-1073741824.000000 1:0.705739 2:-1.095065 3:0.961058 4:1.259349 5:1.241431 6:0.631850 
-1073741824.000000 1:0.705739 2:-1.902361 3:-0.923576 4:0.995007 5:0.409285 6:0.000124 
-1073741824.000000 1:-1.414761 2:-0.361159 3:-0.115876 4:-1.648414 5:1.161570 6:2.149549 
-1073741824.000000 1:-1.414761 2:-0.214378 3:0.000000 4:0.000000 5:0.160121 6:-0.000000 
-1073741824.000000 1:0.705739 2:-0.728112 3:0.153358 4:0.995007 5:-0.365361 6:-0.696775 
-1073741824.000000 1:0.705739 2:0.959872 3:-0.385109 4:-0.062361 5:-0.755079 6:-0.744586 
-1073741824.000000 1:0.705739 2:0.005794 3:0.000000 4:0.000000 5:0.000000 6:-0.000000 
-1073741824.000000 1:-1.414761 2:-1.241846 3:0.000000 4:-0.749651 5:0.187273 6:0.510232 
-1073741824.000000 1:-1.414761 2:-0.214378 3:-0.385109 4:-1.119729 5:0.128177 6:0.622417 
-1073741824.000000 1:0.705739 2:0.372747 3:0.530285 4:0.175547 5:0.409285 6:0.326549 
-1073741824.000000 1:0.705739 2:-1.168455 3:-0.923576 4:1.021441 5:-0.505915 6:-0.830775 
-1073741824.000000 1:0.705739 2:0.446137 3:-0.115876 4:0.466323 5:-0.898828 6:-1.039287 
-1073741824.000000 1:0.705739 2:0.299356 3:0.691825 4:0.466323 5:-0.052308 6:-0.233587 
-1073741824.000000 1:-1.414761 2:-1.168455 3:0.000000 4:0.000000 5:-0.935564 6:-0.000000 
-1073741824.000000 1:0.705739 2:-1.828971 3:-0.923576 4:0.466323 5:-1.245422 6:-1.369168 
-1073741824.000000 1:-1.414761 2:0.813090 3:-1.462043 4:-1.119729 5:-1.633544 6:-1.383482 
-1073741824.000000 1:0.705739 2:-1.021674 3:0.422591 4:0.000000 5:0.000000 6:-0.000000 
-1073741824.000000 1:-1.414761 2:1.620387 3:-2.054357 4:-1.648414 5:-0.905217 6:-0.358230 
-1073741824.000000 1:-1.414761 2:-0.874893 3:0.691825 4:-1.119729 5:1.385179 6:2.053642 
-1073741824.000000 1:0.705739 2:0.666309 3:0.153358 4:1.788033 5:0.267134 6:-0.395876 
-1073741824.000000 1:-1.414761 2:1.180043 3:-1.246656 4:-0.961124 5:-0.929175 6:-0.636328 
-1073741824.000000 1:-1.414761 2:0.152575 3:-0.654343 4:-1.066861 5:1.359624 6:1.989882 
-1073741824.000000 1:0.705739 2:-1.388627 3:0.000000 4:0.000000 5:0.000000 6:-0.000000 
-1073741824.000000 1:-1.414761 2:-1.902361 3:-1.192810 4:0.069810 5:0.727130 6:0.687838 
-1073741824.000000 1:-1.414761 2:0.372747 3:0.000000 4:-1.331203 5:0.691991 6:1.390095 
-1073741824.000000 1:0.705739 2:-2.049142 3:-0.385109 4:-0.062361 5:-0.914800 6:-0.905679 
-1073741824.000000 1:0.705739 2:-1.021674 3:-0.115876 4:1.523691 5:-0.180084 6:-0.690998 
-1073741824.000000 1:-1.414761 2:-1.975752 3:0.000000 4:-1.674848 5:2.099131 6:3.318549 
-1073741824.000000 1:0.705739 2:0.372747 3:-0.923576 4:0.175547 5:-1.140006 6:-1.195493 
-1073741824.000000 1:0.705739 2:-0.434549 3:-0.385109 4:-0.855387 5:-0.839731 6:-0.573318 
-1073741824.000000 1:0.705739 2:-1.021674 3:-0.115876 4:0.201981 5:-0.132168 6:-0.215061 
-1073741824.000000 1:-1.414761 2:-0.948284 3:0.000000 4:-1.384072 5:-1.074521 6:-0.657363 
-1073741824.000000 1:0.705739 2:-0.581331 3:1.230292 4:-0.062361 5:1.720593 6:1.752349 
-1073741824.000000 1:0.705739 2:-0.140987 3:-0.115876 4:-0.326703 5:-0.403694 6:-0.295228 
-1073741824.000000 1:-1.414761 2:0.005794 3:-1.462043 4:-0.062361 5:1.161570 6:1.188525 
-1073741824.000000 1:-1.414761 2:1.033262 3:0.000000 4:-1.648414 5:0.043525 6:0.793085 
-1073741824.000000 1:0.705739 2:1.473606 3:1.230292 4:0.730665 5:1.043377 6:0.687398 
-1073741824.000000 1:0.705739 2:0.005794 3:0.153358 4:0.201981 5:-0.146543 6:-0.229143 
-1073741824.000000 1:-1.414761 2:0.152575 3:-0.923576 4:-0.326703 5:-0.140154 6:-0.021431 
-1073741824.000000 1:0.705739 2:-0.654721 3:-0.385109 4:-1.119729 5:-0.627303 6:-0.237774 
-1073741824.000000 1:0.705739 2:-0.581331 3:0.691825 4:2.845402 5:0.490743 6:-0.539861 
-1073741824.000000 1:0.705739 2:1.326824 3:0.427976 4:0.201981 5:-0.355777 6:-0.434101 
-1073741824.000000 1:0.705739 2:-0.361159 3:0.422591 4:-0.326703 5:0.315050 6:0.451490 
-1073741824.000000 1:0.705739 2:-1.315236 3:-0.654343 4:0.201981 5:-0.857301 6:-0.925377 
-1073741824.000000 1:0.705739 2:1.033262 3:0.422591 4:-0.062361 5:0.011581 6:0.028658 
-1073741824.000000 1:-1.414761 2:-1.095065 3:-2.000510 4:-1.384072 5:-1.138409 6:-0.732434 
-1073741824.000000 1:0.705739 2:1.033262 3:0.961058 4:1.259349 5:0.714352 6:0.170573 
-1073741824.000000 1:-1.414761 2:0.005794 3:-0.654343 4:-1.648414 5:-0.579386 6:0.037342 
-1073741824.000000 1:0.705739 2:0.152575 3:-0.115876 4:0.704231 5:-0.612928 6:-0.837314 
-1073741824.000000 1:-1.414761 2:-0.067597 3:-0.385109 4:0.000000 5:-0.291889 6:-0.000000 
-1073741824.000000 1:-1.414761 2:-2.049142 3:-0.923576 4:-0.591045 5:-0.644872 6:-0.454140 
-1073741824.000000 1:0.705739 2:-0.507940 3:-1.192810 4:0.000000 5:-1.138409 6:-0.000000 
-1073741824.000000 1:0.705739 2:-1.241846 3:-0.654343 4:1.259349 5:-1.146395 6:-1.457873 
-1073741824.000000 1:0.705739 2:0.079185 3:-0.546649 4:-2.018493 5:-0.929175 6:-0.239318 
-1073741824.000000 1:0.705739 2:-0.214378 3:-0.654343 4:0.466323 5:-1.074521 6:-1.206508 
-1073741824.000000 1:0.705739 2:0.446137 3:-0.385109 4:0.000000 5:-0.572998 6:-0.000000 
-1073741824.000000 1:-1.414761 2:0.592919 3:0.000000 4:-1.384072 5:-0.180084 6:0.393631 
-1073741824.000000 1:0.705739 2:-0.140987 3:-0.385109 4:-0.035927 5:1.394763 6:1.409131 
-1073741824.000000 1:-1.414761 2:-2.342705 3:-0.977423 4:-1.384072 5:-1.703821 6:-1.396813 
-1073741824.000000 1:0.705739 2:0.005794 3:-0.654343 4:-0.326703 5:-0.994661 6:-0.909196 
-1073741824.000000 1:-1.414761 2:1.033262 3:-1.731277 4:-1.119729 5:-1.681460 6:-1.438039 
-1073741824.000000 1:0.705739 2:1.106653 3:-0.385109 4:0.730665 5:-0.132168 6:-0.400166 
-1073741824.000000 1:-1.414761 2:-0.214378 3:-0.923576 4:-1.119729 5:-0.323833 6:0.107757 
-1073741824.000000 1:-1.414761 2:0.886481 3:-1.731277 4:-1.119729 5:-0.788621 6:-0.421451 
-1073741824.000000 1:-1.414761 2:0.519528 3:-1.462043 4:-1.410506 5:-0.892439 6:-0.442997 
-1073741824.000000 1:-1.414761 2:-0.214378 3:-0.385109 4:-0.062361 5:0.479562 6:0.500660 
-1073741824.000000 1:0.705739 2:1.767168 3:0.961058 4:-1.278335 5:0.233592 6:0.824027 
-1073741824.000000 1:-1.414761 2:-0.434549 3:0.000000 4:-0.591045 5:0.490743 6:0.761696 
-1073741824.000000 1:-1.414761 2:-1.755580 3:0.000000 4:-0.617479 5:0.420466 6:0.690765 
-1073741824.000000 1:0.705739 2:-0.287768 3:0.153358 4:-0.564611 5:0.169704 6:0.405989 
-1073741824.000000 1:0.705739 2:-1.608799 3:-0.923576 4:-0.326703 5:-0.804593 6:-0.711730 
-1073741824.000000 1:-1.414761 2:-2.562876 3:-2.000510 4:-1.278335 5:-1.596808 6:-1.299704 
-1073741824.000000 1:0.705739 2:-0.948284 3:0.000000 4:0.000000 5:0.027553 6:-0.000000 
-1073741824.000000 1:-1.414761 2:-0.140987 3:-0.923576 4:0.466323 5:-0.451610 6:-0.613634 
-1073741824.000000 1:-1.414761 2:-0.801502 3:-2.538977 4:-0.881822 5:-1.844375 6:-1.676529 
-1073741824.000000 1:0.705739 2:-1.388627 3:0.691825 4:0.995007 5:-0.212029 6:-0.558832 
-1073741824.000000 1:-1.414761 2:0.886481 3:-2.538977 4:-1.119729 5:-0.435638 6:-0.019544 
-1073741824.000000 1:-1.414761 2:-1.388627 3:0.000000 4:0.201981 5:0.757477 6:0.656404 
-1073741824.000000 1:-1.414761 2:-0.654721 3:0.000000 4:0.000000 5:0.000000 6:-0.898621 
-1073741824.000000 1:-1.414761 2:0.299356 3:-1.731277 4:-0.855387 5:-0.850912 6:-0.585659 
-1073741824.000000 1:0.705739 2:1.620387 3:-0.654343 4:-0.062361 5:-1.186326 6:-1.179536 
-1073741824.000000 1:-1.414761 2:0.592919 3:0.153358 4:-1.384072 5:0.794212 6:1.538464 
-1073741824.000000 1:-1.414761 2:1.180043 3:-1.731277 4:-1.384072 5:-1.409935 6:-1.051486 
-1073741824.000000 1:-1.414761 2:0.592919 3:0.000000 4:-0.855387 5:-0.723135 6:-0.444615 
-1073741824.000000 1:0.705739 2:-0.287768 3:-0.385109 4:1.523691 5:0.203246 6:-0.364530 
-1073741824.000000 1:0.705739 2:-1.682189 3:-0.115876 4:1.735165 5:-0.435638 6:-0.964790 
-1073741824.000000 1:0.705739 2:-0.287768 3:0.422591 4:0.995007 5:-0.116196 6:-0.472618 
-1073741824.000000 1:0.705739 2:-1.535408 3:0.000000 4:0.783534 5:-0.307861 6:-0.580744 
-1073741824.000000 1:0.705739 2:-1.241846 3:0.153358 4:1.788033 5:-0.400499 6:-0.949413 
-1073741824.000000 1:0.705739 2:-0.140987 3:-0.654343 4:-0.035927 5:-0.798204 6:-0.796179 
-1073741824.000000 1:0.705739 2:-0.654721 3:-0.115876 4:0.466323 5:-0.499526 6:-0.659240 
-1073741824.000000 1:0.705739 2:1.033262 3:1.768759 4:0.201981 5:0.602548 6:0.504641 
-1073741824.000000 1:0.705739 2:-0.067597 3:2.576459 4:0.492757 5:4.212238 6:3.804294 
-1073741824.000000 1:0.705739 2:0.886481 3:0.422591 4:0.466323 5:-0.280709 6:-0.450974 
-1073741824.000000 1:0.705739 2:-1.021674 3:0.422591 4:1.259349 5:0.378938 6:-0.122966 
-1073741824.000000 1:0.705739 2:1.180043 3:-0.385109 4:0.730665 5:-0.739107 6:-0.961679 
-1073741824.000000 1:0.705739 2:1.987340 3:1.230292 4:0.995007 5:-0.371749 6:-0.702523 
-1073741824.000000 1:-1.414761 2:1.106653 3:-1.462043 4:-1.119729 5:-0.882856 6:-0.528747 
-1073741824.000000 1:-1.414761 2:0.813090 3:-3.077444 4:-2.441440 5:-2.352287 6:-1.964086 
-1073741824.000000 1:0.705739 2:0.299356 3:-0.115876 4:1.259349 5:-0.355777 6:-0.765958 
-1073741824.000000 1:0.705739 2:0.299356 3:-0.115876 4:-0.326703 5:-0.882856 6:-0.898621 
-1073741824.000000 1:-1.414761 2:0.225966 3:-0.654343 4:-0.326703 5:0.339008 6:0.476380 
-1073741824.000000 1:0.705739 2:-1.021674 3:0.422591 4:-0.326703 5:0.339008 6:0.476380 
-1073741824.000000 1:0.705739 2:-0.214378 3:0.422591 4:1.788033 5:0.187273 6:-0.462088 
-1073741824.000000 1:0.705739 2:0.079185 3:-0.115876 4:0.730665 5:-0.068280 6:-0.341059 
-1073741824.000000 1:-1.414761 2:0.446137 3:0.000000 4:-0.855387 5:-1.403546 6:-1.216498 
-1073741824.000000 1:0.705739 2:0.886481 3:-0.923576 4:0.730665 5:-0.716746 6:-0.940992 
-1073741824.000000 1:-1.414761 2:0.886481 3:0.000000 4:-0.326703 5:-0.850912 6:-0.759852 
-1073741824.000000 1:-1.414761 2:-1.168455 3:-1.462043 4:-0.855387 5:-0.505915 6:-0.368826 
-1073741824.000000 1:0.705739 2:1.180043 3:0.153358 4:0.995007 5:0.339008 6:-0.063100 
-1073741824.000000 1:-1.414761 2:0.152575 3:-0.385109 4:-0.353137 5:-0.065085 6:-0.495976 
-1073741824.000000 1:-1.414761 2:-0.214378 3:-0.115876 4:-1.119729 5:0.826157 6:1.417138 
-1073741824.000000 1:-1.414761 2:-0.434549 3:-1.731277 4:-1.119729 5:-0.771051 6:-0.401446 
-1073741824.000000 1:0.705739 2:0.519528 3:0.422591 4:1.788033 5:-0.291889 6:-0.859364 
-1073741824.000000 1:-1.414761 2:-0.434549 3:2.845693 4:-0.881822 5:0.584978 6:1.008642 
-1073741824.000000 1:0.705739 2:-0.214378 3:1.230292 4:2.052376 5:0.936364 6:0.062086 
-1073741824.000000 1:0.705739 2:-0.214378 3:0.153358 4:0.995007 5:-0.180084 6:-0.530094 
-1073741824.000000 1:0.705739 2:-0.507940 3:-0.923576 4:-0.353137 5:-0.857301 6:-0.758169 
-1073741824.000000 1:0.705739 2:-0.801502 3:-0.654343 4:-0.326703 5:-0.962716 6:-0.876008 
-1073741824.000000 1:0.705739 2:-1.095065 3:-0.654343 4:0.730665 5:-0.723135 6:-0.946903 
-1073741824.000000 1:0.705739 2:-0.434549 3:-0.385109 4:0.730665 5:-0.541053 6:-0.778448 
-1073741824.000000 1:-1.414761 2:-1.241846 3:-2.646670 4:-1.119729 5:-1.745348 6:-1.510783 
-1073741824.000000 1:-1.414761 2:-0.801502 3:-1.462043 4:-1.912756 5:-0.467582 6:0.295974 
-1073741824.000000 1:0.705739 2:-0.948284 3:-0.385109 4:0.201981 5:-0.595359 6:-0.668787 
-1073741824.000000 1:0.705739 2:-0.507940 3:-0.385109 4:0.730665 5:0.075469 6:-0.208069 
-1073741824.000000 1:0.705739 2:-0.654721 3:0.691825 4:0.387020 5:0.057900 6:-0.099200 
-1073741824.000000 1:-1.414761 2:0.666309 3:-1.731277 4:-1.648414 5:-1.074521 6:-0.563378 
-1073741824.000000 1:-1.414761 2:0.519528 3:-0.923576 4:-1.119729 5:0.011581 6:0.489660 
-1073741824.000000 1:0.705739 2:0.886481 3:-0.115876 4:1.523691 5:-0.189029 6:-0.698616 
-1073741824.000000 1:-1.414761 2:-2.783048 3:-0.654343 4:-0.855387 5:-0.330222 6:-0.010902 
-1073741824.000000 1:0.705739 2:-1.388627 3:0.691825 4:0.730665 5:0.506715 6:0.190901 
-1073741824.000000 1:-1.414761 2:1.473606 3:-1.462043 4:-1.912756 5:-1.553683 6:-1.065291 
-1073741824.000000 1:0.705739 2:-1.535408 3:-0.654343 4:1.523691 5:-0.646469 6:-1.088202 
-1073741824.000000 1:0.705739 2:-0.507940 3:-0.654343 4:-0.062361 5:-0.962716 6:-0.954006 
-1073741824.000000 1:-1.414761 2:-0.434549 3:0.000000 4:0.000000 5:-1.175145 6:-0.305250 
-1073741824.000000 1:-1.414761 2:-1.975752 3:-1.354350 4:-1.648414 5:-0.946744 6:-0.408354 
-1073741824.000000 1:-1.414761 2:-0.287768 3:-1.731277 4:-0.591045 5:-1.010633 6:-0.845739 
-1073741824.000000 1:0.705739 2:-0.287768 3:-0.385109 4:-0.326703 5:-0.180084 6:-0.062916 
-1073741824.000000 1:0.705739 2:-0.361159 3:-0.115876 4:-0.035927 5:-0.152932 6:-0.147275 
-1073741824.000000 1:0.705739 2:-0.434549 3:0.422591 4:0.466323 5:-0.467582 6:-0.628836 
-1073741824.000000 1:0.705739 2:-0.654721 3:3.922627 4:-0.591045 5:2.966415 6:3.412253 
-1073741824.000000 1:0.705739 2:-0.948284 3:0.422591 4:1.523691 5:0.139357 6:-0.418941 
-1073741824.000000 1:0.705739 2:-0.287768 3:-0.115876 4:0.466323 5:-0.189668 6:-0.364323 
-1073741824.000000 1:0.705739 2:-0.948284 3:0.153358 4:0.704231 5:-0.189668 6:-0.444627 
-1073741824.000000 1:-1.414761 2:-0.874893 3:0.000000 4:-0.326703 5:-0.275917 6:-0.162478 
-1073741824.000000 1:-1.414761 2:-0.361159 3:-1.192810 4:-2.177098 5:-0.962716 6:-0.216274 
-1073741824.000000 1:-1.414761 2:0.446137 3:0.000000 4:-1.119729 5:-0.339805 6:0.089571 
-1073741824.000000 1:-1.414761 2:-1.755580 3:-1.354350 4:0.466323 5:0.490743 6:0.283277 
-1073741824.000000 1:0.705739 2:0.005794 3:-0.331262 4:1.206481 5:-0.365361 6:-0.759087 
-1073741824.000000 1:0.705739 2:-1.241846 3:0.691825 4:1.417955 5:-0.365361 6:-0.819377 
-1073741824.000000 1:0.705739 2:-0.654721 3:0.000000 4:0.995007 5:-0.723135 6:-1.018642 
-1073741824.000000 1:-1.414761 2:-2.195923 3:0.000000 4:0.000000 5:0.000000 6:-0.000000 
-1073741824.000000 1:-1.414761 2:0.959872 3:0.000000 4:-0.591045 5:-1.106465 6:-0.948341 
-1073741824.000000 1:0.705739 2:-0.140987 3:0.153358 4:0.730665 5:-0.371749 6:-0.621816 
-1073741824.000000 1:0.705739 2:-0.801502 3:-0.115876 4:0.466323 5:0.022761 6:-0.162138 
-1073741824.000000 1:0.705739 2:0.446137 3:0.000000 4:0.995007 5:-0.541053 6:-0.854835 
-1073741824.000000 1:0.705739 2:0.666309 3:-0.923576 4:0.466323 5:-1.245422 6:-1.369168 
-1073741824.000000 1:0.705739 2:-1.095065 3:-0.923576 4:-0.326703 5:-0.595359 6:-0.494353 
-1073741824.000000 1:-1.414761 2:-0.361159 3:-0.115876 4:-0.961124 5:-0.189668 6:0.190108 
-1073741824.000000 1:-1.414761 2:0.813090 3:0.153358 4:-1.119729 5:-0.403694 6:0.160970 
-1073741824.000000 1:-1.414761 2:-0.728112 3:-2.538977 4:-0.591045 5:-1.633544 6:-1.512653 
-1073741824.000000 1:-1.414761 2:0.666309 3:-1.354350 4:-1.595545 5:-1.350838 6:-0.915626 
-1073741824.000000 1:-1.414761 2:-0.361159 3:0.153358 4:-1.384072 5:1.747746 6:2.658899 
-1073741824.000000 1:-1.414761 2:-0.728112 3:-1.192810 4:-1.912756 5:-0.515498 6:0.235918 
-1073741824.000000 1:-1.414761 2:0.446137 3:-0.923576 4:-1.648414 5:-0.499526 6:0.134232 
-1073741824.000000 1:-1.414761 2:1.987340 3:-1.462043 4:-0.326703 5:-1.499378 6:-1.433557 
-1073741824.000000 1:0.705739 2:-1.682189 3:-0.115876 4:0.995007 5:-0.180084 6:-0.530094 
-1073741824.000000 1:0.705739 2:0.959872 3:-0.923576 4:-0.326703 5:-1.074521 6:-0.992164 
-1073741824.000000 1:0.705739 2:0.592919 3:1.230292 4:2.052376 5:1.391568 6:0.429632 
-1073741824.000000 1:-1.414761 2:0.886481 3:-1.462043 4:-0.591045 5:-0.547442 6:-0.349828 
-1073741824.000000 1:0.705739 2:1.620387 3:0.153358 4:-0.326703 5:-0.723135 6:-0.627102 
-1073741824.000000 1:0.705739 2:0.152575 3:-0.115876 4:-0.326703 5:-0.595359 6:-0.494353 
-1073741824.000000 1:0.705739 2:1.106653 3:-0.923576 4:1.259349 5:-0.196057 6:-0.626177 
-1073741824.000000 1:0.705739 2:-0.434549 3:0.099511 4:1.735165 5:0.093038 6:-0.524116 
-1073741824.000000 1:-1.414761 2:-0.214378 3:-0.923576 4:-0.326703 5:-0.470776 6:-0.364921 
-1073741824.000000 1:0.705739 2:0.446137 3:-0.385109 4:-0.062361 5:-0.515498 6:-0.502947 
-1073741824.000000 1:0.705739 2:-0.654721 3:-0.115876 4:0.730665 5:-0.576192 6:-0.810957 
-1073741824.000000 1:0.705739 2:-0.728112 3:0.153358 4:-0.062361 5:-0.365361 6:-0.351520 
-1073741824.000000 1:0.705739 2:0.739700 3:0.422591 4:0.466323 5:0.650464 6:0.435295 
-1073741824.000000 1:-1.414761 2:1.400215 3:2.307226 4:-2.177098 5:-0.505915 6:0.375501 
-1073741824.000000 1:-1.414761 2:0.372747 3:0.000000 4:0.000000 5:0.000000 6:-0.000000 
-1073741824.000000 1:0.705739 2:0.666309 3:-0.654343 4:0.466323 5:-0.627303 6:-0.780855 
-1073741824.000000 1:-1.414761 2:-1.975752 3:-2.054357 4:-1.807019 5:-1.421115 6:-0.933531 
-1073741824.000000 1:0.705739 2:0.446137 3:0.691825 4:0.704231 5:0.339008 6:0.045862 
-1073741824.000000 1:0.705739 2:1.253434 3:1.230292 4:2.369586 5:1.394763 6:0.309312 
-1073741824.000000 1:-1.414761 2:-0.361159 3:-0.923576 4:0.000000 5:0.634492 6:1.358307 
-1073741824.000000 1:0.705739 2:-0.874893 3:0.153358 4:0.598494 5:0.444424 6:0.185668 
-1073741824.000000 1:0.705739 2:-0.654721 3:0.000000 4:0.000000 5:0.000000 6:-0.000000 
-1073741824.000000 1:0.705739 2:1.620387 3:0.422591 4:0.201981 5:-0.259945 6:-0.340227 
-1073741824.000000 1:0.705739 2:-2.122533 3:-0.923576 4:-0.855387 5:-1.441879 6:-1.237991 
-1073741824.000000 1:-1.414761 2:0.299356 3:-1.192810 4:-1.119729 5:-1.010633 6:-0.674234 
-1073741824.000000 1:0.705739 2:-0.948284 3:2.037992 4:0.175547 5:-0.277514 6:-0.348170 
-1073741824.000000 1:-1.414761 2:-0.434549 3:-1.462043 4:-0.326703 5:-0.739107 6:-0.643696 
-1073741824.000000 1:0.705739 2:-0.654721 3:-0.115876 4:1.523691 5:-0.419666 6:-0.895041 
-1073741824.000000 1:-1.414761 2:-1.168455 3:-1.569736 4:-0.247401 5:-1.069729 6:-1.015176 
-1073741824.000000 1:0.705739 2:-1.902361 3:0.000000 4:1.259349 5:-0.994661 6:-1.325082 
-1073741824.000000 1:-1.414761 2:-1.975752 3:0.000000 4:-0.855387 5:0.059497 6:0.419284 
-1073741824.000000 1:0.705739 2:-0.140987 3:0.000000 4:1.523691 5:0.000000 6:-0.000000 
-1073741824.000000 1:0.705739 2:-0.728112 3:-0.385109 4:-0.062361 5:-0.857301 6:-0.847685 
-1073741824.000000 1:0.705739 2:0.299356 3:-0.115876 4:0.466323 5:-0.739107 6:-0.887268 
-1073741824.000000 1:-1.414761 2:-0.654721 3:-0.977423 4:-1.648414 5:1.496984 6:-0.474785 
-1073741824.000000 1:-1.414761 2:-1.315236 3:-0.223569 4:-0.855387 5:1.161570 6:1.635794 
-1073741824.000000 1:0.705739 2:0.592919 3:-0.654343 4:0.730665 5:-0.894036 6:-1.105013 
-1073741824.000000 1:-1.414761 2:-0.948284 3:-0.923576 4:-0.855387 5:0.000000 6:0.690765 
-1073741824.000000 1:0.705739 2:-1.021674 3:0.153358 4:1.946639 5:-0.189668 6:-0.818453 
-1073741824.000000 1:-1.414761 2:0.225966 3:0.000000 4:-1.648414 5:-1.074521 6:-0.792662 
-1073741824.000000 1:0.705739 2:-1.755580 3:0.099511 4:0.000000 5:0.000000 6:-0.000000 
-1073741824.000000 1:0.705739 2:-0.287768 3:-0.923576 4:0.704231 5:-0.857301 6:-1.064036 
-1073741824.000000 1:0.705739 2:0.299356 3:-0.255877 4:-0.591045 5:-0.646469 6:-0.455850 
